<?xml version="1.0"?>
<opencv_storage>
<cascade>
  <stageType>BOOST</stageType>
  <featureType>LBP</featureType>
  <height>20</height>
  <width>26</width>
  <stageParams>
    <boostType>GAB</boostType>
    <minHitRate>9.9500000476837158e-01</minHitRate>
    <maxFalseAlarm>4.0000000596046448e-01</maxFalseAlarm>
    <weightTrimRate>9.4999999999999996e-01</weightTrimRate>
    <maxDepth>1</maxDepth>
    <maxWeakCount>100</maxWeakCount></stageParams>
  <featureParams>
    <maxCatCount>256</maxCatCount>
    <featSize>1</featSize></featureParams>
  <stageNum>11</stageNum>
  <stages>
    <!-- stage 0 -->
    <_>
      <maxWeakCount>5</maxWeakCount>
      <stageThreshold>-2.0679819583892822e+00</stageThreshold>
      <weakClassifiers>
        <_>
          <internalNodes>
            0 -1 42 -254216996 -32801 -1078591489 2147424255 -590815748
            -40961 -1075838977 1073692671</internalNodes>
          <leafValues>
            -8.6911207437515259e-01 3.5366657376289368e-01</leafValues></_>
        <_>
          <internalNodes>
            0 -1 82 -716833844 -683280384 1078034594 1933945357
            -791305526 1078263946 1087890671 -1041</internalNodes>
          <leafValues>
            -7.4282270669937134e-01 4.5674830675125122e-01</leafValues></_>
        <_>
          <internalNodes>
            0 -1 116 -8388761 1732505463 -86509872 1886909311 1147618564
            5635683 1918063168 -151521465</internalNodes>
          <leafValues>
            -6.3436663150787354e-01 4.9012643098831177e-01</leafValues></_>
        <_>
          <internalNodes>
            0 -1 33 -771751969 -721371883 664600859 524231439 1073742848
            33758 -793828693 -67109985</internalNodes>
          <leafValues>
            -5.3025048971176147e-01 5.7730400562286377e-01</leafValues></_>
        <_>
          <internalNodes>
            0 -1 48 -1666967332 -646184951 2144827349 1599820853
            -1431654726 -1410667142 -1094910213 -1087834880</internalNodes>
          <leafValues>
            -5.1420873403549194e-01 5.4598522186279297e-01</leafValues></_></weakClassifiers></_>
    <!-- stage 1 -->
    <_>
      <maxWeakCount>7</maxWeakCount>
      <stageThreshold>-1.9853951930999756e+00</stageThreshold>
      <weakClassifiers>
        <_>
          <internalNodes>
            0 -1 9 -716832818 -136970243 -1073935441 -53329 -716898305
            -716112899 -1074810961 -20561</internalNodes>
          <leafValues>
            -7.2824019193649292e-01 3.7827715277671814e-01</leafValues></_>
        <_>
          <internalNodes>
            0 -1 67 -253756694 -211819830 1346666656 1465908047
            1355807722 1380024394 1095367375 1398799327</internalNodes>
          <leafValues>
            -7.4152082204818726e-01 3.6252668499946594e-01</leafValues></_>
        <_>
          <internalNodes>
            0 -1 65 1565326685 1157693260 -1174537217 -1078084673
            1534959097 1594752445 872353195 -1077952517</internalNodes>
          <leafValues>
            -6.2527287006378174e-01 4.3646001815795898e-01</leafValues></_>
        <_>
          <internalNodes>
            0 -1 24 -41959425 -541532674 1073258488 -4653061 1590494716
            262145532 2067471866 -4587525</internalNodes>
          <leafValues>
            -5.0155359506607056e-01 5.2739626169204712e-01</leafValues></_>
        <_>
          <internalNodes>
            0 -1 114 -185 1179111247 -243801488 1901592526 -799027450
            1078918982 1894998016 -218103809</internalNodes>
          <leafValues>
            -4.7166496515274048e-01 5.2848327159881592e-01</leafValues></_>
        <_>
          <internalNodes>
            0 -1 91 -246942769 1464964555 1883507594 1936008075
            -264117526 17105160 1909959343 -202378321</internalNodes>
          <leafValues>
            -4.7114068269729614e-01 5.2728754281997681e-01</leafValues></_>
        <_>
          <internalNodes>
            0 -1 44 510923952 -4361104 -1741094955 2109634545 250388991
            -1342290116 142801914 -1967592452</internalNodes>
          <leafValues>
            -5.3668475151062012e-01 4.2938077449798584e-01</leafValues></_></weakClassifiers></_>
    <!-- stage 2 -->
    <_>
      <maxWeakCount>8</maxWeakCount>
      <stageThreshold>-2.0180094242095947e+00</stageThreshold>
      <weakClassifiers>
        <_>
          <internalNodes>
            0 -1 0 -806359121 -1 -806354945 -1 -805306369 -2049 -1
            -134219809</internalNodes>
          <leafValues>
            -5.9619462490081787e-01 6.1304271221160889e-01</leafValues></_>
        <_>
          <internalNodes>
            0 -1 53 411835645 -578921123 1551783413 1599952209
            -1364541698 -1431683074 -1096089857 -1541716</internalNodes>
          <leafValues>
            -5.3709053993225098e-01 5.5470949411392212e-01</leafValues></_>
        <_>
          <internalNodes>
            0 -1 85 -204477746 -137106674 1073760910 1465352971
            1073865418 1346699264 -522981393 -145227937</internalNodes>
          <leafValues>
            -5.9707176685333252e-01 4.7307279706001282e-01</leafValues></_>
        <_>
          <internalNodes>
            0 -1 64 -68164694 -674236465 -1024200542 -741606401 -2106545
            1124557127 -134220881 -134217729</internalNodes>
          <leafValues>
            -5.0554311275482178e-01 4.9811244010925293e-01</leafValues></_>
        <_>
          <internalNodes>
            0 -1 16 1079500255 -16471121 -239589121 1059007423 340841932
            -544961345 -42526529 -61441</internalNodes>
          <leafValues>
            -4.6105769276618958e-01 5.1993244886398315e-01</leafValues></_>
        <_>
          <internalNodes>
            0 -1 68 -82509833 -721363516 -1732687873 -1621818027
            -1171460097 -15608379 179899375 -59393</internalNodes>
          <leafValues>
            -3.9661347866058350e-01 5.5509072542190552e-01</leafValues></_>
        <_>
          <internalNodes>
            0 -1 111 -202376562 1206906826 1134426512 -527637 1677453303
            1776602791 -204246080 1918367375</internalNodes>
          <leafValues>
            -5.8830416202545166e-01 3.7706550955772400e-01</leafValues></_>
        <_>
          <internalNodes>
            0 -1 30 -1258400688 -33653168 -2073116683 1532975221
            -1700218710 -272998644 212384703 -1968652808</internalNodes>
          <leafValues>
            -5.1074105501174927e-01 4.0898582339286804e-01</leafValues></_></weakClassifiers></_>
    <!-- stage 3 -->
    <_>
      <maxWeakCount>9</maxWeakCount>
      <stageThreshold>-1.8617680072784424e+00</stageThreshold>
      <weakClassifiers>
        <_>
          <internalNodes>
            0 -1 96 -4337 -1 -1 -129 -1 -33554433 -1 -4097</internalNodes>
          <leafValues>
            -5.7353520393371582e-01 5.9441614151000977e-01</leafValues></_>
        <_>
          <internalNodes>
            0 -1 37 -2818084 -35848240 536838015 -8422533 -538968321
            -35849235 201277439 1065303915</internalNodes>
          <leafValues>
            -6.8791556358337402e-01 3.5362708568572998e-01</leafValues></_>
        <_>
          <internalNodes>
            0 -1 34 -235408434 1431684942 557916303 1935663951
            1342230664 -264142336 1077977226 1934617263</internalNodes>
          <leafValues>
            -6.3828009366989136e-01 3.5291308164596558e-01</leafValues></_>
        <_>
          <internalNodes>
            0 -1 14 -285218821 -1968248222 -1024470281 -2106596862
            -1067453373 -1957694621 1417670867 -1034944665</internalNodes>
          <leafValues>
            -4.4954219460487366e-01 4.8244285583496094e-01</leafValues></_>
        <_>
          <internalNodes>
            0 -1 72 -1334 -758318130 552731138 281083583 -722476022
            1074021696 -201329153 1945104383</internalNodes>
          <leafValues>
            -6.4610457420349121e-01 3.4177780151367188e-01</leafValues></_>
        <_>
          <internalNodes>
            0 -1 45 448150751 -637569951 1558140657 -545562763
            -1362428225 -1893049218 -1695401217 -815092311</internalNodes>
          <leafValues>
            -4.2836418747901917e-01 4.6977165341377258e-01</leafValues></_>
        <_>
          <internalNodes>
            0 -1 63 458218367 1359019484 -521608 -72216696 1438667253
            -34537477 -67174193 -33</internalNodes>
          <leafValues>
            -3.8942468166351318e-01 5.0613296031951904e-01</leafValues></_>
        <_>
          <internalNodes>
            0 -1 79 -799698724 274536702 2136470940 2147481311 -2105352
            -1611923522 -268828724 1057336975</internalNodes>
          <leafValues>
            -5.6518805027008057e-01 3.3449921011924744e-01</leafValues></_>
        <_>
          <internalNodes>
            0 -1 18 -134217729 -5579265 -38076998 1604902719 1493046719
            490690042 -1111796487 -1</internalNodes>
          <leafValues>
            -3.5804665088653564e-01 5.2473872900009155e-01</leafValues></_></weakClassifiers></_>
    <!-- stage 4 -->
    <_>
      <maxWeakCount>10</maxWeakCount>
      <stageThreshold>-2.0325713157653809e+00</stageThreshold>
      <weakClassifiers>
        <_>
          <internalNodes>
            0 -1 32 1610571647 -999425 1073655807 -9371649 2147319295
            -984323 -67502081 -655361</internalNodes>
          <leafValues>
            -6.3446271419525146e-01 3.7721517682075500e-01</leafValues></_>
        <_>
          <internalNodes>
            0 -1 84 -136841265 -145232313 1146421418 2002218543
            1884735182 1342480388 -486543697 -2101265</internalNodes>
          <leafValues>
            -4.8830822110176086e-01 4.5547747611999512e-01</leafValues></_>
        <_>
          <internalNodes>
            0 -1 28 -252644099 -8431617 -294913 -1073795505 -532620036
            -69633 -1184169985 -1110017</internalNodes>
          <leafValues>
            -4.6315908432006836e-01 4.5947435498237610e-01</leafValues></_>
        <_>
          <internalNodes>
            0 -1 105 -135266553 -545259657 -145 -16781521 -268435601
            -268438593 -134218241 -252707025</internalNodes>
          <leafValues>
            -3.5671955347061157e-01 5.5635726451873779e-01</leafValues></_>
        <_>
          <internalNodes>
            0 -1 76 -11010217 -805258080 -1078084677 -1078617417
            -1403146563 -2238276 690817967 -4199425</internalNodes>
          <leafValues>
            -3.8638052344322205e-01 5.1249396800994873e-01</leafValues></_>
        <_>
          <internalNodes>
            0 -1 49 -792213753 -1072233197 -1073422333 57347 -1073283069
            -2140782301 -1073487349 -285217245</internalNodes>
          <leafValues>
            -3.9325600862503052e-01 4.7869366407394409e-01</leafValues></_>
        <_>
          <internalNodes>
            0 -1 88 -1 -1107521602 -255236 1069071866 1572083132
            964700918 2105294844 -4653058</internalNodes>
          <leafValues>
            -4.3190884590148926e-01 4.2430686950683594e-01</leafValues></_>
        <_>
          <internalNodes>
            0 -1 106 -221781310 -673710081 902858496 234739854
            -134748434 77892328 -135397440 1129312779</internalNodes>
          <leafValues>
            -5.8065837621688843e-01 3.1268382072448730e-01</leafValues></_>
        <_>
          <internalNodes>
            0 -1 29 -587178796 -585474497 -16847617 926677107 471391418
            -1088463555 385736959 456885432</internalNodes>
          <leafValues>
            -5.4415702819824219e-01 3.2673990726470947e-01</leafValues></_>
        <_>
          <internalNodes>
            0 -1 5 -223676686 -327682 2142814200 -113238876 915617791
            -42246785 1002435071 2145206643</internalNodes>
          <leafValues>
            -5.0376576185226440e-01 3.4565147757530212e-01</leafValues></_></weakClassifiers></_>
    <!-- stage 5 -->
    <_>
      <maxWeakCount>11</maxWeakCount>
      <stageThreshold>-1.4624693393707275e+00</stageThreshold>
      <weakClassifiers>
        <_>
          <internalNodes>
            0 -1 10 -17 -823202226 -151782406 -496835998 1204289519
            -822120593 1475868663 -524289</internalNodes>
          <leafValues>
            -6.3887012004852295e-01 2.9919531941413879e-01</leafValues></_>
        <_>
          <internalNodes>
            0 -1 20 -101655285 -36577797 -574911813 -4198597 -572523173
            1565587967 -541094465 -541389413</internalNodes>
          <leafValues>
            -5.4612791538238525e-01 3.7629890441894531e-01</leafValues></_>
        <_>
          <internalNodes>
            0 -1 62 -1145562819 -58091 -163841 -12632811 -1079443521
            -1073841345 -1611857921 -1087357635</internalNodes>
          <leafValues>
            -3.7085884809494019e-01 5.1783227920532227e-01</leafValues></_>
        <_>
          <internalNodes>
            0 -1 66 -521144509 -1071545088 -532162669 5246468 15008256
            -469252777 75825986 -285214905</internalNodes>
          <leafValues>
            -4.8162296414375305e-01 3.8899737596511841e-01</leafValues></_>
        <_>
          <internalNodes>
            0 -1 41 47356 1598356980 490674363 -2122945 -55788801
            -40583169 1002382335 1073692651</internalNodes>
          <leafValues>
            -6.0405057668685913e-01 3.2918623089790344e-01</leafValues></_>
        <_>
          <internalNodes>
            0 -1 87 -487865853 -533204410 -335580841 1364719415
            -1060648318 -922814569 1078322179 -1069287641</internalNodes>
          <leafValues>
            -5.0650680065155029e-01 3.2052108645439148e-01</leafValues></_>
        <_>
          <internalNodes>
            0 -1 31 2071985944 2145902428 -13779079 -33818536 -12714756
            -50530050 -131074 2090728703</internalNodes>
          <leafValues>
            -4.2844706773757935e-01 3.8039204478263855e-01</leafValues></_>
        <_>
          <internalNodes>
            0 -1 102 -70256434 -607128890 581370376 -226283006
            1678767502 5264704 -218891317 2001205099</internalNodes>
          <leafValues>
            -5.4254126548767090e-01 3.0968585610389709e-01</leafValues></_>
        <_>
          <internalNodes>
            0 -1 46 -1694498788 -1648681444 -1078345985 2134258814
            -80769862 -24144451 -22495745 -1724349252</internalNodes>
          <leafValues>
            -4.6599474549293518e-01 3.4485414624214172e-01</leafValues></_>
        <_>
          <internalNodes>
            0 -1 110 -469762422 1954539086 1929278112 1900406350
            1524592559 1143854541 1926439456 1348468687</internalNodes>
          <leafValues>
            -6.4881777763366699e-01 2.1530568599700928e-01</leafValues></_>
        <_>
          <internalNodes>
            0 -1 55 -75501574 1002161150 -1141171748 859158271
            -1635929096 1027063760 -4334644 -209</internalNodes>
          <leafValues>
            -4.1009089350700378e-01 3.8139140605926514e-01</leafValues></_></weakClassifiers></_>
    <!-- stage 6 -->
    <_>
      <maxWeakCount>12</maxWeakCount>
      <stageThreshold>-1.6701581478118896e+00</stageThreshold>
      <weakClassifiers>
        <_>
          <internalNodes>
            0 -1 113 -1048781 -67108865 -1048577 -67108865 -537920035
            -1050625 -33 -2049</internalNodes>
          <leafValues>
            -5.4239779710769653e-01 4.8406448960304260e-01</leafValues></_>
        <_>
          <internalNodes>
            0 -1 17 -33751041 -50298610 -33750881 320538635 1414583692
            -41903297 -1326120273 -17409</internalNodes>
          <leafValues>
            -5.0266563892364502e-01 3.7489336729049683e-01</leafValues></_>
        <_>
          <internalNodes>
            0 -1 43 -1289612289 -4193468 893351935 -4172459 -1415398469
            -1922168 715292671 -70002739</internalNodes>
          <leafValues>
            -4.0013691782951355e-01 4.5809662342071533e-01</leafValues></_>
        <_>
          <internalNodes>
            0 -1 4 -286331138 -143626 -269816065 -810897678 1609844725
            -569935 2146959359 -9208845</internalNodes>
          <leafValues>
            -4.6132102608680725e-01 3.8311174511909485e-01</leafValues></_>
        <_>
          <internalNodes>
            0 -1 69 -253238546 1474034222 41602 1468003055 1352137706
            1349775018 1358405614 1398276079</internalNodes>
          <leafValues>
            -6.5118139982223511e-01 3.0570709705352783e-01</leafValues></_>
        <_>
          <internalNodes>
            0 -1 52 -496246270 -125577598 -427952565 -208837046
            -487595805 -655363538 -209719601 1112003335</internalNodes>
          <leafValues>
            -5.6630867719650269e-01 2.3608025908470154e-01</leafValues></_>
        <_>
          <internalNodes>
            0 -1 60 867962269 -61959 536485821 1602183124 -1415782662
            -1073807364 1054932987 -1612157444</internalNodes>
          <leafValues>
            -3.7747707962989807e-01 4.0125042200088501e-01</leafValues></_>
        <_>
          <internalNodes>
            0 -1 98 -1025 -1620262978 1601572668 -1076314196 -1115934212
            1020820988 2013011452 -1556482</internalNodes>
          <leafValues>
            -4.2169761657714844e-01 3.8097223639488220e-01</leafValues></_>
        <_>
          <internalNodes>
            0 -1 90 -93327605 -1962738925 -533274599 -1474125134
            1213579732 134618353 1348403273 -591468997</internalNodes>
          <leafValues>
            -4.1495397686958313e-01 3.8453477621078491e-01</leafValues></_>
        <_>
          <internalNodes>
            0 -1 57 -1418786134 -1009795097 -496569312 1139801855
            601882051 89093955 -403179599 1742732287</internalNodes>
          <leafValues>
            -6.2583124637603760e-01 2.4212770164012909e-01</leafValues></_>
        <_>
          <internalNodes>
            0 -1 27 -135299081 -83348107 -16886017 1073684542 335597224
            -65235462 -563864069 -76629505</internalNodes>
          <leafValues>
            -3.3473438024520874e-01 4.4856593012809753e-01</leafValues></_>
        <_>
          <internalNodes>
            0 -1 51 -168953340 -724763172 -168296523 -2097189 -205537493
            -1661096009 1072577339 736606911</internalNodes>
          <leafValues>
            -6.2616115808486938e-01 2.5048670172691345e-01</leafValues></_></weakClassifiers></_>
    <!-- stage 7 -->
    <_>
      <maxWeakCount>13</maxWeakCount>
      <stageThreshold>-1.4383312463760376e+00</stageThreshold>
      <weakClassifiers>
        <_>
          <internalNodes>
            0 -1 1 -269488145 -268435473 -1 -1 -536872961 -134219785
            -134219777 -134217729</internalNodes>
          <leafValues>
            -5.8690589666366577e-01 3.2649332284927368e-01</leafValues></_>
        <_>
          <internalNodes>
            0 -1 47 1023149304 -51216 1047592957 -188431 452771839
            -1140869124 176226303 -1436484100</internalNodes>
          <leafValues>
            -6.0342055559158325e-01 2.7586194872856140e-01</leafValues></_>
        <_>
          <internalNodes>
            0 -1 13 -1 -1073762577 -1602059680 1063985771 -733622787
            -11187123 -153747496 -524289</internalNodes>
          <leafValues>
            -3.6587178707122803e-01 4.7268310189247131e-01</leafValues></_>
        <_>
          <internalNodes>
            0 -1 115 -241 608692047 -121639948 1886910303 -4210
            -1204814033 -218111328 -251658257</internalNodes>
          <leafValues>
            -3.7408286333084106e-01 4.2351597547531128e-01</leafValues></_>
        <_>
          <internalNodes>
            0 -1 77 2013246462 465108982 -1073996548 -38744852
            1933513980 1022918397 2119948541 2111700223</internalNodes>
          <leafValues>
            -5.1912361383438110e-01 3.2431542873382568e-01</leafValues></_>
        <_>
          <internalNodes>
            0 -1 54 -10487158 -540152050 807280640 -248514737 -9444928
            25413 -218107158 1406007295</internalNodes>
          <leafValues>
            -5.7166749238967896e-01 2.3997944593429565e-01</leafValues></_>
        <_>
          <internalNodes>
            0 -1 61 -16385 -1073987786 -1342952452 -1074503714
            -134395652 265567733 1599873020 -1079313409</internalNodes>
          <leafValues>
            -3.4929746389389038e-01 4.1381546854972839e-01</leafValues></_>
        <_>
          <internalNodes>
            0 -1 99 -756555261 -805112317 1610900531 -1308614649
            -1002438647 -1475059882 -1060830707 -353377225</internalNodes>
          <leafValues>
            -4.0607494115829468e-01 3.6084550619125366e-01</leafValues></_>
        <_>
          <internalNodes>
            0 -1 21 289628240 1073035706 1389714940 -2621441 -1080099588
            -1074124280 -2621444 252184718</internalNodes>
          <leafValues>
            -5.9757328033447266e-01 2.4055908620357513e-01</leafValues></_>
        <_>
          <internalNodes>
            0 -1 23 1327218238 -4465285 -1212541768 -5720591 1607519485
            1594940668 -1728720643 -13574663</internalNodes>
          <leafValues>
            -4.6721315383911133e-01 2.7235877513885498e-01</leafValues></_>
        <_>
          <internalNodes>
            0 -1 40 -1634205544 -4582136 221191229 1596681497
            -1399180230 -1088940760 472952255 503452973</internalNodes>
          <leafValues>
            -4.9708122014999390e-01 2.7523276209831238e-01</leafValues></_>
        <_>
          <internalNodes>
            0 -1 2 -84410497 -3473842 -25297194 -151587198 1417674580
            1869905791 1415474509 -67635345</internalNodes>
          <leafValues>
            -3.1490898132324219e-01 4.4085967540740967e-01</leafValues></_>
        <_>
          <internalNodes>
            0 -1 59 1098909146 397500338 -4546573 433774583 -840606513
            -1887479313 1610587634 1538952616</internalNodes>
          <leafValues>
            -5.1660120487213135e-01 2.7232807874679565e-01</leafValues></_></weakClassifiers></_>
    <!-- stage 8 -->
    <_>
      <maxWeakCount>13</maxWeakCount>
      <stageThreshold>-1.5198435783386230e+00</stageThreshold>
      <weakClassifiers>
        <_>
          <internalNodes>
            0 -1 8 -294656217 -1097 -1310721 -8388609 -1 -16779277
            -16777217 -150997833</internalNodes>
          <leafValues>
            -5.9777808189392090e-01 2.3976172506809235e-01</leafValues></_>
        <_>
          <internalNodes>
            0 -1 94 -608313345 285277952 1069537787 288472533
            -1964119041 -541343747 738147259 -1141129733</internalNodes>
          <leafValues>
            -4.0023538470268250e-01 3.8681635260581970e-01</leafValues></_>
        <_>
          <internalNodes>
            0 -1 93 -83890585 -1340055034 -201599659 577136391
            1078355462 -932819179 1145373734 -352323713</internalNodes>
          <leafValues>
            -4.5053353905677795e-01 3.4421542286872864e-01</leafValues></_>
        <_>
          <internalNodes>
            0 -1 3 -9633810 -73730 -2013458561 -1085338817 -2819585
            -720905 2147379199 1002389483</internalNodes>
          <leafValues>
            -5.7324665784835815e-01 2.6618805527687073e-01</leafValues></_>
        <_>
          <internalNodes>
            0 -1 15 1600083423 487653055 991111608 992680859 1576883420
            -1660303175 -18248 -1048577</internalNodes>
          <leafValues>
            -3.7503609061241150e-01 3.8069504499435425e-01</leafValues></_>
        <_>
          <internalNodes>
            0 -1 70 -1146217318 -604104321 1056927743 2038378865
            -1666654978 -571580420 -1564929 -571979787</internalNodes>
          <leafValues>
            -4.6694636344909668e-01 2.9791110754013062e-01</leafValues></_>
        <_>
          <internalNodes>
            0 -1 58 -962072062 -1073716222 -725219883 -976751805
            1613670319 -1002305785 1078919975 -1052252825</internalNodes>
          <leafValues>
            -4.6829167008399963e-01 3.2995322346687317e-01</leafValues></_>
        <_>
          <internalNodes>
            0 -1 74 2012705538 -823132177 1723744258 -758972417
            1542455115 1145818949 -201853373 1468006399</internalNodes>
          <leafValues>
            -5.8141231536865234e-01 2.4159295856952667e-01</leafValues></_>
        <_>
          <internalNodes>
            0 -1 117 -268435649 578744191 -16777226 1895563135
            1735384590 136183807 1928820262 -251658529</internalNodes>
          <leafValues>
            -4.0202838182449341e-01 3.3342969417572021e-01</leafValues></_>
        <_>
          <internalNodes>
            0 -1 104 -773850642 -170460222 1417018304 1363398858
            1926474667 -646600000 1407575821 -2098486</internalNodes>
          <leafValues>
            -3.9616432785987854e-01 3.2549691200256348e-01</leafValues></_>
        <_>
          <internalNodes>
            0 -1 7 -136946498 -172715402 803081886 -1123353894
            2118397100 1059068383 2030204859 2130771583</internalNodes>
          <leafValues>
            -4.9319827556610107e-01 2.7580741047859192e-01</leafValues></_>
        <_>
          <internalNodes>
            0 -1 80 -1058577661 -17596629 -201326625 -570558937
            -84967681 -33565713 -949000465 -2146491901</internalNodes>
          <leafValues>
            -3.7407547235488892e-01 3.4673020243644714e-01</leafValues></_>
        <_>
          <internalNodes>
            0 -1 100 -1058053630 -261101790 -2098870458 -1064638653
            -957660457 -1494255854 -532154385 1073996546</internalNodes>
          <leafValues>
            -5.8844155073165894e-01 2.2987613081932068e-01</leafValues></_></weakClassifiers></_>
    <!-- stage 9 -->
    <_>
      <maxWeakCount>14</maxWeakCount>
      <stageThreshold>-1.4696395397186279e+00</stageThreshold>
      <weakClassifiers>
        <_>
          <internalNodes>
            0 -1 108 -1 1442315263 -2099237 -33 -1 -538181633 -3134
            -67108865</internalNodes>
          <leafValues>
            -5.1043117046356201e-01 4.3283581733703613e-01</leafValues></_>
        <_>
          <internalNodes>
            0 -1 101 1368890879 1431631836 -180225 1073610751 -2113601
            -1613971522 2074847914 -71713878</internalNodes>
          <leafValues>
            -3.2334691286087036e-01 5.0391578674316406e-01</leafValues></_>
        <_>
          <internalNodes>
            0 -1 35 -2105889 -37712640 -1849307107 2136932619 -805244928
            -2002246725 137953931 -3109</internalNodes>
          <leafValues>
            -4.0434110164642334e-01 3.4058803319931030e-01</leafValues></_>
        <_>
          <internalNodes>
            0 -1 78 -368317917 -83888345 -483655873 -525340121
            -1072971225 -90181018 1108341351 -535857405</internalNodes>
          <leafValues>
            -3.7010639905929565e-01 3.5870000720024109e-01</leafValues></_>
        <_>
          <internalNodes>
            0 -1 75 1510735711 -754934339 -1076184389 -1145521217
            -48393735 -4350791 1039990971 -67108865</internalNodes>
          <leafValues>
            -3.1842151284217834e-01 3.9480021595954895e-01</leafValues></_>
        <_>
          <internalNodes>
            0 -1 50 -750272445 -1876777182 -1342158285 -1414879711
            -1060814651 -2147154513 -1068544924 -271856093</internalNodes>
          <leafValues>
            -3.4971266984939575e-01 3.6497658491134644e-01</leafValues></_>
        <_>
          <internalNodes>
            0 -1 36 -262079248 -92453125 -637960321 1073356927
            -1599552260 -1075126787 -1125450241 250486782</internalNodes>
          <leafValues>
            -7.0123988389968872e-01 1.7194725573062897e-01</leafValues></_>
        <_>
          <internalNodes>
            0 -1 6 -1 -98561 -1074233348 -609026166 1987870587
            1561087487 -33558597 -262145</internalNodes>
          <leafValues>
            -2.8070494532585144e-01 4.7655779123306274e-01</leafValues></_>
        <_>
          <internalNodes>
            0 -1 95 1080509959 -201328801 -143130625 -1051681
            -1090521201 -536936449 -151028145 -530119162</internalNodes>
          <leafValues>
            -3.3587142825126648e-01 3.6824670433998108e-01</leafValues></_>
        <_>
          <internalNodes>
            0 -1 109 -2058 1317335278 -1349516288 260898794 -1199884
            3425520 1568478580 1609564159</internalNodes>
          <leafValues>
            -4.4494810700416565e-01 2.6747503876686096e-01</leafValues></_>
        <_>
          <internalNodes>
            0 -1 38 -2220909 -1680126095 -1091936303 -1622180047
            -1427182213 -902407843 -1695745089 -1953825829</internalNodes>
          <leafValues>
            -3.4369963407516479e-01 3.4426596760749817e-01</leafValues></_>
        <_>
          <internalNodes>
            0 -1 103 -353374430 -1342218245 -659779976 -1430257961
            -1824522412 471689439 2146924516 1702884935</internalNodes>
          <leafValues>
            -6.0727030038833618e-01 2.1890275180339813e-01</leafValues></_>
        <_>
          <internalNodes>
            0 -1 92 -10255229 -1440563238 1433808912 -1986924870 6786288
            204036710 1434403009 1442836175</internalNodes>
          <leafValues>
            -4.7262734174728394e-01 2.4274314939975739e-01</leafValues></_>
        <_>
          <internalNodes>
            0 -1 12 -856759089 -4183289 -1427493897 804924095 1275366868
            -19543227 1750928125 -71305217</internalNodes>
          <leafValues>
            -4.1547048091888428e-01 2.9705354571342468e-01</leafValues></_></weakClassifiers></_>
    <!-- stage 10 -->
    <_>
      <maxWeakCount>16</maxWeakCount>
      <stageThreshold>-1.8457477092742920e+00</stageThreshold>
      <weakClassifiers>
        <_>
          <internalNodes>
            0 -1 56 -4522753 -41605 -574759425 -8430209 -1615135490
            -4260609 -1614872577 -12919297</internalNodes>
          <leafValues>
            -5.0633472204208374e-01 4.2206233739852905e-01</leafValues></_>
        <_>
          <internalNodes>
            0 -1 107 -84 3407775 -262224 -33554433 -68161617 -1983905793
            -1077948512 -1191182401</internalNodes>
          <leafValues>
            -4.3079334497451782e-01 3.1447365880012512e-01</leafValues></_>
        <_>
          <internalNodes>
            0 -1 26 1366815487 2004870959 1919408119 926773039
            -792269106 -1326956472 1943508622 -11547702</internalNodes>
          <leafValues>
            -2.7935019135475159e-01 4.4050261378288269e-01</leafValues></_>
        <_>
          <internalNodes>
            0 -1 11 -12570 -5509122 1321389248 -436011030 -45569
            121062639 1610569159 1467482095</internalNodes>
          <leafValues>
            -5.2531689405441284e-01 2.3468245565891266e-01</leafValues></_>
        <_>
          <internalNodes>
            0 -1 39 -1361559842 -570466723 -759999535 -536905899
            -1899040790 -269589634 -697149593 -9951884</internalNodes>
          <leafValues>
            -4.4584929943084717e-01 2.8262120485305786e-01</leafValues></_>
        <_>
          <internalNodes>
            0 -1 81 2002762491 -213386518 -447642904 -211553558
            -673196834 -635796786 -203439409 -548405281</internalNodes>
          <leafValues>
            -3.2027751207351685e-01 3.8262790441513062e-01</leafValues></_>
        <_>
          <internalNodes>
            0 -1 89 -204473397 1397095885 -1249599061 1932784043
            1431302095 -1593564376 -203447601 -71306257</internalNodes>
          <leafValues>
            -2.7703097462654114e-01 4.1226035356521606e-01</leafValues></_>
        <_>
          <internalNodes>
            0 -1 73 -32769 1073004510 -1384371396 -1078445154 1610167805
            1029709820 2113675229 -1146175489</internalNodes>
          <leafValues>
            -3.4147539734840393e-01 3.3484375476837158e-01</leafValues></_>
        <_>
          <internalNodes>
            0 -1 25 -1410352638 -1621648641 -1296974824 -1157644577
            -42075304 436853245 -604444332 1350424029</internalNodes>
          <leafValues>
            -6.1336654424667358e-01 1.9177326560020447e-01</leafValues></_>
        <_>
          <internalNodes>
            0 -1 97 1398275018 1359393294 300841695 1908734660 844103374
            1902043336 1929378539 1380970702</internalNodes>
          <leafValues>
            -5.0377273559570312e-01 2.1900989115238190e-01</leafValues></_>
        <_>
          <internalNodes>
            0 -1 71 -16779537 1085008066 1078610504 -235674929
            -547169329 5490498 -99811329 -67110913</internalNodes>
          <leafValues>
            -3.3909291028976440e-01 3.2559150457382202e-01</leafValues></_>
        <_>
          <internalNodes>
            0 -1 22 1431630844 -11189255 1069419199 1604260395 -2310145
            -69684643 1068141307 931865323</internalNodes>
          <leafValues>
            -4.3384096026420593e-01 2.5629186630249023e-01</leafValues></_>
        <_>
          <internalNodes>
            0 -1 19 -355472829 1274002314 -697588939 -210530142
            -973211065 -335554709 -992610305 -229641917</internalNodes>
          <leafValues>
            -2.9149103164672852e-01 3.7899991869926453e-01</leafValues></_>
        <_>
          <internalNodes>
            0 -1 86 -1967530567 1477500277 -1347026951 -1760414219
            196664829 532093433 230370235 -1145357927</internalNodes>
          <leafValues>
            -3.9609163999557495e-01 2.9360631108283997e-01</leafValues></_>
        <_>
          <internalNodes>
            0 -1 83 -491789769 -1303280573 20173941 1450519335
            -1073369353 -1970801974 1621139649 -123472377</internalNodes>
          <leafValues>
            -3.2990998029708862e-01 3.3326345682144165e-01</leafValues></_>
        <_>
          <internalNodes>
            0 -1 112 -354423017 -152061321 -277876897 -654901705
            -84451489 -588384394 1609562111 -395876573</internalNodes>
          <leafValues>
            -3.0156701803207397e-01 3.7672653794288635e-01</leafValues></_></weakClassifiers></_></stages>
  <features>
    <_>
      <rect>
        0 0 3 3</rect></_>
    <_>
      <rect>
        0 2 3 2</rect></_>
    <_>
      <rect>
        0 5 2 5</rect></_>
    <_>
      <rect>
        0 7 8 2</rect></_>
    <_>
      <rect>
        0 8 4 1</rect></_>
    <_>
      <rect>
        0 8 4 4</rect></_>
    <_>
      <rect>
        0 11 3 3</rect></_>
    <_>
      <rect>
        0 14 7 2</rect></_>
    <_>
      <rect>
        1 0 3 3</rect></_>
    <_>
      <rect>
        1 2 8 5</rect></_>
    <_>
      <rect>
        1 4 2 4</rect></_>
    <_>
      <rect>
        1 5 4 2</rect></_>
    <_>
      <rect>
        2 4 4 4</rect></_>
    <_>
      <rect>
        2 5 3 3</rect></_>
    <_>
      <rect>
        2 6 1 3</rect></_>
    <_>
      <rect>
        3 2 4 4</rect></_>
    <_>
      <rect>
        3 3 4 4</rect></_>
    <_>
      <rect>
        3 3 4 5</rect></_>
    <_>
      <rect>
        3 5 4 2</rect></_>
    <_>
      <rect>
        3 6 1 3</rect></_>
    <_>
      <rect>
        3 6 7 2</rect></_>
    <_>
      <rect>
        3 7 7 4</rect></_>
    <_>
      <rect>
        4 0 6 6</rect></_>
    <_>
      <rect>
        4 3 6 3</rect></_>
    <_>
      <rect>
        4 5 4 2</rect></_>
    <_>
      <rect>
        4 5 7 2</rect></_>
    <_>
      <rect>
        4 7 2 3</rect></_>
    <_>
      <rect>
        4 7 3 2</rect></_>
    <_>
      <rect>
        4 7 4 2</rect></_>
    <_>
      <rect>
        4 8 5 1</rect></_>
    <_>
      <rect>
        4 9 5 1</rect></_>
    <_>
      <rect>
        5 0 7 4</rect></_>
    <_>
      <rect>
        5 2 4 3</rect></_>
    <_>
      <rect>
        5 4 3 4</rect></_>
    <_>
      <rect>
        5 5 2 4</rect></_>
    <_>
      <rect>
        5 5 3 4</rect></_>
    <_>
      <rect>
        5 7 4 2</rect></_>
    <_>
      <rect>
        5 7 6 2</rect></_>
    <_>
      <rect>
        5 9 5 1</rect></_>
    <_>
      <rect>
        5 9 6 1</rect></_>
    <_>
      <rect>
        5 16 4 1</rect></_>
    <_>
      <rect>
        6 3 5 4</rect></_>
    <_>
      <rect>
        6 7 4 2</rect></_>
    <_>
      <rect>
        6 8 5 2</rect></_>
    <_>
      <rect>
        6 9 4 1</rect></_>
    <_>
      <rect>
        6 9 5 1</rect></_>
    <_>
      <rect>
        7 8 3 1</rect></_>
    <_>
      <rect>
        7 9 3 1</rect></_>
    <_>
      <rect>
        7 9 5 1</rect></_>
    <_>
      <rect>
        8 4 1 4</rect></_>
    <_>
      <rect>
        8 5 1 3</rect></_>
    <_>
      <rect>
        8 5 6 3</rect></_>
    <_>
      <rect>
        8 9 1 2</rect></_>
    <_>
      <rect>
        8 9 4 1</rect></_>
    <_>
      <rect>
        8 11 2 2</rect></_>
    <_>
      <rect>
        8 11 6 3</rect></_>
    <_>
      <rect>
        8 16 4 1</rect></_>
    <_>
      <rect>
        9 3 2 2</rect></_>
    <_>
      <rect>
        9 8 1 2</rect></_>
    <_>
      <rect>
        9 8 4 1</rect></_>
    <_>
      <rect>
        9 9 3 1</rect></_>
    <_>
      <rect>
        9 14 1 2</rect></_>
    <_>
      <rect>
        9 17 3 1</rect></_>
    <_>
      <rect>
        10 2 4 4</rect></_>
    <_>
      <rect>
        10 3 2 2</rect></_>
    <_>
      <rect>
        10 5 4 3</rect></_>
    <_>
      <rect>
        10 6 1 3</rect></_>
    <_>
      <rect>
        10 6 2 4</rect></_>
    <_>
      <rect>
        10 6 4 3</rect></_>
    <_>
      <rect>
        10 8 2 2</rect></_>
    <_>
      <rect>
        10 9 3 1</rect></_>
    <_>
      <rect>
        10 11 2 1</rect></_>
    <_>
      <rect>
        10 11 2 2</rect></_>
    <_>
      <rect>
        10 14 1 2</rect></_>
    <_>
      <rect>
        11 3 2 2</rect></_>
    <_>
      <rect>
        11 3 4 4</rect></_>
    <_>
      <rect>
        11 4 4 4</rect></_>
    <_>
      <rect>
        11 5 3 2</rect></_>
    <_>
      <rect>
        11 8 1 2</rect></_>
    <_>
      <rect>
        11 8 5 4</rect></_>
    <_>
      <rect>
        12 0 1 2</rect></_>
    <_>
      <rect>
        12 2 2 4</rect></_>
    <_>
      <rect>
        12 2 2 6</rect></_>
    <_>
      <rect>
        12 6 1 3</rect></_>
    <_>
      <rect>
        12 6 2 3</rect></_>
    <_>
      <rect>
        12 7 2 3</rect></_>
    <_>
      <rect>
        12 7 3 2</rect></_>
    <_>
      <rect>
        12 8 1 2</rect></_>
    <_>
      <rect>
        12 14 1 2</rect></_>
    <_>
      <rect>
        13 4 2 4</rect></_>
    <_>
      <rect>
        13 5 1 3</rect></_>
    <_>
      <rect>
        13 5 2 4</rect></_>
    <_>
      <rect>
        13 6 1 2</rect></_>
    <_>
      <rect>
        13 6 1 3</rect></_>
    <_>
      <rect>
        13 7 3 2</rect></_>
    <_>
      <rect>
        14 0 1 2</rect></_>
    <_>
      <rect>
        14 1 4 3</rect></_>
    <_>
      <rect>
        14 8 2 3</rect></_>
    <_>
      <rect>
        14 14 1 2</rect></_>
    <_>
      <rect>
        15 6 1 3</rect></_>
    <_>
      <rect>
        15 9 1 2</rect></_>
    <_>
      <rect>
        15 9 2 1</rect></_>
    <_>
      <rect>
        15 11 2 2</rect></_>
    <_>
      <rect>
        16 2 3 3</rect></_>
    <_>
      <rect>
        16 6 2 4</rect></_>
    <_>
      <rect>
        17 0 3 3</rect></_>
    <_>
      <rect>
        17 9 2 3</rect></_>
    <_>
      <rect>
        17 9 3 1</rect></_>
    <_>
      <rect>
        17 10 3 2</rect></_>
    <_>
      <rect>
        17 13 1 2</rect></_>
    <_>
      <rect>
        18 7 2 3</rect></_>
    <_>
      <rect>
        18 8 2 3</rect></_>
    <_>
      <rect>
        19 0 2 3</rect></_>
    <_>
      <rect>
        19 2 2 3</rect></_>
    <_>
      <rect>
        19 5 2 4</rect></_>
    <_>
      <rect>
        19 6 2 3</rect></_>
    <_>
      <rect>
        20 5 2 4</rect></_>
    <_>
      <rect>
        20 6 2 3</rect></_></features></cascade>
</opencv_storage>
