<?xml version="1.0"?>
<opencv_storage>
<opencv_ml_lr>
  <format>3</format>
  <classifier>"Logisitic Regression Classifier"</classifier>
  <alpha>1.0000000000000000e-003</alpha>
  <iterations>1000</iterations>
  <norm>1</norm>
  <train_method>0</train_method>
  <learnt_thetas type_id="opencv-matrix">
    <rows>23</rows>
    <cols>785</cols>
    <dt>f</dt>
    <data>
      -7.87768997e-008 -1.78577466e-005 -1.86562665e-005
      -2.13049607e-005 -1.73369535e-005 -2.00757240e-005
      -1.88834383e-005 -1.89577931e-005 -1.79484250e-005
      -1.96048168e-005 -1.75376026e-005 -2.17481302e-005
      -2.16949138e-005 -1.92894895e-005 -1.60000327e-005
      -2.48409724e-005 -1.86696216e-005 -1.65675465e-005
      -2.62454632e-005 -1.67091021e-005 -2.15508062e-005
      -2.19232952e-005 -1.80965999e-005 -2.06949262e-005
      -2.00899758e-005 -2.00881077e-005 -2.00881077e-005
      -2.00881077e-005 -2.00881077e-005 -2.16831340e-005
      -1.78432947e-005 -1.59273532e-005 -1.96427845e-005
      -1.84078253e-005 5.03478877e-005 9.65481886e-005 2.60893197e-004
      -1.19119475e-004 -1.92079078e-005 5.36158623e-005 2.33028532e-005
      -4.09528075e-005 -5.85246707e-005 -6.21129147e-005
      -3.82320832e-005 -3.21658335e-005 -4.93194193e-006
      -9.36042397e-006 2.01195333e-004 3.86439700e-004 1.05555351e-004
      -1.01365222e-005 -1.92570478e-005 -2.00881077e-005
      -2.00881077e-005 -2.00881077e-005 -2.00881077e-005
      -2.00503255e-005 -1.66115587e-005 -2.22528306e-005
      -2.06467321e-005 -1.80562456e-005 5.65105947e-005 9.29158268e-005
      2.63981841e-004 -1.12295507e-004 -5.46124211e-005 -1.53556539e-005
      -6.88512009e-005 -1.46492937e-004 -1.57157847e-004
      -1.22111887e-004 -8.68522256e-005 -3.89658053e-005
      -1.74522320e-005 -4.41472584e-005 1.97862813e-004 3.48051661e-004
      9.38594021e-005 4.39005163e-007 -1.89395960e-005 -2.00881077e-005
      -2.00881077e-005 -2.00881077e-005 -2.00881077e-005
      -1.75399782e-005 -1.58396542e-005 -1.71859356e-005
      -2.23505904e-005 -1.85413664e-005 5.61050110e-005 1.05733561e-004
      2.75677274e-004 -9.63974308e-005 -4.75730849e-005 -1.06672551e-005
      -5.39033026e-005 -1.11058267e-004 -1.33122929e-004
      -1.06462641e-004 -8.17288746e-005 -9.34198579e-006 3.05495741e-005
      1.43874395e-005 2.35282554e-004 3.39836028e-004 7.78877002e-005
      2.42079932e-006 -2.13568710e-005 -2.00881077e-005 -2.00881077e-005
      -2.00881077e-005 -2.00881077e-005 -1.99394508e-005
      -1.99625792e-005 -1.63274035e-005 -1.96913006e-005
      -1.48271110e-005 5.65470327e-005 9.28840091e-005 2.77365034e-004
      -7.50559484e-005 7.49724859e-006 8.38391425e-005 8.20478235e-005
      7.90028992e-007 -9.79684846e-005 -1.41272365e-004 -1.36868883e-004
      -4.06136787e-005 8.23180453e-005 7.63068529e-005 2.51374411e-004
      3.00163782e-004 5.57482017e-005 1.14939248e-005 -1.96150486e-005
      -2.00881077e-005 -2.00881077e-005 -2.00881077e-005
      -2.00881077e-005 -1.81402793e-005 -1.54137797e-005
      -1.89163711e-005 -1.72256732e-005 -1.78634200e-005 5.71792916e-005
      7.48870298e-005 2.46049342e-004 -4.22560079e-005 6.83053950e-005
      1.57356757e-004 1.67728271e-004 3.43451575e-005 -9.77100935e-005
      -1.98289839e-004 -2.26523858e-004 -1.24701925e-004 3.90340319e-005
      6.93970142e-005 1.85419907e-004 2.24649819e-004 3.86400898e-005
      5.44521345e-006 -2.03848613e-005 -2.00881077e-005 -2.00881077e-005
      -2.00881077e-005 -2.00881077e-005 -1.87124788e-005
      -1.96257988e-005 -1.80552961e-005 -2.05523629e-005
      -1.94958648e-005 5.41478694e-005 6.41161459e-005 2.04674507e-004
      -1.27570447e-005 8.99232182e-005 1.49770698e-004 1.41984405e-004
      7.14118187e-006 -7.74947475e-005 -1.90365070e-004 -2.61555455e-004
      -2.08183104e-004 -2.14390748e-005 -2.50527364e-006 1.13118214e-004
      1.56379829e-004 2.26300326e-005 1.25819810e-007 -1.81913765e-005
      -2.00881077e-005 -2.00881077e-005 -2.00881077e-005
      -2.00881077e-005 -1.81511605e-005 -1.82751683e-005
      -2.15870605e-005 -1.70461808e-005 -2.04281532e-005 4.14416354e-005
      2.08962429e-005 1.16790834e-004 -5.91861171e-005 1.80363731e-005
      4.08722881e-005 1.81344676e-005 -3.13222517e-005 1.22266002e-008
      -8.41793080e-005 -2.22310249e-004 -2.35784333e-004
      -1.31996276e-004 -1.02787082e-004 1.05759755e-005 1.10777924e-004
      2.13156090e-006 -1.36273293e-005 -2.04952375e-005 -2.00881077e-005
      -2.00881077e-005 -2.00881077e-005 -2.00881077e-005
      -1.90402079e-005 -1.93057276e-005 -1.86306061e-005
      -2.01333241e-005 -1.87498754e-005 2.92107597e-005 -8.08128061e-006
      2.74263130e-005 -1.42352728e-004 -1.16151161e-004 -1.05952859e-004
      -1.18513970e-004 -9.12968389e-005 3.56786113e-005 -1.21205403e-005
      -2.04455049e-004 -3.15366284e-004 -2.40893074e-004
      -2.01577583e-004 -3.98063275e-005 7.11963585e-005 -1.72133659e-005
      -1.76997710e-005 -1.94926597e-005 -2.00881077e-005
      -2.00881077e-005 -2.00881077e-005 -2.00881077e-005
      -1.77617585e-005 -2.02941592e-005 -1.94761142e-005
      -1.91173567e-005 -1.80719744e-005 2.78194402e-005 -3.66884342e-005
      -1.71127613e-005 -2.01178991e-004 -2.11275605e-004
      -2.16644708e-004 -2.05272634e-004 -5.48006828e-005 1.83629701e-004
      1.51758664e-004 -1.05358515e-004 -3.24960391e-004 -3.25550296e-004
      -2.88519164e-004 -8.16549946e-005 3.93849332e-005 -2.30762835e-005
      -1.75145160e-005 -1.85510726e-005 -2.00881077e-005
      -2.00881077e-005 -2.00881077e-005 -2.00881077e-005
      -1.93491105e-005 -1.98174766e-005 -1.81956220e-005
      -1.92697044e-005 -1.81770192e-005 3.24863177e-005 -5.36275584e-005
      -4.61922755e-005 -2.35860207e-004 -2.85901129e-004
      -2.83439498e-004 -1.85438854e-004 1.29262742e-004 4.72980493e-004
      4.59547038e-004 1.31507812e-004 -1.93174521e-004 -3.25608969e-004
      -3.50923394e-004 -1.27424399e-004 4.21625964e-006 -3.28200258e-005
      -1.89159655e-005 -1.81350606e-005 -2.00881077e-005
      -2.00881077e-005 -2.00881077e-005 -2.00881077e-005
      -1.98281414e-005 -1.88997292e-005 -1.87923051e-005
      -2.05626548e-005 -1.90729279e-005 3.87823202e-005 -5.34398532e-005
      -5.43166534e-005 -2.48470227e-004 -3.29390925e-004
      -3.03669425e-004 -9.21289611e-005 3.72273556e-004 7.86011165e-004
      8.06222262e-004 4.73034219e-004 5.84003537e-005 -2.15221196e-004
      -3.52981006e-004 -1.65389967e-004 -2.38605517e-005
      -3.45252083e-005 -1.71234533e-005 -1.66687896e-005
      -2.00881077e-005 -2.00881077e-005 -2.00881077e-005
      -2.00881077e-005 -1.91890394e-005 -1.82800613e-005
      -1.89732964e-005 -1.98019425e-005 -1.90257015e-005 3.58838988e-005
      -5.40398032e-005 -7.06151477e-005 -2.83828733e-004
      -3.80536891e-004 -3.29888542e-004 -4.17104311e-005 5.11676306e-004
      9.78010823e-004 1.05879037e-003 7.81366951e-004 3.28260852e-004
      -5.97252583e-005 -3.06246598e-004 -1.88181570e-004
      -6.60836231e-005 -4.36093833e-005 -2.21871851e-005
      -2.04532753e-005 -2.00881077e-005 -2.00881077e-005
      -2.00881077e-005 -2.00881077e-005 -1.93660144e-005
      -1.76766316e-005 -1.89445927e-005 -1.98101388e-005
      -1.85288573e-005 2.87955154e-005 -5.66577874e-005 -9.69665271e-005
      -3.21945525e-004 -4.53392451e-004 -3.98590579e-004
      -8.18309491e-005 4.95407730e-004 9.83821461e-004 1.08650129e-003
      8.51734774e-004 4.05351573e-004 -5.14106159e-006 -2.71849800e-004
      -1.83057520e-004 -1.05148247e-004 -5.73643993e-005
      -3.06192815e-005 -1.74749184e-005 -2.00881077e-005
      -2.00881077e-005 -2.00881077e-005 -2.00881077e-005
      -2.03143991e-005 -1.87878559e-005 -1.94457843e-005
      -2.02295523e-005 -1.79360959e-005 2.64929076e-005 -5.53037135e-005
      -1.13285387e-004 -3.48555652e-004 -5.31643280e-004
      -5.19857393e-004 -2.07439589e-004 3.76996031e-004 8.72170669e-004
      9.71740228e-004 7.64092954e-004 3.38218757e-004 -6.64403342e-006
      -2.38750305e-004 -1.70432482e-004 -1.36568749e-004
      -7.14621128e-005 -3.72664472e-005 -1.95182110e-005
      -2.00881077e-005 -2.00881077e-005 -2.00881077e-005
      -2.00881077e-005 -1.94627555e-005 -1.76658941e-005
      -1.95302055e-005 -1.98159723e-005 -1.76245649e-005 2.34308172e-005
      -5.45948824e-005 -1.17849864e-004 -3.45744309e-004
      -5.66357048e-004 -6.30095310e-004 -3.67470202e-004 1.96188354e-004
      6.77200092e-004 7.58261071e-004 5.63086418e-004 2.06774595e-004
      -5.22455121e-005 -2.37701941e-004 -1.76849950e-004
      -1.58268260e-004 -7.85172524e-005 -3.70453781e-005
      -2.21060418e-005 -2.00881077e-005 -2.00881077e-005
      -2.00881077e-005 -2.00881077e-005 -1.94416534e-005
      -2.04379648e-005 -2.24869764e-005 -1.95426928e-005
      -1.86666330e-005 1.60675463e-005 -4.28809071e-005 -7.98065885e-005
      -3.04399553e-004 -5.54594793e-004 -6.87969034e-004
      -5.12936211e-004 1.92523748e-006 4.45716811e-004 4.98322072e-004
      3.23429180e-004 3.60176928e-005 -1.39164287e-004 -2.68647913e-004
      -1.67691469e-004 -1.62305310e-004 -9.84671278e-005
      -3.49639486e-005 -2.19766171e-005 -2.00881077e-005
      -2.00881077e-005 -2.00881077e-005 -2.00881077e-005
      -2.10654980e-005 -1.97267545e-005 -1.85195095e-005
      -2.04100525e-005 -1.99026435e-005 1.81805608e-005 -2.18915120e-005
      -1.82496842e-005 -2.25711803e-004 -4.69463877e-004
      -6.55946264e-004 -5.48219658e-004 -1.16488351e-004 2.43423812e-004
      2.61627603e-004 9.36941506e-005 -8.15248859e-005 -1.78612216e-004
      -2.60534376e-004 -1.52364752e-004 -1.27567720e-004
      -9.11703683e-005 -1.95913526e-005 -2.10008002e-005
      -2.00881077e-005 -2.00881077e-005 -2.00881077e-005
      -2.00881077e-005 -2.10703602e-005 -2.01592229e-005
      -1.93262513e-005 -1.96483616e-005 -1.92234675e-005 1.82567146e-005
      -8.32160003e-006 4.43854733e-005 -1.15755705e-004 -3.35090590e-004
      -5.43932780e-004 -5.17129840e-004 -2.18058645e-004 5.78341314e-005
      7.94763400e-005 -1.76780577e-006 -1.04132545e-004 -1.50172098e-004
      -1.98190683e-004 -8.82424865e-005 -8.72488890e-005
      -6.27896588e-005 -1.16183519e-005 -2.10602248e-005
      -2.00881077e-005 -2.00881077e-005 -2.00881077e-005
      -2.00881077e-005 -1.82600306e-005 -1.97564113e-005
      -2.07455632e-005 -2.00287377e-005 -2.11722545e-005 1.09593384e-005
      3.85717758e-005 1.13408722e-004 -1.17239251e-005 -1.97506073e-004
      -4.00600693e-004 -4.30401997e-004 -2.70990102e-004
      -4.26529878e-005 1.21483381e-005 -1.63256136e-005 -7.25562350e-005
      -1.41078999e-004 -1.79033785e-004 -6.51122900e-005
      -6.75286574e-005 -4.37096496e-005 -1.60198142e-005
      -2.06724017e-005 -2.00881077e-005 -2.00881077e-005
      -2.00881077e-005 -2.00881077e-005 -2.11844290e-005
      -2.06199184e-005 -1.86057296e-005 -1.90000519e-005
      -2.12694231e-005 -3.06770039e-006 5.90646123e-005 1.61175849e-004
      6.10789357e-005 -3.86282918e-005 -2.29332276e-004 -3.03283799e-004
      -2.48394615e-004 -5.05120843e-005 4.31763146e-005 3.44305663e-005
      -3.82021026e-005 -1.27501597e-004 -1.53942034e-004
      -3.36722806e-005 -2.72199650e-005 -3.70308080e-005
      -2.43500326e-005 -1.91628587e-005 -2.00881077e-005
      -2.00881077e-005 -2.00881077e-005 -2.00881077e-005
      -1.87471796e-005 -1.69141931e-005 -2.21763748e-005
      -2.00816539e-005 -1.98988146e-005 -1.67564231e-005 3.59229452e-005
      1.81175972e-004 1.04752377e-004 1.24500322e-004 -2.08351739e-005
      -1.25649341e-004 -1.48035237e-004 -6.60264323e-006 9.75908624e-005
      8.72783639e-005 2.75334060e-006 -8.30180506e-005 -9.54026254e-005
      4.51333472e-005 3.25708243e-005 -4.14167152e-005 -3.71892747e-005
      -1.76382255e-005 -2.00881077e-005 -2.00881077e-005
      -2.00881077e-005 -2.00881077e-005 -2.09946229e-005
      -1.79761282e-005 -1.94515596e-005 -1.79677245e-005
      -1.89691127e-005 -2.55300547e-005 -1.51941840e-005 1.35069931e-004
      4.44152538e-005 1.35517417e-004 7.09376109e-005 -3.53143441e-005
      -8.55559047e-005 -6.96692496e-006 6.70064910e-005 5.14877465e-005
      -3.31583306e-006 -4.77297981e-005 -7.32543322e-006 1.43001555e-004
      1.20895573e-004 -1.22101346e-005 -3.98686425e-005 -1.97387544e-005
      -2.00881077e-005 -2.00881077e-005 -2.00881077e-005
      -2.00881077e-005 -1.97840127e-005 -1.89042385e-005
      -2.03373729e-005 -1.84833789e-005 -2.07752546e-005
      -4.63732140e-005 -6.35517499e-005 8.28646589e-005 -6.68589855e-005
      1.50669712e-005 -3.28760109e-007 -7.87117606e-005 -1.41397584e-004
      -1.39517884e-004 -8.78530482e-005 -5.89504016e-005
      -7.01998943e-005 -6.22831940e-005 1.59962929e-005 1.36403629e-004
      1.34678266e-004 -2.28350054e-005 -3.68512192e-005 -2.15952696e-005
      -2.00881077e-005 -2.00881077e-005 -2.00881077e-005
      -2.00881077e-005 -1.74859033e-005 -2.12354043e-005
      -1.73815497e-005 -1.63861350e-005 -2.09856989e-005
      -5.09795900e-005 -1.01842554e-004 1.09203109e-004 -6.48861460e-005
      -1.71544671e-005 1.27189469e-005 -2.45830379e-005 -7.87234530e-005
      -9.57768571e-005 -7.80841801e-005 -4.67013124e-005
      -3.13244127e-005 5.94607945e-006 6.18971026e-005 1.32656889e-004
      9.34397249e-005 -8.13127044e-005 -3.34625911e-005 -2.01841085e-005
      -2.00881077e-005 -2.00881077e-005 -2.00881077e-005
      -2.00881077e-005 -2.13607254e-005 -1.25762335e-005
      -2.07066641e-005 -2.16427197e-005 -1.66306072e-005
      -5.25936593e-005 -1.21113044e-004 1.89963990e-004 2.30878504e-005
      3.70505877e-005 4.94902342e-005 4.80441886e-005 2.39171204e-005
      7.02340412e-006 4.22533276e-006 1.76213562e-005 3.79032790e-005
      8.47646297e-005 9.24858759e-005 1.41242257e-004 3.50291266e-005
      -1.30264976e-004 -3.76992539e-005 -2.13160729e-005
      -2.00881077e-005 -2.00881077e-005 -2.00881077e-005
      -2.00881077e-005 -1.88678059e-005 -1.82222375e-005
      -1.77101374e-005 -2.10659200e-005 -1.69896521e-005
      -2.07732301e-005 -1.65776291e-005 -1.91952095e-005
      -1.91806721e-005 -2.02803003e-005 -2.06904551e-005
      -2.12536506e-005 -1.83180655e-005 -1.89682833e-005
      -2.17208326e-005 -2.01521707e-005 -1.93808082e-005
      -2.06099030e-005 -1.97781173e-005 -1.82417843e-005
      -2.17936304e-005 -2.02884257e-005 -2.06969962e-005
      -1.79005456e-005 -2.00881077e-005 -2.00881077e-005
      -2.00881077e-005 -2.00881077e-005 -1.93168016e-005
      -1.85500685e-005 -1.69980049e-005 -2.04284661e-005
      -1.84512119e-005 -2.09178652e-005 -2.03907239e-005
      -1.95776975e-005 -2.09018272e-005 -1.85110439e-005
      -1.87703354e-005 -1.98213111e-005 -2.04176395e-005
      -2.14330139e-005 -2.20582497e-005 -2.03298641e-005
      -2.02832216e-005 -1.93311116e-005 -1.76165904e-005
      -2.28035915e-005 -1.78718201e-005 -2.26697775e-005
      -2.14259235e-005 -2.17666893e-005 -2.00881077e-005
      -2.00881077e-005 -2.00881077e-005 -2.00881077e-005
      -2.21499192e-007 -5.58056345e-005 -5.47313357e-005
      -5.42180896e-005 -5.60916997e-005 -5.55652587e-005
      -5.54127291e-005 -5.76360035e-005 -5.31174119e-005
      -5.69081858e-005 -5.72157951e-005 -5.65260816e-005
      -5.59963846e-005 -5.96718237e-005 -5.52226447e-005
      -5.84943809e-005 -5.64224938e-005 -5.75835147e-005
      -5.55328770e-005 -5.83664951e-005 -5.47087257e-005
      -5.74506812e-005 -5.62231871e-005 -5.51829908e-005
      -5.83446854e-005 -5.64822694e-005 -5.64822694e-005
      -5.64822694e-005 -5.64822694e-005 -5.43037604e-005
      -5.49268589e-005 -5.70302436e-005 -5.53623613e-005
      -5.42372873e-005 6.70032459e-005 1.95104440e-004 2.44937604e-004
      1.79602808e-004 -9.47593726e-005 -9.89010878e-005 -3.60799095e-005
      5.68393989e-005 9.65261497e-005 9.16275094e-005 8.59722277e-005
      4.03659033e-005 -1.18216718e-004 -1.79774332e-004 6.53477837e-005
      9.75017756e-005 4.50997941e-005 -5.58327247e-006 -5.61684428e-005
      -5.64822694e-005 -5.64822694e-005 -5.64822694e-005
      -5.64822694e-005 -5.46872288e-005 -5.49494580e-005
      -5.61057786e-005 -5.27340198e-005 -5.58084794e-005 7.10846143e-005
      1.79649083e-004 2.02777999e-004 1.20383986e-004 -1.07055799e-004
      -7.58487658e-005 1.17156162e-006 1.06772743e-004 1.39258656e-004
      1.36108472e-004 1.02873732e-004 3.21873194e-005 -1.33559632e-004
      -2.02143696e-004 2.64473510e-005 8.02600698e-005 4.14866663e-005
      4.05428636e-006 -5.72236277e-005 -5.64822694e-005 -5.64822694e-005
      -5.64822694e-005 -5.64822694e-005 -5.54460712e-005
      -5.46428964e-005 -5.50461664e-005 -5.67638417e-005
      -5.31066144e-005 6.53710085e-005 1.67409045e-004 1.97346046e-004
      1.36794610e-004 -5.40724614e-005 -1.88908518e-006 9.04607878e-005
      2.03167059e-004 2.60189525e-004 2.60187226e-004 2.27632190e-004
      1.29268155e-004 -7.55249930e-005 -1.56999289e-004 2.88680531e-005
      5.85270900e-005 3.29994000e-005 4.85191049e-006 -5.40051333e-005
      -5.64822694e-005 -5.64822694e-005 -5.64822694e-005
      -5.64822694e-005 -5.33514722e-005 -5.61804736e-005
      -5.39010980e-005 -5.55507140e-005 -5.30620127e-005 5.45350013e-005
      1.51720349e-004 1.85648096e-004 1.61431264e-004 6.86577596e-006
      8.44583337e-005 1.81745228e-004 2.89611169e-004 3.34241166e-004
      3.25508416e-004 3.06456350e-004 2.00196504e-004 1.61816915e-005
      -1.20475597e-004 1.47285937e-005 3.98496377e-005 1.59940319e-005
      2.90214280e-006 -5.64070506e-005 -5.64822694e-005 -5.64822694e-005
      -5.64822694e-005 -5.64822694e-005 -5.56689847e-005
      -5.33083694e-005 -5.41225309e-005 -5.36718653e-005
      -5.62611094e-005 3.81738464e-005 1.39061158e-004 1.88847029e-004
      1.86404985e-004 6.10696734e-005 1.31301320e-004 1.86240301e-004
      2.27929020e-004 1.96747555e-004 1.95977744e-004 2.25493466e-004
      2.01789648e-004 7.71054183e-005 -7.07177896e-005 2.90467369e-006
      3.66618333e-005 -2.41071717e-007 -5.73475063e-006 -5.74108817e-005
      -5.64822694e-005 -5.64822694e-005 -5.64822694e-005
      -5.64822694e-005 -5.38023633e-005 -5.49433607e-005
      -5.48521712e-005 -5.66999151e-005 -5.35233667e-005 3.61146595e-005
      1.20383673e-004 1.91425075e-004 1.88781240e-004 6.13030061e-005
      1.06375948e-004 7.31600448e-005 -3.16893020e-005 -1.95590081e-004
      -1.97281508e-004 -4.43852550e-005 8.32621299e-005 8.95959674e-005
      -2.95844857e-005 2.42894639e-005 3.59630503e-005 1.10609781e-005
      -8.80503103e-006 -5.59269247e-005 -5.64822694e-005
      -5.64822694e-005 -5.64822694e-005 -5.64822694e-005
      -5.60607623e-005 -5.44796603e-005 -5.31349870e-005
      -5.57902385e-005 -5.46306001e-005 2.84092548e-005 1.06948690e-004
      1.89340048e-004 1.81076713e-004 7.03291589e-005 8.89216026e-005
      -5.87403047e-005 -3.45482375e-004 -6.59148034e-004
      -6.81811362e-004 -4.11017681e-004 -1.29314896e-004 1.51283939e-005
      -4.14668430e-005 3.20324252e-005 5.80444175e-005 2.29027719e-005
      -1.13773540e-005 -5.86160277e-005 -5.64822694e-005
      -5.64822694e-005 -5.64822694e-005 -5.64822694e-005
      -5.53305326e-005 -5.44133909e-005 -5.56692648e-005
      -5.49012548e-005 -5.39515058e-005 2.30408950e-005 1.09507346e-004
      1.86063553e-004 1.88408667e-004 8.97419086e-005 1.21037519e-004
      -7.27122533e-005 -4.24611469e-004 -7.51862302e-004
      -7.95353670e-004 -5.31035068e-004 -2.06985627e-004
      -4.68335238e-005 -8.91856325e-005 2.62396443e-005 5.86161841e-005
      2.47249882e-005 -1.15857492e-005 -5.57401363e-005 -5.64822694e-005
      -5.64822694e-005 -5.64822694e-005 -5.64822694e-005
      -5.57601998e-005 -5.49111501e-005 -5.51717058e-005
      -5.54765720e-005 -5.40637411e-005 1.67607213e-005 1.08647168e-004
      1.78186878e-004 2.00328373e-004 1.38351956e-004 2.15732041e-004
      2.99567455e-005 -2.97687773e-004 -6.07815979e-004 -6.83788036e-004
      -4.77935362e-004 -1.82953590e-004 -6.27452682e-005
      -1.13632013e-004 1.60425498e-005 5.03793526e-005 2.78321604e-005
      -1.27406502e-005 -5.32162740e-005 -5.64822694e-005
      -5.64822694e-005 -5.64822694e-005 -5.64822694e-005
      -5.62457753e-005 -5.52951024e-005 -5.52438469e-005
      -5.54951148e-005 -5.42530179e-005 1.14800823e-005 1.08588756e-004
      1.69623061e-004 2.18462068e-004 1.80737115e-004 3.24623950e-004
      1.97008412e-004 -5.69596923e-005 -3.39699152e-004 -4.47631290e-004
      -3.01844819e-004 -7.25673744e-005 -2.87846306e-005
      -1.23941412e-004 4.04267257e-006 4.14579299e-005 3.30194634e-005
      -1.10955689e-005 -5.25336618e-005 -5.64822694e-005
      -5.64822694e-005 -5.64822694e-005 -5.64822694e-005
      -5.52144847e-005 -5.55135048e-005 -5.48468124e-005
      -5.48489552e-005 -5.48118296e-005 1.00376774e-005 1.07615808e-004
      1.60562267e-004 2.17320543e-004 1.82112737e-004 3.76220676e-004
      3.26367095e-004 1.51632834e-004 -9.99487602e-005 -2.01098010e-004
      -8.12122380e-005 9.25093045e-005 4.70821142e-005 -1.03520775e-004
      -2.29741840e-006 3.74269875e-005 3.92668808e-005 -6.62786306e-006
      -5.26127515e-005 -5.64822694e-005 -5.64822694e-005
      -5.64822694e-005 -5.64822694e-005 -5.42449925e-005
      -5.66283961e-005 -5.52442725e-005 -5.44540635e-005
      -5.38961358e-005 9.70366818e-006 9.66976513e-005 1.47018189e-004
      1.95884451e-004 1.69716324e-004 3.88099521e-004 3.87244276e-004
      2.48020660e-004 3.09228453e-005 -2.90313055e-005 9.27981455e-005
      2.27772514e-004 1.17843927e-004 -7.08464140e-005 3.71760825e-006
      3.56648416e-005 3.45846202e-005 -6.64938170e-006 -5.23509625e-005
      -5.64822694e-005 -5.64822694e-005 -5.64822694e-005
      -5.64822694e-005 -5.48130884e-005 -5.58280626e-005
      -5.49022661e-005 -5.47275085e-005 -5.49861725e-005 6.05435707e-006
      7.94133957e-005 1.25621460e-004 1.59280462e-004 1.29651482e-004
      3.53553100e-004 3.60060396e-004 2.29407873e-004 2.98587020e-005
      -1.69586710e-005 1.16095478e-004 2.36186461e-004 1.19737306e-004
      -6.06603789e-005 9.69282337e-006 2.91501128e-005 2.12920386e-005
      -9.49248988e-006 -5.16639666e-005 -5.64822694e-005
      -5.64822694e-005 -5.64822694e-005 -5.64822694e-005
      -5.55933948e-005 -5.54021171e-005 -5.45209405e-005
      -5.55177830e-005 -5.56714840e-005 5.17468015e-006 6.92991453e-005
      1.06824424e-004 1.39926007e-004 1.03359533e-004 3.20048246e-004
      3.12981923e-004 1.71486652e-004 -2.93917728e-005 -8.74697653e-005
      4.67957616e-005 1.80267918e-004 1.13252550e-004 -3.95047427e-005
      3.17508857e-005 2.91322358e-005 8.48308628e-006 -1.36785111e-005
      -5.27089105e-005 -5.64822694e-005 -5.64822694e-005
      -5.64822694e-005 -5.64822694e-005 -5.51027551e-005
      -5.41630725e-005 -5.43159549e-005 -5.56054365e-005
      -5.50193181e-005 5.75856393e-006 7.25769787e-005 1.01496495e-004
      1.43297686e-004 9.53781273e-005 2.97081395e-004 2.69728829e-004
      1.09901644e-004 -1.17915755e-004 -1.96665627e-004 -7.69185062e-005
      1.12382688e-004 1.06429507e-004 -1.28055908e-005 6.00828607e-005
      4.71941930e-005 2.94104257e-006 -1.68185070e-005 -5.48134594e-005
      -5.64822694e-005 -5.64822694e-005 -5.64822694e-005
      -5.64822694e-005 -5.44347495e-005 -5.50774239e-005
      -5.43194365e-005 -5.58388419e-005 -5.63191243e-005 6.58485851e-006
      8.69286814e-005 1.12210517e-004 1.52297798e-004 1.14852897e-004
      3.28621565e-004 2.91814795e-004 9.44444619e-005 -1.94613036e-004
      -3.15683166e-004 -1.94130946e-004 4.30164873e-005 9.87290841e-005
      1.00181742e-005 9.27160654e-005 7.33881097e-005 -3.64158473e-006
      -2.14520987e-005 -5.51598241e-005 -5.64822694e-005
      -5.64822694e-005 -5.64822694e-005 -5.64822694e-005
      -5.55406987e-005 -5.42073503e-005 -5.55289444e-005
      -5.51155681e-005 -5.16414075e-005 6.92633103e-006 9.93121866e-005
      1.30858447e-004 1.81163559e-004 1.84361706e-004 4.28487896e-004
      4.05948202e-004 1.95122266e-004 -1.49407671e-004 -3.22098262e-004
      -2.33762883e-004 -4.96144730e-006 8.24827002e-005 2.86785507e-005
      1.06633095e-004 8.09099583e-005 -5.44308068e-006 -2.17950164e-005
      -5.53204191e-005 -5.64822694e-005 -5.64822694e-005
      -5.64822694e-005 -5.64822694e-005 -5.59419932e-005
      -5.39825560e-005 -5.59680338e-005 -5.46283809e-005
      -5.37207707e-005 9.02029296e-006 1.04502637e-004 1.61938457e-004
      2.17354973e-004 2.61374254e-004 5.51197096e-004 5.75458747e-004
      3.81263671e-004 9.22435174e-006 -2.00540089e-004 -1.60747310e-004
      3.52932420e-006 7.02434118e-005 2.54688189e-006 8.20603600e-005
      7.00580567e-005 -1.18617545e-005 -1.62612978e-005 -5.62260066e-005
      -5.64822694e-005 -5.64822694e-005 -5.64822694e-005
      -5.64822694e-005 -5.42802663e-005 -5.47091804e-005
      -5.54050603e-005 -5.57337880e-005 -5.53726059e-005 1.33403973e-005
      8.76260601e-005 1.60024836e-004 2.19560519e-004 2.76594801e-004
      5.94373385e-004 6.67618064e-004 5.19856694e-004 1.93290252e-004
      -1.97025729e-005 -3.46611523e-005 4.75625566e-005 3.75457203e-005
      -7.43781347e-005 1.48880317e-005 2.79009182e-005 -1.41025894e-005
      -1.29335695e-005 -5.53984464e-005 -5.64822694e-005
      -5.64822694e-005 -5.64822694e-005 -5.64822694e-005
      -5.40792462e-005 -5.50114200e-005 -5.42812850e-005
      -5.52269048e-005 -5.37454143e-005 1.61494845e-005 7.60663388e-005
      1.35347640e-004 1.72586035e-004 2.19751979e-004 5.26960008e-004
      6.31695206e-004 5.55122970e-004 3.20919848e-004 1.31641718e-004
      6.77370772e-005 4.87351681e-005 -1.66164718e-005 -1.50394801e-004
      -6.51796872e-005 -2.07662360e-005 -2.38854464e-005
      -1.06903217e-005 -5.37628657e-005 -5.64822694e-005
      -5.64822694e-005 -5.64822694e-005 -5.64822694e-005
      -5.57652493e-005 -5.49221695e-005 -5.44604845e-005
      -5.49035285e-005 -5.28615601e-005 7.80327537e-006 5.41087757e-005
      7.98597175e-005 7.45270590e-005 7.48198290e-005 3.26556270e-004
      4.48414416e-004 4.73103399e-004 3.53567157e-004 1.85628858e-004
      6.57984128e-005 -8.57927625e-006 -9.60763136e-005 -2.21543538e-004
      -9.40126920e-005 -4.37287890e-005 -5.08548692e-005
      -1.10283527e-005 -5.60651388e-005 -5.64822694e-005
      -5.64822694e-005 -5.64822694e-005 -5.64822694e-005
      -5.58282263e-005 -5.40069741e-005 -5.43393580e-005
      -5.33693565e-005 -5.48781827e-005 2.09049790e-006 1.18386561e-005
      -3.05073427e-005 -4.57750830e-005 -1.52118955e-004 2.16424542e-005
      1.37873823e-004 2.26718344e-004 2.03501157e-004 9.28262525e-005
      -2.90082062e-005 -1.16692929e-004 -2.06744429e-004
      -3.01369990e-004 -7.64897559e-005 -6.04656634e-005
      -9.03220134e-005 -1.94641525e-005 -5.78856925e-005
      -5.64822694e-005 -5.64822694e-005 -5.64822694e-005
      -5.64822694e-005 -5.45073817e-005 -5.42957096e-005
      -5.38695094e-005 -5.43790011e-005 -5.38451786e-005 7.97819666e-006
      -3.90537316e-005 -4.55647205e-005 -7.08556690e-005
      -2.93742662e-004 -1.92454274e-004 -9.93191352e-005
      -1.77758193e-006 3.37238889e-005 -9.32175408e-006 -1.02396429e-004
      -1.76413276e-004 -2.56976404e-004 -3.25883826e-004
      -3.49282927e-005 -6.07174770e-005 -8.95524790e-005
      -2.80283657e-005 -5.50964869e-005 -5.64822694e-005
      -5.64822694e-005 -5.64822694e-005 -5.64822694e-005
      -5.55304796e-005 -5.68771320e-005 -5.53538630e-005
      -5.36854313e-005 -5.67527895e-005 1.07196920e-005 -6.80508092e-005
      2.31441589e-007 -5.64066431e-006 -3.45482898e-004 -2.90126860e-004
      -2.34791776e-004 -1.69602266e-004 -1.36440169e-004
      -1.53007277e-004 -2.01175659e-004 -2.47541902e-004
      -2.91774748e-004 -3.33066127e-004 6.51633381e-005 -2.18842470e-005
      -6.84318875e-005 -3.03618090e-005 -5.55662591e-005
      -5.64822694e-005 -5.64822694e-005 -5.64822694e-005
      -5.64822694e-005 -5.33467974e-005 -5.46437877e-005
      -5.45991425e-005 -5.46342708e-005 -5.54180842e-005 8.23489972e-006
      -6.74197945e-005 6.07618495e-005 7.12245892e-005 -3.40188883e-004
      -3.23555170e-004 -3.17576836e-004 -3.00591375e-004
      -2.79837550e-004 -2.94482132e-004 -3.16789432e-004
      -3.22412438e-004 -3.38574930e-004 -3.22293286e-004 1.76778616e-004
      4.03994818e-005 -4.98009213e-005 -3.16467558e-005 -5.72663048e-005
      -5.64822694e-005 -5.64822694e-005 -5.64822694e-005
      -5.64822694e-005 -5.69017830e-005 -5.66475283e-005
      -5.44241630e-005 -5.44908980e-005 -5.22876071e-005
      -5.21822694e-005 -5.31798250e-005 -5.39999637e-005
      -5.67268871e-005 -5.69519289e-005 -5.64025795e-005
      -5.70148914e-005 -5.73320467e-005 -6.02334912e-005
      -5.93527802e-005 -5.68081014e-005 -5.57461462e-005
      -5.78594045e-005 -5.46082301e-005 -5.39706598e-005
      -5.93707919e-005 -5.45457588e-005 -5.78796062e-005
      -5.49646102e-005 -5.64822694e-005 -5.64822694e-005
      -5.64822694e-005 -5.64822694e-005 -5.34105711e-005
      -5.58341089e-005 -5.49301112e-005 -5.45291659e-005
      -5.31299083e-005 -5.47552299e-005 -5.47998425e-005
      -5.53921054e-005 -5.55618935e-005 -5.76508100e-005
      -5.89675001e-005 -5.71413329e-005 -5.97858561e-005
      -5.49825600e-005 -5.69256845e-005 -5.57924504e-005
      -5.96397185e-005 -5.63969006e-005 -6.08637456e-005
      -5.94215053e-005 -5.45098665e-005 -5.39655703e-005
      -5.74136102e-005 -5.75370759e-005 -5.64822694e-005
      -5.64822694e-005 -5.64822694e-005 -5.64822694e-005
      -5.79173012e-008 -1.39507192e-005 -1.21678677e-005
      -1.64203229e-005 -1.67107519e-005 -1.40861557e-005
      -1.19304459e-005 -1.70017338e-005 -1.38895211e-005
      -1.57302002e-005 -1.43581237e-005 -1.39090862e-005
      -1.22384436e-005 -1.62385786e-005 -1.47026985e-005
      -1.36480712e-005 -1.51380154e-005 -1.66240170e-005
      -1.31273900e-005 -1.49991438e-005 -1.42702684e-005
      -1.21495241e-005 -1.64059475e-005 -1.58067542e-005
      -1.44338001e-005 -1.47688961e-005 -1.47688961e-005
      -1.47688961e-005 -1.47688961e-005 -1.49618309e-005
      -1.91462696e-005 -1.28421216e-005 -1.32556052e-005
      -1.49505604e-005 -5.39838038e-005 -2.53586622e-004
      -1.59828443e-004 -7.01150057e-005 -4.96890279e-005
      -1.05259467e-004 -1.13952316e-004 -9.17668513e-005
      -8.00442140e-005 -8.45995455e-005 -1.15479204e-004
      -9.49981186e-005 -9.07204230e-005 -2.83704994e-005
      -3.66863096e-005 -1.09749613e-004 -6.57480850e-005 2.98970317e-005
      -1.61045027e-005 -1.47688961e-005 -1.47688961e-005
      -1.47688961e-005 -1.47688961e-005 -1.53599813e-005
      -1.29078417e-005 -1.35268438e-005 -1.41298297e-005
      -1.70459134e-005 -5.81451350e-005 -2.70350400e-004
      -1.47719824e-004 -5.14464191e-005 -1.39355043e-005
      -6.55805998e-005 -7.89045225e-005 -6.14155651e-005
      -5.20070680e-005 -5.30794714e-005 -5.37007218e-005
      -6.63298488e-005 -6.86596104e-005 -4.05212486e-005
      -5.57521380e-005 -1.24149636e-004 -8.29618803e-005 2.06496879e-005
      -1.41250002e-005 -1.47688961e-005 -1.47688961e-005
      -1.47688961e-005 -1.47688961e-005 -1.63365985e-005
      -1.74910056e-005 -1.56672504e-005 -1.53822184e-005
      -1.39882059e-005 -6.70198351e-005 -2.79112079e-004
      -1.41754586e-004 -1.70414733e-005 7.10661106e-006 -3.64050356e-005
      -3.78040531e-005 -3.02507378e-005 -2.40487498e-005
      -3.09241004e-005 -7.16818749e-006 -1.47847495e-005
      -2.88769716e-005 -1.45177601e-005 -3.14616591e-005
      -1.12597874e-004 -9.18218429e-005 1.10072806e-005 -1.64736648e-005
      -1.47688961e-005 -1.47688961e-005 -1.47688961e-005
      -1.47688961e-005 -1.47034307e-005 -1.52725588e-005
      -1.67997478e-005 -1.33404365e-005 -1.91746512e-005
      -5.80243941e-005 -2.56668369e-004 -1.12081187e-004
      -2.09509290e-005 4.20560855e-006 -3.52915995e-005 -3.23995664e-005
      -4.78404509e-005 -5.12799961e-005 -5.40048968e-005
      -3.08352683e-005 -1.99846727e-005 -4.56208618e-005
      -1.24703593e-005 -1.14110953e-005 -8.92945682e-005
      -7.94972220e-005 1.64237281e-005 -1.38546593e-005 -1.47688961e-005
      -1.47688961e-005 -1.47688961e-005 -1.47688961e-005
      -1.34302227e-005 -1.72486525e-005 -1.45247659e-005
      -1.49153411e-005 -1.49295302e-005 -5.28649653e-005
      -2.15780092e-004 -9.50705289e-005 -3.94140552e-005
      -2.70230794e-005 -5.86390306e-005 -3.79632693e-005
      -6.23353990e-005 -9.09158480e-005 -1.07457076e-004
      -1.07622720e-004 -1.03326653e-004 -1.34670874e-004
      -9.91864945e-005 -5.28321980e-005 -8.47400879e-005
      -6.80641024e-005 3.39595681e-005 -1.89645889e-005 -1.47688961e-005
      -1.47688961e-005 -1.47688961e-005 -1.47688961e-005
      -1.59010160e-005 -1.17152840e-005 -2.02738938e-005
      -1.47961709e-005 -1.76302838e-005 -6.38816491e-005
      -1.85293800e-004 -1.12206661e-004 -5.08483026e-005
      -2.67740106e-005 -4.44449470e-005 -2.27411456e-005
      -3.69199006e-005 -8.80211883e-005 -1.50501161e-004
      -2.16181754e-004 -2.58187560e-004 -3.22351436e-004
      -2.86279275e-004 -1.95986824e-004 -1.63648874e-004
      -1.00819154e-004 2.88014126e-005 -1.53451438e-005 -1.47688961e-005
      -1.47688961e-005 -1.47688961e-005 -1.47688961e-005
      -1.55531343e-005 -1.56721908e-005 -1.48784738e-005
      -1.25882871e-005 -1.68488768e-005 -5.27423726e-005
      -1.51345390e-004 -9.03024120e-005 5.29914905e-005 1.44340578e-004
      1.56432259e-004 1.59743766e-004 1.32631962e-004 3.20158433e-005
      -1.03917679e-004 -2.59283959e-004 -3.73497576e-004
      -4.73699823e-004 -4.82767617e-004 -3.58894118e-004
      -2.94000609e-004 -1.31483495e-004 1.27833482e-005 -1.49391417e-005
      -1.47688961e-005 -1.47688961e-005 -1.47688961e-005
      -1.47688961e-005 -1.47449427e-005 -1.58059975e-005
      -1.40851780e-005 -1.54996596e-005 -1.48726749e-005
      -3.39448961e-005 -1.17433505e-004 -1.43843044e-006 1.83533513e-004
      3.36650497e-004 3.90186440e-004 4.10393142e-004 3.48277274e-004
      1.56505412e-004 -4.88748155e-005 -2.27545228e-004 -3.50398739e-004
      -5.01783681e-004 -5.52818121e-004 -4.29321517e-004
      -3.55591474e-004 -1.42704434e-004 8.28768225e-006 -1.55969610e-005
      -1.47688961e-005 -1.47688961e-005 -1.47688961e-005
      -1.47688961e-005 -1.58769908e-005 -1.43480629e-005
      -1.47692481e-005 -1.57190734e-005 -1.56228398e-005
      -1.92277421e-005 -8.24100789e-005 7.47611921e-005 3.09687923e-004
      4.99396119e-004 5.87305287e-004 6.13618060e-004 4.89150698e-004
      2.41981121e-004 1.43619982e-005 -1.64696961e-004 -2.89017044e-004
      -4.73478896e-004 -5.41175541e-004 -4.37166484e-004
      -3.53771116e-004 -1.38518430e-004 9.09265964e-006 -1.41303972e-005
      -1.47688961e-005 -1.47688961e-005 -1.47688961e-005
      -1.47688961e-005 -1.48195140e-005 -1.42790204e-005
      -1.45656295e-005 -1.48550444e-005 -1.45196764e-005
      -1.43701391e-005 -6.81518140e-005 1.19221266e-004 3.73968796e-004
      6.14645774e-004 7.42387201e-004 7.50475039e-004 5.74060250e-004
      3.06328584e-004 9.61023397e-005 -6.56695483e-005 -1.95771427e-004
      -3.92364338e-004 -4.61976102e-004 -3.82796308e-004
      -3.12907039e-004 -1.13435854e-004 1.32114419e-005 -1.60596210e-005
      -1.47688961e-005 -1.47688961e-005 -1.47688961e-005
      -1.47688961e-005 -1.46218499e-005 -1.44800269e-005
      -1.57357881e-005 -1.44871556e-005 -1.36238450e-005
      -1.57299328e-005 -6.81436359e-005 1.13028305e-004 4.02308826e-004
      6.87542604e-004 8.35148850e-004 8.29072203e-004 6.27927191e-004
      3.59685480e-004 1.57741699e-004 2.06831646e-005 -9.54612551e-005
      -2.54101935e-004 -3.13226017e-004 -2.69156240e-004
      -2.46609736e-004 -8.44737151e-005 2.01236344e-005 -1.58259372e-005
      -1.47688961e-005 -1.47688961e-005 -1.47688961e-005
      -1.47688961e-005 -1.50497490e-005 -1.36860490e-005
      -1.63382065e-005 -1.51574886e-005 -1.44469423e-005
      -1.66447408e-005 -6.67593558e-005 1.03780236e-004 3.99359851e-004
      6.83654507e-004 7.99638627e-004 7.79709488e-004 5.77922619e-004
      3.44882719e-004 1.94555803e-004 1.44631820e-004 9.34650379e-005
      -1.49554580e-006 -7.18103329e-005 -9.82552810e-005
      -1.41673270e-004 -5.04251584e-005 2.76690498e-005 -1.66488717e-005
      -1.47688961e-005 -1.47688961e-005 -1.47688961e-005
      -1.47688961e-005 -1.51867016e-005 -1.44038941e-005
      -1.58305083e-005 -1.46504890e-005 -1.44632204e-005
      -1.81083033e-005 -7.64256692e-005 9.24816486e-005 3.75582167e-004
      6.14393328e-004 6.69281406e-004 6.05508802e-004 4.19509102e-004
      2.30062142e-004 1.50292661e-004 2.13836276e-004 2.68593169e-004
      2.44222523e-004 1.47288316e-004 5.88398580e-005 -2.95939426e-005
      -1.30610306e-005 3.84060004e-005 -1.57314807e-005 -1.47688961e-005
      -1.47688961e-005 -1.47688961e-005 -1.47688961e-005
      -1.40552993e-005 -1.42278086e-005 -1.58868770e-005
      -1.35150285e-005 -1.48260287e-005 -2.03766449e-005
      -9.77736199e-005 7.98985711e-005 3.37439124e-004 4.93126980e-004
      4.66384721e-004 3.39317077e-004 1.80455783e-004 5.11060607e-005
      7.07439540e-005 2.40294874e-004 3.94845352e-004 4.20287135e-004
      3.24019871e-004 2.13974577e-004 8.41206129e-005 2.93845023e-005
      5.04356503e-005 -1.53889287e-005 -1.47688961e-005 -1.47688961e-005
      -1.47688961e-005 -1.47688961e-005 -1.44725827e-005
      -1.34598804e-005 -1.65582187e-005 -1.40338661e-005
      -1.44494488e-005 -1.89819493e-005 -1.14077215e-004 7.10264212e-005
      2.66518880e-004 3.41915671e-004 2.30518970e-004 5.21414477e-005
      -9.50631147e-005 -1.58325638e-004 -1.35055598e-005 2.62777612e-004
      4.66022320e-004 5.38282737e-004 4.83876531e-004 3.83127655e-004
      2.03849719e-004 6.99375014e-005 5.72961071e-005 -1.61862972e-005
      -1.47688961e-005 -1.47688961e-005 -1.47688961e-005
      -1.47688961e-005 -1.46861121e-005 -1.49423486e-005
      -1.40489101e-005 -1.46694283e-005 -1.42729841e-005
      -1.88918657e-005 -1.08461842e-004 4.73096661e-005 1.87602942e-004
      1.73235108e-004 -1.68750776e-005 -2.06518016e-004 -3.37786216e-004
      -3.25337925e-004 -7.69895632e-005 2.43794537e-004 4.83716256e-004
      6.12867007e-004 6.32349926e-004 5.29915211e-004 3.10481642e-004
      1.09755303e-004 6.03513035e-005 -1.47237179e-005 -1.47688961e-005
      -1.47688961e-005 -1.47688961e-005 -1.47688961e-005
      -1.32803343e-005 -1.54067984e-005 -1.22674819e-005
      -1.37892721e-005 -1.49874259e-005 -1.41138717e-005
      -1.03925224e-004 1.10481033e-005 1.03603008e-004 5.39065768e-005
      -1.48057021e-004 -3.25411151e-004 -3.97817377e-004
      -2.97719147e-004 -3.39282778e-005 2.74380698e-004 4.84162010e-004
      6.33364310e-004 6.87427062e-004 6.04088360e-004 3.51700175e-004
      1.25788123e-004 5.93420773e-005 -1.62701344e-005 -1.47688961e-005
      -1.47688961e-005 -1.47688961e-005 -1.47688961e-005
      -1.39399608e-005 -1.59973915e-005 -1.50684673e-005
      -1.67102080e-005 -1.42065919e-005 -6.01084002e-006
      -9.46274740e-005 -4.67705431e-005 1.20010736e-005 -4.95777385e-005
      -2.11334773e-004 -3.39631311e-004 -3.90205241e-004
      -2.74449761e-004 -5.90877135e-005 1.82230637e-004 3.76329059e-004
      5.62406727e-004 6.23177271e-004 5.53815044e-004 3.29190720e-004
      1.34339411e-004 6.49197536e-005 -1.86284833e-005 -1.47688961e-005
      -1.47688961e-005 -1.47688961e-005 -1.47688961e-005
      -1.58184503e-005 -1.43428579e-005 -1.33722742e-005
      -1.49629686e-005 -1.52022285e-005 -1.09401772e-005
      -1.16948169e-004 -1.62828364e-004 -1.22599769e-004
      -1.99236805e-004 -3.14148696e-004 -3.83570703e-004
      -4.19471326e-004 -3.82468628e-004 -2.64308415e-004
      -6.80856538e-005 1.17897580e-004 3.46017885e-004 4.30145970e-004
      4.28660918e-004 2.69141601e-004 1.30886852e-004 6.67081476e-005
      -1.65866477e-005 -1.47688961e-005 -1.47688961e-005
      -1.47688961e-005 -1.47688961e-005 -1.45155527e-005
      -1.32668929e-005 -1.56890346e-005 -1.37949946e-005
      -1.53776673e-005 -1.01673049e-005 -1.37287789e-004
      -2.51396938e-004 -2.29021578e-004 -3.18370556e-004
      -3.99918848e-004 -4.34480433e-004 -4.85108263e-004
      -5.28529810e-004 -4.96414781e-004 -3.59238038e-004
      -1.71134438e-004 4.68857615e-005 1.52614273e-004 2.13084480e-004
      1.61465112e-004 1.02716411e-004 6.07367001e-005 -1.65959664e-005
      -1.47688961e-005 -1.47688961e-005 -1.47688961e-005
      -1.47688961e-005 -1.54375593e-005 -1.42579065e-005
      -1.37960969e-005 -1.58630646e-005 -1.31650240e-005
      -4.14471742e-006 -1.34615097e-004 -2.63095164e-004
      -2.78364314e-004 -3.57273937e-004 -4.07484476e-004
      -4.53677581e-004 -5.32833277e-004 -5.92819939e-004
      -5.98857354e-004 -5.32788166e-004 -3.85955558e-004
      -2.66255171e-004 -1.86243822e-004 -8.07235556e-005
      -2.15345353e-005 2.86347004e-005 6.09922390e-005 -1.52545754e-005
      -1.47688961e-005 -1.47688961e-005 -1.47688961e-005
      -1.47688961e-005 -1.39217791e-005 -1.29172349e-005
      -1.52878911e-005 -1.68912266e-005 -1.54244844e-005 1.14832937e-005
      -8.30519057e-005 -1.92555934e-004 -1.80720148e-004
      -2.39368761e-004 -3.09522729e-004 -4.07962798e-004
      -5.37424115e-004 -5.99640887e-004 -5.86864073e-004
      -5.47290256e-004 -4.80055605e-004 -4.55766072e-004
      -4.57904913e-004 -3.72340408e-004 -2.03991760e-004
      -2.91666092e-005 4.91345090e-005 -1.71700958e-005 -1.47688961e-005
      -1.47688961e-005 -1.47688961e-005 -1.47688961e-005
      -1.51543873e-005 -1.36463295e-005 -1.66587615e-005
      -1.48220952e-005 -1.44396736e-005 1.91893323e-005 -6.16665566e-005
      -1.35284165e-004 -5.53965219e-005 -8.74336911e-005
      -1.67269231e-004 -2.54117796e-004 -3.51157127e-004
      -4.30280401e-004 -4.38295276e-004 -4.17080242e-004
      -3.94752220e-004 -3.96677759e-004 -4.10484005e-004
      -3.20353487e-004 -2.24926436e-004 -3.81724312e-005 3.60191334e-005
      -1.36439821e-005 -1.47688961e-005 -1.47688961e-005
      -1.47688961e-005 -1.47688961e-005 -1.64021403e-005
      -1.32178511e-005 -1.54034169e-005 -1.58641451e-005
      -1.42912868e-005 2.51637393e-005 -1.82371095e-005 -7.27514271e-005
      1.49740681e-005 4.86361896e-005 -5.08790436e-006 -7.98533583e-005
      -1.57513598e-004 -2.32575316e-004 -2.56839994e-004
      -2.52060039e-004 -2.51867896e-004 -2.40251276e-004
      -2.64474773e-004 -2.00018898e-004 -1.22452446e-004
      -1.24396774e-005 3.80424717e-005 -1.38006289e-005 -1.47688961e-005
      -1.47688961e-005 -1.47688961e-005 -1.47688961e-005
      -1.38410069e-005 -1.58463808e-005 -1.40230995e-005
      -1.48566050e-005 -1.51302329e-005 3.29745271e-005 2.11982006e-005
      2.68894064e-006 7.45645084e-005 1.41363518e-004 1.25638646e-004
      7.60020266e-005 1.00452517e-005 -4.57612732e-005 -6.58394274e-005
      -6.06235408e-005 -6.57558849e-005 -5.34980645e-005
      -8.09930498e-005 -3.48537142e-005 1.83474258e-005 2.04330263e-005
      4.99829075e-005 -1.53199417e-005 -1.47688961e-005 -1.47688961e-005
      -1.47688961e-005 -1.47688961e-005 -1.32565410e-005
      -1.22980673e-005 -1.67506023e-005 -1.18904754e-005
      -1.71073680e-005 -1.48340432e-005 -1.62430315e-005
      -1.42534636e-005 -1.69523046e-005 -1.81938303e-005
      -1.47692508e-005 -1.39939812e-005 -1.52546281e-005
      -1.49676453e-005 -1.29315786e-005 -1.53560704e-005
      -1.17794771e-005 -1.79626277e-005 -1.29065584e-005
      -1.58067287e-005 -1.28465263e-005 -1.09044558e-005
      -1.68527076e-005 -1.27203157e-005 -1.47688961e-005
      -1.47688961e-005 -1.47688961e-005 -1.47688961e-005
      -1.51302329e-005 -1.56986680e-005 -1.44949245e-005
      -1.55745747e-005 -1.62563065e-005 -1.31247671e-005
      -1.47476121e-005 -1.27964140e-005 -1.16209576e-005
      -1.44720070e-005 -1.34695010e-005 -1.43500138e-005
      -1.47160290e-005 -1.44025662e-005 -1.51480026e-005
      -1.60303643e-005 -1.65208512e-005 -1.51743652e-005
      -1.45537761e-005 -1.29207629e-005 -1.74183788e-005
      -1.97782865e-005 -1.66261907e-005 -1.25989427e-005
      -1.47688961e-005 -1.47688961e-005 -1.47688961e-005
      -1.47688961e-005 -4.72307917e-008 -1.20424556e-005
      -1.41112378e-005 -9.56607073e-006 -1.15350831e-005
      -1.31113029e-005 -1.55318685e-005 -1.07402093e-005
      -1.33681724e-005 -1.04236051e-005 -1.47491000e-005
      -1.11818154e-005 -1.19857687e-005 -1.15390203e-005
      -1.40184420e-005 -1.05857944e-005 -1.38296236e-005
      -1.30325307e-005 -1.22397078e-005 -1.36325853e-005
      -1.44919586e-005 -9.44623480e-006 -1.19192218e-005
      -1.26704035e-005 -1.29220061e-005 -1.20438453e-005
      -1.20438453e-005 -1.20438453e-005 -1.20438453e-005
      -1.11087229e-005 -1.05017280e-005 -1.59603769e-005
      -1.63896984e-005 -1.13964352e-005 -9.58889868e-005
      -1.83448821e-004 -9.52260016e-005 -1.00811638e-004
      -3.41602754e-005 -3.99391720e-005 -8.77147613e-005
      -1.09611545e-004 -1.18564996e-004 -1.10315770e-004
      -8.62585366e-005 -2.98486902e-005 4.17644769e-005 7.28245213e-005
      1.46640828e-004 -2.48361557e-005 -7.62076015e-005 -6.87074789e-005
      -1.09717785e-005 -1.20438453e-005 -1.20438453e-005
      -1.20438453e-005 -1.20438453e-005 -1.44403311e-005
      -1.12625885e-005 -1.01409596e-005 -1.05989075e-005
      -1.51551912e-005 -1.07224892e-004 -1.88589882e-004
      -1.09328415e-004 -1.07446198e-004 -6.21333384e-005
      -4.88892001e-005 -6.92027679e-005 -9.14526390e-005
      -1.19860466e-004 -1.21079989e-004 -9.19212762e-005
      -6.64046383e-005 6.68219764e-006 4.25011822e-005 1.32628658e-004
      -2.96864309e-005 -7.45052239e-005 -5.55073493e-005
      -1.39988324e-005 -1.20438453e-005 -1.20438453e-005
      -1.20438453e-005 -1.20438453e-005 -1.12216139e-005
      -1.26772566e-005 -1.45315889e-005 -1.06313819e-005
      -1.27434232e-005 -1.06368054e-004 -2.04670519e-004
      -8.38940177e-005 -7.85157317e-005 -2.28246081e-005
      -1.72359632e-005 -3.18781204e-005 -3.40045881e-005
      -4.69962833e-005 -6.27818881e-005 -5.18361085e-005
      -3.41375089e-005 1.80076659e-005 6.70007576e-005 1.45821832e-004
      -1.31640054e-005 -8.53094607e-005 -6.72120877e-005
      -1.13365104e-005 -1.20438453e-005 -1.20438453e-005
      -1.20438453e-005 -1.20438453e-005 -1.40282673e-005
      -1.02855283e-005 -1.26112491e-005 -1.24839371e-005
      -1.36077124e-005 -1.23521109e-004 -2.07116289e-004
      -7.97949106e-005 -6.49177891e-005 -1.28768197e-005
      -2.97424613e-005 -4.44460893e-005 -2.28021308e-005
      -3.80762373e-007 -7.65150435e-006 -3.05429858e-005
      -3.57775971e-005 6.06195181e-006 6.88885775e-005 1.30151762e-004
      1.16574984e-005 -8.04088995e-005 -9.21682295e-005 -1.15207276e-005
      -1.20438453e-005 -1.20438453e-005 -1.20438453e-005
      -1.20438453e-005 -1.23852806e-005 -1.18119515e-005
      -1.17012287e-005 -1.51848399e-005 -8.92489334e-006
      -1.34601447e-004 -1.87852842e-004 -9.88304018e-005
      -6.77538555e-005 -4.29918910e-005 -5.93293698e-005
      -5.86512615e-005 -2.32923248e-005 1.90762985e-005 1.86236302e-005
      -1.62929755e-005 -6.93887923e-005 -5.49533543e-005 7.32179751e-006
      1.03716986e-004 1.55063153e-005 -7.82061834e-005 -1.10267327e-004
      -1.22171296e-005 -1.20438453e-005 -1.20438453e-005
      -1.20438453e-005 -1.20438453e-005 -1.14189434e-005
      -1.36252984e-005 -1.29966520e-005 -1.11461186e-005
      -1.45983458e-005 -1.33057431e-004 -1.44226782e-004
      -8.91176896e-005 -6.68642606e-005 -2.16624139e-005
      -1.06378993e-005 -5.97962980e-007 3.21441476e-005 4.34048743e-005
      6.63775836e-006 -6.91001624e-005 -1.57587216e-004 -1.82050469e-004
      -1.22507467e-004 1.16372139e-005 2.60031702e-005 -3.23947606e-005
      -9.04769913e-005 -1.38491341e-005 -1.20438453e-005
      -1.20438453e-005 -1.20438453e-005 -1.20438453e-005
      -1.19980405e-005 -1.09095145e-005 -1.13411170e-005
      -1.39593503e-005 -1.28552847e-005 -1.16973693e-004
      -8.01513524e-005 -3.22226042e-005 -2.25769818e-005 8.99185106e-005
      1.70049956e-004 1.81356692e-004 1.69267165e-004 6.97174037e-005
      -3.33868047e-005 -1.59060583e-004 -2.40916677e-004
      -2.55105406e-004 -2.29778234e-004 -6.73665418e-005 9.86794930e-007
      1.71245065e-005 -5.93255136e-005 -1.10919254e-005 -1.20438453e-005
      -1.20438453e-005 -1.20438453e-005 -1.20438453e-005
      -1.13507285e-005 -1.12137586e-005 -1.04162864e-005
      -1.19242577e-005 -1.13545684e-005 -1.12576534e-004
      -3.68755427e-005 4.46742051e-005 1.13938899e-004 3.07158363e-004
      4.58307884e-004 4.40416014e-004 3.59529542e-004 1.87761179e-004
      4.99310136e-006 -1.74281944e-004 -2.94020836e-004 -3.29603528e-004
      -2.87354487e-004 -1.38081843e-004 -3.67612047e-005 3.92541588e-005
      -3.59923324e-005 -1.18216185e-005 -1.20438453e-005
      -1.20438453e-005 -1.20438453e-005 -1.20438453e-005
      -1.20790137e-005 -1.36971639e-005 -1.03764896e-005
      -1.16054580e-005 -1.07329015e-005 -1.09740213e-004
      -2.35248444e-005 8.74545003e-005 2.14402986e-004 4.86560602e-004
      6.90096756e-004 6.67256594e-004 5.20361704e-004 2.39412650e-004
      1.20159075e-005 -1.72820655e-004 -3.03440262e-004 -3.50376155e-004
      -3.36616329e-004 -2.07638222e-004 -9.08673319e-005 1.13989618e-005
      -3.09750831e-005 -1.10279643e-005 -1.20438453e-005
      -1.20438453e-005 -1.20438453e-005 -1.20438453e-005
      -1.12616035e-005 -1.35529172e-005 -1.08724298e-005
      -1.18414673e-005 -1.14954228e-005 -1.07985608e-004
      -2.90322932e-005 1.03643695e-004 2.48665659e-004 5.99764171e-004
      8.25055235e-004 8.04301468e-004 5.99284191e-004 2.42244510e-004
      -1.75513142e-005 -1.72915985e-004 -2.68709700e-004
      -3.16247810e-004 -3.32045049e-004 -2.39262517e-004
      -1.34589602e-004 -2.57614065e-005 -3.88832741e-005
      -1.26808673e-005 -1.20438453e-005 -1.20438453e-005
      -1.20438453e-005 -1.20438453e-005 -1.17297341e-005
      -1.16351275e-005 -1.08829263e-005 -1.29215605e-005
      -1.14032109e-005 -1.00912592e-004 -4.47617276e-005 9.15599812e-005
      2.40248846e-004 6.47643814e-004 8.86325492e-004 8.63968278e-004
      6.03276945e-004 2.19074151e-004 -4.93896696e-005 -1.86875477e-004
      -2.39462926e-004 -2.59098248e-004 -2.62272079e-004
      -1.91930827e-004 -1.12641406e-004 -3.53379583e-005
      -5.45760740e-005 -1.45731237e-005 -1.20438453e-005
      -1.20438453e-005 -1.20438453e-005 -1.20438453e-005
      -1.28305037e-005 -1.21337134e-005 -1.18074349e-005
      -1.25183133e-005 -1.13574897e-005 -9.47408116e-005
      -5.77796527e-005 7.26513827e-005 2.15889784e-004 6.16681122e-004
      8.41603498e-004 7.88797333e-004 5.05399366e-004 1.40541757e-004
      -1.26116371e-004 -2.99177453e-004 -3.35999561e-004
      -2.98755389e-004 -2.31521481e-004 -1.30293323e-004
      -5.34641295e-005 -1.60669351e-005 -5.95953170e-005
      -1.22755400e-005 -1.20438453e-005 -1.20438453e-005
      -1.20438453e-005 -1.20438453e-005 -1.19750412e-005
      -1.10329383e-005 -1.16456140e-005 -1.14738477e-005
      -1.24836852e-005 -9.20389357e-005 -6.20044084e-005 5.51040139e-005
      1.87091529e-004 5.65772178e-004 7.94792257e-004 7.67100544e-004
      5.15474996e-004 1.70785861e-004 -9.66288499e-005 -3.19950108e-004
      -4.05242725e-004 -3.72384937e-004 -2.69759039e-004
      -1.23453749e-004 -2.51417005e-005 9.80861932e-006 -5.76310049e-005
      -1.29366481e-005 -1.20438453e-005 -1.20438453e-005
      -1.20438453e-005 -1.20438453e-005 -1.14337099e-005
      -1.15859311e-005 -1.24865564e-005 -1.02032564e-005
      -1.23030359e-005 -8.98245853e-005 -6.16867619e-005 3.67684988e-005
      1.48259191e-004 5.06390934e-004 7.39749288e-004 7.64269731e-004
      5.83584537e-004 2.84472335e-004 2.84445996e-005 -2.31318059e-004
      -4.12464375e-004 -4.57073795e-004 -3.63974454e-004
      -1.90783845e-004 -5.29500867e-005 1.94352888e-005 -5.51178455e-005
      -1.21393268e-005 -1.20438453e-005 -1.20438453e-005
      -1.20438453e-005 -1.20438453e-005 -1.23848431e-005
      -1.27174617e-005 -1.33483036e-005 -1.08894010e-005
      -1.23931495e-005 -8.93007891e-005 -6.68168068e-005 1.47662022e-005
      9.56559816e-005 4.25229606e-004 6.62317267e-004 7.56635389e-004
      6.64842490e-004 4.36616421e-004 2.03090793e-004 -8.77888961e-005
      -3.82158643e-004 -5.14465210e-004 -4.56505921e-004
      -2.97752529e-004 -1.21760524e-004 1.73780900e-005 -5.05357748e-005
      -1.12382140e-005 -1.20438453e-005 -1.20438453e-005
      -1.20438453e-005 -1.20438453e-005 -1.18882845e-005
      -1.09461462e-005 -1.10276424e-005 -1.19906344e-005
      -1.09401326e-005 -8.85016925e-005 -8.64876274e-005
      -6.61843160e-006 4.39153264e-005 3.39534075e-004 5.28095174e-004
      6.57993311e-004 6.68313180e-004 5.49979217e-004 3.57556797e-004
      5.14715830e-005 -2.77457119e-004 -4.67058126e-004 -5.08337747e-004
      -4.14223498e-004 -2.10628816e-004 1.68411498e-006 -4.97363762e-005
      -1.21229796e-005 -1.20438453e-005 -1.20438453e-005
      -1.20438453e-005 -1.20438453e-005 -1.27252297e-005
      -1.27551275e-005 -1.09983412e-005 -1.04666842e-005
      -1.23637292e-005 -9.12274700e-005 -9.02064057e-005
      -3.66363747e-005 -1.90106930e-005 2.16790359e-004 3.37772362e-004
      4.20274242e-004 4.75725508e-004 4.51581262e-004 3.35997262e-004
      6.95932686e-005 -2.17735447e-004 -3.92902410e-004 -4.83118289e-004
      -4.58789757e-004 -2.60336587e-004 -3.62614846e-005
      -5.80146407e-005 -1.03586362e-005 -1.20438453e-005
      -1.20438453e-005 -1.20438453e-005 -1.20438453e-005
      -9.46943237e-006 -1.22258980e-005 -1.28334095e-005
      -1.15359280e-005 -1.18633961e-005 -9.59608078e-005
      -1.04401042e-004 -5.42461967e-005 -7.41329277e-005 1.08703956e-004
      1.68352170e-004 1.77965499e-004 2.04221215e-004 1.91979198e-004
      1.68520666e-004 1.57488976e-005 -1.79405877e-004 -3.17198777e-004
      -4.33065376e-004 -4.41511365e-004 -2.62612652e-004
      -6.06171889e-005 -7.50933541e-005 -1.26981886e-005
      -1.20438453e-005 -1.20438453e-005 -1.20438453e-005
      -1.20438453e-005 -1.21869998e-005 -1.34442653e-005
      -1.06768566e-005 -1.29051914e-005 -9.57007705e-006
      -8.77137718e-005 -1.05697101e-004 -6.40663129e-005
      -8.83341636e-005 4.58330978e-005 6.85899795e-005 3.12927732e-005
      3.25067449e-005 -1.75442583e-005 2.02532328e-006 -3.86589236e-005
      -1.50963606e-004 -2.19076785e-004 -3.28200229e-004
      -3.59329075e-004 -2.08046607e-004 -7.32484696e-005
      -7.92600986e-005 -1.17999243e-005 -1.20438453e-005
      -1.20438453e-005 -1.20438453e-005 -1.20438453e-005
      -1.19699871e-005 -1.23492291e-005 -1.16207029e-005
      -1.07621472e-005 -1.07138967e-005 -8.50661672e-005
      -9.26057619e-005 -6.80790254e-005 -1.08016844e-004
      -1.81211044e-006 2.02098290e-005 -3.41102095e-005 -7.29111780e-005
      -1.66095488e-004 -1.41937431e-004 -1.02980179e-004
      -9.96848248e-005 -1.24260710e-004 -2.44109659e-004
      -2.73641635e-004 -1.54708381e-004 -6.81429083e-005
      -8.21076828e-005 -1.48349563e-005 -1.20438453e-005
      -1.20438453e-005 -1.20438453e-005 -1.20438453e-005
      -1.05970830e-005 -1.20559807e-005 -1.10339597e-005
      -1.11440550e-005 -1.11105628e-005 -8.06173121e-005
      -6.20250721e-005 -4.96564571e-005 -8.55047983e-005
      -3.09767893e-005 -2.41497928e-005 -8.16776519e-005
      -1.62263968e-004 -2.58267741e-004 -2.26537377e-004
      -1.47907835e-004 -9.35846692e-005 -8.95375706e-005
      -2.00866460e-004 -2.12765022e-004 -1.08652843e-004
      -1.82032254e-005 -7.83609357e-005 -1.32851628e-005
      -1.20438453e-005 -1.20438453e-005 -1.20438453e-005
      -1.20438453e-005 -1.17899745e-005 -1.38906471e-005
      -1.05623521e-005 -1.25587039e-005 -1.10673300e-005
      -8.19376364e-005 -3.45769404e-005 -2.53992184e-005
      -1.07841712e-004 -6.86754283e-005 -5.30720499e-005
      -6.22285224e-005 -1.30738132e-004 -2.23842755e-004
      -2.59695284e-004 -2.22430506e-004 -1.53874615e-004
      -1.10888766e-004 -1.44896811e-004 -1.09745743e-004
      -5.09625306e-006 5.01559334e-005 -5.88991716e-005 -1.04653809e-005
      -1.20438453e-005 -1.20438453e-005 -1.20438453e-005
      -1.20438453e-005 -1.16919664e-005 -1.22586243e-005
      -1.12956932e-005 -1.25725819e-005 -9.40872178e-006
      -7.54700595e-005 -4.82750056e-006 2.09357786e-005 -1.14912298e-004
      -5.19456480e-005 -3.62028513e-005 -4.72993706e-005
      -1.00319434e-004 -1.37948926e-004 -1.89662416e-004
      -1.85689147e-004 -1.69214094e-004 -1.29750682e-004
      -1.29595719e-004 -5.12436782e-005 8.38806664e-005 7.46906735e-005
      -4.45386322e-005 -1.19629358e-005 -1.20438453e-005
      -1.20438453e-005 -1.20438453e-005 -1.20438453e-005
      -1.39855474e-005 -1.02025597e-005 -1.17060172e-005
      -1.47709625e-005 -1.14315872e-005 -7.49885949e-005 3.18462262e-005
      6.70600502e-006 -1.31148918e-004 -5.04534364e-005 -4.86568242e-005
      -4.44918333e-005 -4.37339368e-005 -4.76632304e-005
      -7.33747947e-005 -9.97755415e-005 -1.03623286e-004
      -8.63793612e-005 -5.22210175e-005 2.64890023e-005 1.33459893e-004
      1.00204976e-004 -3.77200522e-005 -1.25204715e-005 -1.20438453e-005
      -1.20438453e-005 -1.20438453e-005 -1.20438453e-005
      -1.12416019e-005 -1.49130792e-005 -1.35848204e-005
      -1.06752195e-005 -1.11935005e-005 -7.84452423e-005 6.16161196e-005
      -6.28165290e-005 -1.59418982e-004 -7.52424457e-005
      -7.81607159e-005 -7.54084831e-005 -6.55095719e-005
      -5.59799628e-005 -5.26781077e-005 -6.75660194e-005
      -8.06686512e-005 -7.14734924e-005 -4.32596171e-005 2.54474871e-005
      9.85993101e-005 1.01616068e-004 -4.86788776e-005 -1.00611160e-005
      -1.20438453e-005 -1.20438453e-005 -1.20438453e-005
      -1.20438453e-005 -1.21408430e-005 -1.33224657e-005
      -1.28202892e-005 -1.36567651e-005 -1.13909600e-005
      -1.15857565e-005 -1.44074966e-005 -8.72044347e-006
      -1.20749664e-005 -1.05624376e-005 -1.27484791e-005
      -1.21243002e-005 -1.06703119e-005 -9.36294327e-006
      -1.10135643e-005 -1.30461622e-005 -1.26622135e-005
      -1.21223766e-005 -1.30997350e-005 -1.57856230e-005
      -1.04433011e-005 -1.37635016e-005 -1.17106492e-005
      -1.45230169e-005 -1.20438453e-005 -1.20438453e-005
      -1.20438453e-005 -1.20438453e-005 -1.24341423e-005
      -1.23484415e-005 -1.47823557e-005 -1.06692623e-005
      -1.25086244e-005 -1.28998190e-005 -1.11872123e-005
      -1.12861517e-005 -1.08361137e-005 -1.20378309e-005
      -1.14185714e-005 -1.16983028e-005 -1.08810900e-005
      -1.31229972e-005 -1.13912656e-005 -1.37395746e-005
      -1.30290073e-005 -1.13426695e-005 -1.00026864e-005
      -1.24204562e-005 -1.27784097e-005 -1.23831232e-005
      -9.69924895e-006 -1.01312025e-005 -1.20438453e-005
      -1.20438453e-005 -1.20438453e-005 -1.20438453e-005
      -1.62004781e-007 -4.11240981e-005 -3.85641906e-005
      -4.00630124e-005 -4.12818445e-005 -3.90885507e-005
      -4.05636820e-005 -4.24038080e-005 -4.03980957e-005
      -4.25006983e-005 -4.03819759e-005 -3.91713729e-005
      -4.21230798e-005 -4.15861177e-005 -3.99357450e-005
      -4.17363844e-005 -4.07157531e-005 -4.12773734e-005
      -4.22882113e-005 -3.95064890e-005 -3.91600879e-005
      -4.08684209e-005 -4.27340310e-005 -3.96652285e-005
      -4.39280338e-005 -4.13111447e-005 -4.13111447e-005
      -4.13111447e-005 -4.13111447e-005 -4.00894351e-005
      -4.08631895e-005 -4.07426814e-005 -3.90769528e-005
      -4.07175648e-005 8.49880962e-005 6.09477502e-005 -2.15602213e-005
      -1.74178986e-005 -1.10014207e-005 -1.86992668e-006 5.15304873e-006
      -1.30102126e-005 -6.33858281e-006 2.87960665e-005 6.36930854e-005
      6.39290010e-005 -2.81384018e-006 -7.84449949e-005 -3.02624630e-005
      -1.13452452e-005 1.33505207e-004 -1.48554022e-007 -4.01501384e-005
      -4.13111447e-005 -4.13111447e-005 -4.13111447e-005
      -4.13111447e-005 -4.04381281e-005 -4.14145579e-005
      -4.03591584e-005 -4.05726678e-005 -4.06446015e-005 8.37205371e-005
      5.78051258e-005 -1.41777937e-005 5.89806405e-006 1.28245047e-005
      2.65821182e-005 5.56977866e-005 6.49519206e-005 7.70454644e-005
      1.07896798e-004 1.13673923e-004 8.68966963e-005 1.92557218e-005
      -5.76573075e-005 -3.85776948e-005 -1.39139447e-005 1.26289087e-004
      3.60671697e-006 -4.18599848e-005 -4.13111447e-005 -4.13111447e-005
      -4.13111447e-005 -4.13111447e-005 -4.09058957e-005
      -4.08257729e-005 -4.03959202e-005 -3.99771743e-005
      -4.09664899e-005 7.98027031e-005 5.82146604e-005 3.36278822e-006
      4.74123262e-005 8.88446375e-005 1.27996755e-004 1.64531666e-004
      1.79013543e-004 1.89455153e-004 2.36906781e-004 2.41783913e-004
      2.26985765e-004 1.37549418e-004 7.56253803e-006 -2.06095465e-005
      -1.11151512e-005 1.19404423e-004 6.37441644e-006 -4.13078233e-005
      -4.13111447e-005 -4.13111447e-005 -4.13111447e-005
      -4.13111447e-005 -4.13397611e-005 -3.96857140e-005
      -4.07482949e-005 -3.84026716e-005 -4.35842339e-005 6.92897593e-005
      6.06428184e-005 4.59232288e-005 1.23309073e-004 2.10160157e-004
      2.77378276e-004 3.03245266e-004 3.02271364e-004 3.06383998e-004
      3.83684906e-004 4.48286999e-004 4.46115475e-004 3.28063295e-004
      1.35749651e-004 4.23635647e-005 -1.30244971e-005 1.01857237e-004
      -6.80866833e-007 -4.17600604e-005 -4.13111447e-005
      -4.13111447e-005 -4.13111447e-005 -4.13111447e-005
      -4.24568098e-005 -4.35931834e-005 -4.21703589e-005
      -4.08671767e-005 -3.98204938e-005 5.90748205e-005 6.18173726e-005
      8.74510370e-005 1.97140209e-004 3.30727664e-004 4.01977217e-004
      3.88066372e-004 3.59590398e-004 3.47857072e-004 4.69184743e-004
      6.13161072e-004 6.62484148e-004 5.19391615e-004 2.75697501e-004
      1.03985454e-004 -1.59581359e-005 8.12523067e-005 -3.00418765e-006
      -4.22744488e-005 -4.13111447e-005 -4.13111447e-005
      -4.13111447e-005 -4.13111447e-005 -3.99001183e-005
      -4.38331044e-005 -4.03969643e-005 -4.00944809e-005
      -4.09513705e-005 5.53934624e-005 6.26561523e-005 1.23038859e-004
      2.45956180e-004 4.05657192e-004 4.46117163e-004 3.63431463e-004
      2.66398012e-004 2.22207120e-004 3.96881020e-004 6.20452163e-004
      7.39536132e-004 6.29499729e-004 3.63900152e-004 1.49676911e-004
      -1.56891019e-005 7.18822266e-005 -6.24008908e-006 -3.90974528e-005
      -4.13111447e-005 -4.13111447e-005 -4.13111447e-005
      -4.13111447e-005 -4.30509244e-005 -4.07820517e-005
      -4.08788474e-005 -4.16120274e-005 -4.16816583e-005 4.92012769e-005
      5.83764922e-005 1.22541634e-004 2.39226618e-004 3.53476906e-004
      3.07437935e-004 1.37803989e-004 -4.59006405e-005 -1.08945111e-004
      1.21098572e-004 4.35694179e-004 6.47404348e-004 6.04496396e-004
      3.93015303e-004 1.72096858e-004 -3.68626547e-006 8.12187645e-005
      -3.56398868e-006 -4.22979901e-005 -4.13111447e-005
      -4.13111447e-005 -4.13111447e-005 -4.13111447e-005
      -4.14375208e-005 -3.97621807e-005 -4.24879217e-005
      -4.07265979e-005 -4.06801264e-005 4.56686794e-005 6.21258296e-005
      1.09108994e-004 2.00664086e-004 2.56273226e-004 1.43957455e-004
      -6.79045406e-005 -2.63454131e-004 -2.99311127e-004
      -1.41356304e-005 3.23905697e-004 5.68864110e-004 5.61691821e-004
      3.74691619e-004 1.72698856e-004 2.00257400e-005 9.17240905e-005
      -6.24995073e-006 -4.21264667e-005 -4.13111447e-005
      -4.13111447e-005 -4.13111447e-005 -4.13111447e-005
      -4.12392583e-005 -4.03890954e-005 -4.12089175e-005
      -4.06660329e-005 -4.06299514e-005 4.36612681e-005 5.88444127e-005
      8.94156547e-005 1.40974997e-004 1.61568474e-004 1.88760350e-005
      -1.76052505e-004 -3.40911822e-004 -3.16198362e-004
      -4.51840151e-006 3.16119869e-004 5.45687275e-004 5.43685921e-004
      3.61402956e-004 1.74643326e-004 3.17907979e-005 9.91718043e-005
      -7.78045069e-006 -4.18124182e-005 -4.13111447e-005
      -4.13111447e-005 -4.13111447e-005 -4.13111447e-005
      -4.08200540e-005 -4.08000160e-005 -4.14761853e-005
      -4.13009620e-005 -4.17407064e-005 3.99235614e-005 5.95611673e-005
      7.25699356e-005 7.46660517e-005 6.72890455e-005 -6.63531464e-005
      -1.95974499e-004 -3.14318953e-004 -2.21266208e-004 1.00054247e-004
      3.73254908e-004 5.63181122e-004 5.38121734e-004 3.54288088e-004
      1.68307102e-004 3.25376895e-005 1.00878548e-004 -6.94381106e-006
      -3.97658769e-005 -4.13111447e-005 -4.13111447e-005
      -4.13111447e-005 -4.13111447e-005 -4.11518849e-005
      -4.12355985e-005 -4.21452933e-005 -4.14573478e-005
      -4.16472249e-005 3.78375989e-005 6.03512053e-005 5.15105421e-005
      5.50520269e-007 -2.12000068e-005 -1.16892479e-004 -1.57499133e-004
      -2.07698205e-004 -4.46371050e-005 2.45661649e-004 4.36028902e-004
      5.61353052e-004 5.25586482e-004 3.53434385e-004 1.63821067e-004
      3.19244064e-005 9.97822062e-005 -4.29190550e-006 -4.27855957e-005
      -4.13111447e-005 -4.13111447e-005 -4.13111447e-005
      -4.13111447e-005 -4.16148578e-005 -4.07418520e-005
      -4.07971784e-005 -4.14242604e-005 -4.12996596e-005 3.72658797e-005
      5.62622008e-005 1.49185516e-005 -7.02003963e-005 -1.02707934e-004
      -1.60518786e-004 -1.23756676e-004 -1.38397561e-004 4.28441053e-005
      2.51635880e-004 3.60376696e-004 4.39943135e-004 4.27793595e-004
      2.98997707e-004 1.30671004e-004 1.78710106e-005 9.48824891e-005
      -3.40691963e-006 -4.23921338e-005 -4.13111447e-005
      -4.13111447e-005 -4.13111447e-005 -4.13111447e-005
      -4.14638271e-005 -4.08233027e-005 -4.12119516e-005
      -4.09109562e-005 -4.11459841e-005 3.92367947e-005 4.80483795e-005
      -3.75994932e-005 -1.69791674e-004 -2.23750423e-004
      -2.55556341e-004 -1.82973788e-004 -2.09367092e-004
      -6.71931048e-005 5.76494713e-005 1.41335302e-004 2.42453854e-004
      2.79862201e-004 2.28466975e-004 1.08043649e-004 1.58248695e-005
      8.82738386e-005 -5.47979971e-006 -4.02223232e-005 -4.13111447e-005
      -4.13111447e-005 -4.13111447e-005 -4.13111447e-005
      -4.04702150e-005 -4.08144660e-005 -4.10720095e-005
      -4.12055488e-005 -4.07147563e-005 4.00311437e-005 3.44542459e-005
      -9.92531059e-005 -2.62789952e-004 -3.48930713e-004
      -3.61649028e-004 -2.95330887e-004 -3.43670690e-004
      -2.43471106e-004 -1.74776927e-004 -1.06134474e-004 2.93089251e-005
      1.19355449e-004 1.42395569e-004 7.76678498e-005 1.35009359e-005
      7.91198909e-005 -5.27309066e-006 -4.26475053e-005 -4.13111447e-005
      -4.13111447e-005 -4.13111447e-005 -4.13111447e-005
      -4.16213807e-005 -4.07417538e-005 -4.11873734e-005
      -4.09088716e-005 -4.09326058e-005 3.96643409e-005 2.10115522e-005
      -1.46085149e-004 -3.34502314e-004 -4.50367574e-004
      -4.56896290e-004 -4.30348475e-004 -5.16915519e-004
      -4.71781474e-004 -4.39678930e-004 -3.64816777e-004
      -1.96739929e-004 -4.25985781e-005 4.85283817e-005 4.53941284e-005
      5.39492521e-006 6.81148667e-005 -5.10636391e-006 -4.08918604e-005
      -4.13111447e-005 -4.13111447e-005 -4.13111447e-005
      -4.13111447e-005 -4.19866083e-005 -4.17640622e-005
      -4.01605721e-005 -3.97953481e-005 -4.14843489e-005 3.89449160e-005
      1.66325492e-006 -1.83960597e-004 -3.61746730e-004 -4.96160879e-004
      -5.22231567e-004 -5.54797065e-004 -7.04728009e-004
      -7.28880696e-004 -7.30149099e-004 -6.11270778e-004
      -4.08758555e-004 -1.90799736e-004 -5.58286447e-005 5.41774079e-006
      -1.15833982e-005 6.71448652e-005 -5.44934073e-006 -4.04617385e-005
      -4.13111447e-005 -4.13111447e-005 -4.13111447e-005
      -4.13111447e-005 -4.01227881e-005 -4.06294166e-005
      -4.10843895e-005 -4.05290339e-005 -4.27332343e-005 3.72210634e-005
      -1.36326316e-005 -1.67351012e-004 -3.16496007e-004
      -4.50302934e-004 -5.18744288e-004 -6.31613599e-004
      -8.56298720e-004 -9.59889148e-004 -9.82049620e-004
      -8.48440861e-004 -6.04771718e-004 -3.56398377e-004
      -1.94971552e-004 -7.57560629e-005 -5.88580588e-005 6.88042346e-005
      -7.55621613e-006 -4.27419545e-005 -4.13111447e-005
      -4.13111447e-005 -4.13111447e-005 -4.13111447e-005
      -4.19745957e-005 -4.21460791e-005 -4.03511222e-005
      -4.13559319e-005 -4.07822554e-005 4.36392038e-005 -5.62999367e-006
      -1.13033064e-004 -2.15676118e-004 -3.18285573e-004
      -3.81571735e-004 -4.99236456e-004 -7.03696336e-004
      -8.38480715e-004 -9.03235807e-004 -8.17970838e-004
      -6.04179164e-004 -4.21444100e-004 -3.03634675e-004
      -1.75012639e-004 -1.12067835e-004 5.12533297e-005 -6.96917914e-006
      -4.15323047e-005 -4.13111447e-005 -4.13111447e-005
      -4.13111447e-005 -4.13111447e-005 -4.11325127e-005
      -4.17672782e-005 -4.05106439e-005 -4.12082336e-005
      -4.06568834e-005 4.86582576e-005 1.51416743e-005 -3.53875439e-005
      -5.90918244e-005 -5.06475226e-005 -5.95257807e-005
      -1.51803164e-004 -3.23330663e-004 -4.83909564e-004
      -6.01274427e-004 -5.85026748e-004 -4.32875910e-004
      -3.53830023e-004 -3.08476971e-004 -2.12047511e-004
      -1.39694675e-004 3.46747438e-005 -6.44706006e-006 -4.04100429e-005
      -4.13111447e-005 -4.13111447e-005 -4.13111447e-005
      -4.13111447e-005 -4.22709963e-005 -4.23154488e-005
      -3.98438169e-005 -4.09528730e-005 -4.02521291e-005 5.36810912e-005
      2.85376645e-005 2.73224464e-006 4.11737128e-005 1.74294284e-004
      2.57349631e-004 2.31681246e-004 9.97259776e-005 -7.51522603e-005
      -2.22573450e-004 -2.68626463e-004 -1.96067835e-004
      -2.19731141e-004 -2.47090560e-004 -1.84172575e-004
      -1.31005683e-004 4.13642374e-005 -5.86253645e-006 -4.37170165e-005
      -4.13111447e-005 -4.13111447e-005 -4.13111447e-005
      -4.13111447e-005 -4.07151019e-005 -4.18139607e-005
      -4.07918997e-005 -4.06266554e-005 -4.31320186e-005 5.60933513e-005
      9.48286652e-006 -1.47288392e-005 5.21737493e-005 2.26125368e-004
      3.72169307e-004 4.48758947e-004 3.93102178e-004 2.42836206e-004
      9.77546079e-005 8.67201743e-006 -2.11894148e-005 -1.02338156e-004
      -1.65359088e-004 -1.59969859e-004 -8.54998216e-005 6.11537835e-005
      -6.41174711e-006 -4.01349280e-005 -4.13111447e-005
      -4.13111447e-005 -4.13111447e-005 -4.13111447e-005
      -4.15573704e-005 -3.97510303e-005 -4.16990224e-005
      -4.08963278e-005 -4.10361208e-005 5.85476373e-005 -1.06608431e-005
      -3.45657172e-005 -1.61039461e-005 1.04934326e-004 2.08064172e-004
      2.96683196e-004 2.98298750e-004 2.38081571e-004 1.82891425e-004
      1.43048630e-004 8.02452196e-005 -2.58327236e-005 -1.20805678e-004
      -1.50952328e-004 -5.64883194e-005 7.63551507e-005 -4.69851966e-006
      -4.20461183e-005 -4.13111447e-005 -4.13111447e-005
      -4.13111447e-005 -4.13111447e-005 -4.10900284e-005
      -4.14867973e-005 -4.06313593e-005 -4.21722070e-005
      -4.00742792e-005 5.27025259e-005 -1.71167121e-005 -2.66368152e-005
      -4.68520047e-005 3.85216845e-005 9.26685170e-005 1.40705859e-004
      1.61625212e-004 1.70921907e-004 1.59606832e-004 1.21427533e-004
      6.21903819e-005 -4.43341778e-005 -1.29676060e-004 -1.36542265e-004
      -4.76282039e-005 8.10488491e-005 -5.13683881e-006 -4.21079421e-005
      -4.13111447e-005 -4.13111447e-005 -4.13111447e-005
      -4.13111447e-005 -3.98530501e-005 -4.15835566e-005
      -4.13519774e-005 -4.06442887e-005 -4.05012470e-005 5.20780741e-005
      -1.74316137e-005 -2.47627104e-005 -8.44059177e-005
      -6.40724174e-005 -3.50552145e-005 -1.06858206e-005 1.24172429e-005
      3.25176952e-005 3.56611163e-005 9.03704586e-006 -3.97777585e-005
      -1.18740201e-004 -1.80190051e-004 -1.59361443e-004
      -3.44780674e-005 7.83360520e-005 -4.65268477e-006 -4.14495153e-005
      -4.13111447e-005 -4.13111447e-005 -4.13111447e-005
      -4.13111447e-005 -4.15024297e-005 -3.81831414e-005
      -4.02949081e-005 -4.02799487e-005 -4.14379065e-005 5.80470587e-005
      -1.53277178e-005 -6.06429458e-005 -1.68589046e-004
      -1.72347340e-004 -1.64518802e-004 -1.49773172e-004
      -1.26202329e-004 -1.07155494e-004 -1.03818456e-004
      -1.19740558e-004 -1.46873615e-004 -1.94348002e-004
      -2.11253806e-004 -1.87168640e-004 -1.10841856e-005 7.14019261e-005
      -3.19613650e-006 -3.91016329e-005 -4.13111447e-005
      -4.13111447e-005 -4.13111447e-005 -4.13111447e-005
      -3.99605815e-005 -4.22034318e-005 -4.16923394e-005
      -3.80407910e-005 -4.10844004e-005 -4.09108434e-005
      -3.92550392e-005 -4.05448664e-005 -4.06724357e-005
      -3.98993761e-005 -4.37225353e-005 -4.18363197e-005
      -4.13331181e-005 -4.23063466e-005 -4.19997996e-005
      -4.19577445e-005 -4.45125370e-005 -3.94750568e-005
      -4.31450244e-005 -4.10154971e-005 -4.12757945e-005
      -3.90369678e-005 -4.23841448e-005 -4.31190820e-005
      -4.13111447e-005 -4.13111447e-005 -4.13111447e-005
      -4.13111447e-005 -4.12554909e-005 -3.97063923e-005
      -4.11038855e-005 -4.13514499e-005 -4.18764648e-005
      -4.07243897e-005 -4.36726841e-005 -4.18237287e-005
      -4.13030721e-005 -4.21169825e-005 -4.02367841e-005
      -4.08710366e-005 -4.06806030e-005 -4.10902394e-005
      -3.92193033e-005 -3.96960677e-005 -4.07830266e-005
      -4.08605265e-005 -4.33922760e-005 -3.89071538e-005
      -4.21193690e-005 -3.98720804e-005 -4.06366526e-005
      -4.06167928e-005 -4.13111447e-005 -4.13111447e-005
      -4.13111447e-005 -4.13111447e-005 -1.28541146e-007
      -3.32661330e-005 -3.35081822e-005 -3.28882343e-005
      -3.31471201e-005 -3.29689501e-005 -3.30164439e-005
      -3.40457300e-005 -3.27037342e-005 -3.32345298e-005
      -3.34685974e-005 -3.30564690e-005 -3.31541960e-005
      -3.23322893e-005 -3.27650123e-005 -3.30391013e-005
      -3.32452946e-005 -3.17949962e-005 -3.16671758e-005
      -3.17028571e-005 -3.19717292e-005 -3.15340112e-005
      -3.42735802e-005 -3.27316557e-005 -3.20394865e-005
      -3.27779744e-005 -3.27779744e-005 -3.27779744e-005
      -3.27779744e-005 -3.19938445e-005 -3.19693791e-005
      -3.41540836e-005 -3.19225619e-005 -3.37818892e-005 9.64644423e-005
      5.68767719e-005 1.10972614e-004 1.64475292e-004 1.64864439e-004
      1.54633832e-004 1.62380515e-004 1.71069536e-004 1.69219202e-004
      1.48541512e-004 1.08458175e-004 8.84804831e-005 1.42729172e-004
      2.05277262e-004 1.17375625e-004 8.19520355e-005 -3.11670519e-005
      3.59368169e-005 -3.29707509e-005 -3.27779744e-005 -3.27779744e-005
      -3.27779744e-005 -3.27779744e-005 -3.31311494e-005
      -3.12852353e-005 -3.36251251e-005 -3.49039765e-005
      -3.17778286e-005 9.63610510e-005 6.80362791e-005 9.31178583e-005
      1.53311223e-004 1.48878942e-004 1.11608497e-004 9.60645993e-005
      9.91311244e-005 9.70380279e-005 7.75357476e-005 4.99576890e-005
      2.02009051e-005 6.56250922e-005 1.46102873e-004 8.96177153e-005
      7.21191827e-005 -2.57895881e-005 3.85116655e-005 -3.40009137e-005
      -3.27779744e-005 -3.27779744e-005 -3.27779744e-005
      -3.27779744e-005 -3.30685471e-005 -3.28926290e-005
      -3.16491351e-005 -3.40932493e-005 -3.04667446e-005 9.47072404e-005
      1.69575833e-005 -1.04612564e-005 2.50076719e-005 -1.17529553e-005
      -7.90257473e-005 -9.31273098e-005 -5.52538768e-005
      -3.17371487e-005 -4.63831821e-005 -9.72356138e-005
      -1.65904232e-004 -1.39644617e-004 -4.84559641e-005
      -5.08160556e-005 2.05424521e-006 -2.60566212e-005 4.18154304e-005
      -3.33919234e-005 -3.27779744e-005 -3.27779744e-005
      -3.27779744e-005 -3.27779744e-005 -3.22780725e-005
      -3.18616912e-005 -3.24769790e-005 -3.46649613e-005
      -3.53104151e-005 9.39198217e-005 -3.19823848e-005 -1.11255598e-004
      -1.17492033e-004 -1.95006374e-004 -2.79760658e-004
      -2.50595331e-004 -1.60940326e-004 -9.84974395e-005
      -7.24008132e-005 -1.11328998e-004 -2.00484967e-004
      -1.97198882e-004 -1.10469358e-004 -1.20389421e-004
      -5.04775307e-005 -4.39818614e-005 3.70964917e-005 -3.15040379e-005
      -3.27779744e-005 -3.27779744e-005 -3.27779744e-005
      -3.27779744e-005 -3.32877280e-005 -3.19311002e-005
      -3.73620387e-005 -3.26677291e-005 -3.00706197e-005 8.28714910e-005
      -6.42325176e-005 -1.84969424e-004 -2.35839194e-004
      -3.25173227e-004 -3.80023906e-004 -2.89398013e-004
      -1.49965737e-004 -1.78202754e-005 6.78114884e-005 9.28159279e-005
      4.41325792e-005 6.42687701e-006 2.10519538e-005 -5.55176193e-005
      -5.18737143e-005 -5.10363025e-005 3.66884960e-005 -3.17009981e-005
      -3.27779744e-005 -3.27779744e-005 -3.27779744e-005
      -3.27779744e-005 -3.24172288e-005 -3.46033703e-005
      -3.14886856e-005 -3.21222105e-005 -3.33376556e-005 8.35696992e-005
      -8.05767995e-005 -1.89585888e-004 -2.60875619e-004
      -3.32395110e-004 -3.36548488e-004 -2.07994424e-004
      -5.52612400e-005 1.40060758e-004 3.37435136e-004 4.91647341e-004
      5.12910716e-004 4.90703154e-004 3.99646146e-004 1.80378076e-004
      3.79037629e-005 -4.00937970e-005 2.36852920e-005 -3.27323432e-005
      -3.27779744e-005 -3.27779744e-005 -3.27779744e-005
      -3.27779744e-005 -3.31100237e-005 -3.10346040e-005
      -3.50148948e-005 -3.29163267e-005 -3.33354692e-005 7.60439580e-005
      -8.23860901e-005 -1.62839438e-004 -2.32884719e-004
      -2.96935294e-004 -2.80081964e-004 -1.55623988e-004 1.01332553e-005
      2.44312454e-004 4.92075866e-004 7.07343861e-004 8.22905800e-004
      8.39190732e-004 7.10072869e-004 3.84228246e-004 1.34109141e-004
      -3.17337253e-005 2.33637875e-005 -3.39907347e-005 -3.27779744e-005
      -3.27779744e-005 -3.27779744e-005 -3.27779744e-005
      -3.39643520e-005 -3.35548793e-005 -3.30009498e-005
      -3.29968207e-005 -3.34644828e-005 6.38936981e-005 -1.02312573e-004
      -1.79575902e-004 -2.78974301e-004 -3.39340128e-004
      -3.77150165e-004 -3.04365822e-004 -1.51003420e-004 7.06114515e-005
      3.04837187e-004 5.70202596e-004 7.56971887e-004 8.33194586e-004
      7.37261318e-004 4.10686713e-004 1.63479010e-004 -2.16470999e-005
      1.98239250e-005 -3.13323762e-005 -3.27779744e-005 -3.27779744e-005
      -3.27779744e-005 -3.27779744e-005 -3.33639873e-005
      -3.24819557e-005 -3.39916442e-005 -3.32966301e-005
      -3.37262245e-005 5.75038903e-005 -1.28275991e-004 -2.11965002e-004
      -3.24094115e-004 -4.15156275e-004 -5.11461985e-004
      -5.23941533e-004 -4.47396364e-004 -2.72344361e-004
      -4.51194137e-005 2.34098741e-004 4.87434678e-004 6.36263343e-004
      6.11828465e-004 3.61427054e-004 1.54487163e-004 -9.77795389e-006
      2.10018607e-005 -3.36066041e-005 -3.27779744e-005 -3.27779744e-005
      -3.27779744e-005 -3.27779744e-005 -3.27507914e-005
      -3.20393192e-005 -3.49282782e-005 -3.30528892e-005
      -3.45088447e-005 5.02403200e-005 -1.40461649e-004 -2.36187683e-004
      -3.46523942e-004 -4.68232669e-004 -6.13473589e-004
      -7.03691680e-004 -7.33206922e-004 -6.37777266e-004
      -4.45360522e-004 -1.72352520e-004 1.10145658e-004 3.29864852e-004
      3.94076866e-004 2.47316580e-004 1.10400229e-004 -3.86190868e-006
      1.97804020e-005 -3.53023497e-005 -3.27779744e-005 -3.27779744e-005
      -3.27779744e-005 -3.27779744e-005 -3.36811499e-005
      -3.32799355e-005 -3.48281974e-005 -3.21982807e-005
      -3.51186100e-005 4.45672194e-005 -1.30921602e-004 -2.35624757e-004
      -3.30319395e-004 -4.57157934e-004 -6.11988071e-004
      -7.12918525e-004 -8.07386648e-004 -8.03704723e-004
      -6.92841131e-004 -4.64695477e-004 -2.23678377e-004
      -5.29688214e-006 1.17053889e-004 6.50610746e-005 1.96809779e-005
      -1.53249439e-005 2.25007680e-005 -3.39144935e-005 -3.27779744e-005
      -3.27779744e-005 -3.27779744e-005 -3.27779744e-005
      -3.27390662e-005 -3.38482459e-005 -3.40870938e-005
      -3.22851993e-005 -3.46057677e-005 4.39191208e-005 -8.90787342e-005
      -1.89612925e-004 -2.75667931e-004 -3.53524374e-004
      -4.38546151e-004 -4.48288803e-004 -4.92949097e-004
      -5.07505902e-004 -4.70261148e-004 -3.71950329e-004
      -2.91476637e-004 -1.85177254e-004 -9.22683612e-005
      -1.07283973e-004 -7.10013919e-005 -3.84435662e-005 1.88492813e-005
      -3.46515590e-005 -3.27779744e-005 -3.27779744e-005
      -3.27779744e-005 -3.27779744e-005 -3.35664154e-005
      -3.40898696e-005 -3.30996590e-005 -3.43791326e-005
      -3.36490048e-005 4.61393029e-005 -3.86977554e-005 -9.48240704e-005
      -1.09344066e-004 -9.00756277e-005 -6.92043614e-005 1.84838191e-005
      4.53578577e-005 5.32992635e-005 5.26928379e-005 -2.04445678e-005
      -1.50014530e-004 -2.10063721e-004 -1.97336383e-004
      -2.19043024e-004 -1.27153005e-004 -5.21720503e-005 1.83770935e-005
      -3.37948077e-005 -3.27779744e-005 -3.27779744e-005
      -3.27779744e-005 -3.27779744e-005 -3.28358146e-005
      -3.38005120e-005 -3.27254202e-005 -3.35604418e-005
      -3.36219346e-005 4.83566328e-005 7.83568885e-006 2.84405505e-005
      1.11836220e-004 2.46582233e-004 3.57429410e-004 4.59256989e-004
      4.68239916e-004 4.60340962e-004 4.20466677e-004 2.32892693e-004
      -3.16400328e-005 -2.08262150e-004 -2.59885914e-004
      -2.98690749e-004 -1.66329264e-004 -5.66816234e-005 1.62114520e-005
      -3.30365619e-005 -3.27779744e-005 -3.27779744e-005
      -3.27779744e-005 -3.27779744e-005 -3.30902585e-005
      -3.48508365e-005 -3.32545351e-005 -3.38629216e-005
      -3.27123053e-005 4.75026864e-005 3.02878379e-005 1.16535608e-004
      2.93400022e-004 5.42188645e-004 6.94937771e-004 7.47697894e-004
      6.70669600e-004 5.93600678e-004 5.17515815e-004 3.01434164e-004
      5.01751401e-006 -1.97012210e-004 -2.73215468e-004 -3.23550630e-004
      -1.91308849e-004 -5.86632959e-005 1.81963424e-005 -3.16530168e-005
      -3.27779744e-005 -3.27779744e-005 -3.27779744e-005
      -3.27779744e-005 -3.57116114e-005 -3.19585342e-005
      -3.45397748e-005 -3.29927279e-005 -3.34765391e-005 4.48117062e-005
      1.79593389e-005 1.39835873e-004 3.57243407e-004 6.63651153e-004
      8.13240476e-004 8.08870711e-004 6.29124173e-004 4.95527347e-004
      4.01620258e-004 2.16187182e-004 -3.63602740e-005 -2.01149989e-004
      -2.47312069e-004 -2.94877216e-004 -1.81614378e-004
      -6.66393462e-005 1.94671666e-005 -3.26212357e-005 -3.27779744e-005
      -3.27779744e-005 -3.27779744e-005 -3.27779744e-005
      -3.19368955e-005 -3.22798769e-005 -3.43144202e-005
      -3.46027955e-005 -3.40425431e-005 3.67360481e-005 -3.06242000e-005
      4.61355230e-005 2.88345618e-004 5.82286506e-004 7.14663300e-004
      6.77416276e-004 4.83332580e-004 3.24802124e-004 2.49424920e-004
      1.10239060e-004 -9.60819307e-005 -2.36023567e-004 -2.51044461e-004
      -2.65383220e-004 -1.69417137e-004 -6.77173084e-005 1.63827208e-005
      -3.51347335e-005 -3.27779744e-005 -3.27779744e-005
      -3.27779744e-005 -3.27779744e-005 -3.41155719e-005
      -3.37547353e-005 -3.37639322e-005 -3.16386613e-005
      -3.44951040e-005 3.18263228e-005 -4.34210633e-005 -4.75540655e-005
      1.11065034e-004 3.13915079e-004 3.95762443e-004 3.89709749e-004
      3.14576144e-004 2.15633743e-004 1.54516965e-004 1.26867699e-005
      -1.62589015e-004 -2.70814606e-004 -2.68636300e-004
      -2.57649459e-004 -1.57765942e-004 -6.86160638e-005 1.79035724e-005
      -3.12667580e-005 -3.27779744e-005 -3.27779744e-005
      -3.27779744e-005 -3.27779744e-005 -3.29183276e-005
      -3.26641130e-005 -3.25265792e-005 -3.31360934e-005
      -3.27152593e-005 3.57160388e-005 -6.88492037e-006 -5.44108370e-005
      -1.15888247e-006 5.71802411e-005 6.85555206e-005 8.38251217e-005
      1.18582262e-004 1.08915032e-004 6.75296978e-005 -8.00317939e-005
      -2.20058748e-004 -2.96208338e-004 -2.58336018e-004
      -1.99587754e-004 -1.12481008e-004 -5.56790183e-005 1.93114229e-005
      -3.25579858e-005 -3.27779744e-005 -3.27779744e-005
      -3.27779744e-005 -3.27779744e-005 -3.27289417e-005
      -3.33934913e-005 -3.44876680e-005 -3.33282333e-005
      -3.47063578e-005 4.04673046e-005 5.25632531e-005 3.18009347e-006
      -1.70916098e-006 -5.58669308e-005 -1.29354274e-004
      -1.33732203e-004 -5.80007945e-005 -3.24621078e-006
      -1.42796671e-005 -1.23138831e-004 -2.36320149e-004
      -2.76385719e-004 -2.00905895e-004 -1.20283730e-004
      -6.02808832e-005 -4.58012801e-005 1.94012118e-005 -3.53937830e-005
      -3.27779744e-005 -3.27779744e-005 -3.27779744e-005
      -3.27779744e-005 -3.45825356e-005 -3.35586956e-005
      -3.32597519e-005 -3.32028649e-005 -3.23579152e-005 4.81064671e-005
      8.86959460e-005 6.59800935e-005 5.58886786e-005 -1.27230660e-005
      -1.29014792e-004 -1.93681466e-004 -1.62649012e-004
      -1.23715916e-004 -1.20425371e-004 -1.35585200e-004
      -1.79487412e-004 -1.76030095e-004 -8.71734737e-005
      -3.67071952e-005 -2.50966968e-005 -4.66231286e-005 1.71089014e-005
      -3.19906067e-005 -3.27779744e-005 -3.27779744e-005
      -3.27779744e-005 -3.27779744e-005 -3.44457439e-005
      -3.29589711e-005 -3.34363722e-005 -3.38193822e-005
      -3.24008652e-005 3.86002866e-005 4.13327034e-005 1.94546174e-005
      8.44562746e-005 8.69852884e-005 3.07104733e-006 -9.71365371e-005
      -1.28382773e-004 -1.19659911e-004 -9.71811751e-005
      -5.91993448e-005 -4.34761205e-005 3.26292184e-006 5.99338346e-005
      2.89076961e-005 -3.21180732e-006 -3.12769444e-005 1.24089302e-005
      -3.40450424e-005 -3.27779744e-005 -3.27779744e-005
      -3.27779744e-005 -3.27779744e-005 -3.22578962e-005
      -3.39264261e-005 -3.36256562e-005 -3.29415998e-005
      -3.39280487e-005 3.29184877e-005 4.25438520e-005 1.43979423e-005
      1.04153623e-004 1.49693398e-004 1.06121763e-004 2.66747211e-005
      -2.13578551e-005 -2.61364876e-005 1.08435197e-005 3.88429798e-005
      6.77360076e-005 1.10104891e-004 1.15195435e-004 2.12987243e-006
      -3.63322324e-005 -4.05147148e-005 1.83674983e-005 -3.15452453e-005
      -3.27779744e-005 -3.27779744e-005 -3.27779744e-005
      -3.27779744e-005 -3.29238756e-005 -3.25702531e-005
      -3.26928166e-005 -3.24001994e-005 -3.31681840e-005 3.27257076e-005
      3.34908182e-005 -2.86680006e-005 3.07433147e-005 7.66524099e-005
      6.21387662e-005 3.15162288e-005 -9.24198321e-006 -1.83528100e-005
      -4.77094682e-006 7.36672109e-006 1.34470747e-005 7.81343806e-006
      -1.65560868e-005 -1.43854428e-004 -8.71597294e-005
      -6.72319220e-005 2.01896091e-005 -3.17591075e-005 -3.27779744e-005
      -3.27779744e-005 -3.27779744e-005 -3.27779744e-005
      -3.38645987e-005 -3.50513546e-005 -3.35772165e-005
      -3.26172012e-005 -3.29956856e-005 3.27340422e-005 6.68893392e-007
      -1.39629046e-004 -1.45760758e-004 -1.01943733e-004
      -9.50716349e-005 -9.19996237e-005 -9.85955339e-005
      -1.07804117e-004 -1.25058796e-004 -1.41549011e-004
      -1.55935675e-004 -1.80800809e-004 -2.03399497e-004
      -3.09902447e-004 -1.69395411e-004 -9.83008649e-005 2.39408346e-005
      -3.33111784e-005 -3.27779744e-005 -3.27779744e-005
      -3.27779744e-005 -3.27779744e-005 -3.24831090e-005
      -3.52904244e-005 -3.06212823e-005 -3.58492543e-005
      -3.34950055e-005 -3.32323871e-005 -3.56822966e-005
      -3.50461487e-005 -3.34635843e-005 -3.31567717e-005
      -3.24843095e-005 -3.13083692e-005 -3.26076843e-005
      -3.16719306e-005 -3.17507584e-005 -3.11976328e-005
      -3.44828331e-005 -3.06378752e-005 -3.37642196e-005
      -3.35366458e-005 -2.90535336e-005 -3.20358195e-005
      -3.24228531e-005 -3.13476048e-005 -3.27779744e-005
      -3.27779744e-005 -3.27779744e-005 -3.27779744e-005
      -3.28145907e-005 -3.43151914e-005 -3.48889225e-005
      -3.20052677e-005 -3.39616163e-005 -3.30815601e-005
      -3.07461123e-005 -3.30445946e-005 -3.28979731e-005
      -3.18636303e-005 -3.10097275e-005 -3.31722731e-005
      -3.26477566e-005 -3.21735351e-005 -3.16929254e-005
      -3.12679767e-005 -2.96534145e-005 -3.62812098e-005
      -3.22015112e-005 -3.25036672e-005 -3.37884703e-005
      -3.00122083e-005 -3.31844712e-005 -3.41688792e-005
      -3.27779744e-005 -3.27779744e-005 -3.27779744e-005
      -3.27779744e-005 -1.10585482e-007 -2.89321451e-005
      -2.80497188e-005 -2.79049873e-005 -2.81995181e-005
      -2.78946773e-005 -2.65971594e-005 -2.72784200e-005
      -2.81298926e-005 -2.97781207e-005 -2.74867471e-005
      -2.81691373e-005 -2.88854135e-005 -2.71472254e-005
      -2.94689416e-005 -2.61756140e-005 -2.73729311e-005
      -2.95027967e-005 -2.57087449e-005 -2.88591691e-005
      -2.77657455e-005 -2.93259927e-005 -2.74899958e-005
      -2.84687521e-005 -2.68279819e-005 -2.81993325e-005
      -2.81993325e-005 -2.81993325e-005 -2.81993325e-005
      -2.56984567e-005 -2.97631923e-005 -2.64158316e-005
      -2.75483071e-005 -2.84553753e-005 7.08743028e-005 3.41432969e-005
      2.34909807e-004 2.24327567e-004 2.11283026e-004 1.90841834e-004
      2.50940415e-004 2.39408153e-004 1.96226305e-004 1.61504140e-004
      1.44755861e-004 1.77292008e-004 2.03052317e-004 2.22004470e-004
      1.82883712e-004 4.94145825e-005 5.99394916e-005 -1.98073249e-005
      -2.80115310e-005 -2.81993325e-005 -2.81993325e-005
      -2.81993325e-005 -2.81993325e-005 -2.61893929e-005
      -2.80266559e-005 -3.02195058e-005 -2.73126770e-005
      -2.76790070e-005 7.19578165e-005 6.36046534e-005 2.37310436e-004
      2.24819698e-004 2.30454636e-004 2.21139868e-004 2.81555083e-004
      2.68253265e-004 2.26025542e-004 1.80661198e-004 1.84770819e-004
      2.25365817e-004 2.67666910e-004 2.73290352e-004 2.06965648e-004
      7.24864512e-005 5.25989963e-005 -2.94266629e-005 -2.85935403e-005
      -2.81993325e-005 -2.81993325e-005 -2.81993325e-005
      -2.81993325e-005 -2.75757957e-005 -2.89185773e-005
      -2.65285380e-005 -2.75645652e-005 -2.83865029e-005 5.81071145e-005
      8.41355504e-005 2.22708695e-004 2.29764526e-004 2.47114658e-004
      2.54072889e-004 2.79017491e-004 2.37214757e-004 1.86655700e-004
      1.69859952e-004 2.09898761e-004 2.39312765e-004 3.04957881e-004
      3.03080422e-004 2.07375138e-004 6.06288741e-005 5.35726685e-005
      -2.28289900e-005 -3.03070537e-005 -2.81993325e-005
      -2.81993325e-005 -2.81993325e-005 -2.81993325e-005
      -2.63729453e-005 -3.01055243e-005 -2.92766454e-005
      -2.69792927e-005 -2.96006510e-005 5.82297216e-005 8.37704720e-005
      1.97386500e-004 2.19600828e-004 2.54915736e-004 2.63393507e-004
      2.48374796e-004 1.70899206e-004 1.33963302e-004 1.37466515e-004
      1.60735435e-004 1.90711275e-004 2.26792952e-004 2.42933544e-004
      1.63507895e-004 4.46344566e-005 4.69922124e-005 -1.57627128e-005
      -2.81050870e-005 -2.81993325e-005 -2.81993325e-005
      -2.81993325e-005 -2.81993325e-005 -2.90987700e-005
      -2.76473620e-005 -2.79703345e-005 -2.69295379e-005
      -2.99359090e-005 5.08958656e-005 6.24678141e-005 1.52041903e-004
      1.89288723e-004 2.32013495e-004 1.95486893e-004 1.49927000e-004
      8.51888908e-005 6.03001645e-005 3.31724477e-005 2.62940284e-005
      5.02396033e-005 8.20816276e-005 1.23510719e-004 8.13289807e-005
      1.13344995e-005 4.81348761e-005 -1.13086326e-005 -2.97536662e-005
      -2.81993325e-005 -2.81993325e-005 -2.81993325e-005
      -2.81993325e-005 -2.52252994e-005 -2.78083262e-005
      -2.86539907e-005 -2.77843847e-005 -2.78535354e-005 5.04668642e-005
      4.01955731e-005 1.05148501e-004 1.21281781e-004 1.39101219e-004
      4.22568446e-005 1.59548745e-005 3.08479116e-006 4.59562216e-006
      -5.77975552e-005 -1.04969273e-004 -8.27842596e-005
      -6.10177594e-005 -1.96849669e-005 7.68948939e-006 -2.52013160e-005
      4.06491818e-005 -1.23285008e-005 -2.63491020e-005 -2.81993325e-005
      -2.81993325e-005 -2.81993325e-005 -2.81993325e-005
      -2.79280048e-005 -2.61929581e-005 -2.63039310e-005
      -2.59683693e-005 -2.81606826e-005 4.87042780e-005 1.26730720e-005
      2.99054282e-005 -1.95916200e-005 -3.78533005e-005 -1.58087554e-004
      -1.09983455e-004 -4.34561080e-005 5.26871081e-005 4.44714824e-005
      2.25478161e-005 3.50925147e-005 2.86720569e-005 5.04701675e-005
      3.58986217e-005 -1.79262206e-005 2.17413963e-005 -1.64966059e-005
      -2.71657518e-005 -2.81993325e-005 -2.81993325e-005
      -2.81993325e-005 -2.81993325e-005 -2.80070817e-005
      -2.77067647e-005 -2.89018881e-005 -2.79647884e-005
      -2.77352028e-005 4.95601016e-005 -2.37429094e-006 -3.23487984e-005
      -1.21476689e-004 -1.71072912e-004 -2.86536000e-004
      -1.99460788e-004 -9.07798894e-005 8.02968716e-005 2.06585275e-004
      3.55990254e-004 4.49354149e-004 4.27179213e-004 3.60557082e-004
      1.97229907e-004 4.07805965e-005 2.28157151e-005 -2.70370983e-005
      -2.90018052e-005 -2.81993325e-005 -2.81993325e-005
      -2.81993325e-005 -2.81993325e-005 -2.78891857e-005
      -2.76824503e-005 -2.72420584e-005 -2.84636735e-005
      -2.78694497e-005 4.68131548e-005 -6.94663186e-006 -6.67139539e-005
      -1.89121274e-004 -2.74404709e-004 -4.13617527e-004
      -3.62094113e-004 -2.87715346e-004 -1.01398786e-004 1.28237822e-004
      4.36763803e-004 6.73040049e-004 7.30885891e-004 6.22280058e-004
      3.43305495e-004 1.11807502e-004 3.85772473e-005 -3.29266586e-005
      -2.95275167e-005 -2.81993325e-005 -2.81993325e-005
      -2.81993325e-005 -2.81993325e-005 -2.85359438e-005
      -2.73919104e-005 -2.75280963e-005 -2.86496943e-005
      -2.74280919e-005 4.47886014e-005 -1.62981860e-006 -9.21123938e-005
      -2.39212968e-004 -3.53915239e-004 -5.38605207e-004
      -5.61355322e-004 -5.71911922e-004 -4.59817180e-004
      -2.01844741e-004 2.03700009e-004 5.66574687e-004 7.67219695e-004
      7.12846348e-004 4.11836227e-004 1.46759150e-004 4.94260894e-005
      -3.37735582e-005 -3.28888564e-005 -2.81993325e-005
      -2.81993325e-005 -2.81993325e-005 -2.81993325e-005
      -2.77099080e-005 -2.71117497e-005 -2.80634467e-005
      -2.85498427e-005 -2.81701359e-005 4.15193572e-005 -5.07575214e-006
      -1.12525369e-004 -2.71446741e-004 -3.98034317e-004
      -6.14519813e-004 -7.10514258e-004 -8.04783194e-004
      -8.04103154e-004 -6.02843706e-004 -2.34432358e-004 1.73869266e-004
      4.56617970e-004 5.24881296e-004 3.43950524e-004 1.09139837e-004
      4.28886706e-005 -3.30299808e-005 -2.96120543e-005 -2.81993325e-005
      -2.81993325e-005 -2.81993325e-005 -2.81993325e-005
      -2.82072997e-005 -2.70332985e-005 -2.79569813e-005
      -2.73275855e-005 -2.75756192e-005 3.78409532e-005 -1.80031839e-005
      -1.41868702e-004 -3.07110051e-004 -4.13969858e-004
      -5.74383768e-004 -6.06995716e-004 -6.42686442e-004
      -6.78673503e-004 -6.18013961e-004 -4.27416147e-004
      -1.66142592e-004 2.95799473e-005 1.44528414e-004 1.24664191e-004
      -4.00746740e-006 2.33302890e-005 -3.18728416e-005 -3.00735628e-005
      -2.81993325e-005 -2.81993325e-005 -2.81993325e-005
      -2.81993325e-005 -2.78544303e-005 -2.75046696e-005
      -2.85502192e-005 -2.75658931e-005 -2.74116228e-005 3.75354975e-005
      -2.87078656e-005 -1.62161828e-004 -3.28636525e-004
      -4.13487636e-004 -4.98209440e-004 -4.13872272e-004
      -2.95099220e-004 -2.25007752e-004 -2.29213780e-004
      -2.08900834e-004 -1.81592040e-004 -1.87372105e-004
      -1.37791634e-004 -7.84515141e-005 -1.03857856e-004
      -1.43515681e-005 -3.45287081e-005 -2.98370815e-005
      -2.81993325e-005 -2.81993325e-005 -2.81993325e-005
      -2.81993325e-005 -2.86211161e-005 -2.80160184e-005
      -2.87089752e-005 -2.72778489e-005 -2.77554627e-005 3.71505303e-005
      -2.60931683e-005 -1.64917350e-004 -3.60329490e-004
      -4.31071763e-004 -4.71652020e-004 -2.78019608e-004
      -2.34809577e-005 1.57548289e-004 1.63676523e-004 9.69440953e-005
      -3.96891264e-005 -2.13436433e-004 -2.53976468e-004
      -1.84387405e-004 -1.53450761e-004 -4.54652254e-005
      -3.62865212e-005 -3.04357764e-005 -2.81993325e-005
      -2.81993325e-005 -2.81993325e-005 -2.81993325e-005
      -2.79610904e-005 -2.75301245e-005 -2.71157733e-005
      -2.77469990e-005 -2.90736443e-005 3.53025061e-005 -2.61640598e-005
      -1.66266822e-004 -3.66980123e-004 -4.51450847e-004
      -4.97885980e-004 -2.56185740e-004 8.03076327e-005 3.48055299e-004
      3.99274519e-004 3.13525234e-004 1.16328672e-004 -1.60936295e-004
      -2.58302549e-004 -2.12577826e-004 -1.71063686e-004
      -6.36913028e-005 -3.86196625e-005 -3.00135325e-005
      -2.81993325e-005 -2.81993325e-005 -2.81993325e-005
      -2.81993325e-005 -2.69568063e-005 -2.88941683e-005
      -2.81704943e-005 -2.78327279e-005 -2.83222707e-005 3.67634602e-005
      -2.48054330e-005 -1.32561021e-004 -3.44832661e-004
      -4.38367104e-004 -5.19488181e-004 -3.29757051e-004
      -1.49732559e-005 2.77001353e-004 3.59297526e-004 3.36003985e-004
      1.54205947e-004 -1.13759401e-004 -2.22986258e-004 -2.02902520e-004
      -1.73035878e-004 -6.05798123e-005 -3.85822532e-005
      -2.73625919e-005 -2.81993325e-005 -2.81993325e-005
      -2.81993325e-005 -2.81993325e-005 -2.82464971e-005
      -2.83611789e-005 -2.99301155e-005 -2.76675528e-005
      -2.86611867e-005 3.74015472e-005 -5.38485574e-006 -7.31204345e-005
      -2.64652743e-004 -3.39734310e-004 -4.41884389e-004
      -2.98103521e-004 -4.46294434e-005 2.16984510e-004 2.76767998e-004
      2.21581678e-004 7.36550865e-005 -1.49971951e-004 -2.18477435e-004
      -2.11891194e-004 -1.81347539e-004 -5.11627586e-005
      -3.69106019e-005 -3.07991104e-005 -2.81993325e-005
      -2.81993325e-005 -2.81993325e-005 -2.81993325e-005
      -2.82484925e-005 -2.70511337e-005 -2.64725895e-005
      -2.86145241e-005 -2.72635170e-005 4.00377830e-005 -4.93417815e-007
      -2.69163775e-005 -1.39515614e-004 -1.67690945e-004
      -2.76657724e-004 -2.03678210e-004 -1.13876195e-004 4.91655373e-005
      1.02966318e-004 7.76745219e-005 -2.53023463e-005 -1.62298340e-004
      -1.71100313e-004 -1.82082586e-004 -1.86962468e-004
      -3.80165402e-005 -3.65367705e-005 -2.94582878e-005
      -2.81993325e-005 -2.81993325e-005 -2.81993325e-005
      -2.81993325e-005 -2.87022340e-005 -2.77921536e-005
      -2.74720387e-005 -2.96154540e-005 -2.82018773e-005 4.22468511e-005
      3.51507282e-007 1.32448804e-006 -4.10928078e-005 -1.82615895e-005
      -1.38480755e-004 -1.37334820e-004 -1.67928694e-004
      -9.72086418e-005 -5.20744507e-005 -4.46041850e-005
      -9.15470810e-005 -1.47993502e-004 -1.09831672e-004
      -1.39073018e-004 -1.71594307e-004 -1.90075771e-005
      -3.32215059e-005 -3.03110974e-005 -2.81993325e-005
      -2.81993325e-005 -2.81993325e-005 -2.81993325e-005
      -2.76076571e-005 -2.80127460e-005 -2.88825704e-005
      -3.00872143e-005 -2.78790449e-005 4.22910016e-005 -1.17550222e-007
      7.88537000e-006 2.50858429e-005 7.38170711e-005 -4.19893477e-005
      -1.00304336e-004 -1.90202438e-004 -1.77261769e-004
      -1.26719344e-004 -9.79551696e-005 -1.02151556e-004
      -1.07835171e-004 -4.86344070e-005 -7.91671337e-005
      -1.29306660e-004 -1.37204261e-005 -3.21631524e-005
      -2.69708089e-005 -2.81993325e-005 -2.81993325e-005
      -2.81993325e-005 -2.81993325e-005 -2.88668343e-005
