layers 14
layer 0 Convolution2D
32 1 3 3 valid
[-0.09763254 -0.13990246 -0.11500502]
[ 0.09012721 -0.06732697  0.10304072]
[-0.06408914  0.05304158 -0.10706095]
[-0.14358242  0.10461783 -0.07817204]
[ 0.08758039 -0.13038203  0.06609828]
[-0.04295664 -0.08884208 -0.08343741]
[ 0.10968857  0.18819895  0.23175605]
[ 0.02111266  0.16251293  0.09388643]
[-0.16928205 -0.31076139 -0.32391229]
[ 0.13232568  0.23608205 -0.24284053]
[ 0.17475973  0.07558945 -0.3263832 ]
[ 0.09035897  0.03303027 -0.13512252]
[-0.22892214 -0.20070888  0.00113093]
[ 0.03205378  0.17040949 -0.05938385]
[ 0.19850418  0.062921    0.03967148]
[ 0.0548218   0.09476297  0.02001858]
[ 0.10680306  0.24730465 -0.03620734]
[ 0.07375255 -0.0762674  -0.32576954]
[ 0.16852532  0.13302889 -0.22312774]
[ 0.20367809  0.09138995 -0.18106671]
[ 0.07600721 -0.00578488 -0.23641132]
[-0.13361345 -0.06940235 -0.09632184]
[ 0.08358443  0.11079251 -0.10128329]
[-0.01816438 -0.11836896 -0.07395022]
[ 0.04835379 -0.08481265 -0.1948259 ]
[ 0.19134729 -0.15757439 -0.15288125]
[ 0.34447208  0.03430194 -0.0412752 ]
[ 0.1177673  -0.34863159 -0.22054112]
[-0.04235664  0.02078186  0.03609079]
[-0.09238681  0.35778877  0.17093068]
[ 0.18991922  0.12837863  0.00614129]
[-0.21098968 -0.1378389   0.20204738]
[-0.24244264 -0.09354535  0.16676499]
[-0.40635681 -0.26710427  0.18551509]
[-0.27279931  0.17388049  0.25780132]
[-0.06586845  0.22226274  0.20307145]
[-0.06470437  0.07235708  0.01595443]
[-0.22478317  0.26657134 -0.07548556]
[-0.13282333  0.28321096 -0.13918002]
[ 0.29008526 -0.22926076 -0.16749677]
[-0.08965628 -0.24263383  0.02354415]
[-0.15412427  0.1624579   0.30137172]
[-0.10300604  0.1035838  -0.04143252]
[ 0.02549188 -0.1358725  -0.13735865]
[-0.13990986  0.12143385 -0.07162452]
[ 0.06778641 -0.26944587  0.27800271]
[-0.35688534 -0.16291639  0.33981499]
[-0.28663802  0.06314892  0.34154254]
[-0.1848596   0.14186549 -0.01808807]
[-0.18798472  0.18124999  0.05286792]
[-0.08976243  0.03802439  0.09399192]
[ 0.14847724  0.1954218   0.24713583]
[ 0.05524024  0.11197513  0.11605886]
[-0.34297442 -0.1494538  -0.25099674]
[ 0.00390218 -0.26648951  0.11172758]
[-0.19376773 -0.03722619  0.18517347]
[-0.09040099 -0.00684663  0.25097266]
[-0.19981681 -0.40566269 -0.33403456]
[-0.05288156  0.14794652 -0.01770184]
[ 0.23229136  0.31946817  0.3176952 ]
[-0.00942872 -0.23417525  0.15146463]
[ 0.09251868 -0.16704017  0.13206635]
[ 0.08257907 -0.23187372  0.18234351]
[-0.37502     0.0298092   0.13533832]
[-0.21652985  0.22504152  0.17318548]
[-0.2978431   0.14227538  0.21979515]
[ 0.1030604   0.16306455 -0.28148484]
[-0.00026466  0.08408345  0.03008788]
[-0.22609006  0.08481839  0.08995925]
[-0.21887046  0.19816543  0.14769047]
[-0.23732395  0.21667501  0.1766326 ]
[-0.29344267  0.08217776 -0.05560068]
[ 0.3591491   0.41076756  0.09496082]
[ 0.04239611  0.08196595 -0.23439673]
[-0.40141341 -0.43818888  0.07928538]
[ 0.2793602   0.0219929  -0.05568155]
[ 0.23609959 -0.13192561 -0.14108957]
[ 0.0839948  -0.12057673 -0.16321731]
[ 0.15274079  0.37828359  0.40008262]
[-0.00337109  0.04184996  0.10703225]
[-0.27747115 -0.36012578 -0.39931881]
[ 0.01586039 -0.11978313 -0.053687  ]
[-0.10382634 -0.33009905  0.02675407]
[ 0.11585961 -0.14138529 -0.04106019]
[-0.39839661 -0.14615642 -0.42041364]
[ 0.08217934  0.21687803  0.1631882 ]
[ 0.2021504   0.17499238  0.17472205]
[ 0.0546142  -0.19808459 -0.26635724]
[ 0.35200247 -0.10288461 -0.21508688]
[ 0.40028107  0.09551953 -0.0527068 ]
[ 0.17295054  0.43706349  0.07084467]
[ 0.19871005 -0.02689014 -0.30447474]
[ 0.16610019 -0.38555196 -0.31315419]
[-0.11967444 -0.11326293 -0.05041514]
[-0.03122416  0.04612814 -0.14332153]
[ 0.06458885 -0.09494098 -0.02635074]
[-0.02188602 -0.01664879 -0.01738404 -0.02632137 -0.00259682 -0.12083399
 -0.03521699 -0.00793791 -0.01182912 -0.00393501  0.01143962 -0.08796957
 -0.01226143  0.05296656 -0.01647238 -0.01774736 -0.00809568 -0.110807
  0.0146112  -0.02136037 -0.00825762 -0.0754811  -0.03347304 -0.02920359
 -0.02408705 -0.02079447 -0.04165856  0.27099568 -0.04095842 -0.08114995
 -0.08640072 -0.00366977]
layer 1 Activation
relu
layer 2 MaxPooling2D
2 2
layer 3 Dropout
layer 4 Convolution2D
64 32 3 3 valid
[ 0.00420779  0.02105664  0.07744221]
[ 0.0629323   0.04339012  0.07894973]
[ 0.04659699 -0.07438742 -0.05479126]
[ 0.02239116 -0.01497869  0.0049046 ]
[-0.01464062 -0.08267005  0.01287819]
[ 0.01074091 -0.02474943  0.009247  ]
[-0.87079757 -0.25050926 -0.0109802 ]
[-0.29278037 -0.62271464 -0.16213392]
[-0.02119456  0.1549563   0.01156416]
[ 0.14529705  0.07245672  0.06094414]
[ 0.07762136  0.01084672 -0.05629626]
[-0.20388795 -0.05240938 -0.03863137]
[ 0.04735829  0.01055482 -0.21606562]
[-0.01077881  0.08377439  0.07929666]
[-0.10371242  0.08623789  0.20960534]
[-0.08011077 -0.05455382  0.11221954]
[-0.06039102 -0.19208692 -0.04039201]
[-0.01559568 -0.03457329  0.07034755]
[ 0.11897367  0.05269264  0.05070885]
[-0.02331058  0.0398677  -0.12293085]
[-0.22514017 -0.04724408 -0.0241848 ]
[ 0.02943638 -0.04358933 -0.06577775]
[ 0.05852393  0.07933217 -0.06744886]
[ 0.01513008 -0.04054951  0.07212292]
[ 0.17581493  0.09914855 -0.20867866]
[-0.02320176  0.03421339  0.04340186]
[-0.46130261 -0.02659301  0.06687589]
[-0.00414288 -0.10158478 -0.13327664]
[ 0.00841901  0.1483589  -0.10541736]
[-0.14656408  0.27064574  0.07368037]
[-0.04220809  0.02330015  0.01196826]
[ 0.04417446 -0.60663402 -0.0225597 ]
[-0.06361441  0.20398119 -0.14041905]
[ 0.01825603  0.1467329   0.09418199]
[ 0.0790363  -0.25127941 -0.01664379]
[-0.01014987 -0.47754338 -0.18464921]
[ 0.09282663 -0.02541484  0.30895713]
[ 0.13271116 -0.33782431 -0.11945157]
[-0.04811031 -0.03927474 -0.33210894]
[-0.03633102 -0.08995489  0.09785882]
[ 0.03307681  0.04380826 -0.02030478]
[-0.01920403  0.1078259  -0.05909551]
[-0.00282814  0.0706234   0.06226417]
[ 0.00087924  0.0802176   0.01412059]
[ 0.01479136 -0.00427303 -0.02474726]
[ 0.02835218  0.14663227  0.04337255]
[ 0.04542982 -0.30621287  0.0091862 ]
[ 0.01240055 -0.12929942 -0.11259777]
[ 0.00981581  0.06054182  0.10272702]
[ 0.05982006  0.01243864  0.10275737]
[-0.03616709  0.0921914  -0.15749659]
[-0.33855128 -0.40428814 -0.05258726]
[-0.10632207 -0.13208187 -0.04831549]
[-0.0244982   0.09984211  0.00634809]
[ 0.05192639  0.20907304  0.16799755]
[ 0.07424659 -0.37884551 -0.03412727]
[ 0.05543195 -0.40191671 -0.17367055]
[ 0.01782886 -0.0718151  -0.22358027]
[-0.06386442 -0.00532251  0.03164957]
[-0.14570723  0.27112678  0.16476972]
[ 0.03052628  0.48367196  0.00085399]
[ 0.0385044  -0.00296638 -0.03154243]
[ 0.17628078 -0.60253245 -0.12549698]
[ 0.0162686   0.24721655  0.08707374]
[ 0.03701581 -0.20089035 -0.04049578]
[-0.03932992 -0.17460227 -0.27958089]
[ 0.02506978 -0.10203759  0.16424017]
[ 0.09389178  0.20393659 -0.06176327]
[-0.06635496  0.20284759  0.01415787]
[-0.06099236  0.31190324  0.05397568]
[ 0.0702087  -0.20056501 -0.04462369]
[-0.06237235 -0.13240635 -0.36708567]
[-0.33704272 -0.57303554  0.11329164]
[-0.22484255 -1.09601367  0.05909272]
[-0.06451251  0.07902846 -0.01231686]
[ 0.06111697  0.048303    0.00477107]
[-0.19957387  0.00653455 -0.16293457]
[-0.15085937 -0.07669502 -0.00410062]
[-0.78824091 -0.16327192 -0.04546379]
[-0.17512326 -0.52982217 -0.02653511]
[-0.04225174  0.05173264 -0.00029276]
[-0.11354046 -0.08693893 -0.08896843]
[ 0.00162504 -0.01875607 -0.010607  ]
[-0.02694003 -0.16789362 -0.01624589]
[ 0.05434105 -0.06985787 -0.06283062]
[ 0.00657197  0.04653212 -0.00387604]
[-0.1279947   0.19792001  0.06157325]
[ 0.09292703  0.05851006 -0.17823248]
[-0.08827291  0.03626632  0.00494601]
[-0.40432099 -0.01791668  0.1071787 ]
[-0.14260298 -0.03962526  0.08197568]
[-0.79015356 -0.49900562 -0.0986064 ]
[-0.22067353 -0.19455513 -0.10621734]
[ 0.05939752 -0.05957176 -0.05657035]
[ 0.00549102  0.07349275 -0.02115579]
[-0.0789396   0.07212424 -0.07367705]
[ 0.06777372  0.04970848 -0.03202997]
[-0.02546602  0.05450762  0.06560887]
[ 0.05882227 -0.04241006 -0.00591159]
[ 0.06263044 -0.05958591 -0.04336893]
[ 0.04868709  0.02380991 -0.08033416]
[-0.02979335  0.05260501  0.02128073]
[ 0.04779882  0.07739765  0.12878077]
[-0.08415365 -0.00270299  0.08740588]
[-0.06520043  0.00442138  0.14309087]
[ 0.07141072  0.0039674  -0.92940891]
[ 0.08627359 -0.05521381 -1.09370685]
[ 0.06225174 -0.23104067 -0.03523238]
[-0.20597571 -0.41684833 -0.13315749]
[-0.11942539 -0.11376335 -0.01196676]
[ 0.02980633  0.04674588  0.17901579]
[ 0.08059331 -0.03842762 -0.19235398]
[ 0.00167534 -0.08591373 -0.16130151]
[-0.02191999 -0.27965564  0.11400607]
[ 0.07163886 -0.10200373 -0.99282122]
[ 0.02520411  0.01390288 -1.05537271]
[ 0.05202666 -0.25413695 -0.06057495]
[-0.0187538  -0.07230838 -0.0644035 ]
[ 0.00937184  0.07286551  0.06685068]
[ 0.00148046 -0.04725631 -0.01405651]
[-0.00236816 -0.00856192 -0.88708174]
[ 0.05506297 -0.02804156 -0.58205742]
[ 0.05492786 -0.05039293  0.1115253 ]
[-0.60833079 -0.39675659 -0.2491665 ]
[-0.18264477 -0.16891043  0.04308732]
[-0.01518157  0.08282227  0.10071532]
[-0.22369213  0.10757098 -0.07718085]
[-0.22356981 -0.02752642  0.1046752 ]
[-0.12317725  0.07286424 -0.08861443]
[ 0.12658031 -0.03923138 -0.02726411]
[-0.05246001 -0.07064368 -0.04487148]
[-0.12668245 -0.01377491  0.02239786]
[ 0.35755032 -0.01877283 -0.01183464]
[ 0.27967438 -0.27660573 -0.13541475]
[ 0.16401999 -0.17329164  0.02842809]
[-0.27129817  0.00361072 -0.09458288]
[-0.0903286  -0.06093247  0.01986161]
[ 0.05070018  0.04030131 -0.09318218]
[-0.04346466  0.04638616 -0.04557529]
[-0.07545844 -0.01988379  0.00607468]
[-0.02527216 -0.07130732  0.05757176]
[-0.02771025  0.05013762  0.00673052]
[-0.15330492 -0.02832443  0.00551906]
[-0.1387739   0.00085309 -0.03196122]
[ 0.14374614  0.11195756  0.0155865 ]
[-0.0942123  -0.06441952 -0.0182175 ]
[-0.00133952 -0.02433578 -0.00151822]
[-0.00184033 -0.0122738   0.08683128]
[-0.05880813 -0.04727327  0.07148865]
[-0.12229171  0.0661124   0.05240194]
[-0.04759358  0.04307753  0.00852089]
[-0.25003892 -0.09138103  0.02619206]
[-0.20526205  0.06954531 -0.01176377]
[-0.47506258 -0.78589487 -0.4690581 ]
[-0.18943492 -0.07300448  0.01788422]
[ 0.0477457   0.09045413  0.20320007]
[-0.0946807   0.04760306 -0.02345795]
[-0.23732024 -0.1214762   0.05604885]
[ 0.02876561  0.02649481 -0.01576258]
[ 0.12368838  0.03882738 -0.00405497]
[-0.03533192 -0.03194194 -0.07088884]
[-0.07078141 -0.07959709 -0.01602033]
[ 0.10492741 -0.07205284  0.09805211]
[ 0.01189171 -0.10314533  0.05347814]
[ 0.04574065 -0.13393907 -0.10265163]
[ 0.1624032   0.04139022  0.00469558]
[ 0.22860274 -0.01281457 -0.03346313]
[ 0.04386749 -0.07144418 -0.03056183]
[ 0.02530529  0.03138183  0.06642809]
[ 0.09994937 -0.00261189  0.07547144]
[-0.01508676 -0.02872817 -0.04218073]
[ 0.04800271  0.113833   -0.89658886]
[ 0.07920807 -0.01600097 -0.8736378 ]
[ 0.06227995 -0.07849336 -0.0968056 ]
[-0.02015223 -0.00756747  0.02614764]
[-0.14329074  0.01212358  0.05028532]
[-0.05901095  0.10957738  0.14309657]
[ 0.00705815  0.07574861  0.05837325]
[ 0.04582071  0.03033481 -0.0332755 ]
[-0.02699386  0.00754905 -0.08886509]
[-0.33271331 -0.40314978 -0.2857776 ]
[-0.22167586 -0.05862681 -0.05242601]
[ 0.06433061  0.10724298  0.19368047]
[ 0.01815127 -0.00215597 -0.78702503]
[ 0.04827086 -0.00090585 -0.50565904]
[ 0.05031518 -0.00640094  0.04966457]
[ 0.06755815 -0.04742842 -0.5409981 ]
[ 0.0484396  -0.07462273 -0.20727034]
[-0.05784223 -0.18349092  0.10511387]
[-0.02939285  0.06787233 -0.01173066]
[-0.06728742  0.01361745 -0.00879   ]
[-0.03767996 -0.04288366  0.07414624]
[ 0.01013615 -0.03301783 -0.01276774]
[ 0.03433759  0.04729049  0.04946594]
[-0.00300845 -0.04351709  0.01764233]
[-0.05961259 -0.00626425 -0.03871473]
[ 0.07933078 -0.01628058 -0.01855548]
[-0.02309158 -0.05921231  0.05301078]
[-0.24099889 -0.03140128  0.0219279 ]
[ 0.04289031  0.02914388 -0.21898411]
[-0.02840634  0.08173202  0.01802463]
[ 0.18714046  0.01227092  0.02231058]
[ 0.06617384  0.06810644 -0.01665535]
[-0.02268399  0.01775191  0.01518303]
[-0.08094069  0.05264279 -0.07423679]
[-0.1076543   0.03641839  0.19171874]
[-0.05340628  0.11003266  0.06527452]
[-0.02263304 -0.02010786 -0.11600737]
[ 0.11159592  0.01733256 -0.05450141]
[ 0.03788339  0.04530613  0.08871354]
[ 0.15141417  0.0122927  -0.00696853]
[ 0.04247967 -0.00500204 -0.00685985]
[ 0.05146848 -0.00761897  0.03976506]
[-0.07082605  0.02450044 -0.07274207]
[ 0.0536507  -0.04334099 -0.02446409]
[-0.03289544 -0.05276792  0.07163064]
[ 0.10769498  0.03386683 -0.03966691]
[-0.04902764  0.04629134  0.03650903]
[ 0.0190985   0.03305149 -0.02277475]
[-0.02792691  0.04509612 -0.06351198]
[-0.10194832  0.16040128  0.0120829 ]
[ 0.06977452  0.13204631  0.01625719]
[-0.0084285  -0.28855556  0.09857711]
[ 0.03380569 -0.24899726 -0.15185858]
[ 0.01127896  0.04242671 -0.00970987]
[-0.06791033 -0.17852204 -0.12143023]
[-0.01650745 -0.88503397 -0.20923243]
[-0.04466437 -0.410173   -0.04200954]
[ 0.14866929 -0.24428552  0.08994142]
[ 0.10492362 -0.1789716  -0.52519977]
[ 0.04134489  0.13133128 -0.01682375]
[-0.07698635 -0.07638764 -0.11157051]
[-0.19810128  0.13111639  0.01118284]
[ 0.02924157  0.0955938   0.02222792]
[ 0.04695844  0.02888478 -0.06201568]
[ 0.07888523 -0.05367744 -0.03231694]
[-0.00970738 -0.06409078  0.01500279]
[-0.00825789 -0.11145528 -0.06907626]
[-0.03646654 -0.85037988 -0.11400691]
[-0.04363212 -0.17988878 -0.00364528]
[ 0.02007565 -0.168328    0.09225501]
[-0.0458264  -0.19205688 -0.13536084]
[ 0.00607684 -0.00791796 -0.01372757]
[ 0.00053101 -0.01361369  0.00658904]
[ 0.03688427  0.04003101 -0.09774669]
[-0.00720819  0.00479097  0.01735332]
[-0.04311248 -0.27049491 -0.10873966]
[-0.03525395 -1.0556072  -0.16603336]
[-0.00877411 -0.256816   -0.0437287 ]
[-0.06305311 -0.01453946 -0.02708983]
[-0.13510212  0.09670668 -0.03755803]
[-0.09418264  0.1824228  -0.10540748]
[-0.11361758  0.25221661 -0.18101597]
[-0.13904437 -0.66349506 -0.20016706]
[-0.00588486 -0.37808102 -0.23915742]
[-0.01741253 -0.07903901 -0.08925758]
[ 0.04326084 -0.95948356 -0.50929463]
[-0.01726993 -0.28653556 -0.20659123]
[ 0.15848857 -0.00372397  0.16748561]
[-0.01216291  0.20464271  0.04013326]
[-0.0564732   0.06436612 -0.05134134]
[-0.02389776  0.04823241  0.05702727]
[-0.02480433 -0.68088251 -0.64742082]
[ 0.02002537 -0.2513656  -0.27584273]
[-0.11441711 -0.10170387  0.07196142]
[ 0.03003648  0.09728553 -0.21701868]
[-0.01459059  0.04361685  0.03211345]
[ 0.18304944  0.01586968 -0.03848126]
[ 0.08410287  0.09726501 -0.06137886]
[ 0.04598375 -0.03898002  0.03833699]
[-0.16792595  0.03490177  0.04846319]
[ 0.01492287  0.00122378 -0.15496555]
[ 0.00408449  0.0219508  -0.00664935]
[-0.09316549  0.0135501  -0.03875063]
[-0.04823245 -0.0618436  -0.02380577]
[-0.04027701  0.02035918  0.02040383]
[ 0.00501889 -0.01842246 -0.06417089]
[-0.00844896  0.03197461  0.087365  ]
[ 0.01332351  0.07370561  0.02129833]
[ 0.09365953  0.04318437 -0.11157028]
[ 0.03485349  0.0117341   0.04147259]
[ 0.08974585  0.00538796 -0.02249814]
[-0.14183526 -0.07705964 -0.05935364]
[-0.01282663 -0.08357572 -0.12627065]
[ 0.03415347 -0.04283353 -0.02715796]
[-0.07819914 -0.01552363  0.01664856]
[ 0.05006057 -0.07447067  0.03008644]
[ 0.02741456 -0.06227064 -0.05668525]
[-0.01817286 -0.06899472  0.04388364]
[ 0.06921193 -0.07185964 -0.05629529]
[ 0.05871471 -0.06797691 -0.03086449]
[ 0.05522518  0.03234356  0.05078784]
[-0.05486203  0.00682282 -0.05336059]
[-0.01944138 -0.05847687  0.01698908]
[ 0.13334534 -0.01867955 -0.0099123 ]
[-0.07430354 -0.1130346   0.0114555 ]
[ 0.12534446  0.04729597 -0.02777963]
[-0.27600402 -1.08742547 -0.07694405]
[-0.74609464 -0.62025571  0.05860385]
[-0.61202919 -0.19010419  0.02536908]
[ 0.0865952   0.01206182 -0.02133325]
[ 0.02567994  0.15837198  0.07017609]
[ 0.03072437  0.15046634 -0.12537189]
[-0.23691125 -0.154302    0.05898831]
[-0.12486797 -0.00125298 -0.04029636]
[ 0.00768063 -0.01753871  0.02325099]
[-0.36791629 -1.05168819 -0.022398  ]
[-0.76320326 -0.63697916 -0.00812733]
[-0.55105746 -0.09737636  0.07123035]
[-0.03700947 -0.00775522 -0.03072296]
[ 0.05814803  0.02920981  0.02066367]
[ 0.01935633  0.03522415 -0.06415045]
[-0.09776943 -0.41340232 -0.13516493]
[-0.47351685 -0.50832486  0.02536431]
[-0.57151961 -0.34059003  0.12504064]
[ 0.10870036  0.08689251 -0.04059405]
[ 0.1889403   0.01527831 -0.39205468]
[ 0.07534467  0.07754363 -0.32436454]
[-0.04620371  0.19578867 -0.00905188]
[-0.01319227 -0.13010788 -0.1612753 ]
[-0.13610396 -0.00491095  0.00387311]
[-0.05737272  0.10901316  0.18125843]
[-0.00146173  0.09405933 -0.12329371]
[ 0.00108851 -0.22063473 -0.24839988]
[-0.13680455  0.04955912  0.16568503]
[ 0.01325777  0.0653989   0.11250091]
[-0.06368591 -0.19729452  0.13549785]
[ 0.01463827  0.03918714 -0.33399433]
[ 0.06388164 -0.08738403 -0.61276406]
[-0.21211767 -0.18738915 -0.04877921]
[ 0.00365003  0.03512869  0.07520443]
[-0.08039975 -0.05934604  0.05990371]
[ 0.04559517  0.02200017  0.04592131]
[-0.02063695  0.01278333  0.06473567]
[ 0.06661388  0.02402087 -0.17856316]
[-0.02942195 -0.15713201  0.05137314]
[ 0.01252557  0.00144927  0.04853223]
[-0.00115231  0.06354839 -0.05390641]
[ 0.00388207 -0.12160153  0.06728984]
[-0.10424285 -0.03845536  0.04189344]
[-0.09947463 -0.07263885 -0.05712938]
[ 0.03696835  0.0397815  -0.03249887]
[-0.04270542  0.07760362  0.12038387]
[ 0.05229408 -0.03600697 -0.20724466]
[-0.0454627  -0.35008934 -0.11932356]
[ 0.02516873  0.03084459 -0.06806493]
[ 0.16652377  0.05814883 -0.4363361 ]
[ 0.15156415  0.05017119 -0.49935749]
[-0.06532466  0.02473599 -0.25122422]
[-0.00867691 -0.13177928 -0.60643834]
[-0.085352   -0.34693706 -0.29099876]
[-0.00693798  0.06847364  0.17434485]
[ 0.03341065  0.04846693 -0.17788534]
[ -1.41972589e-04  -2.39958465e-01   2.59576105e-02]
[-0.07931339 -0.13180637 -0.06689923]
[-0.01169303 -0.09624943 -0.15626644]
[-0.01459963 -0.02233301 -0.06952745]
[-0.01552639  0.08543838  0.11767887]
[ 0.02706608 -0.0114965  -0.18332314]
[-0.02933954 -0.14543918  0.03434795]
[ 0.2104726   0.185554   -0.06283118]
[-0.09808494  0.05155995  0.05663425]
[ 0.05563216  0.0842577  -0.02351179]
[-0.30357939 -0.75348359 -0.03575339]
[-0.6327492  -0.2535907   0.06247972]
[-0.39322051 -0.05304458  0.03722151]
[ 0.13346583  0.04616412 -0.05435515]
[-0.10803176 -0.13947561  0.02619963]
[ 0.06591978  0.04727992 -0.01540324]
[ 0.04037354 -0.12276401 -0.29148763]
[ 0.10827608 -0.09440232 -0.20175947]
[-0.08469936 -0.12198788 -0.13579641]
[ 0.09170152  0.05081189 -0.00390896]
[ 0.01897286  0.13598993 -0.11265157]
[ 0.08935897  0.08553776 -0.34174541]
[-0.11739652 -0.36937675 -0.14307201]
[-0.46170765 -0.62347752  0.01727686]
[-0.69696873 -0.50101674  0.11112365]
[-0.29599321 -0.62857366  0.04124433]
[-0.66541934 -0.25971174  0.05246129]
[-0.14355397  0.02209321  0.02604856]
[-0.01583643  0.00756373 -0.00755492]
[-0.04470856  0.07177171 -0.07178103]
[-0.01510816 -0.02637178 -0.0480759 ]
[ 0.07665013  0.01276322 -0.04159657]
[ 0.05685232  0.02663696  0.07667539]
[ 0.05834262 -0.02421233 -0.05773292]
[ 0.07122636  0.03736122 -0.04538998]
[ 0.03825396  0.06438512  0.0628575 ]
[ 0.0398003  -0.00124872 -0.02468255]
[-0.14741914  0.05059348 -0.00703628]
[-0.12607938 -0.44182205 -0.80764741]
[-0.01692767  0.05552684 -0.24604625]
[ 0.08884661  0.12352049 -0.01917528]
[ 0.03277087  0.00214952  0.04429679]
[-0.05087161 -0.0249659   0.03474947]
[-0.04761929 -0.0685484   0.08381218]
[ 0.07498857  0.32009608  0.18736817]
[-0.09416425 -0.01497842 -0.12363163]
[-0.00439842  0.01756367 -0.07755436]
[-0.16704692 -0.07763235  0.16661556]
[ 0.03110295 -0.02399774  0.03893305]
[ 0.09620711  0.11169221 -0.00236485]
[ 0.02120514 -0.06982055  0.05779431]
[-0.02997437 -0.0696516   0.04330913]
[-0.04776613 -0.01008903 -0.04855717]
[-0.07838356  0.03509235 -0.05307012]
[-0.06274924  0.06738487 -0.07524803]
[ 0.04690831  0.03458192 -0.03566921]
[ 0.06349096  0.09217714  0.02142358]
[-0.10988373 -0.12285261  0.05731131]
[-0.06483194 -0.0160935   0.14321718]
[ 0.24394679  0.25715849 -0.06550128]
[-0.25010416 -0.02733244 -0.30173358]
[-0.17345266  0.15837704  0.01358322]
[ 0.00798312 -0.21028312 -0.26053858]
[ 0.08056776  0.19093098 -0.1021491 ]
[-0.06750682 -0.00932176 -0.08656751]
[-0.25577831  0.03137754 -0.04621518]
[-0.07928994 -0.15453796 -0.01775163]
[-0.14010279  0.02530572  0.19920914]
[-0.26084924 -0.18607549  0.20496784]
[ 0.03720545 -0.11521932  0.22780453]
[-0.21884178  0.07135286 -0.00642811]
[ 0.00749305  0.10167969 -0.2479371 ]
[-0.4471615  -0.05656116  0.10152712]
[-0.02929869 -0.0246999   0.00488378]
[-0.07577172 -0.05012549  0.01662315]
[ 0.05856048 -0.02539608  0.04688189]
[ 0.10514602  0.0369752  -0.05475572]
[-0.09594739 -0.00096429 -0.05555776]
[ 0.02370765  0.00822997  0.08322819]
[-0.00465496  0.00635414  0.02259151]
[ 0.0428257  -0.04883071  0.08189381]
[ 0.10422172  0.03793784  0.01886641]
[-0.18402056 -0.03042014 -0.00593213]
[ 0.02949291 -0.16920176 -0.31123933]
[ 0.05541671  0.10877969 -0.19307484]
[-0.05496119  0.07137811 -0.09972783]
[-0.10571066  0.09577087 -0.10395056]
[-0.02507829  0.00916338  0.15554026]
[-0.07824191 -0.09464313  0.00321907]
[ 0.14946613  0.05221944  0.02327051]
[-0.1101974  -0.18802039 -0.39261472]
[ 0.13618277  0.11648364 -0.12188732]
[-0.21632729  0.05542328  0.01938598]
[-0.16938473  0.01024249  0.12804462]
[ 0.00278756  0.02397714 -0.0704947 ]
[-0.19153795 -0.04183348 -0.06948236]
[-0.05580306 -0.01561398  0.02982491]
[ 0.07647631  0.02136782  0.00711493]
[ 0.4795393  -0.03478138 -0.10111462]
[-0.04804618  0.12783302  0.07790071]
[ 0.00741033  0.01948769 -0.04536304]
[-0.12726116 -0.13194269 -0.11655816]
[ 0.02410545  0.0129469  -0.03935683]
[-0.18845649  0.11385661  0.11561356]
[-0.26230949 -0.24543418 -0.64660317]
[-0.00992494  0.09254625 -0.07983463]
[ 0.02086984  0.12132333 -0.00700032]
[-0.09017955 -0.10195346  0.03760485]
[-0.0081573  -0.01004162  0.04937533]
[-0.14698943  0.06583941  0.02383098]
[ 0.02730553 -0.6967032  -0.83718073]
[-0.00919036  0.04916946 -0.21769457]
[-0.17795475 -0.12309059 -0.27543068]
[-0.33528888 -0.05249352 -0.16279784]
[-0.19044265 -0.11728375 -0.13112687]
[-0.10155398 -0.07349899  0.02140141]
[ 0.1162621   0.09129077  0.11796188]
[-0.10471466 -0.21145917 -0.12857692]
[ 0.01764213  0.01421226 -0.09568164]
[ 0.05390719  0.08462261  0.02085528]
[-0.07673788 -0.13372242  0.04805673]
[-0.01456517  0.1750152  -0.05025492]
[-0.26921731 -0.26419219  0.02049882]
[ 0.02937457 -0.03886605  0.02907431]
[ 0.01444136  0.07507224 -0.03897227]
[ 0.07703963  0.01882315 -0.07773788]
[-0.02893613 -0.04004999 -0.06818224]
[ 0.0311499   0.02905767 -0.01989557]
[ 0.01572979  0.04071437 -0.01765056]
[-0.00555959 -0.0548462   0.06727884]
[ 0.05456166  0.00258442 -0.02796152]
[ 0.03156041  0.05108728 -0.06397762]
[ 0.00520566  0.01270511 -0.03563595]
[-0.55153108 -0.01648952  0.28833178]
[-0.45713615 -0.42951235 -0.2578291 ]
[ 0.05120528  0.23352084 -0.41812873]
[-0.71143854 -0.01713155  0.12744415]
[-0.33747843  0.00634954  0.06855416]
[-0.574651   -0.00091763  0.08045071]
[ 0.02849318  0.04634869 -0.1409121 ]
[-0.13293841 -0.0698323  -0.24878395]
[ 0.11436582 -0.01078895 -0.11485758]
[-0.07971612 -0.00604773 -0.03023846]
[-0.11527761 -0.00879368 -0.09945308]
[-0.03348256  0.05348606 -0.17971972]
[-0.64651471  0.07276309  0.03018401]
[-0.38302371  0.00840916  0.08916745]
[-0.47923258 -0.0059762   0.11012693]
[ 0.04102169  0.05053004  0.06793059]
[ 0.04808982  0.05038955 -0.05054028]
[ 0.03264587  0.06410541  0.03974332]
[-0.41629902  0.0011462   0.15695699]
[-0.60211551  0.02691258 -0.00344956]
[-0.54104829  0.05267645  0.09461565]
[ 0.14959104 -0.02858969 -0.03334517]
[-0.23410676 -0.40538356 -0.06263141]
[-0.24491642 -0.14860456  0.18576056]
[ 0.05142803 -0.19685178  0.07211228]
[ 0.02302069 -0.3856473   0.03843666]
[-0.04322613 -0.22012182  0.06261706]
[ 0.02268812 -0.20926085 -0.05794322]
[ 0.02594478 -0.4211663   0.01805742]
[ 0.05273937 -0.44523337  0.04382544]
[ 0.02733743 -0.09797474 -0.01502936]
[ 0.01126321  0.07843214  0.14655386]
[-0.06308344 -0.04633822  0.02587317]
[-0.03097315 -0.31570321 -0.11160261]
[-0.05468524 -0.06744551 -0.01059463]
[-0.20558093 -0.02473754  0.11223062]
[ 0.05245814 -0.08159097 -0.08031085]
[ 0.0060276   0.0818809  -0.00010571]
[-0.0550861   0.04841384  0.02393118]
[-0.01301978 -0.15828967 -0.01405362]
[ 0.02037361 -0.08118516  0.00368491]
[-0.05133098 -0.08355336  0.0621747 ]
[ 0.0540072 -0.1242172 -0.0128837]
[ 0.04845936 -0.2689721   0.00316256]
[-0.03500345 -0.41306967  0.04869731]
[-0.02384365 -0.06038055 -0.07574121]
[-0.1157704  -0.11714715 -0.21592844]
[-0.02144199  0.00934982 -0.16215318]
[ 0.04252954 -0.17049745 -0.03556766]
[-0.0270071  -0.10792477  0.02263742]
[ 0.04760716 -0.00292801  0.06969418]
[ 0.06843432  0.05975201 -0.10091791]
[-0.47446713 -0.52670401 -0.22083458]
[-0.46677753 -0.51439822 -0.06701458]
[-0.05744081  0.07342315  0.02388911]
[ 0.02243203  0.07850712  0.16737571]
[-0.07198282  0.10141517  0.11246955]
[-0.00049442 -0.29141688 -0.04282485]
[ 0.0314567  -0.32255173  0.07804674]
[ 0.04244837 -0.64465606  0.04249476]
[ 0.03171107  0.07348958  0.09462199]
[-0.03975784  0.0393809  -0.02626955]
[ -1.81208298e-01  -1.08184991e-04  -2.57986207e-02]
[ 0.08670276 -0.24561432 -0.00515135]
[ 0.03933457 -0.30268723  0.11663204]
[ 0.00230494 -0.77627891  0.13150464]
[-0.30806494 -0.18902914  0.17627783]
[-0.54416114 -0.14710928 -0.1471163 ]
[-0.1175752   0.18155466 -0.09828582]
[-0.4683181  -0.00163393  0.04621108]
[-0.00068621  0.00984226 -0.03040812]
[-0.3566393  -0.00779494  0.04608079]
[-0.21814863 -0.01083159  0.20755093]
[-0.12991713 -0.48640123 -0.28168711]
[ 0.05666318  0.09096441 -0.30107388]
[-0.05145592  0.02690917 -0.03363274]
[-0.0718777   0.04491998  0.05850224]
[-0.19970006 -0.05870682  0.09120248]
[ 0.03497294  0.05331671 -0.14471342]
[-0.05762612 -0.23518756 -0.08107942]
[ 0.07592938 -0.27117854  0.00262461]
[-0.40849     0.04664416  0.0676577 ]
[-0.68691242  0.00429229  0.01213385]
[-0.56298381  0.04531387 -0.02742436]
[-0.5435285   0.02400652  0.08765201]
[-0.45283645 -0.02855818 -0.03358818]
[-0.33692989 -0.00354316 -0.03720575]
[-0.04774664  0.01643969 -0.06288177]
[ 0.06119421 -0.05676929 -0.03580889]
[-0.03923269 -0.05861262 -0.05832852]
[ 0.00743527 -0.05158706 -0.02853269]
[-0.02628199 -0.01306926  0.03348299]
[-0.02903419 -0.00178195 -0.03960026]
[ 0.0539362   0.03394943  0.0682671 ]
[ 0.07669567 -0.03121028 -0.0052244 ]
[-0.03009271  0.05258108 -0.00266347]
[ 0.09764403  0.01391401 -0.00746954]
[ 0.05386095 -0.07676472 -0.22511497]
[ 0.09320179  0.05765404 -0.38392693]
[ 0.03905354 -0.16425392 -0.04909311]
[ 0.02626544  0.03554028  0.09206054]
[-0.0868388   0.03484817 -0.01656619]
[-0.03626929  0.10467799 -0.11587062]
[ 0.01382866  0.16342096 -0.14819027]
[-0.09315578 -0.25227711 -0.02570566]
[-0.00274709 -0.32514995 -0.13474353]
[-0.10450288 -0.03769251 -0.1293676 ]
[-0.10406798 -0.04139915 -0.19816898]
[ 0.02289797 -0.17346089 -0.04712047]
[ 0.01152052  0.03955801  0.10910121]
[-0.05120545  0.02059458  0.00060891]
[-0.01604948  0.03751995  0.0528476 ]
[-0.04056886 -0.00131659  0.00626056]
[ 0.08125504  0.05740399 -0.01783764]
[-0.03718279 -0.06351364  0.027838  ]
[-0.00134212  0.03070435  0.06002844]
[-0.03195114  0.00804499 -0.00246928]
[ 0.05641149  0.09717764 -0.15864182]
[ 0.1178799   0.17351887 -0.08573848]
[-0.25225335 -0.12517063 -0.01594894]
[-0.02993216  0.12713404  0.01748022]
[ 0.12847313 -0.02351746  0.04511768]
[ 0.03077408  0.01909529  0.02419483]
[-0.12821086 -0.19967094 -0.00531917]
[ 0.00962776 -0.11243059 -0.00651057]
[-0.05038526 -0.03337741  0.0756554 ]
[-0.08904473 -0.25839329 -0.02024402]
[ 0.0126557   0.17963277  0.02316713]
[-0.08265805  0.16616148  0.06414972]
[ 0.10122729 -0.0381371  -0.13799512]
[ 0.01326866 -0.07347899 -0.0380487 ]
[-0.14312519  0.03213263  0.06563842]
[-0.0251097  -0.04125067  0.0127581 ]
[ 0.02468915 -0.01586467 -0.03757827]
[-0.0819972   0.02204509  0.07348793]
[-0.02960849  0.0171211   0.01522411]
[ 0.09133265 -0.01844057  0.06348117]
[ 0.02982618  0.01605766  0.03722071]
[-0.09672729 -0.10360786  0.01253921]
[ 0.04782199  0.0597514   0.03525975]
[ 0.03485564  0.12145768  0.09523719]
[-0.03128482  0.01069302 -0.00713873]
[-0.0856792  -0.10881247 -0.07090922]
[-0.02337645 -0.06272531 -0.22586548]
[-0.06312169 -0.11006062  0.0448527 ]
[ 0.12240175 -0.0815275   0.05063355]
[ 0.05273027  0.08176343  0.08229214]
[ 0.07593542  0.02290661 -0.19780211]
[ 0.05467322  0.07242084 -0.13716108]
[-0.28572488 -0.38654831 -0.0644625 ]
[-0.12494188 -0.06138167 -0.00999468]
[ 0.0231993  -0.04249603  0.04233791]
[ 0.07081179  0.04848756  0.01229014]
[-0.08330984 -0.22498935  0.02309181]
[ 0.06931819 -0.03674425  0.02517606]
[-0.00094353  0.0115723   0.03952415]
[-0.14255175 -0.00472101 -0.01689793]
[ 0.01490153 -0.08692966  0.00042994]
[-0.17087217  0.00903978 -0.21981736]
[-0.12945509 -0.17703027  0.01221258]
[ 0.16652623  0.03937189  0.01645802]
[ 0.02706453  0.03530319  0.048196  ]
[ 0.05844459  0.05690717 -0.00479891]
[-0.00494299 -0.11908402 -0.04721574]
[ 0.00187188  0.10169865 -0.19620039]
[-0.01928928 -0.17187525 -0.0545343 ]
[-0.00246863  0.04918301  0.01351139]
[-0.04209985  0.09098519  0.0178195 ]
[ 0.03386454  0.093608    0.04496978]
[-0.0047848  -0.16339472 -0.07460922]
[ 0.05777353 -0.01008853 -0.30505314]
[-0.03744804  0.00342797  0.04855649]
[-0.04244992  0.00824493 -0.03973552]
[ 0.02698153 -0.03591084 -0.02995712]
[ 0.03283201 -0.01527335 -0.26368353]
[ 0.02003225  0.0353569  -0.20919254]
[-0.3495214  -0.27181938 -0.04058545]
[-0.01368234 -0.10796187 -0.0304288 ]
[ 0.02947229  0.04169204  0.03108933]
[ 0.02468041 -0.01189697 -0.07412219]
[ 0.04062372 -0.21128532 -0.05355126]
[-0.04105331 -0.0980255  -0.00775982]
[-0.15944098  0.03854701 -0.08585508]
[-0.0273003  -0.01334846 -0.06582197]
[-0.07386315 -0.05788857 -0.03215633]
[-0.0017686   0.07361554  0.01385892]
[-0.0740274  -0.04362218  0.06955341]
[ 0.05348359 -0.01820049  0.01815608]
[ 0.01970884  0.08033598  0.03739024]
[ 0.04319382 -0.0091495   0.04527767]
[ 0.03763936 -0.01479131 -0.01467401]
[-0.02593132  0.01444497 -0.00656063]
[ 0.04525085  0.04417529 -0.05345408]
[  4.53013442e-02  -6.55722499e-01   2.86564551e-04]
[-0.21433648  0.13780512  0.06439044]
[-0.05573252  0.04021811 -0.27052835]
[ 0.02566513 -0.0173465  -0.01931998]
[ 0.09003479 -0.24841478  0.08671026]
[ 0.02156487 -0.151282    0.07996628]
[-0.23909721  0.15905859  0.14309609]
[-0.14326654  0.23927826  0.01462924]
[ 0.03704682 -0.06916327 -0.24561451]
[ 0.02439756 -0.21711186  0.03015273]
[-0.03524946  0.04225167 -0.00170334]
[-0.04306777  0.0150938  -0.34789929]
[ 0.02879687 -0.05786623  0.02085851]
[ 0.04705969 -0.29316503  0.04566962]
[-0.02952209  0.06838437  0.00948747]
[ 0.03979623  0.0286136   0.05698004]
[-0.00896007  0.03918107  0.05547075]
[-0.02433484 -0.05352539 -0.20883994]
[ 0.00668001 -0.24016346  0.09505973]
[ 0.06136475 -0.38677365  0.10877909]
[-0.19017343  0.17866352 -0.00609526]
[-0.26056576  0.15975079 -0.19503202]
[ 0.02276759  0.10624732  0.05452411]
[-0.28397623 -0.05066303  0.12489042]
[-0.22109313  0.03424181 -0.03183332]
[ 0.00999692 -0.00592037  0.07708829]
[-0.02134729 -0.07338607  0.03878849]
[-0.29544747  0.09601157 -0.0590519 ]
[-0.00970218  0.03905036 -0.26657355]
[ 0.65903181 -0.23291531  0.02424206]
[ 0.35890463  0.16607489 -0.05184634]
[-0.28003383  0.01272782 -0.48683792]
[-0.29557359  0.01913554 -0.14711444]
[-0.0587512   0.09442946 -0.31654587]
[ 0.094669   -0.00506164  0.17333174]
[ 0.07422328 -0.07508035  0.02383836]
[ 0.02498196 -0.08175737  0.04385395]
[-0.02131285 -0.03123794 -0.03913325]
[-0.32135856 -0.05511118  0.08913758]
[-0.15191281  0.05553025 -0.04835387]
[ 0.13534322  0.03736394  0.01767625]
[ 0.06517263 -0.11022751  0.14729732]
[-0.18996957  0.13691638  0.08571176]
[-0.08843715  0.04165394 -0.09973247]
[ 0.08276676  0.01597762 -0.00219246]
[-0.0674277  -0.30055299 -0.13702078]
[-0.22649324  0.05406355 -0.06219126]
[-0.52511555 -0.07831104  0.10390484]
[-0.15943442  0.07787902 -0.06366168]
[ 0.23163193  0.0741526  -0.00258887]
[-0.10502949 -0.1207932  -0.20010112]
[-0.22082971  0.02428881 -0.12093069]
[-0.05506507  0.04387489 -0.01510275]
[-0.55447471 -0.09004969  0.00757496]
[-0.04823589  0.06901553  0.08486405]
[ 0.2377266  -0.04426736  0.19061801]
[ 0.0303184  -0.08629061  0.0119137 ]
[-0.34578839  0.08327283 -0.05523087]
[ 0.03390945 -0.00643967 -0.3392469 ]
[ 0.10148606 -0.11805261 -0.04112177]
[-0.11135671 -0.29459509 -0.15589057]
[-0.0361173  -0.2337153   0.11399498]
[ 0.18311866 -0.12493166  0.03013331]
[-0.21940093  0.09824884 -0.04459592]
[-0.07756957  0.03588967 -0.41549671]
[-0.02914413  0.04804743  0.0020792 ]
[ 0.06200853  0.04180219 -0.04535535]
[-0.07929218  0.0299136   0.0755192 ]
[-0.02130886  0.07089756 -0.31025517]
[ 0.00374324  0.06631868  0.03239459]
[ 0.06388556 -0.3010771   0.08467676]
[-0.00016946  0.05214259  0.01060906]
[-0.08150256 -0.63422304 -0.09435743]
[-0.25735372  0.10664785  0.02068072]
[-0.07915665 -0.00072394 -0.01766397]
[-0.05820239 -0.07707915 -0.02533445]
[-0.02676604 -0.14427951 -0.01084323]
[ 0.0040518  -0.28917423 -0.13951243]
[-0.29426256  0.09625028 -0.0906158 ]
[-0.06406754  0.07242161 -0.1229117 ]
[-0.07348342 -0.05606167 -0.3311334 ]
[ 0.00529791 -0.22637843  0.10134482]
[ 0.05354606 -0.28039357  0.04040674]
[-0.05101791  0.08358584 -0.34684351]
[ 0.02342406  0.28245348  0.00708514]
[-0.07801952 -0.08917093 -0.0269203 ]
[-0.01149774 -0.01845187 -0.05381678]
[-0.03529876  0.06377296 -0.01499062]
[-0.027016    0.00405667 -0.03030783]
[-0.03484504 -0.07157911 -0.06833153]
[ 0.05793613 -0.0830738  -0.03012883]
[-0.03212925  0.07266089  0.02531924]
[ 0.02951006  0.07956499  0.03335356]
[-0.07728904 -0.04563831  0.05650234]
[-0.02647149  0.07074672  0.00469629]
[-0.09240887  0.03682407 -0.01707808]
[ 0.04189185  0.05737697 -0.23776734]
[-0.02299572 -0.00807498  0.05421909]
[ 0.03151812 -0.00895827 -0.05705865]
[-0.12493002  0.01787093  0.0095942 ]
[-0.06143484 -0.02271122  0.01770213]
[-0.06050668  0.08902714  0.02029789]
[-0.02535861  0.00592606  0.074169  ]
[ 0.03818702  0.03849283  0.1387514 ]
[ 0.06058425  0.07750997 -0.03836348]
[ 0.07142173  0.06545471  0.04270411]
[ 0.09584463  0.02310703  0.06801879]
[-0.03089762 -0.0072641  -0.04461928]
[-0.11471547  0.02505025 -0.03401101]
[ 0.00202673 -0.0573639   0.05512958]
[-0.03904561 -0.06480329  0.06611127]
[-0.00445193 -0.05556624 -0.04623428]
[-0.03350066  0.05952392 -0.03437405]
[-0.06449035 -0.04061114  0.05016588]
[-0.08693003 -0.02999034  0.01275612]
[ 0.03506236 -0.03678751 -0.06061954]
[-0.02000358  0.07858994 -0.07179927]
[-0.08559454  0.11964723  0.11536033]
[-0.02372121  0.0396117   0.00784207]
[-0.02220967 -0.1087887  -0.04271763]
[-0.01718699  0.03032726 -0.20873925]
[-0.03709953 -0.099223   -0.0342168 ]
[-0.12392987 -0.35915393 -0.2099148 ]
[-0.19923568 -0.43196964 -0.17188644]
[-0.02261215 -0.2871168  -0.21829119]
[-0.08862782  0.05414931 -0.21502663]
[ 0.01413365  0.0741072  -0.34237015]
[ 0.04464588  0.06917368 -0.09191976]
[-0.23560745 -0.06974012 -0.15836123]
[-0.35013598  0.01211456 -0.02799367]
[-0.13680232 -0.01511088 -0.08755293]
[-0.01277036  0.06709171 -0.0128044 ]
[ 0.04460066  0.04968371  0.01940235]
[-0.07458331  0.05889464  0.04693457]
[-0.12259433 -0.39487398 -0.12255058]
[-0.07895914 -0.52415806 -0.24569063]
[-0.00352062 -0.23566179 -0.11017112]
[ 0.02814324  0.08481286  0.05001722]
[ 0.0563885   0.17837156  0.01219587]
[ 0.08672149  0.1460243   0.06079676]
[ 0.0840198   0.03407321  0.01134261]
[ 0.14308865  0.1919052   0.073029  ]
[-0.0121451   0.07012167  0.03075136]
[-0.28556848 -0.5451138  -0.23884356]
[-0.12118945 -0.72696549 -0.29342067]
[-0.09148028 -0.36254829 -0.17941543]
[-0.11191061  0.0024373   0.0235405 ]
[-0.14762518  0.02133644  0.04017577]
[-0.01531652  0.0829586  -0.05520603]
[-0.2727986  -0.28749773 -0.12835088]
[-0.21334408 -0.55306089 -0.19291818]
[-0.23453715 -0.33050248 -0.24606156]
[-0.21230845 -0.3843739  -0.17974082]
[-0.00560777 -0.61915058 -0.52693349]
[-0.068153   -0.28816679 -0.23820393]
[-0.00247279  0.20028518  0.02904638]
[ 0.02241457  0.06491528  0.10827307]
[ 0.01515135  0.04731013  0.05315142]
[-0.19136524 -0.32915103 -0.0352671 ]
[-0.05732999 -0.49404752 -0.64060688]
[-0.09302143 -0.29030272 -0.25397643]
[-0.08312254  0.02395174 -0.07794366]
[-0.04819719  0.05302949 -0.0331415 ]
[-0.03880171 -0.01834931 -0.00888375]
[-0.01995157  0.07221368 -0.108509  ]
[-0.05028033 -0.0384376  -0.01688819]
[ 0.02354581 -0.02195013 -0.05930805]
[-0.15435743  0.0805408   0.04748473]
[-0.01120152  0.01309606 -0.11679167]
[-0.01239634 -0.0002281   0.01727137]
[-0.04735535 -0.0066027   0.06572273]
[-0.06191684 -0.11468639  0.0609531 ]
[-0.07540049 -0.09185287 -0.05317181]
[-0.13451841  0.00580317 -0.02763374]
[-0.14023235  0.07403814  0.10618579]
[ 0.04276646  0.10008967  0.04781257]
[-0.11403067  0.06477661  0.03073186]
[-0.10405277 -0.00383488 -0.01548312]
[ 0.04216507 -0.0320618  -0.01419835]
[-0.11592825  0.09011111 -0.09703915]
[-0.0570811   0.04520072 -0.08917746]
[-0.06975507  0.01523428  0.01507664]
[-0.02106479  0.03436934  0.048608  ]
[ 0.05554839 -0.01268903 -0.04760426]
[-0.06637045 -0.0009926   0.06142675]
[-0.00197806 -0.07267738 -0.04980621]
[ 0.03644516 -0.03264274  0.07303567]
[ 0.01884644  0.03667543 -0.01261639]
[ 0.01310106 -0.04712317  0.04222923]
[-0.04391117 -0.0452601   0.06532411]
[ 0.03463741  0.07025576  0.06665562]
[-0.32327032 -0.0566774   0.10803451]
[ 0.08411806 -0.04693477 -0.67715567]
[ 0.05225857  0.04163406 -0.19774333]
[-0.18772005  0.03064453  0.0724081 ]
[-0.11349759 -0.01671234 -0.0164866 ]
[ 0.01075806  0.0843242   0.10279433]
[ 0.00938475  0.15536644 -0.45324963]
[-0.02535121 -0.23182286 -0.09804497]
[ 0.04579549 -0.17883864  0.12523459]
[-0.10213971 -0.02221956 -0.117903  ]
[-0.01062429  0.07727465 -0.22835661]
[ 0.02088036  0.08387671  0.03771066]
[-0.19105738 -0.0067064   0.07860768]
[-0.1181586  -0.00435687 -0.02288929]
[-0.00500361  0.05042543  0.03379982]
[ 0.0720432  -0.06883407  0.07776277]
[ 0.08028156 -0.04682454 -0.08293384]
[ 0.01298231  0.08111063 -0.03279949]
[-0.02985266  0.08174611  0.04463304]
[-0.35262296  0.02347988 -0.1050924 ]
[-0.05520687  0.01291325 -0.11676087]
[ 0.0991437  -0.12582193  0.03020189]
[-0.20030189 -0.37937838 -0.02312299]
[-0.11043196  0.04157751  0.2101911 ]
[-0.03222615 -0.238479    0.03164952]
[ 0.10224282 -0.27101213 -0.02538653]
[ 0.02017255 -0.03800049  0.04813158]
[-0.04642677 -0.13389775 -0.04258583]
[ 0.01291244 -0.14494313 -0.04718172]
[-0.0919252   0.07596859  0.03433965]
[-0.07239841  0.13025011 -0.03491277]
[ 0.0372327   0.0061629   0.07185815]
[-0.00862577 -0.23757567  0.16425397]
[ 0.03848679 -0.31466791 -0.12417899]
[-0.04606352  0.08287559 -0.02107267]
[-0.19774683  0.12905976  0.04627264]
[ 0.03171636  0.08034381 -0.0734724 ]
[ 0.04632657  0.0092424   0.03440925]
[-0.06909975 -0.0061037   0.0291595 ]
[-0.01635361 -0.01323402  0.01471656]
[ 0.05263023 -0.00839863 -0.01277053]
[ 0.00632969  0.09441251  0.03386877]
[-0.03631172 -0.24561481 -0.01556929]
[ 0.0356057  -0.84364516  0.03940592]
[ 0.02036819 -0.66776508  0.0444128 ]
[-0.01209297 -0.07694573  0.02732503]
[ 0.08795452 -0.14531741 -0.21829882]
[ 0.00354338 -0.10494144 -0.04129493]
[-0.04453095 -0.04435602 -0.04607826]
[ 0.0677935   0.13007659  0.05947553]
[-0.04657359  0.1949617   0.07272557]
[ 0.13147905  0.05359392 -0.29793787]
[-0.14612412 -0.43939504 -0.05364344]
[-0.12132782  0.01327554  0.06392262]
[ 0.03757733  0.20535302 -0.01374383]
[ 0.13955238  0.09366542  0.03334941]
[ 0.08534835  0.24417552 -0.00969026]
[-0.02232445 -0.19721246 -0.045098  ]
[-0.0003991  -0.3603723  -0.04627823]
[-0.09172858 -0.11916596  0.04107657]
[ 0.13621984 -0.04547782  0.08451722]
[ 0.07152721 -0.02879803 -0.15003161]
[ 0.02784893  0.01019087 -0.01267229]
[-0.03216227 -0.32620421 -0.01570314]
[ 0.04769952 -0.86721182 -0.07212429]
[-0.06219402 -0.56576425 -0.00572574]
[ 0.02770679 -0.05228934  0.16973415]
[ 0.11001404  0.10710037 -0.26389599]
[ 0.04298899  0.08133777 -0.22351123]
[-0.25021282 -0.00518735  0.08941026]
[-0.23714523  0.0040267  -0.04554126]
[-0.10294381  0.05328929 -0.05513747]
[-0.24816659 -0.14111635  0.08864013]
[ 0.09168442 -0.19241236 -0.4211033 ]
[ 0.02501388 -0.0898549  -0.16125681]
[-0.1129627  -0.02636775 -0.01798103]
[-0.11874504 -0.04192417 -0.03309344]
[-0.12315755 -0.01587006 -0.01589899]
[ 0.09987547 -0.05748763 -0.4068388 ]
[ 0.02131432 -0.51649994 -0.00853816]
[-0.13298871 -0.28649783  0.17836401]
[-0.02356656  0.05831555  0.02160232]
[-0.35431576  0.02957221 -0.15199065]
[-0.1126717  -0.00316573 -0.13473466]
[-0.45935827 -0.11471362  0.02720445]
[-0.27385396 -0.01252521 -0.15432829]
[-0.05631775  0.02939327 -0.02704479]
[-0.04543315  0.05418842  0.02882333]
[-0.00013067  0.01630965 -0.01270347]
[-0.02038107  0.0229781  -0.05925032]
[ 0.00737445 -0.02494285  0.06852384]
[-0.05253548  0.07023463  0.0548457 ]
[ 0.02628241 -0.0015336   0.0718657 ]
[-0.0793624  -0.01199299 -0.07507176]
[-0.02505958 -0.00528988  0.02812492]
[ 0.0424208   0.01496048 -0.08058933]
[-0.11196884  0.02912942 -0.10307287]
[ 0.03349526  0.0992983  -0.18256336]
[-0.02224261  0.00968155 -0.30709499]
[ 0.06216574  0.01305405  0.06756601]
[ 0.04213193  0.04716444 -0.07723197]
[ 0.0667064  -0.01013047  0.01562878]
[-0.06233283  0.03063259 -0.18804719]
[ 0.09795563 -0.03898139 -0.13326642]
[ 0.02360157 -0.03730822  0.10900515]
[-0.00877317  0.04803765  0.03428153]
[ 0.05913818  0.0061663  -0.19069965]
[ 0.14489348 -0.06425822  0.06494927]
[ 0.06736849  0.00491002  0.1032441 ]
[ 0.05792616  0.02426668 -0.12602672]
[ 0.09939354 -0.02740086 -0.02042053]
[-0.0804469   0.01725239 -0.06914317]
[-0.02612418 -0.03360721 -0.06327021]
[ 0.01606747  0.02288021 -0.07036904]
[ 0.03514076 -0.03612759 -0.02563951]
[ 0.00846194 -0.00393511 -0.19569619]
[ 0.05469176 -0.01873493  0.11064631]
[ 0.06550898  0.02453245 -0.58440089]
[ 0.09532953 -0.01456806 -0.07424966]
[-0.14123324  0.07199927  0.02132436]
[ 0.02434467 -0.04051598 -0.00596034]
[-0.12115652 -0.12988292  0.00208918]
[-0.04967994  0.18419765 -0.11283298]
[-0.06378436  0.06045175 -0.12691478]
[ 0.0140226  -0.4675543  -0.24800241]
[ 0.01507977 -0.01100278 -0.09079611]
[-0.00142254 -0.0761173  -0.25526822]
[ 0.07803325 -0.54728633 -0.3709349 ]
[ 0.05614471 -0.05929381  0.27541509]
[ 0.05636397 -0.16720267  0.02602436]
[ 0.02063437 -0.0440184   0.00507904]
[ 0.08267371  0.12609115 -0.14246635]
[ 0.001981    0.07761163 -0.05019799]
[-0.05966794 -0.0096      0.02186395]
[-0.05398406 -0.03911706  0.05023495]
[-0.01939183  0.02311038  0.04092471]
[ 0.01738752 -0.23336078 -0.03014399]
[-0.01470983  0.12817757 -0.04609434]
[-0.01425579  0.08766694 -0.06442425]
[-0.00270136 -0.25620633 -0.23914482]
[ 0.02180606  0.02122826  0.00887982]
[-0.02466238  0.05211158 -0.06604419]
[ 0.01825399  0.10344031 -0.01732108]
[-0.02043764 -0.08165707 -0.15748245]
[ 0.02369539  0.10341724  0.05247059]
[-0.00091778 -0.41115424 -0.02892525]
[-0.10617471  0.22792147 -0.06370579]
[-0.00527991 -0.04174306 -0.59734327]
[ 0.11033758  0.05324833 -0.20813204]
[-0.10653265  0.06481191 -0.0533504 ]
[ 0.06374061  0.0802822   0.14460823]
[-0.17514049 -0.28554446  0.05117441]
[-0.08946497  0.14920841 -0.03013362]
[-0.04155288 -0.00575489 -0.07997513]
[ 0.03269255 -0.47605836 -0.33120692]
[-0.00671105  0.01623135 -0.10513001]
[ 0.04185568 -0.0891389   0.04325941]
[-0.0060461  -0.19104721 -0.10634881]
[-0.03911015  0.05160633 -0.05517489]
[ 0.02924232 -0.01866072 -0.12607738]
[ 0.01281596 -0.43515322 -0.46267077]
[-0.01814087 -0.07215454 -0.11924037]
[-0.09084285 -0.03613725  0.01149353]
[-0.03401745  0.03226751  0.02330264]
[ 0.09243537 -0.03237867 -0.23769592]
[ 0.12685758 -0.00977572  0.08270853]
[ 0.05829185  0.04938571 -0.06773387]
[ 0.07208931  0.01050913 -0.09659009]
[-0.03265698  0.05149746 -0.11416719]
[ 0.02024234  0.0484062  -0.09778895]
[-0.01762739  0.003814   -0.24330041]
[ 0.02961264  0.02533372 -0.03008169]
[-0.00564466 -0.05318286 -0.1080922 ]
[-0.00427155  0.02695646 -0.09681039]
[ 0.02250692 -0.08698907 -0.44019181]
[ 0.14839122 -0.17501356 -0.31682131]
[-0.0076207  -0.02769874 -0.03447016]
[ 0.05970045 -0.02664454  0.00749264]
[-0.01017988 -0.02002562 -0.20583476]
[-0.01540302 -0.01106592  0.09223737]
[ 0.01136377  0.02861447  0.01945703]
[ 0.03691631  0.07517338 -0.09853489]
[ 0.10527798  0.01126475 -0.12170848]
[ 0.0717676   0.04693412 -0.01755802]
[ 0.03440507 -0.01425096  0.06148583]
[-0.03479462 -0.04185061 -0.05626562]
[ 0.04308958  0.00134291  0.07578134]
[ 0.05601694 -0.05842941 -0.03770682]
[-0.02142041  0.06009265 -0.02413193]
[-0.03529504 -0.03384865  0.0440489 ]
[-0.06932332 -0.03295952 -0.03350398]
[-0.0681704  -0.06006248 -0.08265857]
[-0.02449442 -0.68500251  0.16480696]
[ 0.10874063  0.02816704 -0.07653953]
[ 0.05050855  0.01517228 -0.012755  ]
[-0.04878313  0.02543318 -0.06651083]
[-0.57920617 -0.05077694 -0.05171743]
[-0.21071175 -0.00750868 -0.07163092]
[-0.01209374  0.03653165 -0.02994354]
[-0.08167651  0.03060323  0.08935289]
[-0.13396671 -0.01817238  0.04502091]
[-0.14636803 -0.1700383   0.03960402]
[-0.15750104 -0.0980888  -0.00664113]
[-0.16996761  0.03612138 -0.06677745]
[-0.0369413   0.05763742 -0.09151214]
[-0.67846715 -0.07689193 -0.05895038]
[-0.2816951  -0.05056477 -0.02704172]
[ 0.06972726 -0.0615402  -0.08272351]
[ 0.02751176 -0.0560634   0.01616589]
[-0.01497424  0.00462654  0.02330571]
[ 0.03755042  0.10698199 -0.13247158]
[-0.52750516  0.05544202  0.03061101]
[-0.1899319   0.00703862  0.03578531]
[ 0.03688595  0.04595064 -0.16457053]
[-0.10806078  0.2282694   0.07422045]
[ 0.13077885 -0.05935137  0.05024635]
[ 0.103728   -0.27614579  0.04485251]
[-0.00627155  0.07192768 -0.43152103]
[-0.01970845  0.16961132  0.09521347]
[ 0.01174821 -0.13305756  0.14831655]
[ 0.05134736 -0.46528387 -0.10701287]
[ 0.01433316  0.08897099 -0.30058262]
[ 0.13222694 -0.52015072  0.26697084]
[-0.03588045 -0.21383828 -0.36468568]
[-0.15972401  0.2814098  -0.00215768]
[-0.05207882 -0.06115068 -0.0371889 ]
[-0.24711661  0.01526618 -0.08132191]
[ 0.04743681 -0.08810391 -0.05833395]
[ 0.02327205  0.03521499 -0.01192307]
[ 0.07359284  0.01869946 -0.04249818]
[ 0.06488433  0.02745405  0.02251477]
[ 0.01737562 -0.04343835  0.09105388]
[-0.00623518 -0.21251282 -0.3094691 ]
[ 0.02295173  0.13802883 -0.10590094]
[ 0.02017153 -0.10454202  0.10830534]
[ 0.06055133  0.01188846 -0.13414373]
[-0.01062945  0.21412292 -0.03403285]
[-0.05753351 -0.41131431  0.03034379]
[ 0.00820306  0.01270725 -0.11120282]
[ 0.00192486 -0.02301813 -0.0529385 ]
[ 0.05367258 -0.10919569  0.1620374 ]
[ 0.01461985 -0.36804748 -0.31127471]
[ 0.04691236  0.23916733 -0.1529735 ]
[ 0.00891597 -0.058957   -0.04283864]
[-0.05707883  0.12496903  0.0946337 ]
[ 0.09248294  0.10170899  0.03905648]
[-0.06180859  0.51447958 -0.02060314]
[-0.01061091 -0.3925685  -0.29863301]
[ 0.13669597 -0.09618948 -0.44409457]
[ 0.03509499 -0.19373058  0.13912331]
[ 0.03147611 -0.2845251  -0.29290217]
[ 0.0011422   0.29119015 -0.11376163]
[ 0.13368349 -0.00488938  0.0417573 ]
[ 0.06131287  0.12079703  0.01949812]
[ 0.01678323  0.02741968  0.10838676]
[ 0.08282302 -0.23594275  0.2039333 ]
[-0.00785591 -0.09801793 -0.4563255 ]
[-0.00154602  0.26315734 -0.06889856]
[-0.00141672 -0.83051169  0.23194709]
[ 0.10127898 -0.05290071 -0.01929052]
[ 0.05319817 -0.0023887   0.01160158]
[-0.38913885 -0.03815479 -0.15951253]
[-0.63748533 -0.12230677 -0.1226925 ]
[-0.18478887  0.00494458 -0.08305359]
[ 0.10770346 -0.53185993  0.13354976]
[ 0.0747705  -0.05796921 -0.1088921 ]
[ 0.00239007  0.01434682 -0.01087643]
[-0.13990872  0.11179432 -0.03736163]
[-0.06799047 -0.04194758  0.03792658]
[ 0.02013172 -0.10107798 -0.05524577]
[ 0.04360089 -0.01499788 -0.02605878]
[-0.05902074 -0.04679422  0.12261783]
[-0.20138706 -0.01722021  0.06935337]
[ 0.02586184  0.09853027 -0.07093855]
[-0.45677829  0.07179892  0.06692969]
[-0.21031475 -0.00563533  0.00117052]
[-0.89826733 -0.32882598 -0.04293263]
[-0.49095657 -0.6694867  -0.12917605]
[-0.14065787  0.03908565 -0.1292643 ]
[-0.07107992  0.02986277  0.02477068]
[ 0.02435192  0.0525421   0.00774387]
[-0.05902832 -0.06444851  0.05352452]
[-0.05523925 -0.05684965  0.02741558]
[-0.04707061  0.07196049  0.04129202]
[-0.07713098 -0.07995158 -0.00885823]
[ 0.06698662  0.02542205  0.07217017]
[ 0.0357846   0.0543469  -0.06423729]
[ 0.07392113 -0.00808783 -0.00775836]
[-0.01502705 -0.04877864 -0.07880955]
[-0.39939088 -0.04628938  0.02479145]
[ 0.0857484  -0.00298725  0.14417875]
[ 0.02865744 -0.23204295  0.07461115]
[ 0.14895979 -0.03189608  0.13150886]
[ 0.00979405  0.06469715 -0.11125915]
[ 0.26604456 -0.40788749 -0.33375004]
[ 0.14114369 -0.27126333 -0.52438736]
[ 0.10975755 -0.13012932 -0.01876705]
[ 0.00773012 -0.08934193  0.10309149]
[ 0.0203869  -0.08311714  0.03443618]
[-0.0136002  -0.09663441 -0.20484495]
[ 0.07618565 -0.22120179  0.07964609]
[ 0.08133851 -0.05578775  0.10854765]
[ 0.01534849  0.0406621  -0.18537013]
[ 0.06716406  0.03955358 -0.04998391]
[ 0.07969769 -0.07197312 -0.05984337]
[ 0.02788275  0.08256876  0.02143933]
[ 0.07968906 -0.14427657  0.06183285]
[ 0.07831928  0.03988956  0.06724118]
[ 0.01961971  0.13784385 -0.14669572]
[-0.0632957  -0.63713247 -0.3318806 ]
[ 0.02632086 -0.93036067 -0.17585289]
[-0.00782981 -0.16470996  0.22415116]
[ 0.09479281  0.1339159  -0.02661685]
[-0.2386598   0.2427572  -0.00394275]
[-0.09473728 -0.06143422  0.05700026]
[-0.04374689  0.02902665 -0.28030533]
[-0.16287342  0.02710477 -0.09400159]
[-0.24480544 -0.15799671 -0.04542268]
[ 0.2147489   0.11726432  0.21292055]
[ 0.3354207   0.15190108  0.21429241]
[ 0.37911421 -0.13005479  0.13227469]
[-0.08633278 -0.18159442  0.03896388]
[-0.27338231 -0.33912224 -0.04968736]
[-0.24077174 -0.12274288  0.08496584]
[ 0.07312379 -0.04829725 -0.06207705]
[-0.05236815  0.06498102  0.0652421 ]
[ 0.07049752  0.08007921  0.0660688 ]
[ 0.07870474  0.07787786 -0.06303487]
[-0.06335492  0.11696877 -0.03119649]
[-0.18545265 -0.06425259 -0.00297216]
[-0.11471739  0.16358328 -0.06784999]
[-0.03798781  0.16256326  0.11375429]
[ 0.0598344  -0.07563488  0.00761306]
[-0.02892082  0.03763475 -0.05682752]
[-0.21492217  0.03684259 -0.03026721]
[ 0.04274094 -0.09403337 -0.03709626]
[ 0.10281395  0.10997605 -0.19262671]
[-0.08907901  0.12974651 -0.04055892]
[-0.40253317 -0.09875672  0.01753485]
[ 0.07491567 -0.53860396 -0.36274895]
[ 0.06129479 -0.80530822 -0.35716844]
[ 0.06255736 -0.09671329  0.11247687]
[ 0.28795454  0.0930327   0.19179833]
[ 0.21040176  0.22194526  0.03085884]
[-0.39805934  0.13046105 -0.07660446]
[-0.09173389  0.08280117 -0.28642261]
[-0.27022654  0.05883096 -0.06133858]
[-0.21575391 -0.0571374  -0.0475248 ]
[-0.04775823  0.1624416   0.00942911]
[ 0.27567178  0.08576171 -0.01633559]
[ 0.29789513 -0.01842104 -0.03802433]
[-0.00263244  0.06656613 -0.04781301]
[-0.23902063  0.14660166 -0.02446134]
[-0.19436269  0.01216962 -0.01497838]
[ 0.00799015  0.0219612  -0.0604031 ]
[-0.19295987 -0.12437312 -0.01113686]
[ 0.14231363 -0.05739196  0.13868394]
[-0.01840078 -0.10398861  0.09374956]
[ 0.04206369 -0.01345225  0.08121528]
[-0.01992682  0.06245276 -0.13703163]
[ 0.04087359  0.01332739 -0.03582366]
[-0.26892987 -0.01124883 -0.0351124 ]
[ 0.03415623 -0.00617191  0.09476762]
[-0.02581806 -0.03586822  0.02739014]
[-0.00184862  0.00463189 -0.04716729]
[-0.04967584  0.07655051 -0.04252799]
[ 0.01653864 -0.45960909 -0.3420772 ]
[ 0.22364706 -0.49551085 -0.43045127]
[ 0.19792514 -0.21572486  0.03048474]
[ 0.01079138 -0.22439532 -0.00424194]
[ 0.09879859  0.04596618 -0.00229939]
[-0.00860146  0.15924418 -0.15436597]
[-0.0597235  -0.14670315  0.08692072]
[-0.09752566 -0.14196597  0.05513471]
[-0.08439192 -0.05964654 -0.14809203]
[ 0.05030663  0.05642705 -0.00870265]
[ 0.04962689  0.04287532  0.07448693]
[ 0.05830836 -0.03460766 -0.01811716]
[ 0.02100344 -0.00030493  0.01621405]
[-0.03807954 -0.03762089  0.06769234]
[-0.01668103 -0.06274742 -0.06466668]
[-0.00359228 -0.02565052  0.03229908]
[-0.0808758   0.06649894 -0.04963161]
[-0.05440788 -0.07465752 -0.06874234]
[-0.08603836  0.08297122  0.03497625]
[-0.30261531 -0.16886352  0.15364209]
[ 0.08579445 -0.00542697  0.07196343]
[ 0.17717148 -0.09164642  0.09381099]
[ 0.11874785  0.05717301  0.07351956]
[-0.06513006  0.06280028 -0.05623547]
[-0.21398628 -0.11907432 -0.38547862]
[-0.00209778  0.16549796 -0.09091528]
[-0.00858324  0.28202075  0.02410177]
[ 0.05257263 -0.15432316  0.07228013]
[-0.06231841 -0.1170919  -0.10804038]
[-0.0406049  0.0177638 -0.1018776]
[ 0.17029814 -0.15001181  0.09408624]
[ 0.15597393  0.0415471   0.01388093]
[-0.12069774  0.05573291 -0.04411163]
[-0.02485969 -0.05081216 -0.00515184]
[ 0.07585651  0.01039727 -0.03147634]
[-0.04995258 -0.00678147 -0.06509615]
[ 0.2074156   0.00452413 -0.05597324]
[ 0.03943329  0.06705498 -0.03521891]
[-0.16894688  0.03778549  0.01939297]
[ 0.13463557 -0.31989944 -0.15367466]
[ 0.06361637  0.30019292 -0.10263642]
[-0.03825379  0.39051419  0.05826855]
[-0.20052007  0.35354081  0.07987168]
[ 0.04495699 -0.22361952  0.05251646]
[-0.02754274 -0.65246767  0.00288502]
[-0.24383293 -0.10499197 -0.23622458]
[-0.02330929 -0.4967387  -0.15228407]
[ 0.00510186 -0.74937558 -0.05720244]
[ 0.29844531 -0.29702881  0.33123329]
[ 0.26495671 -0.56460917  0.04490992]
[ 0.08708164 -0.18878999 -0.20639202]
[-0.15842927 -0.23569687 -0.0892695 ]
[-0.11011318 -0.19244397 -0.10862927]
[-0.12373932 -0.03487507 -0.01628017]
[ 0.05457154  0.00739042 -0.07806431]
[-0.02503235  0.00096017 -0.03762811]
[ 0.01636186 -0.07357595  0.03391547]
[-0.09602261  0.21404056 -0.03424938]
[ 0.04136731 -0.17608719 -0.00851393]
[-0.04127391 -0.68756706 -0.01959355]
[-0.12202489  0.12309454  0.09020163]
[ 0.18268855 -0.43103668 -0.02237421]
[ 0.07861686 -0.5087688  -0.12148286]
[-0.09864838  0.05162917  0.06319316]
[-0.15372929 -0.30385956 -0.0055879 ]
[ 0.00322196  0.01864193 -0.19932288]
[-0.2260748   0.16045339 -0.11567319]
[ 0.02915522 -0.34647807 -0.0012623 ]
[-0.01212507 -0.84641093  0.03040594]
[-0.03262149 -0.19378984 -0.23355283]
[ 0.01779658  0.02494575 -0.05070301]
[-0.05441497  0.11579423 -0.05205634]
[-0.25493124  0.46654576 -0.02713436]
[-0.06568706  0.23696291  0.06792125]
[-0.01769157 -0.42333391  0.07270859]
[-0.05722479 -0.0005283  -0.10001858]
[ 0.05822021 -0.55831653 -0.07693347]
[ 0.01892272 -0.87457263 -0.05874201]
[ 0.25258192 -0.20642422  0.31741086]
[ 0.25976068  0.04777265  0.1602678 ]
[ 0.14552058  0.203776   -0.19213536]
[-0.12398665  0.22654912  0.05166916]
[ 0.13483995 -0.4110463   0.02136707]
[-0.00843822 -0.92296106 -0.08246044]
[-0.02789179 -0.00249747  0.05495607]
[-0.20008664 -0.42009857  0.15289393]
[ 0.01783278  0.0178124   0.11636882]
[ 0.2280407  -0.07454804  0.06724774]
[ 0.07405855  0.05527811 -0.01137621]
[-0.15998322  0.04484777 -0.04782903]
[-0.06616542  0.04705997 -0.01130812]
[-0.24228835  0.0117817   0.06562235]
[ 0.03730181 -0.05468118  0.00185022]
[-0.07837501  0.11738002 -0.12686594]
[-0.14833899  0.15030685 -0.00531233]
[-0.0863933   0.07892216  0.0981375 ]
[-0.00570892 -0.35844025 -0.4268139 ]
[ 0.0451173   0.04107821 -0.27042636]
[ 0.0128694   0.15746047 -0.14876093]
[ 0.16189788  0.00080714 -0.04564786]
[ 0.04160498  0.10686986 -0.02222159]
[-0.09484786  0.0349661   0.03627324]
[-0.02247985 -0.11415441  0.03428403]
[-0.14374119 -0.1305486  -0.05023405]
[-0.15351634 -0.02734476 -0.07773601]
[ 0.01067025 -0.06972051 -0.07092628]
[-0.06229433  0.04441441 -0.02521893]
[-0.03784456 -0.00775504  0.0538029 ]
[-0.07879098  0.05639716 -0.01554594]
[ 0.07372324 -0.07591389  0.01698471]
[-0.03611147  0.06339958 -0.04027669]
[-0.06531118 -0.02833484 -0.01144475]
[-0.04174761  0.07216553  0.01888924]
[-0.07036655  0.05492376 -0.01116414]
[ 0.02109516  0.3158699  -0.20430097]
[-0.25170597 -0.60902965 -0.48325661]
[-0.31297958  0.18633172 -0.10935029]
[-0.01705344  0.0966647  -0.14826314]
[ 0.02746754 -0.10168567  0.09338444]
[-0.09991898 -0.07044634  0.05622681]
[-0.28595147 -0.31573838  0.13699441]
[-0.16135843  0.25221166  0.26989427]
[ 0.01327865  0.20927742 -0.28994671]
[ 0.11983497  0.06159544 -0.15054896]
[-0.09449238 -0.16739312  0.15638824]
[-0.05462118  0.0669625   0.07839883]
[ 0.02995159  0.12521632 -0.15925604]
[-0.01254149 -0.13470376  0.12400632]
[-0.11111755 -0.03494073  0.0770966 ]
[-0.06657279  0.01861036  0.06930871]
[-0.0792115  -0.04159432  0.05823543]
[ 0.01850995 -0.0677279  -0.0078677 ]
[-0.08012153  0.01616907 -0.14067075]
[-0.05601803 -0.05625743  0.03779924]
[-0.0083389  -0.05851994  0.04783792]
[-0.54142535  0.1698499   0.13950168]
[ 0.04531468  0.27172285 -0.08142066]
[ 0.08598755 -0.04608762 -0.27073261]
[-0.01819676  0.02994093  0.07384071]
[ 0.06212613  0.04714619 -0.12898289]
[ 0.00516414 -0.07066549  0.05780061]
[-0.03208587 -0.16837129  0.04206643]
[-0.05004914  0.11776041  0.02725069]
[ 0.03312872 -0.01487876 -0.04176011]
[ 0.03760405 -0.2358131   0.10275023]
[-0.04702232  0.1102282   0.09668992]
[ 0.04660705  0.03703034 -0.03863464]
[-0.48785996  0.18663009  0.24044366]
[ 0.08583464  0.19916004 -0.28277901]
[ 0.01161177 -0.26967239  0.12933731]
[ 0.03524151 -0.04959204 -0.00962661]
[ 0.05208955 -0.06591057  0.05501789]
[-0.0804153   0.02848162 -0.07414848]
[-0.06572713 -0.02133786  0.0527489 ]
[ 0.02574746  0.07840449 -0.00528051]
[ 0.03319121 -0.0452802   0.01543933]
[ 0.02775523 -0.17450936 -0.00082568]
[ 0.00121629  0.08982943  0.02718518]
[ 0.09476496  0.04680143 -0.02754052]
[ 0.0744025   0.18140292 -0.00238159]
[-0.12666783 -0.31432149 -0.07485627]
[-0.08730605  0.07648324 -0.01950189]
[-0.11686527 -0.07970981  0.07315714]
[ 0.01042814  0.13012408 -0.04144318]
[ 0.13729602 -0.0958073  -0.00289317]
[-0.34181777 -0.07758192 -0.01502879]
[ 0.02011484  0.10808025 -0.04912214]
[ 0.03085111 -0.05767462 -0.56079686]
[-0.01402271 -0.02437071  0.11568667]
[ 0.01167096  0.09239832 -0.00580344]
[ 0.09443881  0.05753348  0.01501963]
[-0.02907535 -0.09468291  0.02384857]
[-0.04499634  0.05549463  0.03640708]
[ 0.01641054 -0.01082334 -0.00958885]
[ 0.03413351  0.09751273 -0.14738908]
[ 0.09728504  0.01458406 -0.16614576]
[-0.02219738  0.00649129  0.15101089]
[ 0.07973555 -0.13875479 -0.00044562]
[-0.08931161  0.01814618  0.00980582]
[ 0.0588777  -0.03645521 -0.01041636]
[-0.07495638  0.24414304 -0.04818769]
[-0.06068144 -0.1418227  -0.38622561]
[-0.56449091  0.12328036  0.0085971 ]
[-0.01503479  0.10684943 -0.12192529]
[-0.02232809 -0.19736904  0.10230231]
[-0.09538009 -0.03125532  0.08360392]
[ 0.01870994  0.28468463 -0.15681371]
[-0.18713969 -0.6513741  -0.45225498]
[-0.16908559  0.01404802 -0.09786863]
[-0.16584317 -0.21308173 -0.0287894 ]
[-0.0131318  -0.08116072 -0.20823008]
[-0.02815761 -0.17234907 -0.10626984]
[-0.41981488 -0.3390955   0.00050068]
[ 0.03466432  0.16900989  0.07878172]
[ 0.10845158  0.04318983 -0.40330929]
[-0.07526561 -0.04077914 -0.15433916]
[-0.04077484 -0.04266804  0.02281806]
[ 0.04723464 -0.04635819  0.01511514]
[-0.00507695  0.17492087 -0.1632164 ]
[-0.09731028 -0.3925842   0.13560645]
[-0.32623339 -0.01472286  0.01715345]
[-0.0295823  -0.07806498  0.01337445]
[-0.02647966 -0.06049842  0.07189294]
[ 0.03059095  0.07686466  0.06358428]
[-0.00167121 -0.08333176  0.07893414]
[-0.02279486  0.04485358  0.08126754]
[-0.0323435   0.07901485 -0.02188322]
[ 0.05598716 -0.07140679 -0.02614359]
[-0.05906303 -0.04379739  0.0815538 ]
[ 0.05480098 -0.01923133  0.08251153]
[-0.52789468  0.13449082 -0.03298575]
[-0.00689993  0.09525102 -0.03193959]
[ 0.00354913 -0.24972355 -0.1783694 ]
[-0.02549814 -0.06431164  0.04861904]
[-0.00629439 -0.02871316 -0.01390303]
[ 0.02681829 -0.14143537  0.02027302]
[-0.11382461  0.13476662 -0.16553034]
[ 0.04759234 -0.46669537 -0.0810913 ]
[-0.33755252  0.23289622  0.16975597]
[-0.10595078  0.06167886  0.03268261]
[ 0.06495506  0.04748477 -0.13604361]
[ 0.0748507  -0.2235271   0.09818402]
[-0.0196759  -0.0423397   0.05175724]
[ 0.00531453  0.08179861 -0.01554265]
[ 0.00561443 -0.13136576  0.0200084 ]
[ 0.03828553 -0.06837207 -0.04541852]
[ 0.08136358  0.06216016 -0.00593044]
[ 0.045774   -0.05484695 -0.07831206]
[ 0.02140773 -0.03506003  0.0589886 ]
[ 0.01830751 -0.07775174 -0.0672009 ]
[-0.00124947 -0.09975277  0.07743395]
[ 0.08071046  0.04621738 -0.58764756]
[-0.14101908  0.06063816  0.04090066]
[-0.11304028  0.212696   -0.18676259]
[ 0.05471341 -0.09634127  0.03639638]
[-0.06608672 -0.01541778  0.09576253]
[ -5.27252778e-05   1.36420742e-01  -1.34130895e-01]
[-0.01813903  0.07204465 -0.09306081]
[ 0.07858945 -0.21353088 -0.01451554]
[-0.1287228   0.13706017 -0.01130265]
[-0.07516509  0.00848199 -0.21230914]
[ 0.14181098 -0.26091477  0.01102044]
[-0.08542847  0.09799031  0.19818316]
[ 0.1531537  -0.31933501 -0.12447283]
[-0.31478268  0.06177683  0.09378657]
[ 0.11434151  0.17800939 -0.2785753 ]
[ 0.04593685  0.02555931 -0.04879636]
[-0.0464018   0.0816875   0.05649726]
[-0.04798869 -0.06756138 -0.04905998]
[ 0.0334595  -0.04311289 -0.02576599]
[ 0.02516961 -0.07228673  0.0681771 ]
[-0.00532531  0.09325609 -0.00797145]
[-0.00475302  0.07682858 -0.1319683 ]
[ 0.06697629 -0.09082833 -0.00987301]
[-0.00397284  0.09991513  0.09102012]
[-0.19084579  0.05888757  0.00750809]
[ 0.01916304  0.09249549 -0.03760864]
[ 0.03756566 -0.2652896  -0.11548053]
[ 0.06395561 -0.02447904 -0.06759724]
[ 0.04039241 -0.17316546  0.09070463]
[-0.01671934  0.14633623  0.03161988]
[-0.06683933  0.14467186 -0.48724943]
[-0.27051562 -0.16351667 -0.15944296]
[-0.20553079  0.07930264 -0.11590139]
[ 0.08107825 -0.08045112  0.06956017]
[-0.01540235 -0.10391729  0.10596247]
[-0.03073711  0.13787088  0.08161311]
[ 0.01531211  0.04747571 -0.11360465]
[ 0.03936751 -0.11292646 -0.02882844]
[-0.07335623  0.07199781  0.07017542]
[ 0.03030187 -0.09094728 -0.02392358]
[-0.09036921  0.04886702  0.05160872]
[ 0.03101989 -0.12822463 -0.0743503 ]
[ 0.01466705  0.05015884 -0.16488919]
[ 0.06337372 -0.09481217 -0.12940016]
[-0.01490965 -0.00478869  0.02186153]
[-0.50569504  0.02965833 -0.01347245]
[-0.04594257 -0.00437569 -0.02396298]
[ 0.11457991 -0.04988929 -0.37082213]
[ 0.00653655 -0.05709612  0.06191299]
[-0.03409642  0.0319785   0.00585248]
[ 0.0851192 -0.0305041  0.0094376]
[-0.42343348  0.15442994 -0.02883153]
[-0.02836692  0.14090157 -0.06846392]
[-0.01448025 -0.22564007 -0.2272166 ]
[-0.1214701  -0.11466926 -0.12189467]
[-0.03537211 -0.06102537 -0.00925598]
[ 0.01364292  0.01954232 -0.11413962]
[-0.08733445  0.12647194 -0.44731155]
[-0.05093809 -0.66417801 -0.19469391]
[-0.35010204  0.19367504 -0.01156052]
[ 0.03192917 -0.02674001  0.01859299]
[ 0.02459547 -0.1176082  -0.0686307 ]
[ 0.02817803 -0.13585903  0.05251022]
[-0.13033722 -0.06757104  0.04940987]
[-0.06143487  0.01734133 -0.08200601]
[ 0.07522985 -0.13756332 -0.07745515]
[-0.0340705   0.06633676  0.03465996]
[-0.0662542  -0.05926529 -0.03473615]
[ 0.00942049  0.00068536 -0.07390328]
[ 0.02722098  0.00107032 -0.00251532]
[-0.01437015 -0.04968341  0.07431247]
[ 0.00921302 -0.07626802 -0.04561241]
[-0.04475461 -0.0388279  -0.07147471]
[-0.02212487 -0.02477572  0.05766188]
[-0.07225081 -0.0136498   0.02676959]
[-0.11332655 -0.93901497 -0.05265073]
[-0.18587829 -1.39951742 -0.58119714]
[-0.04484068 -0.94301039 -0.48150709]
[-0.00289424 -0.13479818  0.07858074]
[ 0.02383804  0.0101935   0.03778606]
[ 0.10017399  0.0092164   0.09749204]
[ 0.29456946 -0.00378876 -0.06464203]
[ 0.29993966 -0.31154999 -0.4345299 ]
[ 0.17791761 -0.26159632 -0.46620101]
[-0.06363169 -0.04416948  0.10896563]
[-0.00434599 -0.11069329  0.07790111]
[-0.06181691 -0.05371331  0.04929183]
[-0.06437081 -0.15361772  0.05519775]
[ 0.05715778 -0.00641339  0.01234187]
[ 0.00282405 -0.00242194  0.09551221]
[ 0.055814    0.05945189 -0.00361952]
[-0.05953895  0.02834033  0.04735788]
[ 0.08192354  0.01971649 -0.07944236]
[-0.04026343 -0.01650207 -0.01044683]
[ 0.01193926 -0.04006691  0.02945215]
[-0.01198873 -0.03970113  0.02156448]
[ 0.26197815 -0.18216117 -0.24697332]
[-0.12704565 -0.825302   -0.74404824]
[-0.19395596 -0.57836604 -0.5194909 ]
[ 0.07927503  0.11145025 -0.03307711]
[-0.04906926  0.15687208 -0.05181078]
[ 0.00351064  0.1392407  -0.1259629 ]
[ 0.03831112  0.05580471  0.0272752 ]
[-0.10782799 -0.00300668  0.04444218]
[-0.10604048  0.05043869  0.10478345]
[ 0.26809829  0.03997832  0.08023687]
[ 0.27681804  0.13379741  0.20519114]
[ 0.11703886  0.08427235  0.20494454]
[ 0.10202812 -0.05237871 -0.13815983]
[-0.18492474 -0.03930456 -0.20221135]
[ 0.06830915  0.00810249 -0.0463776 ]
[ 0.04936949 -0.07138228 -0.03223109]
[ 0.02825367  0.02809334  0.06682013]
[ 0.07241089 -0.07414366  0.07324007]
[ 0.01833758  0.04276328  0.00471677]
[-0.07361571  0.02205418 -0.00171339]
[-0.08025625  0.08612148 -0.01116761]
[ 0.0811471   0.13125089  0.05730848]
[ 0.11047071  0.0297154   0.12158609]
[ 0.03354578  0.07053711  0.09556569]
[ 0.02500882 -0.04225906  0.15849812]
[-0.01980443 -0.16342534  0.00326341]
[-0.00403867 -0.14191128 -0.10486325]
[ 0.03752835  0.08067971  0.0344016 ]
[-0.17446217  0.03233774 -0.01787548]
[-0.03848922  0.11037156 -0.06285932]
[ 0.27712065 -0.0938464  -0.08925221]
[-0.13244438 -0.9438284  -0.89155352]
[-0.29100427 -0.74894285 -0.73535788]
[ 0.01702968  0.06217859 -0.04537524]
[-0.03299484  0.06381859 -0.01336066]
[-0.02270188  0.18772659 -0.02820707]
[-0.09439097  0.05639577  0.07594152]
[-0.06322463  0.01887462  0.10238709]
[-0.10228536  0.00499839  0.11775481]
[ 0.03739204  0.00923671  0.13244198]
[ 0.1444585  -0.05901037  0.00287413]
[ 0.06918471 -0.10066868 -0.06287762]
[-0.02887866  0.09412143  0.11998937]
[-0.01094146  0.06216891  0.15237269]
[-0.0208011   0.06069458  0.15246899]
[ 0.02195934 -0.66333705 -0.34262583]
[ 0.10286461 -1.07824218 -0.62151575]
[ 0.14111431 -0.89223599 -0.43504447]
[-0.04799244 -0.14670677  0.13125916]
[-0.00743876 -0.03808155  0.04830575]
[ 0.05741734  0.06368597  0.07128186]
[-0.06507044 -0.36091062  0.00276399]
[-0.13307731 -0.63015932 -0.43749416]
[-0.03366122 -0.53921235 -0.49521068]
[ 0.0101393   0.04674221 -0.05014845]
[-0.00642615  0.15438269 -0.03660561]
[-0.06856524 -0.00722853  0.05473924]
[ 0.28621706 -0.03175318 -0.05288016]
[ 0.10601635 -0.31594428 -0.29083985]
[-0.05922268 -0.20441943 -0.23550692]
[ 0.00547679 -0.00222054  0.01602985]
[ 0.04575805 -0.03413253  0.0475444 ]
[-0.02222946 -0.03762865  0.11388021]
[-0.11021642 -0.21290077  0.16729151]
[-0.0002861  -0.09848034  0.16907762]
[ 0.05181355 -0.1995891   0.06921118]
[ 0.07983864 -0.08233289  0.01644072]
[ 0.07137953 -0.00902563  0.01843069]
[-0.05989606 -0.02331699  0.0132374 ]
[-0.01343562 -0.06711739  0.04944794]
[-0.03373181  0.04022096  0.04952408]
[ 0.07622802 -0.01506008 -0.07364564]
[ 0.01571678 -0.07046957  0.01108331]
[-0.06154337 -0.0130778   0.07198373]
[-0.03095647 -0.06846065 -0.00676748]
[ 0.13345692  0.19083682 -0.00636991]
[ 0.11033812 -0.0038472   0.14656922]
[-0.28366676 -0.18193227 -0.01498278]
[-0.60403281 -0.28996053  0.02639487]
[-0.04413722 -0.02839235  0.06802569]
[ 0.15727618  0.10583008 -0.00692288]
[-0.15640654 -0.07113349  0.02285155]
[ 0.07993042 -0.0385841  -0.24634244]
[ 0.24803376 -0.06846441 -0.08290828]
[ 0.02483043  0.06289435  0.05336987]
[-0.08006965  0.04559853  0.0746968 ]
[ 0.121216   -0.01871106 -0.00261812]
[-0.56031829 -0.25028315  0.00549471]
[-0.12790573 -0.03552618  0.02847479]
[ 0.13994634  0.16710214 -0.0141015 ]
[ 0.00217563  0.06494221 -0.06289778]
[ 0.0576083  -0.06510869  0.0058873 ]
[ 0.00509958 -0.03871084 -0.04634807]
[-0.96906269 -0.57577008 -0.00638785]
[-0.01254746  0.01233374 -0.04775247]
[ 0.18409003  0.14916247 -0.02789328]
[-0.14625087  0.0397394  -0.01985739]
[ 0.12412006 -0.02724757 -0.15026203]
[-0.04026278 -0.05908846 -0.00927212]
[-0.01621865  0.03245378 -0.07835449]
[ 0.03979784  0.03093718  0.02388245]
[-0.27175629  0.04190002  0.01977104]
[-0.03929232 -0.27443224 -0.37656611]
[-0.01929116 -0.06310585 -0.04527482]
[-0.00132242  0.01276117 -0.01798267]
[ 0.01497845 -0.26146275 -0.06094107]
[ 0.20458707 -0.01325536  0.16204175]
[ 0.14789993  0.03694274  0.17931196]
[-0.17160673 -0.16411516 -0.11999559]
[ 0.09813621 -0.05013341 -0.0881813 ]
[-0.13424402 -0.07416125 -0.09106212]
[-0.05655845 -0.00926707 -0.05866635]
[-0.00032175 -0.01227349  0.07841284]
[-0.03167804  0.03363909  0.03549666]
[-0.01366448 -0.07376118 -0.094871  ]
[ 0.03412391  0.01483447 -0.02710586]
[-0.07343856  0.02570273 -0.00682766]
[-0.02520888 -0.02044069  0.01982681]
[-0.02455247 -0.00013181  0.10912372]
[-0.04541971 -0.01695561  0.08923858]
[ 0.08226819  0.08633383  0.07554165]
[ 0.00813934 -0.00625091  0.11009938]
[-0.17380144 -0.09176963  0.03371613]
[-0.02726564 -0.22064047 -0.27098098]
[ 0.04661831  0.06152789 -0.07136298]
[-0.0259093   0.01984709 -0.0304873 ]
[-0.36131606  0.21471289 -0.09122807]
[ 0.15845838  0.04907075 -0.08534105]
[ 0.10470667 -0.0290478  -0.04225816]
[-0.1153216  -0.43743342 -0.47122321]
[-0.01977429  0.02828312 -0.12888369]
[ 0.059407    0.18962401 -0.06719971]
[-0.01200125 -0.12481918 -0.22310701]
[-0.0355643  -0.00364924 -0.06231427]
[-0.07069422  0.07760631 -0.01795095]
[-0.02853621  0.04627922  0.16068281]
[-0.10701156 -0.0153224   0.10808789]
[-0.111508    0.01554263  0.08716112]
[ 0.03097058 -0.09612808 -0.16902743]
[-0.00362063  0.06097888  0.03107874]
[-0.1114581   0.10908569  0.05212788]
[-0.00901997  0.14375654 -0.07467704]
[ 0.04694531  0.01124589  0.1088751 ]
[-0.14762613 -0.16095467 -0.00518701]
[-0.32269862 -0.16872022  0.0394639 ]
[-0.10340381  0.06892987  0.00764765]
[ 0.11544725  0.12624381  0.00802999]
[ 0.02388591  0.1397295   0.01185117]
[-0.0301898   0.04633614  0.06392009]
[-0.30853608 -0.08184034  0.09316894]
[-0.10995284  0.00605528 -0.16144495]
[-0.05230402  0.07814155 -0.1376138 ]
[-0.18504855 -0.03968029  0.01066992]
[-0.18653812 -0.15693568 -0.04556235]
[ 0.06117206 -0.2675176  -0.18193871]
[ 0.1278335  -0.04007785  0.02911711]
[-1.0104903  -0.56939286  0.02077506]
[-0.09964845 -0.04179973 -0.05836798]
[ 0.1186836   0.13298325 -0.04814789]
[-0.14645109 -0.04055941 -0.03022522]
[-0.020693    0.09860945  0.02280272]
[  3.02526318e-02  -1.42776584e-02   5.71794590e-05]
[-0.02450225 -0.04854767  0.08405466]
[ 0.08427258 -0.04259425  0.01346848]
[-0.00716493  0.08217669 -0.05113443]
[-0.05393319 -0.02137521 -0.0171067 ]
[-0.05809314  0.04834761 -0.07384907]
[-0.05544265 -0.07396829 -0.05987406]
[-0.0222759   0.03749755  0.05493842]
[-0.06649966 -0.07748506  0.07216696]
[ 0.04372113  0.04804375 -0.0081999 ]
[ 0.09613591 -0.48451692 -1.17707467]
[ 0.02156416 -1.46317172 -1.58618021]
[ 0.1612675  -0.11540501 -0.4829464 ]
[ 0.0702217  -0.05909607  0.13858905]
[ 0.02259751  0.03673074  0.08615857]
[-0.02675789 -0.11758981 -0.02452793]
[-0.02404617  0.15246464 -0.04658622]
[ 0.24616252  0.11266342 -0.18090446]
[ 0.36937642  0.18290204 -0.16276428]
[-0.00643392 -0.25268692  0.0837918 ]
[-0.08104124  0.08174206 -0.05322391]
[ 0.07652918  0.00829262  0.03673677]
[ 0.10296243 -0.06863052  0.18283962]
[-0.02168356 -0.0574102   0.03128023]
[-0.00280555 -0.06048691 -0.01258085]
[ 0.02823657 -0.0765987   0.03867868]
[-0.00284586  0.05265183  0.01691586]
[ 0.02158165  0.05276991  0.0312948 ]
[ 0.04567361 -0.01182256  0.05600991]
[-0.03288065 -0.03347632  0.0687466 ]
[-0.03958134 -0.16711549  0.02972516]
[ 0.08095346  0.14176865 -0.34756559]
[ 0.16089302  0.04260449 -0.57884294]
[ 0.1509005   0.01793573 -0.54474515]
[ 0.07554113  0.19233139 -0.1222608 ]
[ 0.04915004 -0.00141622 -0.20566398]
[-0.00168497 -0.04235452 -0.2578637 ]
[-0.10129444  0.14501078  0.04181587]
[ 0.08499856  0.05933263  0.00422158]
[ 0.05418143 -0.00857233 -0.21721607]
[ 0.20577508  0.06935159  0.24347603]
[ 0.14196296 -0.05580126  0.1198291 ]
[ 0.14377221 -0.01663602  0.021467  ]
[ 0.07851932  0.13809317 -0.35484475]
[ 0.12184966  0.07318768 -0.20125026]
[-0.00461075  0.07172762 -0.24820715]
[ 0.00714803 -0.0652372   0.0227143 ]
[ 0.01708508 -0.05127192  0.0464652 ]
[ 0.04982756 -0.07735336 -0.03161471]
[-0.02640046  0.12827553  0.1085868 ]
[ 0.02940412  0.00649519  0.01615869]
[-0.00391107 -0.02188374 -0.15691404]
[ 0.00699125  0.07176221  0.13386741]
[ 0.1265581   0.0098367   0.07704648]
[-0.03386881 -0.01643421 -0.02303536]
[ 0.0037357  -0.24980344 -0.14700924]
[-0.12900199 -0.20229961 -0.29309809]
[ 0.14579532  0.06816864 -0.0570106 ]
[-0.03239026  0.12645972  0.00213283]
[ 0.09352358  0.05119844 -0.02704046]
[ 0.00562427  0.00763441 -0.24283385]
[ 0.01138232  0.02253607 -0.18560298]
[ 0.13132305  0.09657265 -0.32667446]
[ 0.06931835  0.0657756  -0.39387935]
[-0.16515984  0.22611178 -0.00107973]
[-0.0289004   0.04842696 -0.00759771]
[-0.07725706  0.02252812  0.06106635]
[-0.03667562  0.12684183  0.06069266]
[ 0.03350846  0.00771937  0.0593983 ]
[-0.03947606 -0.02847316 -0.11442372]
[ 0.22022352 -0.14422236  0.04415169]
[ 0.12614933 -0.22752246 -0.00075221]
[-0.02178003  0.01863224 -0.0257882 ]
[ 0.03151897  0.16956268  0.11834683]
[ 0.00245508 -0.00695222  0.02053779]
[-0.00431449 -0.00100051 -0.01759981]
[ 0.14541553 -0.13662137 -0.82214946]
[ 0.10783513 -0.72339129 -1.10138869]
[ 0.09298957 -0.06801043 -0.43212438]
[ 0.12025069 -0.05606593  0.10572393]
[-0.0955948   0.06580117  0.03442508]
[-0.03466524 -0.02155289 -0.07572343]
[ 0.11825308 -0.1982829  -0.85876811]
[-0.15787859 -0.90333855 -1.36442637]
[ 0.03473831 -0.06138454 -0.37297797]
[-0.11395901 -0.01383113 -0.19647527]
[-0.09340196  0.05909089  0.03643199]
[-0.11735424 -0.04032977  0.02844735]
[-0.130385    0.00326312 -0.12549779]
[ 0.12953348  0.00608708 -0.09413296]
[ 0.09194858  0.1234694  -0.07325956]
[ 0.03134521 -0.03127909  0.06200208]
[ 0.02299395 -0.08392576 -0.05784937]
[ 0.00280743 -0.16894305  0.10111694]
[ 0.04895163 -0.27658188  0.00835479]
[-0.10446253  0.12291632  0.0118417 ]
[ 0.08804958 -0.05375476 -0.13712049]
[ 0.05006776  0.01543382  0.07714442]
[ 0.07272552  0.03330186  0.04779702]
[ 0.00609394  0.02363463  0.05717993]
[ 0.04048808 -0.0576866  -0.04202306]
[-0.06895126 -0.03910223  0.02346632]
[ 0.00174307 -0.01178217  0.02143723]
[ 0.06782378 -0.07619822 -0.05536317]
[-0.08207649  0.05109568  0.04756324]
[-0.05073835  0.07592799 -0.00732515]
[ 0.00960807  0.15291303 -0.09462553]
[-0.09703327 -0.27863869 -1.22642148]
[-0.00258396 -0.19939649 -0.55664742]
[-0.2512342   0.03734279 -0.04359511]
[ 0.03214754 -0.00370326  0.03056627]
[ 0.14019614  0.05456948  0.17221822]
[ 0.09538898 -0.08413376 -0.17842686]
[ 0.05436349 -0.36333096  0.03726037]
[-0.06966671 -0.23768651  0.07107272]
[-0.12272831  0.07467487 -0.36799815]
[ 0.10804922  0.10203049 -0.12418146]
[ 0.1249515   0.00424215  0.00444434]
[-0.22604479 -0.00283474 -0.02812481]
[-0.07814659  0.04133401 -0.04130112]
[ 0.22752565  0.10130722  0.17746456]
[ 0.07938126  0.05116265 -0.05486637]
[-0.00626171  0.02167507 -0.03492657]
[-0.06133763  0.08252755  0.02334952]
[-0.24736857  0.06346394  0.0117913 ]
[ 0.02632567  0.0178829  -0.09521999]
[ 0.11302456  0.05306492  0.00064267]
[ 0.1385286  -0.38607606  0.13616599]
[-0.18282773 -0.05418783  0.09484948]
[-0.40134308 -0.03518539  0.0107303 ]
[ 0.02072413 -0.05702292  0.0778828 ]
[ 0.04368515 -0.05534196 -0.02621275]
[-0.2013827   0.07334975  0.07117657]
[-0.00467088 -0.23147419 -0.01719444]
[ 0.08625431  0.1517085   0.02234478]
[ 0.00417623 -0.0450564  -0.00014137]
[ 0.1283346   0.06681047 -0.07219277]
[ 0.23561729  0.27221891  0.11431817]
[ 0.2486385  -0.00861902  0.19624601]
[ 0.12535414 -0.08914883  0.04976984]
[-0.09950706  0.14910524  0.02084512]
[-0.23717624  0.25309271 -0.01854305]
[ 0.05506936 -0.08007383 -0.02562495]
[-0.07967286  0.04505213  0.04620285]
[ 0.04259839 -0.04313803  0.0432995 ]
[-0.05601569 -0.103736    0.04810437]
[ 0.07705887  0.0693889   0.01416131]
[-0.02776373  0.07108043  0.02738249]
[ 0.1172198  -0.33879638 -0.08139244]
[ 0.14103863 -0.2366199   0.05844324]
[ 0.05005718 -0.08509938  0.07197244]
[ 0.03146295  0.09085148 -0.11465158]
[-0.02649726 -0.23945667 -0.20490426]
[-0.04161831 -0.27277341 -0.13432154]
[-0.06267612 -0.18284477  0.02259107]
[ 0.14203082  0.03249803 -0.01465441]
[-0.076556    0.0454279  -0.00729714]
[ 0.10980823 -0.29080796 -0.06468169]
[-0.0355019  -0.19400218 -0.01020038]
[-0.331184   -0.14256281 -0.03608533]
[-0.10438326  0.02452599 -0.05507155]
[ 0.03115982  0.21007328 -0.16355684]
[-0.21269874  0.22317046 -0.10603821]
[-0.05065633 -0.18231381 -0.0033445 ]
[ 0.06454193  0.06988601  0.00731255]
[ 0.02843209  0.05313817  0.05578875]
[ 0.01050857 -0.04214728 -0.08557245]
[ 0.05316281 -0.19380243 -0.12011947]
[ 0.00795514 -0.22565681  0.04040812]
[-0.02655317 -0.28673524 -0.05528786]
[ 0.06179626 -0.00330016 -0.04557187]
[ 0.10206648  0.04803508  0.03518106]
[ 0.00171201  0.11120144  0.0961132 ]
[ -1.38375744e-01  -4.36705799e-04  -8.02297294e-01]
[ 0.0310222   0.02571266 -0.49029171]
[-0.21234633 -0.03665402  0.03439686]
[-0.02368633  0.04451821 -0.14430314]
[ 0.16594495  0.11109843 -0.03283292]
[-0.02789801  0.06254943 -0.06057683]
[-0.12870346 -0.4038662  -0.67615104]
[-0.09303019 -0.30050266 -0.29695958]
[-0.01186302 -0.00838743  0.03403839]
[-0.14740768 -0.00197633 -0.10668899]
[-0.17482178  0.01372518 -0.12028068]
[ 0.10683627 -0.32140976 -0.14551838]
[ 0.11177216 -0.20176189  0.04230042]
[-0.11917538 -0.20167182  0.0751771 ]
[-0.22737601  0.06343018 -0.02790575]
[-0.05339525 -0.00539496 -0.07623402]
[ 0.118437   -0.00897944 -0.01871208]
[-0.23282371  0.01702774 -0.11234379]
[-0.06778076  0.13800398 -0.29962382]
[ 0.15801831  0.10482863 -0.11858043]
[-0.00476346 -0.03846723  0.03333417]
[-0.01466797  0.04470506  0.0422377 ]
[ 0.01042117  0.00650186 -0.0426281 ]
[ 0.03741403  0.06359775  0.00270088]
[ 0.07520542  0.04425643 -0.07278731]
[ 0.00090216 -0.0239851   0.01674095]
[-0.08147589 -0.06792417  0.05217286]
[-0.03444599  0.03467984  0.02573068]
[ 0.02592227 -0.04303705 -0.08162366]
[-0.07004792  0.27875251  0.04180707]
[ 0.09754812 -0.3164112  -0.21372561]
[ 0.05155575 -0.01657918 -0.01912687]
[ 0.14856377 -0.03198098  0.00295997]
[ 0.13552998  0.00365326 -0.00049839]
[ 0.00301341  0.00949987  0.07374252]
[-0.08401619 -0.09238207 -0.18684289]
[ 0.01209399  0.15141553  0.2015288 ]
[ 0.11704082  0.03076468  0.0820846 ]
[ 0.0370532   0.01657888 -0.08910114]
[ 0.10031012 -0.06308494  0.06570531]
[ 0.00160378  0.05463475  0.0399493 ]
[ 0.19499785 -0.04893756 -0.02951927]
[ 0.07970387 -0.03040375 -0.01763082]
[-0.02081142  0.01866488  0.05142183]
[ 0.0277084  -0.00422423 -0.0542791 ]
[-0.05896773 -0.08353369 -0.01537806]
[ 0.04371204  0.0179151  -0.05192604]
[ 0.06074092  0.00487631 -0.08666188]
[ 0.05654021  0.06888745 -0.01583386]
[ 0.00647219  0.00167504  0.00054736]
[-0.03684729  0.02609799  0.03841199]
[-0.02871447  0.21285255  0.04381849]
[ 0.07310311 -0.0209167  -0.03544917]
[-0.04338203  0.04863056  0.07872296]
[ 0.04864198 -0.56942588  0.04567056]
[-0.00999449  0.12449908  0.00015125]
[-0.1031361  -0.06160224 -0.49446845]
[-0.02704441 -0.4815957  -0.43212533]
[-0.0355318  -0.40882677 -0.21024342]
[ 0.28984749  0.00157521 -0.0958518 ]
[ 0.14122695 -0.67191607 -0.39295551]
[ 0.0254675  -0.0856429  -0.04016014]
[-0.09057955 -0.2304582   0.07962349]
[-0.16204444  0.06659638 -0.30178687]
[-0.10723291 -0.16197491  0.17304155]
[-0.00252877 -0.06689325  0.05756238]
[ 0.03500885 -0.03697936 -0.00328389]
[ 0.02200594 -0.03326198 -0.07461885]
[ 0.00673129  0.00639614 -0.32390079]
[ 0.00106166 -0.65761638 -0.23894821]
[-0.04281367 -0.06733443  0.15711123]
[ 0.09279311 -0.07353778 -0.03593196]
[ 0.07480735 -0.22035174 -0.25805056]
[-0.04247207  0.06495835 -0.13977334]
[-0.05656008  0.06706433  0.04908492]
[-0.00375324 -0.27248552 -0.07083222]
[ 0.00635976  0.0259198  -0.00267366]
[-0.0599511   0.05580832 -0.47395876]
[-0.0391149  -0.62985647 -0.42713398]
[ 0.0539261  -0.23652278  0.0680107 ]
[ 0.04625806  0.02619283  0.00022686]
[-0.01968034  0.04505984  0.17737302]
[ 0.13439308 -0.02255889 -0.08618651]
[ 0.05827189  0.43448827 -0.36323074]
[-0.03423394 -0.16328026 -0.2704449 ]
[ 0.04698863 -0.3859542  -0.06039748]
[ 0.01143834  0.00948468 -0.39144027]
[-0.02311216 -0.79278046 -0.9361769 ]
[-0.0180341  -0.24547303 -0.20621188]
[ 0.13321756 -0.14420152  0.10712573]
[ 0.16513127  0.13654323 -0.23957711]
[-0.01868028 -0.0211809  -0.04454472]
[ 0.01113027  0.09173936 -0.15880868]
[ 0.03295312 -0.75958818 -0.76208746]
[-0.0948896  -0.16267961 -0.38852498]
[-0.08087262  0.11273823  0.08498078]
[-0.00767031 -0.22423992 -0.08334938]
[ 0.05664085  0.04560981  0.06866046]
[ 0.10682433  0.07053863  0.00937269]
[-0.01600404 -0.05092822 -0.04231527]
[ 0.00332078  0.00266233  0.04579595]
[-0.0500566   0.18201265  0.02708818]
[ 0.09793116 -0.0880544  -0.15373427]
[ 0.00276729  0.03893008 -0.06541851]
[-0.16163445 -0.15892996 -0.09321364]
[-0.29039577 -0.03279345 -0.03983925]
[-0.01950168 -0.0135898  -0.098176  ]
[-0.02819583 -0.17435244 -0.09927186]
[-0.01501764  0.16197152  0.15917249]
[ 0.04890512 -0.00532571 -0.04387523]
[ 0.03089926  0.01373411 -0.12107714]
[ 0.02308187  0.16845578  0.00611429]
[-0.01654463 -0.02095223  0.00705268]
[-0.03272719  0.04121546 -0.01135632]
[-0.18242371 -0.22279465 -0.05676951]
[ 0.01717376 -0.00888627  0.07931582]
[-0.0415835   0.05914705  0.07374128]
[-0.03022098 -0.02343184  0.06238049]
[-0.04302899 -0.01048094  0.04909845]
[-0.06139524 -0.06588209 -0.05152596]
[-0.01620729  0.06377723 -0.01018351]
[-0.04379918 -0.0454853  -0.06495388]
[ 0.02114946 -0.06526654  0.01294145]
[ 0.08240746  0.06344612 -0.04620918]
[ 0.00117705  0.01183493 -0.01903147]
[-0.1206292  -0.02258758 -0.04347022]
[-0.07484055  0.05471919 -0.04274232]
[ 0.04205192  0.084163    0.04105164]
[ 0.0129246   0.00638168  0.01845918]
[-0.00117186 -0.0258786   0.0181833 ]
[ 0.01475597 -0.15413319 -0.05271749]
[-0.17942493  0.02916254  0.05261035]
[ 0.0038752  -0.10482371 -0.04063602]
[ 0.01478038  0.04327016  0.04133195]
[-0.01798312  0.04806374 -0.00580694]
[ 0.02802064  0.09951492 -0.04451464]
[ 0.02499362 -0.07782768 -0.18437852]
[ 0.01039866 -0.02668424  0.04790715]
[-0.01931233 -0.06964608  0.02894204]
[ 0.00964986 -0.23798464 -0.07996421]
[-0.01786532  0.03972296 -0.03201207]
[-0.06563287 -0.0303934  -0.00341979]
[ 0.06591163 -0.06432806 -0.07159781]
[ 0.01602785 -0.12710845  0.06954959]
[-0.03483626 -0.22067907 -0.00565996]
[ 0.03388361 -0.0298557  -0.15556213]
[-0.0705908   0.07903796  0.0499208 ]
[ 0.01406536 -0.00652569  0.03402036]
[ 0.08597528  0.10087305  0.08351996]
[-0.2434534   0.00501371  0.08148704]
[-0.21888699 -0.02009157 -0.01513144]
[-0.00205585 -0.06850863  0.0285111 ]
[ 0.00079349 -0.00768785 -0.05768736]
[-0.00740763  0.01802307  0.04524058]
[-0.01344952 -0.12864695  0.05408778]
[ 0.05681693 -0.0091893  -0.05764616]
[-0.0510273   0.02194997 -0.15890579]
[ 0.07504813 -0.04766306 -0.31189176]
[ 0.11921795  0.01729918 -0.1355975 ]
[ 0.01458318 -0.00911532  0.15182431]
[ 0.07568417  0.0571952   0.09640946]
[-0.00289053 -0.04656419 -0.0764931 ]
[-0.05189944 -0.04242351  0.00466675]
[-0.01775744  0.07343573 -0.00978257]
[-0.10211985  0.03274309  0.02163883]
[-0.18965447  0.02281374  0.00823667]
[-0.11162031 -0.025099   -0.01229855]
[-0.42421469  0.00062569 -0.05202512]
[-0.47176379 -0.05349752 -0.17780896]
[-0.28437501 -0.03522396 -0.11572455]
[-0.22697876 -0.11697944 -0.26883888]
[-0.1611798  -0.03337384 -0.20675585]
[-0.05366551  0.02194999 -0.21486987]
[ 0.01135482  0.06228454 -0.04862883]
[-0.17633477  0.08098869  0.01472963]
[-0.07216565 -0.11000744  0.01700811]
[-0.05153259  0.07595128 -0.01880348]
[ 0.00927086 -0.07517789 -0.08967917]
[ 0.02406342  0.05264182  0.03212146]
[ 0.04970457  0.00865853  0.11594199]
[-0.01409238  0.0042512   0.02492058]
[ 0.05283738 -0.06469323 -0.03039042]
[ 0.00262159 -0.01157368 -0.02720858]
[ 0.07468145 -0.02731815  0.05228507]
[-0.04295329 -0.08508029 -0.00752163]
[-0.22006802  0.11103099 -0.1677673 ]
[ 0.08456917  0.04962485 -0.06949843]
[ 0.12372868  0.01957318 -0.10174695]
[-0.01549348 -0.01430214  0.09178212]
[ 0.0212433  -0.02094861 -0.1128342 ]
[-0.10727705 -0.08044509 -0.1953114 ]
[-0.06528348  0.01021259 -0.04089433]
[-0.09991466  0.03127716  0.04799061]
[ 0.02199443  0.08901629  0.08483066]
[-0.00341652 -0.14202745  0.03853363]
[-0.01210735 -0.16399553  0.03019281]
[ 0.00376948 -0.22510387 -0.06545359]
[-0.22636531 -0.03978047 -0.04426303]
[-0.15724632 -0.01753437 -0.04774924]
[ 0.0018168   0.05873123 -0.01603764]
[ 0.07272393 -0.00773034  0.09246583]
[ 0.03254461 -0.0044894  -0.01815598]
[ 0.07860246 -0.01311446  0.02067572]
[-0.19129078  0.04107979 -0.0196157 ]
[-0.00164664 -0.07686291 -0.12804106]
[ 0.03520614  0.03493284  0.0206816 ]
[-0.0138037  -0.14587314  0.06811474]
[ 0.00080543 -0.1425117  -0.01428329]
[ 0.02357648 -0.00817963 -0.13976188]
[ 0.00593808 -0.02491662 -0.09728076]
[-0.07198019 -0.06533053 -0.03574528]
[-0.08083284 -0.10901635 -0.12817283]
[ 0.0513426   0.02492275  0.05018712]
[-0.0477233   0.00164612 -0.06386582]
[-0.00581231  0.03428204 -0.01646859]
[ 0.07457973  0.07076402  0.08084112]
[-0.06126552 -0.06881143  0.02958557]
[ 0.06958263  0.06264593  0.02142842]
[ 0.03931265  0.01301585 -0.01401097]
[ 0.08378399  0.08003102  0.04028111]
[-0.00455974  0.07660663 -0.07346723]
[-0.43683949 -1.19767475 -0.74139845]
[-0.48894408 -1.24211371 -1.36883056]
[-0.77896214 -0.95378345 -0.83125842]
[-0.02763749 -0.03434156  0.15278275]
[ 0.00252575  0.096502   -0.07108123]
[ 0.05926975  0.05644394  0.02207466]
[ 0.0283342   0.0686425  -0.05577463]
[ 0.08969842 -0.03016121 -0.16320844]
[ 0.23979378 -0.05748454 -0.21952727]
[-0.07334571  0.09840049 -0.00152474]
[ 0.10259636  0.07387186  0.01368764]
[ 0.10188701  0.0160193   0.03059809]
[ 0.00847938  0.01287954  0.11661609]
[ 0.01251671  0.13055162  0.00372821]
[ 0.07476953  0.0234531   0.0115204 ]
[-0.05849621 -0.0283664  -0.07972404]
[ 0.04021763  0.01350994 -0.04967999]
[-0.01587078  0.0521526  -0.01234089]
[-0.0206083  -0.00887496  0.08540259]
[-0.0008235   0.04857932 -0.02464051]
[ 0.01623147  0.04731547  0.00448256]
[ 0.06308319  0.0069247  -0.38735136]
[-0.04586888 -0.31612736 -0.43038845]
[ 0.0519529  -0.33899006 -0.24831055]
[-0.05784739  0.08370207 -0.05151997]
[-0.04840538  0.09788113 -0.14704502]
[-0.05525091  0.08963561 -0.10219482]
[ 0.03971276  0.06989564 -0.0517268 ]
[-0.02767897 -0.0057775  -0.00666298]
[ 0.095796    0.01972545 -0.03738088]
[-0.18153501  0.09483475  0.01668081]
[-0.09556018 -0.03492393  0.09041347]
[ 0.03348187  0.05188185  0.06598405]
[-0.01514137 -0.09725302 -0.17831835]
[ 0.05601753 -0.14194994  0.03675118]
[ 0.05336129 -0.09949234  0.04070688]
[ 0.01730325  0.06934682  0.07099216]
[-0.03312909 -0.05866976 -0.02421306]
[ 0.05894087  0.01859574 -0.01491189]
[ 0.06860626  0.05423494  0.01920323]
[-0.01696243 -0.03810398 -0.02978576]
[ 0.00046609  0.03453572 -0.02394632]
[-0.030986    0.11034706 -0.06324413]
[ 0.03177406 -0.00403032 -0.08359088]
[-0.0114731   0.05740793 -0.04107971]
[-0.13711025 -0.00781523 -0.03844953]
[-0.00286985  0.04607917 -0.19324486]
[-0.07915045 -0.0663133  -0.12896574]
[ 0.03858064  0.08914912 -0.06829267]
[-0.00349772  0.02131091  0.03578347]
[-0.02376853  0.01762213 -0.00453651]
[ 0.08320448  0.06318684 -0.16708787]
[-0.12233627 -0.16075517 -0.48897189]
[ 0.11376555 -0.24722576 -0.32146409]
[ 0.11149146  0.02488453  0.14699566]
[ 0.00877755 -0.04847579  0.09958275]
[ 0.01987117  0.03901826  0.16506477]
[ 0.02994132  0.09070593  0.04304959]
[-0.00101467 -0.00992988  0.07122726]
[ 0.06075627  0.0391353  -0.00882966]
[ 0.01755327 -0.06468618  0.14875086]
[-0.14300933 -0.01487179  0.00899549]
[ 0.0326873  -0.00591733  0.04109539]
[-0.07243702  0.10591964  0.13642006]
[ 0.03985185  0.04575894  0.05486662]
[ 0.02755221  0.05329667 -0.03809964]
[-0.18703164 -0.73784274 -0.57081968]
[-0.13209115 -0.82711923 -0.81772375]
[-0.36223039 -0.84513116 -0.58755445]
[-0.05758178 -0.03527216  0.10042928]
[ 0.01727393  0.17742173 -0.01295042]
[ 0.00851178  0.00981124 -0.00070607]
[-0.32752091 -0.51497364 -0.5584476 ]
[-0.36135897 -0.55342215 -1.08776832]
[-0.6079405  -0.53310281 -0.7282083 ]
[ 0.03340532 -0.14825878 -0.04469413]
[ 0.08757872  0.02104904  0.02741381]
[ 0.1473718  -0.01763751  0.04229267]
[ 0.05998601  0.03478546 -0.09224541]
[-0.09635329  0.02949682 -0.14353397]
[ 0.16260928  0.10812548 -0.15587942]
[-0.01814347 -0.06264516  0.03503062]
[-0.01583309 -0.0105968   0.04679052]
[ 0.05670196  0.00145273 -0.00307091]
[-0.10473524 -0.12332288  0.10250128]
[-0.03485618  0.02923609 -0.04056227]
[ 0.03310541 -0.0429102  -0.06992682]
[ 0.02209342  0.03603864 -0.04541963]
[ 0.05618648 -0.02933802  0.01938901]
[-0.07526865  0.05292467  0.07760337]
[-0.0553136   0.07915244 -0.00358265]
[-0.05109144  0.01703598 -0.04383875]
[ 0.0512284   0.05005332  0.01592079]
[-0.04166997  0.00315234  0.00505472]
[-0.03859254  0.0010502   0.00600554]
[-0.0275624   0.03331233  0.07992551]
[-0.367349    0.19630852  0.09259413]
[-0.11255733  0.08109545  0.00429336]
[-0.01790451  0.21710847 -0.21659602]
[-0.84871799 -0.01839024  0.07292865]
[-0.28660631  0.06237983  0.11784623]
[ 0.29841205  0.08458574 -0.14191902]
[-0.14227188  0.00308007  0.07065732]
[-0.16746579 -0.45079279 -0.29426977]
[-0.05694098 -0.25082633  0.1435377 ]
[-0.22448373  0.04516689  0.1850159 ]
[-0.07004392  0.00997287 -0.10762014]
[ 0.19811246  0.08030173 -0.23327054]
[-0.76363224 -0.00663109  0.13138469]
[-0.20404957  0.01295006  0.15470412]
[ 0.3215538   0.03931595 -0.136654  ]
[ 0.05455733  0.06942658  0.06599569]
[-0.08215423 -0.05895483  0.03539265]
[ 0.00177316  0.06930745 -0.08276261]
[-0.519889   -0.05632555  0.05411759]
[-0.55446798  0.02382614  0.03396187]
[ 0.13369805  0.03265903 -0.10212919]
[ 0.04303932 -0.01016428  0.04483158]
[-0.28820771 -0.6116488  -0.06298789]
[-0.47659737  0.23357204  0.09297337]
[ 0.05653393 -0.54958487 -0.03235678]
[-0.06748142 -0.15792368  0.01406855]
[-0.26688826  0.095148    0.03678545]
[ 0.00645797  0.20455709 -0.14329381]
[ 0.0323693  -0.44964573  0.00944011]
[ 0.0143433  -0.04617428  0.07825644]
[-0.03449353  0.12890266 -0.16190676]
[ 0.15782827 -0.09425104  0.12542336]
[ 0.15376723 -0.24468155  0.27671194]
[-0.00253561 -0.24412455 -0.05368297]
[-0.09839974  0.00159124  0.09808373]
[-0.3949227   0.3037577   0.08290654]
[ 0.02065687 -0.06266817  0.01934087]
[ 0.02361123 -0.00806664 -0.0607784 ]
[-0.02919547  0.03082134 -0.0199139 ]
[ 0.02552163 -0.28781229 -0.04562   ]
[ 0.0779007  -0.4471527   0.07212574]
[-0.07966862  0.18649368  0.04923453]
[-0.01312594  0.19661894 -0.17500886]
[ 0.07733571 -0.33513921 -0.00745334]
[-0.02273968 -0.31395471  0.09402148]
[-0.11833605  0.05531896  0.02226485]
[-0.12471036  0.08480506 -0.0539398 ]
[-0.0721662  -0.00496515 -0.1932479 ]
[-0.00710479 -0.22175395 -0.08890968]
[ 0.09972686 -0.57372183  0.04491964]
[-0.10965282  0.1202496   0.08624198]
[-0.09244176  0.05477341 -0.0482439 ]
[-0.46611774 -1.10155272 -0.32485873]
[-0.39462721 -0.01526356 -0.01730736]
[ -5.13303354e-02  -4.28085238e-01  -3.44627362e-04]
[-0.10239661 -0.3397738   0.0837378 ]
[-0.20024516  0.24596468  0.05603599]
[ 0.00155855  0.15483436 -0.14704412]
[ 0.11437045 -0.66535395  0.04578528]
[-0.03536911 -0.15717451  0.05255349]
[-0.0100317  -0.08436764 -0.02318013]
[-0.1789383  -0.24998657  0.01156396]
[-0.25593805 -0.11811969 -0.00574253]
[ 0.05151622 -0.05601332 -0.11938041]
[ 0.06358113 -0.72649801  0.0486185 ]
[ 0.03867384 -0.23909071  0.09406825]
[-0.26929152  0.06195888  0.07733572]
[-0.19536574  0.07291284  0.09062736]
[-0.07264496  0.18695852  0.01193876]
[-0.87825972 -0.03513081  0.1015261 ]
[-0.18959747 -0.02160144  0.1174481 ]
[ 0.21018018  0.05241824 -0.22923526]
[-0.27846289  0.10613634  0.07346154]
[-0.0683376   0.12723359 -0.04543906]
[-0.08670445  0.13902928 -0.16643994]
[-0.05307509 -0.05944314  0.00868012]
[-0.09337439 -0.014595    0.02372376]
[-0.08997979  0.16364582 -0.0050154 ]
[-0.09233738  0.12818521 -0.02785805]
[-0.16369261 -0.7407409  -0.23041964]
[-0.19316581 -0.21815808  0.04202042]
[-0.38752982 -0.04249989  0.04553965]
[-0.71634382 -0.01198827  0.01501428]
[ 0.07063108  0.02090887 -0.19685851]
[-0.9082458  -0.0113264   0.13320361]
[-0.10085802 -0.01970041  0.06784739]
[ 0.19084524  0.13770999 -0.29976174]
[-0.08087362 -0.00074587 -0.06653385]
[ 0.05256995  0.04643528 -0.04117729]
[-0.01008757  0.00568649  0.01637214]
[ 0.05077207 -0.0183594   0.03381265]
[-0.07115118 -0.00702543 -0.07935821]
[ 0.04368097  0.00076823 -0.0132786 ]
[ 0.07703778  0.07200143  0.00935468]
[ 0.0406016  -0.03239754 -0.03354243]
[ 0.04203451 -0.03980763  0.07073775]
[-0.27702129  0.15072598 -0.25723863]
[-0.07431822  0.16018899 -0.0459743 ]
[ 0.06023999  0.01892886 -0.14314854]
[-0.40247226  0.05689376  0.01568213]
[-0.21461755  0.04506444 -0.05623915]
[ 0.10177048 -0.00051454 -0.03001202]
[ 0.07251362  0.01503599  0.02496128]
[ 0.12247094  0.09742045 -0.06769323]
[ 0.0506842  -0.13265261  0.0136915 ]
[-0.01797365  0.02840912 -0.0429582 ]
[ 0.10412253 -0.01684223 -0.10989682]
[ 0.11288186 -0.07068612 -0.06780499]
[-0.46366787  0.12658533  0.02132923]
[-0.0960543   0.09510688 -0.06714833]
[ 0.1570048  -0.04206744 -0.04062941]
[  7.69758224e-03   6.90158267e-05  -4.44009118e-02]
[ 0.05841235  0.03995038  0.00206903]
[ 0.07252904  0.07177604 -0.00809116]
[-0.17900355 -0.00666541  0.06776806]
[-0.28513217 -0.0607822   0.00446206]
[-0.22791003 -0.05978809 -0.0271357 ]
[-0.04232673  0.03032419 -0.03545741]
[ 0.21325186  0.07727616  0.05954793]
[-0.24957873  0.07117061 -0.04376895]
[ 0.00336542 -0.07717677 -0.4419935 ]
[-0.065064   -0.04474446  0.07402129]
[-0.08554962  0.07531365  0.03496296]
[-0.00683856  0.07274281 -0.21069866]
[ 0.03669984 -0.15262555 -0.37604699]
[ 0.00848965  0.04425187  0.11264338]
[ 0.00142364  0.02361953 -0.47666773]
[ 0.04591848 -0.37163836 -0.19734326]
[ 0.02529264  0.09835848  0.30251768]
[ 0.11807965  0.12051687 -0.04581124]
[ 0.11697792 -0.14598146 -0.01434009]
[-0.18240529  0.20631878  0.05926867]
[ 0.05050169 -0.07311743  0.00011488]
[-0.0331831   0.03530236 -0.04954166]
[-0.05103126 -0.03831237 -0.07994258]
[-0.02077374  0.08321786 -0.3657892 ]
[-0.00240825 -0.29250962 -0.06095302]
[-0.0037529   0.13981968  0.09137572]
[ 0.05256189  0.10401397 -0.22995655]
[ 0.06826384 -0.07545415 -0.11453052]
[ -1.50317246e-05  -7.03374017e-03   9.49117616e-02]
[-0.13170053 -0.007276   -0.3427881 ]
[-0.04214438  0.0571321  -0.07970779]
[-0.01589563 -0.03267855 -0.06464811]
[ 0.02307346  0.16536891 -0.41167593]
[ 0.08677495 -0.43688798 -0.18862256]
[-0.04800569  0.23123397  0.15356289]
[ 0.01443832 -0.01897318 -0.00532175]
[ 0.17688324  0.10367288 -0.22231786]
[-0.40928721 -0.14200389 -0.10512131]
[-0.01523067 -0.10735649 -0.36345446]
[-0.12416825 -0.39563698 -0.21946158]
[-0.21773598  0.26142859  0.07097592]
[ 0.00629128  0.14144717 -0.49541718]
[ 0.03360921 -0.25556722 -0.21540095]
[-0.07969107  0.05003129  0.08469903]
[-0.20019253  0.00596481 -0.15597725]
[-0.19027257 -0.06783522 -0.01116184]
[-0.1676643   0.03308746 -0.14367984]
[ 0.01653947  0.08573316 -0.59929377]
[ 0.00328824 -0.31008774 -0.18347375]
[-0.0079341  -0.00090176  0.06010786]
[ 0.02098563  0.10953876 -0.06327568]
[-0.14789279  0.0731941   0.01354241]
[ 0.0271976   0.01784788 -0.06957   ]
[-0.44724056  0.06974896  0.05956483]
[-0.02343666  0.05622348 -0.01920651]
[ 0.20452468 -0.00941596 -0.02627531]
[-0.21537791 -0.11545678 -0.47312608]
[-0.17004625  0.1077344  -0.08281759]
[-0.01276906 -0.02761729 -0.13756081]
[ 0.06236385  0.06388569 -0.07871192]
[-0.04437774 -0.03392756 -0.01511958]
[-0.0046582   0.07181212 -0.0423193 ]
[ 0.06759701  0.01783027 -0.01539082]
[ 0.12253467  0.12893714 -0.21281135]
[-0.1446594  -0.24249594 -0.04362329]
[-0.12629299  0.00479663  0.03449818]
[-0.28937939 -0.06943055  0.00038425]
[-0.3117542  -0.0586284  -0.06786632]
[-0.41144556  0.15554193  0.05784059]
[ 0.03772988  0.03398546 -0.09631547]
[ 0.09694334 -0.09249525 -0.03538902]
[ 0.01614069 -0.08073996 -0.00535696]
[ 0.02512941 -0.04789953  0.04562408]
[ 0.00454339 -0.0468642  -0.06638483]
[-0.03591888 -0.06465322  0.07676052]
[ 0.05592372 -0.03464758  0.05399321]
[ 0.06601331  0.00307515  0.04470875]
[ 0.01694907 -0.00197439 -0.06929342]
[-0.05943609 -0.05221459  0.07211764]
[-0.07104608  0.01893163  0.0819198 ]
[-0.08883379 -0.29676744  0.11634121]
[-0.08437186 -0.27980068 -0.02221771]
[-0.0470329  -0.08374608 -0.15763134]
[-0.39392892 -0.38349813 -0.00186293]
[-0.25169933 -0.01192141  0.01431723]
[-0.16516028  0.10914225  0.01522451]
[ 0.06470411  0.11381499  0.02884544]
[ 0.12007058 -0.08073628 -0.17719433]
[-0.01538402  0.15560998 -0.19052218]
[-0.01187777  0.06100255  0.09142854]
[ 0.01802761  0.04149853 -0.01150571]
[-0.0305725   0.06288962  0.04348097]
[-0.39969325 -0.36511564  0.02776127]
[-0.15747978  0.01291831 -0.00561985]
[-0.15538144  0.14440417  0.09890437]
[ 0.06554855 -0.08008713  0.06009928]
[-0.02272999 -0.0114166   0.04369155]
[-0.03783837 -0.0274457  -0.03033867]
[ 0.0606795  -0.19269648 -0.08940884]
[-0.08763514 -0.05617554  0.1079489 ]
[-0.08869427  0.13809246 -0.03960916]
[ 0.03587905 -0.10124303 -0.15219466]
[-0.15167239 -0.195521   -0.46653455]
[-0.08177348 -0.235386   -0.27681914]
[-0.0531326  -0.00091152 -0.34639519]
[-0.05388481  0.15054777 -0.48342153]
[-0.00342649 -0.02526716 -0.43351507]
[-0.01644605  0.12959343  0.12192419]
[ 0.01193237 -0.28278539 -0.40260777]
[ 0.0035778  -0.22732754 -0.52981192]
[-0.03161035 -0.0270699  -0.14464787]
[ 0.01848435  0.08079503 -0.09834573]
[ 0.02796084  0.21982197 -0.3140313 ]
[-0.19855374 -0.34715766 -0.30064639]
[-0.19027442 -0.31981778 -0.2935136 ]
[-0.1924094  -0.38351861 -0.01320312]
[-0.03631367  0.0011061  -0.00089778]
[-0.04238336  0.02751459 -0.02430799]
[ 0.02732562  0.0239927   0.05397342]
[-0.02824957 -0.12262678 -0.50344491]
[-0.02427775 -0.17886941 -0.49022609]
[ 0.05434717 -0.0152633  -0.37340349]
[-0.05773823  0.00344148  0.03775332]
[-0.01434513 -0.01287646 -0.08797327]
[-0.0337003   0.11318166 -0.19899185]
[-0.00131789  0.00247077  0.12801307]
[ 0.06986076  0.02579436 -0.0408842 ]
[-0.00143453 -0.04548498 -0.1785205 ]
[-0.05491744 -0.17300719 -0.38232827]
[-0.02678302 -0.35514912 -0.56619281]
[-0.00700193 -0.1644462  -0.40928644]
[ 0.15190226 -0.03586367 -0.14403829]
[-0.15806049 -0.55767798 -0.8001284 ]
[-0.03353088 -0.4477948  -0.53984129]
[-0.07689835 -0.10142534 -0.37758157]
[-0.07178049 -0.33005837 -0.49284428]
[-0.06467955 -0.26432344 -0.15385331]
[ 0.10617186 -0.10809751 -0.19102906]
[ 0.01250314 -0.31336746 -0.34936062]
[ 0.03562653 -0.02396877 -0.54135489]
[ 0.01915182 -0.16758966 -0.02375275]
[ 0.1007256   0.05656675 -0.13972194]
[-0.00031606 -0.00179747 -0.18273686]
[ 0.02546058 -0.214762   -0.53090692]
[ 0.03140287 -0.20345192 -0.55223733]
[ 0.07512077 -0.0922535  -0.54946089]
[ 0.19039141 -0.07252651  0.26546681]
[ 0.0872177  -0.08656714  0.07504695]
[ 0.01926675 -0.06404449  0.07850853]
[-0.28735203 -0.28031597  0.02464678]
[ 0.07797236  0.0952402  -0.01342166]
[ 0.08725542  0.08396263  0.07679021]
[ 0.07008743 -0.43435079 -0.01869874]
[ 0.01385798 -0.39590225 -0.22424039]
[-0.00772243 -0.26210314 -0.36870563]
[-0.03293787 -0.08444545 -0.15631656]
[ 0.074959   -0.10757533 -0.02287984]
[-0.02051338 -0.1290637   0.12457447]
[ 0.14291693 -0.01560138 -0.02135926]
[-0.07830339 -0.09957908 -0.54653382]
[-0.00295397 -0.03612123 -0.39696673]
[ 0.08848349 -0.21227956 -0.07792804]
[-0.17546718 -0.10346472 -0.03477506]
[-0.17717616  0.07690568  0.04746725]
[-0.41087702 -0.31422973  0.04484962]
[-0.27973983 -0.01100707  0.08868635]
[-0.0695048   0.01722006  0.08948152]
[ 0.03801897  0.06030285 -0.02356657]
[-0.04266028 -0.00318874 -0.00482236]
[ 0.0544549   0.04229063 -0.058065  ]
[-0.02604179 -0.06417106 -0.03101508]
[-0.0790671  -0.0759116   0.03698935]
[-0.07200588 -0.01569731 -0.07936268]
[ 0.01730751  0.01015051 -0.01202631]
[-0.03325227 -0.062712   -0.06250735]
[-0.05704228 -0.06087026  0.07461406]
[-0.06483348 -0.31174588  0.28469998]
[ 0.15576911 -0.21270064 -0.46905532]
[ 0.03727426  0.03109534 -0.00290877]
[ 0.2052402   0.09206931  0.07160599]
[-0.17984453  0.07240564  0.10467809]
[-0.08176153 -0.13103703 -0.04166611]
[-0.04793319  0.02816307 -0.0130222 ]
[-0.04165985 -0.0870771   0.13113439]
[ 0.11120753 -0.04018719  0.18311989]
[-0.03654802  0.00697846  0.05906977]
[-0.00946265 -0.06714953 -0.05286855]
[ 0.137529   -0.01986577 -0.02423975]
[ 0.14735202  0.0893232   0.10180113]
[-0.22029726  0.07615905  0.00483975]
[ 0.03972743 -0.03674296 -0.09067864]
[-0.02790842 -0.00568255 -0.03860373]
