<?xml version="1.0"?>
<opencv_storage>
<opencv_ml_lr>
  <format>3</format>
  <classifier>"Logisitic Regression Classifier"</classifier>
  <alpha>1.0000000000000000e-003</alpha>
  <iterations>1000</iterations>
  <norm>1</norm>
  <train_method>0</train_method>
  <learnt_thetas type_id="opencv-matrix">
    <rows>29</rows>
    <cols>785</cols>
    <dt>f</dt>
    <data>
      -7.41037240e-008 -1.94497134e-005 -1.71798838e-005
      -1.85099088e-005 -1.81328323e-005 -2.01790208e-005
      -1.73632980e-005 -1.78069731e-005 -2.00089653e-005
      -2.46805521e-005 -1.57715949e-005 -1.92082589e-005
      -2.17575980e-005 -1.71282045e-005 -1.84575092e-005
      -1.71958563e-005 -2.04750013e-005 -1.82758395e-005
      -1.64566500e-005 -1.61805401e-005 -1.82241947e-005
      -1.63967161e-005 -1.87384594e-005 -2.13744170e-005
      -1.66273621e-005 -1.88964259e-005 -1.88964259e-005
      -1.88964259e-005 -1.88964259e-005 -1.93479118e-005
      -1.61304542e-005 -1.81065352e-005 -1.97706067e-005
      -1.63047516e-005 -1.79581075e-005 4.76736168e-005 2.32997758e-004
      3.87077656e-004 5.41818561e-004 5.42097376e-004 5.41151094e-004
      5.17209119e-004 4.76662448e-004 4.49556072e-004 4.48018487e-004
      4.68274724e-004 4.71327076e-004 4.25443723e-004 3.24024004e-004
      1.12975351e-004 7.28318219e-006 -1.50761080e-005 -1.69958566e-005
      -1.88964259e-005 -1.88964259e-005 -1.88964259e-005
      -1.88964259e-005 -1.65065267e-005 -2.01192670e-005
      -1.45769736e-005 -1.51879840e-005 -2.10788367e-005
      -1.70937928e-005 2.54635015e-005 1.71472842e-004 3.13020777e-004
      4.67401260e-004 4.56879963e-004 4.22895449e-004 3.53368348e-004
      3.04046494e-004 2.69972574e-004 2.73833401e-004 2.98330327e-004
      3.57637939e-004 3.25701112e-004 2.73679965e-004 8.85413028e-005
      -2.88705365e-007 -2.09096743e-005 -1.63329842e-005
      -1.88964259e-005 -1.88964259e-005 -1.88964259e-005
      -1.88964259e-005 -1.85106055e-005 -1.80970455e-005
      -1.83160155e-005 -1.72872788e-005 -1.75702153e-005
      -1.62328433e-005 3.07349046e-006 1.19705568e-004 2.38649925e-004
      3.94608302e-004 3.79155797e-004 2.80037610e-004 1.66521466e-004
      1.20924160e-004 9.19843587e-005 8.62562811e-005 1.28227417e-004
      2.28648103e-004 2.55051011e-004 2.51413207e-004 7.74059808e-005
      -2.83837107e-006 -1.85558911e-005 -1.68435981e-005
      -1.88964259e-005 -1.88964259e-005 -1.88964259e-005
      -1.88964259e-005 -1.86323796e-005 -1.58223629e-005
      -1.73209664e-005 -1.91071795e-005 -1.52719476e-005
      -1.92794469e-005 -1.36243862e-005 8.75102123e-005 2.04264579e-004
      3.45828681e-004 2.90402269e-004 1.44658188e-004 3.79197190e-005
      2.22093731e-005 4.77341518e-006 -4.91587671e-005 -2.28688841e-005
      1.11643531e-004 2.10113751e-004 2.53099686e-004 7.83960568e-005
      -5.37074175e-006 -1.68498209e-005 -1.87300884e-005
      -1.88964259e-005 -1.88964259e-005 -1.88964259e-005
      -1.88964259e-005 -1.80063180e-005 -1.76938138e-005
      -1.61284552e-005 -1.96171077e-005 -1.66040409e-005
      -1.81013529e-005 -2.17636389e-005 7.39494717e-005 1.66610829e-004
      2.59443244e-004 1.38901873e-004 -5.90963027e-005 -9.57674347e-005
      -1.52292150e-005 -9.54945062e-006 -1.46503298e-004
      -2.16067012e-004 -5.69627737e-005 1.13308677e-004 2.26270437e-004
      7.50305117e-005 -4.40779013e-006 -1.54295140e-005 -1.68116640e-005
      -1.88964259e-005 -1.88964259e-005 -1.88964259e-005
      -1.88964259e-005 -1.62931792e-005 -1.83404409e-005
      -1.60764866e-005 -1.87875921e-005 -1.78819209e-005
      -1.77702641e-005 -2.68352269e-005 6.05496462e-005 1.14719551e-004
      1.30772038e-004 -7.74874570e-005 -2.84899666e-004 -1.87184720e-004
      6.31910079e-005 1.09754343e-004 -1.81487383e-004 -4.08903579e-004
      -3.01174936e-004 -5.03867413e-005 1.93090542e-004 7.53673085e-005
      -1.72813759e-006 -1.73618355e-005 -1.95782541e-005
      -1.88964259e-005 -1.88964259e-005 -1.88964259e-005
      -1.88964259e-005 -1.92587013e-005 -1.69918058e-005
      -1.60689269e-005 -1.96724941e-005 -1.81328978e-005
      -1.79937633e-005 -1.89255534e-005 5.70427328e-005 8.82372333e-005
      2.49114146e-005 -2.74918246e-004 -4.79204493e-004 -2.16830813e-004
      2.10812927e-004 2.84822279e-004 -1.38656615e-004 -5.65558497e-004
      -5.00292401e-004 -1.97364323e-004 1.28563435e-004 6.45480832e-005
      -2.92436221e-006 -2.13950698e-005 -2.07325156e-005
      -1.88964259e-005 -1.88964259e-005 -1.88964259e-005
      -1.88964259e-005 -1.82565564e-005 -1.85567787e-005
      -1.91609688e-005 -1.84898854e-005 -1.80448242e-005
      -1.80305033e-005 -1.52074826e-005 4.82947580e-005 5.03389601e-005
      -7.06401479e-005 -4.06092528e-004 -6.08492468e-004
      -2.22259099e-004 3.40797676e-004 4.38212475e-004 -8.91445816e-005
      -6.53961266e-004 -6.84699568e-004 -3.18928418e-004 8.97951031e-005
      5.38829772e-005 -4.89159561e-007 -1.75632176e-005 -1.71848296e-005
      -1.88964259e-005 -1.88964259e-005 -1.88964259e-005
      -1.88964259e-005 -1.87399819e-005 -1.83380635e-005
      -1.90523151e-005 -1.89260809e-005 -1.87782171e-005
      -1.88622071e-005 -1.74198703e-005 4.34683752e-005 1.89489019e-005
      -1.30038956e-004 -4.78854432e-004 -6.52069750e-004
      -1.84946868e-004 4.65140794e-004 5.73800819e-004 1.12716516e-005
      -6.74873067e-004 -7.47623621e-004 -3.92090151e-004 4.47539242e-005
      3.04667883e-005 -6.03786077e-007 -1.83621869e-005 -1.80045281e-005
      -1.88964259e-005 -1.88964259e-005 -1.88964259e-005
      -1.88964259e-005 -1.89951879e-005 -1.83389238e-005
      -1.87273654e-005 -1.91603904e-005 -1.90728679e-005
      -1.86652887e-005 -2.31310769e-005 3.56833698e-005 8.22645416e-006
      -1.68473009e-004 -5.27494354e-004 -6.60032267e-004
      -1.05261337e-004 6.51539420e-004 7.79394701e-004 1.65499077e-004
      -6.20657811e-004 -7.66933023e-004 -4.46584279e-004 5.80196411e-006
      1.32610185e-005 -1.73663341e-006 -1.76200883e-005 -2.00300565e-005
      -1.88964259e-005 -1.88964259e-005 -1.88964259e-005
      -1.88964259e-005 -1.82587391e-005 -1.83917327e-005
      -1.90849951e-005 -1.87255555e-005 -1.81815594e-005
      -1.78088358e-005 -2.99766962e-005 2.66910720e-005 3.76299667e-008
      -1.99999107e-004 -5.61123714e-004 -6.56031829e-004
      -2.18598543e-005 8.36478896e-004 9.94110247e-004 3.44040629e-004
      -5.04443946e-004 -7.29019463e-004 -4.59898874e-004
      -1.65832771e-005 3.37654478e-006 -5.80493270e-006 -1.86690213e-005
      -1.61019016e-005 -1.88964259e-005 -1.88964259e-005
      -1.88964259e-005 -1.88964259e-005 -1.86600191e-005
      -1.83801258e-005 -1.89461862e-005 -1.90877217e-005
      -1.82336553e-005 -1.78890696e-005 -3.41055165e-005 1.44268679e-005
      -2.48510405e-005 -2.40855501e-004 -6.04311412e-004
      -6.70110749e-004 5.23088420e-005 1.00688019e-003 1.19410385e-003
      5.31309459e-004 -3.84809973e-004 -6.73753500e-004 -4.54373338e-004
      -3.80024503e-005 -4.36920936e-006 -9.12406631e-006
      -1.76904632e-005 -1.81436499e-005 -1.88964259e-005
      -1.88964259e-005 -1.88964259e-005 -1.88964259e-005
      -1.87673340e-005 -1.84664823e-005 -1.89455732e-005
      -1.84814053e-005 -1.86297384e-005 -1.82935873e-005
      -3.63270556e-005 6.91754167e-007 -5.12617989e-005 -2.86088325e-004
      -6.66422769e-004 -7.23861158e-004 5.75496015e-005 1.07155764e-003
      1.27879682e-003 6.27211353e-004 -3.01951222e-004 -6.16183213e-004
      -4.35986731e-004 -5.72792560e-005 -9.24067808e-006
      -1.35800547e-005 -1.76514131e-005 -1.87919104e-005
      -1.88964259e-005 -1.88964259e-005 -1.88964259e-005
      -1.88964259e-005 -1.91017971e-005 -1.95027569e-005
      -1.88831727e-005 -1.91083473e-005 -1.84192813e-005
      -1.87837468e-005 -4.00419194e-005 -1.14918867e-005
      -8.37073021e-005 -3.40748491e-004 -7.45618017e-004
      -8.19788023e-004 -2.98346695e-005 9.88159329e-004 1.21620274e-003
      6.17642887e-004 -2.73702346e-004 -5.68495248e-004 -3.99079465e-004
      -6.35170218e-005 -7.14104226e-006 -1.74439811e-005
      -1.77646452e-005 -2.08350120e-005 -1.88964259e-005
      -1.88964259e-005 -1.88964259e-005 -1.88964259e-005
      -1.77991351e-005 -1.90707906e-005 -1.90628107e-005
      -1.92801144e-005 -1.72697200e-005 -1.74163415e-005
      -4.11547553e-005 -1.56320366e-005 -1.07112843e-004
      -3.75625765e-004 -8.05496762e-004 -9.19986225e-004
      -1.73427165e-004 8.09686957e-004 1.04509585e-003 5.09230536e-004
      -2.76292616e-004 -5.38181921e-004 -3.64243111e-004
      -5.77893879e-005 -5.50227014e-006 -2.21927148e-005
      -2.04310873e-005 -1.87053338e-005 -1.88964259e-005
      -1.88964259e-005 -1.88964259e-005 -1.88964259e-005
      -1.87171790e-005 -1.69759696e-005 -1.95273624e-005
      -1.82490548e-005 -1.93616324e-005 -1.78297651e-005
      -3.95862080e-005 -1.88633330e-005 -1.06301566e-004
      -3.96533811e-004 -8.18292319e-004 -9.64062696e-004
      -3.19470506e-004 5.91971329e-004 8.08219716e-004 3.75986885e-004
      -3.12566350e-004 -5.00453403e-004 -3.37313773e-004
      -6.32665542e-005 3.15221610e-006 -2.49601617e-005 -2.30307105e-005
      -1.91638301e-005 -1.88964259e-005 -1.88964259e-005
      -1.88964259e-005 -1.88964259e-005 -1.91384479e-005
      -1.74106717e-005 -1.96796082e-005 -1.81036648e-005
      -1.90412829e-005 -1.73841363e-005 -3.84931845e-005
      -2.08515885e-005 -1.01932412e-004 -3.48644651e-004
      -7.59569695e-004 -9.68300854e-004 -4.43034165e-004 3.64331878e-004
      5.79685846e-004 2.16914996e-004 -3.29888018e-004 -4.79391631e-004
      -3.16600694e-004 -4.55096888e-005 7.81211202e-006 -2.33255287e-005
      -1.83796528e-005 -1.86404341e-005 -1.88964259e-005
      -1.88964259e-005 -1.88964259e-005 -1.88964259e-005
      -1.84586133e-005 -1.66405389e-005 -1.95168395e-005
      -1.74269953e-005 -1.95107641e-005 -1.88473823e-005
      -4.00722311e-005 -2.75098319e-005 -7.76956076e-005
      -2.53665930e-004 -6.23081170e-004 -8.73775396e-004
      -5.00560971e-004 1.51166416e-004 3.51383147e-004 8.90320734e-005
      -3.46413522e-004 -4.33346839e-004 -2.69324868e-004
      -1.97569843e-005 1.71396387e-005 -2.14185729e-005 -2.00006561e-005
      -1.83871944e-005 -1.88964259e-005 -1.88964259e-005
      -1.88964259e-005 -1.88964259e-005 -1.92134685e-005
      -1.68074239e-005 -1.94032764e-005 -1.76825361e-005
      -1.87977985e-005 -1.87168971e-005 -4.29634310e-005
      -2.88344745e-005 -4.98706868e-005 -1.43700599e-004
      -4.31060645e-004 -6.69188914e-004 -4.57431830e-004
      -1.41474511e-005 1.44818419e-004 -8.52128505e-006 -3.09408671e-004
      -3.27975285e-004 -1.81564348e-004 1.13030756e-005 2.65864728e-005
      -1.80172719e-005 -1.65458496e-005 -1.79534036e-005
      -1.88964259e-005 -1.88964259e-005 -1.88964259e-005
      -1.88964259e-005 -1.94236745e-005 -1.75597379e-005
      -1.79077761e-005 -1.77412039e-005 -1.90776136e-005
      -1.84892597e-005 -4.23100428e-005 -1.10346982e-005
      -1.22992475e-007 -1.62552733e-005 -1.97626796e-004
      -3.85731895e-004 -3.24657507e-004 -1.07514039e-004
      -1.64749817e-005 -7.35210779e-005 -2.12917308e-004
      -1.75125024e-004 -6.75052797e-005 4.82475225e-005 3.42154744e-005
      -1.22904321e-005 -1.62101805e-005 -1.82444401e-005
      -1.88964259e-005 -1.88964259e-005 -1.88964259e-005
      -1.88964259e-005 -1.89647599e-005 -1.82367239e-005
      -1.85389763e-005 -1.89537332e-005 -1.91910076e-005
      -1.89189886e-005 -3.42222884e-005 2.13596904e-005 5.05020726e-005
      8.76169943e-005 2.40840723e-006 -1.09994871e-004 -1.25778228e-004
      -5.91520256e-005 -2.11951883e-005 -2.29382695e-005
      -4.37654780e-005 9.10351991e-006 6.14370874e-005 9.74946161e-005
      4.63619508e-005 -6.79820050e-006 -1.51571676e-005 -1.91564923e-005
      -1.88964259e-005 -1.88964259e-005 -1.88964259e-005
      -1.88964259e-005 -1.87765781e-005 -1.94454951e-005
      -1.79995968e-005 -1.82530021e-005 -1.80791449e-005
      -1.81734085e-005 -2.81907924e-005 4.44981124e-005 6.78900833e-005
      1.48125328e-004 1.38382209e-004 1.03266088e-004 9.60899488e-005
      1.06988853e-004 1.28648404e-004 1.45478596e-004 1.61914999e-004
      1.85740995e-004 1.63512785e-004 1.45714730e-004 5.11450198e-005
      -1.02712866e-005 -1.63809073e-005 -2.03350955e-005
      -1.88964259e-005 -1.88964259e-005 -1.88964259e-005
      -1.88964259e-005 -1.91277177e-005 -2.01365910e-005
      -1.78056343e-005 -1.71847369e-005 -1.76051053e-005
      -1.99735241e-005 -3.43973661e-005 4.44715006e-005 1.25397264e-006
      1.09405795e-004 1.36668561e-004 1.47020546e-004 1.69040752e-004
      1.72149870e-004 1.95931803e-004 2.15746448e-004 2.38880210e-004
      2.31162921e-004 1.63236138e-004 1.37327967e-004 3.29950562e-005
      -2.34468062e-005 -1.67386879e-005 -1.77454258e-005
      -1.88964259e-005 -1.88964259e-005 -1.88964259e-005
      -1.88964259e-005 -1.86065390e-005 -1.85930840e-005
      -1.67495855e-005 -1.93757896e-005 -1.93110609e-005
      -1.74121160e-005 -5.80105007e-005 2.82852197e-005 -1.05389954e-004
      -6.97172436e-006 4.00383287e-005 7.41451804e-005 9.68390086e-005
      1.43333076e-004 1.68292172e-004 1.70063591e-004 1.64216515e-004
      1.28670246e-004 3.18885541e-005 5.37144151e-005 -9.88941611e-006
      -3.36727171e-005 -1.61710159e-005 -1.95901721e-005
      -1.88964259e-005 -1.88964259e-005 -1.88964259e-005
      -1.88964259e-005 -1.79876115e-005 -1.75138284e-005
      -2.34294421e-005 -1.87146397e-005 -1.58552102e-005
      -1.79245962e-005 -9.02494940e-005 -6.37665580e-005
      -3.45710840e-004 -2.65622250e-004 -2.10314523e-004
      -1.71448046e-004 -1.45704980e-004 -1.06633255e-004
      -7.90037593e-005 -7.67490274e-005 -1.16448202e-004
      -1.43198995e-004 -2.49173056e-004 -1.09329783e-004
      -7.59670729e-005 -3.66313434e-005 -2.28460558e-005
      -1.67196358e-005 -1.88964259e-005 -1.88964259e-005
      -1.88964259e-005 -1.88964259e-005 -2.04807184e-005
      -1.74831985e-005 -1.75951391e-005 -2.01934636e-005
      -2.00348168e-005 -1.83832835e-005 -2.05823180e-005
      -1.74511388e-005 -2.35224143e-005 -1.56051501e-005
      -1.81949599e-005 -1.93660562e-005 -2.12298673e-005
      -2.02101237e-005 -1.74032775e-005 -1.71804841e-005
      -1.55142934e-005 -1.85345980e-005 -1.92387251e-005
      -2.31328067e-005 -1.87538535e-005 -1.77540715e-005
      -2.10957951e-005 -1.80790776e-005 -1.88964259e-005
      -1.88964259e-005 -1.88964259e-005 -1.88964259e-005
      -1.80285278e-005 -1.92159914e-005 -1.91451199e-005
      -1.83229240e-005 -1.90688552e-005 -1.84789315e-005
      -1.66979025e-005 -1.77547608e-005 -1.87788901e-005
      -1.71194442e-005 -1.82215972e-005 -1.81806190e-005
      -1.97661593e-005 -1.82107324e-005 -1.61552816e-005
      -1.71560623e-005 -2.09382870e-005 -2.35503048e-005
      -2.17354882e-005 -2.44021030e-005 -1.75125715e-005
      -2.00968880e-005 -2.45957526e-005 -1.79580784e-005
      -1.88964259e-005 -1.88964259e-005 -1.88964259e-005
      -1.88964259e-005 -2.20147598e-007 -5.51202538e-005
      -5.35701729e-005 -5.41896989e-005 -5.37358937e-005
      -5.64387628e-005 -5.50025361e-005 -5.47241361e-005
      -5.14005005e-005 -5.28239252e-005 -5.64670445e-005
      -5.90564559e-005 -5.45123985e-005 -5.84125737e-005
      -5.58552274e-005 -5.88402509e-005 -5.49638753e-005
      -5.73296929e-005 -5.96438076e-005 -5.33562015e-005
      -5.30939542e-005 -5.92557735e-005 -5.83713991e-005
      -5.36596381e-005 -5.84633162e-005 -5.61375637e-005
      -5.61375637e-005 -5.61375637e-005 -5.61375637e-005
      -5.60790140e-005 -5.53745813e-005 -5.65982555e-005
      -5.65749942e-005 -5.57761850e-005 -5.29025456e-005
      -1.68254683e-005 -1.33649592e-005 -3.35442193e-004
      -5.90147567e-004 -7.00643403e-004 -5.07905497e-004
      -3.83961189e-004 -2.93130783e-004 -2.44353141e-004
      -2.29376630e-004 -2.08002239e-004 -2.03284726e-004 3.45586159e-007
      1.68553874e-004 8.80383232e-005 3.11944386e-005 -6.24211825e-005
      -5.47048512e-005 -5.61375637e-005 -5.61375637e-005
      -5.61375637e-005 -5.61375637e-005 -5.56352170e-005
      -5.56143605e-005 -5.34435203e-005 -5.41184709e-005
      -5.43785682e-005 -5.87386312e-005 -1.21641006e-006 3.67538960e-005
      -2.88039853e-004 -4.50014049e-004 -4.68012440e-004
      -2.59917811e-004 -8.89684161e-005 1.44632872e-006 3.30646471e-005
      4.40869408e-005 3.51956551e-005 -1.02865952e-005 1.25397419e-004
      2.11518491e-004 1.12935391e-004 1.90695264e-005 -5.85304697e-005
      -5.95202546e-005 -5.61375637e-005 -5.61375637e-005
      -5.61375637e-005 -5.61375637e-005 -5.41468980e-005
      -5.61047091e-005 -5.45707553e-005 -6.00222666e-005
      -5.62188798e-005 -5.40813489e-005 -8.49947082e-006 6.12181902e-005
      -2.40769645e-004 -3.63203697e-004 -3.30304843e-004
      -7.87480385e-005 1.00226658e-004 1.82290096e-004 2.34330306e-004
      2.73579732e-004 2.63945491e-004 1.89082857e-004 2.41838119e-004
      2.60280154e-004 1.36632152e-004 1.31413744e-005 -5.61120141e-005
      -5.90935742e-005 -5.61375637e-005 -5.61375637e-005
      -5.61375637e-005 -5.61375637e-005 -5.78274921e-005
      -5.71011806e-005 -5.33074017e-005 -5.74645492e-005
      -5.69439653e-005 -5.49380056e-005 3.87424006e-006 7.04988852e-005
      -2.54920218e-004 -3.60718113e-004 -2.93771096e-004
      -6.00176063e-005 7.90513222e-005 1.29038293e-004 1.97682282e-004
      3.32589814e-004 3.99673881e-004 3.31525778e-004 3.56517063e-004
      2.95099919e-004 1.57097864e-004 8.40596113e-006 -5.91119897e-005
      -5.49245306e-005 -5.61375637e-005 -5.61375637e-005
      -5.61375637e-005 -5.61375637e-005 -5.30388133e-005
      -5.53206046e-005 -5.67014831e-005 -5.67258503e-005
      -5.35291074e-005 -5.77660394e-005 9.14009343e-006 6.99788143e-005
      -2.66163581e-004 -3.77864082e-004 -3.04868649e-004
      -1.18156764e-004 -8.94326731e-005 -1.48704115e-004
      -3.93156879e-005 2.37807559e-004 4.66087513e-004 4.58116701e-004
      4.57318441e-004 3.27602407e-004 1.63674602e-004 6.03412900e-006
      -5.65917544e-005 -6.55003314e-005 -5.61375637e-005
      -5.61375637e-005 -5.61375637e-005 -5.61375637e-005
      -5.57426465e-005 -5.47078525e-005 -5.78080071e-005
      -5.64966322e-005 -5.83400688e-005 -5.64711190e-005 1.97616591e-005
      8.40858847e-005 -2.58822722e-004 -4.08978376e-004 -3.36267956e-004
      -2.16903776e-004 -3.55525815e-004 -5.64920774e-004
      -4.79087234e-004 -1.85695917e-005 4.38845396e-004 5.47115691e-004
      5.41494635e-004 3.54934222e-004 1.69783860e-004 1.19790511e-005
      -5.70285229e-005 -5.40805304e-005 -5.61375637e-005
      -5.61375637e-005 -5.61375637e-005 -5.61375637e-005
      -5.52196252e-005 -5.49355027e-005 -5.40840483e-005
      -5.29160970e-005 -5.43441565e-005 -5.62167079e-005 2.58518994e-005
      1.01143210e-004 -2.24896081e-004 -4.03445825e-004 -3.27273854e-004
      -2.59015302e-004 -5.55122446e-004 -9.31618561e-004
      -8.78606457e-004 -3.23849061e-004 3.44758737e-004 5.70046890e-004
      6.02108426e-004 3.83905921e-004 1.78424336e-004 1.51248705e-005
      -5.02264338e-005 -6.05280584e-005 -5.61375637e-005
      -5.61375637e-005 -5.61375637e-005 -5.61375637e-005
      -5.46434349e-005 -5.56887062e-005 -5.43938913e-005
      -5.55723236e-005 -5.45581679e-005 -5.69430013e-005 3.27182788e-005
      1.07667860e-004 -1.86723308e-004 -3.27433227e-004 -2.31495535e-004
      -1.56435053e-004 -5.54737402e-004 -1.08133827e-003
      -1.16006949e-003 -5.58565895e-004 2.08807352e-004 5.51034580e-004
      6.06707239e-004 3.78404045e-004 1.88109072e-004 2.57646734e-005
      -5.09018464e-005 -5.12234292e-005 -5.61375637e-005
      -5.61375637e-005 -5.61375637e-005 -5.61375637e-005
      -5.51344783e-005 -5.52063357e-005 -5.54066391e-005
      -5.50348013e-005 -5.50537625e-005 -5.50875411e-005 3.59076985e-005
      1.02728176e-004 -1.43008641e-004 -1.95740198e-004 -1.25601346e-005
      1.02552331e-004 -3.19027517e-004 -9.71808622e-004 -1.17881619e-003
      -6.55525597e-004 1.17218071e-004 4.64966259e-004 5.53534832e-004
      3.48736095e-004 1.75579087e-004 2.30386759e-005 -5.12371735e-005
      -4.92972686e-005 -5.61375637e-005 -5.61375637e-005
      -5.61375637e-005 -5.61375637e-005 -5.56727282e-005
      -5.52789534e-005 -5.63895919e-005 -5.47931777e-005
      -5.49967044e-005 -5.56781197e-005 3.07977934e-005 8.76651175e-005
      -1.22125755e-004 -6.42035593e-005 2.25678799e-004 4.45899088e-004
      8.97542996e-005 -6.14874996e-004 -9.44000902e-004 -5.37534128e-004
      1.09795852e-004 4.13801696e-004 4.95554472e-004 2.99548003e-004
      1.48242761e-004 1.75422792e-005 -5.12598672e-005 -5.05042226e-005
      -5.61375637e-005 -5.61375637e-005 -5.61375637e-005
      -5.61375637e-005 -5.60592489e-005 -5.58381289e-005
      -5.58337561e-005 -5.46273150e-005 -5.59402615e-005
      -5.70064658e-005 2.36970955e-005 7.28423693e-005 -1.14977047e-004
      2.50886806e-005 3.75268399e-004 6.77226170e-004 4.21811797e-004
      -2.31488855e-004 -6.13477954e-004 -3.21772444e-004 1.97409929e-004
      4.04506107e-004 4.34581103e-004 2.43509174e-004 1.20434102e-004
      1.13546248e-005 -5.10919017e-005 -5.12658880e-005 -5.61375637e-005
      -5.61375637e-005 -5.61375637e-005 -5.61375637e-005
      -5.58540196e-005 -5.52713136e-005 -5.53801183e-005
      -5.49009856e-005 -5.56144005e-005 -5.56652049e-005 1.95472567e-005
      6.35656252e-005 -1.00762249e-004 7.44332356e-005 4.46350954e-004
      7.83686293e-004 6.08488626e-004 3.33940880e-005 -3.51410825e-004
      -1.35608483e-004 2.95590668e-004 4.20794735e-004 4.01897647e-004
      2.02511423e-004 1.01595972e-004 5.53459267e-006 -5.16147629e-005
      -4.98051959e-005 -5.61375637e-005 -5.61375637e-005
      -5.61375637e-005 -5.61375637e-005 -5.61202869e-005
      -5.52289712e-005 -5.48817552e-005 -5.54573453e-005
      -5.42403322e-005 -5.38741115e-005 1.69012601e-005 5.22313203e-005
      -1.15749615e-004 5.75671002e-005 4.32550150e-004 7.89306359e-004
      6.62585022e-004 1.45997677e-004 -2.37594068e-004 -5.50678160e-005
      3.47434630e-004 4.35636146e-004 3.82541359e-004 1.73984707e-004
      8.44764800e-005 -1.31484398e-006 -5.24199058e-005 -5.02249677e-005
      -5.61375637e-005 -5.61375637e-005 -5.61375637e-005
      -5.61375637e-005 -5.66719464e-005 -5.50588447e-005
      -5.51869416e-005 -5.49394244e-005 -5.48409189e-005
      -5.52789497e-005 1.41190085e-005 3.88438057e-005 -1.38107876e-004
      3.62892365e-006 3.60833103e-004 7.06473889e-004 5.88570489e-004
      9.26832145e-005 -2.77606916e-004 -7.69773906e-005 3.56343284e-004
      4.39180527e-004 3.69418907e-004 1.41137221e-004 7.13347836e-005
      -2.81429334e-006 -5.09587735e-005 -5.07697696e-005
      -5.61375637e-005 -5.61375637e-005 -5.61375637e-005
      -5.61375637e-005 -5.56610539e-005 -5.67020870e-005
      -5.49391625e-005 -5.43465940e-005 -5.50792902e-005
      -5.42461312e-005 1.77464444e-005 3.47549758e-005 -1.57250339e-004
      -3.56767196e-005 2.96313199e-004 6.05566194e-004 4.51219123e-004
      -5.51962476e-005 -4.01459023e-004 -1.56935435e-004 3.44825967e-004
      4.36759321e-004 3.56521254e-004 1.14688657e-004 5.74068945e-005
      -4.63590277e-006 -4.78823313e-005 -5.46608971e-005
      -5.61375637e-005 -5.61375637e-005 -5.61375637e-005
      -5.61375637e-005 -5.45216608e-005 -5.50169971e-005
      -5.47703057e-005 -5.53926038e-005 -5.50354998e-005
      -5.49482356e-005 2.21252758e-005 2.82031342e-005 -1.55983740e-004
      -6.12211661e-005 2.70157121e-004 5.39097353e-004 3.31402756e-004
      -2.16716537e-004 -5.83554094e-004 -2.63919588e-004 3.14508507e-004
      4.55740257e-004 3.34912504e-004 9.01613603e-005 4.81709976e-005
      -9.12428732e-006 -5.31767218e-005 -5.42845482e-005
      -5.61375637e-005 -5.61375637e-005 -5.61375637e-005
      -5.61375637e-005 -5.44153700e-005 -5.69698386e-005
      -5.44734066e-005 -5.44851355e-005 -5.49135148e-005
      -5.40095134e-005 1.99315255e-005 1.92227035e-005 -1.62240583e-004
      -5.54210274e-005 2.88308220e-004 5.56923216e-004 3.21288127e-004
      -2.83053610e-004 -6.85710402e-004 -3.44107742e-004 2.88587908e-004
      4.31450258e-004 3.21394997e-004 7.23897319e-005 4.48906176e-005
      -7.53657787e-006 -5.23108974e-005 -5.01612267e-005
      -5.61375637e-005 -5.61375637e-005 -5.61375637e-005
      -5.61375637e-005 -5.41359477e-005 -5.63081630e-005
      -5.43218521e-005 -5.42348826e-005 -5.56985724e-005
      -5.36420594e-005 1.37755578e-005 2.75680895e-006 -1.51164539e-004
      -1.30138587e-005 3.53468757e-004 6.52008632e-004 4.24070400e-004
      -2.15832944e-004 -6.67024695e-004 -3.48577043e-004 2.59801163e-004
      3.90853820e-004 2.91091012e-004 5.61454035e-005 4.34514586e-005
      -5.19478908e-006 -4.94392261e-005 -5.28567616e-005
      -5.61375637e-005 -5.61375637e-005 -5.61375637e-005
      -5.61375637e-005 -5.47760719e-005 -5.53675418e-005
      -5.54853104e-005 -5.53833270e-005 -5.61854577e-005
      -5.45244002e-005 6.83184771e-006 -1.04302235e-005 -1.38931748e-004
      3.12888551e-005 4.38745134e-004 7.97413231e-004 6.31010043e-004
      2.48498473e-005 -4.60251526e-004 -2.39695481e-004 2.38185909e-004
      3.19317827e-004 2.44642986e-004 5.45148214e-005 5.20528374e-005
      -3.07391701e-007 -5.16175933e-005 -5.23754461e-005
      -5.61375637e-005 -5.61375637e-005 -5.61375637e-005
      -5.61375637e-005 -5.47507698e-005 -5.52865968e-005
      -5.46595948e-005 -5.51569065e-005 -5.59335567e-005
      -5.53752943e-005 5.13712803e-006 -1.01799551e-005 -1.36156581e-004
      5.43968308e-005 4.86110977e-004 8.80691980e-004 7.90903461e-004
      2.69683427e-004 -2.09324266e-004 -1.22729922e-004 1.91740211e-004
      2.00183218e-004 1.73170280e-004 6.17914993e-005 6.28891721e-005
      -2.80949735e-008 -5.23001218e-005 -5.32056547e-005
      -5.61375637e-005 -5.61375637e-005 -5.61375637e-005
      -5.61375637e-005 -5.57136300e-005 -5.51097473e-005
      -5.47880918e-005 -5.48028256e-005 -5.49948345e-005
      -5.51631056e-005 6.04039906e-006 -3.85264593e-006 -1.45663871e-004
      7.33268735e-006 3.92148911e-004 7.60343741e-004 7.23377219e-004
      3.24883062e-004 -8.50112046e-005 -1.04619627e-004 9.55391079e-005
      5.03354204e-005 9.15367054e-005 6.64690233e-005 5.94816811e-005
      -2.18027367e-006 -5.34370083e-005 -5.35436375e-005
      -5.61375637e-005 -5.61375637e-005 -5.61375637e-005
      -5.61375637e-005 -5.51804842e-005 -5.42309499e-005
      -5.48370081e-005 -5.54628386e-005 -5.52500860e-005
      -5.61689340e-005 4.27874966e-006 -4.12288773e-006 -1.45671409e-004
      -9.00135856e-005 1.77549897e-004 4.63883160e-004 4.57849994e-004
      2.00914714e-004 -8.21509457e-005 -1.23978287e-004 -4.03795093e-005
      -9.00426603e-005 3.27466041e-005 7.16580689e-005 5.35260224e-005
      -6.02707041e-006 -5.30955549e-005 -5.12084625e-005
      -5.61375637e-005 -5.61375637e-005 -5.61375637e-005
      -5.61375637e-005 -5.50404911e-005 -5.49114120e-005
      -5.57211206e-005 -5.52418314e-005 -5.49068427e-005
      -5.54267135e-005 -2.87017428e-007 -1.11190802e-005
      -1.32875066e-004 -1.76627698e-004 -3.49451984e-005 1.42894714e-004
      1.21036210e-004 -4.81270108e-005 -2.13927677e-004 -2.20615606e-004
      -1.69674298e-004 -1.91225889e-004 7.69856888e-006 7.82272109e-005
      4.92379622e-005 -7.42176326e-006 -5.34619830e-005 -5.29996614e-005
      -5.61375637e-005 -5.61375637e-005 -5.61375637e-005
      -5.61375637e-005 -5.51388148e-005 -5.61375236e-005
      -5.63014582e-005 -5.36584594e-005 -5.40533729e-005
      -5.32567065e-005 -2.75851494e-006 1.18801854e-005 -5.08916673e-005
      -1.77195165e-004 -1.74321351e-004 -9.13127878e-005
      -1.15295603e-004 -2.15723674e-004 -2.92131939e-004
      -2.60872621e-004 -2.24940159e-004 -2.46518670e-004 6.28944690e-005
      1.25156002e-004 5.41350855e-005 -1.21113098e-005 -5.26114600e-005
      -5.80293054e-005 -5.61375637e-005 -5.61375637e-005
      -5.61375637e-005 -5.61375637e-005 -5.70462689e-005
      -5.44960239e-005 -5.21923903e-005 -5.81824788e-005
      -5.42723428e-005 -5.27887714e-005 2.51006713e-006 1.06563573e-004
      2.34216233e-004 3.58828438e-005 -7.32088520e-005 -3.64680927e-005
      -7.43265336e-005 -1.26631159e-004 -1.55173984e-004
      -1.47445462e-004 -1.16592040e-004 -1.43743397e-004 3.34895420e-004
      2.78636930e-004 9.53350464e-005 -1.42324416e-005 -5.12712722e-005
      -5.77899918e-005 -5.61375637e-005 -5.61375637e-005
      -5.61375637e-005 -5.61375637e-005 -5.49982033e-005
      -5.34240571e-005 -5.46666379e-005 -5.42711314e-005
      -5.52475067e-005 -5.53264072e-005 -5.19472997e-005
      -5.39532193e-005 -5.97637372e-005 -6.13719312e-005
      -5.23860908e-005 -5.95003476e-005 -5.77435349e-005
      -5.69646800e-005 -6.52658346e-005 -6.13580632e-005
      -6.22958978e-005 -5.53769896e-005 -6.50887305e-005
      -5.66222479e-005 -5.34814244e-005 -5.59194013e-005
      -5.52830788e-005 -5.40983747e-005 -5.61375637e-005
      -5.61375637e-005 -5.61375637e-005 -5.61375637e-005
      -5.49655524e-005 -5.41904410e-005 -5.55092956e-005
      -5.62335372e-005 -5.49818797e-005 -5.61344823e-005
      -5.78507425e-005 -5.56752566e-005 -5.62634777e-005
      -5.54821345e-005 -5.89713600e-005 -5.96084283e-005
      -5.95123238e-005 -5.80608648e-005 -5.45206858e-005
      -5.75717422e-005 -5.62355417e-005 -5.73366415e-005
      -5.02699768e-005 -5.03555493e-005 -5.62502755e-005
      -5.74826554e-005 -5.86211463e-005 -5.88521980e-005
      -5.61375637e-005 -5.61375637e-005 -5.61375637e-005
      -5.61375637e-005 -6.66094238e-008 -1.74118522e-005
      -2.08674192e-005 -1.93943633e-005 -1.92304160e-005
      -1.82739805e-005 -1.95502289e-005 -1.69274808e-005
      -1.95224875e-005 -1.72572309e-005 -1.54805493e-005
      -1.70284511e-005 -1.71579777e-005 -1.66701975e-005
      -1.51172280e-005 -1.68295210e-005 -1.86551279e-005
      -1.40260991e-005 -1.66591308e-005 -1.80184961e-005
      -1.72951513e-005 -2.03863128e-005 -1.63178174e-005
      -1.63904115e-005 -2.05476390e-005 -1.69854029e-005
      -1.69854029e-005 -1.69854029e-005 -1.69854029e-005
      -1.67738872e-005 -1.85822610e-005 -1.88476424e-005
      -2.08338806e-005 -1.62422148e-005 -2.14428801e-005
      -9.02234387e-005 -1.66171940e-005 -9.13377007e-005
      -1.37108378e-004 -1.36494971e-004 -1.42104225e-004
      -1.41002674e-004 -1.30629414e-004 -1.29596345e-004
      -1.23519276e-004 -1.31636523e-004 -1.57973016e-004
      -2.03343603e-004 -1.72722255e-004 -9.13666590e-005 1.21218554e-005
      -1.92289499e-005 -1.93540764e-005 -1.69854029e-005
      -1.69854029e-005 -1.69854029e-005 -1.69854029e-005
      -2.03286399e-005 -1.72745040e-005 -1.77928014e-005
      -1.97598656e-005 -1.85547106e-005 -1.56299720e-005
      -3.40413426e-005 2.09750524e-005 -4.64650475e-006 -8.72715973e-005
      -1.08814966e-004 -1.19175063e-004 -1.02857251e-004
      -7.13218469e-005 -5.31953883e-005 -4.66234451e-005
      -5.27206721e-005 -8.27193799e-005 -1.03325947e-004
      -1.00304002e-004 -6.99856173e-005 3.30073344e-005 -1.73937096e-005
      -2.02439314e-005 -1.69854029e-005 -1.69854029e-005
      -1.69854029e-005 -1.69854029e-005 -1.83696466e-005
      -1.83940992e-005 -1.92349926e-005 -1.66190275e-005
      -1.85743284e-005 -2.51207694e-005 3.46909001e-005 9.74095892e-005
      4.82627765e-005 -5.66982017e-005 -6.72723691e-005 -3.69257505e-005
      -1.00802731e-006 3.01787750e-005 3.01245855e-005 1.16572810e-005
      -2.76379014e-005 -8.90886295e-005 -1.10084897e-004
      -5.13995401e-005 -2.60240868e-005 4.06168801e-005 -1.57223403e-005
      -2.05963661e-005 -1.69854029e-005 -1.69854029e-005
      -1.69854029e-005 -1.69854029e-005 -1.86353154e-005
      -1.83162738e-005 -1.70626754e-005 -1.81003215e-005
      -2.11549304e-005 -1.89922957e-005 6.78504439e-005 1.15440103e-004
      5.66314520e-005 -4.13599882e-005 -1.22728661e-005 9.16679710e-005
      1.54661990e-004 1.65116886e-004 1.00877536e-004 -1.39117475e-007
      -9.73747374e-005 -1.83802302e-004 -2.49733712e-004
      -1.35440452e-004 -3.54610966e-005 5.60194349e-005 -2.36932356e-005
      -1.57953946e-005 -1.69854029e-005 -1.69854029e-005
      -1.69854029e-005 -1.69854029e-005 -1.81272062e-005
      -1.89990933e-005 -1.80044317e-005 -2.19989033e-005
      -1.79971194e-005 -1.71459160e-005 7.15448768e-005 1.22099780e-004
      8.78833816e-005 1.64022858e-005 1.01611571e-004 2.71927536e-004
      3.35500721e-004 2.89910706e-004 1.39116208e-004 -5.70485390e-005
      -2.47071061e-004 -3.91869398e-004 -4.43520810e-004
      -2.67258059e-004 -8.82941531e-005 4.81196112e-005 -2.11570823e-005
      -1.73028093e-005 -1.69854029e-005 -1.69854029e-005
      -1.69854029e-005 -1.69854029e-005 -1.79258677e-005
      -1.99538354e-005 -1.50671476e-005 -1.58822240e-005
      -2.11353472e-005 -1.82961085e-005 7.35975191e-005 1.31661072e-004
      1.47609404e-004 1.43408834e-004 3.21486907e-004 5.59632375e-004
      5.89558389e-004 4.16942581e-004 1.13336966e-004 -1.75123787e-004
      -4.02226055e-004 -5.63342473e-004 -6.58954086e-004
      -4.46523336e-004 -1.65302714e-004 4.32959605e-005 -1.91876352e-005
      -2.01893818e-005 -1.69854029e-005 -1.69854029e-005
      -1.69854029e-005 -1.69854029e-005 -1.76650083e-005
      -1.97561076e-005 -2.20919865e-005 -1.88823269e-005
      -1.91002200e-005 -1.61910957e-005 7.44161589e-005 1.46135280e-004
      2.20816160e-004 2.92331417e-004 5.58697328e-004 8.46076640e-004
      8.32065067e-004 5.24623669e-004 9.50221365e-005 -2.59803841e-004
      -4.83472599e-004 -6.54830190e-004 -7.80678994e-004
      -5.95711113e-004 -2.19104273e-004 3.42606654e-005 -1.70531639e-005
      -1.54912505e-005 -1.69854029e-005 -1.69854029e-005
      -1.69854029e-005 -1.69854029e-005 -1.63489931e-005
      -1.67078215e-005 -1.70413532e-005 -1.72425462e-005
      -1.64984558e-005 -1.68864826e-005 6.92922185e-005 1.48378575e-004
      2.60827830e-004 4.03226761e-004 7.52545602e-004 1.08938979e-003
      1.04366057e-003 6.15992001e-004 9.97324969e-005 -2.61029811e-004
      -4.65989258e-004 -6.32456387e-004 -8.30012839e-004
      -6.88444648e-004 -2.54919287e-004 3.01374821e-005 -2.01549010e-005
      -1.90917290e-005 -1.69854029e-005 -1.69854029e-005
      -1.69854029e-005 -1.69854029e-005 -1.65928996e-005
      -1.75135701e-005 -1.67978760e-005 -1.72563559e-005
      -1.71712218e-005 -1.55701837e-005 6.89235676e-005 1.40807242e-004
      2.76623934e-004 4.51039406e-004 8.59694148e-004 1.24365243e-003
      1.19085179e-003 7.25370715e-004 1.88144957e-004 -1.33831098e-004
      -3.08561896e-004 -5.12350001e-004 -7.80214032e-004
      -6.90450601e-004 -2.62730930e-004 2.89633008e-005 -2.02003048e-005
      -2.17357720e-005 -1.69854029e-005 -1.69854029e-005
      -1.69854029e-005 -1.69854029e-005 -1.58143885e-005
      -1.69986888e-005 -1.67039580e-005 -1.63713376e-005
      -1.73585486e-005 -1.66463651e-005 6.81184174e-005 1.32155707e-004
      2.51759833e-004 4.30840329e-004 8.74683436e-004 1.29230693e-003
      1.24520855e-003 7.69452017e-004 2.63928989e-004 3.40606020e-005
      -8.40952271e-005 -3.40532861e-004 -6.76953001e-004
      -6.48599351e-004 -2.53679289e-004 3.27782327e-005 -1.91613835e-005
      -1.88878039e-005 -1.69854029e-005 -1.69854029e-005
      -1.69854029e-005 -1.69854029e-005 -1.56907518e-005
      -1.73767785e-005 -1.61519747e-005 -1.63571985e-005
      -1.70619151e-005 -1.78360933e-005 6.61519807e-005 1.18065138e-004
      2.05818520e-004 3.72478535e-004 8.22698174e-004 1.23205525e-003
      1.18671975e-003 7.46521400e-004 3.31395742e-004 2.06670840e-004
      1.14299757e-004 -1.79153503e-004 -5.48344804e-004 -5.69883967e-004
      -2.21970316e-004 3.15495163e-005 -1.84487471e-005 -1.79119852e-005
      -1.69854029e-005 -1.69854029e-005 -1.69854029e-005
      -1.69854029e-005 -1.69591021e-005 -1.66584759e-005
      -1.53784131e-005 -1.65808033e-005 -1.75532114e-005
      -1.73041662e-005 6.46156404e-005 1.05602063e-004 1.44736929e-004
      2.92938814e-004 7.19417993e-004 1.09172508e-003 1.04401691e-003
      6.80576195e-004 3.95566371e-004 3.65144602e-004 2.94281141e-004
      -1.01455043e-005 -3.87639215e-004 -4.38018731e-004
      -1.71788823e-004 3.13344826e-005 -1.84131713e-005 -1.57597697e-005
      -1.69854029e-005 -1.69854029e-005 -1.69854029e-005
      -1.69854029e-005 -1.68813040e-005 -1.60425097e-005
      -1.58407074e-005 -1.63604218e-005 -1.76906033e-005
      -1.66692553e-005 6.81976089e-005 9.44425483e-005 1.03719416e-004
      2.11548482e-004 5.72316698e-004 8.74218997e-004 7.92350387e-004
      5.03875955e-004 3.69239046e-004 4.53540502e-004 4.54324181e-004
      1.66595957e-004 -2.01290546e-004 -2.72409117e-004 -1.12227412e-004
      3.51979179e-005 -2.14912034e-005 -1.64790599e-005 -1.69854029e-005
      -1.69854029e-005 -1.69854029e-005 -1.69854029e-005
      -1.55908729e-005 -1.66843674e-005 -1.54852460e-005
      -1.65913552e-005 -1.76578014e-005 -1.72170094e-005 6.76423224e-005
      8.26230025e-005 5.99065097e-005 1.27249616e-004 3.99248878e-004
      6.11101685e-004 4.65552439e-004 2.38133231e-004 2.76085368e-004
      5.06698969e-004 6.20712875e-004 3.88923916e-004 3.00786342e-005
      -9.24451160e-005 -6.32210504e-005 3.01919426e-005 -2.21079481e-005
      -1.78402806e-005 -1.69854029e-005 -1.69854029e-005
      -1.69854029e-005 -1.69854029e-005 -1.49871612e-005
      -1.81220657e-005 -1.57908307e-005 -1.62262495e-005
      -1.77821112e-005 -1.65878027e-005 6.76024938e-005 7.03638580e-005
      2.75350194e-005 4.64800869e-005 2.15774227e-004 3.31774674e-004
      1.28992193e-004 -4.39946270e-005 1.46128470e-004 5.09990205e-004
      7.77791778e-004 6.07355556e-004 2.54269049e-004 6.79673394e-005
      -1.55898870e-005 3.06470138e-005 -1.96241617e-005 -1.77622533e-005
      -1.69854029e-005 -1.69854029e-005 -1.69854029e-005
      -1.69854029e-005 -1.65676774e-005 -1.72370128e-005
      -1.56089573e-005 -1.71866159e-005 -1.64243720e-005
      -1.63991681e-005 5.87927425e-005 3.90123205e-005 -1.41102646e-005
      -5.12570841e-005 4.02872029e-005 6.24993991e-005 -1.58145383e-004
      -2.79141852e-004 7.26048120e-006 5.25246898e-004 9.09194932e-004
      8.55786726e-004 4.73476684e-004 1.97432484e-004 2.09254595e-005
      3.11948497e-005 -1.91412546e-005 -1.84227029e-005 -1.69854029e-005
      -1.69854029e-005 -1.69854029e-005 -1.69854029e-005
      -1.64561297e-005 -1.70626518e-005 -1.65794918e-005
      -1.65693764e-005 -1.65213460e-005 -1.77903439e-005 4.09128806e-005
      6.09407891e-007 -7.53788408e-005 -1.63712568e-004 -1.48255189e-004
      -1.84362289e-004 -3.91655631e-004 -4.53920831e-004
      -8.57135819e-005 5.21607930e-004 1.03397586e-003 1.02186797e-003
      6.25435961e-004 2.87332950e-004 3.83251863e-005 3.36793091e-005
      -2.04801654e-005 -2.14876090e-005 -1.69854029e-005
      -1.69854029e-005 -1.69854029e-005 -1.69854029e-005
      -1.72846248e-005 -1.75174828e-005 -1.60233540e-005
      -1.63728018e-005 -1.68416300e-005 -1.65974470e-005 2.53085527e-005
      -3.67357970e-005 -1.55295740e-004 -2.82629859e-004
      -3.10303265e-004 -3.64630076e-004 -5.22751128e-004
      -5.51741803e-004 -1.62591474e-004 4.86120232e-004 1.03427761e-003
      1.07329118e-003 6.84405386e-004 3.14119185e-004 2.77901963e-005
      3.61651510e-005 -1.99934620e-005 -2.18130881e-005 -1.69854029e-005
      -1.69854029e-005 -1.69854029e-005 -1.69854029e-005
      -1.69629639e-005 -1.70059284e-005 -1.63217464e-005
      -1.70883595e-005 -1.75068672e-005 -1.57959366e-005 1.31644974e-005
      -5.06521646e-005 -2.11236023e-004 -3.64502717e-004
      -4.33469802e-004 -5.01601491e-004 -6.11031195e-004
      -6.46649336e-004 -3.16347141e-004 2.70301069e-004 7.60121678e-004
      8.36890598e-004 5.17312903e-004 2.12226194e-004 -9.04539684e-006
      3.68884575e-005 -1.90671199e-005 -1.80102033e-005 -1.69854029e-005
      -1.69854029e-005 -1.69854029e-005 -1.69854029e-005
      -1.56609258e-005 -1.60575364e-005 -1.80116422e-005
      -1.74907636e-005 -1.73813896e-005 -1.57819995e-005 4.22434005e-006
      -5.11610779e-005 -2.46986659e-004 -4.22572164e-004
      -5.24002651e-004 -6.05980051e-004 -7.15047761e-004
      -8.01676884e-004 -5.89820149e-004 -1.57844959e-004 2.53384555e-004
      3.32363765e-004 1.35400202e-004 -4.66899110e-006 -6.99031007e-005
      3.08035342e-005 -1.99268161e-005 -1.89512830e-005 -1.69854029e-005
      -1.69854029e-005 -1.69854029e-005 -1.69854029e-005
      -1.65666515e-005 -1.62827146e-005 -1.77423044e-005
      -1.68240877e-005 -1.57891500e-005 -1.75457881e-005
      -5.36275411e-006 -3.23665008e-005 -2.21656679e-004
      -4.08686552e-004 -5.34067629e-004 -6.27250818e-004
      -7.70500919e-004 -9.26047564e-004 -8.74387450e-004
      -6.51020033e-004 -3.90278612e-004 -3.17098573e-004
      -3.44346947e-004 -2.51380290e-004 -1.30314133e-004 2.27161545e-005
      -2.10660801e-005 -2.03834097e-005 -1.69854029e-005
      -1.69854029e-005 -1.69854029e-005 -1.69854029e-005
      -1.72811378e-005 -1.55883754e-005 -1.62684028e-005
      -1.63917412e-005 -1.70650856e-005 -1.72051095e-005
      -9.95554092e-006 -2.51038523e-006 -1.47662824e-004
      -3.27596499e-004 -4.53808694e-004 -5.68494957e-004
      -7.36000482e-004 -9.19991639e-004 -1.00878405e-003
      -9.89195658e-004 -8.97486520e-004 -8.30976816e-004
      -7.03886268e-004 -4.17302945e-004 -1.74424014e-004 1.25317147e-005
      -1.77362199e-005 -1.89294042e-005 -1.69854029e-005
      -1.69854029e-005 -1.69854029e-005 -1.69854029e-005
      -1.64399989e-005 -1.66231894e-005 -1.66411392e-005
      -1.71738739e-005 -1.62683518e-005 -1.70952117e-005
      -8.07534070e-006 2.30770838e-005 -4.91905048e-005 -1.87155107e-004
      -2.77122075e-004 -3.79305187e-004 -5.27317345e-004
      -6.93207956e-004 -8.43494083e-004 -9.38504061e-004
      -9.70809662e-004 -9.31822346e-004 -7.50145409e-004
      -4.18834446e-004 -1.78264032e-004 9.28326153e-006 -2.06502609e-005
      -2.02888641e-005 -1.69854029e-005 -1.69854029e-005
      -1.69854029e-005 -1.69854029e-005 -1.84851087e-005
      -1.81777614e-005 -1.69683826e-005 -1.81772321e-005
      -1.70715593e-005 -1.84621822e-005 -7.98017663e-006 2.46978398e-005
      3.36263620e-005 -6.00051635e-006 -7.92598657e-005 -1.34180664e-004
      -2.11514911e-004 -3.32914788e-004 -4.56873677e-004
      -5.71466633e-004 -6.37194957e-004 -6.31172908e-004
      -4.99326794e-004 -2.66303628e-004 -1.48476742e-004 1.17021946e-005
      -1.64405938e-005 -1.72074251e-005 -1.69854029e-005
      -1.69854029e-005 -1.69854029e-005 -1.69854029e-005
      -1.52243801e-005 -1.57402683e-005 -1.83823468e-005
      -1.61508033e-005 -1.62591532e-005 -2.02403389e-005
      -7.54307985e-006 1.93928608e-005 1.41967961e-004 1.91922431e-004
      1.87570971e-004 1.55534493e-004 1.28711443e-004 6.02166037e-005
      -1.71881638e-005 -9.97016759e-005 -1.59355375e-004
      -1.18671931e-004 -8.48691488e-005 -4.63558536e-006
      -9.92970672e-005 3.18891543e-005 -1.75671448e-005 -1.84806850e-005
      -1.69854029e-005 -1.69854029e-005 -1.69854029e-005
      -1.69854029e-005 -1.76089125e-005 -1.67252583e-005
      -1.62387987e-005 -1.72143937e-005 -1.80350871e-005
      -1.61805747e-005 -2.05638280e-005 -1.88725662e-005
      -1.48225718e-005 -1.71445572e-005 -1.89937218e-005
      -1.55232210e-005 -1.26969226e-005 -1.74739562e-005
      -1.20766063e-005 -2.26633110e-005 -1.32086943e-005
      -1.88805716e-005 -1.60174095e-005 -2.47430289e-005
      -1.79751532e-005 -1.91671352e-005 -1.98545968e-005
      -1.66698137e-005 -1.69854029e-005 -1.69854029e-005
      -1.69854029e-005 -1.69854029e-005 -1.66812333e-005
      -1.80410207e-005 -1.66089540e-005 -1.74008546e-005
      -1.75139339e-005 -1.50578371e-005 -1.63362456e-005
      -1.70072835e-005 -1.35930422e-005 -1.75915520e-005
      -1.35662585e-005 -1.24957332e-005 -1.74779489e-005
      -1.80019033e-005 -1.65109741e-005 -1.50078495e-005
      -1.56487749e-005 -1.46853954e-005 -1.83052980e-005
      -1.67582220e-005 -1.95487955e-005 -1.61223834e-005
      -1.75236528e-005 -1.68014703e-005 -1.69854029e-005
      -1.69854029e-005 -1.69854029e-005 -1.69854029e-005
      -1.61431160e-007 -4.12194968e-005 -4.22457379e-005
      -4.11486981e-005 -4.12213594e-005 -4.00415956e-005
      -4.42339369e-005 -4.13463822e-005 -4.09583736e-005
      -4.18372256e-005 -4.14974929e-005 -4.10095927e-005
      -4.32501547e-005 -3.96188298e-005 -3.87916371e-005
      -4.09058484e-005 -4.22777848e-005 -3.92329712e-005
      -4.51249907e-005 -3.91778267e-005 -4.04587008e-005
      -4.33766909e-005 -4.01740908e-005 -4.06472500e-005
      -4.29871507e-005 -4.11649598e-005 -4.11649598e-005
      -4.11649598e-005 -4.11649598e-005 -4.20515862e-005
      -3.93768751e-005 -4.00561585e-005 -4.00127392e-005
      -4.09884233e-005 -3.97738768e-005 1.08807173e-004 1.36947463e-004
      2.79911910e-004 3.71590664e-004 3.87837674e-004 3.64058680e-004
      3.40521219e-004 3.26363923e-004 3.46987508e-004 3.87990178e-004
      4.01210447e-004 4.06870415e-004 3.52250325e-004 2.67091120e-004
      1.81366748e-004 -8.15469321e-006 -4.13862253e-005 -4.19008975e-005
      -4.11649598e-005 -4.11649598e-005 -4.11649598e-005
      -4.11649598e-005 -4.06250874e-005 -4.17569645e-005
      -4.11972142e-005 -3.83910847e-005 -4.26782281e-005
      -4.04444254e-005 9.19740196e-005 8.38795095e-005 1.73928856e-004
      2.13825173e-004 1.94067121e-004 1.22564539e-004 8.52152734e-005
      7.55888250e-005 1.19770157e-004 1.99164715e-004 2.63196591e-004
      3.03910056e-004 2.28602672e-004 1.84597040e-004 1.48909574e-004
      -1.01591413e-005 -4.31778644e-005 -3.65621054e-005
      -4.11649598e-005 -4.11649598e-005 -4.11649598e-005
      -4.11649598e-005 -3.97493022e-005 -3.89602283e-005
      -4.13298258e-005 -4.14890965e-005 -3.93292139e-005
      -3.94310809e-005 7.13901100e-005 5.46554984e-005 8.07237448e-005
      5.65598748e-005 -6.96547522e-006 -1.19145647e-004 -1.51286265e-004
      -1.33992886e-004 -6.64202380e-005 2.47594708e-005 1.40323711e-004
      2.09757156e-004 1.69318926e-004 1.47464365e-004 1.20208009e-004
      -4.76254399e-006 -3.79204903e-005 -4.36048031e-005
      -4.11649598e-005 -4.11649598e-005 -4.11649598e-005
      -4.11649598e-005 -4.10518478e-005 -4.02961450e-005
      -4.05789797e-005 -4.17615229e-005 -3.85858366e-005
      -3.82391117e-005 6.87977445e-005 3.21359767e-005 6.31906050e-006
      -6.75284682e-005 -1.47119790e-004 -2.22733041e-004
      -2.35099054e-004 -2.09798716e-004 -1.51886386e-004
      -9.88958418e-005 4.35296897e-006 1.29933062e-004 1.41376251e-004
      1.31125693e-004 1.13372058e-004 -1.90708113e-006 -3.69866502e-005
      -4.26698243e-005 -4.11649598e-005 -4.11649598e-005
      -4.11649598e-005 -4.11649598e-005 -3.84792256e-005
      -3.92368565e-005 -4.17257252e-005 -4.13491289e-005
      -4.06828221e-005 -4.12393383e-005 6.93287584e-005 4.06783984e-005
      -1.92463631e-005 -1.01431207e-004 -1.36659277e-004
      -1.30544402e-004 -1.12127062e-004 -1.16503616e-004
      -1.56172013e-004 -2.14400890e-004 -1.35383816e-004 3.54841577e-005
      1.14337920e-004 1.46311475e-004 1.18557640e-004 5.37579297e-008
      -3.99958008e-005 -3.98351112e-005 -4.11649598e-005
      -4.11649598e-005 -4.11649598e-005 -4.11649598e-005
      -4.19426578e-005 -4.03568811e-005 -3.84491286e-005
      -4.11659894e-005 -3.88382432e-005 -3.99590499e-005 6.80688827e-005
      4.60427946e-005 9.76796309e-006 -3.04944515e-005 2.93990379e-005
      1.58930736e-004 2.20561109e-004 1.41254743e-004 -5.64636684e-005
      -2.81942863e-004 -2.92035926e-004 -1.21319652e-004 4.60436968e-005
      1.66159982e-004 1.34223039e-004 6.75352476e-006 -4.39630348e-005
      -4.22573939e-005 -4.11649598e-005 -4.11649598e-005
      -4.11649598e-005 -4.11649598e-005 -3.94594099e-005
      -3.92840666e-005 -4.07511834e-005 -3.91130852e-005
      -4.16163239e-005 -4.12230729e-005 7.04557897e-005 6.20365608e-005
      7.61757983e-005 1.35534865e-004 3.18917213e-004 5.52263169e-004
      6.17014535e-004 4.35091060e-004 8.56353436e-005 -2.66739487e-004
      -4.06792911e-004 -2.46203621e-004 -2.89987438e-005 1.68495593e-004
      1.42261270e-004 3.14697922e-006 -4.32668967e-005 -3.88295593e-005
      -4.11649598e-005 -4.11649598e-005 -4.11649598e-005
      -4.11649598e-005 -4.15083232e-005 -3.99204546e-005
      -3.99899218e-005 -4.00347744e-005 -4.17752344e-005
      -4.06329636e-005 6.45810869e-005 7.45432772e-005 1.28520740e-004
      2.82909925e-004 5.62714587e-004 8.55572172e-004 8.80396343e-004
      5.95196791e-004 1.72139378e-004 -2.96074781e-004 -4.88363963e-004
      -3.57679906e-004 -9.46094806e-005 1.53651781e-004 1.40249380e-004
      3.08685844e-006 -4.01114048e-005 -4.25665348e-005 -4.11649598e-005
      -4.11649598e-005 -4.11649598e-005 -4.11649598e-005
      -4.21117838e-005 -4.07184198e-005 -4.05076607e-005
      -3.98179618e-005 -4.18652671e-005 -4.09536915e-005 5.98700026e-005
      6.75693664e-005 1.22590660e-004 3.27202608e-004 6.66239997e-004
      9.92130255e-004 9.68836539e-004 5.98325161e-004 9.60311227e-005
      -3.80223675e-004 -5.69195603e-004 -4.16991650e-004
      -1.44872261e-004 1.23788050e-004 1.32272689e-004 3.35011373e-006
      -3.98303564e-005 -3.98142656e-005 -4.11649598e-005
      -4.11649598e-005 -4.11649598e-005 -4.11649598e-005
      -4.09310560e-005 -4.06029976e-005 -4.10114953e-005
      -4.04983766e-005 -4.11254950e-005 -4.12571135e-005 5.40063666e-005
      5.83621404e-005 9.26435605e-005 3.13318160e-004 6.74281211e-004
      9.79552860e-004 8.96404905e-004 4.50355263e-004 -9.02616375e-005
      -5.09375124e-004 -6.30907540e-004 -4.33515408e-004
      -1.67313920e-004 9.72364214e-005 1.21835736e-004 2.63234824e-006
      -4.49884465e-005 -3.93152295e-005 -4.11649598e-005
      -4.11649598e-005 -4.11649598e-005 -4.11649598e-005
      -4.08954620e-005 -4.06429972e-005 -4.13281559e-005
      -4.00241406e-005 -4.12091322e-005 -4.16563234e-005 4.98191657e-005
      4.85540477e-005 6.25370885e-005 2.69813841e-004 6.11496624e-004
      8.71019613e-004 7.29127438e-004 2.08676604e-004 -3.30999843e-004
      -6.44750893e-004 -6.46035653e-004 -3.95224779e-004
      -1.48399224e-004 7.67904203e-005 1.08389620e-004 2.99989347e-006
      -4.35136681e-005 -4.01377729e-005 -4.11649598e-005
      -4.11649598e-005 -4.11649598e-005 -4.11649598e-005
      -4.09637832e-005 -4.08421256e-005 -4.19201751e-005
      -4.07861953e-005 -4.04899292e-005 -4.09007662e-005 5.15606371e-005
      4.04137500e-005 3.37224701e-005 2.12619299e-004 5.27024094e-004
      7.52957130e-004 5.68059098e-004 -1.59166439e-006 -5.15317544e-004
      -7.22574536e-004 -6.19780039e-004 -3.34768760e-004
      -1.16977775e-004 5.60264816e-005 9.24675114e-005 4.52054019e-006
      -4.18805575e-005 -4.11023102e-005 -4.11649598e-005
      -4.11649598e-005 -4.11649598e-005 -4.11649598e-005
      -4.03554477e-005 -4.06220279e-005 -4.19434764e-005
      -4.07710177e-005 -4.06496329e-005 -4.20056822e-005 5.60445696e-005
      3.46358902e-005 1.76846061e-005 1.81138501e-004 4.71032836e-004
      6.80795929e-004 4.98184469e-004 -5.99023770e-005 -5.44049835e-004
      -7.19401054e-004 -5.85458300e-004 -2.95088772e-004
      -1.01973113e-004 3.78352488e-005 7.99002300e-005 1.35480877e-006
      -4.01282778e-005 -4.08822270e-005 -4.11649598e-005
      -4.11649598e-005 -4.11649598e-005 -4.11649598e-005
      -4.08207634e-005 -4.08272026e-005 -4.22204321e-005
      -4.12666086e-005 -4.21355217e-005 -4.19537137e-005 5.84431255e-005
      2.81619905e-005 2.25868666e-006 1.74661152e-004 4.49313811e-004
      6.63736195e-004 5.49515476e-004 7.68080281e-005 -4.06656298e-004
      -6.50911941e-004 -5.77195664e-004 -3.19237239e-004
      -1.38670570e-004 1.13909900e-005 7.18205483e-005 -1.22690366e-007
      -3.95563402e-005 -3.88345397e-005 -4.11649598e-005
      -4.11649598e-005 -4.11649598e-005 -4.11649598e-005
      -4.07793268e-005 -4.07528532e-005 -4.14128117e-005
      -4.02509722e-005 -4.00618483e-005 -4.16686999e-005 6.02985565e-005
      2.24761552e-005 -1.22841320e-005 1.74003551e-004 4.47803730e-004
      6.93327340e-004 6.85260049e-004 3.23900778e-004 -1.65845820e-004
      -4.99610382e-004 -5.92647470e-004 -3.74341180e-004
      -1.98886410e-004 -2.73535170e-005 6.14464079e-005 -3.33544540e-006
      -4.21075420e-005 -4.02073310e-005 -4.11649598e-005
      -4.11649598e-005 -4.11649598e-005 -4.11649598e-005
      -4.11041365e-005 -4.15251379e-005 -4.11433612e-005
      -4.16849762e-005 -4.14817005e-005 -4.12635200e-005 5.61246052e-005
      2.31795420e-005 -2.12520299e-005 1.67665072e-004 4.31789056e-004
      7.18242489e-004 8.09326477e-004 5.67197509e-004 1.16892668e-004
      -3.56122706e-004 -5.73643367e-004 -4.73001710e-004
      -2.61108042e-004 -5.78033178e-005 4.25031430e-005 -1.24040710e-007
      -4.08125343e-005 -4.15280701e-005 -4.11649598e-005
      -4.11649598e-005 -4.11649598e-005 -4.11649598e-005
      -4.16048606e-005 -4.16812873e-005 -4.10705397e-005
      -4.05311839e-005 -4.00590907e-005 -4.03532467e-005 5.74969963e-005
      2.42105471e-005 -1.90734827e-005 1.38614720e-004 3.67260829e-004
      6.46467030e-004 7.74259795e-004 5.95065241e-004 1.88707170e-004
      -2.89979827e-004 -5.82675217e-004 -5.15303749e-004
      -3.12885386e-004 -8.36043837e-005 3.52203169e-005 -3.73209946e-006
      -4.11311048e-005 -4.01148754e-005 -4.11649598e-005
      -4.11649598e-005 -4.11649598e-005 -4.11649598e-005
      -4.12057234e-005 -4.13356756e-005 -4.04101447e-005
      -4.11580149e-005 -4.04274542e-005 -4.12260270e-005 5.55436636e-005
      1.09090834e-005 -7.08707012e-005 2.92661916e-005 2.06610275e-004
      4.43437719e-004 5.52819285e-004 4.16835857e-004 1.01076548e-004
      -3.08103830e-004 -5.76320570e-004 -5.37663524e-004
      -3.56936565e-004 -1.06302781e-004 3.58547477e-005 -6.46686158e-006
      -4.11100336e-005 -4.02121223e-005 -4.11649598e-005
      -4.11649598e-005 -4.11649598e-005 -4.11649598e-005
      -4.06270192e-005 -4.11350738e-005 -3.99668970e-005
      -4.09292188e-005 -4.07368680e-005 -4.24922328e-005 5.52134661e-005
      -9.35482876e-006 -1.42133882e-004 -1.40336633e-004
      -5.60670560e-005 9.50769027e-005 1.55384478e-004 5.14425883e-005
      -1.35757160e-004 -3.87391017e-004 -5.43249887e-004
      -4.96494060e-004 -3.56211676e-004 -1.09787565e-004 4.27229133e-005
      -9.13688473e-006 -4.02315782e-005 -4.24055506e-005
      -4.11649598e-005 -4.11649598e-005 -4.11649598e-005
      -4.11649598e-005 -4.15904797e-005 -4.06556064e-005
      -4.02030637e-005 -4.05610299e-005 -4.15099457e-005
      -4.11297115e-005 5.87958275e-005 -1.90330393e-005 -1.89800849e-004
      -2.83962552e-004 -3.14637815e-004 -2.63902359e-004
      -2.29289159e-004 -2.73856946e-004 -3.22313688e-004
      -3.85138614e-004 -4.26923623e-004 -3.59846628e-004
      -2.80043780e-004 -8.19714842e-005 6.00099775e-005 -6.36537834e-006
      -4.25422913e-005 -4.07294392e-005 -4.11649598e-005
      -4.11649598e-005 -4.11649598e-005 -4.11649598e-005
      -4.17059782e-005 -4.08665437e-005 -4.10108441e-005
      -4.07537300e-005 -4.11520959e-005 -4.01152611e-005 5.71695782e-005
      -2.59001517e-005 -1.98132417e-004 -3.19903746e-004
      -4.08164313e-004 -4.33868234e-004 -4.19932621e-004
      -4.05271829e-004 -3.36525292e-004 -2.47673044e-004
      -1.99329545e-004 -1.44944788e-004 -1.45047889e-004
      -2.71257522e-005 8.31762372e-005 -2.06431741e-006 -4.28038365e-005
      -3.98281227e-005 -4.11649598e-005 -4.11649598e-005
      -4.11649598e-005 -4.11649598e-005 -4.07052976e-005
      -4.15832874e-005 -4.17086194e-005 -4.12298832e-005
      -4.15420072e-005 -4.07976222e-005 4.75388042e-005 -3.34712786e-005
      -1.82670687e-004 -2.82252615e-004 -3.70367838e-004
      -4.17764386e-004 -4.11435874e-004 -3.60833539e-004
      -2.23867493e-004 -6.93978072e-005 2.31169433e-005 4.04166203e-005
      -2.37718832e-005 2.26408592e-005 9.62372578e-005 -7.20910657e-006
      -4.25808139e-005 -4.30003493e-005 -4.11649598e-005
      -4.11649598e-005 -4.11649598e-005 -4.11649598e-005
      -4.11272267e-005 -4.24148493e-005 -4.03035956e-005
      -4.08832093e-005 -4.16587573e-005 -4.08721899e-005 3.48302456e-005
      -3.88945009e-005 -1.52580658e-004 -2.20913396e-004
      -2.86266702e-004 -3.17982805e-004 -3.03259556e-004
      -2.37597545e-004 -9.53211638e-005 4.68301514e-005 1.34118280e-004
      1.19835175e-004 2.36376563e-005 4.05700048e-005 9.27683650e-005
      -1.27485791e-005 -4.20002798e-005 -4.13728849e-005
      -4.11649598e-005 -4.11649598e-005 -4.11649598e-005
      -4.11649598e-005 -4.00757745e-005 -4.26388942e-005
      -4.17910051e-005 -4.03002632e-005 -4.02667101e-005
      -4.19192729e-005 2.08672700e-005 -5.28503952e-005 -1.96464476e-004
      -2.10008031e-004 -2.45284638e-004 -2.48519820e-004
      -2.28578239e-004 -1.73125736e-004 -6.19310231e-005 2.88347201e-005
      8.21870490e-005 4.90573766e-005 -4.76254099e-005 1.93628039e-005
      7.46242076e-005 -1.89695547e-005 -4.22173980e-005 -4.21938603e-005
      -4.11649598e-005 -4.11649598e-005 -4.11649598e-005
      -4.11649598e-005 -4.26805054e-005 -4.12857735e-005
      -4.42341952e-005 -4.03101658e-005 -4.37475683e-005
      -3.92130823e-005 -3.83058568e-006 -1.17965057e-004
      -3.20880907e-004 -3.14537116e-004 -3.43075226e-004
      -3.27738322e-004 -3.05734051e-004 -2.64947943e-004
      -1.99457019e-004 -1.37297378e-004 -1.26276631e-004
      -1.62361510e-004 -2.17265682e-004 -7.22397817e-005 3.24666871e-005
      -1.31512243e-005 -4.80994822e-005 -3.78948062e-005
      -4.11649598e-005 -4.11649598e-005 -4.11649598e-005
      -4.11649598e-005 -4.08861488e-005 -4.32107372e-005
      -4.24903192e-005 -4.31463013e-005 -3.86788779e-005
      -4.04653110e-005 -4.33816385e-005 -3.82867947e-005
      -4.17729607e-005 -4.01533980e-005 -4.37811759e-005
      -4.00600293e-005 -4.12896188e-005 -4.47871753e-005
      -4.12994414e-005 -3.88497429e-005 -4.28064523e-005
      -4.34537069e-005 -4.39529977e-005 -3.63930376e-005
      -4.24019272e-005 -4.43137105e-005 -3.83345068e-005
      -4.66390957e-005 -4.11649598e-005 -4.11649598e-005
      -4.11649598e-005 -4.11649598e-005 -4.06981417e-005
      -3.96612559e-005 -4.12528316e-005 -4.22261983e-005
      -4.17173251e-005 -4.47483217e-005 -4.17331066e-005
      -4.28784733e-005 -4.15328832e-005 -4.14925125e-005
      -4.27160230e-005 -4.32984634e-005 -3.89181914e-005
      -3.92365837e-005 -3.89992856e-005 -4.18489799e-005
      -4.04025304e-005 -4.46242957e-005 -3.91747271e-005
      -4.08445048e-005 -4.06889012e-005 -4.27520317e-005
      -3.72386421e-005 -4.00109056e-005 -4.11649598e-005
      -4.11649598e-005 -4.11649598e-005 -4.11649598e-005
      -1.23754816e-007 -3.00210650e-005 -3.00323154e-005
      -3.00043048e-005 -2.95140962e-005 -2.96861890e-005
      -2.91905017e-005 -3.03542274e-005 -2.97628412e-005
      -3.16631740e-005 -3.43267275e-005 -3.06707916e-005
      -3.28822643e-005 -3.42212661e-005 -3.17837003e-005
      -2.96300150e-005 -3.04370315e-005 -3.03277320e-005
      -3.21385269e-005 -3.63625331e-005 -2.76671781e-005
      -3.12693373e-005 -3.25559813e-005 -3.02760382e-005
      -3.28287133e-005 -3.15574944e-005 -3.15574944e-005
      -3.15574944e-005 -3.15574944e-005 -2.95841037e-005
      -3.11538643e-005 -3.09699426e-005 -3.01368909e-005
      -2.99923031e-005 -3.06972579e-005 6.76062264e-005 1.95491884e-004
      2.88418320e-004 2.33620274e-004 2.72992649e-004 2.58549437e-004
      2.59664375e-004 2.65952840e-004 2.72946898e-004 2.81448534e-004
      2.73971411e-004 2.61215027e-004 2.22297123e-004 1.13180860e-004
      4.33914029e-005 -1.49477492e-005 -2.81329176e-005 -2.97954903e-005
      -3.15574944e-005 -3.15574944e-005 -3.15574944e-005
      -3.15574944e-005 -2.94987185e-005 -2.90074822e-005
      -3.09773823e-005 -3.06652291e-005 -3.00112133e-005
      -2.92570348e-005 3.91409449e-005 1.36053277e-004 1.91247978e-004
      1.17968528e-004 2.04877055e-004 2.23140625e-004 2.14633430e-004
      1.79833529e-004 1.68021579e-004 1.89812592e-004 2.00329494e-004
      1.71431850e-004 1.21480611e-004 4.50546431e-005 2.57602005e-005
      -2.19611229e-005 -3.22511842e-005 -2.90139997e-005
      -3.15574944e-005 -3.15574944e-005 -3.15574944e-005
      -3.15574944e-005 -3.11918484e-005 -2.98186133e-005
      -2.90778280e-005 -3.04824007e-005 -2.78607004e-005
      -2.92899531e-005 2.01933963e-005 8.30217905e-005 1.34778893e-004
      1.06916232e-004 2.44644703e-004 2.83658650e-004 2.47318851e-004
      1.33492984e-004 1.05402156e-004 1.91107421e-004 2.49148696e-004
      1.79306502e-004 1.00099816e-004 2.11262468e-005 4.45508567e-006
      -2.51437905e-005 -2.60047473e-005 -3.21309744e-005
      -3.15574944e-005 -3.15574944e-005 -3.15574944e-005
      -3.15574944e-005 -2.89587915e-005 -3.02591616e-005
      -2.98905215e-005 -2.97821007e-005 -3.21713887e-005
      -2.85732185e-005 1.16826395e-005 5.37819906e-005 1.14814844e-004
      1.50194450e-004 3.48074944e-004 4.15413204e-004 3.23178218e-004
      1.25751292e-004 1.05147090e-004 2.81681860e-004 3.94971517e-004
      2.93949997e-004 1.51989894e-004 2.45120791e-005 1.73005344e-006
      -2.49000113e-005 -3.27713315e-005 -3.04208297e-005
      -3.15574944e-005 -3.15574944e-005 -3.15574944e-005
      -3.15574944e-005 -2.94952333e-005 -2.76707942e-005
      -3.26277768e-005 -2.89120253e-005 -3.04781370e-005
      -3.09544157e-005 5.56959412e-006 4.30124892e-005 9.97017924e-005
      2.00723080e-004 4.60110576e-004 5.30318939e-004 3.54026735e-004
      6.68531793e-005 8.19324559e-005 3.85221763e-004 5.71908546e-004
      4.48267529e-004 2.22190356e-004 5.04060772e-005 -1.67754320e-006
      -2.54374409e-005 -2.91967444e-005 -3.09058123e-005
      -3.15574944e-005 -3.15574944e-005 -3.15574944e-005
      -3.15574944e-005 -2.87182302e-005 -3.20680520e-005
      -2.88654428e-005 -3.09980569e-005 -2.91989381e-005
      -3.09157003e-005 3.38679251e-006 4.25729559e-005 9.95913069e-005
      2.36695429e-004 5.15673019e-004 5.38426917e-004 2.46540934e-004
      -1.16857394e-004 -5.99467421e-006 4.62651049e-004 7.35377427e-004
      5.99612365e-004 3.07583745e-004 7.24774582e-005 -2.42385272e-006
      -2.41321050e-005 -2.76000537e-005 -3.23996537e-005
      -3.15574944e-005 -3.15574944e-005 -3.15574944e-005
      -3.15574944e-005 -3.07943592e-005 -2.66061488e-005
      -3.04165369e-005 -3.03188190e-005 -3.03071902e-005
      -2.98851555e-005 3.70601788e-006 4.51349297e-005 8.45210889e-005
      2.41963106e-004 5.06378012e-004 4.59309318e-004 4.81784664e-005
      -3.61679500e-004 -1.43996222e-004 4.64564015e-004 8.21525871e-004
      6.86432468e-004 3.57469748e-004 8.60183281e-005 -5.95510528e-007
      -2.17478537e-005 -2.82447727e-005 -3.17997728e-005
      -3.15574944e-005 -3.15574944e-005 -3.15574944e-005
      -3.15574944e-005 -3.07818736e-005 -3.21183943e-005
      -3.04390833e-005 -3.07568735e-005 -3.12432785e-005
      -3.04223013e-005 5.37184178e-007 4.06875079e-005 8.76111662e-005
      2.23307536e-004 4.54855675e-004 2.98415194e-004 -2.12433224e-004
      -6.02432468e-004 -2.57709617e-004 4.39536525e-004 8.36214575e-004
      6.92036294e-004 3.67386092e-004 9.46116706e-005 5.54748840e-006
      -2.10137569e-005 -3.05608592e-005 -3.22827764e-005
      -3.15574944e-005 -3.15574944e-005 -3.15574944e-005
      -3.15574944e-005 -3.09685893e-005 -3.20855943e-005
      -3.02120970e-005 -3.10008108e-005 -3.06569564e-005
      -3.12255506e-005 -2.70966348e-006 2.96899598e-005 6.15631143e-005
      1.82157397e-004 3.58176709e-004 1.33351612e-004 -3.90416390e-004
      -6.80111581e-004 -2.22734452e-004 4.77553229e-004 8.39780841e-004
      6.84537692e-004 3.68559355e-004 9.21069586e-005 -1.60656077e-006
      -2.50407556e-005 -3.06307993e-005 -2.95882328e-005
      -3.15574944e-005 -3.15574944e-005 -3.15574944e-005
      -3.15574944e-005 -3.13695236e-005 -3.15832076e-005
      -3.07425544e-005 -3.12346856e-005 -3.09806419e-005
      -3.17879494e-005 -8.61086937e-006 1.28602969e-005 2.95850223e-005
      1.11778070e-004 2.20308561e-004 -4.40679178e-005 -5.04633354e-004
      -6.06765854e-004 -1.38617452e-005 6.53786759e-004 9.18041042e-004
      7.07152009e-004 3.77233693e-004 9.16487043e-005 -8.62946399e-006
      -2.82100846e-005 -2.82995898e-005 -3.04571677e-005
      -3.15574944e-005 -3.15574944e-005 -3.15574944e-005
      -3.15574944e-005 -3.13284909e-005 -3.12971606e-005
      -3.09939169e-005 -3.08486051e-005 -3.10505529e-005
      -3.10826836e-005 -1.59692609e-005 -3.03332195e-006
      -1.78123300e-005 1.41173723e-005 5.26601543e-005 -2.07055957e-004
      -5.39689907e-004 -4.27479041e-004 2.65098584e-004 8.76828679e-004
      1.03813666e-003 7.57852977e-004 3.86955275e-004 9.14442353e-005
      -1.34997345e-005 -2.56526782e-005 -2.95250957e-005
      -3.43232896e-005 -3.15574944e-005 -3.15574944e-005
      -3.15574944e-005 -3.15574944e-005 -3.14221397e-005
      -3.08424169e-005 -3.09094612e-005 -3.19264618e-005
      -3.09980642e-005 -3.08518574e-005 -2.14761712e-005
      -1.37940060e-005 -6.36697805e-005 -9.94440197e-005
      -1.34132293e-004 -3.85793450e-004 -5.75239828e-004
      -2.80569453e-004 4.70600440e-004 1.04381691e-003 1.14175794e-003
      8.10794998e-004 3.96440184e-004 8.37931002e-005 -2.08890287e-005
      -2.77992422e-005 -2.80037366e-005 -3.47697278e-005
      -3.15574944e-005 -3.15574944e-005 -3.15574944e-005
      -3.15574944e-005 -3.15056386e-005 -3.06419170e-005
      -3.11879376e-005 -3.16819824e-005 -3.09048191e-005
      -3.04028763e-005 -2.79833130e-005 -2.28511399e-005
      -1.10495399e-004 -2.14935309e-004 -3.19850951e-004
      -5.63481764e-004 -6.25173619e-004 -2.11743260e-004 5.35888481e-004
      1.08693540e-003 1.17389101e-003 8.55886145e-004 4.19106043e-004
      7.84522053e-005 -2.80460281e-005 -3.26082300e-005 -2.91479337e-005
      -3.18986313e-005 -3.15574944e-005 -3.15574944e-005
      -3.15574944e-005 -3.15574944e-005 -3.10383330e-005
      -3.10799842e-005 -3.13319906e-005 -3.15871548e-005
      -3.16024270e-005 -3.06016300e-005 -3.30639486e-005
      -3.06281981e-005 -1.45067883e-004 -3.23455897e-004
      -4.89110767e-004 -7.29980122e-004 -7.31172739e-004
      -3.22422216e-004 3.33798147e-004 8.51295074e-004 9.81095247e-004
      7.59289367e-004 3.82755767e-004 6.64912659e-005 -2.87289840e-005
      -3.23334134e-005 -3.16246042e-005 -3.02947192e-005
      -3.15574944e-005 -3.15574944e-005 -3.15574944e-005
      -3.15574944e-005 -3.13302371e-005 -3.16182122e-005
      -3.13404744e-005 -3.09785828e-005 -3.08960516e-005
      -3.05902431e-005 -3.58248326e-005 -3.20125364e-005
      -1.77716138e-004 -4.15398739e-004 -6.32662617e-004
      -8.96553742e-004 -9.21181054e-004 -6.03512395e-004
      -7.36116781e-005 3.93160502e-004 6.52818999e-004 5.41514484e-004
      2.69166601e-004 2.31128088e-005 -3.53287141e-005 -3.11543226e-005
      -3.03217639e-005 -3.17431331e-005 -3.15574944e-005
      -3.15574944e-005 -3.15574944e-005 -3.15574944e-005
      -3.06294678e-005 -3.00609863e-005 -3.08775998e-005
      -3.09405987e-005 -2.99470630e-005 -2.90756852e-005
      -4.37199997e-005 -3.54501935e-005 -2.16764485e-004
      -4.69201506e-004 -7.15134374e-004 -9.90385539e-004
      -1.11165212e-003 -9.79655073e-004 -6.29056711e-004
      -2.16140572e-004 1.11342219e-004 2.12997897e-004 1.06524021e-004
      -2.98296782e-005 -4.29543979e-005 -3.64882653e-005
      -3.16815895e-005 -3.33633579e-005 -3.15574944e-005
      -3.15574944e-005 -3.15574944e-005 -3.15574944e-005
      -3.18515486e-005 -3.02980588e-005 -3.14749595e-005
      -3.15731486e-005 -3.10453979e-005 -3.07585033e-005
      -4.62602329e-005 -3.62996652e-005 -2.30539968e-004
      -4.69798077e-004 -6.80859550e-004 -9.46426706e-004
      -1.16500410e-003 -1.24722114e-003 -1.10278442e-003
      -7.92242296e-004 -4.03800979e-004 -1.73349123e-004
      -8.98251310e-005 -9.17633806e-005 -5.11201579e-005
      -4.02698279e-005 -3.12770680e-005 -3.10141659e-005
      -3.15574944e-005 -3.15574944e-005 -3.15574944e-005
      -3.15574944e-005 -3.19464452e-005 -3.08028757e-005
      -3.14796343e-005 -3.12503980e-005 -3.00109623e-005
      -3.00691045e-005 -4.44606339e-005 -2.94847341e-005
      -1.96154506e-004 -3.77417280e-004 -4.76032321e-004
      -6.52002054e-004 -9.15251032e-004 -1.18758890e-003
      -1.26360613e-003 -1.09317701e-003 -7.63530668e-004
      -4.48684557e-004 -2.17473702e-004 -1.22482787e-004
      -5.02011098e-005 -4.33008827e-005 -3.47371242e-005
      -3.20838262e-005 -3.15574944e-005 -3.15574944e-005
      -3.15574944e-005 -3.15574944e-005 -3.07549053e-005
      -3.06608563e-005 -3.10830146e-005 -3.01906966e-005
      -3.09485222e-005 -3.04183086e-005 -3.85494459e-005
      -1.09764114e-005 -1.39759446e-004 -2.18577188e-004
      -1.62575307e-004 -1.98803289e-004 -4.29294043e-004
      -7.84162781e-004 -1.03159563e-003 -1.03361555e-003
      -8.06570577e-004 -5.18083107e-004 -2.54782790e-004
      -1.29450549e-004 -4.89523773e-005 -3.95802999e-005
      -3.43376960e-005 -3.29764516e-005 -3.15574944e-005
      -3.15574944e-005 -3.15574944e-005 -3.15574944e-005
      -3.08270501e-005 -3.07796399e-005 -3.09220377e-005
      -3.09719362e-005 -3.12968077e-005 -3.09213538e-005
      -3.16787336e-005 9.69386838e-006 -7.35879075e-005 -5.73284888e-005
      1.35707145e-004 2.44444411e-004 1.18974793e-004 -2.07310601e-004
      -5.50454308e-004 -7.24536134e-004 -6.53052528e-004
      -4.56045149e-004 -2.34316423e-004 -1.13404109e-004
      -4.68942962e-005 -3.29975592e-005 -3.32710988e-005
      -3.24369867e-005 -3.15574944e-005 -3.15574944e-005
      -3.15574944e-005 -3.15574944e-005 -3.07804439e-005
      -3.06682959e-005 -3.09189527e-005 -3.15042198e-005
      -3.15390462e-005 -2.97420611e-005 -2.79065771e-005 1.70485218e-005
      -4.39661417e-005 3.83872884e-006 2.72109144e-004 4.83477401e-004
      4.89769212e-004 2.68309028e-004 -8.30926365e-005 -3.56334815e-004
      -4.10459412e-004 -3.17960192e-004 -1.68014667e-004
      -8.87712522e-005 -4.89231279e-005 -3.23684508e-005
      -3.30352232e-005 -3.30017465e-005 -3.15574944e-005
      -3.15574944e-005 -3.15574944e-005 -3.15574944e-005
      -3.05907924e-005 -3.04635469e-005 -3.05896137e-005
      -3.08036106e-005 -3.05916219e-005 -3.10840805e-005
      -3.13217242e-005 1.51336071e-005 -3.71361639e-005 -2.02385181e-005
      2.34423758e-004 4.63183096e-004 5.48130309e-004 4.30513202e-004
      1.52731314e-004 -1.11881658e-004 -2.26076168e-004 -2.11135703e-004
      -1.24092243e-004 -7.77310124e-005 -5.41822665e-005
      -2.92432323e-005 -3.22223896e-005 -3.14257595e-005
      -3.15574944e-005 -3.15574944e-005 -3.15574944e-005
      -3.15574944e-005 -3.03132038e-005 -3.07533446e-005
      -3.09055977e-005 -3.04662299e-005 -3.01946748e-005
      -3.18963539e-005 -3.25986621e-005 1.82297226e-005 -6.83243998e-005
      -1.06151194e-004 9.15547425e-005 2.75118888e-004 3.75379313e-004
      3.28157184e-004 1.40750781e-004 -5.74093392e-005 -1.74643807e-004
      -1.90307110e-004 -1.30661589e-004 -8.55321559e-005
      -5.82019238e-005 -2.73504029e-005 -3.03145462e-005
      -3.18886232e-005 -3.15574944e-005 -3.15574944e-005
      -3.15574944e-005 -3.15574944e-005 -3.16884325e-005
      -3.02464323e-005 -3.23415697e-005 -3.28011774e-005
      -2.96698763e-005 -2.98865107e-005 -2.51787278e-005 2.93088597e-005
      -8.53075762e-005 -2.11243037e-004 -8.61956069e-005 1.24029157e-005
      9.40954778e-005 8.30456629e-005 -3.27915404e-005 -1.46124949e-004
      -2.24229007e-004 -2.48026190e-004 -1.99707953e-004
      -1.01095531e-004 -4.36345363e-005 -2.71406716e-005
      -3.11198892e-005 -3.26616901e-005 -3.15574944e-005
      -3.15574944e-005 -3.15574944e-005 -3.15574944e-005
      -2.95058762e-005 -3.01515229e-005 -3.21319567e-005
      -2.89779509e-005 -3.07658083e-005 -3.13022974e-005
      -8.47180218e-006 5.03586489e-005 -1.35455877e-004 -3.50410672e-004
      -2.93611578e-004 -2.39367801e-004 -1.97524496e-004
      -2.04127893e-004 -2.78769759e-004 -3.24811059e-004
      -3.71756090e-004 -3.79686622e-004 -3.19995859e-004
      -1.46235310e-004 -3.11942349e-005 -3.51047092e-005
      -3.47194255e-005 -3.05360372e-005 -3.15574944e-005
      -3.15574944e-005 -3.15574944e-005 -3.15574944e-005
      -3.03044635e-005 -2.98546929e-005 -2.98176783e-005
      -3.26200934e-005 -3.04587375e-005 -3.05060003e-005
      -3.37327983e-005 -2.64422724e-005 -3.33301214e-005
      -3.48174144e-005 -2.96489688e-005 -3.61858729e-005
      -3.07417358e-005 -3.13843666e-005 -2.94278252e-005
      -3.21029474e-005 -3.34216529e-005 -3.45015906e-005
      -3.67055000e-005 -2.70053733e-005 -3.78340592e-005
      -3.63603867e-005 -2.91524393e-005 -3.56619821e-005
      -3.15574944e-005 -3.15574944e-005 -3.15574944e-005
      -3.15574944e-005 -3.15195539e-005 -3.25625551e-005
      -2.98949362e-005 -3.00194788e-005 -3.11500371e-005
      -2.91882607e-005 -2.93368757e-005 -3.11169060e-005
      -3.24620123e-005 -3.16710284e-005 -3.39098224e-005
      -3.40324368e-005 -3.13688397e-005 -3.30711191e-005
      -3.34336510e-005 -3.28022143e-005 -3.54691001e-005
      -3.26341033e-005 -3.49031325e-005 -3.57050922e-005
      -3.46785710e-005 -3.30072035e-005 -3.46476445e-005
      -3.27481721e-005 -3.15574944e-005 -3.15574944e-005
      -3.15574944e-005 -3.15574944e-005 -6.58368151e-008
      -1.76809754e-005 -1.64234280e-005 -1.56801525e-005
      -1.90671599e-005 -1.62286506e-005 -1.75829991e-005
      -1.45363920e-005 -1.71942866e-005 -1.79598610e-005
      -1.66796981e-005 -1.51695949e-005 -1.84691889e-005
      -1.64313860e-005 -1.69420491e-005 -1.92578736e-005
      -1.59455922e-005 -1.79406052e-005 -1.71926422e-005
      -2.00286086e-005 -1.40948978e-005 -1.47371802e-005
      -1.38215146e-005 -1.26496998e-005 -1.70811036e-005
      -1.67883591e-005 -1.67883591e-005 -1.67883591e-005
      -1.67883591e-005 -1.54127647e-005 -1.63044679e-005
      -1.67032358e-005 -1.69699706e-005 -1.63151417e-005
      -1.95876746e-005 1.62181550e-005 1.27630206e-004 3.95545794e-004
      2.98923667e-004 3.14685807e-004 2.72452657e-004 2.55303399e-004
      2.56918633e-004 2.66545394e-004 2.76704697e-004 2.98027502e-004
      3.32028983e-004 3.27393936e-004 2.75360799e-004 -8.68422831e-006
      4.72719657e-005 -1.54907593e-005 -1.59267875e-005 -1.67883591e-005
      -1.67883591e-005 -1.67883591e-005 -1.67883591e-005
      -1.62439374e-005 -1.58331823e-005 -1.69124050e-005
      -1.45297481e-005 -1.65704678e-005 -1.45235454e-005
      -7.46752357e-006 4.72757019e-005 2.53453502e-004 1.13151524e-004
      6.07333677e-005 -2.15342207e-005 -3.85533604e-005 -3.57788667e-005
      -9.72538237e-006 -4.77745152e-006 2.49968234e-005 9.60657344e-005
      1.34545160e-004 1.69526611e-004 -4.91665196e-005 3.84264058e-005
      -1.68347706e-005 -1.50602691e-005 -1.67883591e-005
      -1.67883591e-005 -1.67883591e-005 -1.67883591e-005
      -1.63076875e-005 -1.80312018e-005 -1.75185105e-005
      -1.68793431e-005 -1.48023701e-005 -1.43919979e-005
      -3.45734152e-005 -1.61117096e-005 1.27570369e-004 -6.82231912e-005
      -1.86966310e-004 -2.92964804e-004 -2.87581875e-004
      -2.24098112e-004 -1.67941849e-004 -1.41920507e-004
      -1.18603377e-004 -6.11878859e-005 7.89788373e-007 7.21800607e-005
      -9.83532518e-005 3.19410392e-005 -1.32581263e-005 -1.87825026e-005
      -1.67883591e-005 -1.67883591e-005 -1.67883591e-005
      -1.67883591e-005 -1.82049134e-005 -1.60398740e-005
      -1.75007917e-005 -1.58316452e-005 -1.72302480e-005
      -1.48787030e-005 -5.09048332e-005 -5.42124617e-005 5.07780314e-005
      -1.89678860e-004 -3.41149629e-004 -4.59172385e-004
      -4.00256249e-004 -2.41016576e-004 -9.74404611e-005 6.46183707e-007
      3.06850307e-005 4.09826389e-005 1.79622493e-005 5.86491915e-005
      -1.15884104e-004 3.74777119e-005 -1.67353210e-005 -1.72120999e-005
      -1.67883591e-005 -1.67883591e-005 -1.67883591e-005
      -1.67883591e-005 -1.80263596e-005 -1.49671332e-005
      -1.70731510e-005 -1.17765594e-005 -1.61521730e-005
      -1.95646480e-005 -6.15623721e-005 -8.03950170e-005 7.64488505e-006
      -2.75700499e-004 -4.67282487e-004 -5.68060437e-004
      -4.30821499e-004 -1.41165889e-004 1.52146604e-004 3.65254557e-004
      4.21123870e-004 3.50535091e-004 1.86759164e-004 1.06640575e-004
      -9.73812930e-005 2.85697715e-005 -1.69719751e-005 -1.83300763e-005
      -1.67883591e-005 -1.67883591e-005 -1.67883591e-005
      -1.67883591e-005 -1.41936889e-005 -1.85262052e-005
      -1.37375810e-005 -1.76002322e-005 -1.83333814e-005
      -1.37475990e-005 -6.29958377e-005 -8.73524405e-005
      -1.94203858e-005 -3.31063027e-004 -5.56295738e-004
      -6.80209487e-004 -5.00210386e-004 -7.75210428e-005 3.87558481e-004
      7.67187565e-004 8.91527685e-004 7.46907433e-004 4.35122143e-004
      1.88824633e-004 -7.78941321e-005 2.75480015e-005 -1.52068387e-005
      -1.39435351e-005 -1.67883591e-005 -1.67883591e-005
      -1.67883591e-005 -1.67883591e-005 -1.71727188e-005
      -1.51573031e-005 -1.73615535e-005 -1.55929647e-005
      -1.63667664e-005 -1.81570522e-005 -6.05191162e-005
      -1.09836328e-004 -3.51462586e-005 -3.65889748e-004
      -6.15769357e-004 -7.68081984e-004 -5.92960103e-004
      -1.11292000e-004 4.85531404e-004 1.00944389e-003 1.22268090e-003
      1.04307244e-003 6.28604554e-004 2.65777722e-004 -4.91856299e-005
      3.29233117e-005 -1.53749043e-005 -1.70392595e-005 -1.67883591e-005
      -1.67883591e-005 -1.67883591e-005 -1.67883591e-005
      -1.63878503e-005 -1.67543767e-005 -1.71263418e-005
      -1.61061143e-005 -1.65423571e-005 -1.70667281e-005
      -6.48690329e-005 -1.17016301e-004 -6.15934114e-005
      -3.95234296e-004 -6.59088080e-004 -8.40667053e-004
      -7.23344972e-004 -2.87176634e-004 3.45720240e-004 9.88583779e-004
      1.29597646e-003 1.16318674e-003 6.99063414e-004 3.02033790e-004
      -3.11153708e-005 2.78268853e-005 -2.13186413e-005 -1.66229456e-005
      -1.67883591e-005 -1.67883591e-005 -1.67883591e-005
      -1.67883591e-005 -1.64960638e-005 -1.68714887e-005
      -1.70427393e-005 -1.71708289e-005 -1.56816332e-005
      -1.59655647e-005 -5.84207810e-005 -1.15665949e-004
      -6.93257607e-005 -4.09111555e-004 -6.83640072e-004
      -9.23459709e-004 -9.38094046e-004 -6.39265694e-004
      -5.85041271e-005 6.02392363e-004 1.04233506e-003 1.01748854e-003
      6.57460070e-004 2.95118167e-004 -2.92366949e-005 2.60465258e-005
      -1.77545226e-005 -1.63996046e-005 -1.67883591e-005
      -1.67883591e-005 -1.67883591e-005 -1.67883591e-005
      -1.73329099e-005 -1.67600374e-005 -1.66308801e-005
      -1.66950413e-005 -1.67941434e-005 -1.51173426e-005
      -4.82019786e-005 -1.11610767e-004 -6.93845650e-005
      -3.90647445e-004 -6.35847508e-004 -8.94996047e-004
      -1.03498984e-003 -9.27755609e-004 -4.98463982e-004 9.09646551e-005
      5.83732908e-004 7.04782782e-004 5.10848477e-004 2.47624906e-004
      -3.90940659e-005 2.23964962e-005 -1.57054837e-005 -1.81165760e-005
      -1.67883591e-005 -1.67883591e-005 -1.67883591e-005
      -1.67883591e-005 -1.73355093e-005 -1.64899957e-005
      -1.75085388e-005 -1.76350859e-005 -1.74542565e-005
      -1.59615029e-005 -4.07964981e-005 -9.92133137e-005
      -4.62369426e-005 -2.94313330e-004 -4.44070902e-004
      -6.37930585e-004 -8.32522055e-004 -9.04451474e-004
      -7.09188113e-004 -3.08934308e-004 9.38799130e-005 3.03388690e-004
      2.86705676e-004 1.66614613e-004 -5.89019692e-005 1.73048466e-005
      -1.85592635e-005 -1.84948512e-005 -1.67883591e-005
      -1.67883591e-005 -1.67883591e-005 -1.67883591e-005
      -1.65881502e-005 -1.65599940e-005 -1.69054383e-005
      -1.66550763e-005 -1.84452801e-005 -1.67030121e-005
      -3.75687596e-005 -8.32106307e-005 -3.78484447e-006
      -1.25725637e-004 -1.28344036e-004 -1.78393326e-004
      -3.44067783e-004 -5.41887421e-004 -6.07809226e-004
      -4.77563532e-004 -2.61142675e-004 -6.19586935e-005 4.86237332e-005
      7.86378077e-005 -7.99884656e-005 1.18294474e-005 -1.72413038e-005
      -1.75761179e-005 -1.67883591e-005 -1.67883591e-005
      -1.67883591e-005 -1.67883591e-005 -1.64283156e-005
      -1.71539250e-005 -1.73857443e-005 -1.54839490e-005
      -1.74959532e-005 -1.59655447e-005 -3.62968531e-005
      -6.80963349e-005 4.70282503e-005 6.72598326e-005 2.39167464e-004
      3.69208516e-004 3.01349646e-004 5.92108190e-005 -2.12979910e-004
      -3.82465776e-004 -4.29211534e-004 -3.25492350e-004
      -1.47106199e-004 6.15433919e-007 -1.01871083e-004 9.13537951e-006
      -1.58871280e-005 -1.71010161e-005 -1.67883591e-005
      -1.67883591e-005 -1.67883591e-005 -1.67883591e-005
      -1.62561737e-005 -1.68118841e-005 -1.65078491e-005
      -1.58788098e-005 -1.73662447e-005 -1.63309851e-005
      -3.56101664e-005 -5.91205207e-005 9.80831828e-005 2.30062113e-004
      5.34739695e-004 8.09432764e-004 8.41159432e-004 6.26717752e-004
      2.52554630e-004 -1.51708955e-004 -4.47029423e-004 -4.77582216e-004
      -2.84654059e-004 -5.91010576e-005 -1.15795337e-004 7.44364115e-006
      -1.59164829e-005 -1.93209380e-005 -1.67883591e-005
      -1.67883591e-005 -1.67883591e-005 -1.67883591e-005
      -1.70126896e-005 -1.67360413e-005 -1.64015000e-005
      -1.70776984e-005 -1.86886227e-005 -1.79147046e-005
      -3.44669643e-005 -5.53440732e-005 1.34876478e-004 3.14378005e-004
      6.93564070e-004 1.05220091e-003 1.14527706e-003 9.56189353e-004
      5.47790434e-004 1.65998954e-005 -4.06019622e-004 -5.37053507e-004
      -3.59172293e-004 -9.64842984e-005 -1.26250234e-004 5.17689114e-006
      -1.75005734e-005 -1.96061810e-005 -1.67883591e-005
      -1.67883591e-005 -1.67883591e-005 -1.67883591e-005
      -1.72755390e-005 -1.83748944e-005 -1.62376837e-005
      -1.66531463e-005 -1.65576530e-005 -1.80509614e-005
      -3.48201429e-005 -5.97674189e-005 1.52536653e-004 3.44337663e-004
      7.39829440e-004 1.09694211e-003 1.19354343e-003 1.00355118e-003
      6.06584887e-004 6.72126262e-005 -3.71671631e-004 -5.32157428e-004
      -4.01837926e-004 -1.31419001e-004 -1.33820722e-004 3.07963023e-006
      -1.76929952e-005 -1.54108311e-005 -1.67883591e-005
      -1.67883591e-005 -1.67883591e-005 -1.67883591e-005
      -1.65385063e-005 -1.72029650e-005 -1.63470904e-005
      -1.78924565e-005 -1.77356542e-005 -1.68309834e-005
      -4.17645279e-005 -7.33992347e-005 1.40819830e-004 3.24616092e-004
      6.80958910e-004 9.63885919e-004 1.01930765e-003 8.32483231e-004
      4.78833477e-004 -3.20212189e-006 -3.85530497e-004 -5.20727946e-004
      -4.08727268e-004 -1.46696984e-004 -1.39226191e-004
      -3.19437299e-006 -1.75053119e-005 -1.53566725e-005
      -1.67883591e-005 -1.67883591e-005 -1.67883591e-005
      -1.67883591e-005 -1.66259397e-005 -1.72386372e-005
      -1.62853230e-005 -1.80928164e-005 -1.65054153e-005
      -1.64181965e-005 -6.12098302e-005 -1.08035361e-004 9.32457042e-005
      2.45298608e-004 5.36344654e-004 7.23391015e-004 7.29501422e-004
      5.57909370e-004 2.67985801e-004 -1.26082829e-004 -4.12845751e-004
      -5.02380833e-004 -4.04854043e-004 -1.54983936e-004
      -1.37555995e-004 -1.15190210e-006 -1.55506877e-005
      -1.64881294e-005 -1.67883591e-005 -1.67883591e-005
      -1.67883591e-005 -1.67883591e-005 -1.68387651e-005
      -1.71548018e-005 -1.64547910e-005 -1.77724723e-005
      -1.62358392e-005 -1.54915688e-005 -7.21280667e-005
      -1.26609404e-004 4.15695213e-005 1.15031151e-004 2.96203303e-004
      3.83590872e-004 3.65704036e-004 2.55085382e-004 6.21196668e-005
      -2.14524509e-004 -4.27560590e-004 -4.72001906e-004
      -3.81220452e-004 -1.53479210e-004 -1.32324159e-004 1.43307182e-006
      -1.51671047e-005 -1.80286061e-005 -1.67883591e-005
      -1.67883591e-005 -1.67883591e-005 -1.67883591e-005
      -1.73761218e-005 -1.77071579e-005 -1.59294432e-005
      -1.75419682e-005 -1.65998972e-005 -1.71193169e-005
      -7.31916371e-005 -1.30460365e-004 1.89716445e-006 -2.48279957e-006
      6.79272562e-005 7.59731847e-005 5.30939906e-005 3.24096141e-006
      -8.97407808e-005 -2.55649124e-004 -3.75466596e-004
      -3.86274623e-004 -3.09135794e-004 -1.31990004e-004
      -1.26722109e-004 3.64931481e-007 -1.53832661e-005 -1.85033659e-005
      -1.67883591e-005 -1.67883591e-005 -1.67883591e-005
      -1.67883591e-005 -1.66106074e-005 -1.80583720e-005
      -1.73043863e-005 -1.71188294e-005 -1.68723582e-005
      -2.00585291e-005 -7.13526606e-005 -1.36663250e-004
      -1.98322559e-005 -4.98934751e-005 -3.89473171e-005
      -7.68492755e-005 -9.81056146e-005 -1.10665911e-004
      -1.30576780e-004 -2.12764222e-004 -2.70955119e-004
      -2.57704232e-004 -2.06734330e-004 -1.05243002e-004
      -1.19031567e-004 -3.97069880e-006 -1.57543363e-005
      -1.81070518e-005 -1.67883591e-005 -1.67883591e-005
      -1.67883591e-005 -1.67883591e-005 -1.68073584e-005
      -1.86770740e-005 -1.73820627e-005 -1.77299007e-005
      -1.59921146e-005 -1.73623685e-005 -6.38942656e-005
      -1.53895453e-004 -5.15691572e-005 -9.09056325e-005
      -1.01589569e-004 -1.53250789e-004 -1.60705153e-004
      -1.47436222e-004 -1.18794102e-004 -1.35946946e-004
      -1.61339005e-004 -1.35439812e-004 -1.22091646e-004
      -8.90838419e-005 -1.11092675e-004 -4.98451573e-006
      -1.78435275e-005 -1.62676297e-005 -1.67883591e-005
      -1.67883591e-005 -1.67883591e-005 -1.67883591e-005
      -1.85933113e-005 -1.71864358e-005 -1.81003979e-005
      -1.84558048e-005 -1.61948519e-005 -1.61762273e-005
      -6.34048047e-005 -1.77951282e-004 -1.21144134e-004
      -1.59297764e-004 -1.49242638e-004 -1.74909786e-004
      -1.60347263e-004 -1.35399008e-004 -9.48708766e-005
      -8.74881298e-005 -9.12633113e-005 -6.15644531e-005
      -7.77940222e-005 -7.85161465e-005 -1.00509023e-004
      -6.24729273e-006 -1.78783375e-005 -1.56834158e-005
      -1.67883591e-005 -1.67883591e-005 -1.67883591e-005
      -1.67883591e-005 -1.78766131e-005 -1.83215270e-005
      -1.72486725e-005 -1.84110977e-005 -1.73044500e-005
      -2.07618868e-005 -5.33677012e-005 -2.04609765e-004
      -1.98205962e-004 -2.49356352e-004 -2.04026233e-004
      -2.05084114e-004 -1.79049806e-004 -1.27766602e-004
      -8.98249564e-005 -8.55112012e-005 -8.55978724e-005
      -5.74817022e-005 -9.69850516e-005 -7.74000218e-005
      -9.57380253e-005 -5.51918129e-006 -1.65170459e-005
      -1.94217664e-005 -1.67883591e-005 -1.67883591e-005
      -1.67883591e-005 -1.67883591e-005 -1.77202928e-005
      -1.71615102e-005 -1.62674369e-005 -2.08777965e-005
      -1.76130034e-005 -2.01884886e-005 -5.44251052e-005
      -2.82501336e-004 -3.22444277e-004 -3.93219059e-004
      -3.38046433e-004 -3.21600761e-004 -2.86171562e-004
      -2.37788263e-004 -2.00613547e-004 -1.85624114e-004
      -1.69883628e-004 -1.42587669e-004 -1.99141476e-004
      -1.29444699e-004 -1.17620977e-004 -1.07333753e-005
      -2.40692916e-005 -1.51263093e-005 -1.67883591e-005
      -1.67883591e-005 -1.67883591e-005 -1.67883591e-005
      -1.80474144e-005 -1.64134017e-005 -1.89773564e-005
      -1.86318666e-005 -1.82985877e-005 -1.90235132e-005
      -1.96288147e-005 -1.54181016e-005 -1.91845793e-005
      -1.76292178e-005 -1.82267086e-005 -1.67121889e-005
      -1.32962650e-005 -1.38348732e-005 -1.51518507e-005
      -1.65215570e-005 -1.27388466e-005 -2.02540105e-005
      -1.23731234e-005 -1.57343584e-005 -1.85096160e-005
      -1.70805270e-005 -1.63026398e-005 -2.01318562e-005
      -1.67883591e-005 -1.67883591e-005 -1.67883591e-005
      -1.67883591e-005 -1.83643497e-005 -1.76511094e-005
      -1.92475873e-005 -1.66934005e-005 -1.86327397e-005
      -1.79620001e-005 -1.66670779e-005 -1.85020181e-005
      -1.46873799e-005 -1.73963836e-005 -1.62318211e-005
      -1.71799311e-005 -1.72705550e-005 -1.58181392e-005
      -1.68508741e-005 -1.52688244e-005 -1.85661756e-005
      -1.77891143e-005 -1.93949563e-005 -1.58644834e-005
      -1.69991436e-005 -1.74857305e-005 -1.73173121e-005
      -1.57172162e-005 -1.67883591e-005 -1.67883591e-005
      -1.67883591e-005 -1.67883591e-005 -7.39658077e-008
      -1.99094993e-005 -1.67682028e-005 -1.93354972e-005
      -1.77820111e-005 -1.88708927e-005 -1.83082539e-005
      -1.90624942e-005 -2.01307539e-005 -1.75061468e-005
      -1.87889091e-005 -1.87582191e-005 -1.68781698e-005
      -1.77925594e-005 -2.06692566e-005 -1.89525454e-005
      -1.95646280e-005 -1.86602047e-005 -1.38920523e-005
      -1.80665502e-005 -1.97059471e-005 -1.91437612e-005
      -1.68207716e-005 -1.83523025e-005 -1.82095500e-005
      -1.88612630e-005 -1.88612630e-005 -1.88612630e-005
      -1.88612630e-005 -1.80895277e-005 -1.67767630e-005
      -2.08802230e-005 -1.69917639e-005 -1.87649057e-005
      -2.02296305e-005 4.33788700e-005 8.85089976e-005 2.11147038e-004
      3.38939397e-004 3.74198804e-004 3.58057237e-004 3.41931503e-004
      3.22312757e-004 3.08677641e-004 2.95930309e-004 2.98673112e-004
      3.11621232e-004 2.77289859e-004 1.54809954e-004 -2.41554318e-007
      1.34293623e-005 -1.89825350e-005 -1.55794987e-005 -1.88612630e-005
      -1.88612630e-005 -1.88612630e-005 -1.88612630e-005
      -1.91063864e-005 -1.54666031e-005 -1.67626695e-005
      -1.90562660e-005 -1.69840987e-005 -1.91800136e-005 3.25358342e-005
      5.86680762e-005 1.74917659e-004 3.09122639e-004 3.41182400e-004
      3.34983517e-004 2.94102327e-004 2.63019669e-004 2.31727623e-004
      2.13606720e-004 2.12358937e-004 2.20448332e-004 1.79929673e-004
      8.31165307e-005 -2.43542636e-005 8.14748637e-006 -2.14921583e-005
      -1.52673765e-005 -1.88612630e-005 -1.88612630e-005
      -1.88612630e-005 -1.88612630e-005 -1.88540562e-005
      -2.05549040e-005 -1.65904003e-005 -1.93489068e-005
      -1.93478518e-005 -1.94291606e-005 2.99863677e-005 5.95644997e-005
      1.45815473e-004 2.69831013e-004 3.10092728e-004 2.82851397e-004
      2.21302835e-004 1.94043590e-004 1.54084715e-004 1.22669764e-004
      1.26049083e-004 1.53546978e-004 1.30651300e-004 5.38659260e-005
      -2.71892732e-005 1.90405376e-006 -1.41090541e-005 -1.73992303e-005
      -1.88612630e-005 -1.88612630e-005 -1.88612630e-005
      -1.88612630e-005 -1.84587516e-005 -1.90260162e-005
      -1.75405694e-005 -1.91741165e-005 -2.24221985e-005
      -1.60375785e-005 3.55734555e-005 5.34927531e-005 1.20585231e-004
      2.33848026e-004 2.48120487e-004 1.86584191e-004 1.37146810e-004
      1.34899063e-004 1.16187417e-004 9.02393440e-005 6.95816852e-005
      1.05856125e-004 8.49574499e-005 2.04834560e-005 -4.44348589e-005
      -2.22575181e-007 -1.36459794e-005 -1.88801878e-005
      -1.88612630e-005 -1.88612630e-005 -1.88612630e-005
      -1.88612630e-005 -2.11842162e-005 -1.83713873e-005
      -2.07398662e-005 -1.64484154e-005 -2.02720130e-005
      -1.77479687e-005 3.28778333e-005 4.49102117e-005 1.07501633e-004
      2.07592428e-004 1.84194258e-004 8.52637022e-005 4.78918009e-005
      9.37677905e-005 1.42698264e-004 1.73046486e-004 1.87451849e-004
      1.73063541e-004 9.81202757e-005 1.85426361e-005 -4.11890142e-005
      7.63653134e-006 -1.74265133e-005 -1.74850302e-005 -1.88612630e-005
      -1.88612630e-005 -1.88612630e-005 -1.88612630e-005
      -1.88498470e-005 -1.79296985e-005 -1.83953944e-005
      -1.93341439e-005 -2.00887680e-005 -1.87869464e-005 3.35416007e-005
      3.03044271e-005 9.32022958e-005 1.66545098e-004 1.00410616e-004
      -3.33436437e-005 -2.30072783e-005 1.04870167e-004 2.59384513e-004
      3.91335954e-004 4.29328560e-004 3.69742193e-004 2.10291255e-004
      4.86111312e-005 -2.25897202e-005 1.08643417e-005 -1.59213723e-005
      -1.92787375e-005 -1.88612630e-005 -1.88612630e-005
      -1.88612630e-005 -1.88612630e-005 -1.99204060e-005
      -1.72033378e-005 -1.98610815e-005 -1.76427693e-005
      -1.86217567e-005 -1.90929750e-005 1.98271191e-005 1.20897566e-005
      7.40668474e-005 1.00880548e-004 -1.01111482e-005 -1.62581113e-004
      -9.94647344e-005 1.14941235e-004 3.68079287e-004 5.99125226e-004
      6.93011039e-004 5.95760881e-004 3.49416950e-004 1.04070969e-004
      -1.46426883e-005 8.12246526e-006 -1.66343707e-005 -1.85803601e-005
      -1.88612630e-005 -1.88612630e-005 -1.88612630e-005
      -1.88612630e-005 -1.96600013e-005 -1.77847323e-005
      -1.85073040e-005 -1.92747211e-005 -1.91435502e-005
      -1.96785459e-005 1.43152520e-005 -1.17279897e-005 3.68135661e-005
      1.75167297e-005 -1.38782314e-004 -2.93957244e-004 -1.97851026e-004
      7.37845257e-005 3.93801602e-004 7.24402897e-004 8.95718869e-004
      8.20312009e-004 4.81830270e-004 1.72987129e-004 -1.38161931e-005
      9.56546774e-006 -1.99982642e-005 -1.78997707e-005 -1.88612630e-005
      -1.88612630e-005 -1.88612630e-005 -1.88612630e-005
      -1.88522372e-005 -1.86596844e-005 -1.85424069e-005
      -1.92387579e-005 -1.89026032e-005 -1.90575611e-005 5.32334525e-006
      -2.99654894e-005 -6.35168476e-007 -6.21518702e-005
      -2.55018880e-004 -4.41862765e-004 -3.59721307e-004
      -8.91508098e-005 2.64291099e-004 6.86516520e-004 9.42896935e-004
      8.96173180e-004 5.53305901e-004 2.06542230e-004 -8.15781550e-006
      6.72960414e-006 -2.08670208e-005 -2.16420704e-005 -1.88612630e-005
      -1.88612630e-005 -1.88612630e-005 -1.88612630e-005
      -1.82791082e-005 -1.81936666e-005 -1.81451996e-005
      -1.91068557e-005 -1.80151565e-005 -1.85977151e-005
      -2.21336109e-006 -4.82566429e-005 -3.11865115e-005
      -1.18170778e-004 -3.32100346e-004 -5.53677732e-004
      -5.27585566e-004 -3.20196385e-004 -1.52093526e-006 4.68780083e-004
      7.86520541e-004 8.07722099e-004 5.17269305e-004 1.79447597e-004
      -2.00968025e-005 1.50303686e-006 -1.96756409e-005 -1.82189524e-005
      -1.88612630e-005 -1.88612630e-005 -1.88612630e-005
      -1.88612630e-005 -1.94036220e-005 -1.83045850e-005
      -1.79997060e-005 -1.93181622e-005 -1.75075747e-005
      -1.86179204e-005 -3.59547971e-006 -5.94557278e-005
      -6.37006524e-005 -1.63609904e-004 -3.91000882e-004
      -6.21319690e-004 -6.35473349e-004 -4.90455830e-004
      -2.55701714e-004 1.44541817e-004 4.62741475e-004 5.57343301e-004
      3.77367687e-004 1.11070367e-004 -3.31644260e-005 -3.09734332e-006
      -2.03111904e-005 -2.05933247e-005 -1.88612630e-005
      -1.88612630e-005 -1.88612630e-005 -1.88612630e-005
      -1.87182668e-005 -1.82320782e-005 -1.91326635e-005
      -1.92597054e-005 -1.79589424e-005 -1.93340293e-005
      -6.11194196e-007 -6.88511500e-005 -8.11347418e-005
      -1.98689784e-004 -4.49648040e-004 -6.53024588e-004
      -6.56736083e-004 -5.18560351e-004 -3.73661635e-004
      -1.54428591e-004 7.93138752e-005 2.16814471e-004 1.81686526e-004
      2.57287447e-005 -4.60833762e-005 -5.12098495e-006 -2.07757803e-005
      -2.12431714e-005 -1.88612630e-005 -1.88612630e-005
      -1.88612630e-005 -1.88612630e-005 -1.88288977e-005
      -1.84460187e-005 -1.95257835e-005 -1.93466039e-005
      -1.82402655e-005 -1.85571498e-005 4.68638200e-006 -7.87081590e-005
      -9.74805225e-005 -2.37173212e-004 -5.07144548e-004
      -6.52010378e-004 -5.71227632e-004 -3.65428656e-004
      -2.89865449e-004 -2.85943912e-004 -2.26505828e-004
      -1.09779896e-004 -2.68154945e-005 -7.18820811e-005
      -6.59708821e-005 -1.21599296e-005 -2.08770944e-005
      -1.96453493e-005 -1.88612630e-005 -1.88612630e-005
      -1.88612630e-005 -1.88612630e-005 -1.87854130e-005
      -1.86395519e-005 -1.96118817e-005 -1.90741830e-005
      -1.80598981e-005 -1.94604927e-005 7.58220949e-006 -9.19229205e-005
      -1.27013758e-004 -2.82777910e-004 -5.63814596e-004
      -6.41802733e-004 -4.29818669e-004 -9.95460869e-005
      -5.46525589e-005 -2.36639899e-004 -3.68616806e-004
      -3.28073365e-004 -1.87051890e-004 -1.51791464e-004
      -8.58305284e-005 -1.77844358e-005 -1.94626518e-005
      -1.94250715e-005 -1.88612630e-005 -1.88612630e-005
      -1.88612630e-005 -1.88612630e-005 -1.85114477e-005
      -1.83720167e-005 -1.96514520e-005 -1.91603158e-005
      -1.84172277e-005 -1.91993950e-005 9.05595243e-006 -1.05040359e-004
      -1.50299893e-004 -3.13198572e-004 -5.87686314e-004
      -6.13355311e-004 -2.89473392e-004 1.47125509e-004 1.78208065e-004
      -1.17547905e-004 -4.15536342e-004 -4.43933066e-004
      -2.81185494e-004 -2.01700415e-004 -9.91231282e-005
      -1.89574930e-005 -1.87260339e-005 -2.00575123e-005
      -1.88612630e-005 -1.88612630e-005 -1.88612630e-005
      -1.88612630e-005 -1.97771224e-005 -1.72387336e-005
      -2.08431138e-005 -1.80974585e-005 -1.92841489e-005
      -2.04233274e-005 3.02659896e-006 -1.20100172e-004 -1.71363106e-004
      -3.36393452e-004 -6.07067137e-004 -5.97302802e-004
      -2.02532072e-004 2.95634149e-004 3.40570055e-004 1.05483332e-005
      -3.64780513e-004 -4.82505246e-004 -3.09128169e-004
      -2.23580340e-004 -1.13798698e-004 -1.87402384e-005
      -1.90964347e-005 -1.91012532e-005 -1.88612630e-005
      -1.88612630e-005 -1.88612630e-005 -1.88612630e-005
      -1.92681928e-005 -1.81778942e-005 -1.93841461e-005
      -1.87917940e-005 -1.94385448e-005 -1.98471334e-005
      -4.20674269e-006 -1.33742084e-004 -1.68621133e-004
      -3.24945984e-004 -5.92080003e-004 -5.73406112e-004
      -1.91753265e-004 3.00738087e-004 3.62888240e-004 6.19785860e-005
      -3.35802906e-004 -4.37817798e-004 -2.86799448e-004
      -2.27695986e-004 -1.25663573e-004 -1.91080326e-005
      -1.88561844e-005 -1.96899491e-005 -1.88612630e-005
      -1.88612630e-005 -1.88612630e-005 -1.88612630e-005
      -1.88290614e-005 -1.99358292e-005 -1.83593565e-005
      -1.88419490e-005 -1.94063596e-005 -1.90666397e-005
      -1.74335109e-005 -1.46456150e-004 -1.63249235e-004
      -2.76826206e-004 -5.31352416e-004 -5.46539959e-004
      -2.45790434e-004 1.83419092e-004 2.52808764e-004 -1.13786664e-005
      -3.31032206e-004 -3.85172782e-004 -2.37666332e-004
      -2.11516366e-004 -1.32328903e-004 -1.67798407e-005
      -1.91593044e-005 -1.95927714e-005 -1.88612630e-005
      -1.88612630e-005 -1.88612630e-005 -1.88612630e-005
      -1.97647478e-005 -1.99672468e-005 -1.84136552e-005
      -1.92780772e-005 -1.92938260e-005 -1.81607065e-005
      -3.12910306e-005 -1.48673207e-004 -1.19928991e-004
      -1.72582309e-004 -3.96903110e-004 -4.59001982e-004
      -2.76366336e-004 4.96598877e-005 1.11699090e-004 -1.05436673e-004
      -3.24310560e-004 -3.19228915e-004 -1.74594708e-004
      -1.80145144e-004 -1.25172155e-004 -1.34951306e-005
      -1.98603266e-005 -1.97645077e-005 -1.88612630e-005
      -1.88612630e-005 -1.88612630e-005 -1.88612630e-005
      -1.88216509e-005 -1.98173111e-005 -1.84693836e-005
      -1.99467813e-005 -1.91570289e-005 -1.92683619e-005
      -4.19752250e-005 -1.41095530e-004 -7.38174058e-005
      -6.86232743e-005 -2.34237436e-004 -3.21908708e-004
      -2.44250667e-004 -4.05557876e-005 3.27560701e-006 -1.47626983e-004
