<?xml version="1.0"?>
<opencv_storage>
<opencv_ml_lr>
  <format>3</format>
  <classifier>"Logisitic Regression Classifier"</classifier>
  <alpha>1.0000000000000000e-003</alpha>
  <iterations>1000</iterations>
  <norm>1</norm>
  <train_method>0</train_method>
  <learnt_thetas type_id="opencv-matrix">
    <rows>25</rows>
    <cols>785</cols>
    <dt>f</dt>
    <data>
      -9.04630468e-008 -2.41649523e-005 -1.88199228e-005
      -2.20786023e-005 -2.17407833e-005 -2.54985789e-005
      -1.89633338e-005 -2.11989227e-005 -2.36122705e-005
      -2.78263869e-005 -1.63772329e-005 -2.20661859e-005
      -2.86021059e-005 -1.89769107e-005 -2.64086084e-005
      -2.03447053e-005 -2.38982775e-005 -2.16464432e-005
      -2.22317976e-005 -1.88389058e-005 -2.35288262e-005
      -1.82291878e-005 -2.03279651e-005 -3.03232046e-005
      -1.78840382e-005 -2.30680816e-005 -2.30680816e-005
      -2.30680816e-005 -2.30680816e-005 -2.26245920e-005
      -1.90781520e-005 -2.20989186e-005 -2.26511966e-005
      -1.98035759e-005 -2.05016040e-005 8.14334271e-005 2.61905254e-004
      4.27117862e-004 5.75592334e-004 6.11868454e-004 6.29831338e-004
      6.11934171e-004 5.66003437e-004 5.23865048e-004 5.11799648e-004
      5.20505419e-004 5.23356488e-004 4.19703050e-004 3.58567981e-004
      1.60028270e-004 4.15574214e-005 -2.07593512e-005 -1.97200243e-005
      -2.30680816e-005 -2.30680816e-005 -2.30680816e-005
      -2.30680816e-005 -1.80124807e-005 -2.51386937e-005
      -1.66579302e-005 -1.73201915e-005 -2.52186983e-005
      -2.06564400e-005 5.11033686e-005 1.83338387e-004 3.32641648e-004
      4.85057884e-004 5.12960192e-004 5.18642133e-004 4.52593609e-004
      3.97298485e-004 3.41689418e-004 3.35782825e-004 3.65998771e-004
      4.29851672e-004 3.34353070e-004 3.21342755e-004 1.19974859e-004
      3.13284982e-005 -2.50166577e-005 -1.86413181e-005 -2.30680816e-005
      -2.30680816e-005 -2.30680816e-005 -2.30680816e-005
      -2.30780388e-005 -2.18234600e-005 -2.19984631e-005
      -2.19289414e-005 -2.03128748e-005 -1.66344471e-005 1.53419478e-005
      1.27349544e-004 2.45624280e-004 4.11650602e-004 4.22874815e-004
      3.54541320e-004 2.42534181e-004 1.77487775e-004 1.29992492e-004
      1.40175063e-004 1.94966764e-004 3.06715141e-004 2.84206966e-004
      3.01981199e-004 1.03988263e-004 2.60048182e-005 -2.20254387e-005
      -2.22509734e-005 -2.30680816e-005 -2.30680816e-005
      -2.30680816e-005 -2.30680816e-005 -2.25904587e-005
      -1.84656074e-005 -2.23759234e-005 -2.27429264e-005
      -1.79408071e-005 -2.60756533e-005 -9.27236033e-006 1.10543195e-004
      2.26864882e-004 3.84850777e-004 3.49266367e-004 2.14872605e-004
      8.94279074e-005 4.29173670e-005 -3.99463124e-006 -3.22586639e-005
      3.59065125e-005 1.95180051e-004 2.53076549e-004 3.06203612e-004
      9.47913722e-005 1.92414227e-005 -1.78632599e-005 -2.44162402e-005
      -2.30680816e-005 -2.30680816e-005 -2.30680816e-005
      -2.30680816e-005 -2.09752507e-005 -2.19594640e-005
      -1.78390601e-005 -2.34682575e-005 -1.93175383e-005
      -2.16665703e-005 -1.76789235e-005 1.11388712e-004 1.94017572e-004
      2.95330508e-004 1.87776444e-004 -2.14396568e-005 -7.98691472e-005
      -2.60431589e-005 -6.18315971e-005 -1.83008931e-004
      -2.10923768e-004 1.54119807e-005 1.51848828e-004 2.74098507e-004
      8.12327344e-005 1.94102740e-005 -1.98353609e-005 -2.02841547e-005
      -2.30680816e-005 -2.30680816e-005 -2.30680816e-005
      -2.30680816e-005 -1.92366351e-005 -2.19423091e-005
      -1.89811472e-005 -2.39402507e-005 -2.26001903e-005
      -2.03210093e-005 -2.39049914e-005 1.08777800e-004 1.50650638e-004
      1.34132730e-004 -8.76865815e-005 -3.14279809e-004 -2.07546109e-004
      3.77754586e-005 3.41708583e-005 -2.88038049e-004 -4.96806286e-004
      -2.99137231e-004 -5.85438029e-005 2.24146337e-004 7.73490901e-005
      2.95030331e-005 -2.09415921e-005 -2.55436189e-005 -2.30680816e-005
      -2.30680816e-005 -2.30680816e-005 -2.30680816e-005
      -2.30771129e-005 -2.08314777e-005 -1.84918663e-005
      -2.38855100e-005 -2.02304727e-005 -2.34854688e-005
      -9.12280484e-006 9.80439727e-005 1.00573539e-004 -1.04851197e-005
      -3.26488953e-004 -5.37055079e-004 -2.13298088e-004 2.25082913e-004
      2.40404115e-004 -2.57962442e-004 -7.06743682e-004 -5.54252299e-004
      -2.36646913e-004 1.37658251e-004 6.89950684e-005 2.70600285e-005
      -2.52259979e-005 -2.38287867e-005 -2.30680816e-005
      -2.30680816e-005 -2.30680816e-005 -2.30680816e-005
      -2.33624341e-005 -2.27088058e-005 -2.31429021e-005
      -2.26509783e-005 -2.21523605e-005 -2.04481348e-005
      -7.16843215e-006 8.33152735e-005 5.32434678e-005 -1.57836097e-004
      -4.97107685e-004 -6.93267735e-004 -1.80186456e-004 4.33397101e-004
      4.31085733e-004 -2.00713825e-004 -8.31994868e-004 -7.72700703e-004
      -3.87006265e-004 1.02368736e-004 7.45488287e-005 2.84963444e-005
      -2.15542896e-005 -2.21593509e-005 -2.30680816e-005
      -2.30680816e-005 -2.30680816e-005 -2.30680816e-005
      -2.32917719e-005 -2.17766683e-005 -2.38333832e-005
      -2.30006899e-005 -2.32293150e-005 -2.26744069e-005
      -7.79180573e-006 7.44827339e-005 4.62457410e-006 -2.45756644e-004
      -5.94070589e-004 -7.31719658e-004 -9.43766718e-005 6.22876803e-004
      6.12934004e-004 -8.69541836e-005 -8.69730953e-004 -8.56263156e-004
      -4.75830486e-004 5.99065388e-005 6.95287526e-005 2.85868082e-005
      -2.19126396e-005 -2.25755757e-005 -2.30680816e-005
      -2.30680816e-005 -2.30680816e-005 -2.30680816e-005
      -2.33847786e-005 -2.22815925e-005 -2.33819665e-005
      -2.35797797e-005 -2.36111737e-005 -2.30890764e-005
      -1.21748553e-005 5.90921300e-005 -1.92722146e-005 -3.07224662e-004
      -6.61293569e-004 -7.24150043e-004 4.59853545e-005 9.09675146e-004
      9.15493001e-004 1.28011248e-004 -7.96486682e-004 -8.79776780e-004
      -5.39282046e-004 1.45298609e-005 5.94138583e-005 2.59670796e-005
      -1.95012017e-005 -2.32685652e-005 -2.30680816e-005
      -2.30680816e-005 -2.30680816e-005 -2.30680816e-005
      -2.27234468e-005 -2.26550528e-005 -2.24192572e-005
      -2.20208203e-005 -2.12426003e-005 -2.20501333e-005
      -1.92097377e-005 3.83834304e-005 -4.76646346e-005 -3.51771276e-004
      -6.97447569e-004 -6.98193384e-004 1.88247985e-004 1.19603181e-003
      1.24209851e-003 3.88214918e-004 -6.37557241e-004 -8.26871314e-004
      -5.50585974e-004 -1.75652276e-005 4.63383913e-005 2.36235501e-005
      -2.07307257e-005 -1.97983190e-005 -2.30680816e-005
      -2.30680816e-005 -2.30680816e-005 -2.30680816e-005
      -2.27133314e-005 -2.26144130e-005 -2.30548048e-005
      -2.27258624e-005 -2.14073261e-005 -2.19365484e-005
      -2.37674303e-005 1.31659617e-005 -8.55278922e-005 -4.00356104e-004
      -7.50275969e-004 -7.07136234e-004 2.90273543e-004 1.43001438e-003
      1.52865460e-003 6.53722323e-004 -4.67277423e-004 -7.54575536e-004
      -5.43069793e-004 -5.57253152e-005 2.73992646e-005 1.85653789e-005
      -2.02677911e-005 -2.34418094e-005 -2.30680816e-005
      -2.30680816e-005 -2.30680816e-005 -2.30680816e-005
      -2.28186054e-005 -2.27502314e-005 -2.37386357e-005
      -2.24271280e-005 -2.21172941e-005 -2.23782718e-005
      -2.40596946e-005 -9.88140437e-006 -1.23151811e-004
      -4.69551276e-004 -8.47023213e-004 -7.83172960e-004 2.81910994e-004
      1.50003273e-003 1.63939223e-003 7.86099466e-004 -3.53772775e-004
      -6.87286491e-004 -5.28071134e-004 -9.76696247e-005 9.42762745e-006
      9.39121037e-006 -2.11564875e-005 -2.17625984e-005 -2.30680816e-005
      -2.30680816e-005 -2.30680816e-005 -2.30680816e-005
      -2.32871353e-005 -2.36221422e-005 -2.36549276e-005
      -2.33318024e-005 -2.20862112e-005 -2.20528200e-005
      -3.04656332e-005 -2.88811661e-005 -1.74293164e-004
      -5.60304034e-004 -9.79921198e-004 -9.36496712e-004 1.36463306e-004
      1.36450049e-003 1.53748877e-003 7.58296927e-004 -3.22042877e-004
      -6.42712635e-004 -4.91712592e-004 -1.24268467e-004 2.78529853e-007
      3.65957408e-006 -2.06726654e-005 -2.35163152e-005 -2.30680816e-005
      -2.30680816e-005 -2.30680816e-005 -2.30680816e-005
      -2.16062544e-005 -2.30604528e-005 -2.35460539e-005
      -2.38329740e-005 -2.03810250e-005 -2.10466660e-005
      -3.65499582e-005 -3.94791641e-005 -2.03700227e-004
      -6.10526127e-004 -1.07963034e-003 -1.09941163e-003
      -8.31703801e-005 1.10891066e-003 1.30296638e-003 6.19247265e-004
      -3.31410905e-004 -6.13934419e-004 -4.57201415e-004
      -1.29151667e-004 -9.52227492e-006 -4.65326337e-007
      -2.48571432e-005 -2.20056827e-005 -2.30680816e-005
      -2.30680816e-005 -2.30680816e-005 -2.30680816e-005
      -2.21772843e-005 -1.88729664e-005 -2.44229195e-005
      -2.04891876e-005 -2.26866687e-005 -2.04334974e-005
      -3.78030127e-005 -4.06910076e-005 -2.02977360e-004
      -6.33383053e-004 -1.09974749e-003 -1.18785026e-003
      -2.97382649e-004 8.03881383e-004 9.96169867e-004 4.47923871e-004
      -3.67078464e-004 -5.79849759e-004 -4.25486214e-004
      -1.27379404e-004 -1.24226553e-005 -4.35283027e-006
      -2.89710424e-005 -2.27476103e-005 -2.30680816e-005
      -2.30680816e-005 -2.30680816e-005 -2.30680816e-005
      -2.38150133e-005 -1.98982798e-005 -2.38775538e-005
      -2.07415924e-005 -2.32768998e-005 -1.99983406e-005
      -3.61857383e-005 -3.85705789e-005 -1.75945868e-004
      -5.55291190e-004 -1.01358315e-003 -1.18489109e-003
      -4.45148995e-004 5.26685617e-004 7.24307902e-004 2.61854089e-004
      -3.89157183e-004 -5.55481471e-004 -3.94431961e-004
      -1.03550432e-004 -8.75833393e-006 -6.04044408e-006
      -2.50149133e-005 -2.11873157e-005 -2.30680816e-005
      -2.30680816e-005 -2.30680816e-005 -2.30680816e-005
      -2.37100394e-005 -2.06485620e-005 -2.32453385e-005
      -2.06288823e-005 -2.43687391e-005 -2.21737173e-005
      -3.53465402e-005 -3.91463946e-005 -1.33658541e-004
      -4.23020276e-004 -8.46925715e-004 -1.08232303e-003
      -5.36543899e-004 2.52003461e-004 4.40750504e-004 9.83247592e-005
      -4.22885380e-004 -5.01785486e-004 -3.28430877e-004
      -6.31068542e-005 8.77560706e-006 -7.73086583e-007 -2.30822880e-005
      -2.14544634e-005 -2.30680816e-005 -2.30680816e-005
      -2.30680816e-005 -2.30680816e-005 -2.30902115e-005
      -2.04180433e-005 -2.35160114e-005 -2.13444382e-005
      -2.32816583e-005 -2.09063328e-005 -3.93317023e-005
      -3.52273019e-005 -8.93427350e-005 -2.63426104e-004
      -6.12141797e-004 -8.49395583e-004 -5.26444870e-004
      -2.20565039e-006 1.41091412e-004 -6.83633771e-005 -4.17583477e-004
      -3.90459347e-004 -2.11404476e-004 -1.29391465e-005 2.57219017e-005
      1.54029055e-006 -1.81291362e-005 -2.36071828e-005 -2.30680816e-005
      -2.30680816e-005 -2.30680816e-005 -2.30680816e-005
      -2.34972122e-005 -2.06198147e-005 -2.11101669e-005
      -2.12581617e-005 -2.28495628e-005 -2.23065581e-005
      -3.80998354e-005 -6.09375411e-006 -4.50931367e-007
      -7.10336608e-005 -3.20225692e-004 -5.06365555e-004
      -3.87047738e-004 -1.46991835e-004 -8.26852774e-005
      -1.61549906e-004 -3.19076935e-004 -2.09564503e-004
      -5.72468198e-005 5.45103030e-005 4.48604478e-005 7.91782531e-006
      -1.97012778e-005 -2.21411337e-005 -2.30680816e-005
      -2.30680816e-005 -2.30680816e-005 -2.30680816e-005
      -2.33264764e-005 -2.22329872e-005 -2.23963707e-005
      -2.33995270e-005 -2.39191231e-005 -2.37750755e-005
      -2.41165890e-005 4.26065562e-005 9.05214110e-005 9.11187381e-005
      -6.77742719e-005 -1.74784276e-004 -1.56108596e-004
      -9.31888935e-005 -8.36627660e-005 -8.95069752e-005
      -9.02830579e-005 2.18641053e-005 1.15032017e-004 1.31157198e-004
      6.83732214e-005 1.74293018e-005 -1.95154953e-005 -2.36253836e-005
      -2.30680816e-005 -2.30680816e-005 -2.30680816e-005
      -2.30680816e-005 -2.31035265e-005 -2.45332849e-005
      -2.16329681e-005 -2.16673798e-005 -2.17206343e-005
      -2.21822775e-005 -1.25207325e-005 7.06357168e-005 1.28572152e-004
      2.01690273e-004 1.32389454e-004 9.40856553e-005 1.03909973e-004
      1.15312083e-004 1.21619458e-004 1.40990349e-004 1.91728890e-004
      2.48294818e-004 2.50324782e-004 1.89033337e-004 7.23718986e-005
      8.40308530e-006 -2.00588111e-005 -2.41037378e-005 -2.30680816e-005
      -2.30680816e-005 -2.30680816e-005 -2.30680816e-005
      -2.35035459e-005 -2.45786123e-005 -2.08343063e-005
      -1.95331104e-005 -2.10648632e-005 -2.39810797e-005
      -1.80213738e-005 6.42472805e-005 7.03222322e-005 1.93041691e-004
      1.71447260e-004 1.64274941e-004 1.92275009e-004 2.10292448e-004
      2.40862122e-004 2.62198853e-004 3.20681022e-004 3.30714131e-004
      2.77791201e-004 1.86307618e-004 4.51354172e-005 -1.53917681e-005
      -2.06669210e-005 -2.19109133e-005 -2.30680816e-005
      -2.30680816e-005 -2.30680816e-005 -2.30680816e-005
      -2.17997040e-005 -2.19770773e-005 -1.84637338e-005
      -2.32540897e-005 -2.33720602e-005 -1.71429710e-005
      -4.49335312e-005 2.99831645e-005 -6.79988516e-005 9.05736742e-005
      9.71983973e-005 1.23906750e-004 1.39105221e-004 2.04466443e-004
      2.34291481e-004 2.40851849e-004 2.58563174e-004 2.45898555e-004
      1.61741016e-004 9.17222496e-005 -1.25106089e-005 -2.71217104e-005
      -2.07248595e-005 -2.41241105e-005 -2.30680816e-005
      -2.30680816e-005 -2.30680816e-005 -2.30680816e-005
      -2.29287780e-005 -1.63211025e-005 -3.04098648e-005
      -2.23829247e-005 -1.35094342e-005 -2.23242332e-005
      -6.41651422e-005 -7.24678321e-005 -4.03563754e-004
      -2.20778325e-004 -1.88041202e-004 -1.62115160e-004
      -1.49544983e-004 -1.16500691e-004 -8.24347590e-005
      -8.29002893e-005 -9.46918008e-005 -9.92778805e-005
      -1.68618077e-004 -1.17464238e-004 -1.11853660e-004
      -2.53172821e-005 -2.58544333e-005 -1.78086975e-005
      -2.30680816e-005 -2.30680816e-005 -2.30680816e-005
      -2.30680816e-005 -2.32087514e-005 -2.11143197e-005
      -1.90757692e-005 -2.61454661e-005 -2.63028160e-005
      -1.98407051e-005 -2.75339989e-005 -1.92567950e-005
      -2.96434810e-005 -1.46811626e-005 -2.20998554e-005
      -2.29936395e-005 -2.65532472e-005 -2.27101700e-005
      -1.96852070e-005 -1.67726375e-005 -2.09128139e-005
      -2.29697598e-005 -2.82878700e-005 -3.11529802e-005
      -1.91794788e-005 -2.12664399e-005 -2.56610310e-005
      -2.70489945e-005 -2.30680816e-005 -2.30680816e-005
      -2.30680816e-005 -2.30680816e-005 -2.26154170e-005
      -2.14160336e-005 -2.26712327e-005 -1.93168435e-005
      -2.18223322e-005 -2.36210763e-005 -1.62676934e-005
      -2.07055236e-005 -2.29187935e-005 -2.02455740e-005
      -2.00735412e-005 -2.09958416e-005 -2.68274453e-005
      -2.30621954e-005 -2.01622715e-005 -2.09460322e-005
      -2.73790902e-005 -2.65470480e-005 -2.56282474e-005
      -2.85255956e-005 -2.22085237e-005 -2.76502451e-005
      -2.89196014e-005 -1.96163637e-005 -2.30680816e-005
      -2.30680816e-005 -2.30680816e-005 -2.30680816e-005
      -2.32873887e-007 -5.64499642e-005 -5.63493304e-005
      -5.63223148e-005 -5.66661511e-005 -5.88819894e-005
      -5.60648841e-005 -5.44373979e-005 -5.13909872e-005
      -5.54272774e-005 -5.86633032e-005 -6.10021780e-005
      -5.60491026e-005 -5.89532647e-005 -6.08574555e-005
      -6.14702076e-005 -5.47861928e-005 -6.19413477e-005
      -5.78030813e-005 -5.74009537e-005 -5.71213532e-005
      -5.68660653e-005 -5.76832899e-005 -5.61028173e-005
      -5.98623301e-005 -5.93828699e-005 -5.93828699e-005
      -5.93828699e-005 -5.93828699e-005 -5.71005658e-005
      -5.68705000e-005 -5.67878014e-005 -5.41172267e-005
      -5.95058737e-005 -5.56690065e-005 2.44005074e-004 1.85002835e-004
      -2.74942577e-004 -6.65200641e-004 -8.72487784e-004
      -6.15642930e-004 -4.70699102e-004 -3.98661970e-004
      -3.40141269e-004 -3.16780235e-004 -2.69408803e-004
      -2.71396828e-004 8.21442300e-005 2.97097635e-004 1.58564013e-004
      -1.38333235e-006 -6.40698781e-005 -5.62582136e-005
      -5.93828699e-005 -5.93828699e-005 -5.93828699e-005
      -5.93828699e-005 -5.63272188e-005 -5.55852530e-005
      -5.39910470e-005 -5.97229555e-005 -5.50570076e-005
      -6.39748541e-005 2.01677773e-004 1.64225567e-004 -2.78065971e-004
      -5.47757954e-004 -6.01310807e-004 -3.16075835e-004
      -1.24275495e-004 -3.85106723e-005 3.56215423e-005 5.97503531e-005
      4.62127209e-005 -1.34343954e-005 2.31357379e-004 2.79367436e-004
      1.37720519e-004 -2.16535609e-005 -6.04373890e-005 -6.49413705e-005
      -5.93828699e-005 -5.93828699e-005 -5.93828699e-005
      -5.93828699e-005 -5.92909419e-005 -5.43317656e-005
      -5.61707275e-005 -6.43374733e-005 -5.59722321e-005
      -5.27685588e-005 1.59737217e-004 1.34529371e-004 -2.49997101e-004
      -4.66421625e-004 -4.61088348e-004 -1.24615137e-004 7.05141138e-005
      1.73803070e-004 3.04716697e-004 3.70243128e-004 3.57211422e-004
      2.73991289e-004 3.66482302e-004 2.88732757e-004 1.55345202e-004
      -2.21831651e-005 -6.16077159e-005 -6.05956593e-005
      -5.93828699e-005 -5.93828699e-005 -5.93828699e-005
      -5.93828699e-005 -5.64340080e-005 -5.95012498e-005
      -5.64840957e-005 -5.90028212e-005 -5.88832409e-005
      -5.50876248e-005 1.34717120e-004 9.65192521e-005 -2.62123067e-004
      -4.50787134e-004 -3.96872987e-004 -1.03919570e-004 6.71531452e-005
      1.60625306e-004 3.26129491e-004 5.12601458e-004 5.60829416e-004
      4.83865617e-004 5.33154351e-004 3.38713406e-004 1.77866154e-004
      -2.87348303e-005 -6.07892180e-005 -5.88890398e-005
      -5.93828699e-005 -5.93828699e-005 -5.93828699e-005
      -5.93828699e-005 -5.35304207e-005 -5.42347989e-005
      -6.14779128e-005 -5.44022041e-005 -5.52678794e-005
      -6.35787655e-005 1.18945798e-004 8.25956013e-005 -2.47003889e-004
      -4.81854368e-004 -4.32593079e-004 -2.02009964e-004
      -1.47797327e-004 -1.63090052e-004 6.49766662e-005 4.22772224e-004
      6.72880094e-004 6.58555480e-004 6.63456332e-004 3.76033189e-004
      1.71492706e-004 -3.42137064e-005 -6.44884640e-005 -6.99089869e-005
      -5.93828699e-005 -5.93828699e-005 -5.93828699e-005
      -5.93828699e-005 -5.80619453e-005 -5.95889869e-005
      -5.42584821e-005 -5.92027427e-005 -5.89887350e-005
      -5.39592002e-005 1.07717984e-004 9.51639304e-005 -2.32053775e-004
      -5.20145171e-004 -4.65592602e-004 -3.23217857e-004
      -4.95864369e-004 -7.10906286e-004 -5.22785936e-004 5.53476202e-005
      6.43996871e-004 7.57920323e-004 7.31200387e-004 3.81675432e-004
      1.59928139e-004 -2.46940435e-005 -5.85883317e-005 -6.17624173e-005
      -5.93828699e-005 -5.93828699e-005 -5.93828699e-005
      -5.93828699e-005 -5.67544121e-005 -5.50588775e-005
      -5.68241594e-005 -5.60403569e-005 -5.53543832e-005
      -5.83353903e-005 8.87137576e-005 1.18467236e-004 -2.03999254e-004
      -4.94327047e-004 -4.51840373e-004 -4.10664565e-004
      -8.08989280e-004 -1.26597343e-003 -1.09879603e-003
      -3.68859037e-004 4.84131451e-004 7.67371967e-004 7.58933485e-004
      3.88728338e-004 1.93343032e-004 -3.34696233e-005 -5.43285787e-005
      -5.99688356e-005 -5.93828699e-005 -5.93828699e-005
      -5.93828699e-005 -5.93828699e-005 -5.59552645e-005
      -5.74882179e-005 -5.68997566e-005 -5.80605665e-005
      -5.56585073e-005 -5.88191760e-005 7.73347274e-005 1.29521213e-004
      -1.68594284e-004 -3.86854634e-004 -3.36737023e-004
      -3.04330897e-004 -8.41987494e-004 -1.53613777e-003
      -1.52774004e-003 -7.17409654e-004 2.84282869e-004 7.15933740e-004
      7.24913727e-004 3.66271299e-004 2.08863436e-004 -2.13087333e-006
      -4.87948637e-005 -5.18028755e-005 -5.93828699e-005
      -5.93828699e-005 -5.93828699e-005 -5.93828699e-005
      -5.71397686e-005 -5.82230605e-005 -5.68394025e-005
      -5.72021745e-005 -5.67065763e-005 -5.64375878e-005 6.56075645e-005
      1.02774393e-004 -1.29368054e-004 -2.25843090e-004 -5.06749930e-005
      2.62854628e-005 -5.62094152e-004 -1.43186399e-003 -1.57274096e-003
      -8.39445565e-004 1.79012059e-004 6.11941330e-004 6.70154637e-004
      3.48682806e-004 2.06266021e-004 4.43843419e-006 -5.05560238e-005
      -5.34004575e-005 -5.93828699e-005 -5.93828699e-005
      -5.93828699e-005 -5.93828699e-005 -5.70449483e-005
      -5.76577659e-005 -5.75087979e-005 -5.81635468e-005
      -5.73092912e-005 -5.83161673e-005 4.15143477e-005 5.18173292e-005
      -8.82223248e-005 -3.26631343e-005 2.96325859e-004 5.13662351e-004
      -1.00323459e-005 -9.71725502e-004 -1.27840345e-003
      -6.98879943e-004 1.70048559e-004 5.28337026e-004 5.93666162e-004
      3.00829008e-004 1.80436618e-004 1.00951911e-005 -5.24952229e-005
      -5.18068155e-005 -5.93828699e-005 -5.93828699e-005
      -5.93828699e-005 -5.93828699e-005 -5.79251500e-005
      -5.96041791e-005 -5.66255185e-005 -5.84438749e-005
      -5.72523932e-005 -5.83043075e-005 2.35299467e-005 3.66882705e-006
      -7.20421740e-005 9.89782566e-005 5.15117252e-004 8.46116862e-004
      4.56639274e-004 -4.51350992e-004 -8.53775302e-004 -4.39438358e-004
      2.60915578e-004 4.70335712e-004 5.00873430e-004 2.29169280e-004
      1.45269893e-004 7.08581319e-006 -5.15617285e-005 -5.38555396e-005
      -5.93828699e-005 -5.93828699e-005 -5.93828699e-005
      -5.93828699e-005 -5.70882912e-005 -5.91522039e-005
      -5.61972556e-005 -5.77758838e-005 -5.69095719e-005
      -5.69693584e-005 1.73766293e-005 -2.77740364e-005 -6.21194995e-005
      1.61383054e-004 6.10817980e-004 1.00224849e-003 7.22483208e-004
      -8.91050004e-005 -5.16466098e-004 -2.13262247e-004 3.59847036e-004
      4.47732658e-004 4.52009350e-004 1.87065394e-004 1.22290163e-004
      2.59546687e-006 -5.41436239e-005 -5.02675830e-005 -5.93828699e-005
      -5.93828699e-005 -5.93828699e-005 -5.93828699e-005
      -5.75455852e-005 -5.76130369e-005 -5.54148719e-005
      -5.85567032e-005 -5.59157197e-005 -5.63610956e-005 1.65866368e-005
      -4.73465843e-005 -7.80526461e-005 1.31339068e-004 5.79578395e-004
      1.00828696e-003 7.93336600e-004 5.95577112e-005 -3.77246179e-004
      -1.35365539e-004 3.92174930e-004 4.32040833e-004 4.18066018e-004
      1.55999238e-004 1.03817627e-004 -4.35269612e-007 -5.43839051e-005
      -5.08831072e-005 -5.93828699e-005 -5.93828699e-005
      -5.93828699e-005 -5.93828699e-005 -5.83722394e-005
      -5.84682202e-005 -5.62612840e-005 -5.85537091e-005
      -5.68248870e-005 -5.70059456e-005 1.54438421e-005 -5.84093723e-005
      -1.04455081e-004 4.81303432e-005 4.65614081e-004 8.87050643e-004
      6.79889810e-004 2.99194380e-006 -4.20752709e-004 -1.77573209e-004
      3.84842162e-004 4.30652639e-004 4.01446392e-004 1.22949234e-004
      9.26246430e-005 8.60960427e-007 -5.33162965e-005 -4.98507980e-005
      -5.93828699e-005 -5.93828699e-005 -5.93828699e-005
      -5.93828699e-005 -5.76507337e-005 -5.91450043e-005
      -5.59358450e-005 -5.66039307e-005 -5.73194702e-005
      -5.57597305e-005 1.70296662e-005 -6.64989784e-005 -1.39122480e-004
      -2.13191015e-005 3.61149228e-004 7.42337084e-004 4.94696316e-004
      -1.62601820e-004 -5.53622784e-004 -2.66971241e-004 3.82769475e-004
      4.46766382e-004 3.97287105e-004 1.05466941e-004 8.49124190e-005
      3.35689401e-006 -5.02353141e-005 -5.68074465e-005 -5.93828699e-005
      -5.93828699e-005 -5.93828699e-005 -5.93828699e-005
      -5.63303765e-005 -5.88184957e-005 -5.69138138e-005
      -5.75644881e-005 -5.71397723e-005 -5.72352146e-005 1.17417940e-005
      -8.29140627e-005 -1.62643264e-004 -4.52314125e-005 3.13091325e-004
      6.25531247e-004 3.40234692e-004 -3.69873916e-004 -7.57611939e-004
      -3.43316206e-004 3.92239890e-004 5.16203349e-004 3.91855254e-004
      8.87167771e-005 8.14898594e-005 2.41011185e-006 -5.39480461e-005
      -5.59443542e-005 -5.93828699e-005 -5.93828699e-005
      -5.93828699e-005 -5.93828699e-005 -5.82983121e-005
      -6.01631364e-005 -5.60542539e-005 -5.72641984e-005
      -5.70380616e-005 -5.46110350e-005 4.04913499e-006 -9.71784539e-005
      -1.61221658e-004 -1.70042476e-005 3.46622750e-004 6.54685020e-004
      3.34778830e-004 -4.36213042e-004 -8.53075471e-004 -3.89788649e-004
      4.13480622e-004 5.51698380e-004 4.19826887e-004 8.36369582e-005
      8.23332957e-005 8.42966256e-006 -5.38345630e-005 -5.42743655e-005
      -5.93828699e-005 -5.93828699e-005 -5.93828699e-005
      -5.93828699e-005 -5.72615827e-005 -5.71541605e-005
      -5.60415356e-005 -5.70873599e-005 -5.76115308e-005
      -5.61907073e-005 -5.23411290e-006 -1.06884465e-004
      -1.24586237e-004 6.44413522e-005 4.57515620e-004 7.96026085e-004
      4.70329134e-004 -3.55691591e-004 -8.32638820e-004 -3.86077998e-004
      4.07293410e-004 5.50402794e-004 4.20814031e-004 7.82313873e-005
      7.95910091e-005 9.08786387e-006 -4.97992369e-005 -5.83474175e-005
      -5.93828699e-005 -5.93828699e-005 -5.93828699e-005
      -5.93828699e-005 -5.80657652e-005 -5.72626923e-005
      -5.66733688e-005 -5.70867342e-005 -5.77758328e-005
      -5.88954281e-005 -9.08234142e-007 -9.76536248e-005
      -6.95372801e-005 1.62847457e-004 6.27579167e-004 1.04082841e-003
      7.69356848e-004 -3.66252789e-005 -5.83719695e-004 -2.56086641e-004
      3.64275911e-004 4.65878838e-004 3.75589356e-004 8.49621574e-005
      8.85303816e-005 1.67650196e-005 -5.08376434e-005 -5.44540890e-005
      -5.93828699e-005 -5.93828699e-005 -5.93828699e-005
      -5.93828699e-005 -5.78891268e-005 -5.86404130e-005
      -5.83177098e-005 -5.78391664e-005 -5.72873141e-005
      -5.86699025e-005 1.95735502e-005 -6.63983665e-005 -3.68185865e-005
      2.18940069e-004 7.40913267e-004 1.19857758e-003 9.96019808e-004
      2.64847069e-004 -3.01562861e-004 -1.32011119e-004 2.79299507e-004
      3.05498106e-004 2.97650025e-004 1.06519044e-004 1.03110411e-004
      2.31595204e-005 -5.35639556e-005 -5.33593484e-005 -5.93828699e-005
      -5.93828699e-005 -5.93828699e-005 -5.93828699e-005
      -5.90163618e-005 -5.85248636e-005 -5.78688778e-005
      -5.78699692e-005 -5.54180442e-005 -5.76049752e-005 4.14249371e-005
      -3.61603306e-005 -6.19062339e-005 1.42473524e-004 6.21466024e-004
      1.04886177e-003 8.92113545e-004 2.92497745e-004 -2.08717873e-004
      -1.74693138e-004 1.14217335e-004 7.97532848e-005 1.96414621e-004
      1.12052934e-004 1.08444103e-004 1.88834547e-005 -5.50331097e-005
      -5.49759170e-005 -5.93828699e-005 -5.93828699e-005
      -5.93828699e-005 -5.93828699e-005 -5.79655461e-005
      -5.71674718e-005 -5.71563323e-005 -5.75680533e-005
      -5.68802207e-005 -5.89035335e-005 5.35278596e-005 -1.84587734e-005
      -9.97752577e-005 -1.81718078e-005 3.26126290e-004 6.63670769e-004
      5.49717923e-004 1.32258807e-004 -2.17188397e-004 -2.18006651e-004
      -7.19843956e-005 -1.11818772e-004 1.24186146e-004 1.25553648e-004
      1.16219366e-004 1.23129539e-005 -5.57659368e-005 -5.34622159e-005
      -5.93828699e-005 -5.93828699e-005 -5.93828699e-005
      -5.93828699e-005 -5.80098858e-005 -5.77460451e-005
      -5.65977389e-005 -5.86416354e-005 -5.89028277e-005
      -5.77196915e-005 6.17578844e-005 -8.37237621e-006 -1.15178671e-004
      -1.59438481e-004 3.11579352e-005 2.41850998e-004 1.19134478e-004
      -1.65323348e-004 -3.40732047e-004 -2.90554715e-004
      -2.01880175e-004 -2.19261856e-004 1.02494778e-004 1.40943448e-004
      1.22385274e-004 1.03252314e-005 -5.62618952e-005 -5.22557348e-005
      -5.93828699e-005 -5.93828699e-005 -5.93828699e-005
      -5.93828699e-005 -5.84392692e-005 -6.02157670e-005
      -5.79630396e-005 -5.56619125e-005 -5.68212054e-005
      -5.76316415e-005 6.74551338e-005 1.68335719e-005 -1.83487391e-005
      -1.71733089e-004 -1.42335150e-004 -5.27616212e-005
      -1.40562712e-004 -3.13074066e-004 -3.61965504e-004
      -2.83694768e-004 -2.31330632e-004 -2.71355791e-004 2.18157162e-004
      2.01596908e-004 1.38317453e-004 2.34536492e-006 -5.60764820e-005
      -5.67630050e-005 -5.93828699e-005 -5.93828699e-005
      -5.93828699e-005 -5.93828699e-005 -6.14529199e-005
      -5.70116426e-005 -5.55706756e-005 -6.15988247e-005
      -5.81237910e-005 -5.43718306e-005 8.58924323e-005 1.30650064e-004
      3.45958368e-004 1.13916540e-004 2.38283646e-005 6.81160891e-005
      1.36397548e-005 -7.93958025e-005 -9.64213250e-005 -7.59302638e-005
      -3.31160554e-005 -1.13631017e-004 6.01049978e-004 3.66079999e-004
      2.01613788e-004 3.57309909e-006 -4.59335533e-005 -6.02497130e-005
      -5.93828699e-005 -5.93828699e-005 -5.93828699e-005
      -5.93828699e-005 -5.74315272e-005 -5.43848364e-005
      -5.74748701e-005 -5.72450153e-005 -5.79936823e-005
      -5.73851721e-005 -5.22258124e-005 -5.54908911e-005
      -6.27335830e-005 -6.59349171e-005 -5.75008598e-005
      -5.94757621e-005 -6.18839404e-005 -6.84608094e-005
      -6.74380790e-005 -6.76729396e-005 -6.73132745e-005
      -5.40832771e-005 -6.77770149e-005 -6.01876091e-005
      -5.75039303e-005 -5.74586084e-005 -5.89297852e-005
      -5.56372179e-005 -5.93828699e-005 -5.93828699e-005
      -5.93828699e-005 -5.93828699e-005 -5.92185315e-005
      -5.70641314e-005 -5.74181140e-005 -5.82052671e-005
      -5.79770203e-005 -5.90425188e-005 -6.12284930e-005
      -5.81747918e-005 -6.28878843e-005 -5.53065183e-005
      -6.40781727e-005 -5.88925104e-005 -6.28618509e-005
      -6.85900959e-005 -5.43674869e-005 -6.21501895e-005
      -6.12159420e-005 -6.08307564e-005 -4.76892528e-005
      -5.45178009e-005 -5.69561525e-005 -6.24902532e-005
      -5.90689087e-005 -5.71046949e-005 -5.93828699e-005
      -5.93828699e-005 -5.93828699e-005 -5.93828699e-005
      -8.44129033e-008 -2.31255199e-005 -2.71233384e-005
      -2.27964993e-005 -2.47901626e-005 -2.23622264e-005
      -2.84935013e-005 -1.80938041e-005 -2.82138553e-005
      -2.50392495e-005 -2.04305470e-005 -2.42367769e-005
      -1.97290901e-005 -1.63252516e-005 -2.16912013e-005
      -2.66562674e-005 -2.53206690e-005 -1.96238907e-005
      -1.88829144e-005 -2.46113559e-005 -1.55618927e-005
      -2.58431464e-005 -2.31497979e-005 -2.39084184e-005
      -2.49909426e-005 -2.15252840e-005 -2.15252840e-005
      -2.15252840e-005 -2.15252840e-005 -2.14977881e-005
      -2.24230680e-005 -2.33015435e-005 -2.89713971e-005
      -1.73114640e-005 -2.63599431e-005 -8.87433998e-005
      -6.25033863e-005 -3.40802624e-004 -2.22681716e-004
      -2.40912617e-004 -2.56577448e-004 -2.20897346e-004
      -2.11851919e-004 -2.13302381e-004 -1.80880990e-004
      -1.60387324e-004 -1.79723109e-004 -4.64033481e-004
      -4.43089113e-004 -2.61528068e-004 -1.04311312e-006
      -2.23218485e-005 -2.89067248e-005 -2.15252840e-005
      -2.15252840e-005 -2.15252840e-005 -2.15252840e-005
      -2.51585188e-005 -2.42085807e-005 -2.03444943e-005
      -2.79928627e-005 -2.13491039e-005 -1.87811493e-005 6.91853711e-006
      4.09369350e-005 -9.76000665e-005 -9.49722744e-005 -1.38527757e-004
      -1.43491008e-004 -9.48666639e-005 -8.15384701e-005
      -8.94712211e-005 -6.14059827e-005 -5.70220509e-005
      -7.92805586e-005 -2.90040043e-004 -2.37032975e-004
      -1.88558872e-004 2.58498130e-005 -2.04347343e-005 -2.58561322e-005
      -2.15252840e-005 -2.15252840e-005 -2.15252840e-005
      -2.15252840e-005 -2.22028939e-005 -2.66579045e-005
      -2.47971748e-005 -1.96388428e-005 -2.60555753e-005
      -2.98882405e-005 1.00440207e-004 1.73169261e-004 5.52744241e-005
      -1.76409048e-005 -1.87875321e-006 4.95189452e-005 1.09822104e-004
      1.14879891e-004 6.53674724e-005 2.92167952e-005 -1.42632380e-005
      -7.35810827e-005 -2.55983323e-004 -1.07681954e-004
      -1.01495141e-004 4.48217470e-005 -1.93567321e-005 -2.77889085e-005
      -2.15252840e-005 -2.15252840e-005 -2.15252840e-005
      -2.15252840e-005 -2.74900012e-005 -1.81798187e-005
      -1.88193808e-005 -2.45443207e-005 -2.92175409e-005
      -2.50214052e-005 1.41486686e-004 2.34180494e-004 7.85513475e-005
      -1.51445120e-005 7.56724985e-005 2.60895817e-004 3.51775176e-004
      3.22829408e-004 1.74734552e-004 7.78016511e-006 -9.26807261e-005
      -1.89460494e-004 -3.89160734e-004 -2.02289404e-004
      -9.28987429e-005 6.73447430e-005 -2.81213743e-005 -2.05749420e-005
      -2.15252840e-005 -2.15252840e-005 -2.15252840e-005
      -2.15252840e-005 -2.15943728e-005 -2.60398756e-005
      -2.50495723e-005 -2.89203163e-005 -2.06946679e-005
      -2.23720799e-005 1.27182982e-004 2.05190241e-004 8.97295104e-005
      1.56084880e-005 1.84745819e-004 4.90663340e-004 5.96187834e-004
      4.97693545e-004 2.37827655e-004 -6.52368763e-005 -3.02752189e-004
      -4.52065928e-004 -6.09087234e-004 -3.94754519e-004
      -1.42656296e-004 6.24379027e-005 -2.31283157e-005 -2.51678994e-005
      -2.15252840e-005 -2.15252840e-005 -2.15252840e-005
      -2.15252840e-005 -2.40747286e-005 -2.30023179e-005
      -2.26488792e-005 -1.80119132e-005 -2.60594643e-005
      -2.36462784e-005 1.10968133e-004 2.05810444e-004 1.48353065e-004
      1.61234217e-004 4.39746480e-004 8.35985877e-004 9.19134647e-004
      6.85977284e-004 2.38691719e-004 -1.97408648e-004 -4.80688439e-004
      -6.87604188e-004 -8.83117667e-004 -6.38692116e-004
      -2.32752223e-004 5.51642806e-005 -2.92775785e-005 -1.98879134e-005
      -2.15252840e-005 -2.15252840e-005 -2.15252840e-005
      -2.15252840e-005 -2.23523384e-005 -2.42565366e-005
      -2.85257665e-005 -2.41782254e-005 -2.21877162e-005
      -2.00536942e-005 1.01536505e-004 2.17163732e-004 2.51836464e-004
      3.66775028e-004 7.78407149e-004 1.23337761e-003 1.24855142e-003
      8.55911872e-004 2.32099483e-004 -2.88218958e-004 -5.78302483e-004
      -8.27112934e-004 -1.04139431e-003 -8.44477792e-004
      -3.05339578e-004 4.82882388e-005 -2.04424668e-005 -2.00620088e-005
      -2.15252840e-005 -2.15252840e-005 -2.15252840e-005
      -2.15252840e-005 -2.12955729e-005 -1.99179976e-005
      -2.31426475e-005 -2.14815009e-005 -1.97760746e-005
      -2.13483654e-005 9.58565361e-005 2.23075884e-004 3.30234150e-004
      5.87978400e-004 1.09482452e-003 1.58957671e-003 1.52904727e-003
      9.49434645e-004 2.36158856e-004 -2.75388360e-004 -5.25146141e-004
      -8.12774524e-004 -1.13241386e-003 -9.52597184e-004
      -3.58715275e-004 4.20860306e-005 -2.54215483e-005 -2.40093414e-005
      -2.15252840e-005 -2.15252840e-005 -2.15252840e-005
      -2.15252840e-005 -2.18080822e-005 -2.21621049e-005
      -2.27435812e-005 -2.23391216e-005 -2.18001951e-005
      -1.96554502e-005 9.64262799e-005 2.17897265e-004 3.68193665e-004
      6.86045911e-004 1.24878238e-003 1.77716010e-003 1.70031935e-003
      1.06650346e-003 3.46036046e-004 -1.05083491e-004 -3.18742270e-004
      -6.50988950e-004 -1.06166117e-003 -9.40599537e-004
      -3.68829293e-004 3.62805440e-005 -2.72579127e-005 -2.81400462e-005
      -2.15252840e-005 -2.15252840e-005 -2.15252840e-005
      -2.15252840e-005 -2.07173252e-005 -2.22699764e-005
      -2.22838935e-005 -2.06810182e-005 -2.23195457e-005
      -2.15818181e-005 9.88764368e-005 2.19650407e-004 3.49058450e-004
      6.72471069e-004 1.24951627e-003 1.79035775e-003 1.73041085e-003
      1.08227157e-003 4.28064959e-004 8.78946448e-005 -4.97402034e-005
      -4.20307973e-004 -9.05373425e-004 -8.64085858e-004
      -3.64499283e-004 3.34426477e-005 -2.51989077e-005 -2.76418486e-005
      -2.15252840e-005 -2.15252840e-005 -2.15252840e-005
      -2.15252840e-005 -2.02796346e-005 -2.18037712e-005
      -2.23459538e-005 -2.06195655e-005 -2.15301588e-005
      -2.32849852e-005 1.01185207e-004 2.12752537e-004 2.90375552e-004
      5.95117686e-004 1.16126344e-003 1.67817704e-003 1.61765947e-003
      1.01368933e-003 4.96934925e-004 2.90445169e-004 1.84473509e-004
      -2.08553523e-004 -7.14173191e-004 -7.31203472e-004
      -3.23660817e-004 3.09426687e-005 -2.31919148e-005 -2.18059286e-005
      -2.15252840e-005 -2.15252840e-005 -2.15252840e-005
      -2.15252840e-005 -2.12974610e-005 -2.15806231e-005
      -2.06776203e-005 -1.96014335e-005 -2.30673795e-005
      -2.34798208e-005 9.78093449e-005 1.98432026e-004 2.08583908e-004
      4.77378111e-004 1.00946776e-003 1.46072509e-003 1.38105021e-003
      8.72063218e-004 5.53895370e-004 4.95337590e-004 4.05443599e-004
      1.44353990e-005 -4.79033188e-004 -5.19807567e-004 -2.34314313e-004
      4.05036844e-005 -2.40816407e-005 -2.02038991e-005 -2.15252840e-005
      -2.15252840e-005 -2.15252840e-005 -2.15252840e-005
      -2.14154788e-005 -2.05231809e-005 -2.16854969e-005
      -1.94022105e-005 -2.29988091e-005 -2.24538235e-005 9.88284301e-005
      1.77071081e-004 1.31383480e-004 3.40588129e-004 7.86343298e-004
      1.14413863e-003 1.01693789e-003 6.13258919e-004 4.99647576e-004
      6.17362908e-004 5.94032172e-004 2.47015094e-004 -2.15329259e-004
      -2.69506039e-004 -1.38196192e-004 5.73326870e-005 -2.92218720e-005
      -2.13774474e-005 -2.15252840e-005 -2.15252840e-005
      -2.15252840e-005 -2.15252840e-005 -2.05810684e-005
      -2.09965929e-005 -2.03272830e-005 -2.05679680e-005
      -2.36303131e-005 -2.12565301e-005 9.33625051e-005 1.46093211e-004
      6.05951100e-005 1.92120118e-004 5.06122364e-004 7.37803231e-004
      5.46923722e-004 2.49615638e-004 3.54132178e-004 6.78771117e-004
      7.88033300e-004 5.50946570e-004 1.21669051e-004 -5.87524846e-006
      -6.63499668e-005 5.95667698e-005 -2.79661690e-005 -2.18286295e-005
      -2.15252840e-005 -2.15252840e-005 -2.15252840e-005
      -2.15252840e-005 -2.03570453e-005 -2.14275678e-005
      -2.04268472e-005 -2.12800005e-005 -2.42801107e-005
      -2.00888553e-005 9.02803367e-005 1.16798336e-004 8.48207856e-006
      5.44878458e-005 2.26145159e-004 3.25824425e-004 7.63413773e-005
      -1.23623409e-004 1.71852545e-004 6.68477267e-004 9.99082229e-004
      8.60868371e-004 4.49738407e-004 2.28830628e-004 6.43720341e-007
      6.92219619e-005 -2.64388582e-005 -2.11250845e-005 -2.15252840e-005
      -2.15252840e-005 -2.15252840e-005 -2.15252840e-005
      -2.11890801e-005 -2.24648720e-005 -2.03711170e-005
      -2.29520538e-005 -2.19952162e-005 -2.01650746e-005 8.21243448e-005
      5.41756744e-005 -6.55492186e-005 -1.06130276e-004 -5.68054820e-005
      -7.61338379e-005 -3.36051104e-004 -4.05930332e-004
      -8.70619078e-006 7.05083774e-004 1.18682440e-003 1.19398523e-003
      7.23173667e-004 3.97103839e-004 3.96676332e-005 6.85671985e-005
      -2.14914908e-005 -2.40438021e-005 -2.15252840e-005
      -2.15252840e-005 -2.15252840e-005 -2.15252840e-005
      -2.05347314e-005 -2.22075723e-005 -2.06041623e-005
      -2.11705228e-005 -2.17464531e-005 -2.33019182e-005 5.96887985e-005
      -7.40805262e-007 -1.66822530e-004 -2.88374838e-004
      -3.34981480e-004 -4.14165959e-004 -6.42742438e-004
      -6.11995405e-004 -1.12828704e-004 7.08044798e-004 1.36359094e-003
      1.38984958e-003 8.95859150e-004 5.10798011e-004 6.08763294e-005
      5.80063206e-005 -2.38097309e-005 -2.82716028e-005 -2.15252840e-005
      -2.15252840e-005 -2.15252840e-005 -2.15252840e-005
      -2.19602553e-005 -2.10256476e-005 -2.03387062e-005
      -2.00028735e-005 -2.20390066e-005 -2.15333112e-005 3.86469765e-005
      -5.19388486e-005 -2.76403181e-004 -4.53730929e-004
      -5.51273581e-004 -6.42906351e-004 -8.13098566e-004
      -7.47410522e-004 -2.45421339e-004 6.20215200e-004 1.31650607e-003
      1.38537691e-003 9.08420247e-004 5.22824528e-004 3.29503164e-005
      4.73062391e-005 -2.61196710e-005 -2.65963536e-005 -2.15252840e-005
      -2.15252840e-005 -2.15252840e-005 -2.15252840e-005
      -2.14566298e-005 -2.03990967e-005 -2.12514060e-005
      -2.12191262e-005 -2.41298094e-005 -2.18526839e-005 2.18696332e-005
      -7.05256025e-005 -3.54215153e-004 -5.58260828e-004
      -6.95520954e-004 -7.97916437e-004 -9.25985922e-004
      -9.10621951e-004 -4.86983568e-004 3.15171841e-004 9.30530194e-004
      1.02309790e-003 6.24741777e-004 3.51657072e-004 -4.07977495e-005
      3.74389492e-005 -2.33628743e-005 -2.42201459e-005 -2.15252840e-005
      -2.15252840e-005 -2.15252840e-005 -2.15252840e-005
      -1.95976863e-005 -1.95642351e-005 -2.25266049e-005
      -2.21154951e-005 -2.38187822e-005 -2.13878066e-005 7.08272728e-006
      -7.24681086e-005 -4.19185439e-004 -6.46107714e-004
      -8.19657580e-004 -9.34640353e-004 -1.08637090e-003
      -1.18519436e-003 -9.13553871e-004 -2.96386541e-004 2.50510930e-004
      3.23536573e-004 5.80809647e-005 -8.48365744e-006 -1.56174559e-004
      1.77283837e-005 -2.64550981e-005 -2.62088179e-005 -2.15252840e-005
      -2.15252840e-005 -2.15252840e-005 -2.15252840e-005
      -2.06323530e-005 -2.09292557e-005 -2.24920368e-005
      -2.09925965e-005 -1.96306319e-005 -2.19845715e-005
      -8.64654794e-006 -4.33909736e-005 -3.76116688e-004
      -6.33849879e-004 -8.47285090e-004 -9.72925744e-004
      -1.16929261e-003 -1.38772733e-003 -1.33067486e-003
      -9.83573380e-004 -6.11003663e-004 -5.44590061e-004
      -6.03273511e-004 -3.85029474e-004 -2.60691653e-004 9.01099702e-006
      -2.38721277e-005 -2.43364739e-005 -2.15252840e-005
      -2.15252840e-005 -2.15252840e-005 -2.15252840e-005
      -2.24660216e-005 -2.07010889e-005 -1.99114093e-005
      -2.16800290e-005 -2.06931454e-005 -2.10681756e-005
      -1.24952239e-005 8.21990398e-006 -2.56349420e-004 -5.24819945e-004
      -7.41589465e-004 -8.86300637e-004 -1.10698876e-003
      -1.35501020e-003 -1.49190181e-003 -1.41099549e-003
      -1.29398692e-003 -1.23015966e-003 -1.08587963e-003
      -6.22899970e-004 -3.16758116e-004 2.04029220e-006 -2.26762058e-005
      -2.61078712e-005 -2.15252840e-005 -2.15252840e-005
      -2.15252840e-005 -2.15252840e-005 -2.18568457e-005
      -2.23685092e-005 -2.08431957e-005 -2.24222513e-005
      -2.15636792e-005 -2.14084102e-005 -1.02849508e-005 5.18187080e-005
      -1.09486653e-004 -3.27704300e-004 -4.85659228e-004
      -6.09445211e-004 -7.96974404e-004 -1.00783713e-003
      -1.23070448e-003 -1.30563171e-003 -1.37824949e-003
      -1.35750894e-003 -1.13628944e-003 -6.04026660e-004
      -2.96584069e-004 1.13429278e-005 -2.61145124e-005 -2.63565344e-005
      -2.15252840e-005 -2.15252840e-005 -2.15252840e-005
      -2.15252840e-005 -2.26101074e-005 -2.12888845e-005
      -2.40875343e-005 -2.20429374e-005 -2.30806454e-005
      -2.42622009e-005 -1.48950767e-005 8.36820545e-005 3.69077752e-005
      -3.90660280e-005 -2.01208299e-004 -2.74335587e-004
      -3.59127851e-004 -5.05337375e-004 -6.74553914e-004
      -7.97895889e-004 -9.07900394e-004 -9.37585603e-004
      -7.77471287e-004 -3.24096007e-004 -2.30744161e-004 1.08037202e-005
      -2.47751232e-005 -2.51307574e-005 -2.15252840e-005
      -2.15252840e-005 -2.15252840e-005 -2.15252840e-005
      -1.96873152e-005 -2.08785787e-005 -2.36369051e-005
      -2.22030103e-005 -1.95214780e-005 -2.62036483e-005
      -2.84841408e-005 9.09555456e-005 1.98198657e-004 2.52633647e-004
      1.54448877e-004 1.03520200e-004 7.29437888e-005 1.11983181e-005
      -4.49776562e-005 -1.14814320e-004 -1.88728096e-004
      -1.57807051e-004 -1.42642719e-004 1.27261228e-004 -1.31407898e-004
      3.37927049e-005 -2.02428055e-005 -2.50822995e-005 -2.15252840e-005
      -2.15252840e-005 -2.15252840e-005 -2.15252840e-005
      -2.31154227e-005 -1.84581877e-005 -2.01174262e-005
      -2.07450630e-005 -2.45119336e-005 -2.04208191e-005
      -2.63660986e-005 -2.50497342e-005 -1.99766910e-005
      -2.03487270e-005 -2.70227392e-005 -1.93847700e-005
      -1.72866421e-005 -2.11498318e-005 -2.14549182e-005
      -2.72220204e-005 -2.08710699e-005 -2.38655884e-005
      -1.30603148e-005 -3.46011875e-005 -1.92258631e-005
      -3.14229510e-005 -2.57358261e-005 -2.18991463e-005
      -2.15252840e-005 -2.15252840e-005 -2.15252840e-005
      -2.15252840e-005 -2.16358239e-005 -2.39147921e-005
      -2.38199573e-005 -2.28586323e-005 -2.19587200e-005
      -2.07403209e-005 -2.71557510e-005 -2.06692548e-005
      -1.60590171e-005 -2.20423954e-005 -1.50856240e-005
      -1.71706379e-005 -1.92743464e-005 -2.01132116e-005
      -2.20508664e-005 -2.00416252e-005 -1.60709205e-005
      -1.98852649e-005 -2.49337900e-005 -1.97480949e-005
      -2.65357266e-005 -2.03850614e-005 -2.09693935e-005
      -2.30658443e-005 -2.15252840e-005 -2.15252840e-005
      -2.15252840e-005 -2.15252840e-005 -1.76631957e-007
      -4.48765604e-005 -5.16687978e-005 -4.48932187e-005
      -4.59247494e-005 -4.28135172e-005 -4.93342777e-005
      -4.64791920e-005 -4.36637092e-005 -4.65930898e-005
      -4.74548469e-005 -4.37111084e-005 -4.87203979e-005
      -4.54107176e-005 -3.84845953e-005 -4.56125417e-005
      -4.57679198e-005 -4.09762724e-005 -4.77182984e-005
      -4.49245126e-005 -4.64384138e-005 -4.58166178e-005
      -4.46283448e-005 -4.47460734e-005 -4.88281585e-005
      -4.50412554e-005 -4.50412554e-005 -4.50412554e-005
      -4.50412554e-005 -4.62158932e-005 -4.11374604e-005
      -4.54123037e-005 -4.39423857e-005 -4.62908174e-005
      -4.26119659e-005 1.71446241e-004 8.96087586e-005 2.79532687e-004
      3.80143319e-004 4.09394561e-004 3.72034527e-004 3.34912969e-004
      3.39685968e-004 3.81826161e-004 4.49802203e-004 4.65564837e-004
      4.61597083e-004 3.89192923e-004 3.52188363e-004 2.20463538e-004
      -2.12582199e-006 -4.48472238e-005 -4.60657830e-005
      -4.50412554e-005 -4.50412554e-005 -4.50412554e-005
      -4.50412554e-005 -4.53519715e-005 -4.61098280e-005
      -4.88619407e-005 -4.09776258e-005 -4.61125237e-005
      -4.40212862e-005 1.63364355e-004 3.91422473e-005 1.44344376e-004
      1.65896447e-004 1.44192207e-004 4.22899066e-005 2.22875838e-006
      2.19708254e-005 1.04348706e-004 2.27840428e-004 3.14556499e-004
      3.58489546e-004 2.42137510e-004 2.34981300e-004 1.91731000e-004
      6.69888823e-006 -4.83381482e-005 -4.02252444e-005 -4.50412554e-005
      -4.50412554e-005 -4.50412554e-005 -4.50412554e-005
      -4.35183501e-005 -4.11097972e-005 -4.62119569e-005
      -4.53199136e-005 -4.34660760e-005 -4.49597828e-005 1.41295401e-004
      4.81127154e-006 1.39580015e-005 -5.38711574e-005 -1.27712672e-004
      -2.54579849e-004 -2.73859448e-004 -2.29217068e-004
      -1.20233184e-004 2.20581187e-005 1.94715118e-004 2.81710119e-004
      2.09566046e-004 1.84529446e-004 1.67074992e-004 1.24897342e-005
      -4.19780808e-005 -4.64883124e-005 -4.50412554e-005
      -4.50412554e-005 -4.50412554e-005 -4.50412554e-005
      -4.53529028e-005 -4.41473057e-005 -4.52959466e-005
      -4.56700800e-005 -4.07362350e-005 -4.31385015e-005 1.42118413e-004
      -1.87608985e-005 -7.35940630e-005 -2.15542415e-004
      -3.21871863e-004 -3.92668968e-004 -3.86913511e-004
      -3.45956243e-004 -2.40880618e-004 -1.32169269e-004 4.60098054e-005
      1.97263085e-004 1.91239917e-004 1.67747479e-004 1.58520037e-004
      1.86164707e-005 -3.91231733e-005 -4.77101676e-005 -4.50412554e-005
      -4.50412554e-005 -4.50412554e-005 -4.50412554e-005
      -4.07410662e-005 -4.40838303e-005 -4.56787529e-005
      -4.73174696e-005 -4.50674197e-005 -4.57851420e-005 1.41558063e-004
      -1.03614539e-005 -9.62170816e-005 -2.33356128e-004
      -2.68682867e-004 -2.26373420e-004 -1.77283713e-004
      -1.86453457e-004 -2.24793810e-004 -2.49442324e-004
      -9.55758442e-005 1.19312645e-004 1.74563771e-004 1.75580659e-004
      1.61882504e-004 1.71070023e-005 -4.54423098e-005 -4.26539627e-005
      -4.50412554e-005 -4.50412554e-005 -4.50412554e-005
      -4.50412554e-005 -4.71805470e-005 -4.26658080e-005
      -4.22890043e-005 -4.63061660e-005 -4.22594967e-005
      -4.60606898e-005 1.36610819e-004 -2.41569893e-008 -3.63782419e-005
      -1.10843830e-004 -7.85339034e-006 1.88301579e-004 2.79907719e-004
      1.60401396e-004 -9.16747522e-005 -3.26555135e-004 -2.59074499e-004
      -4.68040271e-005 9.10558883e-005 1.89817569e-004 1.81328302e-004
      2.66622192e-005 -4.88867990e-005 -4.67793252e-005 -4.50412554e-005
      -4.50412554e-005 -4.50412554e-005 -4.50412554e-005
      -4.41560587e-005 -4.18662203e-005 -4.43891477e-005
      -4.28691092e-005 -4.71386775e-005 -4.51840606e-005 1.40415941e-004
      2.83436329e-005 7.43615310e-005 1.30332337e-004 3.74220690e-004
      6.67371321e-004 7.29613821e-004 4.65558871e-004 4.75763336e-005
      -3.14970326e-004 -3.79325415e-004 -1.79188457e-004 2.27909209e-006
      1.77707989e-004 1.86504796e-004 1.90777100e-005 -4.76206042e-005
      -4.37012277e-005 -4.50412554e-005 -4.50412554e-005
      -4.50412554e-005 -4.50412554e-005 -4.52724744e-005
      -4.41838674e-005 -4.30608161e-005 -4.28669118e-005
      -4.47561069e-005 -4.53762332e-005 1.31856694e-004 4.87785874e-005
      1.41351309e-004 3.27849266e-004 6.83559803e-004 1.01586350e-003
      1.02109672e-003 6.07625523e-004 7.86385353e-005 -3.70424910e-004
      -4.67166334e-004 -2.93657620e-004 -6.33137824e-005 1.58408177e-004
      1.78129878e-004 1.99525148e-005 -4.40520998e-005 -4.83528092e-005
      -4.50412554e-005 -4.50412554e-005 -4.50412554e-005
      -4.50412554e-005 -4.57366696e-005 -4.54740584e-005
      -4.39998985e-005 -4.32270717e-005 -4.56720663e-005
      -4.59232069e-005 1.28849642e-004 4.83823787e-005 1.45514670e-004
      3.92845046e-004 8.17835564e-004 1.18649530e-003 1.09543337e-003
      5.58980566e-004 -6.60644437e-005 -5.14272484e-004 -5.71515411e-004
      -3.63496656e-004 -1.19431024e-004 1.24850383e-004 1.60320298e-004
      1.91462623e-005 -4.19353200e-005 -4.30798573e-005 -4.50412554e-005
      -4.50412554e-005 -4.50412554e-005 -4.50412554e-005
      -4.47327220e-005 -4.46189588e-005 -4.40714502e-005
      -4.52546228e-005 -4.45924234e-005 -4.52040076e-005 1.23109261e-004
      3.84226114e-005 1.23427875e-004 3.81891703e-004 8.21352412e-004
      1.14967732e-003 9.48114553e-004 3.20685242e-004 -3.23204469e-004
      -6.75137388e-004 -6.41827995e-004 -3.81170976e-004
      -1.44419144e-004 1.02983788e-004 1.50336957e-004 1.85152985e-005
      -4.80826275e-005 -4.19977405e-005 -4.50412554e-005
      -4.50412554e-005 -4.50412554e-005 -4.50412554e-005
      -4.49020772e-005 -4.42163728e-005 -4.49288309e-005
      -4.41365592e-005 -4.55557383e-005 -4.54424808e-005 1.16372154e-004
      2.35982207e-005 1.05502899e-004 3.33152391e-004 7.42553850e-004
      9.97507945e-004 7.13678775e-004 1.31969346e-005 -6.07222435e-004
      -8.26477946e-004 -6.61907776e-004 -3.47291410e-004
      -1.30139946e-004 9.08550428e-005 1.39413416e-004 1.67648504e-005
      -4.68598992e-005 -4.40232470e-005 -4.50412554e-005
      -4.50412554e-005 -4.50412554e-005 -4.50412554e-005
      -4.51737214e-005 -4.40752628e-005 -4.53525499e-005
      -4.52996792e-005 -4.45229416e-005 -4.47704260e-005 1.15736606e-004
      1.03641805e-005 7.08084845e-005 2.57848267e-004 6.31426694e-004
      8.31906917e-004 5.01442119e-004 -2.32244667e-004 -8.03508097e-004
      -9.09912342e-004 -6.38679427e-004 -2.91744305e-004
      -1.03390921e-004 7.49193787e-005 1.22479178e-004 1.73042699e-005
      -4.49179388e-005 -4.48002065e-005 -4.50412554e-005
      -4.50412554e-005 -4.50412554e-005 -4.50412554e-005
      -4.40278236e-005 -4.44840880e-005 -4.51129272e-005
      -4.45104997e-005 -4.48415849e-005 -4.59327202e-005 1.18969176e-004
      -1.26360760e-006 4.52289605e-005 2.17939785e-004 5.58880740e-004
      7.40559015e-004 4.34782443e-004 -2.59600347e-004 -7.84828968e-004
      -8.83795845e-004 -6.06850605e-004 -2.59787892e-004
      -9.62245176e-005 6.09790950e-005 1.11642228e-004 1.47931642e-005
      -4.17788433e-005 -4.60688680e-005 -4.50412554e-005
      -4.50412554e-005 -4.50412554e-005 -4.50412554e-005
      -4.48619940e-005 -4.49832878e-005 -4.62147291e-005
      -4.49049112e-005 -4.55716690e-005 -4.67419741e-005 1.20162949e-004
      -1.14835802e-005 1.82741333e-005 2.01490664e-004 5.30564110e-004
      7.42223288e-004 5.47368254e-004 -3.45704066e-005 -5.64613962e-004
      -7.83449621e-004 -6.14187797e-004 -3.09430761e-004
      -1.59860676e-004 2.72607085e-005 1.08369873e-004 1.39250606e-005
      -4.31561930e-005 -4.04754319e-005 -4.50412554e-005
      -4.50412554e-005 -4.50412554e-005 -4.50412554e-005
      -4.42527089e-005 -4.46219601e-005 -4.50536063e-005
      -4.32941451e-005 -4.33976784e-005 -4.66015190e-005 1.20665602e-004
      -1.64280536e-005 -7.12016572e-006 1.94020366e-004 5.27900527e-004
      7.99357775e-004 7.49813044e-004 2.97303079e-004 -2.57036561e-004
      -6.05305308e-004 -6.51904091e-004 -3.92921793e-004
      -2.50036857e-004 -2.71581357e-005 9.67990709e-005 7.42485145e-006
      -4.78391012e-005 -4.40067088e-005 -4.50412554e-005
      -4.50412554e-005 -4.50412554e-005 -4.50412554e-005
      -4.55233603e-005 -4.57085116e-005 -4.49326108e-005
      -4.55169611e-005 -4.53143439e-005 -4.53335706e-005 1.11424648e-004
      -1.42356002e-005 -7.25728660e-006 1.96255598e-004 5.18078567e-004
      8.50014621e-004 9.29280126e-004 6.04213332e-004 5.45373623e-005
      -4.69111052e-004 -6.57898374e-004 -5.21113281e-004
      -3.17840895e-004 -6.07968832e-005 7.55495348e-005 1.42262152e-005
      -4.37532763e-005 -4.46975682e-005 -4.50412554e-005
      -4.50412554e-005 -4.50412554e-005 -4.50412554e-005
      -4.58538343e-005 -4.59364019e-005 -4.53792745e-005
      -4.49275904e-005 -4.47883358e-005 -4.43299359e-005 1.16860923e-004
      -1.15360499e-005 -6.37870244e-006 1.59356467e-004 4.49224142e-004
      7.94112042e-004 9.31557384e-004 6.56665710e-004 1.31481036e-004
      -4.25482780e-004 -6.85800100e-004 -5.66576899e-004
      -3.66637774e-004 -9.29595190e-005 6.40796497e-005 1.11751260e-005
      -4.59068033e-005 -4.57088681e-005 -4.50412554e-005
      -4.50412554e-005 -4.50412554e-005 -4.50412554e-005
      -4.52540116e-005 -4.57261849e-005 -4.34115063e-005
      -4.50541011e-005 -4.50031876e-005 -4.48014616e-005 1.24686529e-004
      -1.79911040e-005 -5.52984311e-005 2.78169155e-005 2.43665287e-004
      5.44642680e-004 6.82808342e-004 4.57941322e-004 3.58702673e-005
      -4.56835114e-004 -6.75770862e-004 -5.77807659e-004
      -4.01990663e-004 -1.25266029e-004 5.98190381e-005 7.14315911e-006
      -4.67884602e-005 -4.18862946e-005 -4.50412554e-005
      -4.50412554e-005 -4.50412554e-005 -4.50412554e-005
      -4.43618192e-005 -4.51055021e-005 -4.37492672e-005
      -4.40967451e-005 -4.49704603e-005 -4.53533430e-005 1.29224150e-004
      -3.53901305e-005 -1.46788530e-004 -1.91011350e-004
      -8.84539113e-005 1.18532349e-004 2.24514690e-004 6.05204441e-005
      -1.87760452e-004 -4.98069392e-004 -6.13248616e-004
      -5.12462750e-004 -3.82738421e-004 -1.23194506e-004 7.30750617e-005
      4.81984307e-006 -4.54983237e-005 -4.58193645e-005 -4.50412554e-005
      -4.50412554e-005 -4.50412554e-005 -4.50412554e-005
      -4.50013504e-005 -4.40681833e-005 -4.50319858e-005
      -4.34049507e-005 -4.47131752e-005 -4.48135397e-005 1.32713933e-004
      -3.93517003e-005 -2.08526559e-004 -3.65084183e-004
      -4.00292629e-004 -3.06964968e-004 -2.19997921e-004
      -2.89015908e-004 -3.42012470e-004 -4.17185220e-004
      -4.14831855e-004 -3.11229291e-004 -2.65612529e-004
      -6.60975056e-005 9.93881113e-005 9.15950932e-006 -4.71451676e-005
      -4.48096616e-005 -4.50412554e-005 -4.50412554e-005
      -4.50412554e-005 -4.50412554e-005 -4.50247062e-005
      -4.46042977e-005 -4.47074017e-005 -4.36708251e-005
      -4.42495329e-005 -4.48647479e-005 1.27777690e-004 -3.68394540e-005
      -1.98113979e-004 -3.73370625e-004 -4.73045162e-004
      -4.74677276e-004 -4.21948498e-004 -4.05418221e-004
      -2.96588871e-004 -1.77620997e-004 -9.47782537e-005
      -2.72546713e-005 -8.71769371e-005 2.91467495e-005 1.32047164e-004
      1.61617227e-005 -4.70610466e-005 -4.34315843e-005 -4.50412554e-005
      -4.50412554e-005 -4.50412554e-005 -4.50412554e-005
      -4.36722548e-005 -4.52580498e-005 -4.61209893e-005
      -4.46533413e-005 -4.61746276e-005 -4.55238878e-005 1.10315501e-004
      -4.37822600e-005 -1.84024218e-004 -3.21099506e-004
      -4.27989318e-004 -4.65893361e-004 -4.35117836e-004
      -3.73470830e-004 -1.75600333e-004 2.72464749e-005 1.66883750e-004
      1.85942103e-004 5.33999118e-005 1.08814544e-004 1.47180792e-004
      1.62540946e-005 -4.73920627e-005 -4.75782690e-005 -4.50412554e-005
      -4.50412554e-005 -4.50412554e-005 -4.50412554e-005
      -4.38470706e-005 -4.65649755e-005 -4.48955725e-005
      -4.53852845e-005 -4.54223082e-005 -4.48964201e-005 9.08023867e-005
      -5.72805911e-005 -1.46783423e-004 -2.53710110e-004
      -3.62300256e-004 -3.91821319e-004 -3.56248987e-004
      -2.69150856e-004 -6.50615548e-005 1.23000238e-004 2.57958774e-004
      2.41102578e-004 8.47716728e-005 1.24809769e-004 1.34600021e-004
      1.89551629e-005 -4.69709266e-005 -4.52035238e-005 -4.50412554e-005
      -4.50412554e-005 -4.50412554e-005 -4.50412554e-005
      -4.25781145e-005 -4.84101874e-005 -4.38193420e-005
      -4.37887975e-005 -4.33914465e-005 -4.56537928e-005 7.74158834e-005
      -9.75054791e-005 -2.38105495e-004 -2.84703972e-004
      -3.43366002e-004 -3.45106266e-004 -3.08207294e-004
      -2.22787523e-004 -6.45866530e-005 4.63653378e-005 1.32954767e-004
      9.68925160e-005 -3.80719503e-005 7.12256660e-005 1.06911073e-004
      2.83079662e-005 -4.96530629e-005 -4.72837855e-005 -4.50412554e-005
      -4.50412554e-005 -4.50412554e-005 -4.50412554e-005
      -4.71233252e-005 -4.49008367e-005 -4.93482112e-005
      -4.32444758e-005 -4.73319851e-005 -4.31565422e-005 5.25671567e-005
      -1.84402728e-004 -4.36274917e-004 -4.42292891e-004
      -4.65548801e-004 -4.53936344e-004 -4.25180304e-004
      -3.60401551e-004 -2.80910666e-004 -2.04546086e-004
      -1.73992419e-004 -2.00237846e-004 -2.78253719e-004
      -3.83133192e-005 6.39998689e-005 4.40217664e-005 -4.81661955e-005
      -4.06032523e-005 -4.50412554e-005 -4.50412554e-005
      -4.50412554e-005 -4.50412554e-005 -4.50295483e-005
      -4.81382449e-005 -4.68806757e-005 -4.87748403e-005
      -4.11429246e-005 -4.27341110e-005 -4.94395645e-005
      -3.97115618e-005 -4.55754052e-005 -3.94723866e-005
      -4.92363251e-005 -4.64351870e-005 -4.26857332e-005
      -4.99662128e-005 -4.51061969e-005 -4.47676248e-005
      -4.89881968e-005 -4.76142523e-005 -5.44777977e-005
      -3.83401457e-005 -4.98448571e-005 -4.32264715e-005
      -4.01437464e-005 -5.09702913e-005 -4.50412554e-005
      -4.50412554e-005 -4.50412554e-005 -4.50412554e-005
      -4.44518737e-005 -4.33713649e-005 -4.45549595e-005
      -4.71542735e-005 -4.60398078e-005 -4.74844383e-005
      -4.43332465e-005 -4.86128993e-005 -4.70204941e-005
      -4.58592331e-005 -4.80195704e-005 -4.54196597e-005
      -4.23213023e-005 -4.13246926e-005 -4.04651946e-005
      -4.55100781e-005 -4.25201360e-005 -4.66075398e-005
      -4.29124848e-005 -4.29456377e-005 -4.21666846e-005
      -4.65190860e-005 -3.89267516e-005 -4.32042398e-005
      -4.50412554e-005 -4.50412554e-005 -4.50412554e-005
      -4.50412554e-005 -1.25657436e-007 -2.95014652e-005
      -3.05911344e-005 -2.99010826e-005 -2.82499041e-005
      -2.95766895e-005 -2.93070116e-005 -2.93669327e-005
      -3.01808013e-005 -3.02248100e-005 -3.33705138e-005
      -2.96867602e-005 -3.63106155e-005 -3.55040684e-005
      -3.09998395e-005 -2.87916537e-005 -3.18144084e-005
      -3.07130977e-005 -3.33936696e-005 -3.80822494e-005
      -2.63305174e-005 -3.24419671e-005 -3.54411350e-005
      -3.08949275e-005 -3.50604278e-005 -3.20425861e-005
      -3.20425861e-005 -3.20425861e-005 -3.20425861e-005
      -2.98901141e-005 -3.30679359e-005 -3.13014352e-005
      -3.13982891e-005 -3.02137396e-005 -2.92474888e-005 8.36581312e-005
      2.63843103e-004 3.38583312e-004 2.80529552e-004 3.43975931e-004
      3.14162520e-004 3.12358286e-004 3.15343146e-004 3.16007878e-004
      3.15907411e-004 2.91177479e-004 2.94319208e-004 2.56660307e-004
      1.51129949e-004 9.42317056e-005 3.85987187e-005 -2.80266122e-005
      -2.87194198e-005 -3.20425861e-005 -3.20425861e-005
      -3.20425861e-005 -3.20425861e-005 -2.96661565e-005
      -2.90512708e-005 -3.16697624e-005 -3.01583423e-005
      -3.15850084e-005 -2.88185802e-005 5.46129595e-005 1.91255545e-004
      1.97243600e-004 1.56766051e-004 2.71995406e-004 2.75334634e-004
      2.55250663e-004 2.09608508e-004 1.90535226e-004 2.15639928e-004
      2.29406796e-004 2.06198456e-004 1.47210652e-004 5.72606295e-005
      6.05931455e-005 2.69928605e-005 -3.09530915e-005 -2.97354363e-005
      -3.20425861e-005 -3.20425861e-005 -3.20425861e-005
      -3.20425861e-005 -3.11954645e-005 -3.04111200e-005
      -2.89550826e-005 -3.08637245e-005 -2.69871616e-005
      -3.18583116e-005 3.86530446e-005 1.28395113e-004 1.36676914e-004
      1.74743836e-004 3.38500686e-004 3.57880286e-004 3.00024636e-004
      1.50707230e-004 1.27721316e-004 2.41301546e-004 3.10269621e-004
      2.13407038e-004 1.24685685e-004 2.14115425e-005 2.65611634e-005
      2.01562780e-005 -2.71583649e-005 -3.08256167e-005 -3.20425861e-005
      -3.20425861e-005 -3.20425861e-005 -3.20425861e-005
      -2.90369044e-005 -3.01096607e-005 -3.04129990e-005
      -3.21284788e-005 -3.29383038e-005 -2.85136084e-005 3.38230166e-005
      1.03317914e-004 1.29145177e-004 2.50294572e-004 4.90275619e-004
      5.39439032e-004 4.22181532e-004 1.68793311e-004 1.62156226e-004
      3.76206095e-004 4.98205132e-004 3.59578728e-004 1.79917668e-004
      1.59200372e-005 2.28731678e-005 1.69568957e-005 -3.50433220e-005
      -2.91499637e-005 -3.20425861e-005 -3.20425861e-005
      -3.20425861e-005 -3.20425861e-005 -2.96496073e-005
      -2.64460123e-005 -3.29154645e-005 -2.89417585e-005
      -3.06727561e-005 -3.12499724e-005 3.14062236e-005 1.03091632e-004
      1.29669934e-004 3.40025843e-004 6.40935788e-004 6.82096870e-004
      4.67440055e-004 1.06308398e-004 1.43506695e-004 5.07389719e-004
      7.12763576e-004 5.41840331e-004 2.55862426e-004 4.48156861e-005
      1.18358503e-005 1.83874672e-005 -2.88661668e-005 -3.30530966e-005
      -3.20425861e-005 -3.20425861e-005 -3.20425861e-005
      -3.20425861e-005 -2.69589000e-005 -3.50221526e-005
      -2.83182453e-005 -3.14347817e-005 -2.93243866e-005
      -3.09984789e-005 3.10391333e-005 9.97328752e-005 1.29424239e-004
      3.82494123e-004 6.95911294e-004 6.73183298e-004 3.20845225e-004
      -1.36318587e-004 1.89870952e-005 5.87518909e-004 9.01702966e-004
      7.25688471e-004 3.59947095e-004 6.68981447e-005 4.10675875e-006
      1.37828538e-005 -2.43188151e-005 -3.26963236e-005 -3.20425861e-005
      -3.20425861e-005 -3.20425861e-005 -3.20425861e-005
      -3.20215986e-005 -2.48246506e-005 -3.07852242e-005
      -2.98139148e-005 -3.13280689e-005 -3.05780413e-005 3.15239449e-005
      1.03844744e-004 1.01614067e-004 3.61976301e-004 6.56570483e-004
      5.33363549e-004 4.05558276e-005 -4.57610615e-004 -1.66363039e-004
      5.69474534e-004 9.96398972e-004 8.30203411e-004 4.23756952e-004
      8.05016243e-005 1.57922909e-006 2.06439654e-005 -2.94230540e-005
      -3.54209769e-005 -3.20425861e-005 -3.20425861e-005
      -3.20425861e-005 -3.20425861e-005 -3.07182927e-005
      -3.35430195e-005 -3.02741864e-005 -3.09623611e-005
      -3.27374037e-005 -3.04032001e-005 2.59239350e-005 9.47221852e-005
      8.35377359e-005 2.88867508e-004 5.61940251e-004 3.20773019e-004
      -2.80558219e-004 -7.35191512e-004 -3.23383429e-004 5.28630393e-004
      1.00142648e-003 8.35796469e-004 4.31393739e-004 8.17716646e-005
      5.48748903e-006 1.74646812e-005 -3.19181709e-005 -3.28110327e-005
      -3.20425861e-005 -3.20425861e-005 -3.20425861e-005
      -3.20425861e-005 -3.14208628e-005 -3.32843192e-005
      -2.95495338e-005 -3.06170441e-005 -3.09231400e-005
      -3.20447216e-005 1.67593880e-005 8.02971917e-005 5.09177989e-005
      2.24781033e-004 4.28942789e-004 1.23132631e-004 -4.74250672e-004
      -8.06060911e-004 -2.76907987e-004 5.68893214e-004 1.00416294e-003
      8.25310359e-004 4.25214588e-004 7.03557671e-005 -8.79733034e-006
      1.33207177e-005 -3.08963317e-005 -2.68968979e-005 -3.20425861e-005
      -3.20425861e-005 -3.20425861e-005 -3.20425861e-005
      -3.25660221e-005 -3.22568594e-005 -3.06605543e-005
      -3.11456752e-005 -3.12929769e-005 -3.28301685e-005 9.25159929e-006
      5.97682483e-005 7.23630819e-006 1.26826548e-004 2.62941525e-004
      -6.84105398e-005 -5.79073152e-004 -6.86827058e-004
      -9.79812012e-006 7.90774124e-004 1.10432564e-003 8.61602137e-004
      4.36367060e-004 7.14704001e-005 -1.62187807e-005 7.99184090e-006
      -2.94731071e-005 -2.96137969e-005 -3.20425861e-005
      -3.20425861e-005 -3.20425861e-005 -3.20425861e-005
      -3.16385485e-005 -3.11864023e-005 -3.17880476e-005
      -3.11941440e-005 -3.13246383e-005 -3.01276414e-005 4.21275308e-006
      4.11929395e-005 -4.66342317e-005 5.87285695e-006 7.72401472e-005
      -2.26449338e-004 -5.91481745e-004 -4.52074833e-004 3.26212525e-004
      1.04917143e-003 1.24766200e-003 9.27839079e-004 4.53602785e-004
      7.66273224e-005 -2.03488617e-005 1.09837811e-005 -3.06360234e-005
      -3.65246815e-005 -3.20425861e-005 -3.20425861e-005
      -3.20425861e-005 -3.20425861e-005 -3.23399654e-005
      -3.02769222e-005 -3.13898054e-005 -3.29937066e-005
      -3.14519602e-005 -3.00598003e-005 3.56766606e-007 2.59156659e-005
      -9.99295808e-005 -1.33157315e-004 -1.24770828e-004
      -3.97383032e-004 -6.06151996e-004 -2.68187025e-004 5.61790774e-004
      1.22904649e-003 1.37057062e-003 9.92715359e-004 4.73721215e-004
      6.76463605e-005 -3.18591919e-005 6.86335079e-006 -2.78741973e-005
      -3.61864331e-005 -3.20425861e-005 -3.20425861e-005
      -3.20425861e-005 -3.20425861e-005 -3.24678113e-005
      -3.10502692e-005 -3.17021731e-005 -3.21795414e-005
      -3.19057799e-005 -3.06923830e-005 -8.65139282e-006 1.16488509e-005
      -1.59874064e-004 -2.74719496e-004 -3.37186968e-004
      -5.85068308e-004 -6.59303332e-004 -1.91820393e-004 6.38361264e-004
      1.28334400e-003 1.40274339e-003 1.04354811e-003 5.08563127e-004
      5.93033110e-005 -4.42574383e-005 -5.64744369e-007 -3.00423271e-005
      -3.25022993e-005 -3.20425861e-005 -3.20425861e-005
      -3.20425861e-005 -3.20425861e-005 -3.16039841e-005
      -3.19632236e-005 -3.20840700e-005 -3.14904864e-005
      -3.31298361e-005 -3.05513458e-005 -1.83063548e-005
      -3.65759138e-006 -2.13224150e-004 -4.05015511e-004
      -5.42806811e-004 -7.91430590e-004 -8.20562651e-004
      -3.70267255e-004 3.67731438e-004 9.87118343e-004 1.15816272e-003
      9.09172290e-004 4.59606177e-004 3.95791867e-005 -4.72989559e-005
      1.09321803e-007 -3.11601507e-005 -2.98026916e-005 -3.20425861e-005
      -3.20425861e-005 -3.20425861e-005 -3.20425861e-005
      -3.23062668e-005 -3.24224311e-005 -3.18504462e-005
      -3.14726021e-005 -3.16058467e-005 -3.08688323e-005
      -2.70851324e-005 -1.26189025e-005 -2.71560653e-004
      -5.15768828e-004 -7.21795601e-004 -1.01194810e-003
      -1.09448715e-003 -7.59072136e-004 -1.50358537e-004 4.27380524e-004
      7.54605222e-004 6.30094612e-004 3.12429416e-004 -2.24294836e-005
      -5.66756389e-005 2.05753690e-006 -3.02432236e-005 -3.45608969e-005
      -3.20425861e-005 -3.20425861e-005 -3.20425861e-005
      -3.20425861e-005 -3.08113013e-005 -2.94563561e-005
      -3.08448107e-005 -3.08844392e-005 -3.04492605e-005
      -2.88545180e-005 -4.46915546e-005 -2.99365493e-005
      -3.38965474e-004 -6.02895278e-004 -8.42329697e-004
      -1.16007973e-003 -1.36796804e-003 -1.26653223e-003
      -8.51557183e-004 -3.31554387e-004 7.87660319e-005 1.98398426e-004
      9.26549546e-005 -1.09612651e-004 -7.02017860e-005 -4.17572119e-006
      -3.41192535e-005 -3.49778675e-005 -3.20425861e-005
      -3.20425861e-005 -3.20425861e-005 -3.20425861e-005
      -3.26917470e-005 -2.97898241e-005 -3.24893226e-005
      -3.19906685e-005 -3.16184232e-005 -3.04798359e-005
      -5.36280968e-005 -3.84704581e-005 -3.70593392e-004
      -6.26820663e-004 -8.36152583e-004 -1.14423444e-003
      -1.46133557e-003 -1.61065836e-003 -1.43459055e-003
      -1.04127068e-003 -5.73438942e-004 -3.11272015e-004
      -1.91492669e-004 -2.14750427e-004 -8.57058767e-005
      -8.12349299e-006 -3.10926516e-005 -3.19718165e-005
      -3.20425861e-005 -3.20425861e-005 -3.20425861e-005
      -3.20425861e-005 -3.24748507e-005 -3.05816393e-005
      -3.21633270e-005 -3.23944696e-005 -2.99153362e-005
      -2.92355235e-005 -5.25749965e-005 -2.79544493e-005
      -3.44713044e-004 -5.27622644e-004 -6.05321606e-004
      -7.98111490e-004 -1.15012995e-003 -1.50899531e-003
      -1.60163897e-003 -1.39083504e-003 -1.01074728e-003
      -6.63621118e-004 -3.77731805e-004 -2.71710975e-004
      -8.19157140e-005 -1.02347230e-005 -3.51589260e-005
      -3.31441297e-005 -3.20425861e-005 -3.20425861e-005
      -3.20425861e-005 -3.20425861e-005 -3.04881596e-005
      -3.09087627e-005 -3.15368379e-005 -3.03988181e-005
      -3.13652163e-005 -3.01028704e-005 -4.08252999e-005 1.68133886e-006
      -2.64308852e-004 -3.12570133e-004 -1.97079949e-004
      -2.22066883e-004 -5.20955597e-004 -9.72792332e-004
      -1.29347702e-003 -1.30935817e-003 -1.05623575e-003
      -7.49650120e-004 -4.40355012e-004 -2.84199661e-004
      -7.66258090e-005 -7.04048807e-006 -3.68860383e-005
      -3.29851173e-005 -3.20425861e-005 -3.20425861e-005
      -3.20425861e-005 -3.20425861e-005 -3.11763179e-005
      -3.15647994e-005 -3.11101940e-005 -3.11669755e-005
      -3.14088029e-005 -3.05704089e-005 -2.25657295e-005 3.22047381e-005
      -1.63357588e-004 -8.42846493e-005 2.04161013e-004 3.54122894e-004
      1.91344836e-004 -2.22700575e-004 -6.72434573e-004 -9.04141518e-004
      -8.71965080e-004 -6.67713408e-004 -4.08518012e-004
      -2.47879303e-004 -6.38376587e-005 1.55829105e-006 -3.73422590e-005
      -3.26777517e-005 -3.20425861e-005 -3.20425861e-005
      -3.20425861e-005 -3.20425861e-005 -3.10264586e-005
      -3.09027782e-005 -3.11029617e-005 -3.24545726e-005
      -3.19343962e-005 -2.96870239e-005 -6.12144504e-006 4.93154948e-005
      -1.15131952e-004 5.23944027e-006 3.94610572e-004 6.66522305e-004
      6.67279179e-004 3.79775796e-004 -8.46305775e-005 -4.43448109e-004
      -5.57386433e-004 -4.68785525e-004 -2.95561040e-004
      -1.85997400e-004 -6.00572785e-005 1.88958870e-006 -3.66297281e-005
      -3.51724630e-005 -3.20425861e-005 -3.20425861e-005
      -3.20425861e-005 -3.20425861e-005 -3.09195311e-005
      -2.94577476e-005 -3.03526904e-005 -3.21883890e-005
      -3.13214368e-005 -3.16622973e-005 -6.29932310e-006 5.05116514e-005
      -1.13050075e-004 -4.45198166e-005 3.31851217e-004 6.30652648e-004
      7.35233247e-004 5.71741140e-004 2.06724508e-004 -1.42708261e-004
      -3.05205467e-004 -3.08173127e-004 -2.08293699e-004
      -1.52134977e-004 -6.84003899e-005 7.05474667e-006 -3.11152398e-005
      -3.08455601e-005 -3.20425861e-005 -3.20425861e-005
      -3.20425861e-005 -3.20425861e-005 -3.08276758e-005
      -3.00798201e-005 -3.11923905e-005 -3.08865274e-005
      -2.91756915e-005 -3.21532461e-005 -7.97858320e-006 5.23531889e-005
      -1.50206892e-004 -1.67913007e-004 1.29670938e-004 3.73858289e-004
      4.97229747e-004 4.14679991e-004 1.74276342e-004 -8.81985543e-005
      -2.44572118e-004 -2.80318462e-004 -2.05228265e-004
      -1.54825117e-004 -7.74153305e-005 8.80615153e-006 -3.02431854e-005
      -3.29165196e-005 -3.20425861e-005 -3.20425861e-005
      -3.20425861e-005 -3.20425861e-005 -3.26666523e-005
      -3.07897535e-005 -3.37974743e-005 -3.27880771e-005
      -3.08907838e-005 -2.83179379e-005 -3.33338926e-006 6.17681872e-005
      -1.72267464e-004 -3.18842416e-004 -1.19546341e-004 1.09489692e-005
      1.27105959e-004 1.06299776e-004 -5.30055913e-005 -1.98167691e-004
      -2.99382664e-004 -3.45136708e-004 -2.94934405e-004
      -1.60421245e-004 -6.44780594e-005 1.22248839e-005 -3.25749315e-005
      -3.41967389e-005 -3.20425861e-005 -3.20425861e-005
      -3.20425861e-005 -3.20425861e-005 -2.85217793e-005
      -3.08575982e-005 -3.23700697e-005 -2.82814162e-005
      -3.00741649e-005 -3.11945914e-005 1.35423870e-005 1.02073180e-004
      -1.85639205e-004 -5.03568212e-004 -4.15492861e-004
      -3.20916442e-004 -2.67501106e-004 -2.79570377e-004
      -3.78170371e-004 -4.38087969e-004 -4.87048674e-004
      -5.02301031e-004 -4.32833855e-004 -2.02722193e-004
      -5.19617970e-005 3.41457917e-006 -3.89323213e-005 -3.02356475e-005
      -3.20425861e-005 -3.20425861e-005 -3.20425861e-005
      -3.20425861e-005 -3.04144633e-005 -2.69559114e-005
      -3.04662772e-005 -3.52030365e-005 -3.06095171e-005
      -3.09297830e-005 -3.27007219e-005 -2.59806675e-005
      -3.62962346e-005 -3.50809678e-005 -2.91026754e-005
      -4.30815671e-005 -3.15732032e-005 -3.03559609e-005
      -3.12217526e-005 -3.49757138e-005 -3.27937596e-005
      -4.26096012e-005 -3.68459114e-005 -2.18421555e-005
      -3.93485061e-005 -3.91494104e-005 -2.81742268e-005
      -3.54097392e-005 -3.20425861e-005 -3.20425861e-005
      -3.20425861e-005 -3.20425861e-005 -3.18301463e-005
      -3.34234064e-005 -2.92655932e-005 -2.96001799e-005
      -3.27209273e-005 -2.79492961e-005 -2.74932372e-005
      -3.19057581e-005 -3.41199739e-005 -3.21687621e-005
      -3.60975100e-005 -3.64914085e-005 -3.31068841e-005
      -3.35809636e-005 -3.45047119e-005 -3.10239811e-005
      -3.37323654e-005 -3.18197344e-005 -3.66756067e-005
      -3.90600690e-005 -3.81431673e-005 -3.32434174e-005
      -3.89145316e-005 -3.17124723e-005 -3.20425861e-005
      -3.20425861e-005 -3.20425861e-005 -3.20425861e-005
      -7.09000290e-008 -1.80043371e-005 -1.82486983e-005
      -1.74607121e-005 -2.16820736e-005 -1.68770057e-005
      -2.02287665e-005 -1.66572936e-005 -1.81014511e-005
      -1.96689871e-005 -2.13399653e-005 -1.50907426e-005
      -1.83392785e-005 -1.86238085e-005 -1.80340721e-005
      -2.04905627e-005 -1.86954749e-005 -2.13677504e-005
      -2.32339789e-005 -1.55377420e-005 -1.90177034e-005
      -1.29389873e-005 -1.61920034e-005 -1.46523862e-005
      -1.88015074e-005 -1.80794977e-005 -1.80794977e-005
      -1.80794977e-005 -1.80794977e-005 -1.70428557e-005
      -1.73264125e-005 -1.69941177e-005 -1.95937209e-005
      -1.95756147e-005 -1.88282411e-005 1.25728238e-005 1.84131699e-004
      4.38932067e-004 4.05942294e-004 4.37575800e-004 3.80445272e-004
      3.47529800e-004 3.33990058e-004 3.37319798e-004 3.35654215e-004
      3.54060467e-004 3.83560080e-004 2.70756776e-004 2.22613759e-004
      -3.78350123e-005 1.03356826e-004 -1.70871481e-005 -1.79562285e-005
      -1.80794977e-005 -1.80794977e-005 -1.80794977e-005
      -1.80794977e-005 -1.86713751e-005 -1.56697479e-005
      -1.95175035e-005 -1.41131677e-005 -1.85521712e-005
      -1.45684471e-005 -3.86565125e-006 9.77567543e-005 2.66208226e-004
      1.39536176e-004 7.27494553e-005 -2.81146640e-005 -5.81036838e-005
      -7.06950304e-005 -5.70356860e-005 -7.08493753e-005
      -2.76768060e-005 6.22204534e-005 3.15712132e-005 1.10728703e-004
      -9.85921797e-005 9.05584820e-005 -1.76243448e-005 -1.39925005e-005
      -1.80794977e-005 -1.80794977e-005 -1.80794977e-005
      -1.80794977e-005 -1.62288507e-005 -2.21825521e-005
      -1.79957588e-005 -1.89780549e-005 -1.50092574e-005
      -1.63845016e-005 -3.50812261e-005 4.55725749e-005 1.28204061e-004
      -9.71300178e-005 -2.42089009e-004 -3.73779912e-004
      -3.68339650e-004 -3.13303608e-004 -2.76240171e-004
      -2.64634611e-004 -2.34039384e-004 -1.54849477e-004
      -1.32859757e-004 6.84064753e-006 -1.57879986e-004 7.27993975e-005
      -1.22083002e-005 -2.30846672e-005 -1.80794977e-005
      -1.80794977e-005 -1.80794977e-005 -1.80794977e-005
      -2.00888553e-005 -1.96836590e-005 -1.87686383e-005
      -1.79234466e-005 -1.90826740e-005 -1.43156922e-005
      -5.38381100e-005 1.58230625e-006 3.26825175e-005 -2.60031782e-004
      -4.50410240e-004 -5.89547446e-004 -5.22546005e-004
      -3.59280035e-004 -2.20065020e-004 -1.16725976e-004
      -6.64449835e-005 -4.38903226e-005 -1.14179602e-004
      -1.25577657e-007 -1.80751667e-004 8.17053879e-005 -1.74368870e-005
      -1.74726611e-005 -1.80794977e-005 -1.80794977e-005
      -1.80794977e-005 -1.80794977e-005 -2.17235520e-005
      -1.54693680e-005 -1.91458403e-005 -1.03057255e-005
      -1.82725726e-005 -2.15135515e-005 -6.46623739e-005
      -2.86053564e-005 -3.53347968e-005 -3.85885302e-004
      -6.21005776e-004 -7.37917726e-004 -5.79215528e-004
      -2.31712649e-004 1.12809044e-004 3.87196720e-004 4.90600185e-004
      4.12208494e-004 1.56810231e-004 9.51836410e-005 -1.34387970e-004
      6.64830513e-005 -1.66124682e-005 -2.32132534e-005 -1.80794977e-005
      -1.80794977e-005 -1.80794977e-005 -1.80794977e-005
      -1.66005357e-005 -2.05755714e-005 -1.26350315e-005
      -1.91383824e-005 -2.17848337e-005 -1.50402520e-005
      -7.12846231e-005 -4.62994576e-005 -7.83006399e-005
      -4.66899481e-004 -7.45641708e-004 -8.89880001e-004
      -6.64631429e-004 -1.23180842e-004 4.66525031e-004 9.75522678e-004
      1.16387545e-003 1.01001724e-003 5.35116065e-004 2.33291445e-004
      -1.02472462e-004 6.32038937e-005 -1.91686158e-005 -1.08949343e-005
      -1.80794977e-005 -1.80794977e-005 -1.80794977e-005
      -1.80794977e-005 -1.73938479e-005 -1.66633981e-005
      -1.95870653e-005 -1.59421652e-005 -1.79537601e-005
      -1.91497638e-005 -6.86851927e-005 -9.21679093e-005
      -1.13475107e-004 -5.24119008e-004 -8.17727356e-004
      -9.55346215e-004 -7.21072254e-004 -9.72194612e-005 6.38550497e-004
      1.32927601e-003 1.62334915e-003 1.41190144e-003 8.07012198e-004
      3.30744777e-004 -5.62361383e-005 7.12096298e-005 -1.64557605e-005
      -2.02345545e-005 -1.80794977e-005 -1.80794977e-005
      -1.80794977e-005 -1.80794977e-005 -1.76514277e-005
      -1.83486209e-005 -1.93397227e-005 -1.62215983e-005
      -1.76667345e-005 -1.92223579e-005 -7.39934185e-005
      -1.13453258e-004 -1.53961199e-004 -5.73938363e-004
      -8.79249244e-004 -1.03632233e-003 -8.36303690e-004
      -2.79560511e-004 5.01464237e-004 1.30191841e-003 1.68246508e-003
      1.52687810e-003 8.89015326e-004 3.75051604e-004 -3.31925403e-005
      6.66185151e-005 -2.68765052e-005 -1.70244839e-005 -1.80794977e-005
      -1.80794977e-005 -1.80794977e-005 -1.80794977e-005
      -1.78220489e-005 -1.86297002e-005 -1.80639618e-005
      -1.90476276e-005 -1.66535647e-005 -1.70761650e-005
      -6.19463608e-005 -1.09773537e-004 -1.50631618e-004
      -5.96237951e-004 -9.15401033e-004 -1.14784518e-003
      -1.10840774e-003 -7.25351798e-004 -3.10535397e-005 7.69816979e-004
      1.30503078e-003 1.29243918e-003 8.05215968e-004 3.55761673e-004
      -3.42614512e-005 6.46648550e-005 -1.97194131e-005 -1.62546803e-005
      -1.80794977e-005 -1.80794977e-005 -1.80794977e-005
      -1.80794977e-005 -1.94877739e-005 -1.78407627e-005
      -1.76241283e-005 -1.85971112e-005 -1.76044177e-005
      -1.63095629e-005 -4.50257648e-005 -1.02487786e-004
      -1.36974530e-004 -5.63604175e-004 -8.34486156e-004
      -1.09307538e-003 -1.21817691e-003 -1.08868279e-003
      -6.14169985e-004 7.75319204e-005 6.75418181e-004 8.46643467e-004
      5.87904302e-004 2.89313903e-004 -5.12042097e-005 6.16718244e-005
      -1.87840742e-005 -2.13092117e-005 -1.80794977e-005
      -1.80794977e-005 -1.80794977e-005 -1.80794977e-005
      -1.99308924e-005 -1.77052152e-005 -1.90181054e-005
      -1.96598521e-005 -1.90303344e-005 -1.83733446e-005
      -3.47989153e-005 -8.21412759e-005 -8.85052723e-005
      -4.25747683e-004 -5.84468478e-004 -7.60763884e-004
      -9.54749412e-004 -1.05665531e-003 -8.88165843e-004
      -4.46297083e-004 3.47679634e-005 3.14939854e-004 2.86209513e-004
      1.76202680e-004 -8.10764395e-005 5.52384590e-005 -2.20297279e-005
      -2.01849125e-005 -1.80794977e-005 -1.80794977e-005
      -1.80794977e-005 -1.80794977e-005 -1.81498526e-005
      -1.74843590e-005 -1.77974325e-005 -1.83058091e-005
      -2.02913470e-005 -1.80743336e-005 -3.27217713e-005
      -5.58837492e-005 -9.53919312e-007 -1.79368217e-004
      -1.68670056e-004 -1.74477231e-004 -3.24171182e-004
      -5.72743709e-004 -7.28087791e-004 -6.22483203e-004
      -3.89162888e-004 -1.29834967e-004 -1.28463817e-005 5.71241471e-005
      -1.17159216e-004 4.16202965e-005 -1.88401755e-005 -1.80084917e-005
      -1.80794977e-005 -1.80794977e-005 -1.80794977e-005
      -1.80794977e-005 -1.80133375e-005 -1.89406583e-005
      -1.90968967e-005 -1.68218867e-005 -1.81669475e-005
      -1.69274444e-005 -3.60529157e-005 -2.94878973e-005 8.95032063e-005
      1.01682046e-004 3.23997025e-004 5.30520745e-004 4.99512593e-004
      2.04760465e-004 -1.91969011e-004 -4.51355154e-004 -5.48343523e-004
      -4.08892956e-004 -2.28759542e-004 -3.94811941e-005
      -1.46853243e-004 3.24004614e-005 -1.82725544e-005 -1.94475397e-005
      -1.80794977e-005 -1.80794977e-005 -1.80794977e-005
      -1.80794977e-005 -1.80622519e-005 -1.82875065e-005
      -1.77919846e-005 -1.73295102e-005 -1.85059016e-005
      -1.63961504e-005 -3.93348564e-005 -7.99897771e-006 1.84431745e-004
      3.46133020e-004 7.26143364e-004 1.08797953e-003 1.16121222e-003
      8.87767121e-004 3.80114798e-004 -1.51562956e-004 -5.37286454e-004
      -5.55533450e-004 -3.67322005e-004 -1.00132798e-004
      -1.59830335e-004 2.76129849e-005 -1.74866545e-005 -2.45572137e-005
      -1.80794977e-005 -1.80794977e-005 -1.80794977e-005
      -1.80794977e-005 -1.92143416e-005 -1.81975465e-005
      -1.78225637e-005 -1.97162444e-005 -2.01603398e-005
      -1.97263307e-005 -3.63873769e-005 9.38009089e-006 2.48956523e-004
      4.74857661e-004 9.33828880e-004 1.37820118e-003 1.49826799e-003
      1.23462849e-003 7.02775666e-004 3.65960877e-005 -4.82680101e-004
      -6.11805706e-004 -4.42444521e-004 -1.35731330e-004
      -1.69684150e-004 2.33285209e-005 -1.82078766e-005 -2.41904363e-005
      -1.80794977e-005 -1.80794977e-005 -1.80794977e-005
      -1.80794977e-005 -1.95400316e-005 -1.87811347e-005
      -1.71850061e-005 -1.77024103e-005 -1.91689160e-005
      -1.82500735e-005 -3.64848456e-005 2.07077283e-005 2.81233399e-004
      5.24079194e-004 9.99492593e-004 1.41897309e-003 1.51700980e-003
      1.23864040e-003 7.32491026e-004 7.46534279e-005 -4.62360389e-004
      -6.18403836e-004 -4.88275051e-004 -1.68310915e-004
      -1.73041568e-004 1.67826529e-005 -1.93988180e-005 -1.72994896e-005
      -1.80794977e-005 -1.80794977e-005 -1.80794977e-005
      -1.80794977e-005 -1.78534829e-005 -1.88850099e-005
      -1.78672126e-005 -1.92726511e-005 -1.88935901e-005
      -1.72196742e-005 -4.53563989e-005 1.45570584e-005 2.66068761e-004
      5.13688137e-004 9.46298009e-004 1.25046680e-003 1.25665951e-003
      9.81200021e-004 5.41821879e-004 -2.98100731e-005 -4.85973927e-004
      -6.05670037e-004 -4.98344656e-004 -1.78392918e-004
      -1.80571078e-004 9.29655744e-006 -2.07091798e-005 -1.44650267e-005
      -1.80794977e-005 -1.80794977e-005 -1.80794977e-005
      -1.80794977e-005 -1.71113934e-005 -1.82322201e-005
      -1.82441727e-005 -1.98978669e-005 -1.72102718e-005
      -1.68619863e-005 -7.44433200e-005 -2.96217841e-005 1.95542336e-004
      4.10757872e-004 7.68785074e-004 9.49797104e-004 8.77342478e-004
      6.27696805e-004 2.69924814e-004 -1.81531563e-004 -5.02939918e-004
      -5.70592645e-004 -4.86478966e-004 -1.76612870e-004
      -1.73405322e-004 1.16640531e-005 -1.77168404e-005 -1.78148839e-005
      -1.80794977e-005 -1.80794977e-005 -1.80794977e-005
      -1.80794977e-005 -1.82472104e-005 -1.85149329e-005
      -1.79086855e-005 -1.95372995e-005 -1.75115583e-005
      -1.61510816e-005 -8.57427658e-005 -5.33300081e-005 1.05665211e-004
      2.04796685e-004 4.37908660e-004 5.12828294e-004 4.25695296e-004
      2.58387270e-004 1.66983573e-005 -2.87324481e-004 -4.93893633e-004
      -5.15511842e-004 -4.42542485e-004 -1.66905302e-004
      -1.62647266e-004 1.78098599e-005 -1.76844987e-005 -1.76187241e-005
      -1.80794977e-005 -1.80794977e-005 -1.80794977e-005
      -1.80794977e-005 -1.81437954e-005 -2.07792236e-005
      -1.66837381e-005 -1.85396093e-005 -1.78485916e-005
      -1.84222754e-005 -7.97690882e-005 -5.62156602e-005 3.87137079e-005
      5.60121862e-006 9.71153640e-005 9.56290605e-005 4.13589951e-005
      -3.02220124e-005 -1.48943553e-004 -3.25870409e-004
      -4.16904717e-004 -4.01894387e-004 -3.47078341e-004
      -1.38530711e-004 -1.57769056e-004 1.69759551e-005 -1.78238242e-005
      -1.72406690e-005 -1.80794977e-005 -1.80794977e-005
      -1.80794977e-005 -1.80794977e-005 -1.75962414e-005
      -1.98575635e-005 -1.82509120e-005 -1.81779469e-005
      -1.92675907e-005 -2.30569076e-005 -7.44503341e-005
      -7.03248588e-005 -3.31298497e-006 -9.25352215e-005
      -8.27805343e-005 -1.13273876e-004 -1.14746763e-004
      -1.18261523e-004 -1.55636968e-004 -2.58240296e-004
      -2.88496958e-004 -2.52852566e-004 -2.43365779e-004
      -1.26906816e-004 -1.51719621e-004 1.28295178e-005 -1.83741540e-005
      -1.97967365e-005 -1.80794977e-005 -1.80794977e-005
      -1.80794977e-005 -1.80794977e-005 -1.76218655e-005
      -1.97957870e-005 -1.88800423e-005 -1.92015832e-005
      -1.75766181e-005 -1.83503325e-005 -6.69249275e-005
      -1.07566084e-004 -4.99821617e-005 -1.50172273e-004
      -1.67841936e-004 -2.07887148e-004 -1.77769965e-004
      -1.47160958e-004 -1.25014951e-004 -1.57395261e-004
      -1.58127528e-004 -1.26532759e-004 -1.82938558e-004
      -1.41366603e-004 -1.45181024e-004 9.21671744e-006 -2.02340598e-005
      -1.54226145e-005 -1.80794977e-005 -1.80794977e-005
      -1.80794977e-005 -1.80794977e-005 -1.98631715e-005
      -1.77827969e-005 -2.09680420e-005 -1.93496362e-005
      -1.72919681e-005 -1.68139304e-005 -7.56424051e-005
      -1.55871618e-004 -1.37983327e-004 -2.27588782e-004
      -2.14411906e-004 -2.29937810e-004 -1.88277627e-004
      -1.59995048e-004 -1.08186527e-004 -1.00412668e-004
      -9.37429504e-005 -6.56215852e-005 -1.63054021e-004
      -1.46457227e-004 -1.23008605e-004 5.28853025e-006 -1.89403690e-005
      -1.66259870e-005 -1.80794977e-005 -1.80794977e-005
      -1.80794977e-005 -1.80794977e-005 -1.94595959e-005
      -2.04347107e-005 -1.95625853e-005 -1.82147578e-005
      -1.81448631e-005 -2.22161907e-005 -6.69384972e-005
      -2.20429894e-004 -2.82084395e-004 -3.49096284e-004
      -2.89086485e-004 -2.81844812e-004 -2.29730227e-004
      -1.53262998e-004 -1.00454847e-004 -9.26985595e-005
      -9.92753921e-005 -8.87708447e-005 -2.01237723e-004
      -1.70428626e-004 -1.08411179e-004 5.11096596e-006 -1.86082743e-005
      -1.84761266e-005 -1.80794977e-005 -1.80794977e-005
      -1.80794977e-005 -1.80794977e-005 -2.06945369e-005
      -1.77700003e-005 -1.90352948e-005 -2.32167658e-005
      -2.04920107e-005 -2.24428677e-005 -6.53791067e-005
      -3.68722569e-004 -4.98557521e-004 -5.83907822e-004
      -5.02285897e-004 -4.67589009e-004 -4.12296387e-004
      -3.63672822e-004 -3.08236515e-004 -2.82877445e-004
      -2.84161477e-004 -2.64332921e-004 -3.80345387e-004
      -3.14918580e-004 -1.31042339e-004 -3.16168507e-006
      -2.67611267e-005 -1.77889142e-005 -1.80794977e-005
      -1.80794977e-005 -1.80794977e-005 -1.80794977e-005
      -1.91028830e-005 -1.89777329e-005 -2.16219960e-005
      -1.97194859e-005 -1.69945197e-005 -2.16129501e-005
      -2.07245630e-005 -1.73028457e-005 -2.15185664e-005
      -1.95626690e-005 -2.09145546e-005 -1.92876723e-005
      -1.57406175e-005 -1.50657797e-005 -1.53102628e-005
      -1.60328018e-005 -1.14420554e-005 -2.28969147e-005
      -1.28081119e-005 -2.04568441e-005 -1.80208790e-005
      -1.94910572e-005 -2.08896618e-005 -2.13768253e-005
      -1.80794977e-005 -1.80794977e-005 -1.80794977e-005
      -1.80794977e-005 -2.09817954e-005 -1.69933646e-005
      -2.09067930e-005 -1.88175363e-005 -1.88186459e-005
      -2.18741625e-005 -1.66231421e-005 -2.05039378e-005
      -1.63076475e-005 -1.91507897e-005 -1.53645469e-005
      -1.72104519e-005 -1.86774723e-005 -1.18659418e-005
      -1.63414788e-005 -1.77956044e-005 -2.04076296e-005
      -2.30944843e-005 -2.00847971e-005 -1.71683678e-005
      -1.81544019e-005 -1.91557774e-005 -1.86727702e-005
      -1.89140646e-005 -1.80794977e-005 -1.80794977e-005
      -1.80794977e-005 -1.80794977e-005 -7.46803863e-008
      -2.18191763e-005 -1.42351928e-005 -2.12527993e-005
      -1.73430781e-005 -1.84467553e-005 -1.91423333e-005
      -2.02459378e-005 -2.13612238e-005 -1.74515499e-005
      -1.94777967e-005 -1.95162356e-005 -1.50640071e-005
      -1.88919912e-005 -1.98810030e-005 -1.92547141e-005
      -1.89517959e-005 -1.73563458e-005 -1.39753693e-005
      -1.98427369e-005 -1.83295706e-005 -2.17438665e-005
      -1.80274437e-005 -1.71153915e-005 -1.95284556e-005
      -1.90435039e-005 -1.90435039e-005 -1.90435039e-005
      -1.90435039e-005 -1.78359405e-005 -1.65036417e-005
      -2.35923217e-005 -1.65579568e-005 -1.87148598e-005
      -2.20374422e-005 7.68404716e-005 1.29617576e-004 1.45832673e-004
      2.83952162e-004 3.39501858e-004 3.31584015e-004 3.22696142e-004
      3.05177848e-004 2.72996229e-004 2.44252675e-004 2.27726749e-004
      2.38077278e-004 2.00738112e-004 1.57540766e-004 1.68030201e-005
      3.65947344e-005 -2.17418128e-005 -1.51944168e-005 -1.90435039e-005
      -1.90435039e-005 -1.90435039e-005 -1.90435039e-005
      -1.93444266e-005 -1.32595542e-005 -1.61902317e-005
      -1.83160028e-005 -1.65702986e-005 -1.92482439e-005 7.00760138e-005
      8.29004130e-005 1.34640184e-004 3.09935451e-004 3.74831608e-004
      3.81984137e-004 3.39073944e-004 2.93056393e-004 2.27529992e-004
      1.88197970e-004 1.66554164e-004 1.62307944e-004 9.89937398e-005
      6.42491359e-005 -1.54860663e-005 2.76710998e-005 -2.39021174e-005
      -1.57501036e-005 -1.90435039e-005 -1.90435039e-005
      -1.90435039e-005 -1.90435039e-005 -1.97433092e-005
      -2.21509181e-005 -1.65667170e-005 -1.98035959e-005
      -2.01364837e-005 -2.06729437e-005 6.71138769e-005 9.59856916e-005
      1.12834670e-004 3.01507534e-004 3.97721858e-004 3.83616163e-004
      2.94598227e-004 2.39271627e-004 1.51682922e-004 9.11551397e-005
      7.82004354e-005 9.63825951e-005 6.32484080e-005 3.00933225e-005
      -1.52515613e-005 1.43339503e-005 -1.26490213e-005 -1.27737276e-005
      -1.90435039e-005 -1.90435039e-005 -1.90435039e-005
      -1.90435039e-005 -1.89331167e-005 -1.85269491e-005
      -1.67917569e-005 -2.01619296e-005 -2.43096983e-005
      -1.32608839e-005 7.45510988e-005 9.19690865e-005 1.00087243e-004
      2.98358325e-004 3.69135727e-004 3.01891210e-004 2.16192348e-004
      1.80990683e-004 1.01484955e-004 4.36581831e-005 8.11376776e-006
      3.68085057e-005 -2.57379725e-006 -2.02120245e-005 -3.98248230e-005
      6.41608085e-006 -1.15206358e-005 -2.04775497e-005 -1.90435039e-005
      -1.90435039e-005 -1.90435039e-005 -1.90435039e-005
      -2.27359433e-005 -1.88745908e-005 -2.19398171e-005
      -1.62739034e-005 -2.20910861e-005 -1.65154561e-005 7.48504972e-005
      8.72058154e-005 9.66187799e-005 2.97769438e-004 3.19371815e-004
      1.95915403e-004 1.07225096e-004 1.15143077e-004 1.11959445e-004
      1.26826330e-004 1.40743708e-004 1.09309454e-004 9.34418858e-006
      -2.28649824e-005 -3.31159827e-005 1.97127374e-005 -1.86527632e-005
      -1.62458164e-005 -1.90435039e-005 -1.90435039e-005
      -1.90435039e-005 -1.90435039e-005 -1.90472929e-005
      -1.80255956e-005 -1.93917040e-005 -1.89689436e-005
      -2.23036895e-005 -1.97253248e-005 7.95638844e-005 6.99149314e-005
      8.53642778e-005 2.65148439e-004 2.27672193e-004 5.34195897e-005
      1.61535954e-005 1.21346464e-004 2.59249791e-004 4.06368403e-004
      4.53879155e-004 3.67608853e-004 1.76174886e-004 3.01089603e-005
      3.59367095e-006 2.37319564e-005 -1.60607306e-005 -1.88119138e-005
      -1.90435039e-005 -1.90435039e-005 -1.90435039e-005
      -1.90435039e-005 -2.11982970e-005 -1.73738081e-005
      -2.02393639e-005 -1.70223520e-005 -1.91930667e-005
      -1.96642886e-005 5.73425023e-005 4.67897626e-005 7.03312617e-005
      1.74212633e-004 6.29314382e-005 -1.14488095e-004 -5.65820119e-005
      1.75872585e-004 4.43745026e-004 7.02567340e-004 8.14501080e-004
      6.92720176e-004 3.93566996e-004 1.18037860e-004 2.10818762e-005
      2.05832639e-005 -1.52076509e-005 -2.08397723e-005 -1.90435039e-005
      -1.90435039e-005 -1.90435039e-005 -1.90435039e-005
      -2.04048774e-005 -1.79281196e-005 -1.84099954e-005
      -1.91823692e-005 -2.03697782e-005 -2.04389798e-005 4.94308952e-005
      1.02327158e-005 2.63134116e-005 7.26414873e-005 -1.11064262e-004
      -2.83061730e-004 -1.79294468e-004 1.52255743e-004 5.33166283e-004
      9.20423132e-004 1.12477015e-003 1.03137281e-003 6.10946328e-004
      2.36036023e-004 2.86179784e-005 2.55061022e-005 -1.93203196e-005
      -1.82821877e-005 -1.90435039e-005 -1.90435039e-005
      -1.90435039e-005 -1.90435039e-005 -1.90190713e-005
      -1.91062081e-005 -1.93235010e-005 -1.98728685e-005
      -1.96800247e-005 -1.90687206e-005 3.32751697e-005 -2.02048141e-005
      -4.27149243e-005 -4.62914104e-005 -2.77533894e-004
      -4.81610216e-004 -3.77879594e-004 -2.93833145e-005 4.01736906e-004
      9.21544968e-004 1.24037871e-003 1.17930467e-003 7.33251218e-004
      2.94664438e-004 4.07335538e-005 1.83404736e-005 -2.10250346e-005
      -2.51265919e-005 -1.90435039e-005 -1.90435039e-005
      -1.90435039e-005 -1.90435039e-005 -1.77928505e-005
      -1.80339157e-005 -1.89266593e-005 -2.01156836e-005
      -1.79137041e-005 -1.81512132e-005 1.84596283e-005 -5.03687806e-005
      -7.93851359e-005 -1.24799393e-004 -3.91720416e-004
      -6.52042974e-004 -6.16068661e-004 -3.44049826e-004 4.04207713e-005
      6.43723528e-004 1.06012495e-003 1.08352304e-003 6.84316445e-004
      2.48452590e-004 2.13952335e-005 6.06756294e-006 -2.01634721e-005
      -1.91935596e-005 -1.90435039e-005 -1.90435039e-005
      -1.90435039e-005 -1.90435039e-005 -1.94612421e-005
      -1.83875036e-005 -1.80224233e-005 -2.04297739e-005
      -1.71186530e-005 -1.83000138e-005 1.52541979e-005 -6.71544112e-005
      -1.31156179e-004 -1.89237195e-004 -4.71188076e-004
      -7.52428779e-004 -7.78627582e-004 -6.08634844e-004
      -3.38617538e-004 1.88729027e-004 6.38941128e-004 7.64306809e-004
      5.01735776e-004 1.53477755e-004 6.39598511e-007 1.12684040e-006
      -2.02321480e-005 -2.23205916e-005 -1.90435039e-005
      -1.90435039e-005 -1.90435039e-005 -1.90435039e-005
      -1.90223636e-005 -1.83124812e-005 -2.03563013e-005
      -2.00181839e-005 -1.77104430e-005 -2.07854046e-005 2.07711000e-005
      -8.01897040e-005 -1.59405856e-004 -2.36057851e-004
      -5.44784591e-004 -7.92496605e-004 -8.08226585e-004
      -6.69534144e-004 -5.30400779e-004 -2.48122727e-004 1.09730834e-004
      3.07662238e-004 2.49957258e-004 4.14878523e-005 -1.87535716e-005
      -9.96015387e-007 -2.25385811e-005 -2.19694266e-005
      -1.90435039e-005 -1.90435039e-005 -1.90435039e-005
      -1.90435039e-005 -1.95690318e-005 -1.87802380e-005
      -2.14394677e-005 -1.97909885e-005 -1.81666546e-005
      -1.93740489e-005 3.01216587e-005 -9.66403459e-005 -1.86684469e-004
      -2.86905153e-004 -6.14406017e-004 -7.90669059e-004
      -6.95992261e-004 -4.79877694e-004 -4.36719565e-004
      -4.54357534e-004 -3.03239998e-004 -1.40381511e-004
      -3.41952909e-005 -9.42417319e-005 -5.57680105e-005
      -1.33065305e-005 -2.21325317e-005 -2.12475825e-005
      -1.90435039e-005 -1.90435039e-005 -1.90435039e-005
      -1.90435039e-005 -1.96010660e-005 -1.91084619e-005
      -2.16847056e-005 -1.88912345e-005 -1.80647221e-005
      -2.06452860e-005 3.57128083e-005 -1.19676530e-004 -2.35010579e-004
      -3.48570524e-004 -6.85980427e-004 -7.70873041e-004
      -5.01210976e-004 -9.99662734e-005 -7.40515243e-005
      -3.38574901e-004 -4.59611154e-004 -4.27391147e-004
      -2.59367371e-004 -2.11056788e-004 -9.15175915e-005
      -1.89158309e-005 -1.97380305e-005 -1.97773061e-005
      -1.90435039e-005 -1.90435039e-005 -1.90435039e-005
      -1.90435039e-005 -1.88411141e-005 -1.86706002e-005
      -2.12432096e-005 -1.93776286e-005 -1.88057384e-005
      -1.96023902e-005 3.83259176e-005 -1.41265235e-004 -2.61107431e-004
      -3.88468645e-004 -7.21464807e-004 -7.36007292e-004
      -3.16155958e-004 2.47373013e-004 2.71629571e-004 -1.39907468e-004
      -5.16854692e-004 -6.00061379e-004 -4.09352506e-004
      -2.96187529e-004 -1.17764983e-004 -2.32851526e-005
      -1.82029817e-005 -2.07317698e-005 -1.90435039e-005
      -1.90435039e-005 -1.90435039e-005 -1.90435039e-005
      -2.13856729e-005 -1.66985428e-005 -2.33237624e-005
      -1.69920695e-005 -1.96230849e-005 -2.27910023e-005 3.29404174e-005
      -1.70306375e-004 -2.98044120e-004 -4.22957935e-004
      -7.55515764e-004 -7.25363090e-004 -2.21992086e-004 4.56240348e-004
      5.29590470e-004 6.45573746e-005 -4.30574495e-004 -6.60084537e-004
      -4.65995894e-004 -3.44985223e-004 -1.45807469e-004
      -2.72509205e-005 -1.99444858e-005 -1.90282717e-005
      -1.90435039e-005 -1.90435039e-005 -1.90435039e-005
      -1.90435039e-005 -1.99725800e-005 -1.72915043e-005
      -1.99691967e-005 -1.87383885e-005 -1.93602191e-005
      -2.15248656e-005 1.92809312e-005 -1.95960296e-004 -2.98158324e-004
      -4.04320162e-004 -7.19277770e-004 -6.80440862e-004
      -1.77037160e-004 4.86944191e-004 5.82205481e-004 1.58951822e-004
      -3.77801247e-004 -5.99854917e-004 -4.39020310e-004
      -3.48781818e-004 -1.61598480e-004 -2.60103734e-005
      -1.87791611e-005 -1.94369259e-005 -1.90435039e-005
      -1.90435039e-005 -1.90435039e-005 -1.90435039e-005
      -1.96278543e-005 -2.03562377e-005 -1.84924138e-005
      -1.92424359e-005 -2.01351286e-005 -1.83544162e-005
      -4.72874262e-006 -2.20137314e-004 -2.77590298e-004
      -3.30047595e-004 -6.30869705e-004 -6.49556809e-004
      -2.37186381e-004 3.38181679e-004 4.52167151e-004 8.82238164e-005
      -3.52863834e-004 -5.22019225e-004 -3.65421321e-004
      -3.23931017e-004 -1.71915803e-004 -2.18794703e-005
      -2.08789643e-005 -1.85412173e-005 -1.90435039e-005
      -1.90435039e-005 -1.90435039e-005 -1.90435039e-005
      -2.08151632e-005 -2.06676159e-005 -1.89648526e-005
      -2.00920385e-005 -1.95820376e-005 -1.80625084e-005
      -2.82637138e-005 -2.21679860e-004 -2.21593466e-004
      -1.96175781e-004 -4.62656433e-004 -5.37881686e-004
      -2.67961208e-004 1.80183881e-004 2.81021959e-004 -3.02179087e-005
      -3.47839319e-004 -4.36838192e-004 -2.77918822e-004
      -2.75862374e-004 -1.61757489e-004 -1.71050960e-005
      -1.96797191e-005 -1.96824330e-005 -1.90435039e-005
      -1.90435039e-005 -1.90435039e-005 -1.90435039e-005
      -1.95604534e-005 -2.07498288e-005 -1.85918871e-005
      -2.11122788e-005 -2.00507293e-005 -2.08812489e-005
      -4.28983840e-005 -2.02986223e-004 -1.48292354e-004
      -5.76775419e-005 -2.52698577e-004 -3.65834072e-004
      -2.37967164e-004 4.84498851e-005 1.09072666e-004 -1.33268069e-004
      -3.04666028e-004 -3.26090842e-004 -1.77465467e-004
      -2.09597580e-004 -1.31378270e-004 -3.05731555e-006
      -1.78298633e-005 -2.21165374e-005 -1.90435039e-005
