layers 16
layer 0 Convolution2D
32 1 3 3 valid
[ 0.11164846  0.10623274 -0.05280904]
[-0.08870751  0.08785247  0.08936392]
[-0.19660205 -0.14237231  0.01800226]
[-0.0064414  -0.15577865 -0.19507183]
[ 0.14985658 -0.02182958  0.0884027 ]
[-0.1188918   0.07203227  0.10425567]
[-0.24811311  0.12233983  0.09527093]
[-0.04694954  0.07422987 -0.00797687]
[ 0.19629472  0.01529295 -0.17578669]
[ 0.14583696  0.16288106 -0.10077515]
[ 0.11253498 -0.15803605  0.02566856]
[-0.06794111 -0.16218191  0.07961169]
[-0.09517481 -0.15419859 -0.03450261]
[-0.08819346  0.17575601  0.02600638]
[-0.01139388  0.11445036  0.05315778]
[-0.13883737 -0.00092378 -0.06787203]
[ 0.16869514 -0.03255327  0.01433596]
[ 0.11681533 -0.05505222  0.12787558]
[-0.17437132 -0.00211477 -0.14169806]
[ 0.02233351  0.13318348 -0.12516178]
[-0.0312181   0.13019548  0.14375873]
[-0.00789743  0.21207111  0.16079935]
[ 0.00012093  0.1103138  -0.1048718 ]
[ 0.00416812 -0.19267127 -0.14884013]
[-0.15768893  0.07811035 -0.06000778]
[ 0.04990963  0.15351486 -0.09395099]
[ 0.07035974  0.04873819 -0.02758732]
[ 0.14759155 -0.10554547  0.10338086]
[ 0.03375535  0.03636244 -0.11811888]
[ 0.13634597 -0.12681873 -0.09144789]
[-0.04965787 -0.03524087  0.11383345]
[-0.05167505  0.09543994  0.17449957]
[-0.19810623 -0.13533914  0.08130899]
[-0.1830679   0.09873807  0.11016085]
[-0.11540495  0.00123525  0.10833889]
[ 0.13544498  0.09840728 -0.15175393]
[-0.25461653 -0.05896434  0.18406035]
[ 0.05824304  0.11141937 -0.05633603]
[ 0.07696337 -0.02804928 -0.06928265]
[ 0.02813319 -0.21820736 -0.2038489 ]
[ 0.11667248  0.02600433  0.12574096]
[-0.10639352  0.05917123  0.15438698]
[ 0.19311924  0.10609837  0.09101572]
[-0.03827506 -0.07264255 -0.02561848]
[-0.22801024  0.06480737 -0.11314551]
[ 0.22430784  0.00183761  0.00384021]
[-0.12789385  0.10781969 -0.09269383]
[-0.15741855 -0.1108457   0.1246087 ]
[ 0.15846851 -0.03044454 -0.1833016 ]
[ 0.01794352 -0.11543753  0.00588859]
[ 0.13794662 -0.03845675  0.07935719]
[ 0.14997867  0.17034084  0.1151289 ]
[ 0.09640965  0.06930552 -0.03932732]
[-0.12645447 -0.2553401  -0.16955413]
[-0.08891723 -0.04704001 -0.19723706]
[-0.03070735 -0.10163552  0.08291788]
[ 0.22207901  0.07118727  0.06620958]
[-0.09962811 -0.08176617  0.05933632]
[-0.17004171  0.08478817  0.13887307]
[ 0.0600958  -0.07601199  0.11912972]
[ 0.16808482  0.1342472  -0.02772869]
[-0.02902414  0.05643258 -0.16712648]
[-0.11476698  0.02047361 -0.05497411]
[ 0.16703419  0.05986168 -0.05103163]
[-0.03304787 -0.1111862   0.08933286]
[-0.16250919 -0.08273775  0.13400885]
[-0.20808929 -0.1934268  -0.08798587]
[ 0.09239469  0.0617233  -0.02571487]
[ 0.06329247  0.21219359  0.07665242]
[-0.0495845   0.0142822   0.08005915]
[-0.11606586  0.12607725  0.01300456]
[-0.16939518 -0.02079925  0.10962255]
[ 0.0995181  -0.1136247   0.05627479]
[-0.20095426  0.02656741  0.03880318]
[-0.03185089 -0.0434728   0.15943159]
[ 0.16383588 -0.16409965 -0.07671192]
[ 0.15240945 -0.04404822 -0.14720674]
[ 0.0947703   0.05660667 -0.05335737]
[-0.18702835 -0.05508023  0.02192126]
[-0.11825474  0.18440542  0.09233087]
[ 0.18805292 -0.07419617 -0.08506076]
[ 0.02960276 -0.11593883 -0.1277505 ]
[-0.02935051  0.03743115 -0.07432918]
[ 0.14642347  0.13632067 -0.06245465]
[ 0.13256958  0.0470707  -0.07776722]
[ 0.13939974  0.00998514  0.0005788 ]
[-0.03842873 -0.18282369 -0.0434767 ]
[ 0.10181808 -0.01410039 -0.16992357]
[ 0.08237756 -0.11666158 -0.12372269]
[ 0.19060294  0.08565079 -0.05417957]
[-0.09769645  0.03971777 -0.01987729]
[-0.1617303   0.07955717  0.03628154]
[-0.12624438  0.10856877  0.15362804]
[-0.15134187  0.11819441  0.11195754]
[ 0.03129626  0.09554213  0.01412357]
[-0.23997422 -0.04030949  0.06012683]
[ 0.05247577  0.04137136  0.01373923 -0.02512483  0.01622018 -0.06427553
  0.0234246   0.00999643 -0.03514676 -0.01668933 -0.00117799 -0.04740732
  0.02234712  0.00268686  0.0145759   0.00671114 -0.01278562 -0.02049963
  0.00972907 -0.02171281  0.01404039 -0.00191251 -0.00145732  0.01204877
 -0.0058413   0.00261491  0.02710508  0.03937712  0.02253919  0.00357988
  0.00332938  0.00149592]
layer 1 Dropout
layer 2 Convolution2D
64 32 3 3 valid
[-0.02403679 -0.06103382 -0.02174267]
[-0.01577319 -0.09045473  0.0601326 ]
[ 0.18251359  0.03728752  0.06376367]
[-0.07344145 -0.09918638  0.05491683]
[-0.13324939 -0.0827253  -0.02276927]
[-0.01745136 -0.14092498 -0.0653531 ]
[ 0.03902994 -0.01331145 -0.09534408]
[ 0.05545396  0.00268242 -0.04290931]
[ 0.02674978  0.04851807 -0.06901985]
[-0.05468511  0.18776007  0.11992599]
[-0.01224613  0.10635597 -0.00837061]
[-0.04746816  0.00932663  0.07928554]
[ 0.06414842 -0.06972297 -0.03822818]
[ 0.07704456 -0.03564909  0.10665801]
[ 0.08176755 -0.04247237 -0.0532662 ]
[-0.05501276  0.07897015 -0.04547709]
[-0.07731315  0.02095394 -0.13013829]
[-0.09713425 -0.04093933 -0.00844353]
[ 0.04402758 -0.01658977 -0.21369655]
[ 0.0815119  -0.11746476 -0.17824639]
[ 0.09144485 -0.19625586 -0.07804711]
[ 0.10964224  0.10242841  0.05290925]
[ 0.00577392  0.06769619 -0.00776403]
[ 0.11619336  0.144896   -0.02997425]
[ 0.12332976  0.0615837  -0.03221616]
[-0.03827123  0.03624041 -0.02149229]
[ 0.0009112  -0.05893675 -0.0910788 ]
[-0.07612294  0.06123839  0.08625584]
[-0.06424775  0.08159012  0.17291033]
[-0.0937912   0.15206471 -0.0305534 ]
[ 0.04086643 -0.09220733 -0.01429897]
[ 0.05767074 -0.12958455 -0.04001509]
[ 0.06843557  0.01419198  0.00329809]
[ 0.07835086  0.01934887  0.00690504]
[-0.0813436  -0.04290714 -0.05998797]
[-0.03765633 -0.04148741 -0.16306454]
[ 0.077897   -0.02985099  0.01293471]
[-0.06924907 -0.17683323  0.06125013]
[ 0.09582079 -0.00638942  0.04733442]
[-0.11711411  0.00181616 -0.09941287]
[-0.00853817 -0.06263965 -0.05961752]
[-0.09955118 -0.02905782  0.01136542]
[ 0.13450737 -0.01594565  0.1901945 ]
[ 0.15228839  0.02557836  0.02396787]
[ 0.19160721  0.08717508  0.08104166]
[-0.01125428 -0.05054511  0.03074426]
[ 0.02104788 -0.02853825  0.08808147]
[ 0.07618117 -0.02647281  0.07616034]
[-0.15711674  0.07358411  0.04419206]
[-0.0984377   0.01879968  0.00952034]
[-0.10707236  0.04732507 -0.03561878]
[-0.04145374  0.13044968  0.15561725]
[ 0.02035115  0.00436059 -0.03651929]
[ 0.06837925  0.1240557   0.10820337]
[-0.10315148  0.05630528 -0.06334181]
[-0.15968643  0.0293345   0.01596585]
[-0.1725653  -0.1160619  -0.08087504]
[ 0.02629757 -0.12346718 -0.0630262 ]
[-0.01615788 -0.01392236 -0.13484384]
[ 0.02657761 -0.07493935 -0.04922459]
[-0.0019409   0.08142401  0.13630188]
[ 0.20989081  0.04349113  0.0751069 ]
[ 0.15300229  0.20354748  0.05987284]
[ 0.01579865  0.00842908 -0.04991105]
[ 0.09641159 -0.08948632 -0.02792606]
[ 0.06743413 -0.13927402 -0.04062849]
[ 0.02706942 -0.01909787 -0.16058582]
[ 0.02479776 -0.07198349 -0.07753498]
[-0.02939303 -0.05743967 -0.15441589]
[ 0.01105102 -0.07457235 -0.07994253]
[ 0.11325826 -0.11261559 -0.01168254]
[ 0.05113087 -0.16704117 -0.01017133]
[ 0.02242144 -0.08988492 -0.10193671]
[  7.31279850e-02  -1.06055386e-01  -6.59634388e-05]
[ 0.01876571 -0.01368113  0.0410491 ]
[-0.02986847  0.09440134  0.15693569]
[-0.08951768  0.02975981 -0.02533563]
[-0.01463963  0.112157    0.14723678]
[-0.03027712 -0.02067501 -0.08923544]
[-0.01338778 -0.10680632 -0.0052298 ]
[ 0.0069711  -0.09030466 -0.09278701]
[-0.12707028  0.10349923 -0.04361864]
[-0.04805987  0.0889374   0.0077496 ]
[-0.07961155  0.12384892  0.02345886]
[-0.07109932  0.05299076  0.02506346]
[-0.0093318   0.12144592 -0.03149747]
[-0.04585205  0.09242143  0.12127838]
[-0.05353763  0.11029813 -0.09959021]
[-0.02940238  0.10629072  0.03432712]
[-0.13297604  0.06593791  0.11058664]
[ 0.06804276 -0.16747321 -0.07075534]
[ 0.02946139 -0.0724666  -0.03859625]
[ 0.08324432 -0.19034939 -0.01805007]
[ 0.01657921 -0.02271285 -0.03323076]
[ 0.06290229 -0.1976741  -0.08222203]
[ 0.11319854 -0.0955819  -0.03887005]
[ 0.0756695  -0.02134401 -0.22507629]
[ 0.09163077 -0.00843824 -0.00260634]
[-0.01188587  0.22263378  0.07069091]
[ 0.00706967  0.1907331  -0.00163216]
[-0.22645769 -0.05479436  0.04211147]
[-0.16425994 -0.0492963   0.05126047]
[-0.03519716 -0.0644622   0.04207996]
[ 0.05665133 -0.06619352 -0.11590195]
[ 0.00969332 -0.06000948 -0.15123707]
[ 0.07246387  0.08244553  0.0023434 ]
[ 0.16476068  0.10790255  0.20255707]
[ 0.09849846 -0.00468238  0.0131997 ]
[ 0.01049349 -0.06550234  0.00900683]
[ 0.00156566 -0.00029459 -0.01852258]
[-0.14459819  0.013618   -0.0007161 ]
[ 0.04181601  0.0944786   0.11847597]
[-0.03234071 -0.00719396  0.02148191]
[-0.06073679 -0.13583283  0.0250372 ]
[-0.00903127  0.02537985  0.04978091]
[-0.24714155 -0.04669569 -0.00590596]
[-0.1757542  -0.06813916 -0.12713897]
[ 0.16314861 -0.02231951 -0.11636057]
[ 0.29218471  0.17076604  0.00351364]
[ 0.22387066  0.12022591 -0.07938148]
[ 0.07916541  0.03660014  0.09335496]
[-0.02313886 -0.0320785   0.01543691]
[-0.08684415 -0.07168895 -0.05891363]
[-0.08148751  0.104452    0.11774895]
[-0.03453222  0.02638696  0.02944508]
[ 0.04488315 -0.09929585 -0.05246798]
[ 0.16577391 -0.04546017 -0.00646269]
[ 0.14754222  0.08802155  0.06460179]
[ 0.01774559  0.09919506  0.11257226]
[ 0.01050508 -0.02634601  0.07479295]
[ 0.07030662 -0.07617626 -0.0755457 ]
[-0.04113257 -0.0238839  -0.01066786]
[-0.09734728 -0.20736638  0.03956119]
[ 0.09294634 -0.13719897 -0.08292291]
[ 0.08295658 -0.04283013 -0.07997967]
[-0.00564718  0.23334731  0.21782272]
[-0.23869143 -0.05722773  0.11215471]
[-0.24844249 -0.10792597  0.1510732 ]
[ 0.03810961 -0.06477752 -0.27098253]
[ 0.02696018  0.27752507  0.09960136]
[ 0.20821746  0.24680303  0.13143356]
[ 0.14824255  0.04586753 -0.26063603]
[-0.03597376  0.28370312  0.03393677]
[-0.07753848  0.20183966  0.10006975]
[-0.08289611  0.04785391  0.14927523]
[-0.07170983 -0.12731014  0.00398451]
[ 0.02188923 -0.06484388 -0.05228033]
[ 0.12051217  0.13168259  0.00556434]
[ 0.22390796  0.14325354  0.08645618]
[ 0.01530777  0.11572385  0.05803301]
[-0.18910623 -0.13956647  0.0921689 ]
[-0.1517743  -0.26633674 -0.11667752]
[-0.18884483 -0.28012696 -0.14717518]
[ 0.02778434 -0.07354183  0.03683647]
[-0.0377745   0.00166932 -0.04453542]
[-0.03652496  0.03686063  0.07114403]
[-0.02369665  0.0525119  -0.00937407]
[ 0.00514327  0.1453753  -0.0004846 ]
[ 0.07291457  0.11273374 -0.0155849 ]
[ 0.03039273 -0.00053195 -0.18874243]
[ 0.12027394  0.19339105  0.07499838]
[ 0.04293894  0.23571011  0.18473183]
[-0.21879074 -0.11176103  0.13039997]
[-0.2989679  -0.16861764 -0.13673739]
[-0.32004589 -0.20072393 -0.17194626]
[ 0.09830984 -0.07158896 -0.12702926]
[ 0.09290853  0.05631775  0.01247983]
[-0.00340987  0.15611227  0.05174857]
[ 0.09647185 -0.12827614  0.00031305]
[-0.02376297  0.05058956 -0.00045804]
[-0.02751599  0.13820647  0.13016304]
[-0.15558019  0.07872653  0.10038742]
[-0.08292269 -0.03499506 -0.02006193]
[-0.02748441 -0.08771528 -0.10219645]
[ 0.03322268 -0.14854594 -0.07551987]
[ 0.12948278 -0.09892624 -0.20558682]
[-0.05082948 -0.03930161 -0.12855378]
[-0.10614293 -0.00022089  0.00220155]
[-0.17780747 -0.09863769 -0.02145875]
[ 0.02713013 -0.07910413 -0.07350447]
[-0.01091114  0.06645173  0.03969596]
[ 0.01455941  0.08598944  0.04100325]
[ 0.02969684 -0.04370245 -0.04885129]
[-0.09784763 -0.00724044  0.05553709]
[-0.07871566 -0.06348551 -0.03146155]
[-0.03121276 -0.13268189 -0.07399382]
[ 0.05969577 -0.05262956 -0.0953596 ]
[ 0.00655336  0.03173834  0.01541448]
[-0.00846755  0.11766317  0.08382698]
[ 0.13790911 -0.01790331 -0.01071517]
[ 0.09070201  0.05215659  0.05790684]
[ 0.00827181  0.08913764  0.00977407]
[ 0.00385542 -0.03912299 -0.05731394]
[ 0.04248742 -0.02781532 -0.05408321]
[ 0.0239734  -0.04849935 -0.03016716]
[ 0.03438908 -0.01497084 -0.03455742]
[ 0.06404122  0.01751259  0.01317173]
[-0.05677434  0.02790216 -0.06870428]
[-0.0616396   0.05662709 -0.02273427]
[-0.07107706 -0.03623935  0.01518041]
[ 0.15868914 -0.02319441  0.0361582 ]
[-0.05846657 -0.04569453  0.03300451]
[-0.08354072 -0.01691771  0.13490686]
[-0.14731167  0.07962954  0.03073247]
[ 0.04214726 -0.01118613 -0.01566359]
[ 0.11498377 -0.09044795 -0.03716746]
[ 0.08887593 -0.0290034   0.02355255]
[-0.05902093  0.02538325 -0.03256549]
[-0.11307932  0.07937804 -0.0290955 ]
[-0.07616669  0.02544767 -0.0291927 ]
[ 0.01933372 -0.0198822  -0.04809268]
[ 0.05278266  0.04216963  0.05921035]
[ 0.03349989 -0.07881197 -0.06819891]
[-0.09107254 -0.06291793  0.06970839]
[-0.06663021 -0.00322237  0.00792469]
[-0.03943862  0.037535    0.02280834]
[-0.05540647  0.02917381  0.00853346]
[ 0.00549644 -0.09500479 -0.04181797]
[-0.0079826   0.09136205  0.05644796]
[-0.08888528 -0.10642041 -0.00124024]
[-0.0731272   0.06000763 -0.07304017]
[-0.03754311  0.08992108 -0.00629401]
[ 0.03840016  0.02346331  0.10082775]
[ 0.07117059 -0.0043394   0.00402276]
[ 0.04853038  0.00164182  0.02735584]
[ 0.02905269 -0.03459085 -0.04534772]
[ 0.00452138  0.0578043  -0.01274685]
[-0.06962208 -0.01073498  0.06375978]
[ 0.02231459  0.02514713 -0.01315219]
[-0.00308773  0.02058973 -0.06396638]
[ 0.07925973 -0.03757103 -0.0520761 ]
[ 0.08733455  0.09042067 -0.01417115]
[ 0.00046844 -0.04569357 -0.02573765]
[-0.0191938   0.03293715 -0.06625351]
[-0.04661261 -0.0822785   0.05255722]
[ 0.01067421 -0.07448274  0.11867431]
[-0.06497107 -0.03322668  0.05718976]
[-0.04914512 -0.04444527 -0.05595446]
[ 0.01231731 -0.071354    0.04480413]
[-0.05594056 -0.05421552 -0.01128076]
[-0.11617473 -0.0618577  -0.07874858]
[-0.07038704  0.00381949  0.00353909]
[-0.06478023  0.03424171 -0.03234779]
[-0.04094305 -0.01466552  0.05598688]
[ 0.01510804 -0.0409958  -0.02493331]
[-0.00591118 -0.01274878 -0.00715717]
[-0.01917893 -0.00966797 -0.06776496]
[-0.02490897  0.09360145 -0.04248057]
[ 0.03404744 -0.02650253 -0.0101075 ]
[ 0.09628044  0.033747   -0.02317118]
[ 0.03019549  0.00414615 -0.00034904]
[ 0.06639817 -0.06933372 -0.04375188]
[-0.05138534 -0.10039866 -0.02228328]
[ 0.11507932  0.03430763 -0.02150469]
[ 0.02173806  0.0003004   0.11512714]
[ 0.02142598  0.00643247  0.02125562]
[ 0.00738913  0.00604525 -0.04339914]
[-0.03732417  0.02546606  0.03592814]
[ 0.06645334  0.00804763  0.00688421]
[ 0.05425375  0.04924406  0.00429972]
[ 0.01808416 -0.08023894  0.00586462]
[ 0.08664403 -0.00271372 -0.00862719]
[ 0.08044085 -0.03870397 -0.03497761]
[ 0.01181412 -0.00388144 -0.00146033]
[ 0.09577662 -0.02986478 -0.07406221]
[ 0.06630188  0.06672282 -0.06135868]
[-0.00173653 -0.00438029 -0.05436966]
[-0.06812878 -0.01222072  0.03042466]
[-0.06691946 -0.04352298  0.04408584]
[-0.02751051  0.04430461 -0.07693009]
[ 0.01872201 -0.05539028 -0.06412385]
[ 0.06538466 -0.01353991 -0.06324955]
[ 0.13043113 -0.01751527  0.01447007]
[-0.00991536 -0.01150944 -0.02817506]
[-0.0073104   0.07411719  0.00255233]
[-0.05297628  0.00478646 -0.0235594 ]
[-0.05766614  0.00709543 -0.03387579]
[-0.0318463  -0.01483723  0.04504155]
[-0.11761613  0.01322004  0.04322033]
[-0.00728373 -0.0293911  -0.01067185]
[-0.08004495 -0.02320587  0.02813962]
[-0.08772845  0.03717082 -0.09717512]
[ 0.09272363 -0.01978041  0.01027123]
[ 0.03377528 -0.02575994 -0.05495528]
[ 0.1349529  -0.02425726 -0.02299962]
[ 0.07477034  0.00130801  0.0464214 ]
[ 0.09637052 -0.04979653 -0.1004709 ]
[ 0.12389781  0.00784051  0.03577266]
[-0.03151559  0.06241439  0.01167903]
[-0.10743757  0.0274672   0.06348144]
[-0.13377455 -0.00724283 -0.00338195]
[ 0.0703323  -0.03541834 -0.05444834]
[ 0.03326945  0.06312647 -0.02577254]
[ 0.06129026  0.01867137  0.03133031]
[ 0.04702586  0.14055206  0.00703023]
[ 0.01265717 -0.06400237 -0.07412957]
[-0.03378792 -0.0276778   0.03537433]
[ 0.02412133 -0.0703209   0.01997805]
[ 0.0406343  -0.10343625  0.063349  ]
[ 0.01177216 -0.11557116  0.03166853]
[ 0.00533739 -0.04617503 -0.06834199]
[-0.04190103  0.08267257  0.02568178]
[ 0.00167219 -0.03307571  0.01179434]
[-0.00825307 -0.03741204 -0.04775757]
[ 0.04936192  0.02849598 -0.06457683]
[ 0.03533358 -0.02927007  0.01676205]
[-0.06703006  0.04556547 -0.00603233]
[-0.05766386  0.04417685  0.0664973 ]
[-0.0535036   0.02171425 -0.03422296]
[-0.02660244  0.04535758 -0.01773276]
[-0.0259147  -0.00204517 -0.04827135]
[ 0.00053518  0.04161131 -0.04724097]
[-0.03007945  0.03329468  0.02689467]
[-0.00259874 -0.00466148  0.00483269]
[-0.05113444 -0.01172309  0.05355671]
[ 0.04223404 -0.0816698   0.03046766]
[ 0.06779873 -0.00226916  0.000523  ]
[ 0.16286182  0.01924393  0.038957  ]
[ 0.05647122  0.03038919 -0.04600001]
[-0.0267621  -0.05637004  0.01990425]
[-0.17057016  0.01384553 -0.021563  ]
[-0.01200193  0.03229514 -0.0639338 ]
[-0.09102725 -0.00590045 -0.0527135 ]
[-0.02926087  0.08683539  0.05644501]
[ 0.01579829  0.14157853 -0.08885659]
[-0.01061527  0.07697959 -0.01753003]
[-0.04387345  0.04431286 -0.01868105]
[-0.00229497 -0.06527445  0.06170517]
[ 0.0101811  -0.02688565 -0.00349812]
[ 0.00711397 -0.00053047 -0.01155935]
[-0.03062921  0.04791255  0.08305359]
[-0.03253824  0.0105072  -0.02991823]
[-0.01216662 -0.00453106  0.03404717]
[-0.10451849  0.01141677  0.05544109]
[-0.13514978  0.01859958  0.06616426]
[-0.10602076 -0.01676402 -0.01947124]
[ 0.04958216 -0.10981007 -0.04360407]
[ 0.0677809  -0.05841875  0.0088678 ]
[ 0.15927771 -0.09545619 -0.00384236]
[ 0.00847817 -0.05385751  0.02093266]
[-0.03918617 -0.02350441 -0.030501  ]
[ 0.01870753  0.0025642  -0.00556487]
[ 0.02987959 -0.05319467 -0.00338132]
[ 0.05840589 -0.03278545  0.07602954]
[ 0.03511826  0.00936047 -0.00450944]
[ 0.04426887 -0.00097064 -0.01599662]
[-0.00336055  0.05247547  0.01062094]
[-0.06082474 -0.04668343  0.0098693 ]
[-0.03029234  0.03643423  0.06253511]
[-0.01636633  0.0124141  -0.03843578]
[-0.0498345   0.01151125 -0.00488381]
[ 0.03477935 -0.06354704  0.02370838]
[ 0.00364217  0.00027493 -0.03317471]
[-0.05144266 -0.02678697  0.02175296]
[ 0.03436001 -0.01341632 -0.07997752]
[ 0.03854053 -0.02838565 -0.03636596]
[ 0.00795513  0.0384823  -0.03063488]
[-0.04949597  0.0367088   0.01302988]
[-0.1251974  -0.00823394 -0.07014862]
[-0.11013361  0.1058168   0.03600101]
[ 0.05897436 -0.05535262  0.06262321]
[-0.02687147  0.03127759  0.00667646]
[-0.04727334  0.03199758  0.02106439]
[ 0.068661   -0.12391379  0.01026424]
[ 0.0958907   0.01212192  0.06655543]
[ 0.13446081 -0.02874137  0.06246937]
[ 0.02939608  0.08376169 -0.04489312]
[ 0.00663959  0.1036743  -0.02802605]
[-0.06941174  0.04467343  0.0383493 ]
[ 0.03912439 -0.10531816 -0.01453206]
[ 0.10604408  0.06687574 -0.02767443]
[ 0.15331094  0.01449924  0.01207974]
[ 0.00973227 -0.04960753 -0.02900597]
[ 0.03553786 -0.03175449 -0.02136506]
[ 0.12938729 -0.01833154  0.03151229]
[ 0.0540058  -0.07098984  0.02910748]
[ 0.12544359 -0.01492521  0.06054286]
[ 0.03929126 -0.00548406  0.02011198]
[-0.11567379  0.13000949 -0.05816436]
[-0.17781326  0.00843169 -0.02119574]
[-0.11963841  0.0065555   0.05934583]
[-0.06963896  0.16786329 -0.04500544]
[-0.19112837  0.06244112 -0.08346714]
[-0.17231268 -0.06292029 -0.01274348]
[-0.13960752 -0.14925553  0.04253006]
[ 0.03886544  0.00032723 -0.00586692]
[-0.00043512  0.02940725 -0.01388474]
[ 0.05484909  0.00367678  0.05694869]
[-0.21168157 -0.08165728 -0.11324412]
[-0.14880745 -0.10024296 -0.09284671]
[-0.19361956 -0.0031631   0.03908675]
[-0.11300665 -0.03111634  0.10085557]
[-0.03297745  0.00774629  0.16457124]
[ 0.13825041  0.05326384  0.0793635 ]
[ 0.15410824  0.14414161  0.02339842]
[ 0.10081454  0.02294579  0.0689765 ]
[ 0.03154704  0.04877989 -0.0354785 ]
[-0.14613216  0.05357238 -0.10342056]
[-0.01536909  0.00805091 -0.08251181]
[ 0.03346078  0.0278464  -0.0519167 ]
[-0.0237642  -0.03189851 -0.13429728]
[-0.11483138 -0.15587619 -0.26800403]
[-0.08108012 -0.00729957  0.16686676]
[-0.17956823 -0.15458302 -0.02795278]
[-0.12463765 -0.05696921  0.0115122 ]
[-0.0237076  -0.07693877  0.07107809]
[ 0.09581697 -0.00736018  0.11920116]
[ 0.02173818 -0.01520603  0.17224276]
[-0.02996495 -0.00828954  0.08768639]
[-0.04617349 -0.01662983 -0.06410156]
[-0.0176627  -0.07565751  0.02717549]
[ 0.03887687  0.02868412  0.05066121]
[ 0.06145738  0.05767284  0.06787179]
[ 0.06699945  0.05626172  0.14933443]
[-0.02165402 -0.07191869 -0.07376289]
[ 0.01607814 -0.08034658 -0.15801415]
[-0.01861108 -0.0558633  -0.12342475]
[-0.17347112 -0.03637207 -0.20741731]
[-0.07563429 -0.10528914 -0.16801254]
[-0.02674263 -0.08092114 -0.09076957]
[-0.11135443  0.00343304 -0.08018304]
[-0.16796577  0.01120561 -0.07238894]
[-0.04289053  0.0227593  -0.04231069]
[ 0.04188405  0.01501132  0.04884452]
[-0.01794926 -0.11656762 -0.08388523]
[ 0.00040347 -0.05805913 -0.22486638]
[ 0.01662641 -0.02575508  0.03743017]
[ 0.13362077  0.09485699  0.0447743 ]
[ 0.12751831  0.18976401  0.15344131]
[ 0.08579528  0.00528042 -0.09824768]
[ 0.10605907  0.07698577  0.02826488]
[ 0.08483455  0.01144673 -0.00850135]
[-0.00382499  0.00790612  0.03393365]
[ 0.09610934 -0.00018327  0.0662711 ]
[-0.02223343 -0.07901749  0.05891315]
[ 0.10975859  0.11697165 -0.04823512]
[ 0.18139493  0.00084831  0.0345376 ]
[ 0.08664489  0.04531392  0.09885042]
[-0.05696052  0.00317142  0.09462702]
[-0.06964299 -0.07912388 -0.00091   ]
[-0.06047652 -0.09597173 -0.0870996 ]
[-0.07439674 -0.03478134 -0.18546268]
[-0.13503899 -0.01342031 -0.17701386]
[-0.07897265 -0.09894776 -0.2217274 ]
[ 0.18678656 -0.01887732  0.16382968]
[ 0.09070725  0.06239285  0.23230372]
[ 0.04630589  0.06544229  0.23069477]
[ 0.09310479  0.09116782 -0.18494828]
[ 0.14725041  0.05225005 -0.10105226]
[ 0.05053835  0.04018382 -0.11988277]
[-0.07965003  0.01301872  0.04789332]
[-0.13803452 -0.12985918 -0.02957937]
[-0.10248239  0.01248089 -0.156598  ]
[-0.05899975 -0.01242828 -0.14423656]
[-0.03559949  0.05261224 -0.20003514]
[-0.01589111 -0.0054428  -0.12395003]
[-0.05940204 -0.0780177  -0.14675266]
[ 0.01825904  0.03886515 -0.08821978]
[ 0.07521693 -0.08774304 -0.07832287]
[ 0.12229891  0.01795842  0.10597862]
[ 0.00285303  0.10969325  0.10802758]
[-0.0216215   0.02147541  0.08724926]
[-0.13117106 -0.11988773 -0.07600309]
[-0.12785621 -0.03204628  0.0308149 ]
[-0.11825111 -0.0594078  -0.07798218]
[ 0.02808441  0.07354177  0.17503497]
[-0.01945872  0.05632665  0.19728796]
[-0.02959362 -0.05702819  0.0756601 ]
[ 0.10377195  0.01027177  0.11584985]
[ 0.05604938  0.02662827  0.03131609]
[ 0.00127084 -0.00524218  0.06268889]
[ 0.05609266 -0.06402358  0.17236237]
[ 0.03522347 -0.04481519  0.14955913]
[ 0.01987306 -0.02221327  0.09461724]
[-0.15926044 -0.04834628 -0.08005066]
[-0.1194136  -0.01481263 -0.1597036 ]
[-0.07489594 -0.10054208 -0.22906558]
[-0.02017378  0.02790625 -0.17057484]
[ 0.02227727 -0.02225226 -0.14783575]
[ 0.03076762 -0.04284975 -0.06564726]
[-0.01883529  0.06829245 -0.00044978]
[ 0.15251812 -0.00308499 -0.04749124]
[ 0.15968747 -0.11552971 -0.10826515]
[-0.10037244  0.109069   -0.06195522]
[ 0.13304211  0.06690285 -0.02626254]
[ 0.01364173 -0.00226867 -0.1118446 ]
[-0.03326862 -0.3030813   0.02195795]
[-0.12444021 -0.02073778  0.02500456]
[-0.23207124  0.04869324  0.0878793 ]
[ 0.30300927  0.16394213 -0.07566521]
[ 0.1716195  -0.03814597 -0.03078365]
[-0.09004017 -0.04511578 -0.05657213]
[-0.29521328 -0.11661544  0.06925131]
[-0.07652307  0.08599542  0.00462826]
[ 0.13927902  0.0227764   0.04059602]
[-0.02431962 -0.07097659 -0.01205106]
[ 0.02500465  0.08710123  0.04488159]
[-0.03392962 -0.0457282   0.00440509]
[-0.11972862 -0.15230094  0.01672925]
[-0.08239754 -0.02350525  0.09645563]
[-0.01648761  0.07085223 -0.0369854 ]
[ 0.25137866 -0.1476147  -0.05782978]
[-0.03877658 -0.0988589  -0.00461808]
[-0.16026837 -0.13593408  0.03541562]
[ 0.01590799 -0.08583993 -0.03696999]
[-0.11410931 -0.0110484   0.10640966]
[-0.15786374  0.03899293  0.00017308]
[ 0.10647155 -0.02120269 -0.00089871]
[ 0.00519329 -0.03271272  0.05922832]
[-0.14731975 -0.05635087  0.07425094]
[-0.08926108 -0.00947075  0.00244069]
[-0.02790525  0.03773006 -0.03537019]
[ 0.10309457 -0.01849095 -0.09548663]
[-0.07383257 -0.10295612 -0.03713744]
[-0.15515231 -0.00123252 -0.00987982]
[-0.07824045  0.06066215  0.04342512]
[-0.12213086 -0.31942248 -0.05613028]
[-0.06775497 -0.00376094  0.11084026]
[-0.09367495  0.10099027 -0.05975613]
[-0.19511564  0.05538137  0.00422173]
[ 0.18496016  0.22718212  0.00745054]
[ 0.07914387 -0.04543058 -0.17289367]
[ 0.15153198  0.1267312  -0.04229515]
[ 0.14921695 -0.06085134 -0.0526991 ]
[ 0.10139644 -0.0992641  -0.17519946]
[ 0.17844324  0.23139668 -0.10816434]
[ 0.27146721  0.01105303 -0.12318114]
[ 0.36985919 -0.07831735 -0.18936157]
[ 0.1621186  0.1984985  0.0020101]
[ 0.11431861 -0.01089875 -0.05689761]
[-0.02267741 -0.04606983  0.07735241]
[ 0.14312387  0.08759956 -0.03772136]
[ 0.11647218  0.01936795 -0.05606544]
[-0.08013774 -0.03921796  0.03347457]
[-0.08915416  0.00040115  0.11047627]
[ 0.01531542 -0.04063153  0.0695536 ]
[-0.08932158  0.06996118  0.12085084]
[-0.20841038 -0.02194051  0.03455849]
[-0.02601207  0.10483399 -0.00192361]
[ 0.11616701  0.09441543 -0.02874388]
[ 0.24376601  0.13366811  0.02939228]
[ 0.01026054 -0.05127884 -0.02162438]
[ 0.0225325  -0.02819489  0.0730374 ]
[ 0.01984444  0.16529074 -0.03340068]
[ 0.14111087  0.05980467 -0.15516245]
[ 0.25871098 -0.0254355  -0.14645997]
[-0.23066708 -0.11622676  0.04849787]
[-0.14123979  0.07750931  0.15780149]
[ 0.06197416  0.12835847 -0.01521337]
[-0.08915522 -0.01346121  0.00649906]
[ 0.02282603  0.05529983  0.03317513]
[ 0.09029133 -0.03932561 -0.05793452]
[-0.18315467  0.07212009  0.04118198]
[ 0.00117429  0.05865919 -0.11375843]
[ 0.24493709  0.0395266  -0.06844641]
[ 0.11705747  0.09285651  0.06512201]
[ 0.03386667 -0.02398255  0.06472259]
[-0.09253376 -0.06075504  0.0017064 ]
[-0.26090255 -0.26744583  0.07298571]
[-0.21193667  0.10419053  0.02675172]
[-0.13093969  0.07892919  0.06687337]
[-0.01872578  0.05992446  0.0550161 ]
[ 0.00069089 -0.01382365 -0.02550015]
[-0.10568876 -0.01579346  0.00558367]
[ 0.09997085  0.06095415  0.02545309]
[ 0.02259321 -0.03343043  0.00367597]
[-0.1578633  -0.07604849  0.01196393]
[ 0.12254474  0.03724515  0.03928402]
[ 0.04079216 -0.0201676  -0.01237259]
[-0.05919084 -0.06080576  0.03256971]
[-0.12618765 -0.06633403 -0.01043221]
[-0.01613332 -0.03194808 -0.00958393]
[ 0.18749939  0.02606388 -0.06527846]
[-0.1301567   0.02296229 -0.0235655 ]
[ 0.00081952  0.00724591  0.03665312]
[ 0.10033018  0.01927678 -0.08498778]
[-0.00838157  0.04103244 -0.01186693]
[ 0.09813713 -0.01423487 -0.03802527]
[ 0.05789821 -0.15271151  0.00230052]
[ 0.11736394 -0.02773625  0.01146118]
[ 0.0598718  -0.00107249 -0.04292016]
[-0.05543366  0.07372721  0.02453028]
[-0.08694158 -0.06508572  0.05084827]
[-0.04163272  0.0725273  -0.11114549]
[ 0.13574414 -0.05174     0.0282099 ]
[-0.13739547 -0.09844869 -0.02946746]
[-0.07873736 -0.01756157 -0.04198996]
[-0.1585398  -0.00307295 -0.0447324 ]
[ 0.02271288  0.16322981  0.13380766]
[ 0.19964251 -0.01555277  0.07996295]
[ 0.18945105 -0.00421565  0.03689449]
[ 0.0584204   0.08275206  0.07006366]
[-0.13710351  0.09572276  0.05516988]
[-0.09290349  0.00614294  0.14861353]
[ 0.03850425  0.05892232  0.07077172]
[ 0.05264656  0.05967616  0.07988721]
[ 0.07774176 -0.00298557  0.07320282]
[-0.07754911 -0.10464406 -0.16777849]
[-0.01467141 -0.09792861 -0.07590498]
[-0.08999179 -0.09877636 -0.11194009]
[-0.09310299 -0.0483079  -0.07388638]
[-0.0091938  -0.00905937  0.03896792]
[ 0.03287194 -0.02201695  0.05230002]
[-0.06456476 -0.04496849  0.04682058]
[-0.16879021 -0.00782792 -0.1021527 ]
[-0.16446613 -0.10044402 -0.05394965]
[ 0.06975806  0.06250031  0.05085405]
[ 0.12911196  0.03738546  0.12068877]
[ 0.11907367  0.11136238  0.06925513]
[-0.09875146 -0.01267515  0.06769912]
[ 0.0519035   0.07353392 -0.06475123]
[ 0.09121912  0.0116374   0.01953124]
[-0.02921544  0.08422555  0.0553997 ]
[ 0.03686887  0.03817656  0.01468172]
[ 0.18336132  0.04120267 -0.04018928]
[ 0.20877604  0.05443527  0.04634185]
[-0.01688399 -0.06276549  0.02912465]
[ 0.01799685 -0.00513923  0.09919595]
[ 0.08904476 -0.09683631 -0.11847565]
[ 0.08686253 -0.04599895 -0.06058964]
[-0.08411029 -0.22269131 -0.07086968]
[ 0.06385732 -0.06388452 -0.04699398]
[ 0.14418922  0.03614273 -0.07943483]
[ 0.09292727 -0.02962304 -0.10424166]
[ 0.0085745  -0.09271219 -0.0326726 ]
[-0.06548683 -0.01680958 -0.00387239]
[-0.09348717 -0.035937   -0.09650667]
[ 0.04110677 -0.1566796  -0.05278971]
[-0.04812227 -0.02692631  0.01676774]
[-0.17519048 -0.07878623 -0.14460236]
[ 0.03865638  0.07779238  0.03641387]
[ 0.04862452  0.10026181 -0.03114359]
[ 0.08307947  0.03361385  0.02979168]
[ 0.04357985  0.13521607  0.12388287]
[ 0.1137416  -0.01204203  0.04417484]
[ 0.12964992  0.07677463  0.08734389]
[-0.00791241 -0.03309095 -0.06494558]
[ 0.06158025 -0.01591158 -0.00504143]
[-0.06797839 -0.07357972 -0.10223211]
[ 0.00458675  0.06954984 -0.08798119]
[ 0.0543365  -0.08745836 -0.0148152 ]
[-0.02184853  0.04973081 -0.03788531]
[ 0.13915327  0.06607596  0.01820794]
[ 0.10402745  0.00634225  0.03278896]
[ 0.1861783  -0.00153982  0.15808934]
[ 0.05911934  0.15514435  0.10556789]
[ 0.12715378  0.04037809  0.1127856 ]
[ 0.1326925   0.11448701  0.04308013]
[ 0.1191907   0.08884449 -0.00059807]
[ 0.10278647  0.08232626  0.02730399]
[ 0.09554158  0.09247156  0.09356859]
[-0.13482751 -0.08673345 -0.11295335]
[-0.05389386 -0.06336024  0.01251694]
[-0.06513306 -0.0381534  -0.09350037]
[-0.00734904  0.08428353  0.0340979 ]
[ 0.08211508  0.09334301 -0.05852074]
[ 0.12740996 -0.0127596   0.01872054]
[ 0.06329481  0.0196932   0.043558  ]
[ 0.04670013 -0.00641342 -0.00356111]
[-0.11906095 -0.09351997 -0.06072301]
[-0.13363697 -0.01997901 -0.09971999]
[-0.14433427 -0.0692002   0.04216504]
[-0.07704772 -0.03712041 -0.19353004]
[-0.00599204  0.02379601 -0.02458081]
[ 0.01063155 -0.07888716 -0.03192136]
[-0.07964559 -0.01963151 -0.08830802]
[ 0.04901173  0.08141612  0.0918984 ]
[ 0.09873454  0.05859902  0.04686065]
[ 0.09355883  0.06013149  0.12002647]
[ 0.05528421  0.03300266  0.00812362]
[-0.02041528  0.04531566  0.03361798]
[ 0.07608427  0.06136636  0.07154399]
[ 0.0726353  -0.02935157 -0.10365956]
[ 0.0504368  -0.01994175 -0.05033568]
[-0.01679229 -0.0450602  -0.07158857]
[ 0.01794477  0.01959686 -0.01078538]
[ 0.01412424 -0.01210616 -0.06179527]
[ 0.0611383  -0.03385874  0.12550367]
[-0.11224799  0.05527676  0.04303871]
[-0.02974672  0.0673419  -0.05478236]
[ 0.00717156  0.0037242  -0.10231357]
[ 0.03019599 -0.00145605  0.03055627]
[-0.11394035 -0.05919161  0.08501596]
[-0.08342185  0.01957691  0.03725905]
[ 0.01639193  0.02668895  0.00264282]
[ 0.01768601 -0.01419038  0.04846218]
[-0.04994547  0.09287068  0.08159196]
[-0.03355539 -0.0936179   0.04762507]
[-0.07385912  0.00592268 -0.02863554]
[-0.01225733  0.01720311  0.00903616]
[ 0.0045472   0.07551342  0.00248   ]
[-0.0214937   0.13634826 -0.11457421]
[-0.02191637  0.06494796  0.08991803]
[-0.03497815  0.06980649 -0.07172168]
[-0.08525127  0.01379886 -0.0630363 ]
[-0.06292539 -0.05190424 -0.0564871 ]
[-0.11946198  0.02493845  0.03286026]
[-0.11495037 -0.06029642  0.06238577]
[-0.08170341  0.10070094 -0.01209253]
[ 0.00706219  0.03151848  0.02542473]
[-0.06031622 -0.09838223  0.04407648]
[-0.07744478 -0.05869488  0.06111243]
[ 0.1345458   0.02549074 -0.07860978]
[ 0.06497525 -0.0771176  -0.01156834]
[ 0.20225425  0.07572642  0.02614017]
[-0.01349921  0.06653256 -0.03145195]
[ 0.06472756 -0.02148698 -0.06225137]
[ 0.00385167 -0.06291189  0.00139848]
[-0.05894452 -0.08567131  0.0903153 ]
[ 0.01879676  0.04060068 -0.06714084]
[-0.05638765 -0.04001107 -0.06496199]
[ 0.00531304 -0.06807145 -0.03966387]
[ 0.08438573  0.05952955  0.02133216]
[ 0.07874689 -0.06995655 -0.01115449]
[ 0.08421057 -0.04676545 -0.03175611]
[-0.01327896 -0.05511036 -0.09668282]
[-0.01307115  0.01887709 -0.04419434]
[ 0.15135387 -0.02756781 -0.09865791]
[ 0.08098926 -0.0118802  -0.04212976]
[-0.05055064  0.00369252 -0.00981346]
[-0.06885815  0.02437226 -0.02461229]
[-0.0535941   0.004814    0.04868193]
[-0.06665587 -0.02286651  0.01721655]
[-0.00943212  0.02031424  0.01718872]
[-0.06630018  0.01072839 -0.04734253]
[-0.09114028 -0.03044416  0.01089252]
[-0.0204461  -0.00282321  0.01360964]
[ 0.03526332 -0.04941088  0.07852001]
[ 0.01056092 -0.09237824  0.0652412 ]
[ 0.13086732  0.0439376   0.00714122]
[ 0.02723989  0.02502637 -0.06586035]
[ 0.18146087  0.02916036 -0.01154921]
[-0.01798654  0.02651724 -0.02578049]
[-0.11586627  0.03549459 -0.02990586]
[-0.12210443  0.06431182  0.05629404]
[ 0.1260249  -0.01592448  0.08540856]
[ 0.0014824  -0.05347012  0.01345064]
[ 0.09581988 -0.03515876 -0.04138516]
[-0.01599225  0.0713177   0.0714146 ]
[ 0.02272123 -0.02153535  0.00047362]
[-0.00627176  0.01136223  0.05980625]
[ 0.12683676 -0.0152618  -0.06664331]
[ 0.06939081  0.08729315 -0.02189523]
[ 0.00345847  0.02080228  0.03217585]
[ 0.18185464  0.03484725 -0.02288743]
[ 0.11487501 -0.09654685 -0.02956205]
[ 0.07687478  0.0574366   0.02060516]
[-0.0688777  -0.02351557  0.04872657]
[-0.04322338 -0.00855397  0.06240635]
[-0.07827424 -0.04149951 -0.02560925]
[-0.0204667  -0.0059813  -0.00941056]
[ 0.0270009   0.02604439 -0.03329496]
[ 0.04897537 -0.01953766 -0.09890589]
[-0.06856095  0.02826301 -0.06722329]
[-0.06953397  0.04791199  0.01141892]
[-0.06250987  0.02325286 -0.00482017]
[ 0.0228224  -0.10234522  0.01331822]
[-0.11335882 -0.04623049  0.00188193]
[-0.11233253 -0.03356735  0.06796553]
[-0.07759697  0.04167272  0.01749041]
[-0.06184006 -0.05370656 -0.00528663]
[-0.03418792 -0.06662355 -0.01076691]
[ 0.05015561  0.00212345 -0.04290313]
[-0.07432182  0.09703019 -0.09691214]
[ 0.14930196 -0.01666583  0.1000612 ]
[ 0.04577405  0.03133953 -0.08751357]
[ 0.0056775   0.03055757 -0.10400004]
[ 0.02783095 -0.00444344  0.06113801]
[ 0.02363825 -0.00201861  0.03109883]
[-0.00014282 -0.04820079  0.01047338]
[ 0.12228751  0.01722671 -0.05352702]
[-0.10072155  0.0950643   0.07532844]
[-0.07635249  0.06819938  0.05330142]
[ 0.04533547  0.05431917  0.15921113]
[ 0.09901481 -0.17242527  0.0533724 ]
[-0.06522718 -0.0277881   0.01890513]
[-0.23605144 -0.0591331  -0.12149768]
[ 0.17520267  0.05808982 -0.01398701]
[ 0.0836696   0.0454657   0.00724323]
[ 0.15314308  0.0305415  -0.0156006 ]
[-0.14316629 -0.03381316 -0.03264092]
[ 0.01130012  0.06963585  0.04349396]
[-0.09613441  0.10259774  0.05204623]
[-0.07410669  0.01070219 -0.08774074]
[ 0.02843344 -0.07090979  0.01687784]
[-0.11847641 -0.14930442  0.0471345 ]
[ 0.05662847 -0.0906409   0.08298089]
[-0.01271971 -0.03388067  0.14841938]
[-0.11710642  0.08722965  0.08967496]
[ 0.07687791 -0.04626194  0.0811848 ]
[-0.03194505 -0.05971179 -0.04076693]
[ 0.09845237 -0.06400859 -0.19665706]
[ 0.0852934  -0.10284637 -0.0542531 ]
[-0.01913198 -0.16329634 -0.01879614]
[-0.1277049  -0.0543795  -0.01768693]
[ 0.04314819  0.00393752 -0.00189708]
[ 0.01100929  0.0701682  -0.01838213]
[-0.05639553 -0.06068476 -0.11000005]
[ 0.03237004 -0.01582424  0.03293234]
[ 0.01554692 -0.00765558 -0.0209158 ]
[ 0.10353507  0.02637058 -0.02002229]
[-0.0964466  -0.13889857 -0.04276803]
[-0.00440598 -0.07176805 -0.08463731]
[-0.24383299 -0.1131894  -0.06334893]
[-0.19178271 -0.1731436   0.02748972]
[-0.12757468 -0.09247054  0.06758638]
[-0.04113834 -0.06023546 -0.00536143]
[-0.18497351 -0.0244502  -0.06367172]
[-0.09175389  0.07341137  0.05674423]
[ 0.13761376  0.12275107  0.17459264]
[ 0.05798803  0.04821648  0.01295039]
[ 0.05698508  0.11258961 -0.0912415 ]
[ 0.19890401  0.13359514 -0.06230039]
[-0.0591749   0.11831222  0.02036733]
[ 0.00254804 -0.00739501 -0.02945041]
[ 0.25502741  0.13182549 -0.0418896 ]
[ 0.04334058  0.1227212  -0.03886559]
[ 0.07479664  0.006609    0.06366191]
[-0.0230417  -0.06110192  0.0369701 ]
[ 0.09034213  0.04667555 -0.06034774]
[ 0.03633541  0.02029693 -0.05502954]
[ 0.08547099 -0.0258825  -0.02588099]
[-0.04007737  0.00189999 -0.05848365]
[-0.0336485   0.05482143  0.13372415]
[-0.15686722 -0.19326754  0.11659805]
[-0.13508779 -0.0481852  -0.01019965]
[-0.0540818  -0.0227131  -0.00691471]
[-0.05044254  0.03634438  0.04413396]
[ 0.11873236  0.12719518 -0.08969957]
[ 0.05866421  0.03725307  0.01475198]
[ 0.07803867  0.05337254 -0.07330162]
[-0.09203329 -0.00285387 -0.02868538]
[-0.05105416  0.00826271 -0.08573984]
[ 0.16007058  0.16414562 -0.00908198]
[-0.06534597 -0.05459714  0.03937043]
[-0.07427502 -0.00236757 -0.01708579]
[-0.05705197 -0.01558302  0.04219258]
[-0.04521969 -0.08283717  0.0191431 ]
[-0.04692518  0.03766578 -0.06589902]
[ 0.00129366  0.10269743  0.06114192]
[-0.05386685 -0.10049009  0.00373318]
[ 0.05211508 -0.02053599 -0.01136851]
[ 0.00372702  0.09833475 -0.0214696 ]
[-0.02038157  0.06507161  0.04154116]
[ 0.06385158 -0.00186871 -0.03384063]
[-0.05132258 -0.05327727  0.03560751]
[-0.11367617 -0.13221298  0.08285984]
[-0.1369662  -0.07838468  0.07068179]
[-0.14386313 -0.19141214 -0.06306785]
[ 0.10970332  0.07385262  0.1132111 ]
[ 0.04810276  0.07392942  0.07057709]
[-0.1550035  -0.06635163 -0.04164207]
[ 0.10010166  0.02211389  0.05356542]
[-0.05388853  0.02564245 -0.02486348]
[ 0.13437068 -0.00096218 -0.05789512]
[ 0.05743739  0.03019145  0.02336414]
[ 0.07059082  0.00208001  0.01141259]
[-0.11156742 -0.07124448 -0.02541848]
[-0.05967639 -0.03294715 -0.00724214]
[-0.00575502  0.01873595  0.01325443]
[ 0.01146173  0.11001964 -0.01982411]
[-0.03758797 -0.06843282 -0.01729272]
[-0.01730337 -0.06609605 -0.01073368]
[ 0.12563525  0.09581971 -0.00602174]
[ 0.10414079  0.06833816  0.06739107]
[ 0.03722071  0.0878802   0.06262723]
[ 0.04162635  0.04115078 -0.13206653]
[-0.27829465 -0.21907611 -0.04847627]
[-0.25635037 -0.08084125  0.02421646]
[ 0.05701364  0.16750781  0.03682994]
[ 0.22507557  0.12858276 -0.10881831]
[ 0.16125599 -0.09488989 -0.0692585 ]
[-0.15433134 -0.03424963  0.0260985 ]
[-0.04178186  0.0793908   0.2175913 ]
[-0.03359941  0.22331296  0.14481533]
[ 0.02639757 -0.0244086  -0.19213781]
[-0.0347042  -0.08139396 -0.12945509]
[-0.07821728 -0.10016134 -0.08066083]
[-0.00742767  0.09411621  0.13909677]
[-0.03594574 -0.03230704  0.05968135]
[-0.02029351 -0.0499278   0.01145453]
[ 0.03339836 -0.02162394 -0.04355193]
[-0.26177663 -0.11151591 -0.068582  ]
[-0.21155035 -0.07412294 -0.03778375]
[ 0.03955374  0.12647244  0.09647448]
[ 0.25172278  0.26664349  0.19436257]
[ 0.1466208   0.09364215 -0.01104429]
[-0.0753746  -0.11713155 -0.09647465]
[ 0.02738257  0.06447583  0.09549709]
[-0.04214089 -0.04701705  0.03552036]
[-0.0801117  -0.05083543  0.00962954]
[ 0.03247586  0.04100101  0.06648518]
[ 0.083239   -0.03349346 -0.03013131]
[-0.03405444 -0.0909545  -0.08680263]
[ 0.05355377  0.00776668  0.02571172]
[-0.03130168  0.07692214  0.06903708]
[-0.01394016  0.00250465  0.01521073]
[ 0.08537555  0.00798341  0.03350604]
[ 0.01483336 -0.01225313 -0.00110683]
[-0.10321675  0.03257925  0.01774717]
[ 0.18056138 -0.07700734 -0.18268047]
[ 0.2224144  -0.03947332 -0.10821842]
[-0.02379729 -0.03601864  0.07213526]
[-0.29795209 -0.20043571 -0.10545588]
[-0.33248857 -0.16317481  0.11119854]
[ 0.06328214  0.11016389  0.17231067]
[ 0.13944684  0.22279331  0.12382899]
[ 0.18352075  0.23808578  0.17723693]
[-0.02000825  0.03312122 -0.1354939 ]
[-0.00658906  0.17242178  0.09345257]
[-0.12672319  0.18374617  0.16466373]
[-0.04655356  0.00222271 -0.06785559]
[-0.19450055 -0.10577196  0.0366214 ]
[-0.14612389 -0.05635162  0.07186299]
[ 0.06851589  0.00550442 -0.03073661]
[ 0.17479695  0.23521766  0.22067146]
[ 0.17964214  0.093067    0.04432988]
[ 0.00909054 -0.0643459  -0.10137015]
[-0.31221905 -0.37796319 -0.2402238 ]
[-0.22061075 -0.26104322 -0.18895119]
[ 0.12429737  0.11606104  0.10936131]
[ 0.08550516 -0.03786666 -0.05548935]
[-0.01559487 -0.03969023 -0.02473351]
[-0.06794859  0.06908631  0.0221287 ]
[-0.06003552  0.03456914  0.12135235]
[ 0.0221798   0.11542783  0.09717061]
[ 0.0081539  -0.03506142 -0.11838794]
[-0.02227766 -0.03338208  0.06880566]
[-0.07059619  0.12910812  0.17766875]
[ 0.03466865  0.10258247 -0.11007272]
[-0.2937358  -0.27200693 -0.33990005]
[-0.22260541 -0.24872743 -0.16473828]
[-0.0882153  -0.00455865  0.12679563]
[-0.01759024 -0.00577971 -0.07838823]
[-0.00580797  0.0223351  -0.02272092]
[-0.00754456  0.02680669  0.02488375]
[-0.0132388  -0.07702641 -0.10488441]
[-0.1003599   0.03258599  0.03418737]
[ 0.02984406  0.1352433   0.12918472]
[-0.0865263   0.02400902  0.02944057]
[-0.01260642 -0.07033832 -0.01533412]
[ 0.04886227 -0.07764045 -0.0199216 ]
[ 0.1326361  -0.12063766 -0.25583547]
[ 0.04522307 -0.16065799 -0.16424681]
[-0.08670755 -0.05449357  0.08831623]
[-0.19459328 -0.13943353 -0.09694272]
[-0.06643977 -0.01873466 -0.04963727]
[ 0.00412339  0.0153341   0.01773553]
[-0.04743741  0.16362756  0.09956902]
[ 0.00478802  0.04502257 -0.00642024]
[-0.00040374 -0.09424722 -0.13092951]
[-0.06888542 -0.06701872  0.01515826]
[ 0.00807646 -0.04039251 -0.00029203]
[ 0.08059824  0.00838695 -0.00193151]
[-0.01089114 -0.09314046 -0.0440168 ]
[-0.04948153 -0.04146964  0.0033074 ]
[-0.06204732  0.12193926  0.08434458]
[ 0.14704543  0.05851371 -0.02315799]
[ 0.05250029  0.07776207 -0.00070641]
[-0.0200595   0.02706888 -0.01443604]
[-0.00324862 -0.02811974  0.11014801]
[-0.04801747  0.04046753 -0.01652897]
[-0.01744616 -0.03811052 -0.0052113 ]
[ 0.01789027 -0.01770113 -0.05103507]
[-0.0057106  -0.00344392  0.06319717]
[ 0.03545054  0.06086063 -0.00825987]
[ 0.02869647 -0.06293854  0.06095097]
[-0.00366856 -0.00673575  0.04299832]
[-0.09317175 -0.00600869  0.12446583]
[-0.04840664 -0.05404907  0.01820656]
[-0.04598461  0.07194805 -0.01400213]
[ 0.01633891  0.09062701 -0.03600427]
[ 0.03986593  0.0069556   0.02630669]
[ 0.02879882 -0.02827646  0.05990746]
[-0.02530414 -0.01886161 -0.01715449]
[ 0.0006974   0.08287902  0.01362119]
[-0.00660258  0.02230142 -0.05476762]
[-0.02107381  0.03209699 -0.04192633]
[ 0.0099809  -0.05757399  0.02032747]
[ 0.03188747 -0.12590584  0.06663165]
[ 0.05810208 -0.06603449 -0.02709974]
[ 0.00015713 -0.06713008  0.00252134]
[-0.00264709  0.01764554  0.0105456 ]
[-0.0125453  -0.02382717  0.01859894]
[ 0.07467362  0.020563    0.07828457]
[ 0.07083429 -0.02047256 -0.03056364]
[ 0.00303375 -0.05160915  0.01274328]
[ 0.08869921  0.05272245 -0.07086521]
[ 0.07519303 -0.02306169 -0.02545359]
[ 0.01633651  0.07685974 -0.00547678]
[-0.15637302  0.06213557  0.00496684]
[-0.08325434  0.00877443  0.04951627]
[-0.05696924  0.01096612  0.01106129]
[-0.01598207  0.00450233  0.05175295]
[ 0.01494545  0.04159672 -0.01234067]
[-0.01291124  0.01190548  0.114767  ]
[ 0.03196672  0.05555519 -0.00797018]
[-0.05853452 -0.04368837  0.0375366 ]
[-0.09887671  0.04942925  0.08230688]
[ 0.07226975 -0.00081604 -0.06614847]
[-0.02214193  0.11971658 -0.0362264 ]
[-0.03490052  0.02031584 -0.13977444]
[-0.02065407 -0.00238493  0.05126423]
[ 0.03651021 -0.12179612 -0.0416889 ]
[ 0.0848969  -0.08587721  0.00276531]
[-0.01215835  0.00174322 -0.00312515]
[-0.13790646 -0.05665696  0.00163178]
[ 0.07615644 -0.00850833 -0.0039533 ]
[ 0.01365918 -0.0303389  -0.05204291]
[-0.02904263  0.11807802 -0.09513086]
[-0.01437072  0.03625668 -0.02705003]
[-0.01310951  0.02448333 -0.05979997]
[ 0.03589427  0.05660485 -0.00033582]
[ 0.03030995 -0.00628322  0.03279371]
[-0.02108743  0.11020952 -0.02081656]
[-0.07727276  0.02079465 -0.04320402]
[ 0.10005259  0.00207767 -0.10752794]
[-0.03694568  0.07362742  0.13180803]
[-0.03869312  0.02001062  0.01484281]
[-0.10217958  0.00966531 -0.01601258]
[ 0.03245822 -0.08497389 -0.016171  ]
[ 0.06641855 -0.06168559 -0.04296296]
[ 0.11192603 -0.02805689  0.0509417 ]
[-0.06055202  0.02790703  0.01981262]
[-0.17789425  0.02173228  0.05547509]
[-0.06484553  0.03716825 -0.08968945]
[ 0.06936906  0.03077419  0.02296538]
[ 0.04717662  0.01527839  0.02284367]
[-0.02886343 -0.02219547 -0.01328264]
[-0.10814724 -0.06639303  0.04386405]
[-0.04646656  0.00763585  0.11911716]
[ 0.02797329 -0.10621103 -0.02415043]
[-0.12846562  0.08361802  0.01349084]
[-0.02154208 -0.03056145 -0.0670183 ]
[-0.04437075 -0.02141607 -0.00974852]
[ 0.0222758  0.0068089  0.0134811]
[ 0.02044202  0.02828766 -0.05342235]
[ 0.13860986 -0.06290344 -0.0502301 ]
[ 0.09342854  0.03673162 -0.05350842]
[-0.03725303  0.06312957  0.08264212]
[-0.12298717 -0.02624194  0.10618325]
[ 0.04322776 -0.00915624 -0.02787577]
[ 0.11293488 -0.03046183 -0.03142298]
[ 0.06344284  0.03219804 -0.02744049]
[-0.0713224  -0.01000677 -0.09044566]
[ 0.09092017  0.04176508 -0.04134256]
[  7.64843717e-05   6.94446564e-02  -1.89525504e-02]
[ 0.00953873 -0.00451329 -0.05849118]
[ 0.03259613  0.01711847 -0.06456523]
[ 0.08274127  0.04287975  0.00548494]
[ 0.00363843  0.01910773  0.05234282]
[-0.08868124  0.0660459   0.04425807]
[-0.04616485  0.04374864 -0.10407763]
[-0.01344549 -0.02426892  0.06525468]
[ 0.00158643 -0.03189682  0.05082379]
[ 0.0309063  -0.0578431   0.00997977]
[-0.03615222  0.01353055 -0.01901552]
[ 0.01057369  0.03514902 -0.07396688]
[ 0.07957891  0.02033071  0.01407054]
[ 0.11452165 -0.00862993 -0.0903983 ]
[ 0.05308637  0.03258266 -0.1064143 ]
[ 0.04983965 -0.05356638 -0.06108554]
[-0.21506487 -0.01432151  0.07518593]
[ 0.01413399  0.02034718 -0.03377915]
[-0.12150438  0.02206869  0.05095277]
[-0.0560813  -0.07801227  0.00991071]
[-0.00530452  0.03084029 -0.00649781]
[-0.17452     0.01954993 -0.03966594]
[ 0.1203693 -0.0155994 -0.1017839]
[ 0.05715977 -0.030374   -0.06960821]
[ 0.08363768  0.04570379 -0.03171244]
[-0.00533698  0.01546148  0.02038606]
[-0.10206228  0.01275444 -0.01303827]
[-0.08323775 -0.05284271  0.01837954]
[ 0.00806914  0.0224028  -0.15599488]
[-0.0548471   0.06608801 -0.04693095]
[ 0.05094098 -0.01838636 -0.03875037]
[-0.03507965 -0.01903536 -0.018403  ]
[-0.02784805  0.03024228 -0.06098891]
[-0.02921668 -0.00061873  0.03306732]
[-0.08646248  0.06378936 -0.07626042]
[-0.05339519  0.02213254  0.00469437]
[ 0.05961091  0.0781764   0.05340651]
[-0.09686967 -0.10720406  0.0111667 ]
[ 0.01678599 -0.05870555  0.00148878]
[-0.1449564  -0.00191618  0.04363845]
[ 0.04502254  0.09231604  0.11422542]
[ 0.08455452  0.04257542 -0.04104896]
[ 0.00306901 -0.03323314 -0.04356617]
[-0.0212398   0.05203039  0.08619505]
[-0.04916998 -0.02296228  0.01136706]
[ 0.09012508  0.09153239  0.00886778]
[-0.0281581   0.05061561  0.14384764]
[ 0.0484146  -0.04379198  0.04086214]
[-0.0284726   0.03750503  0.02926333]
[-0.01141294  0.00452711 -0.09776606]
[ 0.04133729 -0.02694767 -0.00794335]
[ 0.04398521 -0.08030961 -0.11675383]
[ 0.003465   -0.02995473 -0.00147669]
[ 0.01122695 -0.03414292  0.0357042 ]
[ 0.13681638 -0.04387853  0.03057354]
[-0.03112624  0.0134898  -0.08763494]
[ 0.09897812 -0.05249114 -0.05680199]
[ 0.00355978 -0.09496205 -0.06689444]
[ 0.01160081 -0.0335123  -0.03050327]
[-0.08896147  0.03013257 -0.11578932]
[-0.06274545 -0.00301046 -0.01998065]
[-0.0452282   0.01326257  0.04023213]
[-0.05438587 -0.07540425  0.02801615]
[-0.02129162 -0.00456445  0.07801577]
[-0.04842044 -0.0181026  -0.0490966 ]
[-0.0597947  -0.00288031 -0.0590516 ]
[-0.12154881  0.06008962 -0.03037259]
[ 0.02589737  0.07409879 -0.00173372]
[-0.00061239  0.00096106  0.01313826]
[ 0.02635848 -0.02718807 -0.02557436]
[-0.00407146 -0.02284445 -0.17523305]
[ 0.018816   -0.02332846  0.05181776]
[ 0.07438213 -0.00600629  0.02715292]
[ 0.04324885 -0.05806587  0.05602082]
[ 0.08025656 -0.0332402  -0.03953097]
[ 0.06234929 -0.03604713 -0.08706148]
[ 0.00973651  0.02137879 -0.06485236]
[ 0.09731045  0.01658914 -0.00334337]
[ 0.03777351  0.0578422  -0.01042639]
[ 0.01795812 -0.03459392  0.11506811]
[ 0.0065741   0.00947938  0.00331537]
[ 0.0665127  -0.0001215  -0.03458476]
[ 0.01245965  0.04183211  0.11980768]
[ 0.09867977 -0.00554451 -0.02235572]
[ 0.04783987 -0.01710868 -0.02909465]
[ 0.01832628 -0.06066158 -0.13528563]
[-0.02198984 -0.04360705 -0.06429179]
[-0.11097635 -0.04142344  0.01700988]
[-0.0543649   0.12102462 -0.04838018]
[ 0.08751256  0.00016112 -0.05372519]
[ 0.01550069  0.00608237 -0.01075636]
[-0.06383588 -0.01656521 -0.10327115]
[-0.08587988  0.02798148  0.03493689]
[ -8.29349883e-05  -6.88101957e-03  -4.87827137e-03]
[ 0.04089874 -0.04637467 -0.03379085]
[-0.10256616 -0.02852575 -0.04605393]
[-0.15328337  0.05845943  0.04148996]
[-0.01264321 -0.01605582 -0.06822994]
[-0.06570127 -0.03685595 -0.10141511]
[-0.02472171  0.00212547  0.04300543]
[ 0.01198492  0.06465413 -0.07429484]
[ 0.07042581  0.00247603 -0.04453839]
[ 0.13232224 -0.11024511  0.00751165]
[ 0.04415082  0.0806271   0.07564937]
[ 0.10550313 -0.02523947  0.00707299]
[ 0.06066963  0.04536451 -0.08487844]
[-0.05607262 -0.02142699  0.04800459]
[ 0.02663142  0.00269698 -0.01427485]
[-0.02419253 -0.00920092 -0.01696779]
[-0.05809147 -0.05891196 -0.07189969]
[ 0.03166213  0.01298232  0.05949095]
[ 0.04300309  0.00538225 -0.01304539]
[-0.07745098  0.08647721 -0.01592144]
[-0.12630659  0.01573519 -0.11352414]
[-0.21974173  0.10428931  0.06672765]
[ 0.09837838 -0.06605878  0.07004987]
[-0.00562893 -0.00614516  0.07994764]
[ 0.07918774 -0.06674614  0.01630994]
[-0.08577128  0.04278329 -0.03647016]
[ 0.01229792  0.04461674 -0.02204523]
[-0.04764257  0.05213544  0.0483941 ]
[-0.03931728 -0.00485901  0.04811325]
[ 0.04701279 -0.02403668 -0.00863103]
[-0.01126419 -0.07472441  0.06590967]
[-0.09063025  0.10359648 -0.08910826]
[-0.12774821  0.02347814  0.00562932]
[-0.08346012  0.04140809 -0.02469459]
[-0.04095315 -0.0082283   0.02014128]
[-0.11427923  0.00595159 -0.09189045]
[-0.05408521 -0.00310618  0.04364637]
[-0.12324604  0.02849528 -0.01223203]
[-0.06242681  0.03415748  0.05056824]
[-0.12100242  0.08589342  0.00318006]
[ 0.00126441 -0.02490968  0.05523844]
[-0.02903841 -0.14410871  0.0342644 ]
[ 0.01713197  0.00298999  0.06020506]
[ 0.03167711  0.05679161  0.08598819]
[ 0.09300473 -0.05269262 -0.00590068]
[ 0.1028937   0.00661573  0.00248683]
[-0.054717    0.01711747  0.00488992]
[-0.00694036  0.06223048 -0.0231379 ]
[-0.04904476  0.00835376  0.02273763]
[-0.0565813   0.0204129   0.04606886]
[-0.03221733  0.03049726 -0.04592266]
[-0.00323696 -0.02710081 -0.07537585]
[ 0.04811697 -0.06006644  0.08793242]
[ 0.07839666  0.06003016 -0.04120827]
[ 0.09271491 -0.05618925 -0.05814212]
[ 0.02349251  0.00458618 -0.05251434]
[-0.03924026 -0.03443893 -0.08440448]
[-0.07923717  0.08052892 -0.02593713]
[ 0.05249297  0.04968992 -0.0259591 ]
[ 0.00086642  0.04577171 -0.00793305]
[-0.05266439  0.03481425 -0.07213092]
[ 0.07306213  0.048685    0.05322238]
[-0.02068868 -0.07776655 -0.05179605]
[ 0.14340723 -0.08976003  0.08535402]
[-0.04040456 -0.01339809  0.03063881]
[ -2.31954727e-05  -5.42961843e-02  -3.59175839e-02]
[-0.0173456   0.01890818 -0.00197133]
[ 0.02374625  0.04429054 -0.00195084]
[ 0.04085324 -0.03030748  0.01253523]
[ 0.05388293 -0.03094338  0.01593858]
[-0.02488179 -0.04295664 -0.02214555]
[ 0.05268954  0.03935346  0.01925857]
[-0.00597792 -0.01187581  0.0849247 ]
[-0.06964312  0.08649844 -0.04158573]
[-0.10910809  0.0458073  -0.01986543]
[-0.01261312  0.06873586  0.02126689]
[ 0.11612093 -0.00798287 -0.07924362]
[ 0.07367767 -0.00360949 -0.00913713]
[  1.40671775e-01   1.19155724e-04  -3.64476852e-02]
[-0.08288508 -0.03431387  0.01987161]
[-0.02136254  0.02024605  0.03650098]
[-0.04464027  0.01767116  0.00963047]
[-0.02283098  0.05732368  0.03524079]
[ 0.00054913  0.01946248 -0.02207131]
[-0.00971438  0.02129773 -0.00127764]
[ 0.1453805  -0.01151987  0.05582936]
[ 0.02504819  0.02652861  0.02779494]
[ 0.01666906 -0.01630877 -0.00133807]
[-0.0167207  -0.05344069 -0.02137213]
[-0.00698897 -0.02650874 -0.06774333]
[ 0.04446887 -0.11475915  0.03147941]
[-0.14363356  0.06444552  0.00271138]
[ 0.06852777 -0.04295132 -0.10088199]
[-0.01524098  0.0968048   0.02004576]
[-0.03246371 -0.03535492 -0.06079715]
[-0.04194516  0.0424931   0.05420554]
[-0.09128456  0.04103175  0.00947454]
[ 0.025972   -0.05698986 -0.02775534]
[ 0.01940271  0.0048947   0.00779115]
[-0.02529127  0.01270605  0.06788238]
[ 0.00566217 -0.09691869 -0.08941415]
[-0.05569727  0.09377617 -0.08251251]
[-0.06654429 -0.1405046   0.00068986]
[-0.07899481  0.0482084  -0.03560209]
[ 0.06822454 -0.00319044  0.13321084]
[-0.05433159  0.05142586 -0.10759682]
[ 0.0555564   0.02944492 -0.02630066]
[-0.02285745  0.13924441  0.00156344]
[-0.02683347  0.02239029 -0.05061926]
[-0.05374569  0.0008443  -0.02071921]
[-0.07515354 -0.01547044 -0.00342555]
[-0.01540019  0.02212414 -0.10518769]
[-0.031486   -0.00444286 -0.04275605]
[ 0.00311987 -0.05541803 -0.06845747]
[ 0.01892514  0.0879376  -0.05636788]
[-0.12010124 -0.09038819 -0.06767911]
[-0.17193915 -0.01853642  0.03172327]
[-0.11081711 -0.05534254  0.12903172]
[ 0.22026835  0.05256351 -0.00863644]
[ 0.12034086 -0.01667638 -0.01228886]
[ 0.20438904 -0.01390237 -0.03971895]
[-0.12444196  0.03048145  0.08009207]
[-0.05181348  0.06600671  0.0644239 ]
[-0.05506794  0.14538237  0.00245798]
[ 0.06352937 -0.01921454  0.0578197 ]
[-0.03626091 -0.00932067  0.01817108]
[ 0.00708111 -0.0459324  -0.08773609]
[-0.1755929   0.09437641  0.04444465]
[-0.13227373 -0.02541078  0.10787804]
[-0.03961986  0.05327931  0.00128539]
[ 0.08002406 -0.01745467 -0.05313216]
[ 0.01250998 -0.00798739 -0.05358507]
[-0.01595857 -0.08190133 -0.00561091]
[-0.00788441  0.01068115  0.01401129]
[-0.14133504  0.00825998 -0.01272322]
[-0.14883676 -0.07810045  0.07193032]
[ 0.12605935 -0.02808489  0.01209153]
[ 0.07770043 -0.00919887  0.04391566]
[ 0.02187195 -0.06720448 -0.0496886 ]
[-0.01567811  0.05893914 -0.04462261]
[ 0.03513062  0.0735695   0.02202828]
[ 0.02682639  0.015051   -0.0453101 ]
[-0.08469136 -0.0607419   0.02210474]
[-0.03607649 -0.01078616  0.04201696]
[-0.05939529  0.03078904  0.07613162]
[-0.09306335 -0.15540899 -0.0588104 ]
[-0.03359374 -0.02491174 -0.01698087]
[-0.06288008  0.0111002   0.09951137]
[-0.01509511  0.07068669 -0.0009939 ]
[ 0.00120298  0.05860216  0.01068796]
[ 0.03945231  0.04585459 -0.01909744]
[ 0.03537056  0.02862457 -0.03769514]
[ 0.03792921  0.02001541 -0.04093928]
[ 0.00457063  0.08268455 -0.01139513]
[-0.02297885  0.14681201 -0.0274713 ]
[ 0.03422648  0.0505046  -0.0436765 ]
[ 0.13287537  0.04546345 -0.11628237]
[ 0.04496155 -0.02174428  0.03093567]
[-0.00968693 -0.08355653  0.00542475]
[ 0.06080532 -0.05064322  0.05052859]
[ 0.09820759  0.00530765  0.05253018]
[ 0.06881823 -0.01153287 -0.0003793 ]
[ 0.090912   -0.05239429  0.00082978]
[-0.03723063 -0.00015357  0.06163318]
[-0.0036198  -0.03659402 -0.02122123]
[-0.0899679  -0.00721824 -0.01474256]
[-0.04792753 -0.03614629  0.04910807]
[-0.04802179  0.00866856 -0.04304011]
[ 0.03449057  0.0579946   0.00077669]
[ 0.1384462   0.03984595  0.03907593]
[ 0.0037931  -0.02218397  0.07048581]
[ 0.00869259 -0.10126656 -0.03993008]
[ 0.09043323  0.08003248 -0.02408174]
[ 0.00079946  0.08229437 -0.04790664]
[ 0.00812771  0.1035753  -0.08018289]
[-0.13081785 -0.01173049  0.02014897]
[-0.11629363 -0.0489544   0.02424674]
[-0.08394976 -0.01487042  0.08487035]
[-0.08558609 -0.05372643 -0.04418852]
[-0.0886101   0.06843593 -0.05968092]
[ 0.07051412  0.1163227  -0.05751202]
[-0.06817348 -0.01893629  0.13194025]
[-0.03763209  0.04267348  0.003727  ]
[ 0.10293186  0.14849797 -0.04665355]
[ 0.08185308 -0.01693528 -0.03600183]
[ 0.0295763  -0.04985892  0.0164394 ]
[-0.04263956 -0.02401692  0.09273108]
[-0.2090286  -0.12537579 -0.01236165]
[-0.12688515  0.01443523 -0.05128997]
[-0.13287552  0.01494512 -0.04794734]
[-0.04277283  0.01649899 -0.01066961]
[-0.03375162 -0.08056829  0.00144798]
[-0.03695417 -0.01325316  0.10200716]
[ 0.09285179  0.06013596 -0.06554495]
[ 0.06925096 -0.11103436 -0.04697905]
[-0.00384761 -0.09810876 -0.10298302]
[ 0.03311369  0.0155304   0.00588392]
[-0.02067406 -0.04337762 -0.01397784]
[-0.04847191 -0.05271068  0.08360773]
[-0.03556755 -0.01406718 -0.03123897]
[-0.08184054 -0.01873267  0.03794933]
[-0.06779101  0.16290541  0.01755037]
[-0.10849613  0.00728457 -0.0054935 ]
[ 0.01176977  0.02816748 -0.00613964]
[-0.01289663  0.02598399 -0.01912595]
[ 0.01745671  0.01705755 -0.0475084 ]
[-0.06352077 -0.08348195  0.07829119]
[ 0.00550166  0.07956714  0.13768227]
[ 0.00482185 -0.04739661 -0.27328175]
[ 0.03655935 -0.15352421 -0.09192943]
[-0.03557365 -0.20151357 -0.20797843]
[-0.09390023 -0.04415271 -0.00505324]
[ 0.01884096  0.08959048  0.05743759]
[ 0.114235    0.12494185 -0.14465585]
[ 0.05297195 -0.03418275 -0.07357562]
[-0.06077983 -0.13902685  0.03068998]
[-0.00728868  0.01809824  0.22492054]
[ 0.13426259  0.09602557  0.09249644]
[ 0.18956605  0.07123145 -0.04248593]
[ 0.02235026 -0.06477172 -0.17488548]
[-0.09538686 -0.11949059 -0.04330396]
[-0.12700655 -0.15979488 -0.08566695]
[-0.23969893 -0.28738275 -0.15878274]
[-0.07905748  0.00292441 -0.05166316]
[-0.01455675 -0.00687298 -0.11133174]
[-0.14059825 -0.20640765 -0.28336152]
[-0.03604745  0.04944944  0.10250887]
[-0.03659698 -0.01853502  0.19492297]
[ 0.18498105  0.33013073  0.2623567 ]
[-0.16866852 -0.07408246 -0.10522878]
[-0.1226044   0.00532625 -0.02039514]
[-0.09058982 -0.03777974 -0.20548747]
[-0.06134141 -0.07742841 -0.02005672]
[-0.09332337 -0.07434276  0.02951151]
[ 0.10260305  0.11079083 -0.00535164]
[ 0.04299359  0.16269717  0.18400246]
[-0.00891388  0.02789144  0.063129  ]
[ 0.03066164  0.13370444  0.23929411]
[-0.03230494  0.02679414 -0.02347652]
[-0.04964783 -0.0626924   0.04044048]
[-0.12800886 -0.00162395 -0.17220493]
[-0.00035941  0.02243787  0.00506898]
[ 0.12778084  0.24066624  0.01658644]
[ 0.13385582  0.08551037 -0.017572  ]
[ 0.0695715  -0.09812496 -0.15069467]
[ 0.07389616 -0.06555893 -0.11593626]
[-0.07960115 -0.2597582  -0.17590567]
[ 0.00552197  0.04673196  0.11819635]
[ 0.01880108  0.04167774  0.07005736]
[ 0.09284102  0.26258454  0.24480893]
[ 0.0755185   0.11238103  0.07334404]
[-0.05148565 -0.07031343  0.02111742]
[-0.10419354 -0.01859818  0.11984915]
[-0.15092002 -0.16171075 -0.17045806]
[-0.08889206 -0.2171251  -0.2114978 ]
[-0.0423157  -0.18065101 -0.16747138]
[-0.08522542  0.02924369  0.0382385 ]
[-0.10796884 -0.00641872  0.07149254]
[ 0.12383205  0.28854907  0.34114489]
[ 0.0323247  -0.18324624 -0.27600658]
[-0.11475749 -0.03577678 -0.11770114]
[-0.0985932  -0.31876868 -0.32556033]
[ 0.02011675  0.079876    0.11299885]
[ 0.0209929   0.04025551  0.12204759]
[-0.01677959 -0.11678308  0.01328497]
[ 0.0079234  -0.08635429 -0.038552  ]
[-0.04259434 -0.05399982 -0.05503795]
[ 0.10968648  0.14463773  0.20055564]
[ 0.08544026  0.16453004 -0.03165796]
[-0.05687854 -0.09594588  0.038796  ]
[-0.19845441 -0.11031573  0.22022025]
[ 0.06691947  0.02970607 -0.21645686]
[ 0.09940299 -0.06559312 -0.1015956 ]
[-0.07946905 -0.20598565 -0.25168628]
[ 0.03318048  0.07232905  0.0621534 ]
[ 0.0839833   0.06173801  0.05179696]
[ 0.00809362  0.09006598  0.0600883 ]
[ 0.16021508  0.16178618  0.09352674]
[ 0.06975552 -0.03726338 -0.04273465]
[-0.02137056 -0.12145082 -0.02379155]
[-0.09327986 -0.10576995 -0.20287187]
[-0.1278239  -0.10748355 -0.1621789 ]
[ 0.05317016 -0.02051074 -0.11422881]
[-0.03659138  0.04237276 -0.12427723]
[ 0.09281524  0.14865954  0.03399495]
[ 0.16691846  0.00175456 -0.12173077]
[-0.0333937  -0.15065886 -0.05607436]
[ 0.02256879  0.05967367 -0.09971671]
[ 0.10766373 -0.02733087 -0.18177363]
[-0.04962111 -0.10801172 -0.11523511]
[-0.04843464 -0.05526244 -0.03735135]
[ 0.03273354  0.20782073  0.2062716 ]
[-0.01948484 -0.17249152 -0.12889569]
[-0.02654981 -0.1105217  -0.16620679]
[-0.03070148 -0.03671761 -0.13890411]
[ 0.02045712  0.09854983  0.06519882]
[ 0.02158586  0.04747253  0.00629195]
[-0.16481771 -0.07581998  0.01130647]
[ 0.08025388  0.07105153  0.1269231 ]
[-0.08945154  0.05227858  0.08101656]
[-0.03472988  0.04515807  0.06792618]
[ 0.04376077 -0.09295283  0.067854  ]
[ 0.00836107  0.07422626  0.01168472]
[-0.01402094  0.03777192 -0.0403843 ]
[ 0.0581447  -0.05628252 -0.06267241]
[ 0.0423324   0.03093068 -0.0341132 ]
[ 0.09385837  0.12255185 -0.08499329]
[-0.01218834 -0.0513981   0.07652067]
[-0.03644619  0.01033973 -0.0831852 ]
[ 0.01225562  0.11509119  0.02352924]
[-0.06053453 -0.01474011  0.02649812]
[-0.03760484 -0.05795262 -0.01280946]
[ 0.02047869  0.03613734  0.00292355]
[ 0.04003901  0.00235796  0.05674896]
[ 0.0570985   0.04149891  0.02660534]
[-0.04273866 -0.00040559 -0.04633672]
[ 0.0208789  -0.00186799 -0.031742  ]
[-0.06672307  0.01946134  0.00778366]
[-0.09410477 -0.04722138  0.05273253]
[-0.07719352 -0.00048622  0.03281242]
[ 0.01321502  0.00793509  0.06116953]
[ 0.04755992  0.03943257  0.02913195]
[-0.0949195  -0.0238303   0.00760857]
[-0.05370243 -0.06712051 -0.01414101]
[-0.04896893 -0.02885112  0.09418941]
[-0.05679152  0.07463175  0.06328623]
[-0.00998531 -0.04837183  0.04292211]
[-0.0730167  -0.01230556 -0.01765347]
[-0.06673368  0.04204998  0.03129055]
[-0.01860068 -0.00680824 -0.02115201]
[-0.02672458 -0.03525462 -0.07480263]
[ 0.0286322   0.04517616  0.10643977]
[ 0.10081647  0.05839966 -0.01168731]
[-0.00590395  0.04530852 -0.05110193]
[-0.01805662 -0.03537983 -0.04900434]
[ 0.02234962  0.07671624  0.02514784]
[-0.02031045  0.01456525  0.02814183]
[-0.00698662  0.05407215  0.06586373]
[ 0.05849154 -0.04329884  0.00816226]
[ 0.05694405  0.02905422 -0.04845018]
[ 0.03642527  0.0267092  -0.04123396]
[-0.01251376  0.0708676  -0.06447499]
[ 0.11142796  0.00063494  0.01604705]
[ 0.02892186 -0.08399743  0.00285716]
[-0.07832333 -0.04554519 -0.02329516]
[ 0.02580174 -0.05064878 -0.05112328]
[ 0.07295804  0.0425827   0.03504318]
[ 0.00591567  0.02507354 -0.06389884]
[ 0.0098806   0.00178971 -0.02711657]
[-0.07808713  0.00285221 -0.01763597]
[ 0.00796115  0.0376118  -0.03816531]
[-0.05306521 -0.00199935 -0.04197923]
[-0.06094893 -0.04679735  0.08096673]
[-0.01690115  0.02329367  0.03083987]
[-0.04190882 -0.01584311 -0.00567686]
[ 0.00142704 -0.02243734  0.00296249]
[-0.05670533 -0.00057459 -0.01217059]
[ 0.08962012 -0.01748193  0.02872369]
[ 0.00632591 -0.02309586 -0.02715812]
[ 0.01452852  0.0630836   0.06634174]
[ 0.08518979  0.01974784  0.08061823]
[-0.06735698 -0.03639821 -0.00225852]
[-0.0673333   0.00055833  0.03810713]
[ 0.0074937   0.01728732 -0.10823245]
[-0.01184108 -0.00415616 -0.08625244]
[ 0.05866792  0.04974758 -0.06332298]
[ 0.07556774 -0.02906808 -0.04319673]
[ 0.01972085  0.04920795  0.03256641]
[ 0.03400164  0.04800221 -0.02368002]
[ 0.07623642 -0.00615396 -0.03733844]
[ 0.10292031  0.0386037   0.00652961]
[-0.02365276  0.07125378  0.13918677]
[ 0.02616354  0.00262481  0.03869409]
[-0.02781629  0.02905938 -0.08030243]
[-0.01706252  0.04061128 -0.06048897]
[ 0.02726104  0.06287164  0.06905995]
[-0.00743927 -0.0472556  -0.07087127]
[-0.05474611 -0.00996697 -0.00845691]
[-0.05769099 -0.03734612 -0.08065312]
[ 0.07945973  0.07880803 -0.07377189]
[ 0.0607361  -0.01283797 -0.07091447]
[ 0.0185717  -0.0330035   0.17418416]
[-0.05933899 -0.01434106 -0.01135415]
[-0.00444337 -0.04961563 -0.01395976]
[-0.04588967 -0.05236966 -0.08314364]
[-0.08618006 -0.05377814 -0.02315081]
[-0.06946311 -0.05750009 -0.04504771]
[ 0.05326475 -0.08761801  0.04584174]
[-0.03262379 -0.04736986 -0.0341717 ]
[ 0.06383515 -0.07869964 -0.08354962]
[-0.10612452 -0.03601898  0.04663059]
[ 0.05468709  0.03612185 -0.0765906 ]
[ 0.02970453 -0.0560924   0.09843076]
[ 0.08545692  0.07018183  0.14675747]
[ 0.11171545 -0.0397961   0.08329192]
[ 0.02300057  0.04291496  0.01547188]
[ 0.09775118  0.07038818  0.08766624]
[-0.09579761 -0.16241097 -0.00414787]
[-0.17247814 -0.18130754 -0.03890029]
[-0.07078642 -0.07437862 -0.04161634]
[ 0.26463786 -0.04405172 -0.10731473]
[ 0.0937264   0.07223201  0.01031146]
[-0.13705686  0.05741239  0.00970452]
[-0.29529732  0.21728943  0.06454708]
[ 0.04480571  0.13344884 -0.00966808]
[ 0.09768926 -0.12412302  0.0031627 ]
[-0.0570903  -0.24926931  0.01366966]
[-0.22894971 -0.07988723  0.02720801]
[-0.06076581  0.13659395  0.02813247]
[ 0.12889828  0.20269978 -0.02804996]
[ 0.21888274 -0.01385033 -0.02724686]
[ 0.01777103 -0.12842631 -0.0290157 ]
[-0.0985673   0.01058012 -0.09771291]
[-0.04029587  0.10364664  0.00848582]
[ 0.01213063  0.09460287 -0.0141676 ]
[ 0.0573108   0.1010513  -0.02496874]
[ 0.15072997  0.05717495 -0.02019429]
[ 0.10956541 -0.08194037 -0.00760505]
[-0.41546556 -0.04675806  0.1067114 ]
[-0.19725788 -0.05178962 -0.04194883]
[ 0.1545494  -0.01228252 -0.03404853]
[-0.08405942  0.03306402  0.00588217]
[-0.02638714  0.09819917 -0.0126408 ]
[ 0.10888281 -0.03931588  0.03894649]
[-0.02593068 -0.05306378 -0.04913061]
[-0.01828322  0.02152986  0.03151305]
[ 0.01596373  0.06467386  0.0036973 ]
[-0.01952532  0.01232909  0.06745829]
[-0.03482172 -0.01477886  0.00649991]
[ 0.01400754 -0.06402153 -0.01197424]
[-0.12707978  0.09971372  0.00433707]
[-0.01210233  0.0126641   0.01993354]
[ 0.02250464 -0.02366307  0.0016654 ]
[-0.11477952  0.34404516  0.14121664]
[ 0.15352631  0.11108969 -0.06295073]
[ 0.04604953 -0.19376355 -0.08230138]
[ 0.34864467 -0.09156065 -0.15069917]
[ 0.12438837  0.04524862 -0.07024131]
[-0.11358481  0.08928654 -0.01227579]
[-0.03503714 -0.33138552 -0.00069437]
[-0.20361863 -0.32187438  0.01144706]
[-0.02939717 -0.08957331  0.01916486]
[-0.03851112 -0.28191873  0.04074742]
[-0.09684224 -0.3443203  -0.00773277]
[-0.03343851 -0.08215748 -0.00912746]
[ 0.05114974 -0.115425   -0.02080105]
[-0.09696857 -0.01067235  0.01165972]
[-0.08431874  0.1089607  -0.01033732]
[-0.21393442 -0.18660644  0.00667188]
[-0.13720778 -0.11157931 -0.02488128]
[ 0.06194092  0.02855124  0.04295615]
[ 0.15872337  0.18549003 -0.06204626]
[ 0.10642873  0.18777928 -0.00908158]
[-0.02964623  0.03704056 -0.01807607]
[ 0.00413603  0.09126509  0.00797664]
[ 0.06251355 -0.035421    0.00296569]
[ 0.00675581 -0.10203918 -0.01433741]
[-0.0754063  -0.1673343   0.00779506]
[-0.02890819 -0.05361902 -0.0244501 ]
[ 0.13103627  0.02729053  0.00775266]
[-0.00567894 -0.24814454  0.04631078]
[-0.14040831 -0.111324   -0.01099827]
[-0.1724344  -0.04318552 -0.00725599]
[ 0.28157112  0.35748029 -0.01524135]
[ 0.38256592  0.29623687  0.08158875]
[ 0.12398475  0.00910254  0.02675965]
[-0.04766265  0.0341142   0.02951497]
[-0.00523715 -0.01627426  0.01135002]
[ 0.03704023 -0.07096105 -0.02691549]
[ 0.07294166  0.01245258 -0.0146744 ]
[-0.01438771 -0.10434666  0.01285162]
[-0.09915514 -0.03770072  0.01076182]
[ 0.04709666 -0.05209613 -0.01964987]
[ 0.00095851  0.01205502  0.00105805]
[-0.03775872  0.0637988  -0.01092601]
[-0.02802902  0.3511281   0.11973376]
[ 0.0396007   0.11315979  0.01395225]
[ 0.05500344 -0.18891229 -0.1043952 ]
[ 0.12158705  0.02077708 -0.00362786]
[ 0.08142638 -0.00216788 -0.0026395 ]
[-0.01494524  0.01638404 -0.04596212]
[-0.05539761 -0.07314216 -0.01939164]
[-0.08344684  0.01755446 -0.04303591]
[-0.00709277  0.10937107 -0.01997085]
[-0.00099334 -0.04234716 -0.03771557]
[-0.01451011  0.04712258  0.02877511]
[-0.00280505  0.07651975 -0.0016213 ]
[ 0.00951326  0.01489916  0.002766  ]
[ 0.02593325 -0.08267954 -0.0500769 ]
[ 0.06387367 -0.07563286 -0.02073017]
[-0.12709905  0.01674996  0.04643986]
[-0.00246666 -0.06158372 -0.00450443]
[ 0.05825939 -0.09856118 -0.02067611]
[-0.13077961 -0.0077357   0.10432357]
[-0.03244317 -0.22977385 -0.18726401]
[ 0.08437318 -0.09289341 -0.20180084]
[ 0.09274436 -0.21194868 -0.21980253]
[ 0.22557096  0.13246755 -0.07136022]
[ 0.06730895 -0.03345732  0.03474435]
[-0.1527485   0.10162687  0.03328848]
[-0.14517641  0.17588808  0.14518926]
[ 0.16628329  0.02537807  0.00305856]
[ 0.07800084 -0.03610925 -0.05373565]
[-0.08212283 -0.19315746 -0.07297054]
[-0.09385496  0.0593533   0.07037057]
[-0.08595794  0.06738144  0.01570415]
[ 0.21946606  0.11707288 -0.00568449]
[ 0.10256276 -0.05494186 -0.04606624]
[-0.05281923 -0.11947759 -0.12937653]
[ 0.04515026  0.06232601  0.09033864]
[ 0.09250335  0.13707192  0.04219562]
[ 0.07232917 -0.17179234 -0.04856236]
[ 0.23457575  0.19779772  0.02763189]
[ 0.15724307  0.01483646 -0.04385038]
[-0.14744143  0.0151043   0.02686062]
[-0.36201894 -0.15555525 -0.00809268]
[ 0.00782489  0.04436077  0.01057249]
[-0.07049966 -0.10039315 -0.04381302]
[ 0.00412424  0.01308519  0.01244083]
[ 0.06894343  0.07994007  0.06103573]
[ 0.05733959 -0.03083228 -0.07713623]
[-0.04847545 -0.04431275 -0.01068436]
[-0.10864518  0.0415077   0.08819839]
[-0.10290936  0.00637491  0.03482078]
[-0.04061015 -0.03607775  0.02773144]
[ 0.01010045 -0.05923934 -0.01745145]
[-0.13187574  0.09986071  0.09164198]
[-0.00830182  0.02190581  0.08783369]
[ 0.0329417  -0.02981791 -0.02833603]
[-0.11571878  0.13330185 -0.03629582]
[-0.14479171  0.13615182  0.09987178]
[ 0.04390572 -0.07135135 -0.01733905]
[-0.02614857 -0.1977583  -0.14855237]
[ 0.33679843  0.11232775 -0.00778687]
[ 0.12464695  0.05388131  0.05823842]
[ 0.11002664  0.0696379   0.06725331]
[-0.13309638 -0.34064743 -0.29772964]
[-0.01345596 -0.05159605 -0.03598122]
[ 0.10276607 -0.12051837  0.15579526]
[ 0.01672686 -0.45207813 -0.28197017]
[ 0.02229235 -0.09434972 -0.02629078]
[ 0.11845697 -0.05622607 -0.03380947]
[-0.00195552 -0.01273751  0.01779136]
[-0.06023828  0.09842859  0.08481549]
[-0.08712898 -0.23276746 -0.06685845]
[-0.33647421 -0.16878428 -0.09354814]
[-0.11411031  0.00234641  0.01465665]
[ 0.16948819  0.01264538 -0.02720227]
[ 0.19358021  0.24549723  0.04318879]
[-0.06704358  0.08956779  0.04255663]
[-0.09661177  0.02509254  0.06634135]
[-0.0028783   0.04805742  0.03594344]
[ 0.05322571 -0.06246568 -0.0252348 ]
[ 0.07730956 -0.04149515  0.0173932 ]
[-0.03757501 -0.09141329 -0.10484692]
[-0.03231515  0.05879993  0.04342002]
[ 0.06387213  0.00476309  0.06762021]
[ 0.04601156 -0.19230753 -0.0956007 ]
[-0.02821596 -0.05423421 -0.01735153]
[ 0.08063171 -0.03023236 -0.11087326]
[ 0.44589683  0.46677336  0.19980256]
[ 0.20938234  0.0618782   0.00915307]
[-0.08431485  0.03221823  0.04790901]
[-0.01749033 -0.06140389 -0.03692144]
[ 0.07850565 -0.07932336 -0.03915418]
[ 0.06874276  0.04334618  0.12437194]
[ 0.04395096 -0.05918096 -0.07235617]
[ 0.02121278 -0.1097922  -0.02980267]
[ 0.08452028 -0.05993937 -0.07392231]
[ 0.04543035  0.02899561 -0.02574532]
[-0.03607818  0.08100948  0.04673345]
[-0.35310563  0.0634493   0.08343061]
[ 0.01258202  0.30806041  0.13566029]
[ 0.06866719 -0.14695808 -0.10521967]
[ 0.06893212 -0.01395723 -0.05354827]
[ 0.13160506  0.10303347  0.02592153]
[-0.08162927  0.04887323 -0.00808672]
[ 0.04480645 -0.09961917 -0.05339557]
[-0.01416369 -0.08286786 -0.06700713]
[-0.10158587  0.10101321  0.00070475]
[ 0.06404267 -0.0299008  -0.05974649]
[ 0.01926664  0.02200512 -0.00792179]
[-0.03161154  0.01761311  0.04011848]
[-0.01063687  0.06896214  0.03073135]
[ 0.08265329  0.0184123   0.04668963]
[ 0.10293465 -0.09341745 -0.07483007]
[-0.10897344  0.00880614  0.02694385]
[-0.01706677 -0.09858857  0.01479505]
[ 0.06774066 -0.00049753 -0.03827867]
[ 0.04541802  0.04342738 -0.04580099]
[ 0.11733798  0.05069003 -0.12851873]
[ 0.06302795 -0.03222801 -0.08568431]
[ 0.09634977  0.0778782  -0.0433227 ]
[ 0.13637823 -0.00799829 -0.06076004]
[ 0.01507814 -0.10122971 -0.1678609 ]
[-0.20814849 -0.08914561  0.16093612]
[-0.14238738  0.02641348  0.18882518]
[-0.17184907  0.10160129  0.15270446]
[ 0.23356499 -0.0289749  -0.12062705]
[-0.01268117  0.10006685 -0.01989524]
[-0.00093833 -0.05697694 -0.08125867]
[-0.14735875 -0.00619328 -0.0042995 ]
[ 0.04601089 -0.05268336 -0.03263413]
[ 0.08065077  0.06434123 -0.02135743]
[-0.01861021 -0.07494628  0.02697713]
[ 0.00804958  0.10573546  0.01264614]
[-0.08423849  0.02102316 -0.0659992 ]
[-0.13602318 -0.00141424  0.01847725]
[-0.02973805  0.09207495  0.04957649]
[-0.06369065 -0.02713658 -0.01276736]
[-0.09593344 -0.14619912  0.0723487 ]
[-0.08210894 -0.02736775  0.12998274]
[-0.08143968 -0.05138272  0.17724903]
[-0.14083959 -0.09794269 -0.03008524]
[-0.09042837 -0.04690918  0.03410876]
[-0.09131543 -0.05812166  0.17939161]
[ 0.13196246 -0.00639828 -0.04419069]
[-0.00339363 -0.10995413  0.04209359]
[-0.19003493  0.02124383  0.14570118]
[-0.022885   0.0948109  0.0758686]
[-0.01182498  0.04692089 -0.07840338]
[ 0.0505009  -0.043015   -0.15476403]
[-0.13845202 -0.09187821  0.03752527]
[-0.08836471  0.00456443  0.01560627]
[-0.06743936  0.09619868  0.07053683]
[-0.31318226 -0.05887015  0.11224339]
[-0.02213824  0.1280781   0.03149131]
[-0.0415563   0.06285077 -0.0156878 ]
[ 0.03495472  0.01038642 -0.15789907]
[ 0.10653181  0.04395893 -0.05648414]
[ 0.11349118 -0.0352901  -0.09701355]
[ 0.12180896  0.02027138 -0.08203252]
[ 0.07417136 -0.02634191  0.0258995 ]
[ 0.16311467 -0.10348479 -0.00882126]
[ 0.0794258   0.12578595 -0.06851657]
[ 0.10641584 -0.03407582 -0.10298117]
[ 0.20790033 -0.12920916 -0.22790018]
[ 0.15778676  0.0306159  -0.13186246]
[-0.00017272 -0.11592823 -0.03223254]
[-0.08161247  0.00095326  0.03549877]
[ 0.05048903 -0.06602228  0.02877867]
[ 0.07366403 -0.01145619 -0.01177956]
[ 0.04149816 -0.04653663  0.10233284]
[ 0.01984259 -0.00713807 -0.01614963]
[-0.00171489 -0.02395112 -0.00865674]
[-0.0543027   0.0233769   0.05587555]
[-0.07738591 -0.00636323  0.06929895]
[-0.0030238   0.02373982 -0.03899742]
[ 0.07530135  0.02350958 -0.01002268]
[ 0.13181973  0.03656745  0.05475175]
[-0.08408693 -0.02349669  0.09078098]
[ 0.00688921 -0.10152814  0.13296723]
[ 0.20248148  0.03544144 -0.10075782]
[ 0.05011499  0.00405006 -0.21183845]
[ 0.251322   -0.03404744 -0.09456523]
[-0.26068807 -0.02008847  0.02859223]
[ 0.04556453  0.11023269  0.03201664]
[-0.02467215  0.05941987  0.04862122]
[-0.05785841  0.04873827  0.08244109]
[ 0.04668285  0.09458688 -0.01803716]
[ 0.1687859  -0.05830222 -0.10103245]
[-0.01186603  0.05727734  0.01051296]
[ 0.08146331  0.04401206 -0.04359012]
[ 0.13408816  0.06349178 -0.16905117]
[ 0.1183156   0.00557171  0.00940939]
[ 0.00041981 -0.06307074  0.03489076]
[-0.07341141 -0.02914555  0.10124018]
[-0.33666527 -0.08263186  0.09850933]
[-0.12869714  0.06779098  0.02720179]
[-0.0973646   0.0614556   0.12396719]
[ 0.06084882 -0.02871098  0.0077011 ]
[-0.07411519 -0.02990183  0.01671488]
[-0.04395915 -0.04420065  0.12495033]
[ 0.14473043  0.03267739 -0.07942219]
[-0.01305847  0.01821546 -0.03479676]
[-0.13757007 -0.0662839   0.03536967]
[ 0.10010963 -0.03053892 -0.06082793]
[-0.01313586  0.00206392  0.01641418]
[-0.10619404 -0.01531291  0.07460765]
[-0.10706557  0.0962558  -0.02263797]
[-0.04949066  0.0167191  -0.01771461]
[ 0.14643261  0.00285801 -0.02161148]
[-0.0664883  -0.02189947  0.08462623]
[ 0.02513245  0.07392294  0.02076384]
[ 0.08187723 -0.04364076 -0.11418908]
[-0.09325252 -0.12240295 -0.05604612]
[-0.13142522 -0.17449611 -0.02718779]
[-0.08410767 -0.17617522 -0.0455285 ]
[-0.01184274  0.06564635  0.00200428]
[-0.05422635  0.08389596  0.02856882]
[-0.0327331  -0.04476615 -0.04768952]
[ 0.25815907 -0.04419275  0.00103989]
[-0.00905889 -0.0570389   0.00661735]
[ 0.12086292 -0.02829255 -0.04040982]
[-0.20665517  0.08824196  0.04540623]
[-0.03250894  0.12872748 -0.00551274]
[-0.08222888  0.10774662  0.04027859]
[ 0.14522372 -0.02714402  0.0087207 ]
[ 0.00627898 -0.14321715  0.03434056]
[-0.02840603 -0.0294941  -0.0699277 ]
[ 0.14341073  0.07951423 -0.09766246]
[ 0.01428288 -0.01596283  0.01298584]
[ 0.00041414  0.05192829 -0.09227444]
[ 0.17136703 -0.05848656  0.06954106]
[-0.05486419 -0.12214058  0.05108242]
[ 0.00786119 -0.17731325  0.0498665 ]
[-0.04408493 -0.02665853  0.03817558]
[ 0.01238594 -0.05227087  0.02638566]
[-0.02268537 -0.118172   -0.05479427]
[ 0.05515362  0.06603765 -0.03670598]
[ 0.09545184 -0.08946804  0.07946514]
[ 0.0609888   0.00358032 -0.07586059]
[-0.08613402 -0.02428188 -0.00976138]
[-0.09301709 -0.02778327  0.04225278]
[ 0.00885316  0.09720792 -0.07975384]
[ 0.0561264   0.08175343 -0.09946191]
[-0.07425401 -0.0620851   0.02389739]
[-0.08813661 -0.09560919 -0.05949793]
[ 0.09719644 -0.02087315 -0.14325348]
[ 0.10839696  0.0566582   0.02549623]
[-0.03602624 -0.03503019 -0.04506021]
[ 0.27383932  0.05694515 -0.04646055]
[-0.02309926  0.0050332  -0.09986752]
[-0.01086876  0.00737374 -0.1178432 ]
[ 0.02428113  0.02903944 -0.00679539]
[-0.04882203 -0.00945748  0.04440746]
[-0.03765402 -0.0031469  -0.0196523 ]
[-0.13055034 -0.06343617  0.07468075]
[-0.01336518 -0.06865931  0.02375239]
[-0.06330267 -0.06134432  0.03587244]
[-0.17059235 -0.08098637  0.0845081 ]
[-0.20164701 -0.03547737  0.02402509]
[-0.10158785 -0.08242972  0.10522332]
[-0.191561    0.03271297  0.06129505]
[-0.0238397   0.1170482   0.03876142]
[ 0.03508572  0.03847509  0.02141109]
[-0.11678767  0.0118476  -0.00767282]
[-0.02035143 -0.01521887  0.00713968]
[-0.02060465  0.00616483 -0.01079541]
[ 0.0098603   0.07742759  0.06226323]
[ 0.0632906   0.00900401  0.00305651]
[ 0.0471343   0.09806178 -0.01476974]
[ 0.07155304 -0.01157772 -0.08533914]
[ 0.01700841 -0.03767861 -0.14036134]
[-0.02285025 -0.05155202  0.07564053]
[-0.01557252 -0.0687505   0.0714893 ]
[ 0.05238418  0.00333874  0.1138121 ]
[-0.0366027  -0.04774629  0.03659577]
[-0.08589602 -0.04407354 -0.03243452]
[-0.10303675  0.03509358 -0.0111322 ]
[-0.12602843 -0.01507877  0.08959095]
[ 0.24318962  0.0242847   0.09068003]
[ 0.14038035 -0.00476357  0.06577243]
[ 0.11174214 -0.03172402  0.03417727]
[ 0.09625866 -0.03148071  0.00252185]
[ 0.03554381 -0.14137295 -0.08176096]
[-0.01575993 -0.07714615 -0.05041182]
[-0.04383544  0.0078436  -0.05267044]
[ 0.07105719 -0.00664937 -0.01429104]
[-0.13127525  0.03749185  0.00257374]
[-0.11318581 -0.03098584  0.11051775]
[ 0.03802586  0.11141668 -0.04928073]
[ 0.0716935   0.05766073 -0.02443321]
[ 0.08000696  0.00096095 -0.02524921]
[-0.06853213 -0.13187589  0.02128656]
[-0.12582661 -0.05303659 -0.08691182]
[-0.0278687   0.0763105   0.07136115]
[-0.03147196  0.09074687  0.08704057]
[ 0.03660656 -0.02881889  0.01252581]
[-0.05958382  0.07531665  0.03078554]
[-0.08054376 -0.01611777  0.03004589]
[-0.09097052  0.05074417 -0.03390465]
[-0.04493267  0.02304211  0.04163418]
[-0.01470494  0.04432701  0.06027338]
[ 0.02433125  0.06526558  0.08589874]
[ 0.10152382 -0.08538117 -0.04902623]
[ 0.04120601 -0.04138201 -0.03366225]
[-0.01719251 -0.11995779  0.03792802]
[ 0.05265565 -0.12007698 -0.09901662]
[-0.00016824 -0.12607889  0.01443994]
[-0.05512994 -0.07210463 -0.00374509]
[-0.03122395 -0.04705326  0.0666511 ]
[-0.00847452  0.01869279  0.00654023]
[-0.08326275 -0.0479843  -0.02604386]
[-0.00791664  0.09136103  0.1134382 ]
[-0.0339064   0.01435729 -0.04422544]
[-0.05416482  0.04240794 -0.08385222]
[-0.0402814  -0.04767092  0.04485536]
[ 0.03484567 -0.03451099  0.07326026]
[-0.08967759 -0.19788624  0.1013036 ]
[-0.01822171  0.02093399  0.02699346]
[-0.02097073  0.06014917  0.03860948]
[ 0.09941141  0.07141223  0.01993732]
[ 0.02019433  0.00758796  0.05180785]
[-0.02665585 -0.04615533 -0.07075852]
[-0.00982872  0.0162907   0.01309131]
[-0.06306756  0.02885315  0.00427043]
[-0.01476622  0.01695706 -0.13610625]
[-0.0008229   0.04613627 -0.12947328]
[ 0.01476161  0.07429757  0.16827902]
[-0.02180177 -0.19100206  0.06388067]
[-0.04672227 -0.07634458  0.20044184]
[-0.07985069 -0.07605412  0.04435223]
[ 0.00430214 -0.02470316 -0.03704716]
[-0.05674798 -0.13074528  0.03784574]
[ 0.05248577 -0.06301063  0.0774616 ]
[-0.00106373 -0.13464017  0.03771755]
[ 0.02823104  0.00138649  0.02741554]
[-0.05204171  0.02852699 -0.08412573]
[ 0.10831191  0.01627677  0.04187001]
[-0.00810413 -0.02931582 -0.01779918]
[ 0.01446523  0.06963864 -0.11715893]
[-0.03908777  0.01717119 -0.11453471]
[ 0.02249894  0.02255815 -0.13986708]
[-0.02946151 -0.00980148 -0.06160928]
[ 0.10542186 -0.04152053 -0.01047574]
[-0.03871021 -0.07268598 -0.00145776]
[ 0.0676658   0.0091407   0.02492361]
[-0.00876754 -0.04534564 -0.07200553]
[-0.01107692 -0.04602579  0.10094021]
[ 0.04847793  0.08837055  0.05971011]
[-0.16184498 -0.0301803  -0.04727065]
[-0.07116708  0.02904481 -0.03168152]
[-0.01647585 -0.05493613 -0.0648047 ]
[ 0.03323124  0.02213841  0.13754609]
[-0.07740986 -0.06569436  0.04178685]
[-0.121359   -0.11419322 -0.05129508]
[ 0.00637309  0.03621588  0.03462529]
[ 0.01583451 -0.01029864 -0.04082386]
[ 0.00893737 -0.06974415  0.08044114]
[ 0.01627164  0.03300339 -0.02341026]
[ 0.04010603 -0.01079721 -0.04427394]
[-0.06901108 -0.03599088 -0.0102629 ]
[ 0.06825271 -0.0355156   0.00489639]
[ 0.00920534 -0.05921206  0.02113667]
[ 0.10697284  0.02180325  0.06275736]
[-0.01597985  0.0239036   0.0079555 ]
[-0.05894127 -0.0137435  -0.0314582 ]
[ 0.02543832  0.02353674 -0.10111497]
[-0.05024033  0.00581879 -0.09910769]
[-0.03653413  0.02135181 -0.1480505 ]
[-0.02428417 -0.04551542  0.14354578]
[ 0.07313033  0.00357428  0.13461056]
[ 0.06239501 -0.12998599  0.09258484]
[-0.07011886 -0.03954937 -0.15170473]
[-0.05455484  0.16448508 -0.07109145]
[ 0.08277042  0.12706733 -0.15775123]
[ 0.09047478  0.07461508  0.16015054]
[ 0.00170035 -0.06588158 -0.02430252]
[ 0.01020361 -0.01190657  0.01777685]
[-0.01226299  0.03919547 -0.04245004]
[-0.05446149  0.02793803 -0.03839356]
[-0.02488184  0.03687407 -0.06063571]
[-0.00484531  0.05600011 -0.13954805]
[ 0.03275603  0.06780604 -0.14204344]
[-0.00316141  0.08081757 -0.12152792]
[-0.02584787 -0.02515496  0.10686162]
[-0.00473213  0.01881349  0.00664524]
[ 0.03630962 -0.02335381  0.11988618]
[ 0.13009864  0.0136887   0.05475412]
[-0.09260081 -0.04404648 -0.0743677 ]
[-0.09285632 -0.0766729  -0.03174252]
[ 0.00284681 -0.07156291  0.12770891]
[-0.05347374 -0.04566856  0.09166681]
[ 0.02268841  0.00136592  0.15461248]
[-0.00654182 -0.01327283  0.08633666]
[-0.07925728  0.00609791 -0.01429496]
[ 0.06526804  0.01878827  0.0392417 ]
[-0.06027963 -0.05443086  0.01095949]
[ 0.06023443 -0.00830614  0.10590506]
[ 0.01915597 -0.01287041  0.05016445]
[-0.04296448 -0.01354467 -0.0731587 ]
[-0.01841078 -0.02011556 -0.06705541]
[ 0.05535603  0.03222072  0.04027134]
[-0.05394669  0.01051179 -0.09744354]
[ 0.01425052  0.02095425 -0.05392127]
[-0.03960702 -0.03048626 -0.12836786]
[ 0.18164617  0.04715521  0.0286737 ]
[ 0.34934354  0.07162095  0.03202123]
[ 0.0060354  -0.17101274 -0.1017243 ]
[-0.08792788 -0.04432194 -0.08450171]
[ 0.01061984  0.03637337 -0.14753075]
[-0.03971509 -0.05103253 -0.08132777]
[-0.30886224 -0.08485775 -0.09643006]
[-0.37166202 -0.04420249 -0.07867602]
[ 0.02944428  0.20242971 -0.09651352]
[ 0.38414073  0.18667796  0.01694969]
[ 0.27636051  0.00145257  0.07663051]
[-0.29478946 -0.11739592  0.0622897 ]
[-0.26191217 -0.10248508 -0.0773441 ]
[-0.04965779 -0.06740899  0.05764502]
[ 0.24223942  0.09609967  0.02077035]
[-0.10977814 -0.13385749  0.03832769]
[-0.29106    -0.2111263  -0.06545962]
[-0.18259627 -0.00947167  0.05802909]
[-0.2324654  -0.16936974 -0.24830215]
[-0.14591235 -0.03875724 -0.06509913]
[ 0.14454752  0.03361008 -0.01410572]
[ 0.13278233  0.07220928  0.06987695]
[-0.10445821 -0.06782383 -0.10559306]
[-0.17048946 -0.01270628 -0.16013917]
[-0.12990719 -0.02010014 -0.12002708]
[-0.28511411 -0.04415614 -0.13639197]
[-0.14578606  0.14491808 -0.09164306]
[ 0.11320484  0.060474   -0.03575661]
[-0.01345397 -0.03649175 -0.02822942]
[-0.25148398  0.01415224  0.02524748]
[ 0.06155352  0.068802    0.12771001]
[ 0.07438577  0.00464313  0.13736542]
[ 0.10591965 -0.05569393  0.06997524]
[-0.32755601 -0.22370453 -0.05587454]
[-0.32689998 -0.11835529  0.07047947]
[ 0.07073659  0.00120013 -0.04038999]
[-0.27731723 -0.25431675  0.02552608]
[-0.23059408 -0.0136851   0.17623454]
[ 0.04707367  0.12776077  0.07723322]
[-0.14699227 -0.10841586 -0.02955747]
[ 0.12560959 -0.02544265 -0.01384121]
[ 0.03450006 -0.06591532  0.25997251]
[ 0.37185049  0.20621337  0.12204637]
[ 0.54313886  0.15552247 -0.07305368]
[ 0.09503952 -0.10274013 -0.10182386]
[ 0.36732143  0.18481131  0.10053956]
[ 0.40593681  0.04639359 -0.03768679]
[ 0.1100179  -0.15700795 -0.03033627]
[ 0.04207303  0.00851307 -0.03750903]
[-0.02534615 -0.06522263 -0.07757738]
[-0.07357062  0.07973713  0.05935897]
[ 0.36699539  0.08329676  0.06401613]
[ 0.09906112 -0.00664939  0.00430333]
[-0.29977378 -0.13006291 -0.11973146]
[-0.43336424 -0.19087593 -0.16073051]
[-0.30065367 -0.10272548 -0.05205218]
[-0.01888915  0.08198214  0.01483364]
[-0.22284254 -0.16172366  0.02925709]
[-0.08552256 -0.12170683  0.16089547]
[ 0.17757893 -0.00986767  0.04573519]
[ 0.2915324   0.18068738 -0.13607174]
[ 0.26436061  0.06363361 -0.18371294]
[-0.10440695 -0.04348627 -0.17321204]
[ 0.27494645  0.02214833  0.12978591]
[ 0.39326909 -0.06856693  0.11940728]
[ 0.07243125 -0.19000362  0.11651954]
[-0.25534761 -0.21749523 -0.0946947 ]
[-0.30458254 -0.02213218 -0.13747278]
[ 0.04981166  0.08771957  0.03241374]
[-0.00106302  0.01927012  0.09181767]
[ 0.15360478  0.02025222  0.10373482]
[ 0.17982076 -0.0459959   0.05753237]
[-0.05926773 -0.0996072   0.21601762]
[ 0.11003032  0.02080704  0.17429689]
[ 0.18738452  0.05804386  0.03727351]
[ 0.01870421  0.01159352 -0.11537015]
[-0.04554449 -0.00576448 -0.03109865]
[-0.10020936 -0.01979253  0.02296512]
[-0.44456321 -0.22832955  0.03271138]
[-0.30525425 -0.02961565  0.07177345]
[ 0.10473113  0.11575329 -0.00222821]
[-0.19612674 -0.07426907 -0.10397843]
[-0.19202982 -0.02383252 -0.07877188]
[ 0.02545215  0.06380116 -0.04892359]
[ 0.21708962  0.16598392 -0.04519529]
[ 0.12685357  0.07140099 -0.03064437]
[-0.28730151 -0.10821147 -0.08754952]
[-0.00254939 -0.01403932 -0.0711214 ]
[-0.06785479 -0.04124582 -0.11395957]
[-0.08310622  0.01670964  0.01648489]
[-0.15359674 -0.09396095  0.00718544]
[ 0.01853712  0.01268377  0.03121273]
[ 0.21916986 -0.02659605  0.05733472]
[ 0.03254699 -0.07842524  0.09272193]
[ 0.11807394  0.00043673  0.09822959]
[ 0.01782733 -0.15222758 -0.06348934]
[-0.0276766   0.01174128  0.03972686]
[-0.12095243 -0.01675756 -0.024365  ]
[-0.11410526  0.00197993  0.05755071]
[-0.1830456  -0.08409377 -0.05407922]
[-0.16783758 -0.03774647  0.01007928]
[-0.16450413 -0.00364485  0.03808849]
[ 0.16231132 -0.08577306 -0.01669709]
[ 0.1811323  -0.02459524  0.0239196 ]
[ 0.0469264  -0.07253064  0.032736  ]
[-0.15481921  0.06972324  0.03976688]
[-0.0367122   0.02998797  0.04459547]
[ 0.06570688  0.11619518  0.00812576]
[ 0.00163313 -0.00982295 -0.0377297 ]
[ 0.02146057  0.02255191 -0.11178084]
[-0.12850186 -0.11211294  0.0274598 ]
[ 0.07850193 -0.02956515 -0.05851864]
[ 0.03233889 -0.07265534  0.00257847]
[ 0.13867763  0.09522276 -0.02926444]
[ 0.01745291 -0.03462588  0.00849088]
[ 0.0244528 -0.1040727  0.0451645]
[-0.04626043 -0.01976203  0.01282143]
[ 0.08390506  0.02117693  0.10532387]
[ 0.00676787  0.06370988  0.06838375]
[ 0.15694319 -0.00699222  0.06580092]
[ 0.15580279  0.04471587 -0.00509516]
[ 0.05069097 -0.04039248 -0.02714448]
[ 0.10600457 -0.00702099 -0.09601933]
[-0.11258167 -0.02735253  0.1206808 ]
[ 0.00829425  0.03595337  0.06811895]
[ 0.18140036 -0.01438194  0.03341964]
[ 0.04400354  0.03675379 -0.09882206]
[-0.02762714  0.02113742 -0.00625196]
[-0.0521673  -0.0251684  -0.00759412]
[ 0.05325438 -0.0524881   0.01167286]
[ 0.04807403 -0.12680086 -0.07168596]
[ 0.09140556 -0.06636912 -0.04831472]
[ 0.14530662 -0.01362699 -0.01123958]
[ 0.02258357 -0.05507895 -0.07697789]
[ 0.08278614  0.05807434 -0.04596962]
[-0.12716824 -0.03378443 -0.08896374]
[-0.11195184  0.00732351 -0.00142899]
[-0.12054653  0.11772762 -0.00038737]
[ 0.00704976  0.04322927  0.15847765]
[-0.09111392  0.01494544  0.03941165]
[-0.09822129 -0.02175216  0.04060941]
[-0.10748448  0.00977874 -0.02940326]
[-0.15215039  0.05746261  0.07177415]
[-0.12309655  0.1230448   0.00552614]
[-0.12954348  0.10613662  0.03281405]
[-0.01741658 -0.05865846 -0.04170317]
[ 0.01926638  0.04295926  0.05798449]
[-0.01769434  0.04100727  0.03932255]
[-0.12941372 -0.01879364  0.03617824]
[ 0.02420777  0.04961295  0.04527741]
[-0.04426582 -0.04063829 -0.01227839]
[ 0.03354891  0.0323835   0.07449345]
[-0.00273239 -0.10307914 -0.09009287]
[ 0.05079403 -0.08989084 -0.09020834]
[-0.00049823 -0.00522798 -0.09116611]
[-0.03104817 -0.01213473 -0.02251976]
[-0.07508429  0.05706185  0.08992531]
[-0.02144024 -0.03624276  0.11347412]
[ 0.09785795  0.0505177   0.10307096]
[-0.04687873  0.04680962 -0.01341443]
[-0.20638923  0.04098807 -0.0492429 ]
[-0.05496733  0.1063249  -0.00325869]
[ 0.04845586 -0.16440785 -0.01768526]
[ 0.1028064  -0.0825456  -0.07327867]
[-0.02314939  0.01069627 -0.00500446]
[ 0.04124063 -0.10031151 -0.08048311]
[-0.0415845   0.04794564  0.01368766]
[-0.13403368  0.01495751 -0.0356478 ]
[ 0.02747559  0.06377956  0.00607651]
[-0.08908452 -0.01483891  0.01763051]
[-0.14970775  0.04037189 -0.03527291]
[-0.10795654 -0.00402253  0.05891347]
[ 0.07080687  0.04125921  0.02216235]
[ 0.10230252  0.02269116  0.02867293]
[ 0.12811905 -0.01338414  0.02954874]
[ 0.02620867 -0.00272579 -0.0638014 ]
[ 0.02080779 -0.19412062 -0.08313322]
[ 0.02386066  0.00653192  0.0698033 ]
[-0.03927374 -0.01296019  0.05606952]
[ 0.01634928 -0.07936516  0.03751291]
[-0.0887833   0.06734747  0.10356234]
[-0.11631377  0.04008957  0.00937905]
[ 0.10239723  0.02656581  0.04641979]
[-0.06104553  0.02915179  0.1244889 ]
[ 0.03545653  0.04240721  0.05659682]
[ 0.07636495  0.02652725 -0.00482981]
[ 0.00242471  0.02974239 -0.09155064]
[-0.02593012 -0.08546502 -0.00640978]
[-0.14562084 -0.04544251 -0.04202846]
[ 0.02673071 -0.02308731 -0.01036555]
[-0.12063789 -0.12061963  0.04415677]
[-0.08884891  0.00502142 -0.01721268]
[-0.00561133 -0.15990043  0.02050313]
[-0.11442766 -0.14873247  0.06138724]
[-0.0100031  -0.22382666 -0.07660139]
[ 0.07911441 -0.00717399 -0.13648564]
[ 0.0884334  -0.04592706 -0.00444697]
[ 0.0713662  -0.11539184 -0.10235386]
[-0.07519086  0.05151041  0.01410459]
[-0.01821875  0.03956201  0.08825339]
[-0.0433642   0.02112739 -0.05534245]
[ -3.96129489e-02  -9.52078104e-02  -7.64842262e-05]
[-0.00551259  0.02362377  0.01274801]
[-0.07406837  0.04947644 -0.01423891]
[ 0.08094139  0.08665311  0.05848453]
[ 0.07167063 -0.07405052 -0.04906387]
[ 0.09571272 -0.03956852 -0.00914341]
[-0.02088927 -0.11114816 -0.06762877]
[-0.06809307  0.01661533 -0.07613296]
[ 0.06816445  0.11338141 -0.04478297]
[ 0.14830892 -0.02385882 -0.01121271]
[ 0.03520618 -0.12290376 -0.17722619]
[ 0.11160455  0.02572104 -0.07492173]
[-0.12196054 -0.0643689   0.0984012 ]
[-0.16717444  0.04188281  0.07942819]
[-0.05752362 -0.07341418 -0.0368734 ]
[ 0.08116138 -0.09530202  0.00346804]
[ 0.08045287 -0.06747548 -0.11324307]
[-0.02592745 -0.00443637 -0.04852404]
[-0.01350779  0.00556456 -0.10307935]
[-0.02139368  0.10076504  0.05130427]
[-0.13172494  0.07738191  0.0679166 ]
[-0.0435409  -0.0240452   0.02634861]
[-0.0537588  -0.05270324  0.09274109]
[-0.01465997 -0.09543882 -0.0160924 ]
[-0.09903609  0.00786394  0.00153285]
[-0.06397931 -0.01919471  0.03973904]
[ 0.0094374  -0.09018807  0.04076412]
[-0.02457026  0.20716286  0.15748776]
[ 0.00414677 -0.03656028  0.0794017 ]
[-0.11463108 -0.06357541  0.10176276]
[ 0.22239871  0.05737462 -0.1202044 ]
[ 0.04500631 -0.08150188 -0.09644464]
[ 0.11664201 -0.00953883 -0.09040026]
[-0.05835766 -0.11264011 -0.05741461]
[ 0.0137348   0.03570458 -0.01852132]
[ 0.03803591 -0.0428292  -0.00336171]
[-0.02091532 -0.13096623 -0.04334363]
[-0.00619198 -0.08187204 -0.07227907]
[ 0.12338798 -0.16917135 -0.03373365]
[ 0.08998656 -0.0559727  -0.09894221]
[-0.01018879  0.07670102 -0.03534791]
[-0.00682982  0.1696496  -0.03996081]
[-0.00420806 -0.03239153  0.0030231 ]
[-0.01921477  0.03144164  0.0341195 ]
[-0.12618308 -0.02914286  0.0047147 ]
[ 0.12361041 -0.09499821 -0.02475433]
[-0.01897459  0.02249387 -0.00454036]
[-0.07211325  0.21005991  0.04716961]
[-0.00163895 -0.00206828  0.07093181]
[-0.11121889 -0.09343727  0.0086859 ]
[ 0.06096427 -0.12001939  0.02445058]
[ 0.07494445 -0.12013312 -0.089258  ]
[ 0.16738129  0.0707542  -0.02568788]
[ 0.13118586  0.1412694   0.04420627]
[-0.10856681 -0.04915496  0.08143974]
[-0.0036854  -0.01359063 -0.02288781]
[ 0.00989144 -0.10014666 -0.09006834]
[ 0.21266353  0.0715536  -0.01024649]
[ 0.11981318  0.0518274  -0.03897947]
[ 0.15630798  0.22205976  0.07572849]
[ 0.02290445  0.02338868  0.03825872]
[-0.04070647 -0.11017366 -0.03571372]
[ 0.04507072 -0.06747892 -0.12463795]
[-0.02305597  0.07565068  0.06045756]
[ 0.01177258  0.00509778  0.04283947]
[ 0.03135364 -0.03418626 -0.02324556]
[ 0.03103577 -0.03837071 -0.12880339]
[ 0.047474    0.12207444 -0.04413702]
[-0.04314343 -0.0074689   0.13218257]
[-0.03590602  0.10998771  0.06458923]
[-0.06529777 -0.06187012  0.05753623]
[-0.12389746 -0.10068363 -0.08321328]
[ 0.05504002 -0.05572957 -0.17090029]
[ 0.1210616   0.18337834 -0.09847736]
[ 0.01063656  0.11345246  0.03367109]
[ 0.04899978 -0.00438343 -0.15397125]
[-0.03259407  0.09255808 -0.02334736]
[-0.07995106 -0.04047728  0.04115101]
[ 0.06873183  0.00098738 -0.10676345]
[ 0.02070041  0.03840019 -0.09622082]
[-0.05383668  0.08150876  0.0930132 ]
[ 0.00775807 -0.09781881  0.07108568]
[ 0.02291086 -0.1317125  -0.05380438]
[ 0.12843482 -0.08013235 -0.03574329]
[-0.09115028 -0.04877739  0.06882951]
[ 0.04146292 -0.1208219   0.0447161 ]
[ 0.05824319 -0.18658684 -0.19283453]
[ 0.08168316  0.08326282 -0.04815188]
[-0.13576703 -0.01498717  0.05447984]
[-0.21847923 -0.09075674  0.02957993]
[-0.20994927 -0.07570532  0.08954195]
[-0.15922903 -0.16739255 -0.02851446]
[-0.0899123  -0.12371741 -0.12881157]
[ 0.12105579 -0.07297876 -0.03944887]
[ 0.15226996  0.01953949 -0.1466272 ]
[ 0.023944    0.1946905  -0.01975898]
[ 0.0437672   0.040126    0.10818372]
[-0.06870952  0.08606521  0.12548143]
[-0.05511142 -0.08926777  0.05960235]
[-0.02816268  0.00837079 -0.00566464]
[-0.10380662 -0.08213606 -0.04875274]
[-0.06747348 -0.00236449  0.00267491]
[-0.00028406 -0.0529757   0.03598692]
[-0.07367836 -0.1133095  -0.09728407]
[ 0.07642815 -0.05425271  0.03735757]
[-0.1728234  -0.04678806  0.09037479]
[-0.2260789  -0.08681165 -0.05976043]
[ 0.02320958 -0.14737999  0.03342755]
[ 0.12986887  0.19981416 -0.00864271]
[ 0.11474166  0.19673574  0.05209082]
[-0.00307929  0.13332623  0.11898164]
[-0.03954899 -0.04461674  0.11002515]
[ 0.03068176 -0.05045612  0.01013981]
[-0.05722765 -0.0383326  -0.02499869]
[-0.11951125 -0.06280786  0.04998501]
[ 0.05442563 -0.05237534 -0.06252263]
[ 0.14529     0.03996949 -0.02402878]
[ 0.17263056  0.22906527 -0.03433584]
[ 0.01416472  0.15588038  0.1451734 ]
[-0.09070041 -0.03023088  0.08547332]
[ 0.08964965  0.01963368 -0.0034298 ]
[ 0.0757632   0.04909443 -0.02116674]
[-0.08934014  0.05309791 -0.08275007]
[ 0.11438149 -0.09668971 -0.21081679]
[ 0.18031149  0.03462144 -0.12592496]
[ 0.11753798  0.11141489 -0.06166564]
[-0.10423961 -0.0450567  -0.01244207]
[-0.26995149 -0.19152002  0.06129101]
[-0.02059686 -0.28930303 -0.04721202]
[ 0.16468666  0.15884617  0.04526586]
[ 0.01434125  0.26437071  0.26116738]
[-0.26792848  0.07103194  0.0900988 ]
[ 0.0753565   0.23169616  0.07353622]
[-0.27688596  0.08753703  0.27161673]
[-0.38979068 -0.22794357  0.0965443 ]
[-0.09768566 -0.05918908  0.01409752]
[-0.10019667 -0.11291203 -0.01077539]
[ 0.16265385 -0.08905333  0.00038761]
[ 0.12412181  0.17889808  0.14118314]
[-0.02536824  0.14263074  0.14805812]
[-0.04064288  0.00071501 -0.02375103]
[-0.26242316 -0.21071938 -0.18875158]
[-0.07050446 -0.23572956 -0.25777769]
[ 0.20023516 -0.04831412 -0.00935369]
[ 0.07748902  0.03387718 -0.1125832 ]
[ 0.00891903  0.11918308 -0.04203758]
[-0.08207186  0.00146366  0.0114691 ]
[-0.04127322  0.05651686  0.17387576]
[-0.05909835  0.03920119  0.1983532 ]
[-0.00101718  0.02899656 -0.01558253]
[ 0.13410652  0.1347121   0.0181544 ]
[-0.13374352  0.09275281  0.1321464 ]
[-0.28044498 -0.01723672  0.11674472]
[-0.16198218 -0.20063621 -0.01598922]
[-0.10361461 -0.23999457 -0.23198584]
[ 0.12588564 -0.06622846 -0.20259671]
[ 0.11326598  0.10121571 -0.02568975]
[-0.04073045  0.15203913  0.09913607]
[-0.1692391  -0.00712566  0.10663159]
[ 0.12418737  0.03516192 -0.11338427]
[-0.07784577  0.0704479  -0.01394096]
[-0.10657166 -0.0385282   0.13717452]
[-0.23077993 -0.15329008  0.02201827]
[-0.07913506 -0.12622695 -0.09243535]
[ 0.12918408 -0.07481723 -0.09749679]
[ 0.13018782 -0.04490889 -0.27074647]
[ 0.18175781  0.03788245 -0.07966436]
[-0.02143492  0.03575818  0.08806372]
[-0.18284011 -0.05528082  0.04597942]
[-0.06338722 -0.06828292 -0.04061412]
[ 0.20903014  0.13607253 -0.02721422]
[-0.09887634  0.02065989  0.16026244]
[-0.02396172 -0.02272045  0.0041675 ]
[ 0.02321048 -0.02122673 -0.0337008 ]
[-0.24876584 -0.14735547 -0.02253452]
[-0.09597886 -0.13958964 -0.08416165]
[ 0.14508922  0.02319079 -0.09276661]
[ 0.01003819  0.12633166 -0.02337025]
[-0.09815413  0.00344292  0.08126699]
[-0.12646107 -0.0114953   0.03193346]
[ 0.12576422  0.07348705  0.01226153]
[-0.06045939  0.06581493  0.0318751 ]
[-0.17837287  0.00280852  0.00522046]
[ 0.0355899  -0.01755377  0.02319736]
[-0.12080821 -0.16828378 -0.00423162]
[ 0.00790232 -0.1194018   0.04704245]
[-0.10557136  0.08287786  0.00960769]
[-0.10396763 -0.0806727  -0.0414543 ]
[-0.02646813  0.07343187  0.15870625]
[ 0.17773858 -0.21347025  0.03044459]
[ 0.05694611  0.02244093 -0.03369736]
[ 0.09176018 -0.0012131  -0.00325032]
[ 0.00343135  0.16555311 -0.03711563]
[-0.08212668  0.01020083 -0.02762686]
[-0.24352215  0.09482932  0.00381328]
[ 0.11645191 -0.07596487  0.10776888]
[-0.04548711 -0.04944281  0.07188843]
[ 0.08135681 -0.13868693  0.06057144]
[ 0.01148234 -0.04613735  0.00846548]
[-0.0398585   0.02986081 -0.09010232]
[-0.01812542  0.136066   -0.01541638]
[ 0.17747101 -0.18186364  0.16794272]
[ 0.11243249 -0.14310022  0.12722504]
[ 0.16132577 -0.1581772   0.06839833]
[ 0.1022244   0.00725284 -0.03122007]
[ 0.06099172 -0.04833314  0.04925527]
[ 0.04067743 -0.07448491 -0.09131946]
[-0.01170779 -0.07646976 -0.01285034]
[ 0.04041404 -0.11286107  0.0211338 ]
[ 0.08326887 -0.05710281 -0.02633266]
[ 0.03809623  0.12783562 -0.10439717]
[-0.05770615  0.04097177 -0.0153776 ]
[-0.07503246  0.11294964 -0.0573855 ]
[-0.10116631 -0.09353526 -0.21140881]
[ 0.00674154  0.02860112 -0.09247391]
[ 0.01187858 -0.0435263   0.01921514]
[ 0.00646627 -0.07269216 -0.07159315]
[ 0.05778015  0.02423014 -0.02495934]
[ 0.06890277 -0.04466722 -0.056391  ]
[-0.01975215 -0.11803924 -0.02884455]
[-0.04845625  0.02179829  0.049266  ]
[ 0.04890255  0.13495182 -0.02993909]
[-0.02461264  0.09176019  0.02194925]
[-0.04415129 -0.03255736  0.02201442]
[-0.078402    0.04871524  0.14788745]
[ 0.07557111 -0.0683177  -0.02948312]
[ 0.01137808 -0.11429415 -0.00615324]
[ 0.07828385 -0.17841244  0.02298997]
[-0.04486913 -0.06775153  0.05346781]
[ 0.02985451 -0.14363934  0.02432219]
[ 0.00476399 -0.00857713 -0.01253285]
[-0.02511585  0.15177788  0.10053635]
[ 0.08718376  0.0452699  -0.07602471]
[-0.17813952  0.19886796 -0.00096707]
[ 0.00784318 -0.00296819 -0.03574799]
[-0.05437757 -0.00100581  0.05788328]
[ 0.04271942  0.01751928 -0.01727925]
[ 0.00780281  0.04553399 -0.02124326]
[-0.09171221  0.04666902  0.07401643]
[-0.06765254  0.09127262 -0.0347729 ]
[-0.13157578  0.03410565 -0.06418604]
[-0.0268677  -0.00925377 -0.06111339]
[-0.08747642  0.07388448 -0.07794733]
[ 0.12423207 -0.05084788  0.16842727]
[ 0.08627126 -0.11264213  0.08881503]
[ 0.0574118  -0.12726513  0.0289392 ]
[-0.07233812  0.03278971  0.02977739]
[-0.11783655 -0.03012527 -0.03577552]
[-0.16993368 -0.0024415   0.08038162]
[ 0.03169877 -0.05790105  0.0322686 ]
[ 0.04323149  0.02574077  0.05094185]
[ 0.10983177 -0.07947541  0.07841849]
[-0.02404944 -0.17578135  0.03289285]
[-0.06469437  0.0592658  -0.08315103]
[ 0.04847939 -0.18739384  0.05583576]
[-0.13704328  0.03098669  0.04588481]
[-0.06586029 -0.03032915 -0.02668621]
[-0.00264454 -0.07245748 -0.02415979]
[-0.03255474  0.08943698  0.02063293]
[ 0.00589183  0.08685198  0.05303501]
[ 0.06306762  0.10011007  0.03068634]
[ 0.04755737 -0.08805638  0.05967746]
[ 0.02139885  0.01240393  0.0584227 ]
[ 0.0231625   0.02141826 -0.01776181]
[-0.0339028   0.02472547  0.05605226]
[ 0.07990707  0.04924961  0.09282862]
[ 0.08039715 -0.01628816  0.1507128 ]
[-0.08603773  0.09404202  0.1102255 ]
[-0.1503831   0.09604975  0.09433214]
[ 0.01282662  0.10671595 -0.03371988]
[  6.18400081e-05   1.64482966e-01   1.31915510e-01]
[-0.00149309 -0.03742252  0.05034012]
[ 0.04825829  0.13676044  0.01242229]
[-0.01877835 -0.15471515 -0.04635614]
[ 0.04471993  0.01670531  0.04795929]
[ 0.00427351 -0.09931765  0.02724232]
[ 0.06228992 -0.15312696 -0.03951298]
[ 0.0280327  -0.1695205   0.03632133]
[ 0.09268778 -0.08986539  0.03109133]
[-0.23897113 -0.13884379 -0.01585852]
[-0.26366243 -0.12169363  0.00322981]
[-0.11372285 -0.11079068 -0.13920982]
[-0.03891466 -0.07041361 -0.14092256]
[-0.09072427 -0.06309059  0.08898202]
[-0.06750558 -0.01893418 -0.10192782]
[-0.04437241 -0.01546142 -0.00998142]
[ 0.00534431 -0.06878129  0.05342243]
[-0.02261771 -0.04023673  0.12563021]
[ 0.06193096 -0.01244025 -0.03388657]
[ 0.1556686   0.03453047 -0.03597533]
[ 0.01632476  0.093056   -0.02310126]
[-0.0675891   0.07206265  0.02210448]
[-0.11280889 -0.05997293  0.06262153]
[-0.02425756 -0.04378795  0.02114211]
[ 0.12113436 -0.00143275 -0.06502457]
[ 0.06793059  0.09096994  0.05861597]
[ 0.00086037  0.12880839  0.04489846]
[-0.01414017 -0.11075609  0.02070316]
[-0.05537166 -0.02311588  0.02701763]
[ 0.05322597 -0.07828516  0.03409139]
[-0.01253637 -0.01750727 -0.02338829]
[-0.06957858 -0.13032626  0.00437231]
[-0.09035505 -0.02247995  0.03145333]
