layers 11
layer 0 Convolution2D
16 1 3 3 valid
[ 0.37582687  0.56503856  0.36002767]
[-0.02326901  0.11440359 -0.03715141]
[-0.39538142 -0.57373649 -0.35883486]
[ 0.31470159 -0.06779434 -0.43047655]
[ 0.45023847 -0.04057742 -0.20863639]
[ 0.10972715 -0.04343334 -0.0379448 ]
[-0.04975116  0.16818342 -0.30230573]
[-0.08276138  0.34442818 -0.26856178]
[ 0.05133771  0.28414059 -0.15940402]
[-0.77048486 -0.2455592   0.17721553]
[ 0.18858366  0.09062125 -0.13542943]
[ 0.6304301  0.127297  -0.0875594]
[ 0.5047642   0.22307089 -0.38827941]
[ 0.33758464  0.25524291 -0.44132799]
[ 0.21094809 -0.05969406 -0.55361521]
[-0.10259843 -0.36929163  0.23834491]
[-0.15987767 -0.10732643  0.41829836]
[-0.13097793 -0.13231955  0.3274897 ]
[-0.53041953  0.19165744  0.04862474]
[-0.33310047  0.37976348  0.08803243]
[-0.2454087   0.28148523  0.1256251 ]
[ 0.41272539 -0.43114021 -0.37309957]
[ 0.69221783 -0.22602169  0.08555084]
[ 0.3549597  -0.55821669 -0.19549294]
[-0.2816599  -0.02787968  0.48769668]
[-0.34947756  0.2092278   0.43987745]
[-0.26683089 -0.22286098  0.07227058]
[-0.43594232 -0.41548207 -0.06603601]
[-0.05049676  0.03664679 -0.16004197]
[ 0.47581965  0.48897201  0.10372622]
[-0.11083018 -0.56951159 -0.45694008]
[-0.09560555  0.01230855  0.12537751]
[ 0.1445529   0.64159364  0.2981596 ]
[-0.36210778 -0.3175796   0.00553689]
[-0.3339017   0.14566827  0.15717444]
[ 0.69507796  0.18710101 -0.19976695]
[-0.06645383 -0.35916299 -0.39852116]
[ 0.00333246  0.14629583 -0.13139643]
[ 0.27195483  0.36712638  0.32431066]
[ 0.32678089 -0.406019   -0.01095118]
[ 0.3731311  -0.37745777  0.00486699]
[ 0.26444161 -0.4246684   0.27349621]
[ 0.33053836  0.46674195  0.47977683]
[-0.11480433  0.22803189  0.07325464]
[-0.29906559 -0.58311945 -0.52276093]
[-0.26817152 -0.98160267 -0.65428513]
[-0.20311755  0.4409062   0.18625386]
[ 0.35503227  0.66674274  0.42762867]
[-0.04475524 -0.04806646 -0.01105702  0.00417896 -0.09904056 -0.01015609
 -0.02836332  0.09451915 -0.06170179  0.00740877 -0.00655381 -0.00554494
 -0.13457114 -0.03606005 -0.07262576 -0.03232151]
layer 1 Activation
relu
layer 2 MaxPooling2D
2 2
layer 3 Dropout
layer 4 Convolution2D
16 16 3 3 valid
[ 0.07051305 -0.16253574 -0.09564107]
[-0.00860232 -0.03728522 -0.06692636]
[-0.02000842  0.0067108  -0.06034866]
[-0.11424248 -0.34093219  0.3758601 ]
[-0.90940994 -0.23328206  0.29880214]
[-0.14053223  0.13874501  0.25755596]
[-0.09135367 -0.16064037  0.60355961]
[-1.49318981 -0.28601891  0.49990463]
[ 0.24112868  0.12427173  0.59129262]
[ 0.01933751  0.15080382  0.00146741]
[ 0.18000013  0.08605976  0.07751537]
[ 0.14438656 -0.05622093 -0.00921605]
[-0.20665325 -0.29249385  0.35568774]
[-0.68347836 -0.04261754  0.16150413]
[-0.01012326 -0.01021225  0.08792918]
[-0.13376686  0.16162488 -0.83386725]
[ 0.06399141 -0.25880504 -1.03015471]
[-0.23145865 -0.01753595 -0.03857879]
[-0.25948536  0.11256066  0.41712305]
[ 0.08479102 -0.13917111 -0.39088419]
[-0.10663328 -0.12547234  0.44992971]
[-0.17883411 -0.28310868  0.23977371]
[-0.53362662 -0.36623821  0.03494672]
[-0.08048384 -0.02190557  0.07479189]
[-0.21324459 -0.00633173 -1.22969425]
[ 0.01123603 -0.11976968 -0.78686637]
[-0.07432036 -0.01441338 -0.01033703]
[ 0.08276038  0.14280103  0.00108323]
[ 0.09815156  0.11249688 -0.13100873]
[ 0.15032007 -0.20120524  0.00036695]
[ 0.10443139  0.1065774  -0.00316623]
[ 0.09296166  0.12831056 -0.25146279]
[ 0.07416131 -0.18637654 -0.04878315]
[ 0.06906818  0.23903719  0.13058871]
[ 0.25548342  0.07718696 -0.4853231 ]
[ 0.17786396 -0.126168   -0.06362017]
[ 0.09621532  0.07112104 -0.00624232]
[ 0.00192313 -0.14802444 -0.31042668]
[ 0.03564207 -0.2902475  -0.14817043]
[-0.09761623 -0.49508497 -0.1511163 ]
[-0.54401445 -1.53171623 -0.14418964]
[ 0.07904232  0.04942371  0.02967945]
[ 0.04072343 -0.211243   -0.16997984]
[-0.00059743 -0.06482386 -0.08033524]
[-0.02543306  0.01204395 -0.04751507]
[ 0.07186427  0.10105563  0.01397309]
[ 0.05325839  0.08554774 -0.21724246]
[ 0.05977717 -0.08270729 -0.00755038]
[-0.02952559  0.09269303  0.05245688]
[-0.2095319  -0.18945085 -0.69457793]
[-0.08350341 -0.16945681 -0.11104209]
[-0.75502175  0.09110892 -0.04079707]
[-0.22338256  0.10842918 -1.10524487]
[ 0.05740756  0.06464327 -0.78546673]
[ 0.08208899  0.35067797 -0.5237121 ]
[ 0.66993082  0.234338    0.18929239]
[ 0.53914994  0.08598331  0.67123741]
[ 0.03621747  0.28363743 -0.60909861]
[ 0.15834174 -0.3930808  -0.10600404]
[ 0.26627445 -0.84920555  0.15191637]
[-0.44767258  0.02903031 -0.32595032]
[-0.13841364  0.08656616 -0.61334562]
[ 0.06345335  0.15123537  0.02677865]
[-0.08378733 -0.0408133   0.18641266]
[-0.03437257  0.20528059  0.13283645]
[-0.20043416  0.17517795  0.13021716]
[-0.02325581 -0.23177594  0.06859636]
[ 0.09509861  0.10142908  0.0944438 ]
[-0.00197809  0.06408516  0.10082451]
[-0.3571552   0.05205775  0.19257532]
[-0.0326276   0.1181279  -0.52035511]
[ 0.075841    0.07462593 -1.14695561]
[-0.06487213 -0.03188384  0.11841446]
[-0.01385038 -0.01632744  0.05963017]
[-0.09048695 -0.04837797  0.10562969]
[ 0.10359248  0.08372022 -0.30778122]
[ 0.12301207 -0.64739382  0.12938914]
[ 0.01413435 -0.39655948  0.2171786 ]
[ 0.1164756  -0.28775764 -0.12831879]
[ 0.10706802 -0.61269301  0.15897712]
[-0.32629594 -0.10400206  0.16471121]
[ 0.08450644  0.30103493 -0.58216733]
[ 0.22133626 -0.93495625 -0.04625412]
[ 0.29780421 -0.54736316  0.22651353]
[-0.12224714 -0.41834858 -0.51859921]
[-0.12136789 -0.70444548 -0.16699192]
[-0.53319472 -0.35305354 -0.02096257]
[-0.15490241  0.14854433  0.25319183]
[ 0.13276732  0.20530592 -0.30047306]
[ 0.13740565  0.15708625 -1.37396026]
[ 0.01075749  0.07971787  0.03945809]
[-0.24018434 -0.32026517 -0.52099133]
[-0.06590535 -0.27009287 -0.01712962]
[ 0.08135868 -0.15302353 -0.13478161]
[ 0.1082424  -0.53285271  0.11541613]
[-0.19319829 -0.09668789  0.07632068]
[ 0.24337122  0.20012565  0.04399838]
[-0.40950352 -0.56334251 -0.24018538]
[-0.14580572  0.10303672 -0.32452044]
[ 0.02742208 -0.37429836 -0.32170448]
[ 0.00048707 -0.10476056  0.06483594]
[ 0.01759836  0.0949822   0.07344308]
[-0.12302854 -0.34693864 -0.27126074]
[ 0.00549819  0.18239588  0.04669789]
[ 0.1011301   0.17383951  0.07580835]
[-0.3548927  0.0934172  0.1504225]
[ 0.09789351  0.56310886  0.2064438 ]
[ 0.13487339 -0.3565408  -0.05068851]
[ 0.01647675 -0.23199521 -0.17750636]
[-0.02482572 -0.0664283   0.01511864]
[ 0.0086083   0.0670892   0.02738793]
[-0.31297871 -0.11516702  0.10519878]
[ 0.08636592 -0.04794079  0.08697888]
[ 0.06592214  0.06152056  0.14935887]
[-0.30828857 -0.22033475 -0.05999811]
[-0.00905513  0.00423588 -0.05936284]
[ 0.00548706  0.05654995  0.08338474]
[-0.02397238 -0.25628644 -0.24142997]
[-0.03111973 -0.05167698 -0.00481713]
[-0.02123682  0.04803606  0.00128135]
[-0.18272427 -0.16368465  0.08568418]
[-0.0405991  -0.07162765  0.02986565]
[ 0.07072448 -0.0101439   0.07966235]
[-0.40731645  0.23643702 -0.20528254]
[ 0.20206985  0.51060832 -0.08526284]
[-0.12217398 -0.45416406  0.04951742]
[-0.1687704   0.27491167 -0.52340931]
[ 0.36265013  0.43729833 -0.32457274]
[-0.03871468 -0.37281895 -0.03339526]
[-0.5501278   0.41664448  0.1539458 ]
[ 0.24329902  0.57261801 -0.11188988]
[ 0.15191831 -0.63534409  0.03111019]
[-0.29601038 -0.02916303 -0.57731795]
[ 0.20689192  0.2725625  -0.28049755]
[ 0.06885978 -0.42283553 -0.09971642]
[ 0.07852215 -0.27048963 -0.14185539]
[ 0.07995437 -0.01094697  0.1397844 ]
[ 0.06515493  0.21378218  0.14491023]
[ 0.25531191  0.16531312  0.05315544]
[-0.64691335 -0.53495044 -0.2023657 ]
[-0.07502452  0.08178739 -0.38625631]
[-0.27731866  0.09862399 -0.37327045]
[ 0.25959811  0.27370733 -0.31117892]
[-0.07677228 -0.27853584 -0.02240087]
[-0.1485312  -0.8364625   0.24195336]
[ 0.2371024  -0.26524609 -0.41249037]
[ 0.0407258   0.09221314 -0.01286655]
[ 0.49667564  0.27743492 -0.04345338]
[-0.44135338  0.17638862  0.27002969]
[-0.42062786 -0.07849134  0.06683303]
[ 0.67075038  0.26259634  0.03283368]
[-0.65693069 -0.01600335  0.18870962]
[-0.752051   -0.32891336  0.02523653]
[ 0.0343172   0.00982682  0.10994074]
[ 0.47083068 -0.23565312  0.18112284]
[ 0.28735664 -0.29122996  0.08777522]
[ 0.12335426  0.15026349  0.05357338]
[-0.35007221 -0.05035567  0.06069102]
[ 0.24756874 -0.02236675  0.01095764]
[-0.07588877 -0.36344534 -0.6602214 ]
[-0.04087129 -2.72870183 -2.7749486 ]
[-0.00995408 -0.66142118 -1.96409047]
[ 0.1764901  -0.37698811 -0.07670714]
[ 0.07808828 -1.45312846 -2.96392751]
[ 0.02087369 -0.31334785 -1.9658581 ]
[-0.147486    0.18661809 -0.06146296]
[-1.32590616 -0.03472686  0.04913761]
[-0.27798551 -0.0869542   0.00152303]
[ 0.06803376 -0.31700802 -0.08615885]
[ 0.03933351 -1.38010049 -3.62194705]
[-0.08373451 -0.25640181 -1.1711154 ]
[-0.01967754 -0.05454274 -0.14343223]
[ 0.15068208 -0.04565572  0.24019435]
[ 0.25530794 -0.21111345  0.08269674]
[-0.05387792 -0.04597909 -0.31671324]
[-0.00498523  0.00883848  0.20822352]
[ 0.11484961 -0.18578745 -0.02212606]
[ 0.05157369 -0.09646067  0.00780011]
[ 0.41176021 -0.53933913  0.14528939]
[ 0.36804709 -0.13263254 -0.05040313]
[ 0.09232651  0.19776715 -0.16695602]
[-0.19260424  0.11821771  0.32519007]
[ 0.01348488 -0.11526847 -0.04374323]
[-0.1366042   0.46342707 -0.20161714]
[-1.44779468 -0.12864034 -0.12509906]
[-0.69764894 -0.27683821 -0.21534163]
[-0.10293182 -0.72766882  0.23730962]
[ 0.21323556 -0.22663601 -0.44517606]
[ 0.0839299   0.08091071 -0.00397954]
[-0.07419358 -0.06538061 -0.22704026]
[-0.06610227 -0.02579087  0.15131064]
[ 0.17683008  0.03033521  0.01787868]
[-0.13372736 -0.57030541 -0.3757574 ]
[ 0.08429176  0.01841009 -0.4885731 ]
[-0.03299664  0.07950545 -0.20941891]
[ 0.197685   -0.01274723 -0.06415726]
[-0.04444051  0.06040933  0.18738388]
[ 0.04157292 -0.04779894  0.15921804]
[ 0.18488178  0.03529135 -0.16998079]
[-0.11534888 -0.01380406  0.01766489]
[-0.0098375  -0.1928903   0.14208008]
[ 0.16981561  0.37037399  0.12086023]
[-0.30137649  0.15564245  0.09972107]
[-0.08314338  0.04028821  0.23938833]
[-0.010132   -0.00224267 -0.06597523]
[-0.00379917  0.01232305  0.02506352]
[ 0.08406255 -0.05766144 -0.00859521]
[-1.58410692 -1.47340643  0.06221688]
[-1.34096324 -0.74505913  0.03948323]
[-0.65310961  0.03579884 -0.00625886]
[-1.1835748  -1.90222931 -0.29762217]
[-0.95503718 -1.19809175 -0.24866016]
[-0.43558788 -0.01075811 -0.11636125]
[ 0.11575105  0.05188815 -0.045498  ]
[-0.0423915   0.06755792  0.09274925]
[ 0.06753318  0.00243063  0.07449745]
[-2.26441288 -2.46479011 -0.07845194]
[-0.71564877 -1.2689352  -0.12258236]
[-0.73478413 -0.30562162 -0.10148744]
[ 0.29208255  0.35493785  0.06477255]
[-0.06719145  0.22019781  0.08389981]
[ 0.01001017  0.0643558   0.21545608]
[ 0.30833441  0.22170985 -0.17864147]
[ 0.06573117  0.0830259   0.00557133]
[ 0.03142116  0.12265464  0.06655759]
[ 0.19255739  0.36075237 -0.04336604]
[-0.29643002  0.19742694  0.08865296]
[ 0.09878992  0.08975072  0.3128452 ]
[ 0.3413645   0.21872987 -0.24285589]
[-0.15148319 -0.04863517  0.09107485]
[-0.22707152 -0.14834277  0.11729906]
[ 0.27549833 -0.10972587 -0.07839635]
[-0.2236532  -0.02177916  0.07742266]
[ 0.28051373 -0.03606578  0.06499307]
[-0.09258424 -0.71199495 -0.37950704]
[ 0.08271965 -0.06888173 -0.58563209]
[-0.0048769   0.06052605 -0.28138348]
[ 0.19311824  0.20685761 -0.15571636]
[ 0.10473674  0.06350665  0.03529033]
[ 0.04824362  0.09245659  0.06131593]
[-2.12683535 -0.84054941  0.32581425]
[-1.36586046 -3.91064048 -0.05327437]
[-0.03024346 -0.13026358 -0.071875  ]
[ 0.08021832  0.19031231 -0.22646517]
[ 0.14200422  0.08134236 -0.05153997]
[-0.52141148  0.01144637  0.2487656 ]
[ 0.75417119  0.22342415  0.17446555]
[ 0.60814744  0.20993377 -0.08306484]
[-0.25829035  0.08186464 -0.05196216]
[-0.28845331  0.22856572 -0.35983109]
[-0.52425605  0.18829113  0.22548862]
[-0.25935552  0.10805968  0.27606452]
[ 0.08188643  0.01164411 -0.07573493]
[ 0.02152261  0.0485055  -0.118798  ]
[-0.34123945 -0.01679551  0.0661582 ]
[-0.07364327  0.50957     0.13836725]
[ 0.05254915 -1.13693285  0.05850912]
[ 0.09718907 -1.44417441 -0.09286626]
[-0.00772575 -0.65801746  0.0784611 ]
[ 0.00402932 -2.80934763 -0.17885141]
[  6.77524658e-04  -1.86222601e+00  -3.97272557e-01]
[-0.07100634  0.14334576 -0.2070054 ]
[-0.13158447  0.07431155 -0.06613729]
[-0.34438476  0.0428217   0.13500428]
[-0.24187191  0.86346936  0.16554143]
[ 0.03795142 -1.60119939  0.05399146]
[-0.00951429 -0.99173254 -0.18973017]
[ 0.03017225  0.19475962 -0.66411108]
[-0.23189719  0.1413562   0.02497444]
[-0.26897356  0.41112423  0.2295606 ]
[ 0.04181819  0.01139496 -0.50139546]
[-0.15124135  0.04998134 -0.06993926]
[-0.32719529  0.26423031  0.16183761]
[-0.27419239  0.16924924 -0.55228198]
[-0.50129032 -0.01646901  0.08789013]
[-0.24568243 -0.1820818   0.26383051]
[ 0.25677523  0.26352733 -0.72395587]
[-0.08523413  0.17519282  0.04184799]
[-0.24032089  0.1994091   0.20293267]
[-0.37533051  0.42894846 -0.23292382]
[-0.42931071  0.11276865 -0.04242866]
[-0.82665759 -0.11297178  0.0384378 ]
[-2.42337751 -0.6512177   0.33046722]
[ -1.26590407e+00  -3.81548834e+00   2.61798617e-03]
[-0.00062719 -0.11572325 -0.05524061]
[ 0.00271564 -0.12978652 -0.357912  ]
[-0.17800653  0.0052869  -0.06678446]
[-0.34281263  0.090858    0.06076508]
[ 0.53154749  0.09238152  0.21447551]
[ 0.12964702  0.00024144  0.03962318]
[-0.12986992 -0.19052662  0.01282954]
[ 0.26688701 -0.00087273 -0.46169248]
[-0.05609173 -0.036215   -0.09554753]
[-0.10805375 -0.05608392 -0.03651433]
[ 0.21375985 -0.44590268 -0.41620108]
[-0.0657036  -0.06371132  0.07138742]
[-0.00256491  0.10156542 -0.10676284]
[-0.37871185 -1.22554207 -3.73532128]
[ 0.54973102  0.11595511 -0.40950072]
[ 0.30995998  0.06811003 -0.03671199]
[ 0.15411027  0.01069278 -0.19125825]
[-0.06634243 -0.0333313  -0.01550049]
[-0.05755339  0.00603177 -0.02724263]
[-0.08360814  0.12306138  0.16764773]
[-0.95754582 -0.03219337  0.24168722]
[-0.86955231 -0.04172919  0.23209159]
[ 0.1532366   0.14004156  0.08089732]
[-0.45548445 -0.2665855   0.07430341]
[ 0.01834183 -0.22163092  0.12203737]
[ 0.12463032  0.05203993 -0.18540666]
[-0.06418006 -0.07856359  0.00398078]
[-0.05759155 -0.0343462   0.07266941]
[ 0.10017032  0.16803242  0.15170538]
[-0.8250851   0.02262225  0.11220359]
[-1.05945134 -0.12634812  0.2060387 ]
[-0.4869799  -1.62307191 -2.72356081]
[ 0.4743461   0.22261442 -0.48138908]
[ 0.21680081  0.07410623 -0.19357193]
[-0.56706828 -1.7711798  -1.46664894]
[ 0.3727107   0.01490484 -0.65138125]
[ 0.14467825  0.00208178 -0.25778422]
[-0.06401429 -0.9548707  -3.83284163]
[ 0.61030936  0.19369541 -0.50899696]
[ 0.39113563  0.14912291 -0.15730749]
[-0.66110599 -1.0222944   0.02387147]
[ 0.19472258  0.15082662 -0.53436267]
[-0.07479329  0.03416785 -0.35680699]
[ 0.15173258  0.17704    -0.40218806]
[-0.15110508 -0.04844747 -0.0021833 ]
[-0.17435175  0.05053571  0.09333231]
[ 0.42056772  0.06832498  0.227863  ]
[ 0.12214993 -0.03881548 -0.0146939 ]
[-0.05995024 -0.19661373  0.04448292]
[-0.22607763 -1.57863379 -1.61656356]
[ 0.25626594  0.00327545 -0.49279055]
[ 0.10501377 -0.00295251 -0.13818586]
[-0.2498192   0.04728265  0.10508486]
[-1.30900085 -0.14927807  0.06733839]
[-0.17017068 -0.18153942  0.2877425 ]
[-0.13142794 -0.73074061  0.10252491]
[ 0.24506707 -0.08008359  0.17736097]
[ 0.24076977  0.13326764 -0.17981327]
[ 0.22548999 -0.13028455  0.01309907]
[ 0.64267063  0.08710965  0.06068886]
[ 0.50871897 -0.02184099 -0.21769714]
[ 0.42233166 -0.61161417 -0.10841705]
[ 0.32660198 -0.30698398 -2.46321321]
[ 0.16404955 -0.16260532 -0.0482723 ]
[-0.11641837 -0.53446448  0.05845204]
[ 0.08742016 -0.21377234  0.10741755]
[ 0.10670424  0.00989354 -0.13389337]
[-0.16508034  0.5455637  -0.13206749]
[-0.21539544  0.39589241  0.04042134]
[-0.26905662 -0.03132459  0.04549157]
[-0.35709754  0.54821593 -0.05287584]
[-0.25930232  0.32787254  0.18346068]
[ 0.13263728 -0.02222887 -0.01479495]
[-0.04734666 -0.26567855  0.0245148 ]
[ 0.06782993  0.01821414  0.0452804 ]
[ 0.07748006  0.0408626  -0.17990507]
[-0.17448628  0.53265786 -0.11720435]
[-0.40261614  0.41459253  0.01377719]
[-0.4145416   0.11003109 -0.0301971 ]
[ 0.28087714 -0.62378788  0.00159412]
[ 0.38844424 -1.45458221 -0.99554217]
[ 0.1581775  -0.12236698  0.1905068 ]
[-0.0507275  -0.45731565  0.09787022]
[ 0.13576746 -2.26515532 -0.12607218]
[-0.02308944 -0.18162106  0.22425237]
[ 0.32944342 -0.72337502 -0.27002558]
[ 0.23815273 -0.73472655 -1.90133739]
[ 0.01800464 -0.38426644  0.18388152]
[-0.07787399 -0.65618694  0.0366184 ]
[ 0.65213835 -1.27871752 -0.39920515]
[ 0.10914811 -0.11391826 -0.00832186]
[-0.0464832  -0.13885447  0.08708558]
[ 0.14857274  0.24126212  0.12387656]
[ 0.04072514  0.15231429 -0.18966453]
[-0.20961191  0.14038475  0.13719559]
[-1.32387388 -0.05301005  0.02755497]
[-0.19974189 -0.14497717  0.31652704]
[-0.07513399 -0.20996569  0.12650107]
[-0.01867059 -1.95208764 -0.06163331]
[-0.0881341  -0.17917268  0.12823883]
[-0.03992911  0.12494174  0.11225236]
[ 0.04494616  0.01042121 -0.08732329]
[ 0.3889046   0.36291209 -0.14895408]
[-0.84266829  0.08389111  0.16966359]
[ 0.03982028  0.16000786  0.24901149]
[ 0.22523528 -0.02143096  0.1228265 ]
[-0.61069155  0.13921659  0.11322329]
[ 0.31314781  0.29513708  0.08728952]
[ 0.5258466  -0.30085593  0.1440175 ]
[-0.96355307 -1.36171901  0.07682979]
[-0.28795537 -2.15239382  0.08990724]
[ 0.21398336 -0.59947741  0.20618556]
[-0.21065848  0.05238486  0.10661417]
[ 0.14082679  0.10357415  0.22736199]
[ 0.23283674 -0.04133627  0.07525974]
[-0.19609362 -0.36738905  0.28128806]
[-0.10733183  0.03347294  0.20000952]
[-0.70699728  0.29036224  0.24057649]
[-0.05557365 -0.90081656  0.19525456]
[-0.08666922 -0.22803056  0.13313895]
[-0.61684155  0.07258805  0.230105  ]
[-0.41726699  0.0590176   0.06024633]
[ 0.00146793  0.0709923   0.21042462]
[ 0.13669029  0.02784508  0.08966346]
[ 0.0444032  -0.40684468  0.23183137]
[ 0.00757102 -0.00753594  0.09508009]
[-0.37256157  0.12297253  0.18486908]
[-1.29323971 -1.46080041  0.02766132]
[-0.63452035 -2.11507583 -0.07776386]
[ 0.00553433 -0.40561172  0.26589289]
[-1.53341007 -1.01077569  0.04141526]
[-1.17736447 -0.66642499  0.1433607 ]
[-0.25540626 -0.13887799  0.22987375]
[-1.14960754 -2.01471043  0.04891977]
[-0.29358503 -2.54950166  0.07852799]
[ 0.16514157 -0.50672841  0.340698  ]
[-0.8775906  -0.37943524 -0.36490777]
[-0.96946776 -0.785124   -0.35053647]
[-0.25751159 -0.69427919 -0.13192795]
[-0.94892454  0.15335611  0.19003524]
[-0.03389676  0.18311602  0.17078781]
[ 0.27409473  0.18775798  0.08885875]
[-0.01387192  0.10265913  0.11003844]
[ 0.01198929 -0.00691096 -0.05821543]
[ 0.48482218  0.26462725 -0.14585343]
[-1.31448138 -0.972431    0.06992975]
[-0.95245171 -0.504296    0.04946391]
[-0.22731398 -0.12510529  0.10228693]
[-0.02017677 -0.07459589 -0.23717082]
[-0.28178176 -0.78935152 -0.44872808]
[ 0.01173551  0.08949146  0.30704963]
[ 0.24784268 -0.14778808  0.15656558]
[ 0.08318954  0.0961739   0.09611753]
[-0.0719288  -0.0471755   0.23706363]
[ 0.44579154  0.11362561  0.20649682]
[ 0.18390785  0.26259118  0.17422086]
[-0.01387255 -0.11076251  0.18479255]
[-0.82607365 -1.28201663 -1.90126729]
[-1.35166299 -2.11554694 -1.88226414]
[ 0.18481171 -0.68401164 -1.25619364]
[ 0.1633018  -0.09152866  0.09777863]
[ 0.0101653   0.03653796  0.02762761]
[-0.06482451 -0.02905025  0.17327306]
[-0.03886421  0.46178579  0.20914476]
[-0.10254133  0.31664142 -0.02705817]
[-0.13911384  0.3087247  -0.17043324]
[ 0.46341684  0.26399279  0.47392964]
[ 0.08163562  0.12363248  0.31984401]
[-0.03767371  0.07272599  0.06676778]
[ 0.22280271  0.0524037   0.09553731]
[ 0.03561854  0.07990823  0.0594946 ]
[-0.02904597  0.02143737  0.1288165 ]
[-0.06861158  0.32289711  0.1955938 ]
[-0.13206263  0.14074402  0.10684571]
[-0.11289836  0.11947093 -0.09020508]
[-0.36443534 -1.55626607 -1.79015696]
[-0.97852242 -2.23414421 -1.49603105]
[ 0.41337541 -1.36179161 -0.31684634]
[-0.49868473 -1.21791792 -1.34946465]
[-1.01681316 -1.35663557 -1.09665322]
[ 0.020202   -1.05945504  0.2152406 ]
[-1.62959957 -3.24133706 -3.80595112]
[-2.33956218 -3.63129735 -3.84597945]
[ 0.31737968 -0.96377683 -1.57030284]
[ 0.10549711 -0.42792198 -0.08310721]
[-0.11804269 -0.24818568  0.20670874]
[ 0.07022341 -0.6030454   0.25203589]
[ 0.40864873  0.38233617  0.01260931]
[ 0.18708183  0.32761413 -0.06396631]
[ 0.00907429  0.03693051  0.0076667 ]
[-0.0145007  -0.02350947 -0.22310853]
[-0.31449965 -0.74345648 -0.33164161]
[ 0.02612417  0.14064175  0.31426027]
[-1.28137672 -2.27324677 -2.1337018 ]
[-2.30029535 -2.87368822 -2.1164608 ]
[-0.08118407 -1.21373188  0.07388131]
[-1.05823398 -3.44624686 -1.54329598]
[-0.88005322 -3.04108953 -2.36629462]
[-1.91841424 -1.77556455 -0.95057082]
[ 0.0523207  -0.12027787  0.40592772]
[ 0.06810715  0.17281435  0.09745458]
[ 0.08233294  0.04094389  0.1014341 ]
[ 0.16221441  0.0088976   0.32966807]
[ 0.20773858  0.33085772  0.1151948 ]
[ 0.10672683  0.00787849  0.06876547]
[-0.01017373  0.03139965 -0.1976755 ]
[ 0.03489206 -0.16604926 -0.70356047]
[ 0.36923251 -0.03347699 -0.55991125]
[ 0.03743305  0.00187859  0.24879616]
[ 0.02576905  0.21074226  0.02716269]
[ 0.01251911 -0.10458974  0.06720196]
[ 0.21958154  0.34928232 -0.04996682]
[ 0.18696007  0.13837349  0.00847926]
[-0.01913568  0.22194384 -0.33477584]
[-0.12940446  0.34384817  0.32473859]
[ 0.28610325  0.05376827  0.4081707 ]
[ 0.03445443  0.05735686  0.02539984]
[ 0.07358867 -0.06485346  0.14168133]
[ 0.0207077   0.04193013  0.02837105]
[ 0.02186792 -0.080694    0.02078304]
[-0.09030996  0.36285484  0.17233212]
[ 0.11489964  0.16504934  0.02075854]
[-0.01040919  0.0801807  -0.19889246]
[ 0.09674384  0.01058275 -0.32397941]
[ 0.09260926 -0.08531388 -0.50900257]
[ 0.42295709  0.02326615 -0.37750211]
[ 0.15442286  0.01634176 -0.39446339]
[ 0.02790533 -0.14199531 -0.33336282]
[ 0.25517252  0.00522024 -0.28616571]
[ 0.03747305 -0.00795852 -0.43368703]
[ 0.1629793  -0.11852854 -1.00640464]
[ 0.3442997   0.10475867 -0.5656777 ]
[ 0.02590764 -0.16594471 -0.2146384 ]
[-0.00869138 -0.26264492  0.05199763]
[ 0.3235727   0.19828077  0.03777525]
[ 0.15427765  0.09618481  0.10952299]
[ 0.10350218  0.27262008  0.09083609]
[ 0.0421389  -0.00033525  0.10206845]
[-1.43899107 -3.10988188 -1.56268549]
[-1.10202467 -2.89808893 -2.48017573]
[-2.04975677 -1.60980868 -0.90310144]
[ 0.06825469  0.05800165 -0.29628405]
[ 0.0631661  -0.1472799  -0.40823072]
[ 0.15635455 -0.1355038  -0.33198392]
[-0.10465319 -0.11005332 -0.05610882]
[-0.00844942 -1.24311459 -1.69935954]
[ 0.16731758 -0.96242756 -0.27156121]
[ 0.35318801  0.02220424 -0.18156455]
[ 0.27712309  0.03842976  0.03838823]
[-0.07001893  0.21879788  0.17618926]
[ 0.49070525  0.10794899 -0.10495646]
[ 0.36440814  0.04992729  0.26056689]
[ 0.10044571  0.17034732  0.33584291]
[ 0.19232646 -0.76599306  0.25756985]
[-0.65803438 -1.31807053  0.17980006]
[  2.30789650e-04  -2.56863326e-01  -4.39349078e-02]
[ 0.27370715  0.06206962 -0.1375839 ]
[ 0.12420721  0.19198194  0.03088706]
[-0.02521892  0.2204099   0.01212421]
[-0.18278077  0.19476956 -0.18446338]
[ 0.1985954   0.26175609  0.05791106]
[-0.03970399  0.41941729 -0.05115052]
[-0.08989528  0.3375411  -0.06369153]
[ 0.21441664  0.24651629  0.19716479]
[-0.23069385  0.14822419  0.37899637]
[ 0.31386277  0.0345539  -0.11822315]
[ 0.19713499  0.13036411  0.07188146]
[-0.03643232  0.17775229  0.06508526]
[-0.21993603  0.09889619 -0.10002042]
[-0.13921231  0.1171924  -0.07231687]
[-0.09432327  0.25645676 -0.01824958]
[ 0.05317828 -0.87777758  0.24647425]
[-1.24492931 -0.66336572  0.15759213]
[-0.07084039 -0.10959156  0.04603419]
[-0.41863629 -0.37046188  0.16795434]
[-1.64076972 -0.0628319   0.08943976]
[-0.17040664 -0.05899627  0.03367857]
[ 0.12624522 -1.51019228  0.33555901]
[-1.56676483 -1.13597894  0.12856065]
[ 0.14535087 -0.14549468  0.01149648]
[-0.25942138 -0.64180255 -0.12252754]
[-0.6967473  -0.50345635 -0.0573474 ]
[-0.14842533 -0.26978761 -0.10025005]
[ 0.57338661  0.10960215 -0.15899563]
[ 0.25516665  0.26137275  0.02642498]
[-0.14800973  0.62733489  0.0860956 ]
[-0.201345   -0.17333172 -0.07469802]
[-0.13615023 -1.63470697 -1.67746711]
[-0.05403272 -0.84051973 -0.20234874]
[-0.24972437 -0.34472743  0.06412496]
[-1.54396451 -0.1058982   0.08173091]
[-0.16119249 -0.07435204  0.00218734]
[ 0.16547355  0.01120798 -0.68977863]
[-0.0225764  -2.19420886 -0.38384727]
[-0.44454128 -0.01477243 -0.02578158]
[ 0.01787085  0.21408786 -0.14186154]
[-0.03795891 -0.71709174  0.21700178]
[-0.14810134 -0.74391019  0.13482115]
[ 0.26867861 -0.47456762  0.2415415 ]
[-0.08732938 -1.01613188  0.19696715]
[-0.27330786 -0.04236492 -0.01183446]
[ 0.15047625  0.05443637  0.31757867]
[-0.36641335  0.44965836  0.21691534]
[ 0.12614477  0.25612092 -1.08826137]
[ 0.06141033  0.02290727 -0.05645438]
[-0.048311   -1.11260092  0.15400992]
[-0.19460848  0.01529904  0.06029342]
[-0.21729013  0.24674089  0.36526531]
[-0.01889017  0.21912232 -0.21322356]
[ 0.28960025  0.03437342 -0.10319198]
[-0.16302755  0.09748164  0.47320279]
[-0.24882805  0.14566189  0.06669295]
[ 0.16119994  0.07520906 -0.64241683]
[-0.00773192  0.12600555 -0.17166482]
[-0.04751648 -0.50236481  0.03880097]
[-0.08745296 -0.62230712  0.06954269]
[-0.19390437 -0.00275089  0.1736683 ]
[-0.25149757  0.12378545 -0.15516287]
[ 0.11690406  0.02752006 -0.40686932]
[-0.31220326  0.23077312  0.19462042]
[-0.22801092  0.35122731  0.00828847]
[ 0.19680189  0.06121759 -1.02203047]
[-0.33482936  0.41962096  0.08319511]
[-0.03392914  0.33165047 -0.35549119]
[ 0.20614815  0.11004198 -0.45121187]
[ 0.00365062  0.4216888   0.43853086]
[-0.29500356  0.45412242  0.19397113]
[ 0.20543803  0.36108887 -1.55100989]
[-0.40868464 -0.10528838 -0.06595819]
[-0.23179971 -0.04152319 -0.37820384]
[-0.06312916 -0.4148472  -0.52071404]
[ 0.0239035   0.4758389  -0.25630319]
[-0.00063391 -0.03402738  0.10160492]
[-0.00477957 -0.67067939  0.26001611]
[ 0.16019793 -0.15672681 -0.72518784]
[-0.26970753 -2.2343173  -0.45036235]
[-0.44956118 -0.00222259 -0.0603012 ]
[-0.27162594  0.20567258  0.08783926]
[-0.03539985  0.2064129  -0.24047019]
[ 0.13842988  0.0596487  -0.44695711]
[ 0.04596917  0.16777498 -0.13252939]
[ 0.10666586  0.04289582 -0.19055645]
[ 0.0914309   0.08622825  0.01406735]
[-2.13541031 -1.43160737 -0.01798736]
[-2.3200891  -1.99811637  0.18384914]
[-0.33993119 -0.59603393  0.04641259]
[-2.07351136 -1.26241946 -0.09532665]
[-1.7962774  -1.78433442  0.11979245]
[ 0.32716289 -0.57739919  0.10145482]
[ 0.15836303  0.16429102 -0.03717675]
[ 0.0968629   0.04475642  0.0362889 ]
[ 0.29273552  0.382745   -0.2924799 ]
[-1.47991967 -1.13790965  0.00272191]
[-1.21425235 -0.9689725   0.00889359]
[-0.30044651 -0.08929687  0.02015675]
[ 0.070371   -0.09362717  0.22493066]
[-0.10219266  0.27399427  0.41643217]
[-0.1663325   0.40638015  0.1702292 ]
[ 0.13819544 -0.14424716  0.15289615]
[-0.10230575  0.18776114  0.32041752]
[ 0.01782839  0.3051815   0.40961781]
[-1.13452041 -1.05734921 -0.01812665]
[-0.92836452 -1.36173689  0.13158573]
[-0.04377228 -0.27990443  0.06727522]
[ 0.11796244  0.01744238  0.06117503]
[ 0.02144383  0.16589384  0.18596308]
[-0.18121989  0.17625898  0.14953883]
[ 0.16540872  0.24478033 -0.42653999]
[ 0.02315011  0.1060409  -0.57374978]
[ 0.26158673  0.24090631 -0.74753273]
[ 0.09641716  0.00459474 -0.48166007]
[ 0.11681712  0.1395271  -0.66576684]
[ 0.21872558  0.19955599 -0.94250453]
[ 0.11031345  0.24069966 -0.23977065]
[-0.0353828   0.04315981 -0.3063775 ]
[ 0.30503923  0.53022021 -0.17041151]
[-0.11043026 -0.11506523 -0.48984376]
[-0.17215334 -0.29946393 -0.37962359]
[ 0.09612167 -0.37621924 -0.5895825 ]
[-1.41203904 -1.02616549 -0.1715779 ]
[-1.34226167 -1.19658518 -0.02507817]
[-0.05304316 -0.1844622  -0.01652446]
[ 0.07942235  0.25946945 -0.1455557 ]
[ 0.10685311  0.02416249 -0.26268384]
[ 0.09095962  0.07837953 -0.00606474]
[ 0.07709055  0.07853536 -0.34074119]
[ 0.14093421  0.14007445 -0.56361014]
[ 0.14014505  0.1990965  -0.54306936]
[-0.75383526  0.16819099  0.16823028]
[-0.16638602  0.14062153 -0.12169388]
[ 0.07597926  0.29802907 -0.55309939]
[-1.38911235 -0.06710472  0.25111821]
[ -6.98181391e-01   1.14666849e-01   2.01380957e-04]
[ 0.35862681  0.18970498 -0.30210435]
[-0.81264257  0.1043028   0.19893496]
[-0.04017104  0.1841121  -0.11472921]
[ 0.53246969  0.14061813  0.3447037 ]
[-0.20559306  0.29685944 -0.21055193]
[ -7.06053048e-04  -7.68309712e-01  -2.08408400e-01]
[-0.09658714 -0.25652209  0.26488867]
[-1.0832628   0.01553706  0.19548598]
[ 0.00441376  0.04399183 -0.01870823]
[ 0.34497467  0.12157101 -0.24952537]
[ 0.06697469 -0.45052704 -0.12724522]
[ 0.2748892  -0.72490138  0.04267135]
[-0.30272648  0.72777176  0.02763929]
[ 0.08081268 -0.31542003 -0.27744943]
[ 0.23598319 -3.03788495 -0.02816365]
[-0.11045609 -0.29158312  0.1018274 ]
[-1.24095118 -0.01407774  0.15090385]
[-0.47590211  0.07731137  0.00570987]
[ 0.07369814  0.17011905 -0.20839669]
[-0.01048501 -1.12205744 -0.11550685]
[ 0.01566248 -1.46035111 -0.09667298]
[-0.15229358 -0.1197816  -0.00534291]
[-0.00629221  0.13922049 -0.60219818]
[ 0.02821442 -2.77966547  0.04579203]
[-0.33678737 -0.06930045  0.23474596]
[ 0.08857605  0.0872058  -0.43585408]
[-0.02337488 -2.63184404  0.07562887]
[-0.44946828  0.14509068  0.14557073]
[-0.15764521  0.39284021 -0.63167143]
[ 0.34241968 -1.49983311 -0.11425254]
[-0.03909422  0.18214394  0.3330172 ]
[-0.1778392  -0.18312788 -0.5109579 ]
[-0.8844409  -1.14739323 -0.47156793]
[-0.39937332 -0.13118654 -0.02055349]
[-0.49228373 -0.06262837  0.16713011]
[-1.20366013  0.20416664  0.02558498]
[-0.25322005  0.41702047 -0.14754815]
[-0.76994145  0.18948448  0.09632723]
[-0.16150497  0.11499164 -0.21472089]
[ 0.03997163  0.15020646 -0.62673008]
[ 0.04770706  0.11581876 -0.16042289]
[ 0.04584429 -2.09943461  0.04744373]
[-0.33229008  0.14650863  0.06820275]
[-0.15758196 -0.51348293  0.25707015]
[ 0.02468595  0.06989938  0.22503936]
[-0.03084881  0.11716251  0.12735358]
[-0.0136794   0.03253347 -0.05255916]
[-1.11526453 -0.35719478 -0.01722516]
[-0.09800544 -0.04915322 -0.08833498]
[ 0.32671338  0.02520586 -0.12306718]
[-1.34686124 -0.60005593 -0.14930423]
[ 0.04001958 -0.20203796 -0.22140059]
[-0.17713667  0.1983126   0.22210586]
[-0.57036465 -0.05239873  0.18785433]
[ 0.07117042  0.22939271 -0.49009117]
[-0.39396384 -0.14770958 -0.04422993]
[-1.34850061 -0.32598537 -0.04296351]
[ 0.02813116  0.10127255 -0.03314302]
[ 0.03201523 -0.01493252 -0.0280032 ]
[ 0.02011592 -0.40424716 -0.56496263]
[ 0.03622001  0.04440521 -0.17922445]
[ 0.10309529 -0.27609813  0.16239572]
[ 0.11635675 -0.24662894 -0.46746179]
[ 0.02063554  0.07740914 -0.10462365]
[-0.64334536 -0.09292206 -0.22450064]
[-1.69974482 -0.29717961 -0.11262675]
[-0.38576078 -0.02756016 -0.14790025]
[ 0.06298722 -0.21419847 -0.07554114]
[ 0.08823013  0.00636979 -0.52544302]
[ 0.04109139  0.12092364 -0.00607385]
[-0.03167026  0.16489786  0.12276468]
[-0.56347376  0.20490071  0.1602616 ]
[ 0.08650786  0.21005043 -0.17697437]
[ 0.06087422  0.13470581  0.14001024]
[-0.32774246  0.27440009  0.13018779]
[ 0.08381231 -0.04930734 -0.04191155]
[-0.22011112  0.14692028  0.26974946]
[-0.53899682 -0.0203201   0.26316711]
[ 0.14417651  0.26735631 -0.23704873]
[ 0.11753149  0.24794935  0.14411175]
[ 0.01598557  0.21020187  0.12939829]
[ 0.1008778  -0.22693074 -0.06540751]
[-0.58209652  0.06501471 -0.38561422]
[-1.66529107 -0.58955044 -0.3518835 ]
[-0.3102161  -0.0838808  -0.26236415]
[-0.06789859 -0.20821379  0.26128691]
[ 0.05468587  0.13437755  0.23894696]
[-0.04237768  0.09256321  0.14827971]
[ 0.01086696  0.07820153  0.09181903]
[-0.24924895  0.2061574   0.11242975]
[ 0.04400928  0.0529654  -0.04423898]
[ 0.12544848  0.14571182  0.00977213  0.37946102  0.26021707  0.23868035
  0.08903031  0.06062147  0.11634139  0.2912606   0.30196345  0.13505901
  0.06993219  0.38109422  0.16011417  0.23761195]
layer 5 Activation
relu
layer 6 MaxPooling2D
2 2
layer 7 Dropout
layer 8 Flatten
layer 9 Dense
160 32
[-0.33188203 -0.14446266 -0.44206443 -0.31217822 -0.68573004 -0.33896583
 -0.22693568 -0.39524072 -0.34442434 -0.3837299  -0.96092016 -1.72340941
 -0.78521979 -1.35561204 -1.24821818 -1.55710661 -1.20414972 -2.27683735
 -2.02717423 -2.813555   -2.32257724 -2.08033299 -1.6695857  -1.56641984
 -0.83772159 -1.79766536 -3.00115418 -2.30790949 -2.04451466 -2.36524534
 -1.92859209 -0.35882646]
[-0.54867792 -0.74682856 -1.32896578 -1.16858292 -0.56238246 -0.83118844
 -1.0764097  -0.21363638 -0.73953819 -0.83784425 -0.39042753 -1.36139596
 -1.77170277 -1.37135327 -1.63602424 -1.56321204 -1.62901509 -0.69736612
 -1.24639845 -1.06269968 -0.83222985 -1.10628355 -1.48213625 -1.89332008
 -1.78784037 -1.51769066 -0.32640862 -0.53689891 -1.03803468 -0.61158657
 -1.33981013 -0.41154665]
[-0.49211094 -0.11212632 -0.56456167 -0.32455355 -0.50321704 -0.90897948
 -0.62242609 -0.6373114  -0.58942431 -0.54956758 -0.22997111 -2.17319322
 -1.02100992 -1.49554443 -1.49706531 -1.62338078 -1.38271201 -2.66564631
 -2.1141715  -2.90599155 -2.67553592 -2.29590893 -1.59155476 -1.58602464
 -0.86728996 -2.60217357 -3.34276414 -3.23307323 -2.14540744 -2.55662036
 -1.41503918 -0.12644719]
[-1.27301455 -0.72463137 -2.02724075 -2.29822302 -0.20626952 -0.49143708
 -0.84536612 -1.05232728 -1.52305412 -1.55970299 -0.30918434 -1.64705026
 -1.86624539 -1.23429191 -0.76702166 -1.17318833 -1.02737486 -1.10057473
 -1.42569709 -0.5498724  -1.59603798 -1.85748553 -2.22463107 -2.41635728
 -0.92334229 -0.86999577 -1.17592347 -1.21737325 -0.68501258 -1.4940207
 -1.63027692 -0.62058264]
[-1.80097401 -0.65192109 -0.47003454 -0.09722986 -1.00644863 -0.57853639
 -1.3211205  -0.40541217 -0.89297843 -0.80611038 -0.23434833 -1.86316276
 -2.2387774  -1.35113847 -1.24720085 -2.28441095 -2.45795083 -2.5952239
 -1.31081152 -2.63455462 -0.73856008 -1.26120532 -2.54600835 -2.69177318
 -2.10413742 -1.74536097 -2.24625683 -2.33919191 -1.35810518 -1.46608627
 -0.29898423 -0.47484526]
[-1.3309437  -0.88573772 -0.77286935 -2.72322249 -0.56079829 -1.21919143
 -1.20021152 -0.71086264 -2.48070765 -1.6348325  -0.89477253 -2.34970236
 -0.57948756 -2.17698693 -1.03705311 -1.30058813  0.03550255 -1.67945492
 -0.98676437 -0.70586133 -3.43068027 -3.07752633 -3.59865642 -2.32307959
 -0.32728589 -0.31873891 -1.50485349 -1.39482498 -0.73635626 -0.85289854
 -0.62216961 -0.77912956]
[-1.17274332 -0.58533245 -0.77098083 -0.42119172 -0.98601758 -0.33340788
 -1.32714641 -0.65622711 -1.35365641 -0.1018677  -0.5123834  -3.45078969
 -1.99345613 -1.4631201  -1.19216609 -2.29284835 -3.27664566 -2.93480897
 -1.93280888 -2.65146232 -1.560063   -1.68799222 -2.24930191 -1.69578981
 -0.31335491 -2.15419674 -2.49270177 -1.1092968  -0.61380911 -1.94121754
 -0.75427788 -0.48157209]
[-1.42906213 -0.93213791 -0.2629424  -2.92311311 -1.63520813 -2.12027001
 -1.54906976 -0.21189603 -1.71472466 -2.78952861 -1.79380083 -2.14823413
 -0.53696346 -1.97059608 -0.45773807 -0.58681244 -2.5654273  -2.4250536
 -1.02447128 -0.61351156 -2.7641592  -2.54128289 -0.48280349 -1.46717656
 -2.08922148 -0.47329614 -1.60922074 -1.08402371 -1.10459054 -0.52845073
 -0.30456948 -0.91394162]
[-0.36249524 -0.39435351 -0.95342666 -0.55075848 -0.44775477 -0.32207254
 -0.35970387 -0.69389856 -0.4023928  -0.48850927 -1.53348041 -2.71412158
 -1.7063365  -2.17733645 -1.24510503 -2.06061649 -2.25782156 -2.22869945
 -2.72947192 -2.16767001 -2.82132936 -3.08945823 -1.8992635  -2.71333456
 -1.38977587 -1.99629068 -1.46780896 -1.20138168 -2.49344707 -1.53906882
 -2.34290004 -0.36255944]
[-0.80496877 -0.6340965  -1.12051797 -1.01676047 -1.19646072 -0.74085552
 -0.8564716  -0.39613098 -0.84966302 -0.94165897 -1.5440985  -1.22608876
 -1.73172975 -1.13274252 -1.034338   -0.29855952 -1.47483563 -1.78454089
 -2.06550074 -1.37757409 -1.65506089 -2.19655085 -0.19529553 -2.35911846
 -1.61237633 -0.44804847 -1.81288993 -0.79760337 -1.94807112 -0.65051508
 -1.19658089 -0.56290972]
[-0.95710307 -0.39323932 -1.01548612 -0.87539542 -0.68343556 -0.46037805
 -0.4420695  -0.64059776 -0.67148894 -0.84619617 -1.67968988 -1.25138247
 -1.44454098 -1.49912739 -0.96329027 -0.8976016  -1.3149842  -0.67559314
 -0.93471533 -1.26105559 -0.7959227  -1.16614008 -1.05451667 -1.15143418
 -1.2356962  -2.15975618 -1.43481994 -1.37195981 -1.21280503 -1.22279119
 -2.19089937 -0.39968336]
[-1.58071768 -0.76198387 -1.01013315 -1.04868197 -0.26943472 -0.92389059
 -1.13189268 -0.28334162 -1.55567992 -1.60846412 -0.64535326 -1.39524376
 -1.28312743 -1.66273499 -1.42576432 -0.96413285 -1.60983717 -0.48201177
 -1.23569739 -1.31022358 -0.98319954 -0.90010184 -1.1531688  -1.31358707
 -1.01901615 -1.77705252 -1.28045309 -1.43354249 -1.39712787 -1.29708505
 -1.57277107 -0.10679321]
[-0.65119797 -3.58261061 -1.77026606 -2.03548169 -0.63963383 -0.55517572
 -0.55585414 -2.54412603 -0.41600224 -0.33812559 -1.83012414 -0.64614868
 -0.55157477 -0.8955465  -0.59849012 -0.90593576 -0.69585145 -0.51740807
 -0.63704592 -0.65080535 -0.51639193 -1.05324256 -0.84644151 -0.96668494
 -1.16562045 -3.6715045  -0.54961801 -0.66909754 -1.16320789 -1.03379905
 -3.51953292 -1.37203968]
[-1.05050516 -0.99668038 -0.71614969 -0.71033764 -0.17689627 -2.51863861
 -2.73481989 -0.05283386 -0.85382599 -0.96110386 -0.97095388 -1.4770751
 -2.05045867 -1.6499368  -1.45200861 -1.23768342 -2.19107628 -0.56204855
 -0.64141393 -0.92414629 -0.33240429 -0.94704038 -0.97266358 -1.71957433
 -1.20559072 -1.85807765 -0.92110091 -1.13908422 -0.09199278 -0.08097924
 -0.5610289  -1.3452096 ]
[-0.50216252 -3.40002918 -1.09988308 -2.06456947 -0.24229282 -1.22620463
 -1.0936842  -1.58391821 -1.04404998 -0.22282781 -0.94347447 -0.80530959
 -0.73051143 -0.70751423 -1.26958072 -1.03975797 -0.28727371 -0.43541747
 -1.4460305  -0.87509698 -1.13322723 -0.60536081 -0.57854617 -0.43121502
 -1.86093056 -2.12390256 -0.39532804 -0.31380814 -2.81995463 -2.33152604
 -5.8754859  -1.53036511]
[-0.51058936 -0.99621648 -0.3579483  -0.30368224 -0.65313303 -2.45682168
 -3.16056013 -0.25731421 -0.37550822 -0.31519324 -1.12037849 -1.26847601
 -2.19652152 -1.13279331 -2.86397457 -2.49069786 -3.29889274 -1.13402593
 -0.7510094  -0.86214417 -0.63939649 -1.46946621 -1.50058937 -1.44816637
 -3.13506603 -0.74704325 -1.28861403 -0.51736689 -0.22527003 -0.20056409
 -0.03812353 -1.3580842 ]
[-0.64378887 -2.66692924 -0.29746208 -2.63625431 -0.40340769 -3.34566545
 -0.43254343 -0.90694165 -0.5210219  -3.29550624 -1.04744482 -0.82436186
 -0.58625424 -0.51668447 -0.97929746 -1.01501572 -0.35688052 -0.78378683
 -0.56391168 -0.70993596 -0.62028158 -0.45978019 -1.20677471 -0.55215663
 -3.11930728 -1.81550419 -0.26197135 -1.42060781 -2.00460958 -2.06775618
 -1.05896521 -1.54367316]
[-0.56550038 -0.79157776 -0.56983685 -0.81833941 -1.3275125  -0.27712095
 -0.37847415 -0.35287768 -0.77774554 -0.42224815 -1.83442295 -1.85758471
 -2.24498653 -1.07869947 -2.81028986 -1.80565464 -1.70534229 -1.1992048
 -0.98524946 -0.84096086 -0.94384581 -0.92028755 -1.84531915 -0.50728315
 -4.08030987 -0.73885202 -1.20105243 -0.18591094 -0.89956653 -0.6985932
 -0.66463357 -1.20284891]
[-1.84529948 -3.50420117 -0.28139791 -2.29633665 -2.81030989 -3.02532315
 -1.32805479 -0.95243764 -1.08343148 -3.22783518 -1.10419762 -0.24399547
 -0.50173658 -0.61260176 -0.50105166 -0.63642329 -0.51831555 -0.37191504
 -0.48130053 -0.46327254 -0.64142436 -0.59726179 -0.76631337 -0.69443184
 -2.79788136 -1.89986753 -0.47369576 -2.1680479  -0.65863562 -1.90278733
 -0.04876362 -1.67212939]
[-0.77340102 -0.87484872 -1.1528964  -0.43122721 -0.81199849 -0.20751029
 -0.42886403 -0.77548134 -0.53134573 -0.33972821 -1.88892126 -1.14839029
 -2.40429711 -1.11396182 -2.86549854 -1.0573355  -1.15776873 -1.02665949
 -1.93681836 -1.95462668 -0.75411403 -1.10367882 -1.597628   -1.94572878
 -0.78967386 -0.66768283 -0.95754153 -0.56221706 -1.18107593 -0.75851429
 -0.58389503 -1.17707717]
[-0.81528407 -0.66930437 -0.82329559 -0.70353979 -0.99977541 -0.60602713
 -0.66796154 -0.62282556 -0.71880937 -0.79339373 -1.08550251 -0.92797983
 -1.13615227 -1.01262701 -1.04189062 -1.01574135 -0.90501136 -0.94128805
 -1.11072457 -1.27235126 -0.94923121 -0.82952219 -1.10803342 -0.96306551
 -0.82652146 -0.89634013 -1.3150841  -1.28599226 -0.97229171 -1.03545642
 -1.02126861 -1.31095099]
[-1.15164804 -0.95786023 -1.14129376 -1.09137511 -1.27420306 -0.39858383
 -0.98049551 -0.52412009 -1.11139393 -0.92132288 -0.91933072 -1.14290941
 -1.39484203 -1.19405794 -0.99200594 -0.99165237 -1.17599452 -0.96306556
 -1.05812216 -1.19525957 -1.04348993 -1.08689213 -1.11861932 -1.10520804
 -1.03810227 -0.89011538 -1.38308895 -1.19042635 -1.00197506 -1.02270401
 -0.9824273  -0.98597109]
[-0.7824381  -0.30515036 -0.97718018 -0.78756523 -1.26871312 -0.6286391
 -0.61456746 -1.00519788 -0.64476621 -0.88310701 -1.42605352 -0.80438662
 -0.87603277 -0.82051796 -0.93479294 -0.91664976 -0.70749283 -1.20173693
 -1.17978692 -1.83609545 -0.67114055 -1.0139668  -0.95528799 -0.94944412
 -0.64598674 -0.81904793 -1.27762747 -1.42141175 -1.01811421 -1.10698104
 -1.11272991 -1.18698752]
[-1.51499438 -1.33011901 -1.17755604 -1.15815353 -1.62387347 -0.72569048
 -0.78835899 -0.82570297 -0.92853701 -1.41924512 -1.53476059 -1.18587303
 -0.93431288 -1.0401932  -1.07797503 -0.80701482 -0.72386265 -1.35357106
 -0.26294097 -2.13540363 -0.45416403 -1.47705734 -1.09443331 -1.3986311
 -0.80932027 -0.68402123 -1.29055762 -1.01510763 -0.36098367 -0.1911509
 -0.61663646 -0.7863397 ]
[-3.85485315 -3.50516176 -0.81473368 -0.14655448 -1.30882835 -0.41001543
 -0.4435409  -1.37818432 -0.03546925 -0.1682304  -2.42237282 -0.01364237
 -3.02875209 -3.35289526 -0.20351261 -0.28553399 -1.08596706 -0.09542069
 -1.56686544 -3.5634737  -0.59245443 -1.070889   -0.57750779 -0.28597385
 -2.31064153 -3.28155541 -4.07548761 -1.28416157 -3.24828792 -2.20089221
 -1.1391561  -1.86670649]
[-3.67369914 -3.2538588  -1.62590122 -0.45014134 -0.14313132 -0.57942528
 -0.62635726 -2.39746022 -0.57771736  0.02653574 -1.88484573 -0.44729614
 -3.62355876 -4.02778006 -0.24395275  0.08714933 -0.37898424 -0.21341997
 -2.98029304 -3.72773838 -1.50909793 -0.4965013  -0.01479137 -0.30524594
 -1.02645326 -3.343961   -4.43902588 -0.50751984 -2.71078396 -2.79409432
 -3.08078718 -1.66163778]
[-0.79522461 -2.29533124 -0.68070847 -0.41490468 -0.27239096 -0.59623313
 -0.53593284 -1.34927297 -0.55778646 -0.53092378 -0.20111576 -0.90346086
 -1.1602571  -0.99245954 -1.35732436 -1.58675551 -0.80130827 -1.56609523
 -1.52921867 -2.23878622 -1.81566215 -3.98889995 -0.70794171 -0.50582528
 -1.02887785 -2.82335186 -1.43994844 -1.9897331  -0.46525124 -3.02440238
 -1.22806406 -1.19128871]
[-0.3539004  -1.74044955 -0.41517454 -0.7543928  -0.33017787 -1.03200543
 -0.58912045 -2.63523006 -0.40103158 -0.80196649 -0.81040698 -1.58548331
 -0.64120191 -1.05526376 -1.85192168 -1.68238652 -0.41155583 -2.80581021
 -0.45913988 -1.34909379 -1.78724194 -2.75750661 -1.24077404 -0.75760549
 -0.50192463 -3.03221965 -0.69766337 -1.6360327  -0.74174857 -3.04115248
 -2.2071836  -0.95588982]
[-0.62123811 -0.95523536 -0.74090153 -0.50993437 -0.96558666 -0.7153185
 -0.60840338 -0.93786907 -0.55552936 -0.58362597 -1.81890392 -0.33569142
 -0.36901918 -0.43593055 -0.27982444 -2.45492792 -0.57147247 -2.2402935
 -2.617594   -0.31187132 -2.84919834 -2.68403149 -2.31063151 -3.36175585
 -0.44301069 -1.84165132 -0.69937092 -2.67152953 -1.40037441 -1.93488967
 -0.66789192 -1.14123392]
[-0.50055087 -0.83268833 -0.305031   -0.71084529 -0.929618   -0.78060627
 -0.67416203 -0.93414134 -0.61133832 -0.90575105 -1.97665453 -0.472361
 -0.19815382 -0.56387085 -0.19689128 -2.63946819 -0.65748137 -1.94617021
 -1.29892766  0.1231809  -3.02760553 -2.80719686 -2.57304978 -2.0337162
 -0.43230832 -2.17989397 -0.3799476  -1.81943405 -1.71640301 -1.53160417
 -0.29646474 -0.84495318]
[-0.74049383 -0.91123182 -1.14242756 -1.21082664 -0.1496059  -1.34281015
 -0.90636206 -1.50018704 -0.9607743  -0.87543756 -0.61954045 -1.11067724
 -1.42058635 -1.30737209 -1.52347064 -1.33566928 -1.42833114 -0.83872682
 -1.15132999 -1.01738966 -0.90839148 -1.12279487 -1.23682284 -1.90333498
 -1.20056129 -1.92057502 -1.17154217 -1.32209516 -1.1428951  -1.40261281
 -1.7568754  -0.68627602]
[-0.5457415  -0.9092443  -0.40716746 -0.36519054 -1.06524372 -1.15768433
 -0.41134176 -0.9475134  -0.40927047 -0.49413347 -0.97077423 -0.3785814
 -0.42170718 -0.56112945 -1.09068823 -1.14624822 -0.4542813  -1.75783169
 -1.31220043 -1.43302393 -1.51316547 -1.57522166 -0.78143108 -0.75709176
 -0.92767274 -1.39775598 -2.15308046 -1.71394098 -1.41155624 -1.58674514
 -1.0774864  -0.96788841]
[ -1.52685595e+00  -9.66326833e-01  -1.09496224e+00  -1.24355984e+00
   5.17165586e-02  -2.15823102e+00  -1.40084362e+00  -1.10496223e+00
  -1.75960100e+00  -1.67450416e+00   8.10116995e-04  -1.53513658e+00
  -1.55811071e+00  -1.60616803e+00  -1.49474275e+00  -1.41047442e+00
  -1.37833428e+00  -1.04913366e+00  -1.49358010e+00  -9.50981140e-01
  -1.40172160e+00  -1.55216026e+00  -1.19225311e+00  -1.88883317e+00
  -1.79500532e+00  -1.84634364e+00  -1.35881698e+00  -1.74324656e+00
  -1.43696737e+00  -1.96847057e+00  -7.52754211e-01  -6.58309817e-01]
[-0.59058923 -0.58470726 -0.57884538 -0.72293717 -0.84704626 -0.61265481
 -0.78670293 -1.36209285 -0.65219831 -0.60846883 -0.42501527 -0.31311423
 -1.04434586 -0.2895413  -1.31418228 -1.48706365 -0.95703286 -2.09174609
 -2.26982689 -0.6001929  -2.27441931 -1.78952217 -0.62373435 -0.67194468
 -0.99509978 -1.99114037 -2.61938739 -2.24453497 -1.8411535  -2.33009744
 -1.73819077 -0.93177897]
[-2.28607583 -0.79090375 -0.60163081 -0.28450248 -1.55136025 -2.3617959
 -2.23605442 -0.3717244  -3.68987489 -3.50350499 -0.65384215 -1.7298485
 -1.19386101 -1.76714122 -1.5664264  -1.22545409 -1.30158305 -2.29334259
 -1.7255466  -1.43797982 -2.51624775 -1.93355584 -1.99987471 -1.90099227
 -1.34215856 -0.69655043 -1.88046694 -2.51381302 -0.28976899 -0.61585963
 -0.03648187 -0.76827794]
[-3.17864466 -1.38189542 -2.12575006 -3.29659486 -0.59653169 -0.05768749
 -0.16115311 -1.67216337 -2.90148234 -3.57574558 -0.18764259 -2.76802731
 -0.87197483 -2.35191226 -0.30476698 -0.46406999 -0.91594017 -2.92588329
 -0.74760461 -0.60458845 -1.20047355 -1.36556065 -3.83835793 -3.29311347
  0.02650883 -0.58676815 -1.98569441 -2.26803517 -1.00821531 -1.20099878
 -1.37334275 -0.4662399 ]
[-2.27829099 -0.19141008 -0.48384264 -0.28052184 -2.01220393 -1.16460299
 -2.61773133 -0.36788008 -3.48361778 -1.42276323 -2.71671367 -2.90086865
 -1.43036842 -2.31875467 -1.81608677 -1.92483008 -2.50903726 -2.59088755
 -2.77922249 -2.12487078 -3.29488921 -3.22751594 -2.20803976 -1.91412139
 -0.10055839 -0.82449406 -2.22606182 -1.31259489 -0.48447964 -0.2557036
 -0.48908246 -0.43483931]
[-3.24322486 -1.57052004 -0.67354321 -3.58720708 -0.86225337 -2.6669054
 -2.59495568 -0.67248511 -2.71560693 -2.8243649  -1.19160581 -2.4787178
 -0.75044662 -3.56259847 -0.90253329 -0.87038833 -2.90012383 -3.74905849
 -0.13884103 -0.89875323 -0.86221761 -1.32459712 -1.34208941 -1.13430607
 -0.40724021 -0.6207332  -2.08381748 -0.68236065 -0.33157268 -0.84904772
 -1.04651046 -0.61753255]
[-0.72280675 -0.38953704 -1.50367641 -0.90765023 -1.14112079 -1.04592347
 -0.95391357 -1.19118857 -0.98420787 -0.68478721 -3.44051409 -1.26965332
 -0.83902115 -2.08591652 -1.5039866  -1.60217488 -1.1350677  -2.54220057
 -1.87608933 -2.02092457 -2.9844358  -3.79668546 -1.63224983 -2.2195816
 -1.48622715 -1.28582978 -1.40938127 -0.19794962 -2.54778838 -0.45720175
 -2.78889823 -0.65441805]
[-1.44958854 -1.48010015 -0.24624033 -1.84264088 -2.02982473 -1.75465107
 -1.66357005 -0.65484345 -1.64078367 -1.85105729 -2.25963426 -3.19445753
 -1.5457083  -2.59570694 -0.38335475 -0.11527152 -3.5465467  -3.16609454
 -0.92196149 -0.93949825 -3.02450132 -3.42122936  0.20101881 -2.17809653
 -2.14033937 -0.53792405 -1.95153761 -0.2097542  -0.83510894 -0.57092762
 -0.67073196 -0.59024918]
[-0.81082076 -1.28640723 -0.97615027 -0.98018545 -1.47882843 -0.65743506
 -0.96977079 -0.4669418  -0.93330705 -0.95025057 -0.93212855 -0.39506206
 -1.50343406 -0.17061545 -0.80648649 -0.97679275 -1.34353447 -1.08522916
 -1.41520369 -1.36277938 -1.21508491 -1.2030493  -0.91595829 -0.97299469
 -1.39358592 -0.58928251 -1.56456149 -1.34672403 -1.20153499 -1.23398638
 -0.76584929 -0.88959986]
[-0.56838697 -0.57899612 -0.49990308 -0.44876549 -1.02803028 -0.67987376
 -0.4838956  -0.35118854 -0.40949255 -0.58979785 -0.6344049  -0.79924071
 -0.61141092 -0.83678609 -0.75274938 -0.75614136 -0.88418031 -2.44342041
 -1.52163637 -2.07479    -1.7018702  -2.17395115 -0.60918623 -0.49771842
 -0.4803378  -0.27539328 -3.362077   -2.52727723 -1.48832798 -1.47918177
 -0.71240419 -1.21509624]
[-2.00464821 -2.44756842 -1.67343557 -2.38593173 -2.05846071  0.22088885
  0.10601576 -1.80396402 -1.71565115 -2.29190302 -1.48820102 -1.0954895
 -1.93150949 -1.01538646 -0.1787113  -0.26926765 -0.90989554 -1.34237397
 -0.90978354 -1.140782   -1.03490102 -0.6432693  -1.63432062 -1.62308323
 -1.6880461  -2.14736772 -1.51074862 -1.83994532 -1.64146638 -1.25624514
 -1.71185732 -0.27616638]
[-0.91424179 -0.50044858 -1.30362928 -1.14677    -0.43054247  0.05027844
 -0.174256   -1.30017054 -0.77941531 -0.84273356  0.13171311 -1.61501753
 -2.06166697 -1.88103604 -0.58643568 -0.52833885 -1.74254656 -3.02934837
 -0.82430547 -0.55809349 -0.78542656 -1.82178855 -1.24110174 -1.42101121
 -0.9041248  -1.67743158 -4.12351942 -2.93129277 -1.04679692 -0.89275187
 -2.51842999 -0.58706236]
[-1.2487936  -2.07709694 -1.73068655 -1.76315665 -0.33946821 -0.18165386
 -0.09391521 -2.81443524 -2.01537681 -1.89931655 -1.82371116 -2.42967319
 -1.40340078 -2.33173752 -0.30677935 -0.20896699 -0.63007379 -1.75095892
 -0.58522141 -1.98147929 -1.47366667 -1.29095817 -2.48500013 -1.74170601
 -2.29452538 -2.16114092 -1.41741741 -1.9291538  -2.82051992 -2.24677992
 -1.95835912  0.04089607]
[-1.92726338 -0.84321314 -1.67806208 -1.76859236 -0.06591427 -0.54789138
 -0.26541784 -1.31311297 -1.04318833 -1.66471362 -0.36046183 -2.37174129
 -0.92089397 -3.89407873 -0.15497133 -0.0786156  -0.33154035 -3.1319418
 -0.23831314 -0.89048004 -0.16382337 -0.3034938  -3.60178137 -2.37357855
 -0.36592516 -1.53919363 -4.03519869 -1.03559744 -1.48645425 -1.16078854
 -2.99624372 -0.64754027]
[-1.30468011 -0.86234426 -0.51196676 -0.77835828 -0.4885678  -0.50236958
 -1.78056538 -1.61670899 -1.45671356 -0.97387028 -2.06773543 -1.71134901
 -0.90536624 -1.70663953 -0.23708089 -1.36239076 -3.3164506  -2.33163285
 -0.70622838 -0.60830408 -1.87716568 -1.85503149 -0.89600557 -1.62584686
 -2.13915539 -2.47658777 -1.57735658 -1.77662909 -2.96871758 -2.61548686
 -1.06596315 -0.08344659]
[ -1.30013478e+00  -5.94993949e-01  -3.54576274e-03  -1.95345557e+00
  -4.60633099e-01  -1.30609000e+00  -1.03328454e+00  -1.10702872e+00
  -1.42197978e+00  -1.79639375e+00  -9.81840551e-01  -2.61087155e+00
  -3.93597931e-01  -2.59255600e+00  -2.41686642e-01  -1.24674690e+00
  -1.93314552e+00  -4.58039522e+00  -1.85280800e-01  -1.83925062e-01
  -3.16120982e+00  -8.88366520e-01  -9.48088050e-01   7.32458904e-02
  -9.44123805e-01  -1.36371887e+00  -2.68874621e+00  -1.96381941e-01
  -5.65956354e-01  -1.66927087e+00  -9.31055099e-02  -6.98473573e-01]
[-0.68861794 -0.80226678 -0.97534263 -0.96119356 -0.85745722 -0.91401207
 -0.70052844 -0.65080822 -0.74782956 -0.96062821 -2.59136295 -3.40288329
 -2.35645723 -2.02509618 -1.21480942 -1.80572522 -3.36870337 -0.70188069
 -1.33550811 -1.35787499 -0.7958346  -1.00647533 -1.14087713 -1.13802516
 -1.8053484  -1.62886035 -0.97134042 -1.68016732 -1.68811989 -0.97008926
 -1.47188628 -0.78057212]
[-0.54769921 -0.67956656 -0.70854664 -0.75849783 -0.75940418 -0.77641898
 -0.65024602 -0.69713831 -0.60839021 -0.79425561 -1.47211814 -0.96907961
 -0.55971378 -0.95217115 -0.57791048 -1.11378324 -1.10664225 -1.78690934
 -1.60392296 -0.71168739 -3.20059347 -2.4454782  -0.77603346 -3.02250457
 -1.87116206 -1.52342558 -2.28173876 -1.57867527 -1.98620069 -1.91568434
 -0.86154741 -0.78425699]
[-0.601677   -0.81665313 -1.03308594 -0.80196059 -0.67828608 -0.82232833
 -0.86718082 -0.7600894  -0.96664351 -0.86032486 -0.89968204 -1.00952458
 -1.82284701 -1.43922389 -1.68224132 -1.09110677 -1.94455397 -0.97667766
 -1.07857192 -1.14328539 -0.74817985 -0.60977548 -1.28664196 -1.69027889
 -1.6273104  -1.70264423 -0.81095201 -0.6601125  -0.76770639 -0.0789087
 -1.72231817 -0.63173079]
[ -5.22370994e-01  -1.83634847e-01  -1.83444787e-02   9.89295891e-04
  -1.11264145e+00  -9.91302550e-01  -8.93940479e-02  -2.46542975e-01
  -1.30672112e-01  -2.88836002e-01  -1.12268066e+00  -9.09094810e-01
  -9.21252072e-01  -1.18095386e+00  -1.83661449e+00  -1.68425465e+00
  -1.55407584e+00  -2.34080911e+00  -2.08340621e+00  -2.28773069e+00
  -1.77451706e+00  -2.02318048e+00  -9.29378152e-01  -7.30656087e-01
  -1.43137026e+00  -1.70040166e+00  -2.98164678e+00  -2.23410487e+00
  -2.17078590e+00  -2.00913954e+00  -1.49072337e+00  -7.22930312e-01]
[-1.44852054 -2.20014238 -1.74399078 -2.74483919 -1.59268844 -0.82548565
 -1.32271004 -1.60073864 -0.88776636 -0.99948561 -1.53430903 -1.67698622
 -3.07378244 -1.98683703 -1.43211114 -1.69263804 -2.1757493  -0.11030243
 -1.11444199  0.11720432 -0.03048882  0.18926847 -1.54987192 -2.99770689
 -1.75859451 -2.85717416  0.21619678  0.28096446 -0.56163555  0.2983833
 -1.68168676 -0.67156011]
[-0.19851023 -0.08265278 -0.38918379 -0.23335095 -1.03290761 -1.09279335
 -0.91657907 -0.6667816  -0.19979917 -0.20988777 -0.14642054 -0.65387005
 -1.62415159 -0.68238682 -2.64792347 -3.25854516 -2.58825707 -2.2254715
 -3.59160948 -0.65620166 -1.97411799 -1.88004959 -0.5045647  -0.50957292
 -2.08845139 -3.01207376 -3.04737568 -2.74514389 -2.27477121 -2.65139675
 -1.87731576 -0.7031287 ]
[-0.06112877 -0.94069183 -1.89723217 -2.81223965 -2.03034949 -2.23502994
 -1.62511206 -1.49098802 -1.29332173  0.00599813 -2.62210941 -2.24958229
 -0.32051876 -0.88565099 -1.32823372 -1.44970024 -0.93132442 -0.45980787
 -1.72677076 -0.27446541 -1.41743016 -1.44423485 -1.48348796 -1.60484385
 -1.32194436 -1.26063669 -0.82664871 -1.14017653 -1.86432445 -1.97214258
 -0.65130675 -0.67994183]
[-0.82129866 -0.3534891  -2.81852794 -0.67526758 -0.6298871  -0.02265614
 -0.15165769 -2.44127297 -0.76103061 -0.51398712 -0.04879956 -1.46046531
 -1.49674726 -1.08516943 -0.75030679 -1.10311759 -0.53105378 -1.21924877
 -1.89822006 -0.59474754 -0.81700766 -0.8853811  -2.67342734 -3.28113747
 -0.04791617 -0.98223484 -2.59530282 -2.40235186 -2.01452398 -2.454983
 -3.29041219 -0.74107945]
[-0.14736806 -0.68772012 -2.2077806  -0.67835981 -2.04747677 -0.56337786
 -0.5952034  -2.13918638 -1.50534439 -2.47963595 -3.30638051 -2.48011136
  0.05717936 -1.09728837 -1.6275363  -1.56488574 -1.77990735 -1.72324646
 -1.11238921 -0.45177647 -1.47090209 -2.87948728 -2.2837913  -1.66477787
 -0.56233162 -1.03508615 -0.98393762 -2.9874177  -0.878582   -0.30728734
 -1.18428433 -0.48711881]
[ -2.08697510e+00  -5.13759673e-01  -1.41777253e+00  -8.81792784e-01
  -3.18129092e-01  -7.28686154e-01  -6.44651949e-01  -1.68689668e+00
  -9.86392438e-01  -1.18516624e+00  -1.14270963e-01  -1.05680430e+00
  -8.96299124e-01  -1.55653286e+00  -1.77764750e+00  -2.13052773e+00
  -5.15359163e-01  -1.32843351e+00   6.47011474e-02  -1.07967842e+00
  -9.90531981e-01  -6.58090234e-01  -3.51925540e+00  -8.78285885e-01
  -1.57678174e-03  -6.94024265e-01  -2.58228612e+00  -1.50013912e+00
   2.67887563e-02  -1.03605735e+00  -1.88594484e+00  -1.02090991e+00]
[-0.49080071 -0.68334192 -1.80798101 -0.62517083 -1.09337974 -0.69906348
 -0.76084274 -2.06759453 -0.56335175 -0.98148429 -2.83982205 -1.7064147
 -1.02366948 -1.84834719 -0.63548088 -1.01931119 -1.59316838 -1.65710497
 -2.76801348 -1.33843207 -1.80813599 -2.79246616 -0.6124121  -1.92017984
 -0.99073023 -1.46052396 -1.46117163 -1.28634417 -3.43270516 -0.36227801
 -2.01961851  0.03917669]
[-1.91526318 -0.65153193 -0.44487518 -1.75904584 -0.56242782 -1.77026725
 -1.93998575 -1.50527608 -1.57329142 -1.43481278 -0.31078622 -1.92719626
 -1.16046584 -2.26251888 -0.54208392 -0.35730767 -2.56277061 -1.96759892
 -0.19882169 -1.18084013 -2.11050296 -1.45451677 -0.19637612 -0.49583724
 -2.00975132 -0.79061449 -2.40015149 -1.33335149 -0.26171306 -0.87348676
 -0.64033049 -0.92029637]
[-1.20300388 -1.13554204 -1.18599331 -1.05575728 -1.39499223 -0.93051398
 -1.28979301 -0.93915892 -1.25149119 -1.0922569  -1.10124099 -0.98534429
 -1.30646157 -0.9400934  -1.11870825 -1.06530166 -1.16258681 -0.9133327
 -1.18384349 -1.07585502 -1.0587095  -1.02396715 -1.09628844 -0.98373127
 -1.11719108 -1.03881323 -1.03340232 -1.07702816 -1.11170149 -1.09938824
 -0.93058091 -1.2460345 ]
[-1.15802431 -1.22676957 -1.30461764 -1.32835555 -1.50361145 -1.68444467
 -1.53799033 -1.37759459 -1.36207736 -1.20042002 -1.08019412 -1.14820778
 -1.41705847 -1.05435014 -1.30969608 -1.22655582 -1.38315618 -0.9556815
 -1.24616742 -1.09296346 -1.06701326 -1.09634531 -1.2057662  -1.32651055
 -1.44363987 -1.29090118 -1.02618206 -1.21692562 -1.27199745 -1.34726644
 -1.1753422  -1.19396615]
[-1.36323118 -0.70560509 -0.84614259 -0.75188798 -2.24665689 -0.73336107
 -1.22561216 -0.46165356 -1.24548817 -1.37496591 -1.72943115 -0.22077845
 -0.8306154  -0.23826666 -0.4760682  -0.33329475 -0.59417015 -0.99359161
 -1.0551939  -1.18271482 -1.18706334 -1.03136456 -0.34466565 -0.19547735
 -0.62734079 -0.23045564 -0.95222735 -1.0405153  -0.65741652 -0.67316586
 -0.44929087 -1.55004215]
[-1.3294735  -1.29016864 -1.1703577  -1.500067   -2.25373316 -1.65954268
 -1.59367585 -0.90524417 -2.55023789 -2.0593102  -1.55160594 -1.22902083
 -0.67107254 -1.05242038 -0.49986884 -0.2420394  -0.36251777 -0.81339407
 -1.04827309 -0.97480571 -2.18195605 -3.18737268 -0.68043035 -1.00096238
 -0.76434016 -0.05773923 -0.96564102 -2.12005806 -0.73428595 -1.20970857
 -0.10724597 -1.20767224]
[-2.94100308 -1.55250454 -2.38588858 -1.11583579 -2.14643025 -0.18681414
 -0.28659126 -3.5278523  -1.00435162 -0.95017922 -1.37307954 -0.53179401
 -1.58187985 -1.54396558 -0.31793228 -0.262218   -0.71978968 -0.39001825
 -0.28090173 -0.95760161 -0.16588143 -0.20462602 -0.86161464 -1.53391099
 -0.69109565 -1.53959596 -1.29830766 -0.9842087  -0.10474775  0.18843633
 -3.64569092 -1.88234162]
[-0.78590548 -0.768534   -2.11198926 -1.22020042 -1.87495172 -0.62034321
 -1.26372862 -2.75766444 -3.13417292 -1.2366122  -0.7561565  -3.28833127
 -1.3527652  -1.4099189  -0.52983028 -0.01494177 -1.89481747 -2.69344878
 -0.33865726 -0.68238717 -0.68254358 -1.2265805  -1.87371457 -3.15831423
 -1.46099889 -0.86641616 -1.24369824 -2.34021974 -0.00542954 -0.170601
 -1.86420119 -0.95913607]
[-1.58282924 -2.38525176 -1.23185098 -1.25311947 -0.51895779 -1.24367177
 -1.10929751 -2.47147369 -1.10836852 -1.11530828 -1.0368098  -0.50157344
 -1.49184275 -1.93907356 -0.54485756 -0.46842104 -0.74566436 -0.5352146
 -0.52573067 -1.2213943  -0.28556922 -0.50107396 -0.39065048 -0.36929351
 -1.5375402  -1.02957213 -1.56667912 -0.42832905 -2.84412932 -1.88754582
 -2.87185335 -1.68763697]
[-1.33307052 -0.23975967 -0.71937627 -1.88025653  0.02273303 -1.50109959
 -1.43886781 -2.11996341 -1.60664546 -1.6928978  -1.49899125 -2.5177331
 -2.58552313 -2.2738626  -0.65617776 -0.22236545 -0.85663176 -1.66997683
 -0.61048496 -1.59167361 -0.52374029 -0.39284796 -1.08095098 -1.93459928
 -0.68586051 -0.36104801 -2.28297639 -0.11079678 -2.08613586 -0.59420097
 -2.64475274 -0.99915785]
[-0.81549644 -2.05233502 -0.62097043 -0.50450629 -0.81554365 -0.97153074
 -0.97522658 -2.20833087 -0.90112185 -1.04186904 -0.91496271 -0.32531863
 -0.40865311 -0.32472387 -0.31479943 -0.88026708 -0.51659071 -1.05160749
 -0.56560284 -0.45210966 -0.97797775 -1.22167873 -0.9006542  -0.92205596
 -0.49117517 -1.12150764 -0.50093287 -0.77984357 -1.00768816 -1.57446468
 -0.5312317  -2.17744803]
[-1.54461539 -0.96286589 -0.47260192 -1.91532803 -0.81440061 -2.01889467
 -1.64190865 -2.40386105 -1.42275238 -1.56685019 -0.76116234 -1.62374675
 -0.51407439 -1.23359704 -0.50925589 -2.18269444 -1.47195327 -0.95230299
 -0.37944019 -0.17979968 -1.10767841 -0.51065654 -2.52050972 -0.32069141
 -1.34847462 -0.81384027 -0.93514377 -0.37401789 -0.47045967 -0.75335115
 -0.43406862 -1.93900216]
[-1.11387134 -1.16997683 -0.74927551 -0.95669925 -0.91872221 -0.71626943
 -0.92988586 -0.84708595 -1.02882874 -0.98342639 -0.68348974 -0.74220121
 -1.24555588 -1.07541525 -0.68305033 -0.7493211  -1.39527154 -1.13250148
 -0.67805409 -1.17189407 -0.7807799  -0.67461503 -0.84557474 -1.05102885
 -1.15518224 -1.25901449 -1.26590776 -0.9164893  -0.63462502 -0.60975176
 -0.98931462 -0.68228513]
[-0.85251355 -1.24567485 -0.53666437 -0.51117718 -1.1077354  -1.30717087
 -0.64170265 -0.65510553 -0.35512936 -0.51139104 -1.53256345 -0.91092122
 -1.45809484 -1.32505119 -1.09494519 -1.18147779 -1.32334292 -0.62798291
 -1.59404612 -1.07361305 -1.15869105 -1.00111401 -1.12306881 -1.555071
 -1.42417824 -1.8571701  -1.19787455 -0.98214388 -1.50095963 -1.63482904
 -1.83097219 -0.60342664]
[-1.41939354 -1.35008097 -1.56065643 -2.06743431 -1.25914752 -0.36929768
 -0.71799409 -1.56455386 -0.77489543 -1.00714242 -0.52333897 -0.58420098
 -1.57843578 -0.99841648 -0.67393363 -0.62070495 -1.21078658 -0.44072089
 -0.28108302 -0.78300786 -0.1876536  -0.16213201 -0.73905593 -0.73467422
 -0.59428304 -1.07124937 -0.56786096 -0.35274073 -0.19989732 -0.24257368
 -1.12784743 -1.34456336]
[-0.22354046 -0.15777332 -0.35760361 -0.32000068 -1.91819334 -2.67437053
 -1.99319351 -0.56721872 -0.56157708 -0.22655524 -1.47300124 -0.62650877
 -0.74464267 -0.35490778 -1.42938399 -2.30495834 -1.54051161 -0.53874713
 -3.22294164 -2.45210767 -3.07956624 -1.30356324 -0.18039002 -0.35652679
 -1.60330367 -1.76486444 -0.47926149 -1.63281739 -2.2880857  -2.18920898
 -1.05424428 -0.90716082]
[-0.74139702 -0.99100494 -2.48083258 -2.8260622  -1.2119354  -0.69614273
 -0.72738171 -2.21716714 -0.5923453  -0.39046654 -0.9210797  -0.55117542
 -0.76687008 -0.77153522 -0.64556319 -0.6664896  -0.62322062 -0.60191882
 -0.78967059 -0.78952157 -0.65246332 -0.48137203 -0.64692867 -0.49315503
 -0.0532648  -0.72459048 -0.61573291 -0.49387723 -0.66454583 -0.77213961
 -2.5088582  -1.45471609]
[-0.44282645 -0.4301495  -1.49333799 -0.69458747 -1.75741529 -0.29252845
 -0.51303732 -1.57968462 -0.82751495 -0.80577254 -0.44736022 -1.20776439
 -1.31031358 -0.37258238 -2.36085081 -4.12651634 -3.76407504 -1.2660948
 -2.21811295 -3.4654839  -0.42569187 -2.34495497 -0.40872085 -0.75756115
 -1.61143196 -1.05612934 -0.45790225 -2.66701722 -0.89616865 -1.06965983
 -2.05737877 -0.79634148]
[-0.66952622 -0.85514975 -1.66422081 -2.39074087 -0.98565239 -2.12269664
 -0.65304905 -1.96112585 -0.81351405 -1.74371982 -1.29787898 -0.59675854
 -0.60600317 -0.53073108 -0.71933538 -0.78703105 -0.42439404 -0.85860181
 -0.5591135  -0.66102839 -0.99031299 -0.9770031  -0.77899331 -0.57776523
 -0.71348542 -0.66184193 -0.55455035 -0.58451301 -1.17456198 -0.78334767
 -1.6796664  -1.38878012]
[-1.10131586 -0.73793018 -3.14525008 -0.55898958 -0.831141   -0.69332123
 -0.81025898 -1.92366159 -0.58501893 -0.76987928 -0.65533096 -0.58141583
 -4.13089514 -0.81371009 -1.92997801 -1.81116819 -1.17567444 -0.39866176
 -0.65869266 -3.58655119 -0.3653349  -0.59746498 -1.90995693 -1.21575713
 -0.57277471 -1.09802377 -0.92892098 -1.4327172  -0.80367851 -0.86875355
 -2.4703052  -1.21980774]
[-0.78883159 -1.18219495 -0.68193614 -1.53158832 -1.35794485 -1.62487292
 -0.71514356 -1.9301877  -0.71541888 -2.21074915 -1.55126548 -0.44995648
 -0.52433515 -0.63544387 -0.30791461 -0.56341922 -0.5451346  -0.77039355
 -1.0072298  -0.5285247  -0.76590884 -0.98988664 -0.68623555 -1.16136801
 -1.575423   -0.80193526 -0.68129122 -0.95331007 -2.15457797 -0.96143496
 -0.36075902 -1.42757666]
[-1.91974282 -0.7751798  -1.91877782 -1.62484515 -0.3722226  -1.42986071
 -1.3693682  -1.7089175  -1.42310452 -1.04099107  0.08162315 -1.93312585
 -2.32307291 -1.81430459 -3.00926828 -2.20141649 -1.79701769 -0.37708613
 -0.29063836 -2.1275835  -0.02466066 -0.24751377 -2.72192621 -0.17973147
 -1.53349519 -0.89641517 -2.20202017 -0.84703964 -0.42364606 -0.67963576
 -2.2827661  -1.31814575]
[-0.64182079 -0.8745293  -0.83635533 -0.67779487 -0.802495   -0.91806889
 -0.90791851 -1.24328303 -0.81624335 -0.51388437 -0.8626762  -0.68268204
 -0.84283286 -0.77288759 -0.50036043 -0.79118615 -1.06775701 -0.65135527
 -0.89833987 -0.60244417 -0.76932591 -0.90791214 -0.87929314 -1.2857213
 -1.01538658 -1.37991881 -0.69132149 -0.97360486 -0.91098255 -1.08506894
 -1.11644959 -0.72160441]
[-0.62331879 -0.51076663 -0.76702213 -0.55111122 -0.43793839 -0.86263919
 -0.7080493  -1.15136158 -0.62626904 -0.54925197 -0.31220639 -0.41621861
 -0.76949728 -0.48324662 -0.64057612 -0.91955543 -0.74623871 -0.75276202
 -1.04360998 -0.51786906 -0.80672729 -0.94347453 -0.74862045 -0.95797473
 -0.79599106 -1.3009032  -0.87219447 -1.10013461 -0.88271993 -1.08768785
 -1.29771066 -0.74287271]
[-0.00249945 -1.29785442 -0.79550415 -0.75980383 -0.4323332  -0.80390799
 -1.38354301 -0.64391416 -1.57702029 -0.52187282 -0.95020986 -1.08936667
 -0.27781615 -0.34778127 -0.46069869 -0.96794176 -0.05818978 -0.96528852
 -1.29436827 -0.52442747 -1.31322169 -1.63868248 -1.03354192 -1.11293101
 -1.01242471 -0.9258846  -1.27152669 -1.32552183 -1.11756432 -1.28833985
 -0.57575202 -0.39617735]
[-0.88404381 -0.23354416 -0.88277125 -0.76041341 -0.14725231 -0.42209023
 -0.56278539 -0.33427808 -0.86438733 -0.87105525 -0.11013806 -1.01411247
 -0.6184687  -1.06985199 -0.19963245 -0.61655974 -0.61072695 -0.96744293
 -0.7335968  -0.35256171 -1.66230655 -1.43397796 -1.46625102 -1.23695838
 -0.47509193 -0.57212758 -1.19672096 -0.96046644 -0.8281396  -0.9624635
 -0.42802316 -0.42972806]
[-0.23826398 -0.51027763 -0.89374238 -0.88294619 -0.73948228 -0.23580375
 -1.09541667 -0.26833931 -2.15265083 -0.04299371 -0.6046344  -2.78087831
 -0.24973209 -0.59321433 -1.66530776 -1.79288757 -0.96167159 -2.6524601
 -0.93057966 -0.6708293   0.38525772  0.08072252 -1.92805505 -2.13332367
 -0.07702722 -0.77108717 -0.85023785 -1.60462153 -0.92650068 -1.0333215
 -0.57823312 -0.46550086]
[-1.04786813 -0.57850707 -0.19148408 -0.79151303 -0.63194674 -1.97377324
 -2.062783   -0.17349891 -0.91752815 -0.63615173 -0.57154739 -0.5070498
 -0.28972116 -0.63591313 -0.96976203 -1.68252134 -1.41591561 -0.87364006
 -0.30029899 -0.57180768 -1.27937329 -1.24388266 -0.75844163 -0.5609799
 -0.25465491 -0.24041936 -0.88134265 -0.4585115  -0.19876781 -0.18296337
 -0.01380989 -0.71846163]
[-0.94863254 -1.1355406  -1.18052864 -1.9234153  -0.92684042 -0.57010412
 -0.64391798 -0.15800145 -0.93604815 -0.26064149 -0.65272576 -1.39415765
 -0.81785649 -1.04151797 -0.50721723 -0.22961113 -1.88165987 -0.42719963
 -0.43344048 -0.74294639  0.15150693 -0.07890421 -0.35190454 -0.70964074
 -0.74861866 -1.18382967 -1.2300694  -1.63065195 -1.80473769 -1.1448735
 -0.86808884 -0.7157371 ]
[-0.74608696 -0.46781039 -0.17189106 -0.96843642 -1.88146615 -0.68093204
 -0.83681744  0.02363525 -1.03391492 -0.3505204  -0.78855729 -0.74545902
 -0.87202758 -0.40640056 -0.41813794 -0.08973224 -0.66572171 -0.58869958
 -1.3142966  -0.58580983 -0.7693755  -0.80103213  0.05348618 -0.41448644
 -1.89145768 -0.40934241 -0.74831408 -0.30409208 -0.99807143 -0.26875982
 -0.12221327 -0.88245249]
[-0.30459097 -0.99723041 -0.87226427 -2.05575085 -0.46728021 -1.5934552
 -0.71192253 -0.50279421 -0.70814013 -1.7977221   0.11032318 -1.13981831
 -1.12575793 -0.90543163 -1.24082887 -0.38334066 -1.0375706  -0.41887259
 -0.31011748 -1.73429191 -0.09242866 -0.29664299 -0.3211005  -0.1055853
 -2.42489982 -1.17053211 -1.80954146 -1.43679202  0.0251696  -1.36155462
 -1.33701789 -0.72007352]
[-0.65989763 -0.7391215  -1.80026484 -0.343593   -1.04947495 -0.65809119
 -0.63437146 -0.36380944 -0.67293656 -0.31626594 -0.43938324 -0.32772207
 -1.24523389 -0.27871296 -2.89104247 -0.12784156 -0.36641902 -0.56664258
 -0.80248708 -2.53310919 -0.63873869 -0.40590358 -0.10499583 -0.52261287
 -0.36936218 -0.41936702 -0.32491502 -0.30142912 -0.34218541 -0.50597191
 -2.12593055 -1.05602622]
[-1.14085889 -1.34514916 -1.26669109 -1.07380915 -1.27742338 -1.43500853
 -1.53584468 -1.06305516 -1.58567965 -1.14129627 -1.43685389 -0.85252345
 -1.5019654  -0.88795209 -0.78664768 -0.93132836 -1.31195164 -0.86255181
 -1.15437567 -0.9053508  -1.42250741 -1.48465466 -1.063483   -1.49508011
 -1.13652337 -1.74520123 -1.41470802 -1.27235246 -1.14229786 -1.44081843
 -1.1137352  -0.41391036]
[-0.97538692 -1.30584466 -1.58793175 -1.07319069 -1.49737465 -1.27486551
 -1.20611501 -1.37496448 -1.43076134 -1.02240884 -1.0966723  -0.90250999
 -1.40469241 -1.04168677 -0.80329096 -1.18540776 -1.50332344 -0.82028598
 -1.56585348 -0.506634   -1.44102275 -1.55082667 -0.78722239 -1.62003469
 -1.05821121 -1.99344802 -1.29260397 -1.33647144 -1.62553096 -2.0240798
 -1.38255942 -0.45065984]
[-1.01493573 -1.76038611 -1.00680423 -1.71848679 -1.57787299 -0.86451882
 -2.04642081 -1.33265817 -1.82654536 -1.29033816 -1.1208446  -0.46414194
 -1.15190578 -0.50640124 -0.6307534  -0.69542164 -1.08866978 -0.84570134
 -1.04892993 -0.6049605  -1.84864616 -1.52525723 -0.55524659 -0.69276488
 -1.24977219 -0.8001405  -0.91965681 -0.90112144 -0.89362556 -1.0839268
 -0.70269251 -0.87627751]
[-0.39356643 -0.46318999 -1.82845235 -2.5851903  -0.41577855 -1.22357607
 -1.4608835  -0.75710106 -3.05688143 -1.3087908  -1.09741127 -1.60621464
 -1.46953499 -0.66786051 -1.33372128 -1.80662131 -1.71263587 -0.67616409
 -1.87306619 -0.10676748 -2.74891496 -2.11815906 -1.06216979 -1.31932366
 -1.09140646 -0.85763341 -0.37680474 -1.16291595 -1.52074873 -2.01880217
 -0.89495122 -0.59365773]
[-0.54635173 -0.61654013 -2.12632537 -2.16838169 -1.78923786 -0.94446462
 -0.49292898 -2.08901787 -1.43057299 -1.62342787 -1.02987897 -1.28727806
 -0.47449505 -0.4550229  -1.24602246 -1.2720294  -0.89663458 -1.54053438
 -0.66177946 -0.50854355 -0.73820388 -0.89396387 -1.1571238  -1.7605145
 -1.17832279 -0.35816541 -0.34321174 -1.25499129 -0.7209214  -0.44938761
 -2.68676376 -0.9451831 ]
[-0.20779808 -0.36670503 -1.92216623 -2.53838968 -0.78423864 -3.13388681
 -3.40156603 -1.0983026  -3.04698682 -1.95342398 -1.4688679  -2.06439352
 -0.36640722 -0.23804674 -3.73002148 -3.76699448 -3.37474489 -1.76403701
 -1.1907649  -0.42414895 -0.18616152 -1.46966493 -2.10102439 -2.09826112
 -1.98908269 -0.2957809  -0.08600262 -1.25523925 -0.4820036  -0.51251602
 -0.71134454 -0.81020951]
[-1.0671463  -0.82177508 -3.76039958 -2.10055804 -2.61044812 -2.15331936
 -0.70513821 -2.7395606  -1.24273467 -1.521837   -2.09129858 -0.54050541
 -0.43430388 -0.60130739 -0.49875641 -0.41306236 -0.55316335 -0.51579839
 -0.61485201 -0.52119553 -0.52126032 -0.43426403 -0.4828361  -0.44009215
 -2.21443033 -0.60270661 -0.56414199 -0.56784958 -2.52460885 -0.63448137
 -2.89763331 -1.22181714]
[-0.63746077 -0.41981268 -2.02018166 -2.17226386 -4.0655818  -1.62342131
 -1.93519139 -0.65861803 -2.20658851 -1.13982928 -2.36084938 -1.53296828
 -0.81842941 -0.49655807 -1.827667   -0.57940578 -2.72343636 -0.16739663
 -2.3724215  -0.47529352 -0.42235503 -0.34556261 -1.11681712 -2.47920251
 -3.19387221 -0.44352552 -0.42184687 -0.35229978 -1.8891412  -0.35643524
 -0.97439134 -0.9376151 ]
[-2.23114848 -1.03575277 -3.214571   -2.69507217 -2.04053712 -3.47288275
 -2.23357987 -2.44236183 -2.1277113  -1.98508096 -1.55678701 -0.98964393
 -1.48173952 -1.27637172 -0.98488063 -0.24324912 -1.29979932 -0.41114947
 -0.33699062 -1.20595992 -0.33986425 -0.38972256 -0.34027505 -0.24465597
 -3.6546042  -0.62302953 -1.40100741 -0.49121594 -2.82382369 -0.69987512
 -2.433568   -1.24912298]
[-2.76015377 -0.53970957 -4.78295898 -2.64748001 -1.91473436 -2.38411021
 -2.75964665 -0.68780041 -3.07318878 -1.53883076 -0.96016735 -2.46775723
 -3.88269043 -2.21922588 -5.167521   -0.10575079 -2.10681558  0.04689438
 -1.84112382 -3.90434647  0.05314785 -0.15665191 -0.04780273 -0.93233222
 -2.34031868 -0.37643221 -2.82631826 -0.24327515 -2.6430099  -0.35994357
 -3.89862847 -0.62357998]
[-0.46428391 -0.46713766 -0.77005303 -0.74659264 -0.19210428 -0.31010377
 -0.14475954 -0.9475401  -0.46091354 -0.52151823 -0.78022861 -1.50744498
 -1.23140931 -1.64883435 -1.00744343 -0.99421126 -1.36961329 -1.47181642
 -0.97975951 -1.69668627 -1.10580182 -1.20611036 -1.20602512 -1.47455835
 -1.50065255 -2.58278322 -1.79764616 -1.43411255 -1.46172237 -1.36284554
 -3.04775572 -0.35798827]
[-0.7918362  -1.04920101 -0.7008509  -1.09532952 -0.39527681 -0.94120812
 -0.90323114 -0.71541595 -0.91185403 -1.07434988 -1.52028441 -2.25099468
 -1.5396409  -2.46818137 -1.75675702 -0.97564822 -1.79192519 -0.5898183
 -0.88977045 -2.2619977  -0.73651105 -0.72671193 -1.46453881 -1.3689388
 -1.5949831  -1.91125691 -0.57581508 -0.62925369 -0.86645591 -0.59877491
 -1.76698983  0.59853899]
[-0.67382854 -1.53567302 -1.54282451 -1.89547515 -0.2259479  -0.42674759
 -0.46554849 -1.67848468 -0.64472103 -0.69654566 -0.18878886 -0.74847561
 -0.77299631 -0.79945093 -0.75314587 -0.78827411 -0.78717226 -0.57565349
 -0.31881088 -0.78769886 -0.44024608 -0.42313439 -0.7778036  -1.17207932
 -1.14192128 -3.13286614 -0.64097863 -0.74775213 -1.33305752 -1.24617243
 -2.9796803  -0.88150847]
[-0.70307785 -1.26833618 -1.01690471 -0.9858076  -0.79141498 -1.7362293
 -1.98593462 -1.04749668 -1.00483239 -0.71454579 -0.72322154 -1.0643481
 -2.99294519 -1.15407753 -3.20343137 -3.17898393 -3.19881439  0.21113791
 -1.44567239 -0.32387957 -0.52758139 -0.00620535 -1.07883728 -1.64583349
 -2.60190296 -3.96069551  0.31068343  0.05578778 -1.19232619 -1.65528047
 -2.05571079 -0.31828466]
[-0.76504457 -1.09231436 -0.75692993 -1.04879987 -0.53732687 -2.24361491
 -0.71014869 -0.71141082 -0.87654054 -1.76689231 -0.44253069 -0.7700572
 -0.83011746 -0.66902077 -0.90378267 -0.93294072 -0.82700455 -0.58989757
 -0.511415   -0.69798756 -0.55000019 -0.52604598 -0.86643547 -0.82069194
 -2.7149775  -0.68380255 -0.60478407 -0.82644486 -1.32650542 -1.54003572
 -0.75620437 -0.93804038]
[-0.12731561 -0.3777563  -1.72046626 -1.74863219 -0.7032057  -1.49481905
 -1.10956061 -1.1054045  -1.99571824 -0.98091555 -1.07732618 -1.22519124
 -1.35773838 -0.13939978 -3.45960855 -3.60345078 -1.59353232 -0.23081893
 -2.60356259 -0.19717197 -1.12942994 -0.53547513 -1.22849607 -1.80304956
 -2.97255325 -0.91271639  0.08856727 -0.36786979 -1.63008869 -2.53543139
 -1.93594909 -0.50185537]
[-0.59500843 -0.28087953 -0.01075836 -0.90857053 -0.79582387 -1.28873515
 -0.81687105 -0.23143531 -0.77805626 -2.43750954 -0.58990067 -1.17775583
 -0.71212274 -0.55091017 -0.9642309  -1.03054595 -0.48718968 -1.1393944
 -0.91968584 -0.67981857 -1.77345181 -1.37083387 -1.03679216 -0.74022937
 -2.73263121 -0.38043499 -0.76585609 -0.85537183 -0.55925471 -0.77155048
 -0.48911712 -0.66075933]
[-0.07467482 -0.30227822 -2.5327599  -2.10383415 -1.1294899  -0.5020439
 -0.81850803 -1.12638628 -1.93122184 -1.83349669 -1.5444603  -1.60171926
 -0.39674711 -0.06124104 -3.72794676 -3.48341966 -0.02458993 -1.30218709
 -1.00288725 -0.61177754 -1.31837964 -0.58402735 -4.65810394 -2.31951904
 -1.2115109  -0.32658705 -0.04890212 -1.0186218  -0.66098058 -0.7678628
 -2.62766361 -0.69496441]
[-1.37717867 -1.09714925 -0.02213818 -0.39893219 -1.92044151 -0.43755999
 -1.3053174  -0.97087532 -1.64706063 -0.99040985 -1.36736548 -0.67765075
 -1.23389041 -0.53317833 -0.62057757 -1.2226609  -1.58140385 -1.36773396
 -1.05797803 -0.89926225 -1.50173891 -1.50557208 -1.20600367 -1.6950469
 -0.71981233 -0.9666571  -1.71520245 -1.42108107 -0.55357492 -0.7407456
 -0.34691003 -0.27038261]
[-1.00130486 -0.96065271 -1.43571627 -1.41854978 -1.24025261 -0.93136632
 -1.0722028  -1.02035105 -1.39241028 -1.78739536 -2.31876731 -1.12976348
 -1.45511329 -0.95999771 -2.26001883 -0.69437379 -0.76476163 -0.59837657
 -1.61437118 -1.30167842 -1.11616826 -1.59162498 -0.68382746 -1.39470708
 -1.00848842 -0.88809389 -1.08158004 -1.57447565 -1.72558546 -0.72476715
 -1.9622283   0.06944513]
[-1.2011646  -1.09073973 -1.17179549 -1.31099951 -0.89976567 -0.27841055
 -0.6136815  -0.90781707 -0.95693028 -1.1809299  -0.62217796 -0.94568306
 -1.23798823 -1.14471543 -0.59130949 -0.84736329 -1.0569191  -0.81411594
 -1.37763894 -1.37996113 -1.46716189 -1.51198375 -1.10996711 -1.0197717
 -0.98816592 -1.57928252 -1.50480878 -1.33555949 -1.55846024 -1.95213294
 -1.91765642  0.19757323]
[-1.53010333 -0.63451982 -0.84556329 -1.09569359 -0.45072129 -1.1389432
 -0.89867663 -0.76508087 -1.45149851 -1.64914453 -0.83243096 -1.09644353
 -0.97874671 -1.95793724 -0.90050936 -0.79209572 -1.4021033  -0.98053938
 -0.67349207 -2.12583303 -1.20682406 -0.97395921 -1.11389685 -1.39339221
 -0.81556934 -1.48949349 -1.58084333 -1.18558109 -0.86374152 -0.55778533
 -1.40004528 -0.02679509]
[-0.62303269 -1.77952743 -1.87203026 -2.74687433 -0.28837165 -0.48568222
 -0.84043342 -1.79834473 -0.79954219 -0.52068794 -0.47353682 -0.62990004
 -0.55060738 -0.57999605 -0.42448291 -0.6168505  -0.477119   -0.79252273
 -1.31067121 -0.77141112 -2.39610171 -1.41038871 -0.65897477 -0.57314748
 -0.35013497 -1.61664999 -0.80193692 -1.05528629 -1.78822303 -2.36531329
 -2.78442979 -0.75771827]
[-1.20175028 -0.99211955 -0.83444422 -0.62891245 -0.52282214 -2.84048343
 -2.94593406 -0.83335119 -0.69159722 -0.78825426 -0.36595348 -1.14440751
 -2.78591967 -1.58145595 -2.21083498 -2.24515748 -3.07012248 -0.32994998
 -0.44058672 -0.90757096 -0.22577785 -0.18132979 -1.32591462 -1.62782753
 -1.82311857 -2.3534143  -0.44323221 -0.10239903 -0.34613407 -0.37105119
 -0.82266515 -0.93574888]
[-0.60705405 -1.24128008 -1.23615587 -3.44011474 -0.47655031 -1.41865945
 -0.64266253 -0.94032925 -1.05669224 -0.97435999 -0.51418537 -0.87223619
 -0.58763182 -0.54319096 -0.90205604 -0.90565926 -0.24140981 -1.12725937
 -0.57770556 -0.70480746 -1.00284994 -1.16715598 -0.82310402 -0.74590123
 -1.35980356 -0.67049402 -0.56057066 -1.51730931 -1.0116502  -0.95644629
 -1.13028896 -0.99972659]
[-0.69907033 -0.87017006 -0.78265047 -0.69900554 -1.46148705 -2.38862753
 -2.87466788 -0.64974517 -0.74990761 -0.52230507 -0.8306877  -0.47966424
 -2.98580289 -0.55881166 -2.86409664 -3.84387851 -3.51250386 -0.47155112
 -0.92959225 -0.82329327 -0.55112606 -0.46565601 -0.65463251 -0.48890007
 -3.28840327 -0.76462668 -0.53660625 -0.42271361 -0.81572378 -0.91350377
 -0.62391347 -1.05256188]
[-0.69357687 -0.62741846 -0.74380684 -3.78818369 -1.21703672 -3.04095602
 -0.52342606 -0.46255249 -0.51938564 -3.87207127 -0.98349851 -0.65095329
 -0.62966156 -0.6602276  -0.55490506 -0.61319304 -0.73686242 -0.65582252
 -0.84863955 -0.72070384 -0.64199597 -0.72033817 -0.69192845 -0.80597603
 -3.60252213 -0.6251502  -0.67369443 -1.04442692 -1.02536583 -0.71083993
 -0.45459422 -1.04872274]
[-0.6328423  -0.65181488 -0.96240807 -1.05729568 -1.59542787 -0.42467442
 -0.6801374  -0.62201703 -1.14831638 -0.92170864 -0.90420502 -0.89978337
 -2.09845138 -0.47099066 -3.92197609 -2.65160894 -0.49764293 -1.05153179
 -1.57409108 -1.30645216 -0.95116955 -0.70105469 -1.91401827 -0.76800847
 -2.21316886 -0.66481066 -0.51070803 -0.55928355 -0.78991246 -0.76107782
 -0.73239052 -1.00260043]
[-1.89313078 -0.90018457 -0.89915454 -2.5848465  -2.44048285 -1.72418487
 -1.44101214 -0.59222221 -1.4701438  -2.23240519 -0.76846927 -1.13017082
 -1.72870922 -1.4240706  -0.90255004 -0.48172149 -1.64129174 -0.60611069
 -0.54082048 -1.32864499 -0.45394072 -0.60147786 -0.52324253 -0.52237767
 -2.22409439 -0.6625576  -1.80991614 -0.98637038 -0.67233735 -0.77053565
 -0.58068657 -0.86820298]
[-0.83073944 -0.86057711 -2.26860428 -0.40900946 -1.46124589 -0.43228939
 -0.6493721  -1.18232155 -0.8076542  -0.71813893 -1.44259322 -0.51111811
 -1.73949385 -0.64235312 -3.06981945 -1.569489   -0.25845414 -0.75615853
 -2.54025197 -3.52651858 -1.42291808 -1.32128215 -2.53000712 -2.41968799
 -0.58804518 -0.73768204 -0.70361048 -0.92173094 -1.69589055 -0.74708426
 -2.5317347  -0.9557597 ]
[-0.46405715 -0.51793027 -0.62565523 -0.55992174 -0.64820778 -0.4792285
 -0.24595295 -0.91381371 -0.34734735 -0.47426522 -0.99048197 -0.99414676
 -0.49392512 -1.21615088 -0.67375183 -1.04150426 -0.80858707 -1.61763501
 -1.54444206 -1.69381988 -1.53650081 -1.25336587 -1.12546897 -1.06390476
 -0.56531888 -1.70735049 -1.96998799 -1.64501524 -1.64240789 -1.61575341
 -2.45481277 -1.30788696]
[-0.75522828 -0.43189836 -0.92320967 -0.8429482  -0.31415015 -0.56800658
 -0.6979658  -0.7929886  -0.78033412 -0.82673734 -0.98063028 -1.83742332
 -1.40225637 -1.96139312 -0.86206186 -0.8356185  -1.69237173 -1.49813116
 -0.5454188  -2.10285854 -0.7356286  -1.3536309  -1.42271018 -1.6046927
 -0.97900504 -0.92910051 -1.4751904  -1.09718943 -0.66367972 -0.48347402
 -1.67837751 -1.13968933]
[-0.20419028 -0.51904511 -0.9064706  -0.68915707 -0.31916058 -0.620556
 -0.42695341 -1.39450228 -0.42719918 -0.28716803 -0.50832593 -0.79145104
 -0.248097   -0.73796618 -0.74299324 -0.88534403 -0.30801082 -1.55975521
 -1.4730047  -1.49986446 -1.73022425 -1.29920316 -0.79053509 -0.70387077
  0.08970225 -3.1381762  -1.59382248 -2.33576512 -2.30476594 -2.2556777
 -3.04566097 -1.07181787]
[-1.46585858 -1.34160638 -0.87923735 -0.56778288 -0.42377296 -1.39320672
 -1.63074803 -1.06490886 -0.61891288 -0.83704758 -1.13939607 -0.99314457
 -1.73796105 -2.00602412 -0.68672323 -0.93704391 -1.92106748 -0.59415907
 -0.07646359 -2.18477893 -0.01942449 -0.88481539 -1.27303195 -2.15975881
 -1.07776356 -1.24565649 -0.41956604 -0.60696435 -0.18107297 -0.04801967
 -1.43682432 -0.86369836]
[-1.68414295 -1.97366929 -0.18528692 -0.40800285 -0.29545593 -1.70669794
 -1.0422703  -0.25481012 -0.49473479 -2.18438721  0.03194875 -0.94272846
 -1.01305306 -1.03587174 -1.11998975 -1.52631748 -0.8529138  -1.31507254
 -0.83087599 -1.4317745  -0.46564665 -0.90291291 -1.21671247 -1.57487178
 -1.52634668 -1.71077287 -1.42379594 -2.70680523 -1.94475996 -1.93805182
 -0.23223048 -1.20281458]
[-1.15612948 -2.81644034 -0.0508057  -0.36344022 -0.07308301 -1.57146466
 -1.79229045 -0.39537311 -0.3858496  -0.35303712 -3.0138278  -0.45791847
 -2.91651225 -1.64174318 -0.75568151 -0.96515626 -0.05850123 -0.39114437
 -1.50487685 -1.96177876 -1.75179088 -2.19652414 -0.06758637 -0.14006609
 -2.54989052 -3.44109797 -1.96871173 -0.80216539 -2.09802222 -1.51382554
 -0.30315197 -1.21404815]
[-1.87797999 -0.56255043  0.19683518 -0.56153858 -0.72043854 -0.45436603
 -1.45107973  0.07129125 -0.59689742 -1.56938004 -0.39255667 -1.94511056
 -2.74888349 -3.01421833 -1.53365028 -1.85666561 -3.16755891 -1.5933944
 -1.81891298 -2.5175724  -1.0521735  -1.06683123 -1.29082787 -0.95783448
 -0.45560655 -1.77390981 -2.3062973  -2.33003592  0.30337024 -2.55553079
  0.07585569 -0.80107391]
[-0.15601185 -1.97238207 -0.54756159 -0.83795977 -0.52078032 -0.18890736
 -0.18703689 -1.53613532 -0.61468971 -1.41795683 -2.3269186  -0.81793779
  0.11675469 -0.38151464 -0.64640921 -4.19388247 -0.862297   -2.84641171
 -2.11248064 -0.26361945 -2.40344596 -3.67152214 -1.74413967 -1.35756612
 -2.00861812 -2.31242323 -0.49993387 -1.07298744 -1.50359607 -2.5062418
 -1.07938743 -0.65035278]
[-0.93525946 -0.60223222 -0.60687387 -0.83377415 -0.7740261  -0.70920604
 -0.98925167 -0.7020902  -0.95779663 -0.85929275 -0.88613147 -1.60032892
 -2.83688521 -1.4559412  -2.04692054 -1.01766396 -2.86124277 -1.23172641
 -0.80490613 -1.17314065 -1.65613914 -1.21495199 -1.24133432 -0.92441398
 -0.37047511 -0.54370314 -2.06363249 -1.08305287  0.14372663 -0.73824781
 -0.66461277 -0.67844212]
[-0.46664184 -0.83494252 -1.06538439 -0.50509232 -0.84629118 -0.50958985
 -0.48469484 -0.43724164 -0.59082884 -0.70079339 -1.35282731 -0.59789568
 -0.10508783 -0.80930924 -0.48992339 -0.90496546 -1.02085519 -2.44077706
 -3.03240585 -0.67383003 -1.78320193 -3.4100976  -1.07105553 -3.6547699
 -0.74163991 -1.42020321 -0.80683917 -1.92537534 -3.00216556 -1.51252162
 -0.84239948 -0.64193916]
[-0.89184082 -0.64106524 -0.72149634 -0.72102445 -0.86288828 -1.08299649
 -0.8177008  -0.67897987 -0.78559643 -1.01083994 -1.04033387 -1.01004159
 -0.67070186 -1.24502492 -0.93571609 -0.7965976  -0.78523266 -1.52877414
 -1.18647182 -1.45845318 -1.44822466 -1.46957719 -0.78917795 -1.00964367
 -0.62104207 -0.77119994 -2.11320496 -1.84666216 -1.31505942 -1.33075714
 -0.7765224  -1.28481901]
[-1.0707978  -1.20545518 -1.32585311 -1.36737728 -1.8569448  -1.9710772
 -1.6487354  -1.68748581 -1.42745578 -1.17242491 -1.29821455 -0.75728792
 -1.47421408 -0.75640345 -1.40763676 -1.22728956 -1.55603039 -0.81850302
 -1.22021949 -0.70160609 -0.92254061 -1.20966709 -0.92147046 -1.51203978
 -1.3927722  -1.55244374 -1.12815642 -1.14833009 -1.20662439 -1.27457452
 -1.37567461 -1.0894779 ]
[-2.4872334  -0.41158342 -0.58751506 -0.65472639 -1.27865517 -1.9262259
 -2.00669575 -0.44929764 -2.02697206 -2.54304338 -0.61774838 -1.23724389
 -1.22618294 -1.73036551 -1.47397792 -0.97831494 -1.27000248 -2.27973604
 -0.86702555 -1.82524455 -1.03370607 -1.19711053 -0.89986533 -1.01841462
 -0.81949073 -0.38846231 -3.01353288 -2.24299359 -0.58735758 -0.64272249
 -0.23671502 -1.05536091]
[-1.60121036 -2.02442503 -1.4041189  -1.0666877  -1.12622046 -1.53640294
 -1.65093994 -2.68089294 -1.82981002 -1.88822162 -1.2920692  -1.41387415
 -2.44284964 -1.27293706 -2.1038487  -2.16512895 -1.58491218 -1.03281987
 -2.21398592 -0.12594076 -1.78887808 -2.39450502 -1.82304823 -1.79326952
 -1.53256619 -2.06163549 -1.66404498 -1.55604351 -1.60415542 -1.37392616
 -1.16525602 -0.5651741 ]
[-4.38533115 -0.22908317 -0.34240326 -0.07937844 -1.93915856 -0.80831683
 -2.62020063 -0.51561123 -1.85401535 -1.0998044  -0.99764419 -2.61514211
 -2.9917438  -3.87052631 -2.8298614  -2.0232985  -3.87292027 -2.7624507
 -0.77502954 -2.31989217  0.03117602 -0.42727438 -1.93442166 -2.53932881
 -0.55352873 -0.81236225 -2.8803134  -0.82877886 -0.43734527 -0.30198491
 -0.83111882 -0.75523442]
[-1.49774003 -2.20191216 -1.6970135  -0.51275325 -1.04678178 -2.09537816
 -3.04013062 -1.60487056 -2.79021049 -1.70014811 -2.44926333 -2.8178165
 -0.77704823 -3.04951763 -3.28186512 -3.11072135 -2.56928396 -1.8079282
 -1.24985611 -0.50677866 -0.21283415 -1.32195354 -3.0680995  -1.57206118
 -1.44819772 -1.56694984 -1.63496423 -1.28938866 -0.81725669 -1.67625725
 -1.35596669 -0.50816655]
[-2.37311602 -0.7966153  -0.59953964 -0.26655027 -0.47637275 -0.80725557
 -2.24472547 -1.24604881 -2.00873494 -0.23760875 -2.17719126 -2.77747846
 -2.96641612 -3.43999243 -2.92258549 -2.02606845 -3.04782486 -2.80730128
 -0.94412994 -1.91520095 -0.7263549  -0.52294803 -1.90429819 -0.6255303
 -0.32894689 -1.22306025 -2.33264446 -0.08087323 -0.74636823 -0.78245789
 -1.24324548 -0.95278847]
[-2.21808767 -1.84304571 -2.59475183 -0.58969367 -3.41750669 -1.77218974
 -2.27715611  0.25602263 -2.79721403 -1.31847918 -2.89414454 -3.40839982
 -0.8684209  -3.1514864  -2.2420125  -0.54692465 -2.37676311 -2.16823602
 -2.96322823 -0.42642608 -0.82606196 -0.64793795 -0.57106298 -2.03278136
 -1.32910895 -1.59218407 -1.52921236 -0.89918137 -1.69521165 -1.09299076
 -1.04292607 -0.16959967]
[-0.82767719 -1.56898665 -0.75779951 -0.38409954 -0.6229189  -0.75082189
 -1.06329846 -2.45118976 -0.89799958 -0.77854043 -2.18878841 -0.46364495
 -0.23868121 -0.57908303 -0.53888524 -2.05476713 -0.17446691 -2.27574778
 -1.36207128 -0.70910972 -3.68440843 -2.45995259 -2.00873089 -2.4096005
 -0.17809141 -1.2521683  -0.43306231 -0.42459756 -1.08137846 -1.0590322
 -0.5455513  -1.50669348]
[-1.42773354 -1.21160197 -2.45460248 -1.87958598 -2.56457448 -1.68374479
 -1.7492758  -0.10963035 -1.96480513 -0.98942161 -1.83819997 -2.08111858
 -2.92032146 -2.013592   -2.69196033  0.22396012 -2.63134122 -0.99927783
 -2.85909986 -2.37166691 -1.00047457 -1.67977178  0.56186354 -3.16150689
 -1.88052619 -1.82675874 -2.19429469 -1.38124526 -2.20050478 -1.46352959
 -3.72186136  0.05982757]
[-0.88516873 -0.70114452 -1.06879306 -0.7618053  -0.52323914 -0.69990563
 -0.80784017 -1.19184971 -0.89868808 -0.88914239 -1.0108372  -1.20831609
 -0.88077396 -1.42865336 -0.96003288 -1.15988111 -1.19165421 -1.15833282
 -1.49082553 -1.7775954  -1.59957874 -1.70850384 -1.31073999 -1.30891728
 -0.60995167 -1.53789926 -1.93693328 -1.86891139 -1.5627265  -1.79444897
 -1.34651101 -0.72377133]
[-1.05201089 -0.96835625 -1.57833147 -1.24174726 -0.51168656 -0.40034065
 -0.99435323 -1.03290844 -1.18513942 -1.29349041 -1.06166279 -0.89171082
 -1.26400375 -1.19962275 -0.70149708 -0.86598176 -1.19293475 -1.0078814
 -1.20495605 -0.823156   -1.46535134 -1.46857023 -1.30631006 -1.76246667
 -1.1242094  -1.30234051 -1.50801849 -1.58548975 -1.2841264  -1.42105651
 -1.57227623 -0.91923708]
[-0.13062024 -1.76614022 -0.63338351 -0.07771762 -0.78571713 -1.30384672
 -1.078812   -0.9410513  -0.41026875 -0.14626792 -0.58226693 -0.85869658
 -0.30908558 -0.87994647 -0.17380171 -1.00556982 -0.50155282 -0.8560673
 -1.86711347 -0.97032762 -1.87699354 -2.35829282 -1.06692743 -1.16878879
 -1.13630831 -1.83691835 -2.22023487 -1.9919709  -2.36775112 -2.80697894
 -1.56201172 -0.89736253]
[-1.8955313  -0.36866292 -1.22334766 -1.72799647  0.04118505 -0.16668054
 -1.20183206 -0.27387473 -2.26994133 -2.41922474 -1.03185952 -1.87909067
 -1.12552702 -1.91197157 -0.27705908 -0.61290324 -0.96739799 -1.63780308
 -0.3295415  -0.69562137 -1.5130775  -1.95926821 -2.35695863 -2.14395356
 -1.00209355 -0.1872689  -1.64844346 -2.31106997 -0.51065451 -0.52360171
 -1.37637866 -0.61670828]
[-0.10526609 -0.48771849 -0.09049302 -0.19854037 -0.93661684 -0.82307184
 -1.0770849   0.06193545 -1.32431877 -0.34212443 -2.47482634 -2.05788922
 -0.03864849 -1.3901732  -1.41272867 -1.95647871 -0.26185781 -1.46918249
 -3.08808184 -1.05758333 -2.51085258 -3.02585578 -1.67579818 -1.67565835
 -2.82410455 -1.08240771 -1.70343053 -2.72629642 -1.81652009 -2.37983489
 -0.60293633 -0.90767652]
[-2.04091859 -1.34509754 -0.33599678 -0.82354003 -0.61319745 -2.7487843
 -3.40802884 -0.26354241 -0.70513028 -1.4965688  -1.57424831 -0.71934599
 -1.0415926  -1.84553897 -1.44907963 -1.68044865 -1.74104095 -1.35518599
  0.20092329 -1.13686872 -0.9810971  -1.16584504 -1.33403814 -1.32362938
 -1.747926   -0.61598486 -2.0156064  -1.02345145  0.07646348  0.04573455
 -0.05399209 -1.05670047]
[-0.7655853  -1.36098444 -0.83253407 -2.83147001 -1.23739195 -0.60687363
 -0.25359896 -0.41824278 -0.19072935 -2.90756631 -2.22533464 -0.82830369
 -0.61622161 -1.36238277  0.20124979 -0.18162018 -2.14511871 -0.74621785
 -1.83730793 -0.87833381 -0.81831354 -2.622262   -0.16877294 -2.51727676
 -1.34663713 -1.5735935  -1.14784837 -3.14069533 -0.60033739 -1.34942615
 -0.52104574 -1.54483318]
[-1.1066668  -1.0907768  -0.27855191 -1.28848684 -1.5232271  -1.00695229
 -0.91377187 -0.18059024 -1.17991602 -1.31891239 -2.29131269 -1.49515915
 -1.65008354 -1.11345696 -0.16485448 -0.30891943 -0.81475955 -1.35051429
 -2.28374171 -0.79586524 -1.29290819 -1.00726271  0.20383476 -0.08225941
 -3.33208036 -1.11460686 -2.02240753  0.05875452 -1.96628141 -0.43164775
 -0.15262744 -1.0311116 ]
[-1.27614915 -1.11692584 -1.06003428 -2.19558907 -1.68728781 -2.0694747
 -1.47908556 -0.25198543 -1.3653692  -2.49800301  0.13863198 -1.4339757
 -1.74023759 -1.68821609 -1.3927021  -0.21543042 -1.92356479 -0.39978334
 -1.32166469 -1.88477743  0.16967683 -1.21389258 -0.23480944 -1.61168134
 -2.07344365 -1.80262864 -1.78198802 -2.71806669 -0.89927143 -1.14492512
 -1.73854017 -1.07535183]
[-0.4061833  -1.07632291 -1.71706581 -0.25219965 -0.89988154 -0.30758423
 -0.34882316 -0.66102022 -0.37939397 -0.26030251 -1.83298147 -0.32096168
 -0.97959507 -0.36896715 -2.96327376 -0.49791673 -0.56169957 -1.56472027
 -3.25343537 -2.76497507 -2.04817176 -1.78539217 -0.43910426 -2.91666555
 -0.49360651 -0.81005341 -0.57839286 -0.05756605 -2.4729383  -0.92883497
 -1.51626849 -0.82191956]
[-0.73088181 -1.27578056 -1.1813364  -1.07140207 -1.28782701 -1.03097153
 -1.14839697 -1.04573429 -0.8080821  -0.81374568 -1.28914785 -0.71229541
 -1.00293624 -0.76512778 -0.98590982 -1.03587675 -1.12965    -0.74268061
 -1.07780135 -1.11543334 -0.80563307 -0.96452034 -0.98081112 -1.17964125
 -1.22120953 -1.27938902 -0.63249797 -1.03483844 -1.0986855  -1.13997352
 -1.10853612 -1.13061309]
[-0.61805439 -0.88420552 -0.86848849 -0.81619501 -0.864375   -0.99797052
 -0.73439544 -0.91539264 -0.63028234 -0.72081429 -1.20469248 -0.79100573
 -0.96559268 -0.84399563 -0.96228164 -0.9998849  -0.86208946 -0.78478217
 -0.98842263 -1.15792429 -0.85921633 -1.09535766 -0.94806039 -0.94541985
 -0.96733171 -1.25649643 -0.86258477 -1.01652217 -0.9805401  -1.13039362
 -1.04140306 -0.91516912]
[-1.22389436 -1.11401296 -1.38567495 -1.1815275  -1.61027145 -2.49186444
 -1.82523596 -1.17238176 -1.47593689 -1.29005826 -1.42745018 -1.26821208
 -1.10825408 -1.52126396 -1.50874877 -1.28176391 -1.62066424 -1.21937811
 -1.11793125 -1.08755708 -1.17855906 -1.39819849 -1.09113026 -1.80688286
 -1.7328608  -0.75106639 -1.68948936 -1.98150027 -1.31768394 -1.61535335
 -0.27460355 -1.08787358]
[-0.64982647 -1.21373415 -1.36325717 -1.28637111 -1.41129673 -0.2196372
 -0.56195277 -2.15003729 -1.09286571 -0.88801455 -1.67786741 -1.11217892
 -1.19446898 -0.92774999 -0.83957505 -1.04844475 -1.16264856 -1.59603214
 -1.80154526 -1.04503882 -1.35958302 -1.71586835 -1.23609805 -1.44598556
 -1.4675715  -2.00794792 -2.44298482 -2.02171659 -1.6773423  -1.62224472
 -2.42979383 -0.81419641]
[-3.44494486 -0.91213077 -1.87818646 -0.54643261 -2.79815054 -0.62327272
 -4.41475105 -1.78194022 -3.58612466 -2.3161025  -1.79786575 -1.39795125
 -2.01292348 -2.31648469 -0.99700892 -1.23451531 -1.63192737 -2.1841917
 -0.70865476 -1.1680305  -1.53166425 -1.33950317 -1.64177477 -2.30339551
 -0.80509794 -0.75696516 -1.95370674 -2.8512013  -0.16086747 -0.80449712
 -0.50712395 -0.76399064]
[-2.86738801 -3.07605195 -2.22892594 -2.04138231  0.21519513  0.15125361
  0.1694811  -3.42480707 -3.56594825 -3.35675693 -3.70516992 -4.10728502
 -0.24079765 -3.45504141  0.25632185  0.30785003  0.49216348 -2.10411668
 -1.7247864  -1.12466121 -1.44885492 -1.73932815 -4.13379622 -2.64060974
 -0.32958767 -1.74251223 -2.13627458 -3.06227231 -2.47052073 -2.66758251
 -2.509202   -0.00742086]
[-2.87316895 -0.41948438 -2.2397058   0.11034627 -0.62850833 -0.20947464
 -3.31752706 -1.90307093 -2.8918097   0.08675678 -3.70598674 -3.00080943
 -2.2081027  -2.99880838 -1.78777766 -1.91842961 -2.96714616 -2.65623069
 -1.28833961 -1.68924725 -3.46488333 -2.77578855 -2.26521754 -2.47621202
 -0.10830469 -0.95859909 -2.36336493 -0.44452441 -0.90798575 -0.39587834
 -2.05048466 -0.73740506]
[-1.98598754 -3.15082264 -0.16161324 -1.09161866 -0.83194143 -1.95537174
 -2.74771714 -1.12067497 -1.48030686 -1.54152012 -3.99603701 -2.9710238
 -0.20035398 -3.46155691  0.18655114 -0.38620034 -3.52182412 -2.87243938
 -1.10244131 -0.33212942 -2.24814129 -2.5059967   0.36931187 -2.52350116
 -1.49117863 -2.55701947 -1.90827191 -2.67996526 -2.42004442 -2.15100765
 -0.43674144 -0.39642504]
[-0.73438776 -0.65704942 -1.18205798 -0.91928798 -0.66036588 -0.7891314
 -0.7281509  -1.17605579 -0.68420017 -0.76836133 -2.25015163 -2.11487603
 -1.28221989 -1.85072732 -1.87304401 -1.59417307 -1.2803936  -1.48588145
 -1.51519251 -0.63410187 -1.8310461  -1.54938722 -1.6569041  -1.53135026
 -0.75551891 -0.84260684 -0.47396067 -0.23720206 -1.97468126 -0.64715606
 -1.55947757 -0.93332273]
[-0.82547677 -0.7598604  -1.07123244 -1.06192935 -1.26884961 -0.9841342
 -0.84990382 -0.49265045 -0.93603337 -1.08915555 -1.27134073 -0.6482901
 -1.17942107 -0.80956376 -0.62945485 -0.65896446 -1.00845516 -0.91368687
 -1.61324072 -0.91169685 -1.91620481 -1.24354768 -0.30993488 -2.50081539
 -1.86955106 -1.54454577 -1.7053777  -1.23051047 -1.62181604 -1.27658069
 -1.19428623 -0.82373786]
[-1.87925816 -3.18646407 -1.09802866 -0.30040288 -2.82457733 -1.3332783
 -1.09209251 -1.78643262  0.41092241  0.17505388 -1.42844975  1.56295836
 -1.26818371 -0.95039105 -0.98593795 -1.24503207 -0.52221096  1.42889607
 -0.29014158 -2.10241032 -0.87039077  0.13685165 -0.7930252   0.41653275
  0.09281547 -1.66823959 -0.05586362 -0.38785616  0.4614073  -1.12586272
 -0.90348011 -1.45332479]
layer 10 Activation
softmax
