layers 14
layer 0 Convolution2D
32 1 3 3 valid
[-0.08206666 -0.22213742  0.0493462 ]
[ 0.2992768  -0.12867524 -0.16039416]
[ 0.27817076  0.03349598 -0.08614153]
[ 0.01551247 -0.05995875 -0.1265329 ]
[ 0.11114059 -0.01938416 -0.00217298]
[-0.00582532  0.15572242  0.05896634]
[-0.06860159 -0.33315784  0.15111248]
[-0.33737266  0.00844914  0.28382602]
[-0.24250759  0.24033257  0.35390848]
[ 0.18241316 -0.00400075 -0.28210965]
[ 0.25195202 -0.03737273 -0.22036788]
[ 0.17489994  0.0921612  -0.11511039]
[-0.09026167 -0.02471149  0.20947465]
[-0.18442622 -0.0134541   0.1041008 ]
[-0.28625745  0.08181887  0.15170982]
[-0.14308505 -0.12390559  0.05027496]
[-0.1349809   0.23652588 -0.05540973]
[ 0.00266325  0.10489626  0.12266687]
[-0.26447734 -0.07997306  0.03433828]
[-0.11053556  0.21396449 -0.00249297]
[ 0.18666048  0.15060687 -0.08083178]
[-0.0926826   0.2692993  -0.04616968]
[ 0.0522308   0.17136978 -0.10339373]
[-0.03517589  0.02878102 -0.2240575 ]
[ 0.02453568  0.02138054 -0.25097159]
[ 0.14510939  0.07214221 -0.14260469]
[ 0.14720362  0.08116025 -0.08211373]
[-0.31668699 -0.3542349  -0.03300984]
[-0.00367407  0.01553516  0.07660948]
[ 0.32380411  0.39379454 -0.09471311]
[ 0.08043269  0.13707899  0.48944062]
[-0.21733633 -0.10358129 -0.12329254]
[ 0.12134375 -0.07082698 -0.31451917]
[-0.11814413 -0.21996549 -0.23047753]
[ 0.11666991  0.07722601 -0.1449492 ]
[ 0.1767613   0.26646996  0.12461853]
[ 0.14364834 -0.30409253  0.06008467]
[ 0.23583327 -0.24363527 -0.05900558]
[ 0.26627493 -0.21154381  0.11229252]
[ 0.09352272  0.22500437  0.25799644]
[-0.02780085  0.08450016  0.1354441 ]
[-0.10738628 -0.263715   -0.37929213]
[ 0.21483117 -0.02365642  0.24936762]
[ 0.03260402 -0.13260192 -0.00281878]
[-0.20138569 -0.3040947  -0.27157226]
[-0.21471943  0.01623725 -0.21553187]
[-0.08474398  0.2479866   0.15438832]
[ 0.13845851  0.17628089 -0.04723391]
[-0.01546304 -0.10276047 -0.03221451]
[-0.01584429  0.08881632 -0.11928859]
[-0.11625322  0.00307434 -0.11333144]
[ 0.25263482  0.33239627  0.11292131]
[-0.00264776 -0.04264392  0.13870814]
[-0.40318999 -0.16458783 -0.1166244 ]
[-0.12250599  0.28511614  0.19219969]
[-0.17545247  0.1089603  -0.15080118]
[-0.08107813  0.12850006 -0.17893228]
[-0.16206592 -0.40665138 -0.09454826]
[-0.07066373  0.15231586 -0.10452323]
[ 0.20353752  0.30797142  0.15915273]
[-0.01802288 -0.01252412 -0.10844317]
[-0.06609978 -0.05018494  0.09408258]
[-0.11787305 -0.00693353 -0.04377665]
[-0.18536177  0.24439098 -0.12935035]
[ 0.02375616  0.17791489 -0.03989708]
[-0.08148506  0.17431976 -0.18968132]
[ 0.44321024  0.19111276 -0.04725807]
[ 0.2815778  -0.07841171 -0.27092421]
[ 0.02650824 -0.34298822 -0.23427689]
[-0.10219174  0.11087736  0.05299125]
[-0.26064482  0.14308555  0.18234745]
[-0.27895838  0.05650932  0.13138297]
[-0.26227137 -0.03492784 -0.22703892]
[ 0.00182923 -0.07013912  0.1415897 ]
[ 0.26559252  0.14283246  0.04515806]
[-0.28423616 -0.49034548 -0.44205165]
[-0.04323853  0.2593942   0.06958295]
[ 0.24591362  0.31289297  0.36307165]
[-0.57462668  0.00982822  0.25078648]
[-0.37210009  0.18909788  0.36618784]
[-0.13960566  0.23790728  0.08893362]
[-0.10418529 -0.2104256   0.17312416]
[-0.01529196 -0.12292244  0.23987395]
[ 0.02502887 -0.22342086  0.22767971]
[-0.13497496 -0.17216109  0.14677487]
[-0.12940161  0.06441668  0.12707599]
[-0.06158075 -0.02674769  0.20313317]
[ 0.24643074  0.28713101 -0.20139994]
[ 0.11595812  0.20589446 -0.35744876]
[-0.02023607  0.00941307 -0.23932391]
[ 0.19919807 -0.05129516 -0.05491313]
[ 0.27127552  0.01919688 -0.22985683]
[ 0.18104865 -0.16273656 -0.15434438]
[ 0.11419242 -0.05031525 -0.34588358]
[ 0.09988889  0.17696376 -0.10003635]
[-0.05796751  0.16521224  0.05746134]
[ 0.00075205 -0.08658293 -0.09718991 -0.04673894  0.01819662 -0.02931495
 -0.02668769 -0.02721337 -0.00907141 -0.01394347 -0.02107048 -0.02608677
 -0.0189288  -0.01972456  0.17337003 -0.10749876 -0.00488303 -0.09109657
 -0.01546352 -0.0077654   0.06826968 -0.00885047 -0.0567132  -0.04751305
  0.00208828 -0.01392383 -0.06485778  0.01129225 -0.00910658 -0.06223743
 -0.04105277 -0.04914613]
layer 1 Activation
relu
layer 2 MaxPooling2D
2 2
layer 3 Dropout
layer 4 Convolution2D
64 32 3 3 valid
[-0.08117272  0.02263723  0.13607664]
[ 0.08714163  0.09945787 -0.00703251]
[ 0.00188365 -0.03654516  0.11734687]
[-0.10715162  0.0090199   0.09652144]
[-0.03738714 -0.04563879 -0.01591075]
[ 0.09638555 -0.08047604  0.04102443]
[-0.07306052  0.0396782  -0.07414015]
[-0.12167161  0.0745258  -0.01837777]
[-0.10596496  0.03440529 -0.03499816]
[-0.05364565  0.00102191 -0.02043433]
[-0.00362598  0.06549587  0.07102663]
[ 0.02663203 -0.01899373  0.05759937]
[-0.0139956   0.08387706  0.06866825]
[-0.04560836  0.04575931 -0.02884784]
[-0.05292133  0.06022281 -0.0792487 ]
[-0.08906145  0.08450334  0.05193957]
[ 0.0420104   0.11665872  0.09197385]
[-0.02115799  0.07331797 -0.05531858]
[ 0.02865477 -0.01997346 -0.09048454]
[ 0.11615216 -0.02448734 -0.00259066]
[ 0.04707189  0.09984208  0.03609318]
[-0.03761104 -0.18492402  0.01024918]
[-0.04610963 -0.00683126 -0.0062117 ]
[ 0.04767923  0.22872056  0.10474364]
[-0.07368682 -0.06390482  0.11702845]
[ 0.06097614  0.06057434  0.00052341]
[ 0.09683196  0.02972214  0.05791712]
[ 0.07483825 -0.70327604 -0.9308967 ]
[ 0.2166796  -1.07965624 -1.11565089]
[ 0.00708    -0.68384373 -0.81901366]
[ 0.0165244  -0.31649292 -0.26792705]
[-0.7242679  -0.8623544  -0.37635598]
[-0.66992354 -0.20665769  0.05340486]
[  1.29584698e-02   4.28968258e-02   8.31119396e-05]
[ 0.15536653  0.00024678  0.07867547]
[ 0.15816759 -0.1830862   0.11870003]
[-0.09074727  0.01953288  0.06468525]
[ 0.04459212  0.2343758  -0.04014286]
[ 0.02501283  0.04296339  0.04824649]
[-0.05183253 -0.21662834 -0.25631607]
[-0.4826186  -0.47493187 -0.24760233]
[-0.21845661 -0.00650495  0.23868629]
[-0.00987731  0.00016408 -0.08233768]
[-0.07105742 -0.20558476 -0.07690629]
[-0.10777885 -0.09145961  0.07592339]
[-0.0441344  -0.11341505 -0.02570077]
[ 0.05990908 -0.0634231   0.05347742]
[ 0.07428438 -0.01730025  0.02890925]
[-0.03079466  0.06559646  0.05191746]
[ 0.04637323 -0.0756964   0.04823146]
[ 0.01314748 -0.07108708  0.05521525]
[ 0.08803957 -0.01981024 -0.1140924 ]
[-0.12431318 -0.01319511 -0.23037514]
[-0.11806935 -0.12840575  0.07047514]
[ 0.03124399 -0.04395233  0.04111949]
[-0.12062678 -0.02338547  0.08175764]
[-0.16727671  0.05103226  0.11908124]
[-0.01614654 -0.66581768 -0.91186166]
[ 0.09512309 -1.19984043 -0.97652626]
[ 0.01599964 -0.8905977  -0.58664799]
[ 0.01391244  0.05794355 -0.04353132]
[ 0.06118695 -0.03123502 -0.01403032]
[ 0.02646858  0.04963423 -0.00084159]
[-0.10091929 -0.04904731  0.03156875]
[ 0.08528282  0.12809794  0.00015073]
[ 0.12561984  0.21625379  0.10281242]
[-0.02912737 -0.01452815 -0.03199275]
[-0.06911384 -0.10454086 -0.03960023]
[-0.07886436 -0.11917614  0.080204  ]
[-0.15333995  0.06135179  0.09345048]
[-0.10655874  0.01174296  0.05277889]
[-0.06321027  0.07959074  0.01303043]
[ 0.28521925 -0.41642264 -0.53847349]
[ 0.36704299 -0.53798139 -0.46468544]
[ 0.22862794 -0.42472652 -0.33256572]
[-0.02194402 -0.55171978 -0.77034545]
[ 0.02370533 -0.7383166  -0.74557376]
[-0.1021453  -0.52031195 -0.42287168]
[-0.08757392  0.09399787 -0.01668759]
[-0.06049624  0.02502038  0.13169664]
[-0.02047572  0.01702321 -0.02284145]
[ 0.04501159  0.07817104  0.00891442]
[ 0.07719527  0.05480463 -0.00699889]
[ 0.06163411  0.07549648 -0.08849836]
[-0.07942469  0.06557156 -0.01747538]
[-0.02705685  0.0866464   0.07432726]
[ 0.00783983  0.10077796 -0.0229159 ]
[-0.00937867 -0.01978693  0.01933384]
[-0.03864656  0.07530911  0.09376198]
[ 0.03243373  0.06672015  0.05010441]
[-0.08437746 -0.00199034  0.01310384]
[ 0.01401382  0.05075673  0.01102512]
[ 0.04462797 -0.01251089  0.11753448]
[-0.05483311  0.03278633  0.01131635]
[ 0.10306299 -0.00936932  0.07989036]
[ 0.15187006 -0.0698642   0.11207458]
[-0.0081215   0.01019038 -0.21180125]
[ 0.00883885 -0.04481575 -0.37135908]
[ 0.06072389 -0.115644    0.04092766]
[-0.08690356 -0.0706934   0.09035675]
[-0.08063882 -0.02553081  0.13510372]
[-0.05950184 -0.06325997  0.03489913]
[-0.03700383  0.05498701  0.00078518]
[-0.14846568 -0.02269537 -0.01608721]
[ 0.01858902 -0.03218412 -0.14949335]
[ 0.03466566 -0.05796922 -0.38179854]
[ 0.01243726  0.03179223 -0.49945521]
[ 0.10890131 -0.20898074 -0.2682527 ]
[-0.03884113  0.09844793  0.04855729]
[-0.16503352  0.04192821 -0.03636124]
[-0.04141839 -0.01703826 -0.12699151]
[ 0.04713428  0.11385471  0.10927974]
[-0.09268627  0.05149553  0.0189368 ]
[-0.08166859  0.08185104  0.10103275]
[-0.00590814 -0.07146463  0.10226575]
[ 0.05125183  0.05584445  0.02370275]
[-0.11210708  0.04515976  0.09748229]
[ 0.18045649 -0.32124731 -0.57548231]
[ 0.19613184 -0.49662146 -0.42832398]
[ 0.06120836 -0.53237522 -0.15140706]
[ 0.04085542  0.001191   -0.30229631]
[ 0.03621357 -0.14639422 -0.51882613]
[ 0.14464307 -0.14714886 -0.150786  ]
[-0.18078421 -0.20041305  0.11958862]
[-0.29309687 -0.07087985  0.12035298]
[-0.23405348 -0.04173566  0.19094341]
[-0.03804191  0.04218743  0.11179191]
[-0.04394049  0.14096728  0.06917176]
[-0.22386982  0.09781042  0.22642842]
[-0.17511036 -0.23487984 -0.08873122]
[-0.04707999 -0.1422302   0.0011622 ]
[ 0.00704569 -0.00263751  0.11469168]
[-0.05287125  0.15299089 -0.58567834]
[ 0.04212911  0.01730379 -0.69476867]
[ 0.0708386  -0.08354224 -0.21668331]
[ 0.05667121  0.01042008  0.07837402]
[-0.09347972 -0.00762771  0.16355038]
[-0.05914705  0.13564722  0.12500459]
[-0.14335538 -0.06134274 -0.00840044]
[ 0.02210496  0.05427577  0.03855195]
[-0.02707498 -0.05956092 -0.00151198]
[-0.09177    -0.08448315 -0.0246773 ]
[-0.03957505 -0.04571487 -0.01831252]
[-0.10987576 -0.00769484  0.07735378]
[ 0.01743496 -0.02178539  0.06835476]
[ 0.03974468 -0.03171318 -0.07546557]
[-0.04046505 -0.01801595 -0.01823152]
[-0.04356573  0.03281697  0.11443256]
[-0.28346646 -0.05010321  0.13127385]
[-0.32215208  0.12154851  0.13058291]
[ 0.36180186  0.03851949 -0.01777816]
[ 0.27742118  0.12444748  0.06884761]
[-0.0061487   0.12675488 -0.02566642]
[-0.27068362 -0.16824886  0.14522599]
[-0.30634159  0.06938131  0.0978502 ]
[-0.139965    0.0342432   0.22081719]
[-0.01016014  0.08972947 -0.06932534]
[ 0.08984982  0.08230767  0.01007958]
[ 0.01802691 -0.05932095  0.08660811]
[ 0.18480577 -0.38156888 -0.28162935]
[ 0.20057054 -0.29509556 -0.35603395]
[ 0.09449623 -0.28008333 -0.03162258]
[ 0.02752341 -0.0106204  -0.66232109]
[-0.07205095  0.06024892 -0.24576771]
[ 0.10227319 -0.15487006 -0.13000621]
[ 0.12772232  0.15922005  0.04313616]
[-0.12665454  0.0445525   0.01427908]
[ 0.11038847  0.01020706 -0.11887401]
[-0.37758696 -0.23133652  0.12300466]
[-0.25838456 -0.01173448  0.148683  ]
[-0.18317461  0.08455011  0.23313226]
[-0.24383876 -0.0250602  -0.05847862]
[-0.3054136   0.13031553  0.13771981]
[-0.04913965  0.03831065  0.10392822]
[ 0.11709341  0.02508622  0.04141763]
[ 0.05798632 -0.02771726  0.00214289]
[ 0.0256198  -0.03937602 -0.01857318]
[-0.2930052   0.05719595  0.0793464 ]
[-0.26738378  0.042315    0.09089234]
[ 0.00296795 -0.01728436 -0.09957242]
[-0.11903836  0.05717586  0.09886084]
[-0.2119808   0.03503544 -0.0276195 ]
[-0.00956886 -0.00354465  0.00465427]
[ 0.03279123 -0.02537088 -0.7836771 ]
[ 0.07712033 -0.16672055 -0.55960459]
[ 0.02795669 -0.51185173 -0.14229113]
[ 0.01625044  0.0060409  -1.02884793]
[ 0.0678416   0.01249844 -0.69836807]
[ 0.0445659  -0.17378449 -0.21087952]
[-0.00023361 -0.22808819  0.03349313]
[-0.06288796 -0.17246136  0.03111996]
[ 0.06722645 -0.23531505 -0.11931021]
[-0.07532452  0.10373252  0.03147368]
[ 0.09019579  0.10299699  0.07567406]
[-0.04878778  0.01709747  0.03564988]
[ 0.04452941 -0.00303401 -0.04820799]
[-0.04991768  0.05468472 -0.04950842]
[ 0.06673168  0.0617858  -0.02739423]
[ 0.09378825  0.06388942  0.04775783]
[ 0.02735737  0.10174713 -0.00250023]
[ 0.00434253  0.02090441  0.07308695]
[-0.1088587   0.04782028  0.0872976 ]
[ 0.13291502  0.03753522 -0.0069242 ]
[-0.14265791  0.04399454  0.04118237]
[-0.00814147 -0.14874202  0.02024586]
[-0.05494752 -0.1746465  -0.03623562]
[-0.02959182 -0.23907427  0.03938464]
[-0.02055829 -0.08762769 -0.02913188]
[-0.05401323 -0.00505239 -0.02524989]
[-0.01185535 -0.13038394 -0.01941711]
[ 0.00958314 -0.12239612 -0.09575799]
[-0.00591471 -0.07256598 -0.12596956]
[ 0.1233009   0.03056561 -0.03636415]
[ 0.03787385  0.02071278  0.04618517]
[-0.0430596  -0.0972207  -0.04684676]
[ 0.15091568  0.17947125 -0.01844073]
[-0.04016483  0.08717316  0.09097645]
[ 0.09565092 -0.00649482  0.00535387]
[-0.08718505  0.05984129  0.14901285]
[-0.48953867 -0.7140469  -0.59182143]
[-0.57312417 -0.70190281 -0.42405042]
[-0.0926117  -0.5555253  -0.08019251]
[-0.66074687 -0.2866852   0.00765652]
[-0.76104623 -0.71714824 -0.2496804 ]
[-0.01782601 -0.08396744 -0.42424846]
[-0.40422282  0.00436212  0.01843304]
[-0.21830113  0.17023461  0.12987338]
[-0.07692879  0.02409082  0.12915586]
[ 0.09892566  0.07820146  0.09843692]
[ 0.31642389  0.08346017  0.03142855]
[ 0.08970025  0.06974793  0.12562683]
[-0.35929474 -0.19599091 -0.06209796]
[-0.262214   -0.38295579 -0.2724506 ]
[ 0.24334899  0.11505647 -0.18445551]
[-0.16985683 -0.05227119  0.1064126 ]
[-0.27063444 -0.09011865  0.04227659]
[-0.05634035 -0.07629655  0.04270737]
[ 0.00462224 -0.00689108 -0.01849782]
[ 0.07477837 -0.00803767 -0.0631346 ]
[ 0.06942326  0.08482338  0.02194912]
[ 0.05741926  0.08136927  0.05523492]
[ 0.03220435  0.06872194  0.02938547]
[-0.03445442  0.07661589  0.03954298]
[-0.14492702 -0.23488867 -0.00299576]
[-0.15183903 -0.23662391 -0.21988608]
[ 0.07795174  0.09165633  0.05524726]
[ 0.02049239 -0.16722311  0.01817908]
[-0.15213802 -0.28474006 -0.06929704]
[-0.20076294 -0.08713174 -0.07236709]
[-0.40870708 -0.73697281 -0.55792385]
[-0.57966846 -0.7450912  -0.33548501]
[-0.14219466 -0.46233204 -0.04101025]
[-0.0748452  -0.00160193  0.12221404]
[ 0.0426351   0.05114176  0.06479154]
[ 0.03743496 -0.03212949  0.08048403]
[ 0.07625594  0.04243582  0.03133043]
[-0.10201833 -0.10806358  0.04039777]
[-0.05026614  0.18406817 -0.00539948]
[-0.09244067 -0.00270426 -0.02166381]
[-0.07268074 -0.00315382 -0.12375063]
[-0.16710283  0.00221078  0.04456444]
[-0.01948338 -0.07200169  0.023335  ]
[-0.05488819 -0.06948762  0.03340027]
[-0.05736201 -0.16328199  0.08686399]
[-0.10967498 -0.27854177 -0.24449351]
[-0.01975159  0.01700436 -0.04020568]
[ 0.23117119 -0.21549146 -0.00885399]
[-0.31208894 -0.78321999 -0.22705553]
[-0.35323679 -0.8470701  -0.17280303]
[-0.05434882 -0.47979668  0.0699922 ]
[ 0.02348242 -0.11430005  0.03799984]
[-0.00123466  0.04217468 -0.02489169]
[-0.0343538  -0.05189566  0.05655191]
[ 0.03723941  0.11232685  0.04177471]
[ 0.01589892  0.14109731  0.05658438]
[ 0.00069672  0.08799151  0.05964263]
[ 0.03503875 -0.07190213  0.02822625]
[ 0.04542428 -0.04002145 -0.05379347]
[ 0.00110591 -0.19343877  0.06480169]
[-0.13719657  0.00989892  0.01775624]
[ 0.00410411 -0.06024857  0.01620118]
[-0.09672396  0.00539169  0.10987384]
[-0.00314994  0.03533581 -0.04878223]
[ 0.04703243 -0.04284806  0.01225512]
[-0.11172499  0.03228089  0.07781792]
[-0.05337849  0.03633846  0.04295694]
[ 0.05124862  0.03314308  0.03285712]
[-0.01323162  0.05899629  0.12445728]
[-0.01870073  0.07431644 -0.11637264]
[ 0.02948645  0.06748945  0.00957954]
[-0.01019141  0.02834902  0.01483441]
[ 0.04607362 -0.00390492 -0.06267592]
[-0.03126192  0.05333175  0.04249169]
[ 0.03286161 -0.01701744 -0.03276204]
[ 0.01754998 -0.18295999 -0.23489964]
[-0.01265966  0.01192788 -0.0943589 ]
[-0.02837331 -0.00148081 -0.2034283 ]
[-0.01120568  0.06543588 -0.05330527]
[ 0.06059891  0.07900377  0.00744704]
[ 0.06293181 -0.09184973  0.03903121]
[ 0.00184423 -0.21511327 -0.3167851 ]
[ 0.01480973  0.00654642 -0.11520666]
[ 0.03224596 -0.01372758 -0.04718752]
[ 0.02300755 -0.17423554 -0.14677893]
[-0.02164975  0.01960996  0.23455088]
[ 0.00717114  0.05015259  0.02683258]
[ 0.0133648  -0.07199097 -0.07685015]
[-0.00720886  0.00431218  0.23996538]
[-0.04173407  0.02567949  0.0467888 ]
[ 0.10250378  0.30234325  0.00583508]
[ 0.09915462 -0.14819047  0.01221816]
[-0.12817129 -0.17474179  0.1093283 ]
[ 0.01203251  0.02702902 -0.05083967]
[ 0.0439254   0.02255512  0.03664312]
[ 0.00650883 -0.03639786  0.04485885]
[-0.06945527 -0.11714481  0.1198761 ]
[-0.15019475  0.06397433 -0.05431471]
[ 0.00832143  0.00557681 -0.19334635]
[-0.12579791  0.16175176 -0.04180129]
[-0.04133106  0.06763883 -0.32890999]
[-0.15508717  0.19279981 -0.044047  ]
[-0.09001829 -0.18981683 -0.04711672]
[-0.09887505  0.05064979  0.0673461 ]
[-0.06731372 -0.16045621 -0.1170579 ]
[ 0.0648044   0.11872697 -0.06353159]
[ 0.02243586  0.14767143 -0.04039809]
[-0.01607406  0.06160757 -0.0132748 ]
[ 0.0017028   0.12755269 -0.00109204]
[-0.01564738 -0.03557021 -0.43881714]
[-0.0737858   0.08740089  0.07138076]
[-0.09088217 -0.01764868 -0.05966789]
[-0.14009592  0.00024981 -0.14886774]
[-0.1366642  -0.1063038  -0.11614588]
[ 0.04929728 -0.05640468 -0.11501722]
[-0.03378906 -0.00233888  0.11229265]
[-0.01348522 -0.01789414 -0.00406935]
[ 0.07403728  0.01513868 -0.07447945]
[ 0.05876069 -0.01505708 -0.01940827]
[-0.01911812 -0.08287839  0.00134994]
[-0.0364307   0.02765959  0.07811931]
[-0.03661512 -0.11498471 -0.42604971]
[ 0.02676072 -0.04237653  0.0433051 ]
[-0.02890402  0.15623941  0.00639324]
[ 0.03232952 -0.26728365 -0.15617989]
[-0.07848262 -0.07640681  0.07620285]
[-0.14397638 -0.14981492  0.1701142 ]
[-0.1148186   0.10903475  0.00332242]
[ 0.05681391  0.04460775 -0.17316373]
[-0.06165252  0.04347571  0.02971145]
[ 0.05312932 -0.00905714 -0.02682296]
[ 0.06142968  0.04128343  0.0439589 ]
[ 0.04700837  0.02273187 -0.06551886]
[ 0.01371464 -0.5337311   0.11937817]
[-0.10473911 -0.35939962  0.100862  ]
[-0.05627727  0.01796684  0.02346854]
[ 0.03145359  0.02810261 -0.10614518]
[-0.04700024 -0.11392959  0.03761994]
[ 0.02904061 -0.25070998 -0.42360368]
[ 0.00927121  0.00704719 -0.13289434]
[ 0.0348078   0.02258045 -0.00097031]
[-0.11533951 -0.22868992  0.08240715]
[-0.07595409  0.21348239  0.08145333]
[ 0.03880436  0.12623306 -0.15501551]
[-0.11864399 -0.11339094 -0.01540455]
[-0.07400944  0.07040298  0.02310932]
[ 0.05358594 -0.0068479  -0.13629794]
[-0.0097054  -0.07633404 -0.2988888 ]
[ 0.00079996 -0.04210496 -0.0075427 ]
[-0.01686773  0.00277865 -0.04942527]
[ 0.03508153 -0.06967298 -0.35941109]
[-0.02983177  0.04372259 -0.28683347]
[-0.04326029  0.07153269 -0.13110091]
[ 0.06055533 -0.20086063 -0.32602203]
[ 0.02108712  0.09882922  0.03791834]
[-0.03644567  0.14047104 -0.01923659]
[-0.0001605   0.05944863  0.0697479 ]
[ 0.03661358  0.062395    0.00509263]
[-0.01037546 -0.12807465  0.02025053]
[-0.01645272  0.0898989  -0.02413042]
[ 0.09582148  0.08742852  0.00248214]
[ 0.01225492 -0.02399217 -0.00318286]
[ 0.05675817 -0.05679063 -0.02654709]
[ 0.03417486  0.03275087 -0.06183963]
[ 0.06701749 -0.0920554   0.04003748]
[-0.16968943  0.17262021 -0.0147187 ]
[-0.20098059 -0.32251063  0.03878593]
[ 0.1207656   0.17365593 -0.06904882]
[-0.06130984  0.13027024  0.00764165]
[-0.07061283  0.03840584  0.03332356]
[-0.01780505 -0.08887564  0.05699525]
[ 0.03942177 -0.02156469 -0.06277528]
[-0.0029581  -0.18419819 -0.14693436]
[-0.0056705  -0.19481707  0.05568061]
[ 0.03128675  0.12389462 -0.02356772]
[-0.21496899 -0.27600718  0.04405839]
[ 0.13640653  0.07059152  0.02355322]
[ 0.03396421 -0.1097447  -0.03065961]
[ 0.00971989 -0.11991525 -0.07549628]
[-0.00672683 -0.06026126  0.12034523]
[-0.00809672  0.04095714  0.11517739]
[-0.03321869 -0.00724182  0.00541522]
[ 0.03195635 -0.15214612 -0.02644598]
[-0.03870561  0.04156646  0.2069723 ]
[-0.05533661 -0.03877589  0.05556508]
[ 0.00060129 -0.10481752 -0.23157078]
[-0.22381786 -0.64692092  0.07721543]
[-0.01670936 -0.17519605  0.05450338]
[ 0.03216064 -0.08707491  0.02842758]
[ 0.05392206  0.15771982 -0.05388098]
[-0.18190214 -0.35400322  0.04494982]
[ 0.15146719  0.10130755  0.02708375]
[-0.07983069  0.03631194  0.07692403]
[-0.11772593  0.19593117  0.20972544]
[ -7.47173399e-05   1.72289521e-01  -2.04809800e-01]
[-0.19067097  0.13003258 -0.0688106 ]
[ 0.04046489  0.24372305 -0.0046875 ]
[ 0.02243019  0.10114371  0.04336575]
[-0.03172748  0.14496264 -0.02640159]
[-0.24939771 -0.18563139 -0.06581376]
[ 0.00381765 -0.03011379 -0.15625997]
[-0.14617726  0.26832417 -0.17284477]
[-0.22930852 -0.32131967 -0.07517463]
[-0.03607141  0.18730693 -0.02957433]
[-0.27363852 -0.20828816 -0.1683878 ]
[ 0.03817937  0.11368599  0.1103624 ]
[-0.08390022 -0.05636394  0.03737227]
[-0.0065267  -0.02125476 -0.1498805 ]
[-0.09482817  0.03511969 -0.10940199]
[-0.10948142 -0.00976346 -0.02242909]
[-0.03238945  0.06109202  0.10151803]
[-0.0496139   0.00953357  0.00195971]
[-0.0147405  -0.11850548 -0.14757369]
[ 0.07317534  0.06978641 -0.01595   ]
[-0.01246466  0.04739487  0.00672314]
[ 0.02767055  0.01597928  0.06431707]
[-0.16881807  0.00641319 -0.14919694]
[ 0.01700257  0.12960564  0.13310902]
[-0.1312516  -0.03853651  0.03216473]
[-0.07880367 -0.39869475  0.13254702]
[-0.00457498  0.03823056 -0.14573796]
[-0.01817082  0.09722599  0.27380401]
[-0.03378823  0.05182401  0.08443797]
[-0.2307643   0.17539144  0.05910722]
[ 0.0284863   0.0751431  -0.10564186]
[ 0.0190126   0.02046118 -0.08034152]
[-0.08854759 -0.02631187 -0.01787344]
[ 0.03986528  0.00449399 -0.00347283]
[ 0.05646821 -0.41622135  0.1013093 ]
[-0.09029653 -0.29046732  0.08480033]
[ 0.05094816 -0.1031872   0.08606113]
[-0.28646481 -0.34136    -0.04687735]
[-0.36551943 -0.09576632  0.03393011]
[-0.14078182  0.01131056 -0.03175943]
[ 0.00679946 -0.0779858  -0.11853779]
[-0.02285282  0.04957223 -0.05687392]
[ 0.01276901 -0.04520105  0.15087819]
[ 0.01381166  0.03428657  0.13581675]
[-0.17153175  0.08503972  0.01225322]
[-0.04718256 -0.06945971 -0.42827594]
[-0.01991561  0.0560965   0.03512527]
[-0.17464717  0.2664634  -0.02681964]
[ 0.02154701 -0.01730484 -0.12610479]
[ 0.02254253  0.02000933  0.07711665]
[ 0.01766495 -0.11990247 -0.11407991]
[ 0.00760809 -0.03719584  0.06411   ]
[ 0.01885429  0.0902124  -0.02388695]
[-0.02043098 -0.187282   -0.20512782]
[ 0.00666878 -0.0055182   0.08010941]
[-0.02651117  0.00486697  0.03651531]
[-0.01404959 -0.03939043 -0.17038374]
[-0.00012892 -0.07593804 -0.01102187]
[-0.04310472 -0.08464292  0.00990177]
[-0.43329149 -0.15988341  0.03865738]
[ 0.01765766  0.02564141  0.02342112]
[-0.11221426 -0.02334745 -0.03169269]
[-0.36196455 -0.13160381  0.04518029]
[ 0.02185674  0.14929029  0.01280245]
[ 0.026827    0.2162815  -0.12614229]
[-0.1671982  -0.07775206  0.01011235]
[ 0.03096365 -0.11214764  0.03047073]
[-0.00115085  0.04358395  0.18409379]
[-0.00283116 -0.07104775  0.05156172]
[ 0.05478578 -0.06032818  0.01029696]
[-0.08484334 -0.04374552 -0.08394714]
[-0.00970689 -0.04676475 -0.06494989]
[ 0.00329584 -0.02750713  0.00269359]
[-0.06032446  0.04336049 -0.12928569]
[-0.06626948  0.02794014 -0.07437052]
[-0.03713752  0.00622979  0.1063753 ]
[-0.0114179   0.0827271   0.05477038]
[ 0.02744473 -0.09354103  0.06977624]
[-0.01544303  0.00129302  0.08325282]
[ 0.00596964  0.02405271 -0.09130928]
[-0.04490506  0.0318409  -0.07196947]
[-0.10512983  0.04110696  0.04202141]
[-0.18215053 -0.04838847  0.04520002]
[-0.13277103  0.02385505 -0.04345123]
[ 0.03322367  0.01190503  0.0349832 ]
[-0.19900428 -0.03376733  0.22333109]
[-0.12039735 -0.00671196  0.04319356]
[ 0.05249282 -0.04952308  0.05043544]
[-0.02570093 -0.13376714  0.06465798]
[-0.08238266  0.02340459  0.20844099]
[ 0.04263115  0.08373766  0.07425781]
[ 0.01318152  0.07848843  0.09739191]
[ 0.00454563 -0.06570818  0.09003774]
[ 0.031425    0.02836053  0.17652206]
[-0.24129109  0.10371022  0.17124438]
[ 0.03205193  0.05774345  0.09822592]
[ 0.10010763 -0.11279025 -0.12157018]
[-0.04319244  0.03742287 -0.02320441]
[-0.23474634 -0.48214266 -0.41793051]
[-0.23752758  0.06255036 -0.12446114]
[ 0.01783988  0.13513578  0.17084703]
[ 0.11552493  0.06402674  0.05722687]
[ 0.09602059 -0.15141362 -0.01319993]
[ 0.03658679  0.10700418  0.05685787]
[-0.0544155   0.0059273  -0.02641262]
[ 0.00756931 -0.00580989 -0.00699834]
[-0.10634926 -0.22254193 -0.20486492]
[-0.20573013 -0.27982774 -0.27075028]
[-0.11630828  0.00917195 -0.01995793]
[-0.06499966 -0.06091959 -0.17074411]
[-0.04699237 -0.10813788 -0.19915594]
[-0.12424997 -0.16819319 -0.22574776]
[-0.14646287  0.03431174  0.12674339]
[-0.07496028  0.03774327 -0.0193976 ]
[ 0.03591274 -0.11402891 -0.0377799 ]
[ 0.01563972 -0.03192643  0.05015825]
[ 0.00076651  0.02418449 -0.01314112]
[-0.00583056 -0.05469627 -0.02392429]
[-0.05026491 -0.10773102 -0.16689596]
[-0.16308893 -0.15846699 -0.38397917]
[-0.12676971  0.00483855 -0.06986679]
[-0.0118857  -0.1421629   0.12154903]
[-0.18297938 -0.09654599  0.0260742 ]
[-0.2594696  -0.05781045 -0.10086815]
[-0.22174317  0.1476887   0.21041264]
[ 0.02810659  0.1079134   0.0298213 ]
[ 0.10821706 -0.10313076 -0.08146545]
[-0.13692132 -0.08235749 -0.03496627]
[ 0.00485662 -0.03393671  0.00886226]
[-0.01014928 -0.09182427 -0.07578249]
[ 0.06903802 -0.01187458  0.2016376 ]
[-0.01487482  0.05429946  0.2321952 ]
[ 0.1255798  0.0049951  0.0843916]
[-0.08498095  0.02591446 -0.22188163]
[-0.17068458 -0.15068017  0.03943511]
[-0.18619084 -0.04039997  0.0301043 ]
[ 0.0450728  -0.00312025 -0.09448992]
[-0.12228283 -0.00035813 -0.0296972 ]
[-0.10374877  0.0148203   0.06641874]
[-0.12117637  0.12794429  0.20442608]
[ 0.03739685  0.07287795  0.04096848]
[ 0.08971563 -0.09617218 -0.13877243]
[-0.12543361  0.06579937  0.12238303]
[-0.00214945  0.10612244  0.00512247]
[ 0.02652891 -0.09190904  0.02952178]
[ 0.01415694  0.01001538 -0.08432226]
[-0.0790695   0.00208652 -0.00528343]
[-0.05960525 -0.02665602  0.14273298]
[ 0.05916093  0.0685238  -0.1710382 ]
[ 0.0645991   0.08126631 -0.12643011]
[ 0.00071246  0.06695294  0.0680707 ]
[-0.02129972  0.02387792 -0.15353285]
[-0.07186091  0.06761515 -0.14465715]
[-0.03051775  0.0092564   0.00010002]
[-0.01145911  0.0266542  -0.03879442]
[-0.0388254  -0.04190504  0.09904378]
[-0.04519968  0.00949471  0.05083369]
[-0.02346933  0.11809704 -0.00608731]
[-0.10623703 -0.07465541  0.12717535]
[-0.01984393  0.00923553  0.06740323]
[ 0.03330507  0.13980052  0.06057229]
[ 0.05302015  0.00460343  0.07951119]
[ 0.06143483 -0.08033518  0.10503097]
[-0.03958217  0.04312179 -0.23043774]
[ 0.05859445  0.04171285 -0.07235984]
[ 0.1727628   0.05981051 -0.0873732 ]
[ 0.12339544  0.06237126 -0.01550747]
[-0.02170049 -0.00502498 -0.01093917]
[ 0.01459911 -0.01648938 -0.01639966]
[-0.17662378 -0.31791618 -0.225814  ]
[-0.23005813  0.10319689  0.03801554]
[-0.08041399 -0.03047106 -0.09563794]
[-0.03027846 -0.01205144 -0.02044118]
[-0.00307021  0.02317887 -0.07506884]
[ 0.05006106  0.07367591 -0.01015445]
[-0.39433199 -0.23805901 -0.16143894]
[-0.2916182   0.07586347 -0.04781139]
[-0.17043789  0.01430705 -0.08197332]
[ 0.08207894 -0.06109716 -0.29010552]
[-0.03801836  0.00030432  0.10761039]
[ 0.03331283 -0.01120054  0.04398967]
[ 0.02194336  0.08739752 -0.33802307]
[-0.11212009 -0.12873825  0.17987832]
[ 0.01141557 -0.10042167  0.0604297 ]
[-0.10895769  0.00507282  0.24098372]
[ 0.10336813  0.10436664  0.07196344]
[-0.03527102 -0.34341568  0.27953258]
[ 0.02922783 -0.03970975 -0.05631848]
[ 0.04729237  0.05693226 -0.06085567]
[ 0.10679983  0.0413633  -0.01692951]
[-0.35985041 -0.08884306 -0.14022301]
[-0.65574539 -0.23861133  0.19955142]
[ 0.05879118 -0.03452791 -0.03588749]
[-0.25769943  0.1458545   0.06138449]
[ 0.1083653   0.09541578 -0.21028839]
[-0.17098637  0.01168727 -0.03599425]
[ 0.03570049 -0.14532313 -0.0466036 ]
[-0.18161155 -0.0293606   0.09828249]
[ 0.15431279  0.00419187 -0.10576048]
[-0.17089592 -0.03177451 -0.182429  ]
[ 0.01412648  0.08493386 -0.10004008]
[ 0.15225035  0.11227258 -0.0741697 ]
[-0.02150997  0.15504132  0.18163829]
[ 0.08021898  0.06414147 -0.23213376]
[-0.02127321 -0.03867475  0.06418426]
[ -1.09698117e-01  -4.53298353e-02  -7.85737066e-05]
[-0.09301974  0.00355064 -0.06744467]
[-0.12275849 -0.06341367 -0.02039565]
[ 0.06202531  0.01570895 -0.19603547]
[-0.09659673 -0.12525146  0.11325996]
[-0.01043896 -0.12807457  0.05967767]
[ 0.00157877  0.08210909 -0.01535891]
[-0.00349826  0.04833199  0.06740279]
[ 0.07047676  0.03088592 -0.02238444]
[-0.06163565  0.00898882  0.20380487]
[ 0.11139479 -0.00873656 -0.12961778]
[ 0.11500307 -0.12600645  0.02475124]
[-0.2999168  -0.09169066  0.05103104]
[ 0.01540386 -0.16286398 -0.01046167]
[-0.12792851 -0.18745777  0.24803121]
[-0.43541253 -0.22618474 -0.10144987]
[-0.78506941 -0.12911423  0.18595171]
[ 0.07470451 -0.06854091 -0.09953178]
[-0.02628175 -0.05771262 -0.07419555]
[ 0.05301988 -0.00883442  0.02294574]
[-0.0084145   0.00874999  0.07061807]
[-0.02143224 -0.07319495  0.16349703]
[ 0.00303537 -0.12420385  0.13931791]
[ 0.00047431 -0.33071837  0.24923901]
[-0.13095647 -0.03726119  0.0161271 ]
[ 0.0228207   0.05695732 -0.18528201]
[-0.04336366 -0.03878912 -0.07600359]
[ 0.0103468  -0.36801496 -0.15291503]
[-0.09906521 -0.00854558  0.00073327]
[ 0.10749569  0.04305956  0.01336724]
[-0.00114562 -0.16056666 -0.16937703]
[-0.71711987 -0.08407672  0.29687941]
[ 0.11295724 -0.07527173 -0.07411369]
[-0.23326086 -0.25389892 -0.22131738]
[-0.75461733  0.06364355  0.0934483 ]
[ 0.05620981 -0.05667559 -0.04214377]
[-0.1429646  -0.14807878 -0.17498508]
[-0.28117692  0.02035022  0.01890084]
[-0.10788244  0.00107772  0.00340076]
[-0.46355364 -0.17815275 -0.26089269]
[-0.29768535  0.07231534 -0.00566048]
[-0.14173253  0.13189627 -0.06939184]
[ 0.0570452  -0.21302453 -0.22989216]
[-0.19710335  0.08976455  0.01072183]
[-0.05590519  0.0662496  -0.02214201]
[-0.05142267 -0.03049524  0.09884566]
[ 0.02510767  0.11132374 -0.06221573]
[ 0.0314023  -0.04371941  0.03853746]
[ 0.0137744   0.03318226 -0.01527083]
[-0.00865511  0.04494431 -0.1468292 ]
[ 0.02253975  0.03937254 -0.01830405]
[ 0.05401083 -0.08533692  0.07188934]
[-0.01651448  0.01301465 -0.04629497]
[ 0.06178978  0.00781735 -0.0202133 ]
[ 0.02101321 -0.10056511  0.07338712]
[-0.13882202 -0.0193415   0.11366382]
[ 0.02280465  0.05103108  0.08042521]
[-0.05771345 -0.06488147 -0.09832159]
[-0.02628732 -0.15163368 -0.10350786]
[-0.08231626 -0.03030491 -0.0736971 ]
[-0.01707802 -0.0526527  -0.46588033]
[ 0.01368573 -0.21619259 -0.4917191 ]
[-0.01819194  0.04386478 -0.12942794]
[-0.24355718 -0.08532793  0.04719014]
[-0.3225866   0.05084493  0.03432122]
[ 0.07315926  0.06387023  0.05545175]
[-0.07413889 -0.10800482 -0.72458029]
[-0.00522188 -0.14673641 -0.73289543]
[-0.12378458  0.05287717 -0.20641087]
[-0.02438383  0.04177456 -0.17900787]
[ 0.04598344 -0.08501827 -0.15620266]
[ 0.02813043 -0.04301737 -0.05631933]
[-0.07760609  0.07457529 -0.07264993]
[ 0.06785686  0.01977287 -0.20054401]
[-0.14684014 -0.06920528 -0.12611799]
[-0.56674129 -0.08716238  0.11101536]
[-0.17744195  0.0653145   0.03519221]
[ 0.21180813  0.11188554  0.06853743]
[-0.1373419  -0.02621957 -0.07284263]
[-0.24698164  0.19368194  0.05225644]
[-0.00617337  0.08356845  0.10926045]
[ 0.05754003  0.0708573  -0.33051828]
[ 0.07545418 -0.00435799 -0.53482991]
[ 0.07808553  0.08221058 -0.06297411]
[ 0.08610006 -0.11602419 -0.02546153]
[ 0.06587633 -0.04943515 -0.00786086]
[ 0.08556093  0.05448573 -0.13882935]
[ 0.07302349 -0.09817699 -0.0323409 ]
[ 0.01750078 -0.06147327 -0.02495373]
[-0.02688117  0.0666572  -0.01549205]
[-0.05381188 -0.46541172  0.05443086]
[-0.18299095 -0.44588858  0.00409894]
[ 0.03552255 -0.03894705  0.07654148]
[ 0.03612475  0.00503721  0.05007377]
[ 0.12673034 -0.06627136 -0.03645559]
[-0.04175904  0.04819845 -0.06768972]
[-0.00136335 -0.10402339 -0.0846737 ]
[-0.13346364  0.05916391 -0.11902107]
[-0.01414619 -0.00405513 -0.12809949]
[-0.0830125  -0.0730706  -0.10970648]
[-0.09190787 -0.02819722 -0.13348599]
[-0.06095397 -0.08267314 -0.10580368]
[-0.02175254 -0.05718471 -0.06582551]
[ 0.01302979 -0.05361355  0.04846753]
[ 0.00011342 -0.0051113   0.06772573]
[ 0.12919416 -0.03144785 -0.145409  ]
[ 0.06489348 -0.00957725 -0.19649297]
[-0.00974711  0.023824   -0.07844187]
[-0.13346972 -0.13594763  0.0240458 ]
[-0.05496573 -0.17130841 -0.17372003]
[-0.02483572  0.0105985  -0.03850574]
[ 0.03038899 -0.04457847 -0.39821261]
[ 0.11041538 -0.00995227 -0.60303092]
[ 0.09905218  0.01176069 -0.15460148]
[-0.08719254 -0.08352046  0.01578503]
[ 0.0559814   0.04881699 -0.07093184]
[-0.03829307 -0.03237149  0.02580141]
[-0.47689757 -0.05307108  0.1016842 ]
[-0.29504299 -0.03690793  0.07634248]
[ 0.16042525  0.12323619  0.04876685]
[-0.2985546  -0.1572376   0.08835348]
[-0.01786271 -0.06325406 -0.00077555]
[ 0.12637942 -0.01001733  0.02471748]
[ 0.03561624  0.02320778 -0.41704652]
[-0.02485872 -0.09352858 -0.30101383]
[-0.09729634  0.12634149 -0.01438519]
[ 0.02671778  0.03412529 -0.33447143]
[ 0.12521426 -0.00167673 -0.45568466]
[ 0.07264557 -0.0271768  -0.15828401]
[ 0.06952427  0.03536831 -0.36943683]
[ 0.15597688 -0.1918598  -0.4543775 ]
[ 0.11031444 -0.02978314 -0.0878614 ]
[-0.06229713  0.00376034 -0.08337105]
[ 0.00637773 -0.07156868 -0.34084237]
[-0.04527913  0.01038142 -0.1105399 ]
[-0.03653004 -0.09255739 -0.47573936]
[-0.0185862  -0.19999363 -0.32866231]
[-0.07748802  0.09759294 -0.15441194]
[-0.04187286  0.02827326 -0.37187028]
[ 0.00536832 -0.0544599  -0.46378803]
[-0.1188954   0.04168082 -0.06522389]
[-0.48988697 -0.00239427  0.13657014]
[-0.2312911   0.10855959  0.03742386]
[ 0.09609181  0.08611076  0.06356622]
[-0.32302654 -0.05628905  0.05721687]
[-0.29194069  0.06915538 -0.01455953]
[ 0.12377413  0.04565655  0.07306106]
[-0.10178125 -0.11529567 -0.04472729]
[-0.23589282  0.0676004   0.03485845]
[-0.17734739 -0.03449899 -0.02251148]
[-0.60963452 -0.34718618 -0.04712267]
[-0.16724902 -0.09390049 -0.07775131]
[ 0.05758572 -0.00702136 -0.11616616]
[-0.08340915 -0.10327449  0.01841952]
[-0.03012164 -0.09777632  0.0612478 ]
[ 0.12983043  0.03157721  0.03384363]
[-0.04530109  0.00142524  0.0626076 ]
[-0.03658037  0.05155529  0.05079785]
[ 0.01355461  0.04934124  0.03570419]
[-0.57625586 -0.09642427 -0.00474481]
[-0.20121376 -0.10680125  0.09221995]
[ 0.01428025  0.01282832  0.01551553]
[ 0.00799547  0.03977384  0.01518469]
[-0.0492666   0.04277556  0.04692419]
[-0.02282445 -0.0096146   0.06047999]
[-0.12059686 -0.0855186   0.06570696]
[-0.12945375  0.09370942  0.09291005]
[ 0.15027672  0.04551661  0.0554367 ]
[-0.01191712 -0.14613432  0.0352701 ]
[-0.11842945  0.16995871  0.14578879]
[ 0.13465165  0.02472041  0.03665882]
[ 0.14969343  0.10745599 -0.1656355 ]
[-0.19156924 -0.2388054  -0.01508304]
[ 0.14008979 -0.10571778 -0.00543725]
[-0.74655658 -0.17349502 -0.00172928]
[-0.211628   -0.14216241 -0.00482825]
[ 0.0846609   0.05026378  0.01020857]
[-0.06814115 -0.27009398  0.04980819]
[ 0.00075087  0.07226095 -0.06367408]
[ 0.07471644 -0.09004341 -0.08476579]
[-0.00570472  0.05853825 -0.16074876]
[ 0.10698105  0.00114563 -0.07582568]
[-0.15076341 -0.17729497  0.01995983]
[-0.80418164 -0.57034636 -0.0473777 ]
[-0.04990628 -0.02143215 -0.11069105]
[ 0.04317813  0.07950617 -0.12895939]
[-0.43125433 -0.11639004  0.00371752]
[-0.15368158 -0.03359573 -0.0727687 ]
[ 0.12054885  0.08341854 -0.07638681]
[-0.00713219  0.07570582 -0.13228637]
[-0.0201289  -0.01921577 -0.02373913]
[-0.01484466 -0.16723287  0.01268071]
[-0.01728277  0.01691713 -0.04691996]
[ 0.00851945 -0.0900389  -0.02387661]
[-0.067434   -0.01034652  0.0178357 ]
[-0.13099062 -0.16104311 -0.00497034]
[-0.04807686  0.03920914  0.09130026]
[ 0.19324842  0.02663804  0.04609613]
[-0.05325997 -0.0553236   0.04712179]
[-0.06477793 -0.07587024  0.04182171]
[ 0.05805519 -0.01855586 -0.055122  ]
[-0.05428813  0.07658543 -0.00894716]
[ 0.02553195  0.02949634  0.02097034]
[-0.17500827 -0.06947704  0.02280169]
[ 0.13612935  0.02861673 -0.11874063]
[ -6.95382580e-02   2.74843983e-02  -2.18941041e-05]
[-0.01793121 -0.03530943  0.02607213]
[-0.21387485 -0.0839244   0.01885362]
[ 0.05001638  0.04503577 -0.08942532]
[-0.01541244 -0.08999872 -0.11234196]
[ 0.08571789 -0.02514498  0.02051385]
[ 0.13790111  0.00241994  0.00286681]
[ 0.05343265  0.07045944  0.08612272]
[ 0.16228276 -0.15054674 -0.05708246]
[-0.20715061 -0.16081224  0.09444777]
[ 0.31830668  0.03052241  0.00528051]
[-0.15131113  0.11286801 -0.06137944]
[-0.12674662 -0.09611745 -0.01720099]
[-0.01208185 -0.0441028  -0.03673273]
[-0.03201897 -0.03221737  0.09423626]
[-0.10162066  0.06712227  0.01664024]
[-0.01332696  0.04348343  0.02895348]
[-0.29555073 -0.56836885  0.04502286]
[ 0.02803376 -0.02304079 -0.07211863]
[ 0.06689216 -0.06086817 -0.13894038]
[-0.27305472 -0.1935118  -0.00428174]
[ 0.00809105  0.06384302  0.00087651]
[ 0.01899518 -0.01636346 -0.07588919]
[ 0.04936112 -0.0426513   0.04376964]
[-0.04354329  0.04263806  0.01458133]
[ 0.01920137  0.00546474  0.00720481]
[ 0.05391675 -0.01670129  0.11180248]
[-0.06384966  0.10167366  0.13314846]
[ 0.04064251  0.0246164   0.07759519]
[ 0.0767435  -0.03045788  0.15287273]
[-0.08148837  0.07233339  0.05493998]
[ 0.03500045  0.02224929  0.07984324]
[-0.02301518  0.05617664 -0.00380364]
[-0.1453228  -0.1006906   0.04095081]
[-0.01799614 -0.02651311  0.00269628]
[-0.25757799  0.05014998  0.02493279]
[-0.21895191 -0.09447987  0.07655496]
[ 0.0786351   0.00563395 -0.02809697]
[-0.61234003 -0.19649355  0.03493458]
[-0.21881425 -0.28933811 -0.01613476]
[ 0.07124489 -0.06410374 -0.04270089]
[ 0.02821203 -0.14226101  0.04640291]
[ 0.09181885 -0.496916    0.15738228]
[ 0.04443781 -0.42866081 -0.01110876]
[-0.03567702 -0.23447105 -0.0574747 ]
[-0.01887039 -0.00330118  0.06151708]
[-0.01791747  0.17932312  0.05263048]
[-0.28728881  0.03772809  0.04969458]
[ 0.01506592 -0.00334764 -0.11838606]
[ 0.11491842 -0.02959445 -0.19007929]
[ 0.0005924  -0.15716188 -0.00696058]
[ 0.00933083 -0.28568134  0.10996008]
[-0.02686819 -0.08954795 -0.05019894]
[-0.36423188  0.04395472  0.23137148]
[-0.13507488  0.03361496 -0.04397948]
[ 0.23966788 -0.01233381 -0.20697802]
[-0.32112902  0.09666828  0.0522383 ]
[-0.18915643  0.10292364 -0.10533439]
[ 0.09318877  0.06039296  0.00349647]
[ 0.07808249  0.09744482  0.05014815]
[-0.09262701  0.10379886 -0.05999002]
[-0.00815871  0.11277363 -0.11219579]
[ 0.14567454 -0.42296872 -0.13662054]
[ 0.0380524   0.16774721 -0.00622511]
[-0.18199572  0.27066126 -0.25216627]
[ 0.01422685 -0.17596409  0.04689223]
[ 0.01112159 -0.24558412  0.13621478]
[-0.05024622 -0.06824668 -0.04325953]
[-0.25224456  0.18208224 -0.05749585]
[-0.2444519   0.12105887 -0.01514806]
[-0.00856406  0.10778096  0.00059873]
[ 0.08988003 -0.27322832  0.02246796]
[-0.20915841 -1.14473772 -0.27109361]
[-0.41961089  0.12341539 -0.30329269]
[-0.04204705 -0.2255718   0.01082827]
[-0.02433621 -0.17073654  0.13485457]
[-0.0485126  -0.10938312  0.035561  ]
[ 0.02594992  0.24803132  0.03619877]
[ 0.06090097 -0.26339367  0.25195679]
[ 0.08827067 -0.7671181   0.03093171]
[ 0.0916611  -0.52760732 -0.21329479]
[-0.10964496 -0.90396529 -0.30240306]
[-0.12391759  0.1754151  -0.02563002]
[-0.06834832  0.06781363 -0.06822841]
[-0.08403824 -0.05935595  0.00968676]
[ 0.08836844  0.0192705   0.0940621 ]
[-0.00810088 -0.01648385 -0.04695373]
[-0.04815747  0.14690514 -0.05787065]
[-0.11000941  0.11054283 -0.10497244]
[ 0.01862988  0.05195389  0.04580582]
[-0.00644565 -0.0590497  -0.00912738]
[ 0.02609159  0.01120062 -0.05352857]
[-0.22408463 -0.37725773 -0.21268204]
[-0.34286553 -0.62511891 -0.4949846 ]
[-0.10761379 -0.07026537 -0.06073556]
[ 0.3340838  -0.21203068  0.08146229]
[-0.04309962 -0.02726625 -0.28883481]
[-0.45572942  0.0090514  -0.79034656]
[-0.33252281  0.10192722 -0.09222098]
[-0.2470572  0.1504598 -0.0352985]
[-0.00073042  0.13820311  0.0201157 ]
[ 0.00461094  0.08203427  0.04064015]
[ 0.06203929  0.11689013  0.08006114]
[ 0.11300994 -0.00630271 -0.03774082]
[ 0.19535163 -0.30428249  0.0919791 ]
[ 0.09719936  0.11917172  0.0328466 ]
[-0.32959545  0.14386158 -0.35260779]
[-0.02209231  0.03313415 -0.21685196]
[ 0.00043457 -0.15241639 -0.0574214 ]
[ 0.01595995 -0.19368733 -0.09755611]
[-0.35845241 -0.03123089  0.15044618]
[-0.19032677  0.01577937 -0.01650384]
[ 0.12870577 -0.01825899 -0.33395314]
[-0.27697462  0.0493811  -0.05556891]
[-0.21352799  0.11514217 -0.03131571]
[-0.02287865  0.14644974  0.0068879 ]
[-0.22928235  0.10742224 -0.1155968 ]
[-0.02633643  0.08920702 -0.08704833]
[ 0.02000182  0.03638009  0.00719017]
[-0.19050172  0.01860358  0.04585595]
[-0.08104002 -0.01243968 -0.01382878]
[ 0.11283687 -0.00118016 -0.21550162]
[-0.41272816  0.02651117  0.17176937]
[ 0.06601189 -0.03227202  0.06248998]
[ 0.08553226 -0.04991243 -0.02173948]
[-0.50241274  0.00900965  0.18679844]
[ 0.0290942  -0.00232637 -0.01030439]
[ 0.23528033  0.02313237  0.0129072 ]
[ 0.00945709 -0.07106069 -0.07029598]
[ 0.00139816 -0.07255358  0.0116567 ]
[-0.08623088  0.15381715 -0.02359057]
[ 0.041474   -0.03634027 -0.04051945]
[ 0.02701055 -0.22403364  0.06513346]
[ 0.01281449 -0.2911922  -0.05850458]
[ 0.01524438 -0.2979289  -0.10057804]
[-0.05030984 -0.36409149  0.15049464]
[-0.06620894  0.07615232  0.06708101]
[-0.14923953  0.11848465 -0.23901094]
[-0.08492766  0.05367054 -0.25543132]
[ 0.07464769 -0.13866401 -0.33703053]
[ 0.01898983 -0.09289928 -0.0286714 ]
[-0.07497654 -0.05617121 -0.05315802]
[ 0.02660557 -0.0662104   0.04020415]
[ 0.01012897 -0.03951266 -0.06580981]
[ 0.02709675  0.12231013 -0.02933377]
[-0.22565641  0.07169385  0.011329  ]
[-0.27411181  0.0906561  -0.07741771]
[-0.18267751  0.02901363 -0.03170425]
[-0.12699237 -0.07771113  0.13771877]
[ 0.03674006 -0.12470148  0.03762214]
[ 0.05658175 -0.09505326 -0.02671996]
[-0.10091674 -0.06747921  0.05648919]
[-0.02473508 -0.35926634  0.03145608]
[ 0.03327672 -0.45331392  0.05735586]
[-0.15018515 -0.13369104  0.053666  ]
[-0.08402623  0.04737961 -0.11304414]
[ 0.00805676 -0.15975836  0.03461188]
[-0.21629529 -0.03567151  0.04509602]
[ 0.10025603 -0.04455819 -0.06276836]
[ 0.18334946  0.12378362  0.18957147]
[-0.06409614 -0.07751237  0.26025549]
[-0.16776346  0.0480664  -0.06748924]
[-0.04055437  0.10107755  0.0600228 ]
[-0.15390468 -0.03409846  0.04863353]
[ 0.07821613  0.12978514 -0.09460404]
[-0.12761298 -0.42806953 -0.0040908 ]
[ 0.03462207  0.1557944  -0.14391272]
[ 0.02040512  0.11390905  0.1121543 ]
[ 0.05192768 -0.26341093 -0.48667943]
[ 0.20840068 -0.01857682 -0.02511314]
[-0.05837355  0.08834901 -0.09086889]
[-0.18863973 -0.04797252  0.0186735 ]
[ 0.11265035 -0.061848   -0.03774514]
[ 0.02374585  0.07039379  0.03299527]
[ 0.13094094  0.11431403 -0.41915253]
[ 0.16606341 -0.00327404 -0.65174508]
[-0.04960711 -0.01349068  0.00355072]
[ 0.11518854 -0.01887074 -0.52672809]
[ 0.05961236 -0.02216594  0.00273426]
[-0.05095524 -0.06265821 -0.01415785]
[-0.00896121 -0.06333605 -0.08569755]
[ 0.09438872 -0.00380055 -0.04647337]
[-0.02557936 -0.03594033 -0.05141865]
[ 0.03014612 -0.0859699   0.09456319]
[-0.21517916 -0.09820297  0.02417939]
[ 0.00781784  0.04993435 -0.01882261]
[-0.01748848  0.0606939  -0.03672465]
[ 0.03276813 -0.05031474  0.02873928]
[-0.01734708 -0.16341995  0.03121639]
[ 0.02904754 -0.15169494 -0.23694143]
[ 0.03299678 -0.09170968 -0.06144166]
[ 0.02262203 -0.08527841  0.09930712]
[ 0.08959418 -0.3900381   0.06929692]
[ 0.01564131 -0.6696977   0.04024874]
[ 0.09278853 -0.04455203 -0.00399651]
[-0.18421598 -0.51420945  0.10652933]
[ 0.08072542  0.05867565 -0.02022365]
[ 0.09638165  0.02429297 -0.0016272 ]
[-0.02087626  0.09091695  0.02002318]
[ 0.0781519   0.05422458  0.06268628]
[-0.00202806  0.06062821  0.02395363]
[ 0.18967968  0.05776582  0.25765625]
[-0.16081029 -0.19175847  0.14448234]
[-0.2591686   0.01006423 -0.08000248]
[-0.28482693 -0.04359382 -0.26493406]
[-0.19907738 -0.06417672 -0.08935183]
[ 0.01021057 -0.24590221  0.00855558]
[ 0.06803576 -0.30194479 -0.02099171]
[-0.13752899 -0.17344035  0.07740157]
[-0.07136416 -0.02992206 -0.13822548]
[-0.19974451 -0.43989906  0.08566144]
[ 0.00102218  0.11632588  0.06645023]
[ 0.08174981 -0.05620569 -0.03286509]
[-0.13056073 -0.39052173  0.03481983]
[ 0.01829607 -0.01077838 -0.02797144]
[-0.03399858 -0.14681968  0.01420338]
[ 0.02872883  0.02197256 -0.02296814]
[-0.14998856 -0.00686649 -0.00711308]
[ 0.05497866  0.09715471 -0.00948172]
[ 0.13394074  0.23181093  0.00452066]
[-0.11146542  0.11176278 -0.01659689]
[ 0.01306697 -0.16997921 -0.00247539]
[ 0.11217724  0.03162093  0.00332468]
[-0.16555069  0.09533954  0.05309468]
[-0.20713879 -0.00474286 -0.10404775]
[-0.10796281 -0.00635265 -0.03111927]
[-0.15516675  0.0547022   0.08352266]
[-0.28618991  0.05037519 -0.12785465]
[-0.20252104  0.00811406 -0.14652257]
[-0.14254762 -0.07858574 -0.02780986]
[-0.07756428  0.0586747  -0.10018221]
[ 0.07333267  0.025922   -0.0263262 ]
[-0.02534096 -0.05311913  0.05911349]
[ 0.06213157  0.0050396   0.04889356]
[ 0.01549633  0.20826247 -0.27383912]
[-0.04339142  0.08846087 -0.06919428]
[ 0.09156659 -0.20158122 -0.0253851 ]
[ 0.09560169  0.10373054 -0.10905405]
[ 0.00849748  0.08797989 -0.19468087]
[-0.18649854  0.0640096  -0.10905307]
[-0.05079617 -0.28033739 -0.05903883]
[-0.0112418  -0.17254944 -0.06041401]
[ 0.04765601 -0.14274541  0.1200321 ]
[ 0.03115113  0.05470213 -0.01614702]
[ 0.03042649  0.11191227 -0.18843412]
[-0.09779027  0.2077554   0.03072659]
[-0.010016   -0.01995806  0.00686947]
[-0.03398273 -0.29280296 -0.0342568 ]
[-0.02952747  0.03951649 -0.13383538]
[ 0.01234988 -0.41968882 -0.14323306]
[ 0.03722128 -0.34770697 -0.08956148]
[-0.1459491  -0.05376167 -0.16228524]
[-0.06142286 -0.32070759 -0.36331427]
[ 0.12415024 -0.2974183  -0.081745  ]
[-0.03651528 -0.40007988  0.30472651]
[-0.00593347 -0.33017689  0.24549684]
[-0.01173083 -0.15616634  0.16030504]
[ 0.04893991 -0.29564169  0.07914201]
[-0.00461717  0.13170122 -0.01374779]
[ 0.01955023  0.19419906 -0.12600374]
[-0.00520373 -0.19517    -0.01009687]
[-0.08975206  0.04684193 -0.03679398]
[-0.15828554 -0.00367332  0.04419533]
[-0.1273012   0.17837852 -0.07388833]
[-0.57517624  0.12726697  0.07663201]
[-0.27594161  0.20122731  0.32679561]
[ 0.24170111 -0.33055216 -0.08661212]
[ 0.09387922  0.2342574  -0.31437537]
[-0.05461693  0.12199448 -0.02006417]
[ 0.03771713  0.06682975  0.05773692]
[ 0.04609598  0.12891564 -0.10316847]
[-0.00750663  0.09412979 -0.09678371]
[-0.16795261  0.05410173 -0.01037425]
[-0.45282453  0.05931398  0.07774871]
[-0.09777518 -0.13637201  0.1587577 ]
[-0.07757325  0.00960023 -0.20033202]
[-0.17641249  0.07662683 -0.15174256]
[-0.13261423 -0.00980973  0.08871941]
[ 0.01091488 -0.24919592 -0.13972503]
[ 0.09595437 -0.29691538 -0.40877831]
[ 0.06626927 -0.05199454 -0.11995508]
[-0.01653644  0.04649357 -0.0153677 ]
[ 0.04015295  0.07484349  0.04415052]
[-0.06013206  0.03008424  0.03472495]
[-0.21868537  0.18096778  0.05795925]
[-0.03295102 -0.16713491  0.0538357 ]
[ 0.03141155 -0.31121156  0.01169773]
[-0.21984595  0.08136214  0.13836981]
[-0.24997213 -0.13899465  0.20236963]
[-0.02863499 -0.83261007  0.04925444]
[ 0.11468203 -0.3913129  -0.07610709]
[ 0.06291417 -0.05874224 -0.12267014]
[-0.07727414 -0.00197196  0.16517423]
[-0.0445483  -0.04625484 -0.03559989]
[-0.06098432  0.02391023  0.02421627]
[-0.07272538 -0.06290586 -0.00054941]
[ 0.06955184 -0.25653833  0.22460416]
[ 0.27548113 -0.39670232  0.33966687]
[ 0.13127622 -0.23429962  0.17822351]
[-0.07856672 -0.28517115 -0.00438107]
[-0.11995323 -0.16690309 -0.0649779 ]
[-0.12626103 -0.03567657 -0.20503731]
[-0.1311086   0.25277281  0.07106137]
[  1.99815169e-01  -1.41153082e-01   1.64034966e-04]
[ 0.19949746 -0.47625232 -0.0471482 ]
[ 0.03140989 -0.34709755 -0.22315153]
[ 0.07577719 -0.22661637 -0.20445676]
[ 0.00782889  0.09639735  0.06886783]
[-0.02513127 -0.24197987 -0.07735274]
[-0.04409297 -0.24175702 -0.15548003]
[-0.01411027  0.03471513  0.05016914]
[-0.10954751  0.10623725 -0.03295697]
[ 0.08042258 -0.04922332 -0.02287501]
[ 0.09495378 -0.26495376 -0.0239545 ]
[-0.13453132  0.27281439 -0.08927958]
[-0.17242357  0.0618511  -0.04286131]
[-0.16731937 -0.16019526  0.03130526]
[-0.33737385  0.1989679  -0.08172782]
[-0.18825869 -0.08431139  0.00791234]
[ 0.01599289 -0.25952938  0.00950953]
[-0.00656422 -0.31385219  0.14770257]
[ 0.04456585 -0.08350836  0.06070706]
[-0.0311659   0.02750104 -0.08572648]
[ 0.01648226 -0.11598738  0.1656484 ]
[ 0.0601497   0.04779802 -0.03236363]
[-0.03297475  0.08846655 -0.20669651]
[ 0.1398859  -0.45700154 -0.04833419]
[ 0.13184735  0.1716516  -0.01709529]
[ 0.05027826  0.20909177 -0.22903854]
[ 0.17999652  0.06107283 -0.17857163]
[ 0.03176941  0.06605554 -0.04441293]
[ 0.13299745 -0.01786743  0.00187487]
[ 0.04773063  0.04006607 -0.0479008 ]
[ 0.08606845  0.0723996   0.03419028]
[ 0.05163932  0.06370955  0.00835263]
[-0.03125312 -0.20272502 -0.15491292]
[-0.04891206 -0.70613313 -0.3377685 ]
[-0.02366349 -0.068248    0.08242179]
[ 0.0963347   0.02079279  0.00731945]
[ 0.08459653  0.05075623  0.00387346]
[ 0.07651455 -0.10945408  0.05594975]
[-0.02199333 -0.04156206 -0.12723957]
[-0.05711938 -0.57446522 -0.23384696]
[-0.07175081  0.02145966  0.04827372]
[-0.02111647 -0.16466241 -0.09981849]
[ 0.01350405 -0.05562995 -0.05004754]
[ 0.0998852   0.00286314  0.09111135]
[-0.04082531 -0.09645606 -0.09647679]
[-0.0199956  -0.00660808  0.03282499]
[ 0.08796371  0.03757296  0.05774077]
[-0.11086104 -0.05580636  0.03964442]
[-0.11194456 -0.27831718 -0.18139127]
[-0.02249266  0.05066539  0.03693931]
[ 0.11100075  0.04553302 -0.0359025 ]
[ 0.02070248  0.03644372 -0.05930418]
[ 0.08309723  0.00404223  0.01845661]
[ 0.00801192 -0.0303701  -0.03478035]
[-0.02395819  0.00700183 -0.04417497]
[ 0.05412395 -0.03145479 -0.0265413 ]
[-0.26393399  0.17353648 -0.00325873]
[-0.09335312 -0.1297763  -0.1584076 ]
[-0.01396806  0.05085581 -0.01317819]
[ 0.09790169  0.08943784 -0.1066774 ]
[ 0.06453691  0.0860339  -0.02722302]
[-0.00278897 -0.13584417 -0.00524725]
[ 0.19919181  0.09598654 -0.11005172]
[ 0.07220296  0.11093829 -0.0672107 ]
[ 0.10852498 -0.02898938 -0.03825295]
[-0.24220356  0.01231799 -0.00106171]
[ 0.06609468 -0.09471149 -0.25153017]
[-0.01856722  0.00934458  0.01554799]
[-0.00808828 -0.0632465  -0.07093916]
[ 0.13089205  0.08168566  0.00170171]
[ 0.0705276   0.01872053  0.01316088]
[ 0.08565914 -0.11041225 -0.05718475]
[ 0.00269823  0.00847642  0.05681355]
[ 0.05740253  0.04059837  0.06267641]
[-0.0492974   0.02918797  0.01043068]
[-0.00856503  0.06679187  0.01732812]
[ 0.03192972  0.04955442 -0.06431271]
[ 0.06363321 -0.06292077 -0.06888086]
[ 0.07945377  0.00402659 -0.21691714]
[ 0.01070311  0.02332024  0.00506098]
[-0.13963228  0.1572351   0.11781841]
[ -4.43486526e-04  -5.21381736e-01  -4.86193269e-01]
[-0.03403715 -0.03588174 -0.18574898]
[-0.0388381  -0.0448139  -0.05748015]
[ 0.01131521  0.06632942 -0.01815045]
[ 0.02806027 -0.00519998 -0.05193048]
[ 0.0228816   0.01148005 -0.02610046]
[ 0.00183483  0.01533046 -0.09761536]
[ 0.05338033 -0.03461654 -0.0319459 ]
[ 0.06049203 -0.13201484  0.12721039]
[-0.04766385 -0.24105643 -0.22268815]
[-0.07232901 -0.0712615  -0.0543038 ]
[-0.01091121 -0.10357462 -0.01299242]
[-0.03690212 -0.11112759 -0.14057085]
[ 0.10803477 -0.02721065  0.02811088]
[ 0.12816943 -0.11436247 -0.12057226]
[ 0.03891606 -0.44177476 -0.34569967]
[-0.02286375  0.00756576 -0.04812793]
[-0.04096484 -0.05479344 -0.04074346]
[ 0.00968033 -0.01090458  0.00664246]
[ 0.07775056  0.00272084 -0.10015091]
[-0.03042952 -0.03812008 -0.01961896]
[-0.02271588  0.0276818   0.02015577]
[ 0.03898636 -0.02487869 -0.03069268]
[-0.00849476  0.00667521 -0.08249553]
[ 0.0065731  -0.62813383 -0.33644915]
[ 0.00921452 -0.07574795 -0.02282878]
[-0.14544378  0.02669659 -0.17717467]
[-0.29339498 -0.70324171 -0.2355338 ]
[-0.12613708 -0.09025526 -0.05940897]
[-0.03735666 -0.06783348 -0.11918661]
[-0.01038309 -0.43468803 -0.12582825]
[ 0.0314976   0.03789364  0.09786679]
[ 0.04489763 -0.01358364  0.04725134]
[ 0.0381305  -0.032673   -0.06076077]
[ 0.03243027 -0.00124343 -0.00154288]
[ 0.051153    0.04473123 -0.02951263]
[-0.01673449  0.00996465 -0.03817295]
[ 0.07418751 -0.07705631  0.06758849]
[ 0.04758537  0.0426591  -0.02033195]
[ 0.07872406  0.04807125 -0.03517877]
[-0.00202457  0.02421567  0.0395084 ]
[ 0.18988647  0.06222943 -0.22998822]
[ 0.19045657  0.07322416 -0.05060007]
[-0.16622506  0.01825222  0.121702  ]
[ 0.11721367 -0.14024867  0.00533621]
[ 0.13061465  0.20564109 -0.21273787]
[ 0.00198469  0.09262901 -0.0848612 ]
[ 0.03348034 -0.01448601 -0.03026903]
[-0.1752646  -0.43159512 -0.01657639]
[-0.21292338 -0.54379183 -0.03703979]
[ 0.10348199 -0.03783945 -0.00805071]
[ 0.06241452  0.01169514 -0.00052019]
[-0.16769707  0.02332675  0.01759006]
[ 0.08103005  0.15442789  0.04037045]
[-0.14441472 -0.46322796  0.08285566]
[-0.15718047 -0.51845342 -0.02115323]
[-0.10952536 -0.14536142 -0.22316384]
[-0.02411269 -0.19721349 -0.17621832]
[ 0.03981079 -0.0628961  -0.1495306 ]
[-0.14788643 -0.1211054  -0.38671523]
[ 0.00519059 -0.0372926  -0.10725502]
[ 0.09174996  0.03817853 -0.15219676]
[ 0.24777381 -0.02231367  0.19553038]
[-0.21650489 -0.1895448   0.1851936 ]
[-0.08288658  0.14356047  0.06209038]
[ 0.13251047 -0.01426561 -0.04555339]
[ 0.12592767  0.04282812 -0.07244932]
[-0.09952261  0.04036272  0.01596357]
[-0.12886181  0.00325594 -0.70956457]
[ 0.01860286  0.13623285  0.09598666]
[-0.01076107  0.19626199 -0.10756238]
[ 0.12133987  0.12999345 -0.15804495]
[-0.14507008  0.29112911  0.01960037]
[ 0.12299889  0.04758141 -0.05672351]
[ 0.20045532 -0.1034281  -0.45016292]
[ 0.21920386  0.09994829 -0.04149   ]
[-0.15987602 -0.01752877  0.07233772]
[ 0.09713718  0.06836221  0.02018158]
[ 0.03221897  0.06898376  0.01150609]
[-0.29109433 -0.01088095  0.0728794 ]
[ 0.04832845  0.16919824 -0.04702746]
[-0.25616029 -0.1300648  -0.02034991]
[ 0.0958913   0.09986653  0.01225554]
[-0.08588967  0.09378427 -0.08760761]
[-0.06437597  0.10217205 -0.01113113]
[ -6.03892913e-05   3.38010900e-02  -3.76568437e-02]
[ 0.00346407 -0.25696132 -0.25117862]
[ 0.12273876 -0.04254616 -0.25717124]
[ 0.04060578  0.09462947 -0.2020459 ]
[ 0.00785294  0.07951821  0.04654529]
[ 0.05776514  0.03891126  0.01399116]
[ 0.0789312   0.03214372 -0.03413869]
[ 0.01334522  0.19527103  0.02430822]
[ 0.08078474 -0.17306159  0.01627181]
[ 0.08128861  0.05727788 -0.10845797]
[ 0.15920883  0.15844746  0.11229114]
[ 0.0257641  -0.32858428  0.09286398]
[ 0.16546275 -0.36111858 -0.1115839 ]
[-0.09096979 -0.13638011 -0.7757563 ]
[ 0.07864728  0.2128368  -0.02699255]
[ 0.00327961  0.19230932 -0.07431568]
[-0.01175671 -0.04948546  0.07382811]
[-0.07642042  0.06286859  0.09827921]
[-0.08375345 -0.02951663 -0.03260138]
[ 0.30560103 -0.05847615  0.2545819 ]
[ 0.05442989 -0.13975804  0.13088258]
[-0.01758211  0.06351982 -0.06088495]
[-0.04249746 -0.02224799 -0.05875589]
[-0.26551101 -0.10160026 -0.08492061]
[-0.0850136  -0.00152288  0.03900997]
[ 0.12725216  0.23229349  0.03110264]
[ 0.03038497 -0.72157133  0.03048516]
[-0.06957972 -0.38388395 -0.05330463]
[-0.10378844 -0.19860226 -0.74081278]
[ 0.15036066  0.14962929 -0.03181705]
[ 0.19882949  0.20409946 -0.00810157]
[-0.10362399 -0.27616593 -0.6012724 ]
[ 0.00068934  0.10150414 -0.13702607]
[ 0.01224907  0.05524441 -0.10943722]
[ 0.05216967  0.0510315  -0.03378426]
[-0.05651615 -0.2537801   0.02450352]
[-0.04773199 -0.70905685 -0.02713527]
[ 0.11858886  0.30692768  0.07274292]
[-0.24501964 -0.14793669  0.10114866]
[-0.26393303 -0.59244078  0.01722654]
[-0.00875552  0.18111561  0.04038992]
[-0.18344678 -0.25842264  0.05848275]
[-0.11874489 -0.55728817 -0.01282357]
[ 0.05065763 -0.03800068  0.02852897]
[ 0.01382079 -0.02600682 -0.0074749 ]
[-0.05794883  0.02620287 -0.00592632]
[ 0.05680723 -0.0118274  -0.02423388]
[-0.04199383 -0.00288929 -0.02933624]
[-0.13101371 -0.01242471 -0.00562402]
[ 0.22489534 -0.16906685  0.08724139]
[ 0.21783659  0.04817688 -0.17502576]
[-0.03747257  0.09330869 -0.02245225]
[-0.02198249 -0.08033127 -0.5105257 ]
[ 0.10440399  0.24427482 -0.09174722]
[-0.0222131   0.07638403  0.05740387]
[-0.09008401 -0.17546123  0.09955035]
[ 0.08377106  0.0866212  -0.05339331]
[ 0.02133051 -0.01684988 -0.13082537]
[-0.08602208 -0.005099    0.03257114]
[ 0.04074727 -0.08441626  0.01412241]
[-0.02116154  0.04639013 -0.02799234]
[-0.09689921 -0.22543907 -0.18439125]
[ 0.01981331  0.11775936  0.03095059]
[ 0.04224742  0.03245455  0.00605596]
[-0.10490725  0.09180789  0.02372851]
[-0.03936641 -0.05582293  0.07501668]
[ 0.01249055  0.02532212  0.01579078]
[-0.01113254 -0.00223187 -0.01078333]
[ 0.16005564 -0.13586889 -0.05329664]
[ 0.03181472  0.09805805 -0.00561296]
[-0.030581   -0.06938852 -0.24848221]
[ 0.18161817 -0.00172722 -0.18150783]
[ 0.10963393  0.11211357 -0.01366751]
[-0.1088695  -0.23761746 -0.02359138]
[-0.12458162  0.01215577  0.07715089]
[-0.00795703  0.17551798 -0.03296021]
[-0.09595553 -0.28263623 -0.15852818]
[ 0.02602089  0.16093853 -0.0736814 ]
[ 0.00469818  0.09405541 -0.08517726]
[ 0.10612234  0.08332736 -0.7184974 ]
[ 0.08727922  0.07861329 -0.51002389]
[-0.05396726 -0.03202627 -0.16539593]
[ 0.08931831  0.17852977  0.05251725]
[-0.22801225  0.02726389 -0.04868663]
[-0.01644388 -0.37873557 -0.03319012]
[-0.01767307 -0.17746618 -0.28409836]
[ 0.1075748   0.21057712 -0.54229009]
[-0.14373532  0.01197303 -0.24948569]
[-0.05362765 -0.0646553  -0.50728023]
[ 0.06384368  0.20886286  0.04431301]
[ 0.06620801  0.10243779  0.31457403]
[ 0.06871327  0.15883061  0.06424791]
[-0.46857613 -0.17620248 -0.02084902]
[ 0.07830077 -0.15318157 -0.03093873]
[-0.10454898  0.03014087 -0.01548059]
[-0.10318989 -0.03906116 -0.00292496]
[-0.12131847 -0.06209997  0.04234887]
[-0.13503329 -0.25015819 -0.09640556]
[ 0.18646695  0.01192155 -0.17620027]
[ 0.01861017  0.1326693  -0.07265226]
[-0.04391589  0.08006005  0.01226734]
[-0.07662181 -0.06179915 -0.02311394]
[ 0.07786756 -0.04912547 -0.04368104]
[ 0.00274163  0.1293841   0.0937469 ]
[-0.25990087 -0.05773239  0.08511763]
[-0.00254193 -0.18072321 -0.06283983]
[-0.02621434  0.06160479  0.0344421 ]
[-0.09465727 -0.28322184  0.13281116]
[-0.0609093  -0.21017987 -0.04549472]
[ 0.19077994 -0.09682681 -0.6512174 ]
[ 0.07392327  0.07139037 -0.62674099]
[-0.06913055  0.01389044 -0.13790402]
[-0.03754755  0.01470038 -0.02577448]
[ 0.04522819 -0.0620086   0.01892725]
[-0.02974109  0.01609178  0.10030141]
[-0.23356506 -0.32696769  0.00726303]
[ 0.15458007  0.10454563  0.1266344 ]
[-0.00060555  0.16242068 -0.0180917 ]
[-0.07501017 -0.14909203 -0.18579695]
[-0.16626044 -0.11538672 -0.13721104]
[ 0.08353288  0.12198216 -0.0484459 ]
[-0.08790585  0.09102941  0.06847001]
[-0.011331   -0.01191281  0.07785617]
[ 0.01925554 -0.00189434  0.06126411]
[ 0.10509412 -0.1561355  -0.57470894]
[ 0.20941448  0.11273073 -0.41927215]
[ 0.08125262 -0.04528781 -0.15076266]
[ 0.07690482 -0.229278   -0.41946593]
[ 0.12343474  0.0267208  -0.49775362]
[ 0.03237249 -0.03194388 -0.18689466]
[-0.06332698  0.01841042 -0.00111664]
[-0.0164041  -0.05578128  0.03591844]
[ 0.03113868  0.02511187  0.0167994 ]
[-0.11838226  0.06617656  0.05045605]
[-0.00589485  0.04119101  0.04232866]
[ 0.01509828 -0.01964997  0.03777666]
[-0.09866686  0.02694671  0.07445036]
[ 0.00720445 -0.04783591  0.06589869]
[-0.02419384  0.01883776 -0.00873141]
[-0.12647699 -0.15629223 -0.09401779]
[-0.07993354 -0.000172    0.09468364]
[ 0.02502339  0.07940566 -0.00575752]
[-0.11003964 -0.22812596 -0.2308953 ]
[ 0.01142437  0.05522334  0.03128341]
[ 0.07186245  0.05819082  0.10438618]
[-0.18790893 -0.42125827  0.21969137]
[ 0.13954037  0.05538234 -0.05240374]
[-0.04877536  0.08933487 -0.17451966]
[-0.12301304 -0.30500075 -0.00798946]
[ 0.02447346 -0.47396648  0.07070851]
[ 0.10965756  0.06346397 -0.10045114]
[-0.29299805 -0.26669863  0.01247971]
[-0.20200722 -0.25906998  0.03185283]
[-0.02154951 -0.12211557 -0.15766463]
[-0.19424412  0.05588604  0.1533666 ]
[ 0.15454243  0.02007304 -0.14995228]
[ 0.03209776 -0.04593312 -0.09712143]
[-0.08923633 -0.23067281 -0.1572984 ]
[-0.02454793 -0.39983106  0.02527141]
[ 0.0416538  -0.15026355 -0.04530642]
[-0.17607121 -0.02586254  0.19406936]
[ 0.0204978   0.05659148 -0.04300341]
[ 0.06893042  0.02145205 -0.14690328]
[-0.29476911  0.10103612  0.15158264]
[-0.04968376  0.09743196  0.04904151]
[ 0.03437044 -0.06466497 -0.17131045]
[-0.1817434   0.11632157  0.14926304]
[ 0.00793214  0.11740816  0.15516806]
[-0.08062504  0.01055924 -0.05389902]
[-0.02872034 -0.43759924 -0.42581823]
[-0.03426107  0.08491399  0.08865409]
[ 0.19922383  0.22822925  0.12901334]
[-0.14306062 -0.35744619 -0.16924909]
[-0.01700358 -0.43455678  0.07053439]
[ 0.05664801 -0.22240552 -0.05152263]
[-0.33394441  0.07320166 -0.025479  ]
[-0.02261094 -0.1003748  -0.02518113]
[ 0.00881202 -0.05173001  0.1590282 ]
[ 0.07833095 -0.03257461  0.0400156 ]
[-0.17757227 -0.15704045  0.08275832]
[-0.27848619  0.16933091  0.22878475]
[-0.23149031 -0.1997828  -0.22635734]
[-0.04341873 -0.25745285 -0.00919315]
[ 0.06767595 -0.12089001 -0.0630199 ]
[-0.02217946 -0.07546145 -0.17240782]
[-0.00955009 -0.02781216  0.09482854]
[ 0.05659426 -0.00597749  0.05444757]
[-0.00671982 -0.00832665 -0.01925108]
[-0.26091534 -0.04615981  0.09488026]
[-0.26491928  0.09703737  0.15880062]
[-0.02104021  0.00276014 -0.05680308]
[-0.10235114 -0.05402677  0.11794318]
[-0.08322848 -0.02400639  0.01740382]
[-0.22736934 -0.02729314 -0.03617422]
[-0.0294059   0.07733131 -0.03988019]
[-0.0072819  -0.08392825 -0.18050893]
[ 0.06130576 -0.01860515  0.02788185]
[ 0.00900278  0.08286861  0.01482596]
[-0.05661714  0.05666383  0.00742762]
[-0.02503505  0.00939051 -0.01992369]
[-0.3437607  -0.1668524  -0.01496297]
[-0.28619602 -0.06699199  0.04819411]
[ 0.29346886 -0.17170811  0.12483234]
[ 0.12466958  0.05411303 -0.04087068]
[-0.20817569  0.19019656 -0.02707065]
[-0.43236449  0.18993074 -0.09846736]
[-0.08151413 -0.04835615  0.02057805]
[ 0.00928913 -0.1077426   0.25142422]
[ 0.17043453  0.01296591 -0.02463058]
[ 0.04579604  0.13369687 -0.01539446]
[ 0.16491194  0.0455267   0.01771773]
[ 0.0669783  -0.22611672 -0.16821623]
[ 0.12024547  0.13167465  0.11235165]
[ 0.12843411  0.04071552 -0.07233153]
[-0.04941155  0.07402416 -0.26816544]
[-0.10785559  0.0283614   0.12622099]
[-0.03598478 -0.05855239  0.06188636]
[-0.30643472 -0.03623412  0.21294469]
[-0.04710238  0.08107428 -0.06352266]
[ 0.09247485  0.0456817  -0.26967096]
[-0.28190875  0.07699204 -0.01387919]
[ 0.11237596 -0.03558858  0.04497689]
[-0.00465825 -0.07423656  0.05735978]
[-0.23431957  0.10626453 -0.07462077]
[ 0.02060958 -0.00792417  0.01333231]
[-0.01065969 -0.08584434  0.14160542]
[-0.1495914   0.02237202  0.12054012]
[ 0.09689196  0.0633112   0.0210837 ]
[ 0.03618478 -0.01498807 -0.17903265]
[-0.22744288  0.0204667   0.16118635]
[-0.01082094  0.01028932 -0.06701303]
[ 0.11051264 -0.01112336 -0.144153  ]
[-0.32871941  0.10999375  0.20958713]
[ 0.03913235  0.06575923 -0.01971065]
[ 0.04321756 -0.0027358  -0.18323135]
[-0.05365195 -0.16088836 -0.28312254]
[-0.0545016  -0.34048274  0.08042651]
[ 0.04543711 -0.16750212  0.05833451]
[-0.05655317 -0.12773345 -0.1628051 ]
[-0.00258095 -0.18245304  0.08460997]
[ 0.0377668  -0.1475834   0.03423327]
[-0.21293058 -0.47232145 -0.24399649]
[-0.12974866 -0.46969181  0.03360416]
[ 0.08111467 -0.32763639 -0.12968396]
[-0.23072915 -0.28992838 -0.03818292]
[-0.47949255 -0.29806611 -0.00999125]
[-0.41451365 -0.15757538  0.07762918]
[-0.04836913  0.03394224 -0.07616375]
[-0.0691135  -0.07981529 -0.08275722]
[-0.07833844  0.00847486 -0.08450627]
[-0.06749394 -0.03594032 -0.05000036]
[ 0.02293492  0.06221554 -0.39896294]
[ 0.0326193  -0.17617875 -0.15113929]
[-0.27226287 -0.50631076  0.04039845]
[-0.60681981 -0.33308607  0.02452276]
[-0.44769144 -0.15939993  0.02491376]
[-0.00030206  0.02882147 -0.23985328]
[ 0.04657748  0.00561585 -0.27653462]
[ 0.07237367 -0.06901535 -0.06553092]
[-0.00666274 -0.08118108  0.00174122]
[ 0.00153845  0.03772309 -0.06480997]
[-0.01314832 -0.10993955  0.02023289]
[-0.04741322 -0.06778856  0.00317281]
[ 0.0394934   0.0213052   0.03151349]
[ 0.05338136 -0.07908888  0.01351594]
[-0.17076732 -0.36592308  0.14211674]
[-0.41904685 -0.20451985 -0.01256596]
[-0.07002222 -0.05256522  0.14738156]
[-0.1167056  -0.34511966 -0.03812666]
[-0.48555297 -0.19772275 -0.00338298]
[-0.43067366 -0.17171727  0.02744633]
[ 0.03848792  0.06972846 -0.24523516]
[ 0.12338326  0.05890151 -0.47307053]
[ 0.10504352  0.03791409 -0.27415696]
[ 0.06536177 -0.0276405   0.17005643]
[ 0.20438008  0.05583003  0.03583023]
[ 0.20940863  0.08142466 -0.03720652]
[ 0.08998191 -0.15963258 -0.25323233]
[-0.01302707 -0.21079712 -0.07878696]
[-0.00932815 -0.2522752   0.00202325]
[-0.20900725 -0.40539458 -0.22410077]
[-0.41003942 -0.23347127 -0.03761549]
[-0.37127507 -0.24799824 -0.04603725]
[ 0.11557713  0.09058976  0.07800756]
[-0.0228021  -0.07564069 -0.00305313]
[ 0.08488952  0.09085085  0.12411983]
[ 0.01225225 -0.03228487 -0.08208547]
[ 0.07575177 -0.06410052 -0.04304107]
[-0.02436698 -0.03513119 -0.00189538]
[-0.06705747 -0.05147687 -0.08283571]
[-0.07970991  0.00507115 -0.13272984]
[-0.08508574 -0.12039854 -0.0874686 ]
[ 0.00818374 -0.06627257  0.07748943]
[ 0.01675948  0.07902846  0.04463267]
[ 0.03626998  0.07547298 -0.05597661]
[ 0.06004703 -0.0578608  -0.02963368]
[-0.08139908 -0.09426827 -0.17398095]
[-0.11886737  0.00414048 -0.00744436]
[ 0.13809887  0.03950106  0.0634315 ]
[ 0.02879444  0.07799035  0.01745218]
[-0.01466449 -0.02195319  0.10292704]
[-0.02683223 -0.04128051 -0.3022857 ]
[ 0.0166814   0.13199291 -0.59228814]
[-0.05079348  0.05117816 -0.24433126]
[ 0.0291481   0.03193163  0.00398673]
[ 0.14811438  0.10237617  0.09605749]
[ 0.05826455  0.0818115  -0.04298403]
[-0.13970658 -0.12610227  0.01905974]
[-0.19410321 -0.10665452  0.0952519 ]
[ 0.00625724  0.042787    0.08831717]
[-0.24291806 -0.42782041  0.09095906]
[-0.57142907 -0.14840539  0.04675461]
[-0.14306828  0.0020645   0.00686088]
[ 0.05313587  0.01657952 -0.07252716]
[ 0.0398915   0.00025329 -0.03442793]
[-0.01176795 -0.08722846  0.02119545]
[-0.01969849  0.04629237 -0.10622471]
[ 0.14567685  0.20449799 -0.25758785]
[ 0.00673901  0.08440048 -0.17674285]
[ 0.02437252  0.0210817  -0.23494232]
[ 0.1593415   0.03772664 -0.50835991]
[ 0.01878453  0.01248604 -0.20073693]
[-0.06791418 -0.00769153  0.10331547]
[ 0.03794281  0.07074651 -0.10049506]
[ 0.06154595 -0.06779909 -0.10126051]
[-0.06188048 -0.06103973 -0.25905228]
[ 0.04775773  0.03410916 -0.49216038]
[ 0.03649945 -0.13481511 -0.26813644]
[-0.01534528 -0.02253618 -0.02328627]
[-0.03266075 -0.05072123 -0.14389591]
[-0.05594651 -0.13127248 -0.15455526]
[-0.32972789 -0.64339954  0.02745813]
[-0.63081574 -0.23582815 -0.0017908 ]
[-0.21518704  0.0207694   0.02840139]
[ -3.98964614e-01  -5.36891580e-01  -1.62235927e-04]
[-0.76602834 -0.31917492  0.0157843 ]
[-0.21559411  0.0152998  -0.00640619]
[ 0.01182346 -0.13793914 -0.06883919]
[-0.15157335 -0.11581343  0.03012731]
[-0.1102786  -0.15357295  0.00263427]
[-0.18588436 -0.03931608  0.1030854 ]
[-0.1574762  -0.01257598  0.01870222]
[ 0.25856513  0.03179685 -0.1288877 ]
[-0.02978817  0.02466024 -0.0848054 ]
[-0.08634124 -0.13064209 -0.11226285]
[ 0.00450729 -0.06047239 -0.09255278]
[-0.12381124 -0.45147595  0.01684695]
[-0.00334503 -0.54343653  0.00588155]
[-0.12137327 -0.16328739 -0.00399572]
[-0.15050156 -0.08478906  0.07299173]
[-0.09281345  0.0587634   0.10096701]
[ 0.32579622 -0.01347245 -0.09500002]
[-0.13904078 -0.83672285  0.04842641]
[ 0.01528555 -0.49344876  0.03984796]
[-0.26647443 -0.19641012 -0.0289156 ]
[-0.03464751  0.04326728 -0.07677069]
[ 0.09986739 -0.15971132 -0.11169544]
[-0.00983999 -0.02237754  0.08279917]
[-0.10778619  0.09316704  0.01533164]
[ 0.08875187 -0.00731069 -0.06966512]
[-0.00034127  0.01245318  0.13421635]
[-0.41965967  0.00711006  0.18345392]
[ 0.14945787  0.0953809   0.03620535]
[ 0.12765197 -0.02655569 -0.23589166]
[-0.11219433 -0.02963334  0.14071468]
[-0.06794376  0.00699303  0.07594799]
[ 0.37228939  0.01756872 -0.09283622]
[-0.08869977  0.13451771 -0.0484532 ]
[-0.40360031 -0.45521796 -0.38135296]
[-0.13675669  0.15287352  0.16829021]
[-0.21181117 -0.00865971 -0.18941632]
[-0.00921822  0.14745022 -0.13001984]
[ 0.02343884  0.25142935 -0.1946898 ]
[ 0.08150077  0.01964849  0.09429672]
[-0.58994508 -0.28969646 -0.15186402]
[ 0.08616921  0.06370509 -0.04903097]
[-0.23286361 -0.08770209  0.13209946]
[-0.23753232  0.05126039  0.12476788]
[ 0.22933841  0.19817781 -0.04158565]
[-0.1985383   0.11194794 -0.05730768]
[-0.0520898   0.02541597 -0.08128437]
[-0.0484299   0.16554755 -0.14956282]
[-0.13144124 -0.01479119 -0.01518256]
[-0.08383809  0.02660461 -0.00190655]
[-0.07179406  0.07319584 -0.01158672]
[-0.00325851  0.03649633  0.08781383]
[-0.01007748 -0.07184486 -0.19265454]
[-0.07689774 -0.09695178  0.04075838]
[ 0.00056036 -0.08011734 -0.05703443]
[ 0.06725588  0.04230838  0.01621237]
[ 0.0687671  -0.0332851  -0.00685091]
[ 0.01222762 -0.18996082 -0.1062769 ]
[-0.06020343  0.01774872 -0.03853212]
[-0.20807147 -0.00455071 -0.14514679]
[-0.19518122 -0.24911626 -0.21660566]
[ 0.07564752  0.11872054 -0.19812933]
[ 0.1373921   0.17478693 -0.17760977]
[-0.06068413  0.1518656  -0.06883183]
[-0.49283904 -0.57009625 -0.26869708]
[-0.14864878  0.18453422  0.1570878 ]
[ 0.00978841 -0.0179018   0.00922509]
[ 0.08752846  0.05753046  0.01999575]
[ 0.01486025  0.10684674  0.05981641]
[-0.33188111 -0.06245041  0.19480634]
[ 0.03428906  0.07241788  0.10277782]
[ 0.1524397  -0.02059677 -0.08960338]
[-0.4231768  -0.05408904  0.05020395]
[-0.06631562  0.0216443   0.08805798]
[ 0.04449659 -0.00498495 -0.20241848]
[ 0.07737982 -0.61771095 -0.06813112]
[ 0.15607558 -0.46603578  0.02127218]
[-0.02574883 -0.19766355 -0.01865216]
[-0.00619966  0.14622805 -0.09511068]
[-0.15224344 -0.64257622 -0.34655783]
[-0.08869721  0.10406602  0.16372636]
[-0.04557831  0.09217232 -0.08889572]
[-0.32065102 -0.33948711 -0.18782753]
[-0.10842732  0.0778811   0.05536576]
[-0.11739321 -0.3132191  -0.01953853]
[ 0.09357408 -0.56420785  0.01018495]
[ 0.04887198 -0.13005744  0.01219973]
[-0.36672208 -0.42529258  0.03968123]
[-0.17288439 -0.61048055  0.00239223]
[-0.37275565 -0.239374    0.04380953]
[-0.0503219  -0.02060916 -0.04423963]
[ 0.12678029 -0.33790216  0.00102902]
[-0.12492166 -0.21913026  0.08301913]
[-0.32127303 -0.02523666  0.10458195]
[ 0.00661965 -0.03319097  0.16086224]
[ 0.12938544 -0.01815854 -0.11037616]
[-0.40584138 -0.03009328  0.08436499]
[ 0.00402643  0.04845283  0.140293  ]
[ 0.30359891  0.00485699 -0.1710536 ]
[ 0.14368519 -0.03261565  0.07307466]
[-0.31409922 -0.01918289  0.06547788]
[ 0.17422232  0.03422692 -0.10254685]
[ 0.06009757  0.02441506 -0.13781343]
[-0.05075682 -0.00527917  0.13206846]
[-0.29121265 -0.03207448  0.03188104]
[-0.00300886  0.02664916 -0.08198581]
[ 0.06878913  0.1158182  -0.00639185]
[-0.00356365 -0.00499297 -0.02042426]
[ 0.00584785 -0.04016045 -0.01053385]
[-0.03672977 -0.33577305 -0.03995677]
[ 0.00727578 -0.38758218  0.05129111]
[ 0.09342407  0.01779768 -0.06599271]
[ 0.10291246 -0.03163674  0.03354611]
[-0.21475478 -0.02083118  0.04252051]
[ 0.03301889 -0.03399136  0.01094958]
[ 0.0140852  -0.77160335  0.02278512]
[ 0.02743029 -0.37096977  0.02868188]
[-0.05211115 -0.29828358 -0.03518171]
[ 0.01280012 -0.01116103 -0.06538723]
[ 0.03264562  0.05176908 -0.11862365]
[-0.14923549 -0.16955239 -0.04808196]
[-0.04284718  0.06455977  0.12143104]
[ 0.06938708  0.01583144 -0.02911412]
[ 0.21853751 -0.00231408  0.10264393]
[-0.32803473 -0.26611081 -0.0304183 ]
[-0.11767609  0.1340871  -0.01607435]
[ 0.08092732  0.01794887 -0.06128715]
[ 0.0580719  -0.01053802  0.05639982]
[-0.24270514 -0.02290305  0.04805879]
[-0.19066709  0.06144075 -0.03543101]
[-0.11953182  0.02777599  0.06297489]
[-0.16702302  0.13036004  0.01260977]
[ 0.08760533  0.16451427 -0.04141594]
[-0.32912081  0.12850319 -0.05526676]
[-0.02084327  0.21038522 -0.08778264]
[ 0.03489777  0.08090016 -0.10722237]
[ 0.0921795   0.00499735  0.09421304]
[-0.29908842 -0.08137084  0.00997815]
[ 0.07395543  0.11821964 -0.11218431]
[ 0.00942482  0.05738562  0.05899731]
[-0.27629888 -0.10825828  0.03482331]
[ 0.0312168   0.08201274  0.02657722]
[-0.29806587 -0.61306506 -0.14584407]
[-0.07047155  0.21471554 -0.00323315]
[-0.13615026  0.01310161 -0.02706512]
[-0.10241145  0.08140178 -0.14898898]
[-0.1825023  -0.03993761 -0.07845285]
[-0.01579399 -0.14508733 -0.13004954]
[-0.02139908  0.04699251 -0.03722701]
[ 0.03614527  0.02006601 -0.10757323]
[-0.00078223 -0.06482236  0.05132803]
[ 0.07232992 -0.05506748  0.07241096]
[-0.03340867 -0.02767718 -0.02885793]
[-0.11436027  0.01124753  0.01902677]
[-0.10067932 -0.34030053 -0.06794043]
[-0.12675627  0.08515707 -0.05192738]
[ 0.11327119 -0.01879691  0.06684434]
[-0.05938485 -0.94444954 -0.13177517]
[ 0.01126237  0.01464646 -0.23812939]
[-0.10763489 -0.01368775 -0.04775275]
[-0.08852451  0.08454152  0.02775695]
[-0.10915135  0.13162868 -0.02440562]
[ 0.01253837  0.03911794 -0.06026935]
[ 0.04895902  0.01651042  0.03230104]
[ 0.03352859  0.04267649 -0.02425139]
[ 0.34597507 -0.07758684  0.1766452 ]
[ 0.04307556 -0.19741055 -0.10691653]
[-0.01445592  0.13300171 -0.06372777]
[-0.0707113  -0.00448645 -0.06507357]
[-0.38627347 -0.19642027 -0.03252453]
[-0.2809048   0.04826282  0.02947034]
[ 0.02148818 -0.06160736 -0.04395599]
[-0.00386292 -0.75587398 -0.07575273]
[ 0.02450629 -0.05539062 -0.01055765]
[-0.19930312 -0.07757726 -0.09648757]
[ 0.00111264  0.13851194  0.14153126]
[-0.07428354  0.01529922 -0.08468414]
[-0.06672435  0.00825046  0.06398199]
[-0.03988412  0.04217425  0.04266629]
[-0.03524516  0.03475651 -0.13069828]
[ 0.02077183  0.05600335 -0.06730527]
[ 0.02048413 -0.32269722 -0.03859169]
[ 0.0170469  -0.58241266  0.01943948]
[ 0.05551553  0.26258096 -0.021148  ]
[-0.04181511 -0.20618707  0.02108004]
[ 0.00493706 -0.40722531  0.01479299]
[-0.06548171 -0.03122126  0.04055807]
[-0.04926979 -0.26028544 -0.00485869]
[-0.02898576 -0.20622954 -0.03295366]
[ 0.14633715  0.03689706 -0.01800788]
[-0.0391557  -0.02561319 -0.01900311]
[-0.22512601  0.03318515  0.03694574]
[ 0.17566943  0.05047479 -0.07635669]
[-0.07083071 -0.0657125   0.07447167]
[-0.11998966  0.01649964  0.03619679]
[ 0.14715837 -0.01039259 -0.08892211]
[ 0.09635644  0.07017293 -0.05834044]
[-0.187525   -0.08930104  0.07934333]
[-0.00719758 -0.13346827 -0.05591359]
[-0.04849491 -0.146759    0.07794146]
[ 0.05952825  0.11354476  0.09059126]
[ 0.09284614 -0.01647206 -0.07218241]
[-0.05543888 -0.01179187  0.013016  ]
[-0.08169709  0.00142837 -0.09149086]
[-0.04408565 -0.04055376 -0.10857704]
[-0.03366502 -0.03556284 -0.06718742]
[-0.02701592  0.02688486  0.09540442]
[-0.06263108 -0.46501952 -0.01002183]
[-0.06338733 -0.05214607  0.02492416]
[ 0.05508823  0.04660614  0.0981625 ]
[-0.03844274 -0.0549607  -0.2004813 ]
[ 0.00827682  0.01565688 -0.18404149]
[-0.0686345   0.01985787  0.13709132]
[-0.06934039 -0.05745841 -0.02930528]
[ 0.01142496 -0.05185501 -0.21478385]
[-0.01801836  0.0868585  -0.13410199]
[-0.06182223  0.03234858  0.08384633]
[-0.0673145  -0.10468036 -0.1163535 ]
[ 0.05561592 -0.00163132 -0.06528875]
[-0.38093415 -0.05398124  0.11734815]
[-0.13243227 -0.03841668  0.08014058]
[ 0.11821333  0.10556152  0.19602871]
[-0.04205209 -0.20178454  0.04842231]
[-0.1242708   0.0315022  -0.00947437]
[ 0.12745966  0.06412593  0.11334638]
[-0.05615656  0.14792375  0.02907338]
[-0.04775752 -0.002071   -0.46059749]
[-0.01632726 -0.30751109 -0.33991766]
[-0.07717147 -0.37338603  0.15369965]
[ 0.09666528 -0.00241538  0.11480643]
[-0.03705265  0.06121595 -0.03531708]
[ 0.0676503   0.03113067 -0.04353624]
[-0.01899403 -0.20069356  0.01688335]
[ 0.16294163 -0.28126082 -0.01604871]
[ 0.06570105 -0.31574485  0.00359413]
[ 0.03200958 -0.57810688  0.04766754]
[ 0.12254211 -0.17818666  0.03489811]
[ 0.02174698 -0.00246916  0.14964513]
[ 0.05808234  0.01999022  0.0011917 ]
[-0.02602796  0.08548281  0.03010362]
[-0.02723487 -0.00094525  0.00168524]
[ 0.01267936  0.00234923 -0.15696408]
[-0.10603074 -0.01994052 -0.19101726]
[-0.07402615  0.10253131 -0.01384764]
[-0.00952427 -0.03369838 -0.09959149]
[-0.06349897 -0.05954533 -0.07962152]
[ 0.05129709  0.06157796  0.00034179]
[ 0.07662299 -0.04405799  0.03024523]
[ 0.04616285 -0.02045893 -0.04303581]
[ 0.06194865  0.00361888 -0.18245959]
[ 0.01203557  0.04027601 -0.12841527]
[-0.03752309  0.02304137 -0.06555992]
[-0.40873605 -0.10801486  0.13267551]
[ 0.13865328 -0.08469802  0.02022986]
[-0.02097957  0.05397066  0.02706734]
[ 0.04798705  0.08545458  0.01391768]
[-0.01998535  0.04849395 -0.39099348]
[ 0.01525228 -0.52231705 -0.25931853]
[-0.02942106  0.04450013  0.04467837]
[-0.08150632  0.06304366 -0.06945881]
[ 0.06190743 -0.00916726  0.04724267]
[-0.27879161 -0.02422143  0.11814949]
[-0.19701166 -0.06990402  0.0546273 ]
[ 0.1518818   0.15414988  0.22700626]
[-0.15679212 -0.65403211  0.0074911 ]
[-0.12464096 -0.26560551 -0.04999415]
[-0.06489895 -0.12905288 -0.00276091]
[-0.03979063 -0.06921065 -0.15984736]
[ 0.01265379  0.00635393 -0.05903828]
[-0.02070964  0.10755833  0.03373062]
[ 0.09225285  0.14733548 -0.04497211]
[ 0.00638393  0.00394751 -0.30527356]
[ 0.13641396 -0.23371331 -0.26388615]
[ 0.02220442  0.07076887  0.02031027]
[ 0.01787232 -0.02940735 -0.330769  ]
[-0.06185002 -0.41584429 -0.14855526]
[-0.06938303 -0.01341594  0.02205024]
[-0.02194885 -0.02282012 -0.05045838]
[-0.03044865  0.04662367  0.11293384]
[-0.0440528  -0.03739195 -0.19031867]
[-0.04102778 -0.03691469 -0.14734635]
[-0.07513005  0.09787949  0.10617121]
[ 0.01019671 -0.00031227 -0.09854764]
[ 0.04561478 -0.02255845 -0.21975075]
[-0.01594855  0.0309659  -0.0656193 ]
[-0.17112759 -0.59071952  0.09140224]
[-0.10476145 -0.05602676  0.00041213]
[ 0.01785403  0.00912758  0.07202983]
[-0.12419344 -0.63898331  0.01044154]
[-0.07637167 -0.1288054   0.09957821]
[ 0.0327791   0.10422448  0.04418962]
[ 0.06025305 -0.07430174 -0.04084652]
[-0.13932422  0.02404291  0.00128529]
[ 0.00903314  0.05728281  0.12109237]
[ 0.00955982 -0.38579634  0.08291291]
[ 0.00904519 -0.30153421 -0.17582613]
[ 0.01115081 -0.2465091  -0.02696379]
[-0.12220713 -0.03131347  0.1140443 ]
[-0.07119625 -0.00049023  0.16239987]
[-0.02099118 -0.17489687 -0.07409294]
[ 0.25448284  0.00781801 -0.02030648]
[ 0.04139778 -0.02452506 -0.08951097]
[-0.09006551  0.06782511 -0.07509169]
[ 0.04472541 -0.32747349 -0.01586812]
[ 0.03540386 -0.3159838  -0.23786685]
[ 0.00551958 -0.30948827 -0.13981678]
[ 0.24203771 -0.01641303  0.00920047]
[ 0.05548503 -0.00662347 -0.01005155]
[-0.08846625  0.03904969  0.02233993]
[-0.18533371  0.04480634  0.03744428]
[-0.1650947   0.02430638  0.07667642]
[-0.17750274  0.04740618  0.00239405]
[-0.36820847  0.08283263  0.01320509]
[-0.34739807 -0.00548116 -0.08418116]
[-0.15184991  0.00797507  0.13302952]
[ 0.10080022 -0.30526039 -0.39335099]
[-0.09636425 -0.18766859 -0.32992688]
[-0.17402942 -0.05204786  0.00481242]
[ 0.11050212 -0.36900327  0.04333946]
[ 0.02436632 -0.31863865 -0.17381459]
[-0.00718802 -0.28813818 -0.16990779]
[-0.46160868  0.08103255  0.0307107 ]
[-0.30056229 -0.03576336  0.14939505]
[-0.1151619   0.1310591   0.07709495]
[-0.01566035 -0.06246407  0.19428502]
[-0.06020158  0.12531285  0.37215289]
[ 0.03729192  0.05752915  0.19450997]
[-0.1123844  -0.02060198  0.18893769]
[-0.04591625 -0.06276178  0.07817154]
[ 0.02991126 -0.0583628  -0.0927472 ]
[ 0.10607693 -0.31063023  0.093129  ]
[ 0.03660145 -0.5562731  -0.1027507 ]
[ 0.03655051 -0.30846015 -0.07779656]
[-0.03563743  0.00415762  0.06744187]
[-0.17902008  0.11751828  0.21790767]
[-0.22328743  0.12842475  0.13274471]
[ 0.03181576 -0.00270662 -0.10283846]
[ 0.0415269  -0.02297344 -0.03633594]
[-0.01592076 -0.10137837 -0.04380895]
[-0.21115567  0.0543589  -0.05718374]
[-0.18090048 -0.02507647  0.06075291]
[-0.04872138 -0.06755915  0.05511535]
[ 0.0560533   0.07124143  0.07036046]
[ 0.00322186 -0.06637571 -0.07742293]
[ 0.01950033  0.03968435 -0.06736875]
[-0.18850011 -0.02446885  0.00972353]
[-0.3707543   0.10475586  0.17180356]
[-0.63300526  0.11508286  0.10229315]
[-0.05925541 -0.04997448 -0.05713776]
[-0.43634269  0.1427408   0.03925636]
[-0.44349676  0.02099612  0.24699669]
[-0.45695162  0.12751767  0.07151017]
[-0.28405729 -0.04598939  0.28297371]
[ 0.05192468  0.10807685  0.17499876]
[ 0.01950738  0.06354264  0.01935737]
[ 0.12369853  0.03709076  0.07528134]
[ 0.0866925   0.12859839  0.06811765]
[ 0.03135735  0.09692033 -0.26851708]
[-0.19539773  0.10301659 -0.33123869]
[-0.19377883 -0.03362637 -0.15973827]
[ 0.05914932 -0.17433786 -0.35522097]
[-0.01220371 -0.46240404 -0.29459432]
[-0.01973759 -0.39061469 -0.07293554]
[ 0.08991833  0.01996511 -0.010715  ]
[ 0.03726599 -0.00947533 -0.01774383]
[-0.22839606  0.05085709  0.10890444]
[-0.3878819   0.03414483  0.06604353]
[-0.26343155 -0.00641462  0.19845739]
[-0.01717326  0.0946834   0.16052441]
[-0.21235095  0.06796204  0.03892503]
[-0.18584065 -0.01665827  0.2221622 ]
[ 0.02395957  0.05384096  0.13326269]
[ 0.12134453  0.01595968  0.0114534 ]
[ 0.14594083 -0.02259101 -0.10936583]
[-0.09898752  0.00440143 -0.042866  ]
[ 0.17257479  0.04038436  0.08350193]
[ 0.09855366  0.02302484 -0.02704869]
[-0.03540275  0.05561657 -0.02966364]
[ 0.12235232  0.02568231  0.04969087]
[ 0.01683719 -0.0093357   0.08577672]
[-0.01974245  0.06689297 -0.02617   ]
[ 0.07450331 -0.38156313 -0.14157715]
[ 0.01532005 -0.76238358 -0.20559573]
[ 0.01440728 -0.4449487  -0.12036718]
[ 0.03497089 -0.3356857  -0.14922616]
[ 0.05535749 -0.53420365 -0.31659162]
[ 0.0721135  -0.46228573 -0.10787287]
[-0.02350988 -0.13640536  0.15232366]
[-0.00173362 -0.19574928  0.07128973]
[-0.03730949 -0.17835997 -0.16608332]
[ 0.15444665  0.03248282  0.05736055]
[-0.23686822 -0.16158128  0.0220682 ]
[-0.4075892  -0.12441514 -0.03075115]
[-0.07913423 -0.07002237 -0.07216565]
[-0.06910121 -0.00713072 -0.0552721 ]
[-0.31709841 -0.08055164 -0.04516832]
[-0.04966427  0.07218007 -0.26807562]
[-0.03239341 -0.07696022 -0.51838923]
[ 0.07675193 -0.1689301   0.09002137]
[ 0.13328023  0.06876034  0.0776805 ]
[-0.11426388 -0.11474566  0.05523548]
[-0.31096181 -0.00700379 -0.0205046 ]
[-0.02757954  0.20747879 -0.13643155]
[-0.0642665  -0.05930869 -0.22790456]
[ 0.04176195 -0.01398524  0.23341697]
[-0.01362714  0.0290497   0.09837855]
[ 0.00418436  0.11065716 -0.11096665]
[ 0.05507188 -0.21958078  0.0225092 ]
[ 0.05491382 -0.00806375  0.10485681]
[ 0.05821791  0.12412129 -0.02141494]
[ 0.08342443 -0.1881085  -0.15212353]
[ 0.09955028 -0.1986375   0.06548843]
[-0.38076812 -0.05740635 -0.0088531 ]
[ 0.36176473  0.06677485 -0.08390844]
[ 0.18187757  0.06111494  0.06615105]
[-0.0744461  -0.07043956  0.04249607]
[-0.45531085  0.00643412 -0.04704656]
[-0.00661052  0.05562577 -0.01291089]
[ 0.05118351  0.11883096 -0.13721916]
[ 0.07012665 -0.16501364 -0.41627631]
[ 0.11149699 -0.25161672 -0.66739517]
[ 0.01278408 -0.00073345 -0.26312083]
[-0.00054996  0.00739777 -0.10523169]
[ 0.06966387  0.08946373  0.0205614 ]
[-0.07250042  0.00379652 -0.03187542]
[-0.68930471 -0.4472506  -0.12609604]
[ 0.1248797   0.14517607  0.05624389]
[-0.04949252 -0.23085466  0.0193954 ]
[-0.41365305 -0.10817015  0.00507814]
[-0.21435387 -0.39974886 -0.69119644]
[ 0.11250989  0.08069708  0.01367249]
[ 0.01665294  0.05572564 -0.03682989]
[-0.05490929  0.0155012  -0.16119778]
[ 0.08430503  0.078812    0.02152981]
[  2.10410468e-02   9.03143734e-02   7.29650055e-05]
[-0.06557731 -0.06745835  0.02614056]
[ 0.02123093 -0.06591644 -0.02330836]
[-0.06077486 -0.24507093 -0.06745947]
[ 0.04822618 -0.04041236  0.01534741]
[-0.00580979  0.05106861 -0.01067012]
[ 0.01158086 -0.00429506  0.00811709]
[-0.18705496 -0.22813426 -0.59773833]
[ 0.0592887  -0.00270436 -0.09711237]
[ 0.02043341  0.04188505 -0.03396389]
[ 0.03053403 -0.04958019  0.14635639]
[-0.14246906 -0.20247686 -0.36352763]
[ 0.10553864 -0.15803355 -0.07294165]
[-0.01279067  0.06930791 -0.01686549]
[-0.00829699  0.08716004 -0.19609231]
[ 0.05335841 -0.44324413 -0.50928396]
[-0.12108359  0.05186287  0.04270253]
[-0.04638745 -0.06186328 -0.07264965]
[-0.0016948  -0.03471564 -0.06355016]
[ 0.15488769 -0.16705632  0.25474072]
[-0.19454964 -0.15741061  0.01476146]
[ 0.25030625  0.03227425 -0.10148805]
[-0.05221681  0.07235128 -0.0411309 ]
[-0.16968332 -0.10104134  0.04632786]
[ 0.09608755  0.06758047 -0.05745734]
[-0.01640722  0.04990502 -0.12420087]
[-0.04097291 -0.17673391 -0.17733544]
[-0.01664849 -0.08101503  0.13652135]
[ 0.06121297  0.11447695  0.02708051]
[ 0.13794686  0.1396949  -0.09986609]
[-0.00445467 -0.37758362 -0.54753274]
[-0.01632989  0.03713836 -0.0317342 ]
[ 0.01208275  0.04545759 -0.17928331]
[ 0.08460971 -0.34313902 -0.44533902]
[-0.01566313  0.0675696  -0.03218253]
[-0.03095529 -0.00072731 -0.36818901]
[ 0.00286529 -0.1806529   0.07441544]
[ 0.00775593  0.16060947 -0.25806782]
[-0.07992622 -0.04028229 -0.35822791]
[-0.01216433 -0.14433812  0.00295353]
[-0.04674292  0.19391723 -0.11016185]
[-0.09840142  0.03452878 -0.25623131]
[ 0.07032854 -0.13279024  0.07610085]
[ 0.05008727  0.04280552  0.00139115]
[-0.17629352 -0.09409206  0.01219402]
[ 0.02778222  0.04287502 -0.03714476]
[ 0.15391052  0.06657963  0.07952911]
[-0.13576898 -0.17148106  0.05062493]
[-0.07502478  0.19137032 -0.02065533]
[ 0.12938219  0.00886486  0.01436849]
[ 0.05698009 -0.09839162 -0.02308325]
[-0.61407584 -0.01915625 -0.02750551]
[ 0.03967956 -0.00204937 -0.56598628]
[-0.03189589 -0.02880818 -0.03850129]
[-0.0309723 -0.1030985 -0.0708482]
[ 0.20589964  0.04067428  0.06124793]
[-0.03518435 -0.03506931  0.04367577]
[-0.05086215  0.06832346  0.04958402]
[-0.61120671 -0.08772998  0.02978487]
[-0.30793288 -0.00214685  0.03887779]
[-0.20316324  0.03888956  0.00714483]
[ 0.034874    0.00976766 -0.65665531]
[ 0.0182673   0.01436106 -0.07141341]
[-0.09112082 -0.1301536   0.02271177]
[-0.36702493  0.02202009  0.03174605]
[-0.24766999  0.01757539  0.04160467]
[-0.08579939  0.04502409 -0.04139609]
[-0.12773682 -0.11057001 -0.02652702]
[-0.06254925  0.02376315  0.10518873]
[-0.10541601  0.11969925  0.07325444]
[-0.27194551 -0.14459333 -0.03570556]
[-0.07457934 -0.00938218  0.18619117]
[ 0.02978883  0.0396973   0.14032383]
[ 0.0379918   0.11503252 -0.429692  ]
[-0.01747111 -0.01773895 -0.09607548]
[-0.11411927 -0.51673228  0.18012421]
[ 0.08335375 -0.0053181  -0.54459172]
[-0.01004308  0.02057403 -0.04062354]
[-0.07115208 -0.1330011   0.00074776]
[-0.67150629 -0.65920633 -0.34802553]
[ 0.00098223  0.03082371  0.02214616]
[ 0.07822926  0.1207692   0.00487269]
[ 0.02141658  0.03458063  0.04104852]
[ 0.13568576 -0.05733886 -0.06090226]
[ 0.17932563 -0.3048445  -0.06741141]
[-0.01306715 -0.26745266 -0.38679808]
[ 0.02429265 -0.00437993  0.00517902]
[ 0.0158681  -0.02236805 -0.00351125]
[-0.04627758  0.04894543 -0.54439336]
[-0.11610179  0.10886061 -0.33187684]
[-0.07556164  0.00736721 -0.19901289]
[ 0.06102556  0.08645411  0.12950759]
[ 0.11115872 -0.07680907 -0.09216619]
[ 0.08644403 -0.17954683 -0.07076189]
[-0.00390396 -0.04058253  0.0048782 ]
[-0.03980977 -0.00123754 -0.04092433]
[ 0.0818162  -0.04649045 -0.13387011]
[ 0.03731644 -0.03744699  0.00923938]
[-0.04228527 -0.11133146  0.13335259]
[ 0.09804017  0.02402567  0.14915735]
[-0.07443415 -0.00640077 -0.01606294]
[ 0.02580413 -0.04362063 -0.04022271]
[ 0.07964648  0.0563749   0.01714515]
[ 0.14091706  0.06730483  0.13667072]
[ 0.34927651  0.01191077 -0.00650182]
[ 0.14769512  0.02707857 -0.12680663]
[-0.02803353  0.03667352  0.01946253]
[ 0.27627265 -0.04911388  0.09858713]
[ 0.20366293 -0.092919   -0.00166043]
[-0.67544776 -0.59399217 -0.39003977]
[-0.01606503  0.01180753  0.03586606]
[ 0.11252403  0.08410491 -0.01250334]
[ 0.07414468  0.01939124  0.09688125]
[-0.02389392  0.10855734  0.03660735]
[ 0.09022137  0.01291595 -0.05562244]
[ 0.03927189 -0.05375202 -0.234451  ]
[-0.04692193 -0.17524564  0.06928162]
[-0.07562473 -0.38055477  0.14416873]
[ 0.06998981 -0.03379642 -0.6061213 ]
[ 0.02104899  0.05582403 -0.27573708]
[-0.09622226 -0.10479484  0.07202367]
[-0.1195031   0.03219863  0.03484146]
[ 0.0598077   0.0030966   0.04785753]
[-0.12403762 -0.01117608 -0.02454723]
[-0.50940621 -0.70811427 -0.3102648 ]
[-0.03441021  0.06208125  0.05607434]
[ 0.15904476  0.09571448  0.01869024]
[-0.69247639 -0.48736784 -0.30098793]
[-0.02128154  0.10907425 -0.00086566]
[ 0.08373656  0.02737181 -0.02056856]
[-0.39470112 -0.02497489  0.01030026]
[-0.12325023  0.02093753  0.01323209]
[-0.17069548  0.00964702 -0.01702548]
[-1.06066346  0.00923228  0.14292172]
[-0.64577764  0.01810678  0.06433313]
[-0.33490673  0.10213092  0.00637574]
[-0.60205668 -0.04154464  0.04273148]
[-0.48783526  0.04966341  0.03391556]
[-0.20029064  0.1086116   0.04485071]
[ 0.11204681  0.04943948 -0.80742258]
[-0.03671689  0.15160182 -0.25472832]
[-0.06122018 -0.19841032  0.04670084]
[ 0.09016693  0.00849253 -1.03533161]
[-0.01223249  0.14246266 -0.01207388]
[-0.08694785 -0.15120904  0.10824674]
[ 0.15754473 -0.13988431 -0.22485234]
[ 0.05038716  0.03110576 -0.12717244]
[-0.03713881 -0.09591031  0.05840542]
[ 0.04577021  0.01646758  0.05197589]
[-0.08753909  0.00891432  0.16709396]
[ 0.05014231 -0.05097525  0.11790994]
[ 0.03062152 -0.04426122 -0.15799657]
[-0.05302409  0.00803898 -0.07703009]
[-0.00653788 -0.02270908  0.03739676]
[-0.28564924 -0.02000462  0.0017412 ]
[-0.24072017 -0.28946692 -0.07407133]
[-0.14868486 -0.15830161  0.1436449 ]
[-0.00184531  0.01685849 -0.10415918]
[-0.01513511  0.05312908  0.08044321]
[ 0.02969945 -0.02809792  0.09282475]
[-0.3551375  -0.02929278  0.03833246]
[-0.03111865 -0.43381864 -0.07599426]
[-0.17871669 -0.15690862 -0.04245901]
[-0.0777433  -0.02128135 -0.12754308]
[-0.04789383 -0.06039066 -0.12778965]
[ 0.05553705 -0.01700633  0.00492958]
[-0.18707106 -0.03319091 -0.13791054]
[-0.06547859  0.11539777 -0.07477525]
[ 0.07043524 -0.05943656  0.05971893]
[ 0.00524364  0.13520055 -0.25494173]
[-0.12876135  0.03504841 -0.24739319]
[ 0.02451643  0.01831605  0.08177853]
[-0.00767986 -0.00410609 -0.03060305]
[-0.00705173  0.00761607  0.13611844]
[ 0.01101933 -0.03635205  0.09994018]
[ 0.04699676 -0.04630757  0.00241472]
[-0.00765649  0.00752431  0.02226055]
[-0.01553799  0.04489747 -0.0222251 ]
[-0.01428009 -0.12819038  0.11062468]
[-0.00821972 -0.73557317 -0.0445904 ]
[ 0.07070551  0.01897909 -0.16639334]
[ 0.00820079  0.02692548  0.01087194]
[-0.06043029 -0.01908183  0.07897577]
[-0.00118053 -0.03167135  0.0482214 ]
[ 0.14003623  0.0769875   0.08101563]
[-0.02083162  0.10167373  0.05769616]
[ 0.02718539 -0.0467701   0.12031055]
[ 0.0283562  -0.03873152 -0.07029365]
[ 0.02102399 -0.43481925 -0.31605271]
[ 0.01185222  0.08867227  0.03092082]
[-0.01718876 -0.05826501 -0.02008078]
[-0.12856427 -0.14643019 -0.00896999]
[-0.07997929 -0.06244695 -0.0727372 ]
[-0.03655624 -0.02576487 -0.29431501]
[-0.05543043  0.0564715  -0.10166517]
[-0.06590809 -0.14619355  0.0055447 ]
[-0.01343571 -0.08163181 -0.02755963]
[ 0.01794623 -0.03216399 -0.01862588]
[-0.07048752  0.05427951  0.00308798]
[-0.05448869  0.10865521 -0.07395789]
[-0.04190357 -0.12039845 -0.19605932]
[-0.05340766  0.11263802 -0.01077509]
[-0.31459221  0.10875399 -0.01979667]
[-0.1857938  -0.50220394 -0.40762368]
[-0.01432678  0.11041712 -0.46173829]
[ 0.03160508  0.01605057 -0.07684676]
[ 0.02691319  0.01573627 -0.01649543]
[ 0.08411053 -0.01091438 -0.05735302]
[-0.03554059 -0.09726977  0.05661616]
[ 0.04826079  0.01538226  0.06240784]
[-0.08077718 -0.00043025 -0.01574426]
[-0.0621781   0.20465255 -0.28105482]
[-0.04536491  0.13672802 -0.29113281]
[-0.03044811  0.04102892 -0.07473888]
[ 0.02855088  0.03041358 -0.0878069 ]
[-0.19469538 -0.06124025 -0.0095032 ]
[-0.04648459 -0.05424605  0.07430268]
[-0.1576191   0.10100791 -0.06371377]
[-0.00893862 -0.13758533 -0.1881396 ]
[-0.11922763  0.13342088 -0.01032659]
[ -1.46678135e-01  -3.08766868e-03   3.65785090e-05]
[-0.05097642 -0.00923308  0.01073165]
[ 0.03154826 -0.02102796  0.00271564]
[-0.01086808 -0.00205041 -0.12831958]
[ 0.01430489  0.04057913 -0.05602525]
[-0.01463322 -0.03444201  0.03147099]
[-0.36528799  0.09099308  0.02106965]
[-0.1722744  -0.16997853 -0.02828552]
[-0.12282718 -0.12749366  0.03264883]
[-0.08600404 -0.21399376  0.06600033]
[-0.21246891 -0.44364709 -0.02096969]
[-0.10186512 -0.28849539  0.19701906]
[-0.1299886  -0.08431029 -0.01308685]
[-0.04175182 -0.21719569 -0.00182093]
[-0.07340388 -0.11495661  0.11499883]
[ 0.09441231  0.06431324 -0.09536029]
[-0.02209689  0.02159815 -0.03667306]
[-0.00316163  0.00324494  0.03570035]
[ 0.0109398   0.0347758  -0.05388147]
[-0.09921756  0.047045    0.10844558]
[ 0.09884965 -0.01926899  0.14049417]
[ 0.0385537   0.01975179 -0.15624782]
[ 0.00229817  0.01707305 -0.01127168]
[-0.11306673 -0.05490636  0.01145449]
[ 0.01187579  0.06784931 -0.21547566]
[-0.14083886  0.0641251   0.04139639]
[-0.00625912 -0.06074832  0.02442314]
[ 0.06168543  0.0768868   0.015269  ]
[-0.09305669  0.00198978  0.0763827 ]
[-0.03938598  0.01147585  0.05583673]
[ 0.00207654  0.00080042  0.0207034 ]
[ 0.05503669 -0.74611318 -0.16090409]
[ 0.00145599 -0.34710279 -0.35046202]
[ 0.04970647  0.02796024  0.00816225]
[-0.00276242  0.03445901 -0.02168228]
[-0.04729785 -0.05637581 -0.01829765]
[ 0.0285194   0.0452002   0.08275956]
[ 0.076686   -0.78499806 -0.02518079]
[-0.01268684 -0.20801948 -0.35167578]
[ 0.02694674 -0.07359853  0.1165273 ]
[-0.01590185 -0.18464166 -0.01280512]
[-0.00204697  0.02063914 -0.0319907 ]
[-0.04509383 -0.11135929  0.04159628]
[-0.0211191  -0.16455783  0.0808363 ]
[-0.0508375   0.01865518  0.10046433]
[ 0.09470743 -0.04901395  0.44276351]
[-0.00769022 -0.30067086 -0.17837347]
[-0.08479519 -0.26478931 -0.19550751]
[ 0.06158821  0.02218848 -0.07843842]
[-0.07979372  0.04586711 -0.0210279 ]
[-0.10878035 -0.06289827  0.01620852]
[-0.10867696  0.10345644 -0.32086283]
[-0.17589259  0.01548287  0.19101243]
[-0.03201872  0.15211266  0.12185869]
[-0.54012203  0.01507545  0.0552808 ]
[-0.23975745  0.21058692  0.03829027]
[ 0.06755675  0.21122181  0.06651852]
[ 0.0859466   0.01909122 -0.45364469]
[-0.18076764  0.0079281   0.07587557]
[-0.14200823  0.00958288  0.00819555]
[-0.13034849  0.08178133 -0.20273134]
[-0.16488703  0.14133944 -0.05274461]
[-0.0231003  -0.02099844 -0.09834597]
[-0.27482578 -0.01462657  0.13020471]
[-0.00418174 -0.10369246 -0.00330578]
[ 0.09075482  0.11590529  0.08088646]
[-0.26380572 -0.10992619 -0.12692559]
[-0.02308598 -0.04087329  0.03937081]
[-0.00352063 -0.05298815 -0.06015367]
[ 0.04378227 -0.04310983  0.00551633]
[-0.03343569 -0.06043815 -0.0378526 ]
[-0.08866519  0.08525357  0.0751875 ]
[-0.05210101  0.06787523  0.05121846]
[ 0.0809312   0.07128031 -0.03079946]
[-0.05318406  0.080814    0.02342702]
[-0.08272086 -0.14143726  0.10530774]
[-0.06000537 -0.06350433  0.00187267]
[ 0.00460682  0.08218485  0.07164906]
[-0.04693265 -0.20255598  0.20445196]
[ 0.0153791  -0.41514921  0.18008628]
[-0.04657878 -0.10205984 -0.33600619]
[-0.08626736  0.07941768 -0.39113313]
[-0.13790214  0.11573917  0.21100309]
[-0.12295357  0.12602858  0.06593544]
[-0.00880834  0.01320703 -0.09738643]
[-0.07277103 -0.04385886 -0.0906973 ]
[ 0.00451385 -0.05605496  0.02638149]
[ 0.27031475 -0.07374065  0.37558743]
[ 0.09660333 -0.40459755 -0.34575051]
[-0.08383357 -0.35005757 -0.2130487 ]
[-0.0732496  -0.09456506  0.04458553]
[-0.02384422 -0.10967582 -0.16789469]
[-0.01608621 -0.15313686 -0.07003065]
[ 0.04947666  0.05905357  0.10501433]
[ 0.07824796 -0.74130374 -0.17807098]
[-0.05176973 -0.0501352  -0.51392031]
[-0.08054102 -0.07304395 -0.36372817]
[-0.15151885 -0.02493292  0.32370609]
[-0.03648544  0.13032477  0.15278758]
[-0.07094581 -0.04362405 -0.25874704]
[-0.12843008  0.00927213  0.12880525]
[-0.06200109  0.15181401  0.04654079]
[-0.0233684   0.07864655  0.09587314]
[ 0.03241221 -0.62592614 -0.07691009]
[ 0.0181814  -0.3796902  -0.27808967]
[-0.0154104   0.3962397  -0.04666056]
[ 0.10677347 -0.6010673  -0.09941778]
[ 0.11306042 -0.54966515 -0.33404192]
[-0.07684401  0.13292103  0.05728815]
[ 0.06145759 -0.70707816 -0.07078672]
[ 0.03933337 -0.23830868 -0.30572125]
[ 0.03398447 -0.01793067  0.08698475]
[ 0.00639101  0.00449249 -0.09362289]
[-0.04659007 -0.12271938 -0.05806124]
[ 0.03342362  0.01193384  0.04424118]
[ 0.10242707  0.0736435  -0.08697176]
[-0.04427103 -0.11449539 -0.0106712 ]
[ 0.25320461  0.05830906 -0.09402775]
[-0.01403088  0.03349935  0.02679689]
[-0.18583354  0.03109629  0.00918797]
[ 0.03792966  0.0618847  -0.00640182]
[ 0.05596285 -0.00908141  0.00669623]
[-0.01489309  0.09245151 -0.067156  ]
[-0.10627923 -0.16784614 -0.09127311]
[ 0.03747648 -0.23481515 -0.13119946]
[ 0.0331009  -0.15418294 -0.06368146]
[-0.02942525 -0.06004838 -0.16937034]
[ 0.06316984  0.01585535 -0.01730962]
[-0.04876005 -0.06088415 -0.01658082]
[ 0.0849004   0.01183687 -0.06468555]
[-0.0101432  -0.01647239  0.03816737]
[ 0.0045486   0.02257086  0.03685089]
[-0.00580208  0.06528987 -0.06664567]
[ 0.04130255  0.05329293 -0.01362081]
[-0.06977694  0.0797044   0.03027001]
[-0.0456587  -0.14454119 -0.06971952]
[-0.08440232 -0.05401547  0.08301297]
[-0.01570751 -0.02269272  0.10712693]
[ 0.05883396 -0.3788096  -0.12165604]
[-0.03613801 -0.11622605  0.0886842 ]
[ 0.08506541 -0.16756657  0.07152411]
[-0.03708286 -0.12188464  0.0358596 ]
[-0.00509191  0.18428648  0.13013819]
[-0.03620176 -0.057298    0.16241282]
[ 0.13384876  0.03343704 -0.07228635]
[ 0.03557292  0.02602849  0.01078541]
[ 0.00451713  0.1025932   0.00736053]
[-0.00742826 -0.5201441   0.17474927]
[-0.40187147 -0.49919388  0.11569478]
[-0.03218063 -0.35094929 -0.11123268]
[-0.03013633  0.23058438  0.22182943]
[-0.39016944 -0.58124304 -0.39795053]
[-0.09232446 -0.23004147 -0.1304756 ]
[ 0.09232555 -0.08615525  0.1297579 ]
[ 0.06395462 -0.14826977  0.01643901]
[-0.00415713 -0.0324284  -0.02062166]
[ 0.12698959  0.02676266 -0.11131275]
[ 0.15102792  0.03999567 -0.03254783]
[-0.04962914  0.09464837 -0.02801184]
[-0.0626645   0.02455772  0.09266278]
[-0.11128152 -0.58829355 -0.419514  ]
[ 0.0551929  -0.2453104  -0.13060692]
[-0.04747969 -0.00859705 -0.05902712]
[-0.01780581 -0.18580808 -0.06301374]
[ 0.05493455 -0.15662271 -0.10044573]
[-0.05090937 -0.37347534 -0.11772069]
[-0.003243   -0.29760465  0.05705696]
[ 0.03801824 -0.30729339  0.04422947]
[ 0.02932804  0.06944182  0.0148603 ]
[ 0.03892387  0.01101004  0.03115342]
[ 0.05552398  0.07422929  0.02233768]
[-0.11454277 -0.07085489  0.13236687]
[ 0.00843596 -0.32657084 -0.32783905]
[ 0.18365079 -0.25767872 -0.10883226]
[ 0.04711339 -0.0943612   0.06160128]
[-0.06227174 -0.07300458  0.07421911]
[ 0.13164935 -0.05310943  0.22200118]
[-0.06655714 -0.36462441  0.13787162]
[-0.58728904 -0.25079432  0.16803971]
[-0.09886783 -0.35037407 -0.09843183]
[-0.02276652 -0.0891913  -0.09379104]
[-0.01344576 -0.03196621 -0.05555729]
[ 0.00080528 -0.05143948  0.00823485]
[ 0.07087617 -0.06078089 -0.01336475]
[ 0.106526    0.12047745  0.12564243]
[ 0.04103594  0.02408504  0.20507461]
[-0.06339408 -0.05639555 -0.11481268]
[-0.01203217  0.00549843 -0.05168245]
[-0.04135531 -0.00038903 -0.0373519 ]
[-0.00636216 -0.04047858 -0.06712544]
[-0.02528733  0.08741765 -0.01946423]
[ 0.05328269  0.04959418  0.02858852]
[ 0.01033923 -0.446482    0.23851994]
[-0.27352166 -0.14647251  0.13127403]
[ 0.14669082 -0.21698511 -0.10232717]
[-0.05585889 -0.16035588  0.11744367]
[-0.51571989 -0.00863071  0.06042706]
[-0.10919821 -0.20697863 -0.03393829]
[ 0.01938447 -0.01888551 -0.08031452]
[ 0.02720802  0.01976872  0.01664927]
[ 0.07068054 -0.00411648 -0.00176166]
[-0.1024605   0.08773884 -0.16469876]
[-0.04870598  0.0448426  -0.05733992]
[-0.07200597  0.08460002 -0.03649457]
[-0.126853    0.00646138 -0.12075711]
[-0.17211147  0.10097803 -0.01990975]
[-0.12457107  0.06474533  0.01394594]
[-0.01871793  0.02042769 -0.00281573]
[-0.00574932  0.0822516   0.03775349]
[-0.02410416  0.12830293  0.04428395]
[ 0.0270784  -0.02087252 -0.07686631]
[ 0.02061459  0.02592445  0.02426851]
[-0.02414156  0.06072105  0.0114924 ]
[ 0.09326337 -0.00664539 -0.00336742]
[ 0.10188961 -0.11107802  0.05490293]
[-0.03180189 -0.04153721  0.03350973]
[ 0.02302401 -0.0317041  -0.65598232]
[ 0.02727782  0.0470584   0.0305977 ]
[ 0.01630261 -0.00059393  0.12701842]
[ 0.00945245 -0.0736424  -0.18008994]
[ 0.05692391 -0.06137171 -0.07698643]
[-0.00198135 -0.07559575  0.00235291]
[ 0.028906   -0.01196019 -0.3016302 ]
[-0.0030713  -0.00947886 -0.05851781]
[-0.01111069  0.03590869  0.03151662]
[ 0.02359582 -0.01297673 -0.32743999]
[ 0.01153288  0.07621225 -0.02970258]
[ 0.01429864  0.04238353  0.15864317]
[-0.01644047 -0.01275347 -0.20210224]
[ 0.04974612  0.0112624  -0.05713403]
[-0.01153948  0.007118   -0.07428755]
[-0.0571133  -0.07472736 -0.120448  ]
[-0.0497619   0.01321148 -0.03087159]
[-0.01124504  0.05911815 -0.06586055]
[-0.09616599  0.02309267 -0.26298413]
[-0.10114798  0.03391822  0.12247251]
[-0.03339317 -0.03510397  0.03438378]
