layers 16
layer 0 Convolution2D
32 1 3 3 valid
[-0.09162562 -0.06846972 -0.03036943]
[-0.1188655  -0.06850657 -0.13736349]
[-0.08866651  0.10288791 -0.02434713]
[-0.27571532 -0.2058095   0.13446958]
[ 0.08597261  0.06133223  0.13718069]
[ 0.14088184  0.1281857  -0.13377497]
[ 0.23697516  0.16987062 -0.06567658]
[-0.02120496  0.10954585 -0.05117051]
[-0.0600854  -0.26567814  0.03997872]
[ 0.33040956  0.21203443  0.1579556 ]
[-0.06083492 -0.01894009 -0.15830241]
[-0.09105312 -0.15586317 -0.24797739]
[-0.03150928 -0.1053139   0.01735439]
[-0.06079051  0.02045924  0.0250245 ]
[-0.11906858  0.06546625 -0.06848892]
[ 0.18827243  0.06833527 -0.11167612]
[ 0.09721183  0.0676193  -0.18576756]
[-0.02605924 -0.00646277 -0.07373695]
[-0.07252853 -0.02520037 -0.05903867]
[-0.11206634  0.03050671 -0.1362637 ]
[-0.10770315 -0.06931052 -0.0913279 ]
[-0.02334574  0.12595825  0.12973653]
[-0.22309989  0.0921409   0.16471568]
[ -3.10756356e-01  -1.50369859e-04   1.17314354e-01]
[-0.21941227  0.04855529 -0.17413838]
[ 0.22292311  0.15688416 -0.04910306]
[ 0.17737316  0.01963339 -0.14908834]
[-0.0033143   0.26811296  0.06240993]
[-0.01230526  0.00800749  0.04137466]
[-0.3010236   0.00385756 -0.10535598]
[-0.02899778  0.23119453 -0.19304661]
[ 0.06938727 -0.01832434 -0.22076456]
[ 0.0214122   0.16488527 -0.25406867]
[-0.29328725  0.21933401  0.20529997]
[ 0.03021172  0.02455117 -0.08136097]
[-0.20528328  0.11576189 -0.01123518]
[-0.06070543 -0.12681133 -0.00705635]
[-0.02760502  0.02483725 -0.06083189]
[-0.06273292  0.07702994 -0.12596063]
[ 0.23209877  0.20354252  0.19738653]
[ 0.05789383 -0.01394217 -0.05403363]
[-0.26004666 -0.18692954 -0.15368272]
[-0.19174266 -0.15077199 -0.00995374]
[-0.03290369 -0.0755598   0.1405447 ]
[-0.06576023  0.26023456  0.12817156]
[-0.23632592 -0.13305959 -0.06131487]
[ 0.13623473 -0.05337876 -0.16579314]
[ 0.24425814  0.16946599  0.10590774]
[-0.20607126  0.06435274  0.0516243 ]
[-0.21289854  0.11453164  0.1576691 ]
[-0.19847524  0.21350484  0.05495041]
[ 0.05909738  0.086153   -0.1700725 ]
[-0.09080105  0.04871757 -0.01030784]
[ 0.08904814 -0.11929858 -0.01616007]
[-0.01342604  0.11792721 -0.09918232]
[ 0.05883068  0.13910255 -0.19437023]
[ 0.08228023  0.04891644 -0.13236384]
[ 0.20966153  0.13516602  0.08471631]
[-0.09790855  0.14001647  0.00837607]
[-0.19469115 -0.13458103 -0.13142149]
[-0.30207115 -0.32970309 -0.1474656 ]
[ 0.06779238  0.01864199 -0.00459847]
[ 0.18042524  0.34471643  0.15530472]
[ 0.29409313  0.03926638 -0.31968608]
[ 0.28696859 -0.1367259  -0.20553459]
[ 0.21339822 -0.05131504 -0.14181097]
[-0.05768557 -0.07084378  0.06923399]
[-0.03169937  0.0652179  -0.02202726]
[-0.04299112 -0.01690725 -0.0951181 ]
[-0.10365711  0.0975      0.08582691]
[-0.0375222   0.06543019  0.06345665]
[ 0.08699612 -0.07386049  0.03107399]
[-0.12400874 -0.01910391 -0.10793467]
[ 0.07909948 -0.11143514 -0.13653642]
[-0.10104828 -0.06265634  0.050193  ]
[-0.03569943  0.03516084 -0.1806941 ]
[ 0.06850793  0.03620245 -0.08529343]
[ 0.14644498  0.08637936 -0.09054305]
[-0.00132548 -0.17785569 -0.23066673]
[ 0.18786582  0.0340798  -0.02645113]
[ 0.18741593  0.04950768  0.03977934]
[-0.07523868 -0.06589221  0.12974618]
[-0.33900258  0.18072107  0.13533032]
[-0.33261266  0.17692369  0.14374807]
[ 0.02272189 -0.15428062 -0.1431226 ]
[ 0.33520174 -0.11884233 -0.12409408]
[ 0.29087791 -0.08852526 -0.14033449]
[-0.23400615 -0.24585602 -0.22072041]
[ 0.06359734  0.13712281  0.12660629]
[ 0.00961746  0.29003975  0.10828141]
[-0.01741183 -0.23159237 -0.01231713]
[ 0.22409606 -0.1091867  -0.17630406]
[ 0.27104312  0.11579017 -0.00500694]
[ 0.15124494 -0.08205428 -0.23249608]
[ 0.21207085 -0.13590334 -0.16633335]
[ 0.17454588  0.0074345   0.07741444]
[ -4.26458335e-03  -1.15505774e-02  -4.14075553e-02  -9.68600652e-05
  -2.17634514e-02   9.57813859e-03  -2.69179116e-04   1.80697404e-02
   3.17646540e-04   1.64116714e-02   6.69509023e-02   4.38194908e-03
   7.45054660e-03   2.30001472e-02  -8.02293420e-03   1.86971799e-02
   1.62943378e-02  -2.63446923e-02   2.04518829e-02  -2.47566984e-03
   6.42956048e-02   8.57901722e-02  -1.38468677e-02  -1.72619373e-01
  -8.98346025e-03  -1.42027745e-02  -1.61135141e-02   7.30618313e-02
   6.99438676e-02  -3.28335189e-03  -6.20028423e-03   5.93545102e-02]
layer 1 Activation
relu
layer 2 Convolution2D
64 32 3 3 valid
[ 0.04768617  0.0026124   0.01676278]
[-0.0226414   0.05459141  0.05853136]
[-0.06941549 -0.05464394  0.04501763]
[-0.00733541 -0.06617764 -0.00664488]
[ 0.03990126 -0.08537904 -0.07212612]
[ 0.04582957 -0.0647627  -0.02372514]
[ 0.00270711  0.05570108  0.01839088]
[-0.20362724  0.03661224 -0.03951642]
[-0.13497497  0.0126142   0.02013418]
[ 0.14542051 -0.12670454 -0.03169396]
[-0.28242463 -0.05464721  0.01048065]
[-0.17145357 -0.08899302 -0.08996616]
[ 0.07130878  0.02159911 -0.00092004]
[ 0.04146746  0.04332599  0.01628899]
[ 0.06395409 -0.02330062  0.05449837]
[-0.08779134  0.05651677  0.02622817]
[-0.2597467   0.06453501  0.01064384]
[-0.13099705  0.00672895 -0.04915755]
[-0.06484637 -0.0201708   0.06722657]
[-0.05621795  0.00145729  0.04563103]
[-0.02368373 -0.02762733  0.07046197]
[ 0.02659175 -0.01596987  0.02430185]
[ 0.0358574  -0.19406132 -0.12356412]
[ 0.05828581 -0.14461246 -0.04476581]
[-0.25741202  0.11240192  0.06836996]
[-0.17643195  0.00491901 -0.05616001]
[-0.09972324  0.07165814 -0.01587496]
[ 0.00011111 -0.11073679 -0.10919653]
[-0.10347378 -0.0596936  -0.07315051]
[ 0.09739441 -0.06228374 -0.08446083]
[ 0.05093179 -0.03741384 -0.07880551]
[ 0.03216447 -0.07474459 -0.0424188 ]
[ 0.03205054 -0.02028745  0.00534522]
[-0.16012338  0.03092208 -0.05998413]
[-0.04364382 -0.07277017 -0.24354424]
[ 0.03101438 -0.10725368 -0.14029789]
[-0.06485968 -0.01588239 -0.07961132]
[-0.03084306  0.06868913  0.06096666]
[-0.07696445 -0.06405786  0.03171514]
[-0.00102723 -0.11684947  0.07230965]
[-0.21648872 -0.05477461 -0.04139354]
[-0.18600695  0.04274277  0.02894402]
[ 0.05605937 -0.12828398 -0.0096429 ]
[ 0.12948291 -0.10064344  0.02470808]
[ 0.03221224 -0.10219456 -0.10458955]
[-0.3439734   0.02061926 -0.03631838]
[-0.3751654   0.05273728  0.10308883]
[-0.20346831 -0.07779275  0.05142483]
[-0.01468962  0.04952933 -0.17942548]
[ 0.05376378  0.0316197  -0.18216206]
[ 0.08206446 -0.01967491 -0.20385432]
[ 0.06204014  0.10150424  0.04601678]
[-0.03080676  0.13212447 -0.03311616]
[ 0.0147807   0.02722395  0.0677163 ]
[-0.05326036  0.00628324 -0.05427461]
[-0.04508701  0.02790326  0.04238629]
[-0.08823714  0.01955896  0.0596038 ]
[-0.06568509 -0.01599444  0.00955394]
[-0.1541004  -0.07798997  0.03759364]
[-0.12463111 -0.09905308 -0.02214202]
[ 0.09852176  0.01191797 -0.01289081]
[ 0.14587474  0.01687133  0.09117387]
[-0.00411542 -0.13104923  0.15880556]
[-0.40578988  0.06249512  0.02196367]
[-0.52832735  0.04827994  0.06793743]
[-0.32290202  0.01382947  0.09317845]
[ 0.07652021 -0.03118809  0.04566949]
[-0.01444664 -0.03881393 -0.06050295]
[ 0.05425582  0.02494532 -0.08264445]
[-0.08626608 -0.04445824  0.00621569]
[-0.00219973  0.00832777 -0.01244124]
[-0.04780056 -0.0520411  -0.0155804 ]
[-0.00777451 -0.08130802 -0.0003878 ]
[-0.01136456 -0.04404897  0.02857401]
[ 0.03813059  0.04623062 -0.00158208]
[-0.24628849  0.05462164  0.07103914]
[-0.14398591  0.1184502  -0.01391996]
[-0.06839249 -0.07843506 -0.0464088 ]
[-0.4585906  -0.04881722  0.09019762]
[-0.4233039   0.05663229 -0.03157847]
[-0.358749    0.01279621 -0.03015696]
[ 0.18416275  0.06392736 -0.1552075 ]
[ 0.24629502  0.00662603 -0.06395718]
[ 0.28553247 -0.08444715 -0.08500475]
[-0.17663407 -0.08466027 -0.21422146]
[-0.1441009  -0.04482437 -0.18550746]
[-0.09531655 -0.09761807 -0.13036709]
[-0.02388765  0.01420162  0.00990908]
[-0.01223942 -0.04658582  0.08314819]
[-0.12807719 -0.0234793   0.0322815 ]
[-0.50280046  0.08891822  0.01737562]
[-0.48409143  0.09394617  0.01657922]
[-0.32125643 -0.09872501 -0.0343961 ]
[ -5.02416432e-01   4.27306804e-05  -4.06978056e-02]
[-0.60001785  0.07356717  0.09286295]
[-0.54390872  0.01321379  0.09041479]
[ 0.02571047 -0.0522591   0.06706291]
[ 0.00596173  0.03343457  0.07362282]
[ 0.00616672 -0.08113963  0.06734883]
[-0.15773377 -0.01653982  0.20657094]
[-0.01198227  0.09493026  0.0671559 ]
[ 0.03769084  0.07672536  0.10228743]
[ 0.13108556  0.04978748  0.05495778]
[-0.07260824 -0.05158706  0.07957426]
[-0.00073366  0.0066783   0.22585012]
[-0.04453618 -0.17805329 -0.09588452]
[-0.16539687 -0.17885587  0.01923699]
[-0.25047535 -0.05510931 -0.04452215]
[-0.07164253 -0.04769695  0.04048085]
[-0.05509935 -0.01891452  0.02836913]
[ 0.03379896 -0.0057293   0.07476345]
[-0.03420297 -0.32693678 -0.03683618]
[-0.01081935 -0.27834556  0.12217446]
[-0.09340166 -0.15709232  0.11163585]
[ 0.03341185 -0.07258832  0.04083043]
[ 0.00122907 -0.01932556  0.00398467]
[ 0.07293781  0.0042196   0.05429312]
[-0.04872322 -0.09056804  0.1085896 ]
[ 0.03650533 -0.05077349  0.07450963]
[ 0.01887549 -0.00768756 -0.04971338]
[-0.1763528  -0.11580562  0.04244316]
[-0.24790318  0.01574307  0.08801792]
[-0.18282226 -0.02355402  0.16516596]
[-0.05641026  0.00353221 -0.04453316]
[-0.13855706 -0.10705632  0.01219639]
[ 0.10238473  0.07705618 -0.10650447]
[-0.07756508 -0.00738871 -0.00252482]
[ 0.01407093  0.05204885  0.02369164]
[ 0.04569523 -0.02232162  0.04302318]
[-0.21003641 -0.21451023  0.14037132]
[-0.0744368   0.03140994  0.04415546]
[ 0.15927093 -0.06682846 -0.04402184]
[ 0.04053341 -0.0273506  -0.02441281]
[-0.01373247  0.06613772  0.01874843]
[ 0.05905559 -0.04519308 -0.0717757 ]
[ 0.03272779 -0.11409911 -0.19555624]
[-0.10677635 -0.17868444  0.03436226]
[ 0.00619307 -0.0541099   0.01864761]
[-0.1456597  -0.04154179  0.14328101]
[ 0.08477862 -0.02676822 -0.01082225]
[-0.02236527 -0.03591399  0.02903534]
[-0.19914383 -0.1465894  -0.06781177]
[-0.1733336  -0.17429942  0.01738253]
[-0.06015985 -0.14319345 -0.09575851]
[-0.09218804 -0.05453288  0.02666794]
[-0.04834616 -0.07807949 -0.01239426]
[ 0.05710662  0.03830198 -0.03013091]
[ 0.04413755  0.05529205 -0.04980088]
[ 0.10262807  0.08535878  0.09286565]
[ 0.03401242  0.16071866  0.09138051]
[-0.17578317 -0.05702223  0.13533331]
[-0.22716238 -0.09531588  0.12576972]
[-0.29572093  0.0584504   0.04367083]
[-0.08918252 -0.03608356 -0.12720717]
[-0.25739741 -0.13702983 -0.02963584]
[-0.03590276  0.13998979  0.11940229]
[-0.20628801  0.07083189  0.07918409]
[ 0.04900967  0.14208761  0.05277681]
[-0.07068077  0.05542239  0.0183361 ]
[ 0.11155637 -0.36002252 -0.20156962]
[ 0.07030927 -0.26333952  0.01327632]
[-0.02090018 -0.18476553  0.08808509]
[-0.01459867  0.00920306 -0.07223283]
[-0.01577419  0.02092166  0.06701596]
[ 0.00662742 -0.01990658 -0.00263217]
[ 0.04126098  0.05792717  0.1273019 ]
[ 0.04166345  0.05435108  0.09083886]
[ 0.05434646  0.10173877  0.16373256]
[ 0.01277233  0.06474985  0.05656502]
[ 0.07179464  0.01596552  0.01033663]
[ 0.07067209  0.01948775  0.07487044]
[-0.1462819  -0.10516532 -0.00724984]
[-0.14883618 -0.14182191  0.15223332]
[-0.10291088 -0.05646717  0.09820832]
[-0.06977899 -0.25030833 -0.11359359]
[-0.07245062 -0.16883346  0.07013658]
[-0.11477777 -0.17399256  0.09923594]
[-0.04330541  0.0898786   0.10883121]
[ 0.14183499  0.0775965  -0.02003302]
[ 0.14554682 -0.07628929 -0.12365553]
[-0.09444195 -0.15837918 -0.02467693]
[ 0.01268024 -0.03104527 -0.03914981]
[-0.07333788 -0.09029547  0.0468156 ]
[-0.13005814  0.06064876 -0.04778633]
[-0.01822245  0.0476293   0.04721781]
[-0.12062897 -0.022253    0.08377291]
[-0.03143354 -0.21432154 -0.13575915]
[-0.14131118 -0.24150056 -0.07900273]
[-0.01982216 -0.16458106  0.04310504]
[ 0.02260397 -0.10690872 -0.22027002]
[ 0.06285524 -0.26978886 -0.13413769]
[ 0.0382456  -0.28115839 -0.05715217]
[ 0.05946179 -0.04230942 -0.05434056]
[ 0.02055755  0.08146884  0.08359074]
[-0.02430447 -0.02796695 -0.05413456]
[ 0.0302244   0.0153332  -0.23820037]
[-0.12284823  0.04156998 -0.13037279]
[ 0.02540366  0.01782284  0.04506965]
[-0.1953115  -0.29345906  0.03254426]
[ 0.01968756 -0.12976217 -0.03287318]
[ 0.1565773   0.03749648  0.14893228]
[-0.22091644 -0.06255914 -0.01204394]
[ 0.02171534 -0.11344329 -0.26912114]
[-0.05978522 -0.08673752 -0.062934  ]
[-0.06683616 -0.03807103 -0.04763121]
[-0.01876537  0.00399395  0.07693354]
[ 0.08157428  0.01380404 -0.00210806]
[ 0.05105153 -0.11752985 -0.03588784]
[ 0.083506    0.02153736 -0.00105238]
[ 0.0853954   0.00205346  0.13813509]
[-0.03526147 -0.01475656 -0.04048383]
[-0.08307885 -0.02476046 -0.05493836]
[-0.02936994  0.07054388 -0.06467077]
[-0.23540311 -0.05297599  0.00826684]
[-0.11557434 -0.10352209 -0.10219356]
[ 0.03861347 -0.0698747  -0.19488958]
[-0.00678143 -0.00843922  0.02295932]
[ 0.01022692 -0.09776317  0.06092544]
[ 0.04165217  0.01180442  0.13649721]
[-0.22386672  0.06054524  0.1466338 ]
[-0.34640342 -0.25913131 -0.04754249]
[-0.10013302 -0.01663265 -0.25644997]
[ 0.05346904  0.03583258 -0.06569237]
[ 0.11380442 -0.08382148 -0.05138405]
[ 0.17117372 -0.04590515  0.01919857]
[-0.07571379  0.23836525 -0.1048374 ]
[-0.15087889 -0.12474442 -0.10581374]
[-0.26057354 -0.0328025  -0.12922461]
[-0.02011438 -0.01049718 -0.01718999]
[-0.01884077 -0.06087473 -0.0002839 ]
[ 0.02256522 -0.06517064 -0.01803201]
[-0.32271382 -0.25284114 -0.09189451]
[-0.348887   -0.29623806 -0.30325726]
[-0.08408755 -0.17820314 -0.09700089]
[-0.0933473   0.01166611 -0.06356105]
[-0.04541136 -0.0155048  -0.12744671]
[ 0.04578723  0.11439176 -0.11383536]
[ 0.11085074  0.0451612  -0.10491992]
[-0.08013742 -0.07450446  0.00256315]
[ 0.08535165 -0.06302709  0.09260013]
[-0.322712    0.0270517  -0.14515422]
[-0.20063652 -0.06598226 -0.06069809]
[-0.0500855   0.0361563  -0.01885173]
[-0.09874023 -0.12687959  0.06408722]
[-0.0177296  -0.06989729 -0.01210745]
[ 0.056744   -0.06582939  0.09440682]
[ 0.0006416  -0.08894881 -0.05426779]
[ 0.07662681  0.05606497  0.03148998]
[-0.05739051  0.05896172  0.00296979]
[-0.48731169 -0.27346647 -0.00615945]
[-0.28973207 -0.34263515 -0.2004471 ]
[ 0.1840643  -0.01144096  0.0254641 ]
[ 0.15957616  0.00481735  0.02881135]
[ 0.10820642  0.21237701  0.08183253]
[ 0.04796871  0.18691461 -0.0049962 ]
[ 0.0604025  -0.04832621  0.04239625]
[ 0.11777167  0.00760319  0.03589233]
[-0.00879692 -0.03941447  0.19868767]
[-0.05602965 -0.00102788  0.00723478]
[-0.06568842 -0.0084778   0.04289673]
[ 0.0373797  -0.03768264  0.07348377]
[ 0.00495299  0.17715307  0.12311494]
[ 0.08374612  0.1157563  -0.06631386]
[ 0.23377237  0.06071737 -0.0114074 ]
[-0.01105247 -0.08219923 -0.00939705]
[-0.0014745  -0.02301479  0.04822729]
[-0.02719675 -0.02475796 -0.02493347]
[-0.03586788 -0.08052862 -0.01881945]
[-0.07991735 -0.0163096  -0.04431742]
[ 0.01785284 -0.07350416  0.11508775]
[ 0.07491335 -0.06246536  0.08403592]
[ 0.05316846 -0.06722447  0.06815962]
[ 0.04334196  0.06810655 -0.04953144]
[-0.41983914 -0.23698664 -0.11388846]
[-0.44738603 -0.20928235  0.01097925]
[-0.26392904  0.02120182 -0.08317679]
[ 0.04950834 -0.00576198 -0.02676791]
[-0.03472793 -0.05094622 -0.0840507 ]
[-0.04774143  0.10078572 -0.02263823]
[ 0.03817356 -0.13421556 -0.14346857]
[-0.05965324  0.00157328  0.06400584]
[ 0.13447665  0.06389412 -0.07396571]
[ 0.06596433 -0.00063003 -0.04065485]
[ 0.04146291 -0.03020265  0.05518789]
[-0.00918586  0.01136622  0.12117803]
[ 0.11768604 -0.10214026  0.00815916]
[ 0.12937401  0.10515377  0.04412442]
[ 0.12534545  0.12145647  0.02711669]
[ 0.02753977 -0.03985636  0.06568028]
[ 0.06554536  0.04495391  0.05114393]
[-0.05053389  0.02249831  0.02571777]
[ 0.31185144 -0.0779444  -0.11221693]
[ 0.08975546 -0.09173033 -0.15955888]
[ 0.11838086 -0.08923659 -0.10372233]
[-0.25201851 -0.02590041 -0.01330375]
[-0.05376734  0.05337525  0.04494298]
[-0.06479927 -0.00989036 -0.06888167]
[-0.2419997  -0.18198194 -0.04787682]
[-0.11235984 -0.16283731  0.01108153]
[-0.00152074 -0.13634124 -0.25867611]
[-0.00087698 -0.00271458  0.08136915]
[ 0.04784263  0.06944474  0.07756189]
[-0.03245868 -0.0756731  -0.01796278]
[-0.17207663 -0.0894536   0.03796624]
[ 0.06584269  0.02077642  0.02447445]
[ 0.02236309  0.02776972  0.05751109]
[-0.03872031 -0.04094635 -0.03689801]
[ 0.02150943  0.05473448 -0.04150849]
[-0.01209609 -0.05516201 -0.03197039]
[ 0.12997101 -0.13589899 -0.01845084]
[ 0.02551029 -0.14522588 -0.07993725]
[-0.06031939 -0.14310996 -0.01328183]
[-0.02033408  0.08899708  0.02822039]
[ 0.12486555 -0.04119777 -0.01438921]
[ 0.09591223  0.03478142 -0.05575157]
[ 0.08212482 -0.02313695 -0.09615102]
[-0.08772223 -0.14380005 -0.10168527]
[-0.09021272 -0.07132388 -0.07701579]
[ 0.0405031  -0.1483656   0.10489734]
[ 0.05605781 -0.13271649  0.02137233]
[ 0.07015017 -0.12915207  0.09811787]
[ 0.0924425   0.09474715 -0.0305821 ]
[ 0.07697576  0.07384261 -0.08591588]
[-0.09438007 -0.01051271 -0.07489704]
[-0.00710245 -0.07282352  0.03938719]
[-0.00067132 -0.06249808 -0.00887231]
[-0.01696116 -0.07736818 -0.03998177]
[-0.22915889 -0.00798252  0.05346287]
[-0.09807543  0.009806    0.08553503]
[-0.08494244 -0.01814765  0.04552819]
[ 0.25305009 -0.12636033 -0.05260585]
[ 0.10280493 -0.10556367  0.00201881]
[-0.00206162 -0.16147245  0.09824102]
[ 0.03986924 -0.05450034 -0.10148343]
[-0.04090317 -0.01399697 -0.20264451]
[ 0.03407468  0.0665824  -0.18004052]
[ 0.06938609  0.02102137 -0.00982264]
[ 0.07439682 -0.06969441  0.00232056]
[ 0.02988524 -0.09015725  0.09351704]
[-0.12882565  0.06429007  0.07237057]
[ 0.06957054  0.0183431  -0.03472204]
[ 0.08409512  0.08531491 -0.05527228]
[ 0.01278982 -0.04944415 -0.02885529]
[ 0.08128197 -0.08355157 -0.01125523]
[ 0.10414097 -0.08455903  0.05795922]
[-0.16207105 -0.17684023 -0.09923764]
[-0.16304815 -0.20973761 -0.01207908]
[-0.00778711 -0.13001871 -0.14076623]
[ 0.23556486 -0.0266651  -0.12644419]
[ 0.24392124 -0.07356137 -0.19796844]
[ 0.04954248 -0.14604986 -0.11997712]
[-0.1965033   0.08428975  0.15345547]
[-0.0832203   0.13804223  0.13227537]
[-0.00606284  0.09785952  0.11784339]
[ 0.05320992  0.02547876  0.05859076]
[ 0.03951704 -0.03353735  0.0434634 ]
[-0.03383626  0.02178716 -0.04159999]
[ 0.05526131 -0.10004193 -0.08474671]
[-0.04425892  0.00135715 -0.17763412]
[-0.03640462 -0.04836571 -0.11102522]
[-0.0751356  -0.01521169  0.06558272]
[-0.0777907   0.05465166  0.07416625]
[ 0.00196414  0.02165503  0.06828217]
[-0.03315259  0.02390474  0.05528171]
[-0.00112128  0.04554347  0.02374263]
[ 0.10379741  0.0471864  -0.03349501]
[-0.27072883 -0.01723064 -0.06183194]
[-0.20435779  0.04291672 -0.11892713]
[-0.07723943  0.04172077 -0.10508488]
[ 0.05113991 -0.08787526 -0.10059474]
[ 0.035475   -0.11883844  0.02277792]
[-0.1854825  -0.21635085  0.00616941]
[-0.176851    0.0050552  -0.13679694]
[-0.16232643  0.02103765 -0.0494579 ]
[-0.11035518  0.14152539 -0.14104864]
[ 0.0100153  -0.06364325 -0.29208648]
[ 0.00661919 -0.18725373 -0.22809422]
[ 0.01797141 -0.29759181 -0.26218918]
[-0.21755035 -0.02376462  0.04834444]
[-0.28151149  0.01883885 -0.07647535]
[-0.19318035  0.13891572 -0.12013971]
[-0.30892545  0.01845799  0.11367565]
[-0.1458659   0.12046113  0.104673  ]
[-0.18590371  0.07464281  0.09022341]
[ 0.07032177  0.00935331  0.03259213]
[-0.01646735  0.04428597  0.01220151]
[-0.00255709 -0.00390369 -0.03675233]
[-0.07120264  0.01132142 -0.13787423]
[-0.08827275 -0.05604829  0.04548662]
[-0.25325742 -0.19377288 -0.12267071]
[-0.01637537 -0.0573344  -0.06664427]
[ 0.17146352 -0.03854512  0.02884381]
[ 0.10293316  0.01798251 -0.05512227]
[-0.12234014 -0.19404827 -0.16337451]
[ 0.0425493  -0.17042981 -0.02697519]
[ 0.16910951  0.08444048  0.01650153]
[-0.0509699  0.0312384  0.0459153]
[ 0.08105917 -0.08123994 -0.07203016]
[ 0.0330167  -0.07912825  0.00165123]
[ 0.05906578 -0.03882989  0.06325632]
[ 0.06216004  0.05646146  0.10174848]
[-0.02060729  0.04814483  0.06825364]
[-0.04582683  0.02525778 -0.00355812]
[ 0.00684179 -0.06203232  0.02508303]
[ 0.0111655  -0.04512774  0.08079392]
[-0.42334756 -0.38739777 -0.1210311 ]
[-0.05252628 -0.2183556  -0.2407131 ]
[ 0.10342558  0.04540333 -0.23784426]
[-0.04858449 -0.04102286 -0.03126745]
[-0.02810013  0.00258127 -0.0291611 ]
[-0.05837371 -0.13414025 -0.00514965]
[-0.39569184 -0.49184293 -0.12309959]
[ 0.01286419 -0.15481432 -0.15956414]
[ 0.22636859  0.16060276 -0.03765404]
[-0.00626804 -0.02558076 -0.01241994]
[-0.07710686 -0.01843286 -0.08986396]
[-0.0443737  -0.01165383 -0.0649556 ]
[-0.4386155  -0.22619544 -0.07058594]
[-0.27100551 -0.27183595 -0.0653867 ]
[-0.15797143 -0.10607056 -0.2048362 ]
[ 0.07991896  0.01605496  0.02952249]
[ 0.07081942 -0.06227979  0.04513018]
[-0.08106208  0.07181843 -0.03519508]
[-0.3776111  -0.43149945 -0.1359766 ]
[ 0.01168421 -0.03536772 -0.10865504]
[ 0.17812911  0.19289795  0.20141715]
[-0.19710095 -0.15272962 -0.06533189]
[-0.07732784  0.0014475  -0.16754626]
[-0.10452293 -0.21442227 -0.12666121]
[ 0.04788619  0.00329884  0.02857877]
[-0.01740861  0.00726933  0.04144584]
[-0.21564168 -0.19722494 -0.13332699]
[-0.32095373 -0.24523857 -0.08608341]
[-0.14103895 -0.08696397 -0.05945853]
[ 0.07193826 -0.00662559 -0.16500483]
[-0.00331048  0.06325593 -0.01352504]
[ 0.09174889  0.01545163 -0.04479511]
[ 0.03742544 -0.03713002 -0.06217093]
[ 0.03471051 -0.02602467 -0.02959283]
[ 0.03220502  0.00557863  0.10602308]
[ 0.00875055 -0.03705058  0.14084938]
[-0.29505599 -0.4172132  -0.23046276]
[ 0.0593142  -0.07125441 -0.14077477]
[ 0.12643225  0.1882908   0.07507136]
[ 0.09087332  0.18325557  0.09909075]
[ 0.09264707  0.18518582 -0.02656315]
[-0.3301039  -0.31210634 -0.27660865]
[ 0.1509393   0.00834977  0.02890342]
[-0.05018973 -0.03207894  0.09519742]
[-0.04717792 -0.00931994  0.07119262]
[ 0.04528258  0.04188302  0.01318511]
[ 0.00887096 -0.03391343 -0.07781095]
[ 0.07851008  0.0067936   0.02516272]
[ 0.04627136 -0.00894829 -0.06485339]
[ 0.12469769 -0.03545927 -0.19851583]
[ 0.07981535 -0.05776811 -0.06604433]
[ 0.0438684   0.06280873  0.02927404]
[-0.03402999  0.06384201 -0.00756592]
[ 0.04087663 -0.02174411 -0.03876962]
[ 0.03570206  0.05040774  0.02364692]
[ 0.03221317  0.04593949  0.07465544]
[-0.10149106 -0.13290046  0.02960115]
[ 0.09571954  0.06469206  0.0635957 ]
[ 0.06499808  0.07313831 -0.03870491]
[-0.10469837 -0.1591724   0.01325587]
[-0.5350737  -0.20416574 -0.02038642]
[-0.24510039 -0.0907106  -0.1660357 ]
[ 0.05102969 -0.05173349 -0.16389002]
[-0.01702738 -0.08055812 -0.07870965]
[ 0.00245964 -0.03113626  0.00625357]
[-0.0169219  -0.06518678 -0.03967843]
[-0.06931881  0.05040787 -0.0987956 ]
[ 0.12917416  0.03826698 -0.11986763]
[-0.2609008  -0.20812367 -0.23741966]
[ 0.08327106 -0.01491591 -0.06540075]
[ 0.00453271  0.01539427 -0.02192404]
[-0.1591243  -0.10529265 -0.05922944]
[ 0.15908709  0.02737203  0.06159098]
[ 0.06853481  0.08780536  0.15497085]
[-0.13088526  0.03658933  0.07595474]
[ 0.03887127 -0.01427127 -0.05553479]
[-0.00612738  0.05907354 -0.03689339]
[-0.02219129 -0.03470865 -0.03955862]
[ 0.36317456  0.11521772 -0.25263765]
[ 0.22872284 -0.16463873 -0.42180353]
[-0.14994256 -0.02407921  0.06366653]
[-0.31825402 -0.03452672  0.09773839]
[-0.24155797 -0.02104066  0.11758686]
[-0.05884409 -0.07995136 -0.09466457]
[-0.54031575 -0.44644237 -0.09564554]
[-0.43700936 -0.31195813 -0.2303254 ]
[ 0.05976718 -0.18417209 -0.114453  ]
[-0.03212797  0.0619482   0.07634076]
[ 0.06396338  0.06075212  0.06397553]
[-0.07612997 -0.08123177  0.04134903]
[-0.32146844 -0.02439099  0.0861323 ]
[-0.0313894   0.00659491  0.0888228 ]
[ 0.13034616 -0.04490055 -0.01517771]
[-0.08293549 -0.00632903 -0.01045614]
[-0.06523831 -0.00601193  0.06325161]
[-0.07229582 -0.02358249  0.01990366]
[ 0.15850432  0.09291735 -0.01345226]
[-0.08791338  0.00938436 -0.00961991]
[-0.30913636 -0.10209353  0.14579479]
[-0.01755956  0.03261324 -0.04572251]
[ 0.09120596 -0.04913276 -0.19690852]
[-0.00838375 -0.01255871 -0.08168884]
[-0.11182366  0.22218989 -0.0304784 ]
[-0.23975529  0.08359274  0.11548923]
[-0.26346055 -0.19765253  0.0920952 ]
[-0.06750461  0.03200227 -0.06960455]
[-0.23086968 -0.08721199 -0.13978025]
[-0.12442079 -0.01897142 -0.07965881]
[ 0.07342667  0.09791093 -0.12057721]
[-0.10758602  0.04457735 -0.01815462]
[-0.15969804 -0.19803187 -0.0307878 ]
[ 0.03215471 -0.0748222  -0.05578728]
[-0.02424518 -0.06163609  0.07810935]
[ 0.01221706 -0.0619487   0.0152796 ]
[-0.11950714  0.09105194  0.19634269]
[ 0.0681114   0.10846354  0.19196586]
[ 0.0564749  -0.00029067 -0.11859561]
[ 0.15937436 -0.0889319  -0.25034323]
[-0.11717977 -0.23439348 -0.05452155]
[-0.22949725  0.01361152  0.07301605]
[ 0.12018709 -0.3371664  -0.3683818 ]
[ 0.1840653   0.13483857 -0.06706133]
[-0.01126485  0.06243851  0.20162372]
[ 0.11781943  0.18579482 -0.17781927]
[-0.04920153 -0.0531395   0.01401747]
[-0.36805338 -0.18135817  0.15944563]
[-0.09183006 -0.00975212  0.09231003]
[-0.05753431  0.08587062  0.08426602]
[ 0.11281922  0.12074393  0.05624983]
[-0.23853317  0.07127177  0.16278303]
[-0.00994205  0.05656405  0.05951132]
[ 0.04246654  0.03853533 -0.0979987 ]
[-0.16267271 -0.01473224  0.05049119]
[-0.13738054 -0.01526759  0.01503917]
[-0.23745745 -0.24134339  0.00197794]
[ 0.13548122 -0.74173939 -0.83790892]
[-0.07080468 -0.53489697 -0.32194483]
[-0.06398757 -0.02663821  0.17713895]
[-0.18934479 -0.11622007  0.14333026]
[ 0.0376597   0.04379171  0.03114319]
[ 0.18842357  0.00142341 -0.02455668]
[ 0.01152028  0.03777917 -0.0544957 ]
[-0.03524206  0.00081202 -0.0323674 ]
[-0.0417571  -0.04906474 -0.01083132]
[ 0.04431887  0.07603228  0.07087115]
[ 0.17067863  0.04521619  0.01056549]
[ 0.10943016  0.01232448 -0.05041193]
[-0.04588292  0.03564648 -0.07603411]
[-0.00174005 -0.07975954  0.04137357]
[ 0.01666669  0.0819239  -0.05103253]
[-0.06229638  0.08761328  0.00553944]
[ 0.04243712 -0.07008585 -0.09740468]
[ 0.01376745  0.03211866  0.0264395 ]
[ 0.00231531 -0.21681024  0.07513998]
[-0.0325119  -0.10984571  0.01310766]
[-0.00714916  0.05965267  0.14451943]
[ 0.11241762  0.19391118 -0.16484606]
[-0.14062992 -0.19314751 -0.01131161]
[-0.25017369 -0.08800513  0.16703328]
[ 0.06817393 -0.10620202 -0.05053677]
[-0.00121905 -0.3407293  -0.19676597]
[-0.06249427 -0.41506094 -0.31314287]
[-0.13207103 -0.5405457  -0.53679943]
[-0.20935844 -0.62799096 -0.35845712]
[-0.09370223  0.05689495  0.30194825]
[ 0.00699634 -0.13619091  0.01601848]
[ 0.07480492 -0.02429288  0.04924676]
[ 0.00493834 -0.04468503  0.08445573]
[-0.10201091 -0.21358079  0.14721732]
[-0.01409739  0.03243128  0.07173619]
[ 0.15615784  0.09651843  0.03038783]
[ 0.04568184  0.05082797  0.00890231]
[-0.05849471 -0.02622956 -0.03565477]
[ 0.07138456  0.01174832 -0.01957182]
[-0.01905326  0.03601423 -0.04645684]
[ 0.01028947  0.04883729 -0.04346659]
[-0.00738328  0.0026363   0.04460563]
[ 0.08892722  0.01355653 -0.03070732]
[-0.0308765   0.06365284 -0.04291699]
[ 0.02790071  0.02989411 -0.03811538]
[ 0.08438105  0.04260395 -0.16646841]
[ 0.04092263 -0.12333713 -0.22964387]
[ 0.00036944 -0.17195188 -0.22228502]
[-0.05034504 -0.00778602 -0.06989472]
[ 0.08050323  0.00405069  0.06808575]
[ 0.05450714 -0.00841796 -0.03097296]
[-0.03976212  0.11103654  0.04738898]
[ 0.02837715  0.02301559 -0.14063375]
[-0.01392252  0.04768838 -0.08840688]
[-0.01083658 -0.05354628 -0.01401822]
[-0.08186131  0.06283031  0.01693342]
[ 0.05943102 -0.03752675 -0.02875071]
[-0.02800601 -0.24794593  0.09008078]
[ 0.05633269 -0.2039056   0.14984745]
[-0.09355789 -0.15490349  0.04481459]
[ 0.0407003   0.00607629 -0.06329259]
[-0.04861507  0.06103328 -0.09197787]
[ 0.03014018  0.05748882 -0.15938248]
[ 0.13968968 -0.20526618  0.0511876 ]
[ 0.11581159 -0.27774554  0.0132627 ]
[ 0.11421244 -0.14568152  0.09995576]
[-0.0485186  -0.12626532  0.02871788]
[-0.05711024 -0.1376408  -0.04352656]
[-0.06460702 -0.03321882 -0.1031372 ]
[ 0.03834633 -0.3928566   0.07710949]
[ 0.06457373 -0.36597982  0.18342207]
[ 0.02872473 -0.41562927  0.18704796]
[ 0.02004169 -0.07343726 -0.00388439]
[ 0.06561212  0.01721854  0.07298019]
[ 0.02623515  0.00022176 -0.05390807]
[ 0.19703536  0.10655592 -0.03209708]
[-0.00422195  0.04319725 -0.04999848]
[-0.02332909  0.08029834 -0.00287912]
[ 0.02776181 -0.09732568  0.0120429 ]
[-0.04675599 -0.13943937 -0.02296215]
[-0.08874967 -0.00239309  0.19286665]
[-0.07309145  0.07723743 -0.15313852]
[ 0.00532436 -0.05012869 -0.16941398]
[ 0.01162765  0.0130464  -0.11951773]
[-0.07019571 -0.27695477  0.14141987]
[-0.00157693 -0.31416461  0.09732916]
[ 0.04371921 -0.29513407  0.20083103]
[-0.03395605  0.11729856  0.07879765]
[ 0.03464757 -0.0250912   0.03749434]
[ 0.02085174 -0.03248985  0.08438678]
[ 0.09041221 -0.01227542  0.0222451 ]
[ 0.06239327  0.08105548 -0.17415653]
[ 0.04515111  0.02428494 -0.23403123]
[ 0.10526759 -0.02129953 -0.02669904]
[ 0.07591972  0.00889402  0.03435382]
[ 0.13219163 -0.06239168  0.0140846 ]
[-0.02819641 -0.14017491 -0.00173858]
[ 0.03786446 -0.13815518 -0.00480821]
[ 0.00212855 -0.08399116  0.14300041]
[-0.08468713  0.02955748  0.07528626]
[-0.12832323  0.14133142 -0.0273994 ]
[-0.02472598  0.03491369 -0.09366208]
[ 0.04653088 -0.07862553 -0.03152233]
[ 0.07968691  0.04352998 -0.07775217]
[-0.04786221 -0.01349162 -0.03775197]
[ 0.05404757  0.08926466  0.10922082]
[ 0.13759765 -0.02045559  0.02784345]
[ 0.00383571 -0.02450054  0.08793512]
[-0.08327653  0.03556037  0.06444187]
[-0.04196988  0.03611903  0.02071279]
[ 0.01756662 -0.07418927  0.06092956]
[-0.03024925  0.11902567 -0.10025784]
[-0.08881167  0.07369745 -0.01858886]
[-0.03354919 -0.03556905 -0.17180265]
[-0.15465546  0.01768766 -0.0462026 ]
[-0.18104392  0.10606806 -0.02347   ]
[ 0.02978713  0.11034261 -0.09111205]
[-0.06521621 -0.33511534  0.0954162 ]
[-0.13698277 -0.17459172  0.00492611]
[-0.11821158 -0.27224398  0.11036204]
[-0.25805098 -0.0325777   0.09663507]
[-0.31016043 -0.07063393 -0.0677029 ]
[-0.16468289 -0.12889855 -0.1677444 ]
[ 0.10560761 -0.19206779 -0.12621188]
[ 0.02723742 -0.19179299 -0.0752569 ]
[-0.09946623 -0.1929833   0.05783007]
[-0.21842331  0.06430915 -0.00624548]
[-0.12667437  0.05835438  0.04528563]
[-0.11023254  0.02840756 -0.0342152 ]
[-0.15502754  0.09094322  0.0687374 ]
[-0.16488899  0.11235365  0.08784465]
[-0.1695296  0.0518943  0.0888292]
[-0.02143105 -0.02417275 -0.00656834]
[-0.05113184 -0.05745009 -0.06709102]
[-0.01920761 -0.00793664  0.01366623]
[ 0.05721723 -0.06524269  0.01712669]
[ 0.08710331 -0.08668254  0.05577606]
[-0.06251744 -0.3244974  -0.08753114]
[ 0.06088151  0.08884353  0.01390221]
[-0.09628826 -0.05977349  0.0749589 ]
[-0.00686975 -0.04184505 -0.07896935]
[ 0.1237634  -0.1412293  -0.04970981]
[-0.11864217 -0.09457387 -0.0653244 ]
[-0.09750228 -0.09300178 -0.04693378]
[-0.06236942  0.07517454 -0.03206896]
[ 0.07605106 -0.02181667 -0.03918004]
[-0.05010832  0.0649199  -0.04962569]
[-0.1598237   0.13599715 -0.01034177]
[-0.22451895  0.0825539   0.07385118]
[-0.17808361  0.05237561  0.06018953]
[ 0.0212896  -0.04591439  0.03711007]
[ 0.07348133 -0.08309258  0.06362219]
[ 0.02167951  0.02838281 -0.07535139]
[-0.00820003 -0.00382107 -0.05980713]
[ 0.00462651 -0.03474133 -0.09662232]
[ 0.10211506 -0.02483778  0.0369502 ]
[-0.06394612  0.05330892 -0.07380525]
[-0.07313268  0.10040902 -0.05166451]
[-0.22503676 -0.0865918   0.02144586]
[-0.04555969  0.01200558 -0.01852202]
[-0.03585663 -0.13374829 -0.02009957]
[ 0.08610808  0.04997026 -0.10535634]
[ 0.05426662 -0.1659456  -0.07957234]
[ 0.10799789 -0.1457012  -0.13034259]
[-0.03912797 -0.05609027 -0.0381953 ]
[-0.10254852 -0.10862732 -0.1517529 ]
[ 0.03197059 -0.03992406 -0.22078142]
[-0.08263633 -0.02285977 -0.11990578]
[ 0.02814462 -0.06809688  0.01862051]
[ 0.08005863  0.00867313 -0.07475553]
[ 0.01198697  0.04135228 -0.03711136]
[-0.08902906  0.13785096  0.06689823]
[-0.14599976  0.01289359  0.17562148]
[ 0.08242617  0.20609981  0.03635647]
[ 0.02195955 -0.14907189  0.03978597]
[ 0.02441346 -0.03043447  0.01221975]
[-0.07996677 -0.08787932 -0.07518788]
[-0.18011226 -0.03425368  0.03836671]
[-0.27751905 -0.04012153  0.04017273]
[-0.55895609 -0.23636937  0.04456799]
[ 0.09751077 -0.08686838 -0.15238002]
[ 0.05734375 -0.05261425 -0.2378666 ]
[-0.03357017  0.0225723  -0.05932981]
[ 0.13550411  0.0661324   0.06366804]
[ 0.04382619  0.06637978 -0.0181158 ]
[-0.02248971  0.07313185 -0.03922792]
[ 0.04173774  0.00805253 -0.0502836 ]
[ 0.05366534  0.14404981  0.0514626 ]
[-0.05778977  0.02290335 -0.0107889 ]
[-0.10719731 -0.06926011  0.13611265]
[-0.04383429  0.03701844  0.03421798]
[ 0.06194259  0.01199711 -0.00810215]
[ 0.09570059 -0.08048386  0.16302802]
[-0.03653187  0.06017214  0.23537913]
[-0.41265088 -0.38498807  0.06148003]
[-0.47900367  0.07436313 -0.01463777]
[-0.43832359  0.02363807  0.03313034]
[-0.42481178 -0.00734458  0.04489326]
[-0.00484999 -0.03920427 -0.06598956]
[ 0.06975489  0.03427377  0.04398733]
[ 0.02169232  0.06417715 -0.0720571 ]
[ 0.09477703  0.07050885  0.09211743]
[ 0.03998117  0.05220398 -0.05203554]
[-0.11624037 -0.07746781  0.01171883]
[-0.07516883 -0.01105053  0.06947725]
[-0.04626993 -0.02221104  0.00162361]
[ 0.0277174  -0.05731533 -0.00712218]
[-0.14585781  0.03915562  0.00452794]
[-0.12880507  0.09032787 -0.0360617 ]
[-0.12820005 -0.04892645 -0.05598504]
[-0.51117098  0.11613717 -0.0524568 ]
[-0.41458464  0.16529705  0.01091209]
[-0.31233636 -0.06041041 -0.06901222]
[ 0.21563895 -0.04240865 -0.19608782]
[ 0.14484185 -0.0386725  -0.18933803]
[ 0.15589412  0.14992943 -0.05042954]
[-0.27829605 -0.09116662 -0.24038363]
[-0.05377522  0.00547787 -0.07439978]
[-0.13013594  0.04465206 -0.04552359]
[-0.05677837 -0.01977832 -0.0721419 ]
[ 0.0111705   0.0905183  -0.01485962]
[-0.51475805 -0.29246673 -0.01439239]
[-0.60153294  0.05920323  0.04912047]
[-0.46477613  0.10559426  0.05692599]
[-0.29871011 -0.07898166  0.02310268]
[-0.57101935  0.13153109  0.09035756]
[-0.49745587  0.12068284 -0.02581793]
[-0.53735584  0.02879272 -0.03620223]
[-0.06119172 -0.0323474  -0.06148192]
[ 0.06961888 -0.01434685  0.01018708]
[-0.023941   -0.02518694  0.04531038]
[ 0.13749897 -0.01677062 -0.00275528]
[ 0.04094363  0.04192309  0.00930512]
[-0.12298983 -0.00169236  0.14603597]
[-0.10453742 -0.04974585  0.07893778]
[ 0.09666327  0.08861559  0.05404013]
[ 0.04805107 -0.01191278  0.02330574]
[-0.23315522 -0.11224422 -0.02219063]
[-0.03117889 -0.10890852 -0.22288622]
[-0.01777794 -0.1650403  -0.35448158]
[-0.06599525  0.02423042  0.03592179]
[ 0.03858565  0.05305179 -0.00631744]
[ 0.04533148  0.0315086  -0.07667638]
[-0.08806183  0.06245165 -0.04545179]
[ 0.03626817  0.04269094 -0.06992104]
[ 0.0695651  -0.15057673 -0.02342128]
[-0.06008013  0.03981532 -0.04791929]
[-0.01878023  0.07249361  0.03372297]
[-0.06876826 -0.03213333 -0.03138409]
[-0.05819585 -0.07151551 -0.07317328]
[ 0.00490669 -0.08584024 -0.08164205]
[ 0.07759865  0.12763083  0.00043701]
[ 0.05002241  0.06800004  0.00202546]
[-0.03542361 -0.08471631 -0.03220174]
[-0.08155525 -0.13602242 -0.07462847]
[-0.05668826 -0.05123479 -0.07060119]
[-0.01118822 -0.01480163 -0.05081189]
[ 0.08683474  0.01037633 -0.09062634]
[-0.03359521  0.0384226   0.07477042]
[-0.04040963  0.03318421  0.05808989]
[-0.10333339 -0.1138211  -0.06017337]
[-0.05916772  0.09632839  0.00174316]
[ 0.02092291 -0.0178747  -0.04413476]
[ 0.0143754  -0.00759841 -0.04154914]
[ 0.04273241 -0.07598913 -0.04076635]
[ 0.08246641 -0.07776248 -0.0374556 ]
[ 0.02929627  0.04694879  0.05856738]
[-0.16835485 -0.12155855 -0.07004431]
[ 0.0785059  -0.0137414  -0.07476304]
[ 0.11503249 -0.01503697 -0.15524624]
[-0.06374442  0.00601919 -0.03406603]
[ 0.01587175  0.05944652 -0.0464724 ]
[-0.0727011  -0.0141242   0.01352589]
[ 0.12788805 -0.0193222  -0.09505981]
[-0.04985737  0.042886   -0.01457127]
[-0.14592746 -0.00806308  0.04258746]
[-0.04656214 -0.07186188 -0.04229604]
[-0.00715438 -0.12590417  0.04616944]
[-0.01275233  0.01376774  0.02698455]
[-0.04101797  0.05384249  0.07285434]
[ 0.02064986  0.03142912 -0.00738228]
[-0.02296625  0.01114874  0.09396715]
[ 0.0474307  -0.06538493 -0.03694389]
[ 0.04478635  0.02996947  0.00894323]
[-0.05718015 -0.05679827 -0.04372453]
[-0.11657797 -0.03852072 -0.1199173 ]
[ 0.06476194  0.07560935 -0.15386853]
[ 0.07660259  0.10783029 -0.16584486]
[ 0.05791474  0.11167595 -0.14726715]
[-0.05720107  0.03592441  0.09549017]
[-0.30901426 -0.00300112  0.09311574]
[-0.09078095 -0.06081004  0.02418365]
[ 0.03893131 -0.05483069  0.05152909]
[ 0.08972772  0.00056454 -0.03680976]
[ 0.02647212 -0.04036292 -0.079701  ]
[-0.00184574 -0.00544613  0.02877987]
[ 0.02240294  0.08251041 -0.041604  ]
[-0.02782456 -0.06433744  0.0493809 ]
[-0.06384701 -0.04063953  0.05120341]
[ 0.02677745  0.06477269  0.03040496]
[ 0.03898408 -0.01565647  0.00639203]
[-0.00266149  0.02990464  0.07822938]
[-0.04358993  0.04199226  0.00162044]
[-0.00549686 -0.06270942 -0.0702398 ]
[ 0.04564522 -0.04479465 -0.03650839]
[ 0.02208653  0.0452767   0.08492786]
[ 0.00965287 -0.0785412  -0.03330784]
[ 0.05555272 -0.03586334 -0.05408929]
[-0.09462483  0.00089216 -0.06035995]
[-0.04990418 -0.1340186  -0.0903578 ]
[ 0.01817143 -0.11890847 -0.0958457 ]
[-0.02220698  0.09511026 -0.01168597]
[-0.06400386  0.03414081 -0.05082889]
[-0.26446563  0.00539232 -0.1434989 ]
[-0.22589417 -0.15564568 -0.04516916]
[ 0.10195863 -0.08219714 -0.12374397]
[-0.03697317  0.0590193   0.04562741]
[-0.11520462 -0.05835083  0.16902363]
[ 0.07753673  0.07540356 -0.03413313]
[-0.07103064  0.08876909 -0.04343395]
[-0.13725719 -0.09899947  0.041589  ]
[-0.01945595 -0.07803433 -0.08060993]
[ 0.00799307  0.12529233 -0.05168949]
[-0.13256383 -0.08828374  0.04869435]
[-0.00425964  0.00975006  0.02409267]
[ 0.04149037  0.08215421  0.03069414]
[ 0.0063853   0.03027201  0.07233464]
[-0.09000974  0.12291906  0.13110778]
[ 0.11821823  0.08528356 -0.08477508]
[ 0.12893531  0.05643992 -0.03101792]
[ 0.01989811 -0.07989652 -0.13094422]
[ 0.03596246  0.07975806  0.16565821]
[ 0.04225243  0.18921123  0.04892581]
[-0.02947436 -0.13526462 -0.14749412]
[-0.03530017 -0.03086149 -0.08771131]
[-0.13070574 -0.12852603 -0.13980804]
[-0.02458908 -0.052705   -0.03458171]
[ 0.07852007  0.06772288 -0.01284503]
[ 0.00279017  0.02700119 -0.00198841]
[ 0.08365857 -0.24904683 -0.14796537]
[-0.11156661  0.01891105 -0.00544503]
[-0.06580725  0.11489832  0.10971297]
[-0.06197199  0.03577328 -0.08204211]
[-0.04295587 -0.00829136  0.03278133]
[ 0.04517315  0.00372828 -0.06685886]
[-0.14309022 -0.10975733 -0.05978223]
[ 0.07442486 -0.04643003 -0.03168252]
[ 0.08354884 -0.02469913 -0.03838674]
[-0.01642971  0.02861234  0.19240867]
[ 0.10154182  0.12759416  0.02822365]
[ 0.14201285  0.0349412  -0.00300184]
[-0.12632126 -0.19655816 -0.1716245 ]
[-0.07677117 -0.08585412  0.01103719]
[-0.01111788 -0.08080434 -0.1008165 ]
[ 0.03765225 -0.01699534  0.01020596]
[ 0.06579346 -0.04662759 -0.02677358]
[ 0.00563509  0.02433181 -0.03492637]
[-0.18275128 -0.08744733  0.08055426]
[ 0.01593615  0.03167391  0.05712577]
[ 0.08077932  0.08881883  0.07554948]
[-0.05344029 -0.07223492 -0.05626286]
[ 0.02988621  0.03346057 -0.01712671]
[-0.03309486  0.02938229 -0.07668896]
[-0.39445189 -0.69563663 -0.37698627]
[-0.47755772 -0.24426793 -0.0444578 ]
[-0.21428187 -0.05316323  0.08561338]
[-0.02730659  0.21353658 -0.00387331]
[ 0.1238503   0.02536641 -0.05827842]
[ 0.00312307  0.06138133 -0.06684574]
[-0.00502401  0.06567267  0.12825219]
[-0.09158299 -0.0105192   0.00204338]
[ 0.00967717 -0.04358042  0.01680959]
[-0.07857861  0.03751851  0.03815961]
[ 0.04294309  0.02035863  0.000422  ]
[ 0.0943959   0.01898184  0.0330111 ]
[ 0.05401717 -0.04352477  0.06237314]
[-0.04591678  0.00606496  0.08249839]
[ 0.07048661  0.04319872  0.11840799]
[-0.0780645  -0.11832055  0.00362451]
[-0.02023442  0.019763    0.02126433]
[ 0.06648841  0.12878583 -0.00341303]
[-0.05046191 -0.37606043 -0.26303607]
[-0.05079614 -0.04088412  0.05390094]
[-0.04862939  0.01207757  0.06089642]
[ 0.04824616  0.31230804  0.23190913]
[ 0.07609714  0.08363035 -0.1380913 ]
[ 0.07299862 -0.18531732 -0.14849116]
[ 0.07055049 -0.20581438 -0.14970525]
[-0.0715757  -0.02002102  0.05962955]
[ 0.02512223  0.06191023  0.06977969]
[ 0.06702632  0.01891879  0.05764345]
[ 0.05421891 -0.06164159 -0.07966594]
[ 0.05194822 -0.05688283  0.00157822]
[ 0.04718916  0.02803741  0.07473968]
[ 0.1327695   0.11226267  0.07340427]
[ 0.17442052  0.14082041  0.00709135]
[ 0.06732817  0.06517856 -0.07591402]
[-0.01340798  0.05579922  0.01833706]
[ 0.07620548 -0.00994871 -0.06158811]
[ 0.00076166 -0.08112462 -0.0131223 ]
[-0.05701485  0.04180093  0.02923977]
[ 0.13993394  0.1207592  -0.02586942]
[ 0.13893968  0.01764188  0.00632281]
[ 0.00222711  0.04688638 -0.03934319]
[ 0.01472347  0.11293998  0.02348815]
[ 0.02457449  0.01875959  0.0117696 ]
[ 0.10913458 -0.02783665 -0.14580639]
[-0.09071739 -0.01001125 -0.01708747]
[-0.00029327 -0.12200304 -0.09437013]
[-0.06312226 -0.05458727 -0.00166504]
[ 0.00395105  0.17269418 -0.10178713]
[ 0.20607933  0.27593204  0.25671989]
[ 0.0885746  -0.00040761 -0.05135048]
[ 0.06817944 -0.01081169 -0.11797264]
[ 0.0193513   0.05398498 -0.00439442]
[-0.00946953 -0.01422373  0.06443617]
[ 0.08113879  0.10563767 -0.00052782]
[ 0.19428837 -0.09972968 -0.05099691]
[ 0.01030324  0.0383467  -0.02439558]
[-0.11880458  0.09370295  0.13219307]
[ 0.00909472  0.01701455 -0.07224095]
[ 0.01119957 -0.06886385  0.03505541]
[-0.0744228   0.01284328  0.08093945]
[ 0.04942283  0.04853411 -0.07931677]
[ 0.05618931 -0.08945601 -0.12051093]
[ 0.09186619  0.06072291 -0.0489793 ]
[-0.00154752 -0.07157928  0.03553887]
[-0.08333338 -0.01324497 -0.03810951]
[-0.08968271 -0.03273036  0.04560825]
[ 0.00113957 -0.01265587  0.03793237]
[-0.01230734  0.07801638  0.08493297]
[ 0.02109416  0.01214634  0.02807706]
[ 0.03797081  0.04649855  0.03370208]
[-0.05169257  0.06681562 -0.01217464]
[ 0.03172686  0.02744856 -0.03581472]
[-0.04526742 -0.11595204 -0.03732945]
[ 0.01531752 -0.07875969  0.10881916]
[-0.10317148 -0.11946004  0.01540554]
[-0.05261011  0.02328411 -0.06744804]
[ 0.04816104  0.03126935  0.03691076]
[-0.06336721 -0.0342698  -0.01829978]
[ 0.07961051 -0.03785159  0.03512389]
[-0.03315451  0.00329202 -0.04431858]
[ 0.03823699 -0.07841491 -0.02012509]
[-0.04161482 -0.02948827 -0.02417634]
[-0.12454133 -0.11827162  0.0174767 ]
[-0.07601012 -0.06208091 -0.07660677]
[ 0.09265511 -0.00243561  0.11705852]
[-0.00721487  0.01373298 -0.05482873]
[-0.02240485 -0.03199068  0.02699252]
[-0.11306416 -0.04081471 -0.06744417]
[-0.10997299  0.00485376 -0.10153345]
[-0.04028121 -0.10700362  0.02646346]
[-0.02336966  0.07451285 -0.05357571]
[ 0.03809433  0.05752009 -0.08156594]
[ 0.05053481  0.02372056 -0.01747261]
[ 0.00643898  0.06422866 -0.02960228]
[ 0.07920955 -0.00298116  0.02869505]
[ 0.00739302 -0.04452508  0.0212307 ]
[-0.01674306 -0.05653191  0.02792753]
[-0.08880668 -0.09891581  0.00895302]
[-0.05153761  0.06531187  0.03382238]
[ 0.03093429 -0.07813912 -0.07798527]
[-0.03791597  0.04858189 -0.00033241]
[ 0.08563822 -0.02383145 -0.0363388 ]
[-0.13480049 -0.14032856 -0.03468635]
[ 0.00479977 -0.1001062   0.05571156]
[ 0.11529497  0.10830529  0.10007511]
[ 0.01054394  0.09158657 -0.06009373]
[-0.00849203  0.04910754  0.0305199 ]
[ 0.06083824 -0.04715387 -0.03878889]
[-0.06146998  0.00762421  0.01500312]
[ 0.00050686 -0.09179396  0.02637193]
[ 0.01490348 -0.05518306 -0.03091217]
[ 0.00459136 -0.12301479  0.07913449]
[-0.01028286 -0.12619501  0.05106202]
[-0.02076432 -0.08756585 -0.08093235]
[ 0.00209588  0.0566525   0.04049723]
[ 0.009558   -0.06309507 -0.00555505]
[ 0.00720056 -0.005123   -0.00760819]
[-0.01492651 -0.00619791 -0.04325878]
[-0.01247392 -0.05203025  0.03771029]
[ 0.0510397  -0.01763621  0.04565584]
[-0.0733179  -0.11041655  0.07294951]
[ 0.02621993 -0.12771571 -0.00295297]
[ 0.06135098  0.02588047 -0.03510862]
[-0.00048224 -0.06433691 -0.05730989]
[-0.06431329 -0.05162831  0.02574525]
[-0.00849521  0.02643965  0.03894081]
[ 0.04198549 -0.06894615 -0.03188559]
[-0.02293692  0.02822923 -0.08319389]
[-0.08185847 -0.09567916 -0.01514882]
[ 0.07718757 -0.00565046 -0.06899273]
[ 0.06788582 -0.0023288  -0.04471027]
[ 0.00567872 -0.02928313 -0.02465407]
[-0.05807158 -0.11601928 -0.00475606]
[-0.09040381 -0.09973999 -0.0197977 ]
[ 0.07987443 -0.11231327 -0.02620867]
[-0.13579769 -0.08178782  0.07032348]
[-0.05123616 -0.15254791 -0.00573181]
[-0.01210417  0.04881342  0.03844036]
[-0.00915075  0.05447405  0.03042549]
[  9.91104469e-02  -2.35135341e-03   2.94236816e-05]
[ 0.05623541 -0.11850014 -0.10477011]
[-0.04261661  0.01254216 -0.00513141]
[-0.09595405 -0.05650745 -0.03906744]
[ 0.0109287  -0.08582412 -0.09884322]
[ 0.02795257 -0.02626645 -0.11800821]
[ 0.04339079  0.01361744 -0.03325135]
[ 0.06229496  0.07977517  0.10950149]
[-0.06195822 -0.14766791  0.0070881 ]
[-0.05206409  0.00916253  0.07702807]
[-0.04242996  0.04577592  0.00794451]
[-0.14458652 -0.11778633  0.03502929]
[-0.05549616 -0.05573998 -0.03728954]
[ 0.00290107  0.06908885 -0.06712679]
[ 0.05856228 -0.0400639  -0.05605843]
[-0.07557543  0.03643998  0.02563533]
[-0.03016429  0.08003536 -0.01739748]
[ 0.09181309  0.01356057 -0.01292667]
[ 0.03923043  0.02966308 -0.03334134]
[-0.02471025  0.02202758  0.02368496]
[ 0.10094198  0.06088367  0.06233563]
[-0.05773624  0.06638981  0.00318995]
[-0.02980416 -0.020134    0.07699836]
[-0.09070121 -0.10556254  0.02821724]
[-0.2254792  -0.12629277 -0.07873413]
[-0.10554644 -0.14609376 -0.15553172]
[ 0.07381222 -0.02887262 -0.00793861]
[-0.00212689 -0.04091399  0.03987622]
[ 0.00915878  0.03242185  0.04296124]
[-0.03426301 -0.02881851  0.13812186]
[-0.05710516  0.00108178  0.13015018]
[ 0.05580738  0.03574285  0.09817298]
[-0.03911719  0.06059963  0.04963288]
[-0.05551605 -0.03975781  0.06790719]
[-0.08227997  0.04841523 -0.07340327]
[ 0.06504892  0.06063481  0.01920508]
[-0.0571651  -0.0458721  -0.16300382]
[-0.09431481 -0.05976387 -0.09605189]
[ 0.06425192  0.06308921  0.03333178]
[-0.02762638 -0.07596153  0.07318493]
[ 0.04915836  0.02844531 -0.04463414]
[ 0.07408556  0.03783872  0.10180707]
[-0.05281838  0.00778461  0.05147468]
[ 0.04483735 -0.08157811 -0.02997114]
[-0.1319273  -0.02573093  0.02397373]
[-0.05665704 -0.06529707  0.0396506 ]
[ 0.06353371 -0.08182292 -0.03143639]
[ 0.01351021  0.03653913 -0.01141498]
[ 0.02921966 -0.06603508 -0.03710026]
[ 0.00741025  0.06452723 -0.11011201]
[ 0.07286531  0.06303982 -0.02598199]
[ 0.04818004 -0.07185783 -0.03562075]
[ 0.06665155  0.00788949 -0.00353663]
[ 0.09527256  0.056317    0.15300572]
[-0.07249977 -0.02303087  0.12080183]
[ 0.04711422  0.04732553  0.03744367]
[ 0.03837935  0.05590711 -0.02390995]
[ 0.01454055 -0.04656953 -0.10331307]
[-0.14789595 -0.0557463  -0.00101387]
[-0.01132146 -0.0654095  -0.05585378]
[ 0.0735381  -0.01887658 -0.12129296]
[ 0.06379499 -0.03529083 -0.1295217 ]
[-0.03627804 -0.03483075 -0.04177878]
[ 0.01701278 -0.04182655 -0.12327295]
[-0.01473691  0.01927825 -0.10759507]
[ -1.86633021e-02   1.99234073e-05   5.70966862e-02]
[ 0.11151901 -0.02792488  0.0791361 ]
[ 0.12916483  0.09446558 -0.01214238]
[ 0.01547005  0.06030947  0.16627689]
[ 0.10211449 -0.0328678   0.12680952]
[ 0.05465885 -0.01321592  0.08983491]
[-0.0307268   0.00346082  0.05710016]
[ 0.03197095  0.00195481  0.12257561]
[-0.035795    0.04918769  0.04918252]
[-0.08101318 -0.07278718 -0.05029924]
[-0.02494185 -0.0997901  -0.06255558]
[-0.05627749 -0.13787462 -0.02152287]
[-0.03940248 -0.01258281  0.07274811]
[-0.02679877  0.01524616  0.13501678]
[ 0.13064818  0.079188    0.07930811]
[-0.07612688  0.03775596  0.02395469]
[ 0.00385971 -0.0172959   0.02585809]
[-0.00536948  0.00919185 -0.07367498]
[ 0.04088769  0.12708731  0.09606969]
[ 0.042321    0.08877713  0.05408387]
[ 0.10076138  0.01238508 -0.03523082]
[-0.07429716 -0.01196028  0.0630249 ]
[ 0.07005735  0.03082314  0.02656598]
[-0.07563396 -0.03688213  0.0228028 ]
[ 0.02095017 -0.06115537  0.07133982]
[-0.06463226  0.01288775 -0.01992616]
[ 0.15176515 -0.11344866 -0.04794003]
[-0.05683189  0.03834367 -0.01293256]
[-0.09816167 -0.00925177 -0.06797285]
[ 0.08520129 -0.04211701 -0.02190378]
[-0.08533081 -0.11605921 -0.0412966 ]
[-0.21456498 -0.19790426 -0.1211536 ]
[-0.33125353 -0.20685978 -0.08121597]
[-0.2319974  -0.0437225  -0.07399722]
[-0.10071414  0.1175044  -0.12010141]
[ 0.04768285  0.00600048 -0.04842307]
[ 0.00647325 -0.04591785 -0.06828669]
[-0.11972238 -0.10027309 -0.19074903]
[-0.07107999 -0.19380341 -0.11281082]
[ 0.03733891  0.01915593  0.03279597]
[ 0.08104618  0.00851294  0.01888555]
[ 0.07633411 -0.01076777 -0.06509114]
[-0.03420776  0.04772541  0.0066818 ]
[-0.0428334   0.03844488  0.11091428]
[ 0.06402123 -0.02541818  0.03365782]
[-0.05970714 -0.07143809  0.03017946]
[-0.02600656 -0.01344462  0.04234622]
[-0.03652297  0.00667796  0.03909156]
[ 0.03282242  0.07360216 -0.01678717]
[-0.05608325  0.03812687  0.00948267]
[-0.05178928  0.08403039  0.00971355]
[ 0.126055    0.01847375  0.15122393]
[ 0.06434476  0.09859538  0.05389594]
[ 0.1352969   0.03775449  0.08751126]
[ 0.03667995  0.02580894  0.17505391]
[ 0.08051958  0.07339318  0.13023916]
[-0.026331   -0.10147093 -0.010118  ]
[ 0.07233796  0.00628615 -0.00639293]
[-0.03962114 -0.03189232 -0.00304085]
[-0.04983613  0.03181266  0.0790082 ]
[ 0.12082219 -0.03147779  0.17239603]
[ 0.10681967 -0.01288451  0.1161328 ]
[ 0.06837633 -0.17636932  0.0134077 ]
[ 0.06882893 -0.05515759  0.03693027]
[ 0.06217151  0.05092439 -0.00331662]
[ 0.07226641 -0.02944271 -0.03377894]
[ 0.01912855 -0.08741216 -0.05178446]
[-0.02826214 -0.00398642 -0.12039304]
[-0.02794193  0.06459922 -0.04915119]
[ 0.06009562 -0.02416706  0.01975287]
[ 0.04244323 -0.11131006  0.05388921]
[-0.04034612 -0.03910789  0.13096666]
[ 0.06322452  0.01729363 -0.0569239 ]
[ 0.09123631 -0.01879179  0.05819492]
[-0.05404006 -0.05030073  0.02308329]
[ 0.03341312 -0.07262763  0.11613089]
[ 0.19506671 -0.05169485 -0.00972314]
[ 0.02884754  0.08495115  0.0522055 ]
[ 0.05531333 -0.0077988  -0.05577609]
[-0.06553737 -0.0126779  -0.06462709]
[-0.05500185 -0.10258842  0.04622302]
[-0.02715133 -0.02392521  0.06120464]
[-0.03148432  0.05103103 -0.01021955]
[ 0.00303223 -0.03351887  0.02544154]
[ 0.09567254  0.12917361 -0.0343508 ]
[ 0.1676762   0.15458474 -0.04872925]
[ 0.03767252  0.02493972 -0.01373975]
[-0.08533694  0.00545543 -0.09917096]
[-0.10954141  0.06237776 -0.04214694]
[ 0.04097692  0.01199902  0.09792562]
[ 0.05177407 -0.11648898  0.11302245]
[ 0.02371159 -0.02423782 -0.00509711]
[-0.02156242 -0.06522837 -0.01761868]
[-0.04061576 -0.11471894 -0.12443619]
[-0.0839428  -0.04823017  0.00503522]
[-0.00494284 -0.06980599 -0.10193893]
[ 0.08841754  0.0023756   0.023981  ]
[ 0.06829055 -0.03793041  0.06203821]
[ 0.12063228  0.10671353  0.00746992]
[-0.03079919  0.05812967  0.09274616]
[ 0.07451589 -0.03864766  0.01408389]
[ 0.01111198 -0.02383735  0.14215535]
[ 0.14672749  0.094545    0.08736681]
[ 0.07440945  0.15669021 -0.01017291]
[ 0.10922483  0.05814052  0.0657495 ]
[-0.12741657 -0.03813482  0.04505214]
[-0.02451418  0.00786378  0.0758498 ]
[-0.09791262  0.08711332  0.00532323]
[ 0.14615019 -0.06229991  0.15208127]
[ 0.10567342 -0.09286574  0.08988698]
[ 0.13731168 -0.04539215  0.04889078]
[ 0.05138236 -0.02258664  0.02851513]
[-0.00397877 -0.06574391  0.07520147]
[-0.02976192 -0.07972328  0.07297422]
[ 0.14476764  0.04817871 -0.01018755]
[ 0.15216114  0.10207648  0.05860171]
[ 0.09134886  0.06308787  0.01976625]
[ 0.06791217 -0.06656247 -0.0793523 ]
[-0.01565273  0.04810511 -0.06627427]
[-0.02056298 -0.02613047  0.07624073]
[ 0.01529336 -0.06028678  0.01710654]
[ 0.14311433  0.03626405  0.04170575]
[ 0.02681249 -0.10486708  0.00837307]
[ 0.03390392 -0.02585748  0.10967789]
[ 0.13566786 -0.09182611  0.11354439]
[ 0.08056532 -0.02773697  0.0598399 ]
[-0.14530829 -0.26428443 -0.2727012 ]
[-0.15710896 -0.28314409 -0.1673121 ]
[-0.12099706 -0.17175542 -0.10717188]
[ 0.08974703  0.01889121  0.03794629]
[ 0.20819561 -0.05160981 -0.08554471]
[ 0.12880686 -0.07736469  0.0493029 ]
[-0.00498636 -0.07240118  0.08231871]
[-0.11378621 -0.0264895   0.13293196]
[ 0.01914917  0.08469627  0.11123598]
[ 0.1649064  -0.04571347  0.09854073]
[ 0.12212009 -0.11232003  0.0228665 ]
[ 0.1200424   0.04639188  0.01488963]
[ 0.11835153 -0.00756586  0.07112125]
[ 0.03807031 -0.06403878 -0.00191141]
[ 0.10433947 -0.07774331  0.08685618]
[-0.00679078 -0.08122876  0.01022925]
[-0.03454032  0.07937448  0.05661144]
[-0.02296027 -0.03884221 -0.01027104]
[-0.00028154 -0.04511828 -0.00610847]
[ 0.05943922 -0.06336261 -0.0561928 ]
[ 0.06552925 -0.13415498 -0.11060673]
[ 0.1626872   0.05398184 -0.06789833]
[ 0.01087552  0.08045539 -0.01054657]
[-0.06779767  0.11552244  0.05587017]
[ 0.10358255 -0.03223411 -0.19220683]
[ 0.00950424 -0.08425465 -0.1985731 ]
[-0.10531292 -0.03732178 -0.17542301]
[-0.07484213 -0.0252571   0.06064145]
[-0.05429675 -0.02758718 -0.02150497]
[ 0.07710408 -0.05542765  0.0631142 ]
[-0.14449848  0.07823863  0.04424439]
[-0.14764793  0.06864151  0.04423562]
[-0.10833443 -0.001247   -0.01011239]
[ 0.00169777 -0.01673297 -0.00815756]
[ 0.05938924  0.04971552  0.05852091]
[-0.04862982 -0.06024422 -0.06904971]
[-0.02940261  0.04791984 -0.55000442]
[ 0.02778713  0.05285988 -0.40368161]
[-0.09060638  0.12017042 -0.31112623]
[-0.18745194  0.01481901 -0.05873499]
[-0.10254392  0.10534193 -0.01779574]
[-0.04295171 -0.04430086 -0.09023561]
[-0.02316955  0.021118   -0.17143624]
[-0.05623509  0.11263619 -0.28654107]
[ 0.04561044  0.12390538 -0.17490895]
[ 0.04752691 -0.06874907 -0.14867918]
[-0.1197544  -0.13162746 -0.03535618]
[-0.25748765 -0.11708602 -0.02394848]
[-0.05774553  0.02593154 -0.05173861]
[ 0.04217568 -0.01404336 -0.31733111]
[-0.05943199  0.10152908 -0.27605066]
[-0.04035885  0.06764603  0.02840374]
[ 0.07828824 -0.05221384  0.03281739]
[-0.05099853 -0.05089507 -0.04733123]
[ 0.07827106 -0.04077823  0.0615047 ]
[ 0.03662418  0.07998427  0.05650779]
[ 0.09178188  0.0889259  -0.03501711]
[-0.04600177 -0.11815446 -0.30212212]
[-0.00924964 -0.13941327 -0.27696839]
[ 0.00912992 -0.0127465   0.12238587]
[-0.01104014  0.0500839   0.00236547]
[-0.10046979 -0.10947628 -0.03907342]
[-0.16454479 -0.18221143  0.06694324]
[-0.09957451  0.07646991 -0.47425064]
[-0.07016201  0.07338217 -0.52430314]
[-0.0069878   0.02036675 -0.11773206]
[  5.04861600e-05   4.76694517e-02  -6.11173175e-02]
[ 0.07064708  0.07996282  0.06584802]
[ 0.03030295  0.02563029 -0.00475022]
[-0.08689159 -0.02498122  0.05671632]
[-0.06964805  0.11033876  0.0027612 ]
[-0.09499554 -0.00258807  0.03356437]
[ 0.23447452  0.02153287 -0.14836866]
[ 0.09792572 -0.02556457 -0.00911315]
[ 0.04957344  0.11901516 -0.08029721]
[ 0.01755008  0.01543831 -0.10498877]
[-0.01996516 -0.02872907 -0.08043981]
[-0.12147783 -0.08866596  0.18124929]
[-0.1468862  -0.01443942  0.15536225]
[-0.0893859   0.01549545  0.13040817]
[-0.01316533  0.06430015  0.18083254]
[ 0.04780374 -0.05976402 -0.02324657]
[-0.05356127  0.05189522 -0.00094835]
[ 0.01567106  0.0297363   0.08204406]
[ 0.0183712  -0.01104355 -0.09776976]
[ 0.07027574  0.07367168 -0.0780725 ]
[ 0.03357678 -0.01375904 -0.06019622]
[ 0.01013111  0.01127996 -0.06193913]
[-0.00498987 -0.04503921  0.03050136]
[-0.0183103  -0.05295673  0.00601202]
[-0.17568479  0.08728945 -0.05110127]
[-0.14524128  0.02114297 -0.00042759]
[-0.15204675 -0.08212487 -0.0541951 ]
[-0.19118245 -0.01640773 -0.01096598]
[-0.18991421  0.04349254  0.08907569]
[-0.20162468 -0.01837745  0.02447383]
[ 0.01849003  0.05443779 -0.6077379 ]
[-0.07211194 -0.04955878 -0.47466621]
[-0.06752621 -0.03335112 -0.12178386]
[-0.06762598 -0.04132027 -0.05594928]
[-0.18896516 -0.005358   -0.14502014]
[-0.14817582 -0.00169407 -0.18190186]
[ 0.02650147 -0.01501823 -0.20435692]
[-0.07363743 -0.16139723 -0.19180654]
[-0.18551992 -0.14836165 -0.06307288]
[-0.10792581 -0.10088894  0.03011362]
[-0.25474843 -0.01873921 -0.04519404]
[-0.20771351 -0.14359345  0.07322738]
[-0.05309865  0.0833777   0.07337604]
[-0.15852943  0.06647678  0.16029388]
[-0.11315943 -0.03918239  0.06280472]
[ 0.03193658  0.0804549  -0.03962277]
[-0.00222893 -0.08246823 -0.04163378]
[ 0.05043289 -0.00693238 -0.03585725]
[-0.0359977   0.05835338  0.04325995]
[ 0.08215527  0.00048143 -0.06700644]
[-0.12884742 -0.02186462 -0.04998328]
[-0.20803283 -0.23938218 -0.04958523]
[-0.06733584 -0.01599006  0.0142272 ]
[ 0.0262599  -0.06352028  0.0275655 ]
[-0.40470818 -0.29432735 -0.01171558]
[-0.36718735 -0.27274939 -0.25870153]
[-0.174279   -0.21934845 -0.11966155]
[ 0.01596267  0.03682933  0.01819607]
[-0.01044176 -0.01117816  0.0819217 ]
[ 0.04238041  0.0580319  -0.05643881]
[-0.03772848 -0.11700273 -0.21107171]
[ 0.00708667  0.06616857 -0.05045211]
[ 0.0274793   0.11107488 -0.08683804]
[-0.02301157  0.03133702  0.05910783]
[-0.06804137 -0.08058513  0.08148488]
[-0.05338299  0.06952908 -0.0823893 ]
[ 0.04706674 -0.07172915  0.17426132]
[ 0.02075965 -0.12764427  0.08395564]
[ 0.00735693 -0.10450964  0.03903886]
[-0.03873773 -0.0134564  -0.23515409]
[ 0.04633912  0.03086688 -0.07096728]
[-0.04687018  0.13818024 -0.02472199]
[-0.04328603 -0.42910433  0.33344787]
[ 0.04600296 -0.60048771  0.21712895]
[ 0.04514436 -0.31283537 -0.00393651]
[-0.14816748  0.08139752  0.01163559]
[-0.08151896  0.04513535  0.09035561]
[ 0.02981068  0.02763731  0.02310781]
[ 0.01251074 -0.27162153  0.31524155]
[ 0.21438161 -0.32831547  0.20627865]
[ 0.05975505 -0.24796835  0.11769875]
[-0.06825047  0.06220796  0.06619739]
[-0.02559155  0.03552768 -0.03111065]
[ 0.05324943  0.06605324  0.03182452]
[-0.39837524 -0.12543821 -0.06208022]
[-0.22546512 -0.15376735 -0.08498288]
[ 0.03050187  0.07577667  0.01905973]
[-0.14245175  0.00656117  0.04809202]
[-0.15392177 -0.07650461  0.03060581]
[-0.15922926 -0.10231356 -0.05179549]
[ 0.11078498 -0.01168815 -0.21350379]
[ 0.0363096   0.04764531 -0.25646546]
[ 0.02792193  0.15470153 -0.18244475]
[ 0.03128166 -0.26910755  0.1567571 ]
[ 0.10444708 -0.25707057  0.12477043]
[ 0.05144876 -0.20559689 -0.02721748]
[-0.06473897  0.03962846  0.07614303]
[ 0.0374087   0.0287703   0.13845755]
[ 0.04201077 -0.04548842  0.12439632]
[ 0.00741981 -0.02425998 -0.13799253]
[ 0.01111288  0.02893323 -0.15818328]
[-0.03857072  0.13561401 -0.04616405]
[-0.33486336 -0.30354378  0.17502284]
[-0.22683348 -0.38361079  0.03225867]
[ 0.12309282 -0.16352731 -0.09615513]
[ 0.19923377 -0.01195806 -0.00517578]
[ 0.02968891 -0.09443992 -0.20045042]
[ 0.00576994 -0.15682273 -0.1944215 ]
[-0.04315841  0.02646922 -0.16529125]
[ 0.02288892  0.07011143  0.04871091]
[ 0.05455088  0.13608356  0.01418251]
[-0.01177399  0.06617831 -0.03803343]
[ 0.07456518 -0.00787044 -0.02310442]
[ 0.02262896  0.0399164   0.07053546]
[ 0.04314744  0.05380328  0.09538437]
[ 0.07429227  0.15384959 -0.01877354]
[ 0.11551419  0.072396   -0.02732869]
[-0.07273768  0.02359995 -0.03459971]
[ 0.0571418  -0.05398696 -0.07165737]
[-0.03694015  0.0310696   0.04716599]
[ 0.10054888 -0.05493349 -0.20670262]
[ 0.08490568  0.0524949  -0.12834433]
[ 0.0217776   0.06909627 -0.11182419]
[ 0.12883897  0.03275891 -0.11048113]
[-0.0296484   0.1098377  -0.11427737]
[ 0.01189587  0.07524817 -0.16301997]
[-0.06172053 -0.28398749  0.05712518]
[-0.13620687 -0.35720241 -0.00295555]
[-0.26151609 -0.21199487  0.04907784]
[ 0.04672452  0.05099169  0.03702449]
[ 0.06248225 -0.00159602  0.07111655]
[-0.08843019  0.085973    0.15874797]
[ 0.08917116 -0.03460916 -0.02020005]
[ 0.15749352 -0.2133996  -0.30165139]
[ 0.08315053 -0.38622871 -0.20223528]
[ 0.09863346  0.03351206 -0.08919637]
[ 0.0479359   0.13056971 -0.09226046]
[-0.13345495  0.153887    0.06026384]
[-0.02008332  0.03234401 -0.09536602]
[-0.02888502  0.09113274  0.05611452]
[-0.09017634  0.1313712   0.15875426]
[ 0.0355036  -0.07252741 -0.06221269]
[-0.01824098  0.05232794  0.06610939]
[-0.07893115 -0.0132593  -0.03384757]
[-0.25990146 -0.1723004   0.00769628]
[-0.15636803  0.03909271  0.16062397]
[-0.013308    0.05443875  0.05157474]
[ 0.20120664  0.10706849 -0.07900053]
[ 0.0486628  -0.05297527  0.03096144]
[-0.16571552 -0.25073007  0.00452671]
[-0.0939338  -0.12612508 -0.24862747]
[ 0.14810602 -0.09287181 -0.1358036 ]
[ 0.162366   -0.22174446 -0.1763716 ]
[ 0.08304639  0.04725623 -0.03188837]
[-0.08060601 -0.06090469  0.05250616]
[ 0.05276785  0.01089884 -0.06393721]
[ 0.15347211 -0.02362204  0.07831939]
[ 0.08552273 -0.03839707 -0.03200504]
[-0.05683652 -0.05647717 -0.04224152]
[ 0.07167689 -0.06200503 -0.03606864]
[-0.03872335 -0.06856642 -0.05896762]
[-0.08150303  0.04594171 -0.00147586]
[ 0.00294377 -0.0346148   0.13413242]
[ 0.06208535 -0.08621471  0.088595  ]
[ 0.03424377 -0.21552844 -0.05176476]
[-0.04209843 -0.13761134 -0.19014883]
[-0.16064432 -0.08665387  0.07179605]
[-0.03172969  0.18537094  0.0489195 ]
[ 0.07481699 -0.01912794 -0.05533772]
[ 0.11907092 -0.07490882 -0.05231216]
[-0.14571048 -0.27304524 -0.04054433]
[-0.02299171  0.08477584 -0.03556954]
[-0.04688366 -0.03559113 -0.01721753]
[ 0.01983852  0.00939291 -0.00501386]
[ 0.04673239 -0.08024731 -0.07205757]
[-0.03986943 -0.11643755 -0.01970909]
[-0.11859731 -0.02929889 -0.00420535]
[-0.01181611 -0.02362581  0.00151934]
[ 0.00614285  0.03223384  0.06313988]
[ 0.05977106  0.0165866  -0.05282693]
[ 0.22296856  0.29724526  0.07805101]
[ 0.262907   -0.10501198 -0.0050047 ]
[-0.62233341 -0.45220277 -0.06884644]
[-0.25777128 -0.13590075  0.11336498]
[ 0.01248012 -0.02293479 -0.04059583]
[ 0.10125902 -0.0280687  -0.09769884]
[-0.32431951 -0.27512839 -0.09448951]
[-0.17843933 -0.06893336 -0.03493245]
[ 0.03099378  0.07042719  0.03037878]
[-0.04344833 -0.06662185  0.09193391]
[-0.07533241 -0.03376742 -0.00435552]
[ 0.07227173 -0.01015159 -0.12068804]
[ 0.06083772  0.13033886 -0.02257068]
[ 0.06350153 -0.03234969  0.03361796]
[ 0.08920754  0.10632247  0.06326332]
[-0.03477579  0.01058854  0.01579895]
[-0.13485514 -0.04515168 -0.02801169]
[-0.05831014  0.15107121  0.08552452]
[ 0.20141809  0.16459864  0.01994547]
[ 0.10639784 -0.08780617 -0.01340981]
[-0.20473123 -0.4264822  -0.04962558]
[-0.70209301 -0.3908577  -0.11627557]
[-0.17567052  0.08770894 -0.00899071]
[ 0.17823176  0.17082785 -0.02282843]
[ 0.08803478 -0.00435009 -0.02535328]
[-0.01518183 -0.04159343 -0.09754363]
[-0.01424529  0.07184824  0.02226554]
[ 0.05635246  0.06913516 -0.0631263 ]
[ 0.06640827 -0.04416437  0.06397538]
[ 0.00692361  0.02585824 -0.04569428]
[ 0.17519972 -0.04619003  0.05037926]
[ 0.08485974  0.06295449  0.1293681 ]
[ 0.10259295 -0.02716864  0.05432249]
[-0.0699809  -0.00381193 -0.08108546]
[ 0.07087704 -0.03169591  0.0316463 ]
[ 0.07245591  0.0625102   0.0034495 ]
[ 0.0234085  -0.00073398  0.01648696]
[-0.18959987 -0.00949695  0.05545973]
[-0.08321645  0.13906227 -0.00177365]
[-0.06427167  0.00013467  0.05321795]
[-0.16648456  0.04278027  0.09854574]
[-0.13931897  0.12439949 -0.00861245]
[-0.0621161   0.07777921  0.15985468]
[ 0.02643887 -0.0571007  -0.04498236]
[ 0.11291597 -0.1137258  -0.15730952]
[ 0.0063071  -0.00867179 -0.12579919]
[-0.07723356 -0.10051532 -0.15350355]
[-0.20684533 -0.07423221 -0.00116786]
[-0.55064422 -0.28869331 -0.02182506]
[-0.1016485   0.02925675  0.01721958]
[ 0.15654896  0.08017706 -0.20863794]
[-0.01304425 -0.12956472 -0.00934869]
[-0.08261514  0.03600927 -0.062983  ]
[-0.08271666  0.0379998   0.03227513]
[ 0.01584726 -0.02641686  0.05317511]
[ 0.13534372 -0.02174434 -0.0083478 ]
[-0.05220723  0.0790342   0.02004121]
[ 0.03750371 -0.0003535   0.00186689]
[ 0.00577783 -0.0557006   0.03379759]
[ 0.04746748 -0.04188192 -0.01474999]
[-0.00212896  0.03843381 -0.11305874]
[ 0.01159016  0.13570444 -0.1374466 ]
[ 0.05700199 -0.08920832 -0.08106599]
[-0.15894905 -0.23687854  0.06873827]
[-0.0856111  -0.12983392  0.00508695]
[ 0.08267858  0.09663574  0.07330451]
[-0.09420258  0.03548755  0.06187601]
[-0.14461909 -0.2219328  -0.13499849]
[-0.10607717 -0.05790814 -0.14691398]
[ 0.0609636  -0.07873855 -0.05521475]
[-0.04678806  0.06026686  0.01420929]
[-0.04236745 -0.05989969 -0.07915808]
[ 0.03985029 -0.24410769 -0.03021291]
[ 0.10957866 -0.05079561 -0.00207624]
[-0.01350867  0.11791465 -0.0238669 ]
[ 0.00290283  0.06212365 -0.06034488]
[-0.06572262 -0.07948869  0.02282365]
[-0.04385564 -0.04475356 -0.06840097]
[-0.14911602 -0.01977878 -0.00888434]
[ 0.06764839 -0.16273116 -0.0568303 ]
[ 0.13898279  0.01581831 -0.04255916]
[-0.0787982  -0.16468635 -0.09213737]
[-0.05617282  0.12576494  0.06753772]
[ 0.02020865  0.12053624  0.05378705]
[-0.02361914  0.04976458  0.07781379]
[-0.19674857 -0.22575772  0.04166408]
[ 0.07283913 -0.08826564 -0.09198993]
[-0.00195944 -0.15929827  0.02611985]
[ 0.06751069 -0.06119265 -0.02684434]
[-0.01973029 -0.00505327  0.0257013 ]
[-0.08920478  0.07335432 -0.02536065]
[ 0.05177099  0.0525149   0.11367737]
[ 0.03975004 -0.05639335 -0.07406262]
[-0.03774793  0.03889301  0.07033612]
[ 0.04710975 -0.00671358  0.02802542]
[-0.07848217  0.00365326 -0.06670577]
[-0.3801575  -0.39631283 -0.03172536]
[-0.72715336 -0.41949534 -0.03063372]
[-0.20081525 -0.09218618  0.04969885]
[ 0.05124282  0.01020491 -0.04018644]
[ 0.14047721 -0.04891615 -0.23457363]
[-0.00331162 -0.11249168 -0.11246653]
[ 0.0570856   0.00890319  0.03301991]
[-0.10497171  0.04581974  0.10142436]
[-0.04631566  0.13811803  0.07018846]
[-0.04253427  0.08376706  0.04718617]
[ 0.09275436 -0.02137086 -0.08157673]
[ 0.03809059  0.00337859 -0.10114667]
[-0.13118531 -0.09011608  0.09913325]
[-0.05142987 -0.06966636  0.00167531]
[ 0.1049476   0.14146622  0.09828476]
[-0.01866115 -0.13472162 -0.0292844 ]
[ 0.04688209  0.05028861  0.05825179]
[ 0.04561593  0.09804001  0.02149846]
[-0.06213702 -0.20908071  0.24911202]
[-0.25165901 -0.41753846  0.10812623]
[ 0.03127461  0.01640687 -0.04708388]
[ 0.12237103  0.16433989  0.0263007 ]
[ 0.25212947  0.16581598 -0.1989833 ]
[-0.05225433 -0.1137621  -0.15369035]
[-0.03833654 -0.2345441  -0.0939362 ]
[ 0.08574963  0.01736928 -0.03727878]
[-0.0544727   0.0775106   0.00253632]
[ 0.0168049  -0.02844525  0.00073096]
[ 0.02259998 -0.02958366 -0.02595804]
[-0.01673996 -0.02558298 -0.05938524]
[-0.14635406 -0.03714447 -0.09204644]
[ 0.00089934  0.08179162 -0.03105105]
[ 0.1645835  0.0400335 -0.0370657]
[-0.04044659  0.02844786 -0.04758659]
[-0.03079239 -0.01492527  0.00995894]
[-0.06891888  0.06528869 -0.05411641]
[ 0.00541816 -0.13110235  0.04819922]
[ 0.08406892  0.04665863  0.08250134]
[ 0.04627528  0.02569918 -0.0086062 ]
[ 0.08548436 -0.13563751 -0.11877354]
[ 0.07909336  0.05097704  0.08018252]
[-0.06002471  0.14423801  0.09054652]
[-0.05325728  0.09746297 -0.02867638]
[ 0.12734886 -0.10933542 -0.00852073]
[ 0.05145732 -0.07895967 -0.01275658]
[ 0.10939422 -0.1926202  -0.12022507]
[-0.02274135  0.03418784 -0.09325933]
[ 0.01979234  0.18513463 -0.06242383]
[ 0.01101843  0.01398161 -0.17523113]
[ 0.07587986  0.12922192 -0.09261629]
[ 0.10965609 -0.03076802 -0.13988566]
[ 0.11867291 -0.06198484 -0.12317785]
[-0.0046004   0.10187561  0.04299482]
[-0.0084697   0.09521089  0.05715015]
[ 0.18309934 -0.16412227 -0.05215684]
[ 0.14701955  0.09818675  0.04416919]
[-0.07876451  0.16441922  0.13576666]
[ 0.06907824 -0.04674146 -0.04124629]
[-0.03696986 -0.03253391 -0.00561399]
[ 0.05081003  0.02577185  0.0530201 ]
[-0.04523123 -0.07742041 -0.01154273]
[-0.08025792 -0.13495098  0.04018607]
[ 0.01429665  0.05314147  0.04344045]
[ 0.09013177  0.13370524  0.1052779 ]
[ 0.08679681 -0.00497664  0.02595482]
[-0.13292575 -0.00057426 -0.0829633 ]
[-0.09708425 -0.01616659 -0.01366855]
[-0.06137761 -0.06756703 -0.13118234]
[ 0.03759147 -0.04984761 -0.17861155]
[ 0.01894062 -0.06196905 -0.00560777]
[ 0.05406652 -0.03847022 -0.04597307]
[ 0.04633742 -0.04466425  0.03196459]
[ 0.07859567  0.19004706  0.04604778]
[-0.10003238  0.06955066 -0.0393237 ]
[ 0.05774302  0.01401629 -0.24932744]
[ 0.0179373  -0.02923467  0.01306744]
[ 0.02853834  0.06155147 -0.05117539]
[ 0.06224395 -0.07423359  0.02690719]
[ 0.23520358  0.10770876 -0.01626878]
[ 0.10791419  0.13397291  0.10284474]
[ 0.00125096 -0.04277559  0.03501366]
[ 0.0471286   0.16996382  0.00483457]
[-0.20224148 -0.10178449 -0.07972493]
[-0.13500476 -0.07142521 -0.15698218]
[ 0.17239349  0.0073064  -0.13101244]
[ 0.10369076  0.18248795 -0.0444295 ]
[ 0.07512925  0.03546295 -0.03723613]
[ 0.02378038  0.10231061 -0.09281687]
[ 0.05418764  0.13242325  0.05199384]
[-0.06974094  0.03614184 -0.06462155]
[ 0.10262284  0.00290154 -0.02748221]
[-0.00208804  0.1365969  -0.04703974]
[ 0.08116294 -0.08380634  0.05841228]
[ 0.02088751  0.02717248 -0.03237729]
[-0.07714649  0.07488909  0.00060239]
[-0.03706643  0.04275567  0.03307752]
[ 0.26383999  0.25723127  0.10177869]
[ 0.21656631  0.21536694  0.15318272]
[ 0.08209573  0.08293314  0.06699951]
[-0.08916956 -0.04041469 -0.03301448]
[-0.03464245 -0.11434195  0.06211675]
[  6.17165193e-02  -2.81979446e-05   9.54203233e-02]
[-0.1266253  -0.27273947 -0.05458606]
[-0.28704768 -0.31616718 -0.13448505]
[-0.02522123  0.09597424 -0.01757908]
[ 0.08143508  0.05208133 -0.07988044]
[-0.01795043  0.14738299 -0.01206846]
[ 0.01165586  0.04138927  0.07713798]
[ 0.02726544  0.08401732  0.07867177]
[-0.03975509 -0.04974844 -0.01097088]
[-0.05762849 -0.0455719   0.01884112]
[ 0.05189088  0.13114198 -0.03379587]
[-0.05148318  0.10028803 -0.19127718]
[ 0.01574627 -0.04673958 -0.14076699]
[ 0.15132341  0.03945521  0.05135071]
[ 0.11826693  0.07921768  0.08239622]
[ 0.02389409  0.05203648 -0.04823172]
[-0.56155473 -0.46595868 -0.24707766]
[-0.53654522 -0.39950359 -0.26710692]
[ 0.01717205  0.00541631  0.00122395]
[-0.00281335  0.06467444  0.00277094]
[-0.11446401  0.03330166 -0.03287256]
[ 0.01661541  0.05412424 -0.08252169]
[-0.00212595 -0.03044839  0.03150409]
[ 0.00699923  0.00622518  0.04721863]
[ 0.02653513  0.04202512 -0.04872784]
[ 0.08928127  0.12391329  0.15394934]
[ 0.03815106  0.08461013  0.03506418]
[ 0.05992603  0.00113306  0.03359352]
[ 0.01730461 -0.08121409  0.01309134]
[ 0.04883779  0.03185676 -0.06814962]
[ 0.04694375 -0.06108172 -0.03396574]
[-0.01691212  0.12590821 -0.07724662]
[-0.107288    0.01556597 -0.05879998]
[-0.10146037  0.08568351 -0.12403663]
[-0.06444773  0.03481723  0.07309837]
[-0.2059928  -0.13721491 -0.00623811]
[-0.02564422 -0.05158009 -0.04617309]
[-0.02383696  0.04657469  0.01160336]
[-0.01896804  0.03506792  0.12672642]
[-0.03794833 -0.017751    0.18098126]
[ 0.00626563  0.01309582 -0.00402366]
[ 0.04974535 -0.03693325  0.09475625]
[-0.02002681 -0.15821499  0.09370625]
[-0.25598148 -0.12263635 -0.00557908]
[-0.50928378 -0.31710428 -0.05641185]
[-0.03292847 -0.02511146  0.03620011]
[-0.09920351  0.02108823  0.08830561]
[-0.17034535 -0.12101058 -0.07367398]
[ 0.00644249 -0.00232009  0.04116911]
[-0.14381993 -0.01492898  0.02565272]
[-0.05047531 -0.05876968 -0.10078589]
[ 0.01703365 -0.04615942 -0.00061651]
[ 0.05323525  0.04173763 -0.03764822]
[-0.06000503  0.03973625  0.0123952 ]
[ 0.08294047  0.07925449 -0.03709904]
[-0.1140391  -0.1792511  -0.03911921]
[-0.14293991 -0.04940195 -0.0426217 ]
[-0.00117555  0.0867091  -0.03574506]
[ 0.01438807  0.06050892  0.11193224]
[ 0.00934719  0.13088934  0.01371507]
[-0.05318092 -0.0363131  -0.00411408]
[ 0.12127276  0.13723764  0.02580781]
[ 0.10949469  0.13482517 -0.03100296]
[ 0.15887654 -0.02289018  0.02281046]
[ 0.01908188  0.05657132 -0.00847419]
[ 0.00526346 -0.03380411  0.01328233]
[-0.08249357  0.06386706  0.02258153]
[ 0.04521764  0.08535172  0.02804426]
[ 0.03108331 -0.03365166  0.02034852]
[ 0.02806299 -0.00212184 -0.1163945 ]
[ 0.07681425  0.02104774 -0.04184193]
[ 0.02524388 -0.06536371  0.03873042]
[ 0.01429246  0.03284537 -0.04560258]
[-0.12442859 -0.14815687 -0.08148707]
[-0.06059485 -0.06964998 -0.06110431]
[-0.13184604 -0.0010581  -0.05449175]
[ 0.04108173  0.00975988  0.06801501]
[-0.06363906 -0.00817156 -0.08455589]
[-0.00356389 -0.03305693 -0.00205918]
[ 0.04185693  0.05478783 -0.05061077]
[ 0.13029216  0.04976639  0.08524036]
[-0.02427011  0.04683634  0.01126462]
[-0.01806849 -0.02021117  0.07381097]
[ 0.01672745  0.01803932 -0.04542857]
[-0.02668993 -0.09090132  0.09470854]
[-0.1609721  -0.12478188 -0.144591  ]
[-0.07053916 -0.11930135 -0.08536677]
[-0.19498982 -0.12571193 -0.07243943]
[ 0.03305081  0.07413638 -0.07273681]
[ 0.01513543  0.06804281 -0.05747972]
[ 0.01370963  0.07990177 -0.0300215 ]
[ 0.11348855  0.02472359  0.00121783]
[ 0.19346917  0.10210458  0.05960276]
[ 0.00949464 -0.0155381  -0.04976014]
[-0.14040457 -0.00940903 -0.06866207]
[-0.04611278 -0.01620102 -0.07170781]
[-0.10549455 -0.07193852 -0.06546381]
[-0.14950736 -0.22000678 -0.12247466]
[-0.21347634 -0.0500036  -0.04463754]
[ 0.02882559 -0.05947586  0.06065532]
[-0.24227384 -0.15136282 -0.0767068 ]
[-0.14533478 -0.127803   -0.0462394 ]
[-0.06319791 -0.06687319  0.03096109]
[ 0.10410522 -0.02344443  0.07609776]
[ 0.00262063 -0.02343457  0.06160371]
[-0.06155093 -0.10230944 -0.0341571 ]
[ 0.09582452  0.00435167  0.11068427]
[-0.02653498  0.02637191 -0.06636894]
[ 0.00655695 -0.10852976  0.04727812]
[ 0.02010569  0.06378639  0.01583658]
[ 0.02457954  0.01508577 -0.0092334 ]
[ 0.10559569 -0.06181467  0.00189901]
[-0.29165009 -0.19178002  0.03858088]
[-0.27576736 -0.03852704 -0.00653019]
[-0.04276053  0.08319324  0.09267067]
[ 0.07433026  0.116976    0.02618405]
[ 0.10439106 -0.02642613 -0.07470539]
[ 0.07112856 -0.00470764 -0.05051372]
[-0.02069813  0.03897433 -0.03634053]
[-0.06971718 -0.04109471 -0.04000495]
[ 0.038796   -0.05765412 -0.06536131]
[ 0.10118937  0.02318795 -0.11455191]
[ 0.04011513 -0.04730876 -0.10080216]
[ 0.02647733 -0.04247419  0.04751229]
[-0.0108713   0.04757569  0.0392997 ]
[-0.05989877  0.06415866 -0.03789341]
[ 0.04346356 -0.06392622 -0.01971679]
[-0.00722796  0.06562655 -0.06761798]
[ 0.0036107  -0.07887349 -0.09599496]
[-0.02016775 -0.00508742 -0.07124252]
[-0.10297278 -0.0273648   0.04319059]
[-0.10085631  0.00826004 -0.04478782]
[ 0.02686364 -0.0706346  -0.00910826]
[-0.16438983 -0.11804917  0.00346252]
[-0.11343041 -0.02224248  0.10354092]
[-0.01735832  0.0354395   0.00806272]
[ 0.06767063  0.01571081  0.04616315]
[-0.00188667 -0.10315704 -0.00996004]
[ 0.0029101  -0.04287262  0.02468335]
[-0.06943379 -0.02489447 -0.01251438]
[-0.07924804  0.00444606  0.06601271]
[ 0.03354738  0.08009222  0.04732403]
[-0.11117772 -0.10277145 -0.11968356]
[ 0.01476536 -0.06705768 -0.01858631]
[ 0.00475594 -0.05203227 -0.03665205]
[-0.05634585 -0.01016816  0.10397652]
[ 0.05835862 -0.05163427 -0.08981409]
[ 0.04035721  0.06271842  0.05173369]
[ 0.05682324 -0.03450935 -0.02347473]
[ 0.07670022 -0.0325579  -0.05470963]
[ 0.0142505  -0.05028028 -0.04311544]
[-0.03132079 -0.05382201 -0.01689007]
[-0.01749228  0.09570803  0.00388751]
[-0.02664169 -0.00770399 -0.06875996]
[ 0.04050088  0.0958569   0.1060224 ]
[-0.01884662  0.04511506 -0.04929588]
[ 0.02027005 -0.00400059 -0.02029831]
[ 0.16695975  0.19017591  0.16472328]
[ 0.1145815   0.14095186  0.18293811]
[ 0.1167962   0.06732669  0.07022271]
[-0.04709838 -0.00031492 -0.06272067]
[ 0.04669614  0.06373186 -0.04189963]
[-0.06545583  0.05465456 -0.05861894]
[-0.00949678  0.01738409 -0.03253978]
[ 0.08066814 -0.01772564 -0.06345363]
[ 0.04862355  0.00787557  0.02429857]
[ 0.00931817 -0.0210935   0.06680475]
[-0.07319093  0.02067745  0.07035574]
[ 0.00812613 -0.03784383 -0.03555391]
[ 0.12920855 -0.17720333  0.0281249 ]
[ 0.08677125 -0.23583014  0.00350355]
[ 0.19392879 -0.18065365 -0.05303061]
[ 0.02298225 -0.09105085 -0.11228142]
[ 0.14722185 -0.03738575 -0.01955158]
[ 0.09406491 -0.06940622  0.02787635]
[ 0.20260046 -0.20324306  0.10520434]
[ 0.18614762 -0.24320219  0.09942479]
[ 0.23402406 -0.15752585  0.17528091]
[ 0.04597857 -0.06031398  0.0325418 ]
[ 0.10687974 -0.05800317 -0.00610872]
[ 0.0730124  -0.04081421  0.07480307]
[ 0.04538291 -0.16759399  0.11445899]
[ 0.1924035  -0.21470805  0.15243305]
[ 0.20560068 -0.26905957  0.10831641]
[ 0.08126224 -0.06092816 -0.05775061]
[-0.06049743 -0.03545336 -0.06705854]
[-0.04865244  0.07849233 -0.00026481]
[ 0.07203212  0.17268954  0.10722161]
[-0.0236665   0.11545458  0.05336648]
[-0.10536504  0.05201603 -0.10708187]
[ 0.01087828 -0.08836418 -0.02066755]
[ 0.01596452 -0.08670875  0.04549851]
[-0.05828954 -0.12549651 -0.02304415]
[-0.03746524  0.08073984  0.04657365]
[ 0.02445848  0.06551233  0.09431433]
[-0.0673375   0.2147512   0.17764661]
[ 0.16542859 -0.22922164  0.10133387]
[ 0.20218784 -0.28094628  0.04276943]
[ 0.15336108 -0.3542546  -0.00052137]
[-0.05462954  0.02142795  0.01010471]
[-0.06157262 -0.02327854 -0.00350273]
[-0.05579179 -0.01759342 -0.05794283]
[ 0.08160761 -0.01801976  0.0004473 ]
[ 0.05355902 -0.07372676 -0.09233049]
[ 0.04337163 -0.07398185  0.07380386]
[ 0.15444519  0.05600495  0.19560857]
[ 0.09259132  0.01399637  0.0012446 ]
[ 0.12545888 -0.09318913  0.02970263]
[ 0.09075376  0.14050584  0.13223688]
[ 0.17112699  0.0224935   0.09631845]
[ 0.05986303  0.00508275  0.03486922]
[-0.25706789  0.10508654 -0.11858172]
[-0.16371317  0.10766874 -0.00092401]
[-0.18678614  0.0921649  -0.08673821]
[ 0.06073233 -0.02097859  0.03830632]
[-0.07856989 -0.07788093 -0.04188979]
[-0.0299143  -0.00651109 -0.00866053]
[-0.07692842  0.05935368  0.0863855 ]
[ 0.02009691  0.0068104   0.00285986]
[-0.07917972 -0.00854893  0.00435804]
[-0.02828657 -0.01098892  0.04691536]
[-0.05795111  0.04003795  0.06254497]
[-0.06828415 -0.00389167  0.03731829]
[ 0.01763454 -0.10028227  0.00304621]
[ 0.09543819 -0.06824686 -0.0764503 ]
[ 0.08816575  0.03061933 -0.04204146]
[-0.20287244  0.08038845 -0.0087483 ]
[-0.05779678  0.15235466 -0.03341785]
[-0.06023518  0.07239784  0.04002292]
[ 0.07241352 -0.28874275 -0.00849223]
[ 0.10515463 -0.26060137  0.00063848]
[ 0.18002038 -0.39963105  0.05579302]
[-0.39256945 -0.05452194  0.00372124]
[-0.19653368  0.11086757  0.02924091]
[-0.04078645  0.04405323 -0.04721822]
[ 0.06059964  0.12766907  0.11117049]
[ 0.24414909  0.06311711  0.154144  ]
[ 0.13288502  0.02171701  0.12485861]
[-0.25293306  0.14907311  0.04728308]
[-0.12298681  0.17682254 -0.00715864]
[-0.17038415  0.18046129  0.0123124 ]
[-0.27982467  0.11387779 -0.12728851]
[-0.17482658  0.09641078 -0.06464119]
[-0.180004    0.08476041  0.01188132]
[-0.06928152 -0.04146225 -0.01322544]
[-0.0478384  -0.04085589 -0.00119706]
[ 0.01481334  0.0617292   0.05469003]
[ 0.01545531  0.27738062 -0.03758892]
[-0.07038244 -0.00899548 -0.0673884 ]
[-0.17767718  0.0512962   0.00427219]
[-0.25370744 -0.04196924  0.08710796]
[-0.01465255 -0.10392871  0.11900677]
[ 0.12386882 -0.00116886  0.08938868]
[-0.30239114 -0.11959869  0.04748761]
[-0.18799917 -0.27236101 -0.23184964]
[-0.11048412  0.00052394 -0.03928312]
[-0.058676    0.04049807  0.00786834]
[-0.01298097  0.0606302   0.01519183]
[ 0.04452432  0.00113855  0.05782748]
[ 0.05577218 -0.23133266  0.0675951 ]
[ 0.09310203 -0.24253006 -0.06806485]
[ 0.0550241   0.01578984 -0.03919576]
[-0.07437908  0.02579772 -0.00472128]
[ 0.01523216  0.0629214   0.01207584]
[-0.05957266 -0.06280182 -0.01411947]
[-0.3736898  -0.01011962 -0.00268224]
[-0.37199777 -0.00288017 -0.03972437]
[-0.20251793  0.03468946 -0.0013662 ]
[-0.05441469 -0.1533346  -0.01728582]
[ 0.07667837 -0.04235346 -0.00437841]
[ 0.04077308 -0.01348581  0.0698555 ]
[-0.35114813  0.23295093  0.14997934]
[-0.4795458  -0.03448413  0.05855826]
[-0.26459572 -0.06732797 -0.01431947]
[-0.07918228 -0.04295367 -0.15109539]
[-0.04995381 -0.00468037 -0.15523593]
[ 0.08678056  0.03965263 -0.18626022]
[-0.21076667  0.27844492 -0.04830312]
[-0.25798905  0.0492677   0.00663973]
[-0.2584188  -0.15101869 -0.02201492]
[-0.07243995 -0.07909352 -0.02106925]
[ 0.03882322  0.02627184 -0.01300565]
[ 0.07187947 -0.07065975 -0.03122511]
[-0.10390151 -0.02240987  0.12303437]
[-0.05506279 -0.06249741  0.05474136]
[-0.02331283 -0.07895289 -0.16292275]
[-0.25472522  0.03735817  0.01768225]
[-0.30978358 -0.15558302 -0.05591816]
[-0.13595305  0.00970692 -0.10894541]
[ 0.19182967 -0.03189933 -0.08007193]
[ 0.02921624  0.00439319  0.12497257]
[ 0.03096581  0.05374884  0.02340035]
[-0.4366481   0.09203045 -0.05655957]
[-0.46355665 -0.07764712 -0.07885462]
[-0.25461599 -0.05905759 -0.10232412]
[ 0.01658511  0.12164829  0.12184332]
[ 0.02728248  0.0223089   0.12440146]
[ 0.01367267  0.09216379  0.13075535]
[ 0.04993531 -0.24579771  0.02196881]
[-0.040604   -0.05011545  0.09496994]
[ 0.00551001 -0.01803624 -0.01291194]
[-0.2943871   0.04901879  0.08482142]
[-0.19141537 -0.12111337  0.15726338]
[-0.10909702 -0.01527092  0.00901595]
[ 0.05003773  0.02187913 -0.17761205]
[-0.12377979 -0.13108417  0.0150519 ]
[-0.06441814  0.0903248   0.01040549]
[ 0.07992345 -0.12589897  0.00460013]
[ 0.10921902 -0.00489268 -0.05747049]
[ 0.14798598  0.0910532  -0.04377465]
[ 0.02795134  0.06681821  0.06193285]
[-0.00229948 -0.01386202  0.00921568]
[ 0.02390204  0.02493237 -0.01442651]
[ 0.07727553  0.10900681 -0.01171874]
[ 0.15233745  0.14978664 -0.0383441 ]
[ 0.2445388   0.03650238 -0.02466475]
[-0.05276934 -0.0680194   0.07700388]
[ 0.04659016 -0.05231404  0.00947338]
[ 0.03991449  0.00273711  0.05697643]
[ 0.06640688 -0.13525221 -0.05293299]
[-0.04692433 -0.03929989  0.03777582]
[ 0.04151138  0.00207282  0.06969207]
[ 0.08679143 -0.16562417 -0.0406525 ]
[-0.02791825  0.04935963  0.11778677]
[-0.06454685  0.06366429  0.05301951]
[-0.66396803 -0.07096019 -0.1671752 ]
[-0.78422767 -0.17178088 -0.11316346]
[-0.73903221 -0.0901665  -0.02436616]
[-0.18903868 -0.20425393 -0.09858389]
[-0.16548744 -0.22016667 -0.07806052]
[-0.23007292 -0.16833514 -0.07003742]
[-0.00897288 -0.18312426 -0.15926273]
[-0.0256191   0.00490083 -0.04769034]
[ 0.00405232  0.03967202  0.17365512]
[ 0.17481963  0.02416451 -0.14729966]
[-0.05408834 -0.08392582  0.04510006]
[ 0.02988444  0.08071259  0.03984688]
[ 0.096662   -0.14889759 -0.02362171]
[ 0.02368872 -0.0345652   0.1064992 ]
[ 0.12148243  0.03338481  0.00891188]
[-0.05937421  0.06758903  0.01662299]
[-0.04054651 -0.0033411  -0.00162766]
[ 0.02694675  0.06406904 -0.04929985]
[-0.08175366  0.02361962  0.00923098]
[ 0.0930977  -0.02793094 -0.01089963]
[-0.01606545  0.07536408  0.05115338]
[ 0.10673835  0.06562859 -0.00933028]
[-0.00828587 -0.06198512 -0.00497698]
[ 0.05037068 -0.06089666  0.11275545]
[-0.149664   -0.07514805 -0.15892036]
[-0.33252555 -0.28989884 -0.17738841]
[-0.31741357 -0.33766559 -0.06304815]
[ 0.0714564   0.02411808 -0.01427519]
[-0.04430489  0.01973413 -0.02275628]
[ 0.02988498  0.02015216  0.00133375]
[ 0.00573496 -0.12557268  0.03154837]
[ 0.07751594 -0.22369765  0.15117349]
[-0.00788375 -0.16431202  0.09222221]
[-0.00366354  0.02221055 -0.07200573]
[-0.04412777  0.0658349  -0.0738782 ]
[-0.00980231 -0.0738279  -0.06066155]
[-0.04052412  0.0059558  -0.08284555]
[-0.00754322  0.05116539 -0.00277205]
[-0.06378841  0.17261404 -0.06859845]
[-0.00872692 -0.14710107  0.17603077]
[ 0.09477576 -0.24759801  0.17542951]
[ 0.08089026 -0.03699862  0.05313343]
[-0.19676374 -0.02487217  0.04330318]
[-0.43546146  0.11518065 -0.05455377]
[-0.21867335  0.2516534  -0.10710169]
[-0.01995485  0.08330273 -0.04860533]
[ 0.11177242  0.05855253  0.02766923]
[ 0.03200803 -0.00338353  0.00874635]
[-0.28392825 -0.02212938  0.06530644]
[-0.24080192  0.014779   -0.05590123]
[-0.1458362   0.04156144 -0.04006657]
[-0.02852635 -0.02432474  0.07371828]
[-0.03088175  0.03436219 -0.08345328]
[-0.00482989  0.07151951 -0.03481827]
[ 0.05643482 -0.05189007 -0.28838575]
[-0.07549271 -0.28827152 -0.20762335]
[ 0.07808705 -0.26174831 -0.02418734]
[ 0.01959866  0.03970248  0.03097238]
[-0.03126509  0.07767177 -0.13412254]
[ 0.00940772  0.14805041 -0.10088639]
[ 0.032545   -0.2709465  -0.09580237]
[ 0.01840546 -0.2822063  -0.05916598]
[-0.0283281  -0.26166826 -0.0491238 ]
[-0.20067151  0.01124415  0.03903729]
[-0.13017498  0.03511862  0.00552689]
[-0.03887875  0.18090861 -0.04876756]
[-0.00957301  0.0963443   0.09488827]
[-0.00771723  0.04747027  0.05304346]
[-0.01310757  0.05298062  0.12353063]
[-0.02043334 -0.07559143  0.08029638]
[ 0.10513357 -0.11558531  0.15836625]
[ 0.03478028 -0.00395696  0.0833357 ]
[-0.1734513  -0.10378223 -0.1208114 ]
[-0.40184006 -0.16267328 -0.14656755]
[-0.20526169  0.0891745  -0.05812977]
[-0.09377031  0.1228032  -0.0191665 ]
[-0.1171159   0.04344867  0.03284988]
[-0.09486999  0.01770643  0.09691459]
[ 0.14002621  0.03506989 -0.13049527]
[ 0.13896021 -0.12379503  0.02550176]
[-0.00045785 -0.17453708  0.02046345]
[-0.03334542  0.0336359   0.00762866]
[-0.05719488 -0.07358072  0.0645648 ]
[ 0.01725944  0.06507909  0.06938413]
[-0.00755334 -0.1089048  -0.00206173]
[ 0.01789821 -0.00778638  0.03742906]
[ 0.13320909 -0.10572369  0.01982827]
[-0.00301576  0.07211296  0.00984431]
[ 0.07730377 -0.04452299 -0.02025561]
[ 0.01031278 -0.04887617 -0.04922506]
[-0.02466953 -0.13128914  0.04359126]
[-0.02406218 -0.13130398  0.07990878]
[ 0.0378703  -0.08780571  0.1050838 ]
[ 0.01196136 -0.22034642  0.0654425 ]
[-0.03126399 -0.25270113  0.07871611]
[ 0.02346849 -0.06146256 -0.01243319]
[-0.21383575  0.01853644 -0.03945237]
[-0.02911697  0.20102103 -0.06414139]
[-0.14118429  0.21513738 -0.13469058]
[-0.10728367  0.08581573  0.11343519]
[-0.17171939  0.08744335  0.03193888]
[-0.04760674 -0.07697478 -0.0275249 ]
[-0.23400222 -0.05037538  0.08076686]
[-0.23726921  0.04107098 -0.05126392]
[-0.22510792  0.0535104   0.01358141]
[-0.00319002 -0.14631817  0.05739453]
[-0.01985123 -0.09936538 -0.01290576]
[ 0.06400006 -0.00968563  0.05881968]
[ 0.07128906 -0.09569722 -0.18372472]
[ 0.03532011 -0.12747917 -0.18510151]
[ 0.14497098 -0.2274619  -0.11532523]
[-0.00636969  0.08223831 -0.0560742 ]
[-0.00264732 -0.03733465  0.03061963]
[ 0.0573436   0.07207138 -0.05509163]
[ 0.15348412  0.02572481  0.07178963]
[ 0.19920969  0.11193021  0.00147113]
[-0.12355246 -0.07168955 -0.10952741]
[-0.05103925  0.13197969  0.14241911]
[-0.07157236 -0.12220916  0.02733781]
[ 0.08698387  0.03950034 -0.00455172]
[ 0.04565051  0.02147191  0.17783195]
[-0.26149768 -0.29812318 -0.0844279 ]
[-0.07043894 -0.06556135  0.08350961]
[-0.03449384 -0.00649226  0.01449486]
[-0.06137772  0.07882382  0.0724467 ]
[ 0.02653931  0.04773602 -0.01443991]
[-0.14117524  0.10680016 -0.01237005]
[-0.08095416  0.06728114 -0.02425103]
[-0.12360214  0.11113395  0.11164599]
[ 0.01368613  0.01461934  0.03988234]
[-0.02213737 -0.08070391  0.06670406]
[ 0.00270005 -0.01712633  0.06870391]
[ 0.15703401  0.13544521  0.12156169]
[ 0.03935469 -0.02361576  0.07099919]
[ 0.0130001   0.0916061   0.08285815]
[-0.1987942   0.00839999 -0.05379111]
[-0.00117297  0.07950361 -0.0046213 ]
[-0.13125363 -0.02948049 -0.06167602]
[ 0.07446371  0.06321459  0.05053953]
[-0.09763703 -0.07943432  0.02335383]
[ 0.09262101  0.05077689  0.1297809 ]
[ 0.07818045  0.04288034 -0.12597941]
[ 0.1452916   0.0626016  -0.20370245]
[-0.01319496 -0.01484114 -0.07760878]
[ 0.23691781  0.08273457  0.07183451]
[ 0.07939506 -0.09206278 -0.08022351]
[-0.03153726 -0.01033525  0.04999173]
[-0.04217007  0.08212453  0.01807307]
[-0.0638386  -0.02951529  0.03866084]
[ 0.02279114 -0.06531969 -0.0206772 ]
[-0.04925418  0.16070549  0.22416882]
[-0.06930951  0.05238131  0.08284313]
[ 0.22304201  0.19912913  0.19560002]
[ 0.17720269  0.02721458  0.02787119]
[ 0.0303756  -0.03575824 -0.03930999]
[-0.18396954 -0.06657411 -0.0171352 ]
[ 0.0339077  -0.11541122 -0.09282196]
[ 0.0352714  -0.20913684  0.07580302]
[-0.06904129 -0.59163958 -0.33028156]
[ 0.08807568 -0.0121503   0.08695218]
[ 0.0668731   0.08235063 -0.01129631]
[-0.02962946 -0.07559749  0.03742737]
[ 0.00233086  0.00146465  0.0565301 ]
[-0.05776746  0.04582557  0.03465515]
[-0.010263   -0.02005663 -0.04181658]
[-0.04037881  0.10791393 -0.07159312]
[-0.11740056  0.08039967  0.00262923]
[-0.11962293  0.06882799  0.02638467]
[-0.03509444  0.11902989  0.06613066]
[-0.07890993 -0.00464143 -0.01329954]
[ 0.2134295   0.08724452  0.08498856]
[ 0.00192301 -0.13465635 -0.06263228]
[-0.15796858 -0.24854468 -0.11874251]
[-0.44112867 -0.52120441 -0.38926944]
[-0.1138157   0.09536375  0.03909652]
[-0.09959517  0.09767217  0.04379782]
[-0.1437571  -0.07139671 -0.04439211]
[-0.00169722  0.08116524 -0.04226054]
[-0.04510335  0.02035364  0.04974988]
[ 0.08416126 -0.06867589 -0.06188032]
[ 0.07130335  0.07244711  0.11167095]
[ 0.02950434  0.10649218  0.13146541]
[-0.02145655 -0.03089404 -0.02262227]
[-0.04111638 -0.07452839 -0.01174606]
[ 0.04273179 -0.00078778 -0.02341908]
[-0.01571324  0.06600305  0.03606041]
[-0.07390007  0.13339743 -0.13317694]
[-0.05033836  0.16228777 -0.08705214]
[-0.0559601  -0.01065792 -0.15131201]
[-0.07920999 -0.05160561 -0.05169772]
[ 0.07752236  0.09515816 -0.02433017]
[-0.01046567 -0.34587449 -0.21228491]
[ 0.21144092 -0.01582793  0.0033016 ]
[ 0.12631185  0.06946825 -0.03758841]
[-0.03920993  0.1131519   0.18491884]
[ 0.10934795  0.01268648 -0.18628761]
[ 0.19496997  0.2211217  -0.07166166]
[-0.10616991 -0.04072914  0.13142343]
[-0.09731028 -0.01771437 -0.03212539]
[-0.1262681  -0.11869193  0.05722473]
[-0.51243818 -0.46458897 -0.31339177]
[ 0.03132305 -0.01417468  0.02028029]
[ 0.13038452 -0.00417706 -0.00438946]
[-0.01557653 -0.40878683 -0.02248663]
[-0.03832323 -0.17187001 -0.06633993]
[-0.02346219 -0.10479717 -0.14808019]
[-0.04542219 -0.30193135 -0.22535563]
[ 0.04927846 -0.06352059 -0.06629833]
[ 0.0117324   0.03821165  0.00998045]
[-0.05201108  0.02681119 -0.01716703]
[ 0.0848821   0.1154552   0.03839439]
[ 0.06549091 -0.0819814  -0.0914887 ]
[-0.16347919 -0.28223646  0.00625192]
[ 0.05672356  0.01843216 -0.0451348 ]
[ 0.03059406  0.075674   -0.03842152]
[ 0.11935271  0.10966263 -0.08835493]
[-0.05159719 -0.13459621  0.03626319]
[-0.12487192 -0.11115281 -0.0223938 ]
[-0.07173717 -0.139309   -0.23623104]
[ 0.02355057 -0.06701796 -0.06869544]
[ 0.0574262   0.04585624  0.03172553]
[-0.00168452  0.06218506 -0.03731098]
[ 0.05397949  0.07335569  0.0514813 ]
[-0.02056996 -0.00442033  0.12094504]
[ 0.08775059 -0.06129915  0.01267179]
[ 0.06883605 -0.07954483 -0.02022642]
[-0.07417583 -0.04115388 -0.01844902]
[ 0.05896351 -0.03945296 -0.01735503]
[ 0.12835892 -0.01876295 -0.10236076]
[ 0.06018613  0.02390899 -0.13927363]
[-0.01396988  0.17122689  0.00574574]
[ 0.19353403  0.01173197  0.04018387]
[ 0.07723784 -0.00579242  0.07700267]
[ 0.05216024 -0.29376951 -0.13828625]
[ 0.06450551 -0.08915796 -0.01921728]
[-0.09421016 -0.00493798 -0.03396856]
[ 0.06598718  0.15126507 -0.03934157]
[ 0.14608155 -0.14511488  0.01140439]
[ 0.10527408 -0.06559018  0.02324168]
[-0.00873989 -0.07313508  0.03669745]
[ 0.11193055  0.06863585  0.02387878]
[ 0.02141493 -0.0295415  -0.10345997]
[-0.04565417  0.08609966  0.02862594]
[-0.05557816 -0.08203522 -0.00101684]
[-0.04208955  0.00965026  0.05698141]
[ 0.04429086  0.07323459 -0.08362571]
[-0.00252132  0.07160493  0.03871137]
[ 0.02291456  0.0511417   0.14167535]
[ 0.27102599  0.23444709 -0.04553832]
[ 0.08183948 -0.05083003  0.0666821 ]
[-0.03546039 -0.07003517  0.05827663]
[-0.31775045  0.02411213  0.12209596]
[-0.03271288  0.01521121  0.09169511]
[-0.1386402  -0.22404182 -0.15193236]
[-0.49984956 -0.51904285 -0.21855529]
[ 0.0815983  -0.05441649 -0.05996504]
[ 0.10418249  0.00551331  0.00610425]
[-0.14070208 -0.01438513  0.11946708]
[ 0.08596429  0.10563643 -0.00690957]
[ 0.10819223  0.05870984  0.09897069]
[ 0.01324228  0.02093559 -0.00919054]
[ 0.0067784   0.08272038  0.08566689]
[ 0.10884093 -0.02690996  0.0276954 ]
[ 0.06232727 -0.06815652 -0.08117805]
[-0.01657354 -0.08572846  0.01857947]
[-0.00384431 -0.06604277 -0.02666182]
[ 0.0380679   0.17544806 -0.04718696]
[-0.0327097  -0.05829187 -0.17501536]
[-0.43084374 -0.51665092 -0.30017266]
[-0.92431694 -0.65292758 -0.1442581 ]
[-0.00624913  0.09004711  0.14032906]
[ 0.03786145  0.03873623  0.08434794]
[ 0.06196321 -0.01926896 -0.11588227]
[ 0.05953662  0.01089409 -0.02849146]
[-0.02830987 -0.03546118 -0.04672463]
[-0.07444484 -0.07932068  0.07437425]
[ 0.18033199  0.07423758  0.1166294 ]
[ 0.10027228  0.01001649  0.03502566]
[  1.74810469e-01   3.13936770e-02   9.75570510e-05]
[-0.04872131 -0.0829102  -0.07869347]
[-0.05467028 -0.00883014  0.06331977]
[-0.03472899 -0.08011222 -0.00951265]
[ 0.17660837 -0.00947298  0.04871649]
[ 0.05012786  0.01279076  0.12917323]
[-0.01144509 -0.11876289 -0.08034968]
[ 0.15243883  0.04722087  0.04968353]
[-0.00317016 -0.06263012 -0.00238894]
[-0.25770479 -0.23062104 -0.11259861]
[ 0.12407903 -0.0870994  -0.09346084]
[-0.08222189 -0.01226259 -0.04915636]
[-0.31425259  0.05909725  0.0897001 ]
[-0.1035528   0.07352659 -0.02189357]
[ 0.01805656 -0.01076201 -0.06253071]
[ 0.05919699 -0.12539789 -0.327007  ]
[ 0.10027735 -0.01341409 -0.01967451]
[-0.0791352  -0.28090912 -0.16359997]
[-0.71699256 -0.3468723  -0.09142035]
[ 0.01174303  0.12885426  0.16153598]
[-0.07835022  0.00022296  0.07106456]
[-0.0810541  -0.30716366 -0.22218347]
[ 0.14550121  0.07382616  0.11668   ]
[-0.02136313 -0.06030271  0.07098501]
[-0.06571323 -0.13665561 -0.04387366]
[ 0.00544151 -0.06885204  0.05306533]
[ 0.04013757 -0.07842631 -0.01084044]
[ 0.03133088 -0.06543165  0.07742981]
[-0.10646628  0.16331525  0.10453463]
[-0.06806027 -0.03259683  0.10329211]
[ 0.07818994 -0.05411711  0.04781649]
[-0.10720064 -0.14355133 -0.22831827]
[ 0.09287841  0.03438289  0.03495371]
[ 0.12622876  0.04180313  0.063274  ]
[-0.00517974 -0.0040788  -0.06996155]
[-0.06812033 -0.09236351 -0.06911421]
[-0.16306372 -0.19496675 -0.15189116]
[ 0.0363026  -0.07796326 -0.04745083]
[ 0.02297671 -0.03911371 -0.0710232 ]
[-0.06796784 -0.00187207 -0.03013107]
[ 0.00859098 -0.09936082 -0.03003996]
[ 0.11586706  0.09310872  0.04483712]
[-0.09089421  0.08571935  0.11987758]
[ 0.0095617   0.08140282 -0.03534403]
[-0.00697141  0.01240254 -0.0663832 ]
[-0.01915187  0.01084327  0.02404042]
[-0.00111447 -0.11131385 -0.07388503]
[ 0.12665737  0.01403276 -0.11089019]
[ 0.15017621  0.09584676 -0.15902738]
[ 0.13707148 -0.03591494  0.11598962]
[-0.01982024 -0.07769182  0.0296644 ]
[ 0.0005609  -0.04904464  0.00315914]
[-0.11717102 -0.18982139 -0.04230487]
[ 0.07344032 -0.13343702 -0.08698004]
[ 0.07956751  0.08442403 -0.09642542]
[ 0.09289992  0.05549274  0.01896892]
[-0.00092996  0.0598045  -0.00934869]
[ 0.07031926  0.04610669 -0.11182974]
[-0.2021666  -0.11882383 -0.06398377]
[-0.02641938  0.03457949  0.01216272]
[-0.00813562  0.07047469  0.09469216]
[ 0.03477394  0.01272315 -0.06033149]
[ 0.01091534 -0.07258777  0.00348517]
[-0.05955072  0.03993636 -0.02932976]
[-0.41934919 -0.48040861 -0.28586212]
[-0.17378414 -0.29271957 -0.02867091]
[-0.14939758 -0.14894833 -0.12029555]
[ 0.01257612  0.04260014  0.00156213]
[ 0.02084629 -0.02083664 -0.09490535]
[ 0.06182787  0.04554154 -0.03317245]
[ 0.1211608   0.17293167  0.02158078]
[-0.17107522 -0.01961085 -0.01011053]
[-0.01060591 -0.01663375  0.11224739]
[-0.00808098  0.01974987 -0.03945304]
[-0.04594692  0.07171351  0.05568616]
[ 0.03339028  0.07702658 -0.09913423]
[ 0.08014635 -0.00936162 -0.0420224 ]
[ 0.04778171  0.0261701   0.04576113]
[-0.00394967  0.08767691  0.07219522]
[ 0.07803901  0.05794815 -0.02218536]
[ 0.08402395  0.0466632   0.0630196 ]
[-0.09787203 -0.02953788  0.01708526]
[-0.18245269 -0.25970295 -0.25367317]
[ 0.01023181 -0.02308811  0.00928756]
[ 0.09499574  0.00099773  0.02753843]
[ 0.22618096  0.33701408  0.27428228]
[-0.0216343   0.13388155  0.05936822]
[ 0.00449228  0.11371124  0.03536631]
[ 0.11864581 -0.00889333 -0.02216838]
[-0.07807649  0.0033045   0.04434963]
[-0.03548102 -0.01683882  0.02211009]
[ 0.0565471  -0.00064473 -0.02128043]
[-0.0150017   0.03831369 -0.05591244]
[-0.04503633  0.06976535  0.05589766]
[ 0.0735026  -0.0499875  -0.06062808]
[ 0.16356629  0.05293206  0.01279999]
[ 0.18325315  0.11857715  0.06509395]
[ 0.07450321  0.03653055 -0.07959373]
[ 0.07882932  0.06018161 -0.07982522]
[ 0.03681096 -0.05137932 -0.02288865]
[ 0.08827101 -0.03362792  0.03103975]
[ 0.02870408  0.02720227 -0.04419911]
[ 0.06176277  0.0669432   0.04245605]
[ 0.10773188  0.01811241  0.04295301]
[-0.03271027 -0.00846092  0.02712294]
[-0.02901566  0.06258048  0.09618251]
[-0.2329115  -0.02653657  0.01405505]
[ 0.01853311 -0.03276927 -0.05978452]
[ 0.08264046 -0.01685662 -0.04647342]
[-0.02286752  0.11830144 -0.03550376]
[-0.02400176 -0.05421586 -0.00699723]
[ 0.03021587 -0.04663162  0.00399256]
[ 0.15276301  0.13035223  0.15068094]
[-0.09653927 -0.03519118  0.03374422]
[ 0.06554408  0.03541192 -0.00033012]
[-0.02240705  0.09376185  0.00243151]
[-0.0922747   0.05180053  0.04059342]
[-0.04400258  0.0840413   0.12158056]
[ 0.02897844  0.04183516 -0.08730244]
[-0.05647868 -0.02560891 -0.01909317]
[-0.10403743  0.0023736   0.06270906]
[ 0.02438036  0.02180946 -0.06655263]
[-0.00097509  0.01390641 -0.01992281]
[ 0.07698245  0.01991247 -0.01496395]
[ 0.14797525 -0.06103037 -0.08946179]
[-0.0153934  -0.13434687  0.1149798 ]
[ 0.05889276 -0.04584837  0.10968592]
[-0.13653015 -0.04116823  0.1403918 ]
[-0.0725217   0.18857804  0.17690633]
[-0.00017155  0.12826754  0.05139763]
[-0.03575906 -0.03057131 -0.19843845]
[-0.02178179 -0.02016529 -0.09621878]
[-0.02302064 -0.09323817 -0.14039196]
[-0.06799395 -0.02384055  0.00330783]
[-0.02845655 -0.01377663  0.02768137]
[-0.05523536  0.03055646  0.06873109]
[-0.19782399 -0.30797037 -0.26808342]
[-0.06087159 -0.16953282 -0.27242532]
[-0.0470392  -0.4382526  -0.22158532]
[ 0.00365731 -0.0533368  -0.00523091]
[ 0.07102138  0.03558294 -0.00118683]
[-0.05618001  0.08077538  0.00414259]
[ 0.14515452  0.03295064  0.10793801]
[ 0.03194123  0.04770139  0.03879073]
[-0.16532646  0.02469058  0.12518883]
[-0.04175852 -0.19042079 -0.08722466]
[ 0.05209522 -0.00721579 -0.05776078]
[ 0.1046267  -0.07210138 -0.02700838]
[ 0.05275909  0.09285943 -0.04104076]
[-0.02420191 -0.03996886  0.03171559]
[-0.36014563 -0.1526099  -0.05260285]
[ 0.02069104  0.01608561  0.01343545]
[ 0.1138202  -0.08356206 -0.02550094]
[ 0.07995647  0.03534948  0.030469  ]
[ 0.13610774  0.04349956  0.04587901]
[ 0.07860295 -0.00415185  0.01110858]
[-0.21916451 -0.06651077 -0.05622033]
[-0.01176567 -0.03743214  0.06124109]
[ 0.04121727  0.05472296 -0.00540357]
[ 0.051405   -0.05147786 -0.06845333]
[-0.15308784 -0.05162248  0.05953305]
[-0.05837386 -0.06079113 -0.13668405]
[-0.11032332 -0.1718588  -0.22929396]
[ 0.08347417 -0.01867788  0.05026403]
[ 0.05734559 -0.01492565  0.07242578]
[ 0.06530409 -0.00899714  0.09745128]
[ 0.11694095  0.03903721 -0.25369629]
[ 0.00663052  0.04808381 -0.10665234]
[ 0.1143742  -0.02970236  0.05947747]
[ 0.06663309  0.10211861  0.02225667]
[-0.04036184  0.00079608  0.06110807]
[-0.14916404 -0.03523261  0.06200875]
[-0.16222344 -0.05081886  0.01110136]
[-0.06674599 -0.01691039  0.0093591 ]
[-0.04547077 -0.00423708 -0.04564733]
[-0.14147842 -0.20515119 -0.24586849]
[-0.10903985 -0.28702909 -0.15708497]
[-0.02145955 -0.30585128 -0.10529388]
[-0.02062772 -0.02942807  0.08690008]
[-0.08103088 -0.01027153 -0.03795514]
[-0.33825094 -0.1913195  -0.09495617]
[ 0.02877154 -0.03253684 -0.14963323]
[ 0.06962228  0.13102989  0.04738263]
[ 0.05652788  0.20271838  0.19931374]
[-0.21392414 -0.26314196 -0.3084738 ]
[-0.0593458  -0.22850345 -0.49035302]
[ 0.02194984 -0.2106826  -0.26086596]
[ 0.01472056  0.03919883 -0.0822245 ]
[-0.06923451 -0.03139579  0.06969292]
[ 0.05965711  0.06408502  0.06861781]
[ 0.07984813  0.01161955 -0.07241919]
[ 0.08839298 -0.04190704 -0.18625651]
[-0.0555493  -0.16163199 -0.19737314]
[ 0.04845669 -0.0193473   0.00563098]
[ 0.07081129 -0.02223961 -0.06716376]
[-0.01837083 -0.06476557  0.02304841]
[-0.15575935 -0.18929526  0.07170315]
[ 0.06434941 -0.13756824 -0.01888556]
[ 0.05119777 -0.12508591 -0.11690522]
[-0.07734191 -0.13195103 -0.06533282]
[-0.02256585  0.01418613 -0.1197775 ]
[ 0.14466408  0.02334353  0.01443123]
[ 0.03533467  0.10240287  0.13052709]
[ 0.02168702  0.10773993  0.1807469 ]
[-0.1494686   0.05502784  0.18298043]
[-0.02723544  0.36010173 -0.01673314]
[ 0.05192072  0.20607759 -0.02640261]
[ 0.1098693  -0.07667141  0.00290692]
[-0.04257805 -0.19796015 -0.30118185]
[ 0.03103702 -0.10077848 -0.05217686]
[ 0.01734846  0.12665232  0.06245562]
[ 0.0345758  -0.04497472 -0.01756587]
[-0.0061847   0.0528442  -0.04926421]
[ 0.11761823 -0.02062208  0.03248793]
[-0.02764267 -0.1752612  -0.21588998]
[ 0.01434085  0.05693333 -0.22440173]
[ 0.0432692   0.00133759 -0.29692128]
[-0.06414711  0.04877181  0.01954832]
[ 0.01638482  0.04812842 -0.0543448 ]
[ 0.07553139 -0.06977799  0.02028087]
[-0.01843804 -0.07526727 -0.00357494]
[ 0.13192223 -0.07156683 -0.16461328]
[ 0.10951807 -0.1292776  -0.0673485 ]
[-0.03041486 -0.10777458 -0.12889165]
[ 0.05031444  0.00389352  0.04201141]
[-0.05140157  0.10406715  0.10686556]
[-0.14637439 -0.14536875  0.04082314]
[-0.11170971 -0.19326225 -0.0885012 ]
[-0.02401611 -0.13959138 -0.05606412]
[ 0.05420772 -0.07903957  0.08293524]
[-0.0582355   0.06181218  0.02520446]
[ 0.04723324  0.01641698  0.05076068]
[-0.06506115 -0.13444015 -0.10965227]
[-0.00716078 -0.0660266   0.04332615]
[ 0.02939526  0.02952453  0.07773239]
[ 0.06553999 -0.07735357  0.01800537]
