layers 14
layer 0 Convolution2D
32 1 3 3 valid
[-0.53349847 -0.25969559 -0.15013127]
[-0.03533341  0.02602836  0.12013578]
[ 0.32279423  0.33825031  0.23959173]
[ 0.54382986  0.4254145   0.1884084 ]
[ 0.07986674 -0.06016231 -0.09890966]
[-0.4403564  -0.46215338 -0.19070196]
[ 0.46746069 -0.27092725 -0.40115857]
[ 0.54134685 -0.10452541 -0.25520054]
[ 0.5224033  -0.08460401 -0.37853885]
[ 0.57011539  0.05514381 -0.06611354]
[ 0.18146922 -0.2341297  -0.58526778]
[ 0.30948806 -0.02719252 -0.18604681]
[ 0.45378622  0.4219434   0.13870689]
[ 0.26028502 -0.02007545 -0.18844813]
[-0.29294488 -0.4305239  -0.36214626]
[ 0.17699055  0.38816872 -0.14273915]
[-0.21673749 -0.23057517 -0.49024403]
[ 0.10208254 -0.33185089 -0.06345539]
[-0.24195497  0.16326511 -0.18598527]
[-0.12509753  0.35159406  0.27388003]
[-0.47733542  0.11724568  0.16512017]
[ 0.05891142  0.07487884 -0.64943159]
[-0.02458772  0.23193517 -0.09306093]
[-0.2478027   0.36499444  0.29708746]
[-0.62198794 -0.25745836  0.15386884]
[-0.2657063  -0.0743838   0.18213367]
[-0.08470488  0.37248769  0.61353946]
[-0.45876718 -0.43629023 -0.36014226]
[ 0.02784802 -0.00867434 -0.06191433]
[ 0.44524771  0.45086905  0.38326997]
[ 0.06385906 -0.3965615  -0.48592708]
[ 0.24317735  0.04732369 -0.27120411]
[ 0.36135763  0.34528127  0.14755537]
[ 0.50465858  0.29627335 -0.33834794]
[ 0.41795927  0.08536366 -0.29245728]
[ 0.2896454  -0.18665943 -0.75863516]
[-0.10817001  0.57897568  0.08820354]
[-0.37788609  0.2328577   0.17288674]
[-0.51685417  0.19373138 -0.17674485]
[ 0.24922258 -0.55829227 -0.15772723]
[ 0.10023959 -0.37342539  0.25792831]
[ 0.07449812 -0.22484399  0.59736878]
[-0.01546272 -0.32101378 -0.63033235]
[ 0.20729648  0.05306254 -0.21736498]
[ 0.39513609  0.43311068  0.13868983]
[-0.01308809  0.43499523  0.49984214]
[-0.17052509 -0.08842798  0.25036073]
[-0.68228912 -0.3843382   0.13440067]
[ 0.12236569 -0.08554178 -0.25270399]
[ 0.40888     0.17463794 -0.2707721 ]
[ 0.17982048  0.14668202 -0.38161904]
[ 0.01053268 -0.30776003  0.07089796]
[ 0.10849366 -0.32325184 -0.09282456]
[ 0.45944974 -0.11477767  0.1290167 ]
[-0.31202057 -0.32024527 -0.12382483]
[ -3.25237423e-01  -2.83568152e-05   1.07995078e-01]
[ 0.07727062  0.34525734  0.47729966]
[ 0.45179763  0.55643499  0.31296751]
[-0.1231278   0.09303065  0.07959061]
[-0.51957285 -0.52079785 -0.32614991]
[-0.07383923  0.58460414  0.17497663]
[-0.09123782  0.32672945 -0.1653852 ]
[-0.06843244  0.07620836 -0.7133162 ]
[-0.10297317  0.42073756  0.34918076]
[-0.22434087  0.09913672  0.1192916 ]
[-0.28832141 -0.36118159  0.04651265]
[-0.19565734 -0.50169474  0.02770566]
[ 0.22195794 -0.16844591 -0.08730348]
[ 0.58500487  0.25123331 -0.19041844]
[-0.18283305 -0.1840767   0.37449843]
[-0.1522195  -0.09139346  0.28724185]
[-0.01576403 -0.31764433  0.2302575 ]
[-0.04157122  0.11320849  0.34944054]
[-0.39470521 -0.01004935  0.30906677]
[-0.36388394 -0.18650849  0.07230345]
[ 0.5402599   0.34360373 -0.16453022]
[ 0.34525499 -0.01091445 -0.14264232]
[-0.01864731 -0.24415153 -0.6588372 ]
[-0.52403224 -0.03656808  0.33348709]
[-0.48371115 -0.09249121  0.39360696]
[-0.06943311  0.16431314  0.3266542 ]
[-0.65092164 -0.26477656  0.30762136]
[-0.23915233  0.03719863  0.2850621 ]
[-0.18920043  0.07952154  0.62590069]
[ 0.3803663  -0.00629803  0.09594353]
[ 0.24931607 -0.1069361  -0.32258031]
[ 0.23115391 -0.32102609 -0.18555857]
[ 0.15457912  0.1284097  -0.03794909]
[ 0.14240673  0.14894205  0.08491472]
[ 0.00335786 -0.00199706  0.05015837]
[-0.32445195 -0.43883848 -0.30383265]
[-0.13238472 -0.00106211  0.11599426]
[ 0.27997419  0.45363739  0.36596531]
[ 0.019349    0.01900181 -0.10484233]
[-0.1354568  -0.14062123  0.05820432]
[-0.10316435 -0.09600259 -0.10585394]
[-0.07213734 -0.08479299 -0.09748366 -0.08486423 -0.04387604  0.22214612
 -0.00556623 -0.07479995 -0.12751511 -0.10185084 -0.0766172  -0.12930095
 -0.09141751 -0.09592146 -0.12409564 -0.12416165  0.02210199  0.02762015
 -0.00189437 -0.0998852  -0.09896206 -0.05622063 -0.04466674  0.04846218
  0.04299739 -0.11201955 -0.07828894 -0.10272377  0.01939005 -0.45638615
 -0.06856894 -0.02586733]
layer 1 Activation
relu
layer 2 MaxPooling2D
2 2
layer 3 Dropout
layer 4 Convolution2D
32 32 3 3 valid
[ 0.02876719  0.06514777  0.06774928]
[-0.68627352 -0.3194831  -0.44250843]
[-0.23298128  0.06717319 -0.0419732 ]
[-0.16200449  0.27876824  0.1779848 ]
[-0.11177639  0.17826319  0.06747957]
[ 0.06630401  0.19390625  0.06157175]
[-0.3395744  -0.56941044 -0.47174588]
[-0.02013969 -1.05087805 -0.27169868]
[-0.44691277 -0.48745295  0.13365276]
[-0.49265435 -0.93073738 -0.66297835]
[-0.5633164  -0.78642714 -0.42048854]
[-0.71158487 -0.39808407  0.01579284]
[-0.37500808  0.07460088 -0.03536282]
[-0.08177046  0.15134837  0.01315765]
[ 0.06873325  0.20339814  0.06610358]
[-0.06964361 -0.30925053 -0.41646725]
[ 0.09549883  0.06529413 -0.29370651]
[ 0.13913111  0.00502853 -0.35034758]
[ 0.09734637  0.04440013 -0.14053249]
[-0.00467562  0.03342653 -0.00660624]
[-0.07519055  0.04464758  0.10604444]
[-0.09276325  0.27774093 -0.15026453]
[-1.11089361 -0.06156764 -0.31508526]
[-0.02351238 -0.44502819 -0.65028828]
[ 0.14010499 -0.05054164 -0.14307988]
[-0.01191748  0.08403206 -0.36956939]
[-0.12593539  0.09344885  0.14122285]
[-0.07524883  0.13019934  0.05614135]
[-1.12493765 -0.20323779 -0.44893488]
[ 0.18368886  0.67965096 -0.14103281]
[-0.41938743  0.24635769 -0.03701827]
[-0.49009192 -0.79610682 -0.25417399]
[ 0.0307895  -0.21112332 -0.42894891]
[-0.82060891 -0.9220801  -0.52815294]
[-0.8584407  -0.43443963 -0.28890863]
[-0.72417247 -0.19767369  0.21145713]
[ 0.10163476  0.12671576 -0.24541394]
[ 0.05468022  0.03985446 -0.0058013 ]
[-0.07451513  0.08883587 -0.03976165]
[-0.17509033 -0.19193758 -0.05977829]
[-0.54189104 -0.67693937 -0.94152576]
[-0.06353191 -0.10250271 -0.16957603]
[-0.24294135  0.30349854 -0.0726356 ]
[-0.40878084 -0.36377838 -0.31165418]
[ 0.17607574  0.02307458 -0.41744459]
[ 0.15764125  0.02904148 -0.20331755]
[ 0.09885935  0.08066848  0.15382561]
[ 0.04499019  0.0558623   0.05772673]
[-1.1072917   0.13602082 -0.12167954]
[-0.76368773 -0.34120145 -0.12939337]
[-0.36817425 -0.17833441 -0.05064199]
[-0.45535815 -0.23440713 -0.10342059]
[-0.32533735 -0.84483862 -0.52463681]
[-0.04801898 -0.1050021  -0.51549464]
[ 0.11211833 -0.0501611  -0.02668403]
[-0.15438487 -0.06724524 -0.42727676]
[-0.09543741  0.05247099  0.06234463]
[ 0.00460628  0.35860533  0.35375714]
[ 0.04276063  0.04293155  0.07711518]
[ 0.19957954  0.1517043  -0.04991647]
[-0.20719147  0.17196855 -0.0953965 ]
[-0.03621214  0.16652045 -0.08685362]
[-0.0162281   0.0588794  -0.02447331]
[ 0.18154292  0.12054694 -0.11334831]
[ 0.09012569  0.05189231  0.04989871]
[ 0.0162868   0.13606536  0.05721676]
[-0.50840682  0.10653605  0.00439429]
[-0.17724557 -1.13982046 -0.47969416]
[ 0.08747315  0.09214916 -0.51392514]
[ 0.10565625 -0.06638909 -0.07665974]
[ 0.08596694  0.02791437  0.04995169]
[ 0.02237     0.04432387  0.17570612]
[  1.62653059e-01   1.11807036e-04  -3.20054799e-01]
[ 0.06929649  0.06429321  0.06404544]
[ 0.06524113  0.0607839   0.14205906]
[-1.23994422 -0.33098289 -0.36542249]
[-0.82639617 -0.04093138 -0.18425214]
[-0.56847048 -0.037319    0.0585409 ]
[ 0.17424439 -0.08609625 -0.27515876]
[ 0.10082098  0.03197597 -0.15051325]
[-0.02643673  0.07941112  0.20351173]
[ 0.16916618 -0.0563646  -0.2238763 ]
[ 0.09024259  0.04160905 -0.1951002 ]
[-0.04998969  0.06338276  0.14378548]
[-0.89039832 -0.16712524 -0.10468089]
[-0.30502856  0.12601833  0.0028296 ]
[-0.14373654 -0.07116636  0.02946733]
[ 0.1532896   0.19950366  0.10481774]
[-0.11733906  0.08594035 -0.01949862]
[-0.40066788 -0.12335937 -0.07351892]
[-0.01936039  0.0708354   0.053313  ]
[-1.20442593 -0.27485162 -0.64460289]
[-0.12772065  0.15878822 -0.01128394]
[-0.02185638  0.04528828 -0.09604408]
[-0.09996636  0.06925872 -0.01581058]
[-0.02023979 -0.03775997  0.02861929]
[-0.42444277 -0.06808256 -0.15866199]
[-1.5860666   0.15311073  0.01887215]
[-0.82117683  0.11127813  0.04528305]
[ 0.02211945  0.07328737 -0.11585995]
[ 0.10119896  0.13322608 -0.69844764]
[ 0.11022788 -0.04350561 -0.69527668]
[ 0.06329314  0.15030293 -0.02007429]
[ 0.0033464  -0.01032379 -0.01263135]
[ 0.07351314 -0.11795255  0.02512009]
[ 0.071919    0.18939961  0.0248228 ]
[-0.00115085  0.03981352 -0.02935822]
[ 0.0827958  -0.16414104 -0.04860306]
[ 0.10162473  0.09491611 -0.02343403]
[ 0.0398462   0.17040806 -0.33744395]
[ 0.13169084 -0.05325847 -0.38771775]
[-0.00780652  0.0573897   0.08701771]
[-0.01848725 -0.00336331  0.12419151]
[-0.10336129 -0.10695987  0.03260056]
[-0.44095659 -0.16263349 -0.10536405]
[-1.07769823  0.04609837 -0.00273701]
[-1.07888079  0.10109512  0.07914072]
[-0.36201262 -0.13071533  0.06042438]
[-0.28246078 -0.13055608  0.29120728]
[-0.13463296 -0.2115884   0.50116146]
[ 0.05103429  0.06033098 -0.10889748]
[-0.58881956  0.01472534 -0.0329522 ]
[-0.23655255  0.07337809  0.04266471]
[-0.71874213 -0.61569285  0.05236558]
[-1.30255163 -0.36540696  0.06278406]
[-0.27020422 -0.21544029 -0.14533943]
[ 0.0014133   0.02361093  0.03337768]
[ 0.03578879 -0.06787941  0.109152  ]
[ 0.12777138 -0.22828256  0.10979057]
[ 0.04384568  0.14085236 -0.0196531 ]
[ 0.00721097  0.00920008 -0.03665638]
[ 0.06929318 -0.23567346 -0.02879016]
[-0.01736958 -0.24552464 -0.14137259]
[-0.10246859 -0.12853472 -0.11812212]
[-0.24742033  0.04685642 -0.00446501]
[-0.77082431  0.15112856  0.12890148]
[-0.33096179  0.18680304 -0.18274528]
[-0.18250662  0.18316618 -0.21348719]
[-0.04947068 -0.09945835  0.00152556]
[-0.02526855 -0.41109949  0.15597731]
[ 0.15665483 -0.50832242  0.15516299]
[-1.16042674 -0.15752076 -0.08906958]
[-1.24166954 -0.11404829 -0.09342872]
[-0.518314   -0.02600306 -0.14529039]
[ 0.05878612  0.09223142  0.06181265]
[-0.0125511   0.02489048  0.08243478]
[ 0.05546479 -0.07483415  0.05615661]
[-0.09973001  0.07967335  0.18236512]
[-0.01628557  0.10121179  0.09148814]
[ 0.10840145  0.03663291 -0.041092  ]
[-0.84500152  0.10757388 -0.07675478]
[-1.80689764  0.05916712 -0.00382334]
[-0.85318446  0.14570816 -0.00704771]
[-0.25721076 -0.100682   -0.10944109]
[-0.35470971 -0.39087981 -0.83217353]
[-0.19652674 -0.27884713 -0.64072043]
[ 0.07019003  0.20391893 -0.15059985]
[ 0.08072886  0.16859902 -0.38480961]
[ 0.23714186 -0.0575783  -0.32938048]
[-0.48907492 -0.2131944  -0.05009738]
[-0.93506026 -0.07764708 -0.17268443]
[-0.98728651  0.03340327 -0.03374689]
[-0.08900349 -0.15291207  0.11207106]
[-0.04855234 -0.2567566   0.10663246]
[ 0.0817154  -0.19148731  0.01493242]
[-0.84287983 -0.18494877 -0.05550954]
[-1.20304394  0.04004928 -0.04245759]
[-0.57430708  0.11808648  0.00845512]
[-1.03169775 -0.17611824 -0.04780403]
[-1.56997061 -0.02530069 -0.08336559]
[-1.06091261  0.05552372 -0.04031704]
[ 0.0658008   0.23058687 -0.06315627]
[ 0.01137619  0.05385881 -0.09301724]
[ 0.09374353 -0.24806359 -0.09224564]
[-0.04313867  0.02116852 -0.08065954]
[-0.66141051  0.00369203 -0.01438251]
[-0.55744666  0.04392415  0.06651527]
[-0.03383921  0.0330617  -0.10514176]
[-0.52138299 -0.01089714 -0.00067899]
[-0.24100298  0.08472899  0.04429173]
[ 0.0300309   0.09144513  0.01779732]
[-0.00795775  0.09970129 -0.03306923]
[ 0.07727695  0.00897286 -0.07986723]
[ 0.19682638 -0.00891402 -0.22724232]
[ 0.14487578 -0.18925044 -0.03012809]
[ 0.06593616 -0.38589746  0.15172474]
[-0.77572167 -0.08440828 -0.08010923]
[ -1.65157175e+00   1.16040893e-01  -6.97705953e-04]
[-0.63438392  0.09129905 -0.08523659]
[ 0.04411447  0.08617742  0.0011735 ]
[ 0.03697955 -0.01384576  0.04672305]
[ 0.09667948 -0.0244756  -0.06383044]
[ 0.02737336  0.16519271 -0.15426318]
[ 0.08654821  0.11850688  0.12072141]
[ 0.13706426  0.28414151  0.25496218]
[ 0.29069474  0.25826371 -0.10162082]
[-0.57220292 -0.47138029 -0.39495626]
[-0.03783185  0.29755467  0.25632256]
[-0.38199472 -0.47485006  0.08089992]
[-0.35086304 -0.57604957 -0.14776203]
[-0.72624713 -0.77464473 -0.37176269]
[-0.330814   -0.71780342 -0.06194312]
[-0.54570287 -0.83981669 -0.15575577]
[-0.87704432 -0.85313654 -0.30845979]
[ 0.09028799 -0.02108699 -0.34138924]
[-0.31705445 -0.33780387 -0.34563953]
[-0.14634205  0.27028903  0.126403  ]
[ 0.09660786 -0.067837   -0.37465087]
[-0.00088315 -0.05436639 -0.43516561]
[-0.03365121 -0.33135375 -0.18562487]
[-0.13260375  0.01120129  0.12317698]
[ 0.07073215  0.00604495  0.11109735]
[  1.29866585e-01   6.44218251e-02  -1.22975151e-04]
[-0.0480141  -0.49153858 -0.01074558]
[ 0.00194161 -0.15372463 -0.19713083]
[ 0.0274922   0.14185424 -0.16266663]
[-0.09453946 -0.00680495  0.00715367]
[ 0.07501657  0.06770617  0.11757949]
[ 0.153295    0.03914844 -0.08849148]
[ 0.1446104   0.21008058 -0.3852562 ]
[-0.03396722  0.08909222 -0.15454876]
[-0.08316069  0.29391444  0.08548697]
[-0.14975454 -0.15688831  0.00727948]
[-0.16029353  0.03140503 -0.21757104]
[-0.30259565 -0.11675853 -0.26385745]
[-0.3139849  -0.78975528  0.03507981]
[-0.51565373 -1.22053456 -0.02911895]
[-0.94117689 -0.62176442 -0.17885816]
[-0.23467004  0.07833096  0.1361151 ]
[-0.23584996 -0.01695972  0.02850615]
[ 0.05678606  0.03006299 -0.09060454]
[ 0.10198563  0.02579159 -0.53090489]
[-0.0338139   0.19826268 -0.38387728]
[ 0.0949919   0.04797743 -0.38790241]
[-0.23257352 -0.16196157  0.02178609]
[-0.25887302 -0.11527167 -0.32533774]
[-0.44872242 -0.18701036 -0.28038481]
[-0.10264875  0.09701638  0.13628598]
[-0.15468536 -0.12395031 -0.19528151]
[ 0.13856277 -0.05391142 -0.19053389]
[-0.06005872 -0.44292265 -0.00189295]
[-0.03546126 -0.20650332 -0.10019463]
[-0.56928325 -0.10952371 -0.15475221]
[ 0.07848541  0.06607716 -0.28960684]
[-0.06381316  0.02449563 -0.26604077]
[-0.14319806 -0.24909678 -0.24209011]
[ 0.09338773  0.07340363 -0.05097506]
[ 0.08133589  0.08977502  0.0788931 ]
[ 0.19184917  0.14638287 -0.03746682]
[ 0.06562175  0.33055577  0.09426014]
[-0.64557958 -0.32642904 -0.28431726]
[ 0.06652853  0.17275874  0.21846765]
[-0.02142866 -0.20511749 -0.41724953]
[-0.36495534 -0.43856663 -0.37924939]
[-0.0903081   0.27587536 -0.05113337]
[-0.0735082   0.06430599  0.14618318]
[-0.07987859 -0.09322193 -0.00277697]
[ 0.08597751  0.01303088 -0.01986774]
[-0.02910349  0.21124464 -0.29151294]
[-0.19525728 -0.01595655 -0.49914595]
[-0.52066767 -0.17483503 -0.36778495]
[-0.00973742  0.01597747  0.11988343]
[ 0.05300781 -0.0348121   0.12463658]
[ 0.11136563 -0.03034644 -0.02738903]
[-0.02273898  0.05578415  0.12892401]
[ 0.06626793 -0.0073995  -0.02799669]
[ 0.14624946  0.00644667 -0.14447512]
[-0.16428678 -0.66610157 -0.21332355]
[-0.48995563 -0.95341271 -0.03497432]
[-0.65052074 -0.11499085 -0.0772727 ]
[-0.12113054  0.02068967  0.08731726]
[ 0.08076071  0.04207372  0.13898663]
[ 0.15003198  0.01832617 -0.07933991]
[-0.0780883   0.00183169  0.02724665]
[ 0.13294917  0.0351037   0.12516741]
[ 0.13754609  0.03047998 -0.11044379]
[ 0.01966204 -0.14482769 -0.14814761]
[-0.16112024 -0.51339024 -0.21187024]
[-0.55855346 -0.16390537 -0.02261093]
[-0.16799171 -0.13001595  0.08254384]
[-0.13391058 -0.11319336  0.03453523]
[-0.20470944  0.10564801  0.14009492]
[ 0.15907185  0.27993676 -0.33612034]
[ 0.06929212  0.1356736   0.00856224]
[ 0.11943398  0.33934498  0.25583509]
[-0.02822097  0.04511902 -0.00314378]
[-0.04439729  0.08699917 -0.01473638]
[-0.00185042  0.00312444  0.04547891]
[-0.1667369  -0.39564392 -0.09705764]
[-0.06952566 -0.30923721 -1.07260787]
[ 0.04393932 -0.06681101 -0.12878253]
[-0.36772186  0.00397195  0.00261608]
[-1.03811789 -1.16706264  0.08267538]
[ 0.04907302 -0.0690733   0.0935666 ]
[ 0.04069012 -0.00620636  0.01462439]
[ 0.04905039  0.03271495 -0.18051481]
[-0.02021253  0.03829179  0.04852726]
[ 0.13720259 -0.00784749 -0.0104576 ]
[ 0.05367525  0.0185289  -0.19601676]
[-0.06151208  0.04220698 -0.12024148]
[-0.00645814 -0.07821867  0.07762726]
[-0.39728072 -0.39335626  0.06774764]
[-0.03285082 -0.05875435  0.01897236]
[-0.04269437  0.06740378  0.10091203]
[-0.23952763 -0.04310454  0.03025737]
[-0.24896823 -0.00417544  0.18077198]
[-0.2267369  -0.02304249  0.04368258]
[ 0.02606129 -0.56522906  0.04711369]
[ 0.12476344 -0.68779534 -0.31623399]
[ 0.15775222 -0.57000685 -0.20480116]
[ 0.23484148  0.28438091 -0.61889124]
[ 0.25904909  0.34992805 -0.23679464]
[-0.35594454 -0.03006144  0.0403185 ]
[-0.37242287 -0.74618965 -0.27132845]
[-0.1277055  -1.44369912 -0.32433495]
[ 0.03852541 -0.33311507 -0.31527361]
[ 0.02293818  0.05656051 -0.43174282]
[ 0.05322897  0.13809954 -0.00369912]
[ 0.16479686 -0.01830395 -0.17730223]
[ 0.09195176  0.0810746  -0.3923142 ]
[ 0.18322173  0.1274717   0.13598062]
[ 0.04956027 -0.04516796  0.08073847]
[ 0.00592768 -0.00545356 -0.13532996]
[-0.01520359  0.05477087 -0.182496  ]
[ 0.04187898  0.00213107  0.08188031]
[ 0.16092369 -0.21460263  0.09838453]
[ 0.18445583 -0.09502366 -0.1872218 ]
[-1.0987277   0.10480776 -0.29401693]
[-1.03474009 -0.77461857 -0.35427552]
[-1.00571525 -0.84206629  0.01072258]
[ 0.1756409  -0.08563052 -0.13084328]
[ 0.12833291  0.07088148 -0.43403324]
[ 0.13657723  0.14929876  0.06518869]
[-0.24039651  0.15472601  0.00292223]
[ 0.09756175  0.40631762  0.04462884]
[ 0.2062086   0.12538758 -0.03427119]
[ 0.02829101 -0.0241512  -0.02031386]
[ 0.04514459  0.0257088  -0.03945678]
[ 0.03487478  0.05196191  0.10136157]
[ 0.17759669  0.15894942 -0.4522019 ]
[ 0.06116939  0.12866978 -0.21026579]
[-0.11073554  0.09408966  0.26977006]
[-0.42114595 -0.20420136 -0.02510722]
[-0.42655942 -0.80831259 -0.49914318]
[-0.2407116  -0.57254982 -0.23208681]
[-0.38668838  0.03580246  0.01099918]
[-0.67001623 -0.43100232  0.07482   ]
[ 0.11079456  0.18388049  0.10444506]
[-0.12899764 -0.35178369  0.07892105]
[-0.41733503 -0.72217375  0.1667562 ]
[-0.06189769 -0.09479659  0.03405275]
[-0.25735986  0.18424006  0.02963359]
[-0.11508643  0.22489725  0.09577088]
[ 0.14433368 -0.22816516  0.03935062]
[ 0.30116677  0.18094896 -0.39353755]
[ 0.15150344  0.08954933  0.01127819]
[-0.02225004  0.2523585   0.24727349]
[-0.82152927  0.29073635 -0.02512072]
[ -7.43385494e-01   3.40464324e-01   3.24943074e-04]
[-0.18138656 -0.85788918 -0.01088412]
[-0.41989189  0.23646204  0.02616733]
[-0.23977362  0.26196793  0.05762652]
[ 0.08088434 -0.58982939 -0.02525403]
[ 0.03988784 -0.07890701  0.03674511]
[-0.06711284 -0.09114382 -0.13166501]
[-0.03855104  0.05012648 -0.21650934]
[-0.15894891  0.11690168  0.01292977]
[ 0.01145104 -0.00053852 -0.03083327]
[ 0.10951778 -1.45535505 -0.30591911]
[-0.30138648  0.10630424  0.01125982]
[-0.25039452 -0.20228495 -0.10669366]
[-0.01160861 -1.60794425 -0.30483702]
[ 0.07422128  0.0339885  -0.06132827]
[ 0.02661192  0.02265422  0.00327217]
[-0.01641016  0.03543906  0.18264417]
[-0.06234921 -0.28886536  0.2707088 ]
[ 0.00968972 -0.21231005  0.03892367]
[ 0.18164586  0.15779546 -0.6789543 ]
[-0.10636217 -0.7419914  -0.07228646]
[-0.11908638 -0.36416379 -0.78517067]
[-0.00960934 -0.00918802 -0.05118366]
[ 0.02898652 -0.06441933  0.0399291 ]
[-0.08210789 -0.06973813  0.05007746]
[ 0.01885118 -0.03867996 -0.01989077]
[ 0.08740585  0.1160735  -0.14899966]
[ 0.05548385  0.01997935 -0.55566758]
[ 0.02687463 -0.03155437 -0.61526197]
[-0.84144413 -0.18777308  0.04722604]
[-1.7600497  -0.21294072  0.06930372]
[-0.65810549 -0.13227715 -0.24057464]
[-0.43510631 -0.02308396 -0.07329107]
[-0.33900112  0.01898267  0.01325144]
[-0.71806848  0.04274938  0.06180141]
[-0.42719647 -0.04635659 -0.05678736]
[-0.38912007  0.02324401  0.01171564]
[-0.78098452  0.07017501  0.05563215]
[-1.01060903  0.06608412 -0.0565197 ]
[-1.74731636  0.09398656 -0.01297892]
[-0.79370821  0.04084953  0.01246551]
[ 0.12498964 -0.25541213 -0.10639247]
[-0.18803139 -0.15226224  0.01056713]
[-0.30289897 -0.04800598  0.096329  ]
[-0.00687632  0.15416501  0.07312992]
[-0.03525735  0.08994482  0.08241544]
[ 0.06502774  0.08039527  0.06369457]
[-0.34945327 -0.08823073  0.15737483]
[-0.48245636 -0.19986266  0.05605449]
[-0.04278783  0.0468559  -0.1515189 ]
[ 0.04280068  0.17486854 -0.17779249]
[-0.01457743  0.05007605 -0.0473807 ]
[ 0.10056406 -0.12748818  0.01572146]
[-0.03747426  0.02906401 -0.09061677]
[-0.61942595 -1.057868   -1.3509984 ]
[-0.3093453  -0.93466085 -1.03422856]
[-0.72004002 -0.11248465 -0.05197856]
[-1.45752156 -0.0953128  -0.10821819]
[-0.90802568  0.04974335 -0.02859845]
[-0.25555521 -0.0242408  -0.05899629]
[-0.12869716  0.01680755  0.01872212]
[-0.31555453  0.06227506  0.02638039]
[-0.06400972  0.16796321  0.04402009]
[-0.06638367  0.08893501  0.06246497]
[ 0.04459485  0.13141835  0.03841658]
[-0.07658316  0.30130175 -0.0652758 ]
[-0.08661598  0.52840889  0.07203086]
[-0.06663082  0.3926073  -0.01196474]
[-0.62775874 -0.03898473 -0.02491129]
[-1.09609973 -0.16434027 -0.11607473]
[-0.32211939 -0.02163149 -0.12193293]
[-0.00207609 -0.0537807  -0.01685665]
[ 0.03877127 -0.27729541  0.13958173]
[ 0.13906965 -0.27976251  0.10121894]
[-0.87405145 -0.0715314   0.00588339]
[-0.98440003  0.06011912 -0.05451591]
[-1.01124322  0.1082193   0.0501028 ]
[-0.17332917 -0.11930171 -0.0846537 ]
[-0.33695075  0.06297803 -0.0341977 ]
[-0.54842985  0.24010517  0.07763163]
[ 0.07250609  0.11358663 -0.24007072]
[ 0.01150576  0.06434017 -0.27906758]
[ 0.13710453 -0.0789192  -0.25189286]
[-0.46674147 -0.42067122  0.15591013]
[-0.76985419 -0.58918869  0.08188729]
[-0.04570534 -0.39611214 -0.16099373]
[-0.6206789   0.2570886   0.21791869]
[-0.36367607  0.13979462  0.00919463]
[-0.05594071  0.23144126 -0.00188437]
[ 0.01253751  0.0550294   0.15055494]
[-0.00664227 -0.0408716   0.13199161]
[ 0.10497245 -0.09873651  0.12738165]
[-0.76786584 -0.08348593 -0.04839335]
[-1.04368961 -0.15037487 -0.09098795]
[-0.75469464  0.23066401 -0.06372408]
[ 0.03009901  0.11983834 -0.00968236]
[-0.00490911  0.02422267  0.11588886]
[ 0.07575796 -0.06882159  0.13476284]
[ 0.01065835  0.05626769 -0.0512537 ]
[ 0.01668082 -0.035706    0.06377846]
[ 0.0995257  -0.15252437  0.11654091]
[-0.73309481  0.08168012 -0.04668339]
[-0.85237747  0.03478663 -0.02223077]
[-0.7240597   0.11172305  0.04182241]
[-0.00235515  0.11097751 -0.16949382]
[-0.00216138  0.03375243 -0.02898665]
[ 0.05924111 -0.08115093  0.04239222]
[ 0.00428157  0.12531501 -0.15117642]
[-0.00580013  0.03234268 -0.03980703]
[ 0.08260812 -0.10448904  0.04277148]
[-1.1188525  -0.03728159 -0.02399506]
[-1.89950991  0.05480399  0.02403908]
[-1.77797592  0.12065757  0.0425521 ]
[-0.05981045  0.00126663  0.26172623]
[ 0.00566394 -0.116726    0.03581716]
[-0.0128373  -0.15268938 -0.05274654]
[ 0.08903736  0.06921049 -0.20804195]
[ 0.04770556 -0.19751675 -0.89073527]
[-0.03294347 -0.45508125 -0.84445244]
[-0.01492406  0.02603107  0.06211813]
[ 0.04504741  0.02854689 -0.0304713 ]
[-0.06021621  0.06467362  0.09012759]
[-1.30434155  0.18501803  0.08641493]
[-1.09271073  0.05705448 -0.00970245]
[-0.35336289 -0.326841   -0.3876968 ]
[-0.09733266 -0.31363261 -0.4092176 ]
[-0.86777204 -0.89277494 -0.14485572]
[-0.54297072 -0.46587566  0.17916572]
[ 0.00676615 -0.01686981  0.00084265]
[-0.0104951  -0.0011568   0.03219564]
[ 0.03814524  0.02470535 -0.01399927]
[ 0.01553474  0.01960126  0.02116699]
[-0.01535847 -0.00282267  0.05791406]
[ 0.0368594   0.01729859  0.02696739]
[ 0.12278155 -0.05209648 -0.07203716]
[-0.04477654 -0.02566596  0.01805628]
[-0.15391879 -0.21352975  0.12221266]
[ 0.03346607 -0.02733522  0.03576675]
[-0.11376805 -0.10267135 -0.02039675]
[ 0.08685666 -0.01984803  0.01111173]
[-0.91076225 -0.00690872  0.05182258]
[-0.63030338  0.0715085   0.03538461]
[-0.94450945 -0.02234052 -0.01850187]
[-0.02871571 -0.1127547   0.17566864]
[ 0.02232729  0.17669205  0.05425011]
[ 0.13815983  0.24584691 -0.029923  ]
[-0.55657107  0.05114616  0.06745134]
[-0.57175398  0.01910149 -0.0079685 ]
[-0.98074132 -0.1053741  -0.12457768]
[-1.09632659 -0.35140356 -0.04306854]
[-1.17446101 -1.063375   -0.8558569 ]
[-0.14675266 -0.22777897 -0.54120582]
[ 0.02634183 -0.10089703 -0.00543796]
[ 0.04138585  0.00787747  0.00869676]
[ 0.05716677  0.13052335 -0.10101791]
[ 0.03297582  0.01279402  0.01955231]
[-0.01810021  0.04707586  0.0181629 ]
[-0.00514205 -0.03465915 -0.00641255]
[-0.78495657  0.04954319 -0.00533841]
[-0.33346611  0.05274232  0.01279317]
[-0.71340662  0.20094337  0.05999022]
[ 0.29180121  0.16784516  0.04120312]
[ 0.28770903  0.224787   -0.09350007]
[-0.21281151 -0.13054605  0.10290319]
[-0.00036825 -0.26573953  0.03347476]
[ 0.00031077 -0.07385235  0.04309632]
[ 0.10468706  0.25100183 -0.05522915]
[-0.8438344  -0.0940935  -0.04476115]
[-0.65328914 -0.06183771  0.02597172]
[-0.75168157  0.12254445  0.02893969]
[ 0.04242715 -0.00910315 -0.02443304]
[-0.02308535  0.01585883 -0.02046763]
[ 0.01665921  0.03428211 -0.03070467]
[ 0.01369684  0.09170532 -0.09049631]
[-0.01013082 -0.01007146 -0.00605337]
[ 0.04842513  0.02367161 -0.05189346]
[-1.38475132  0.16103461  0.08412052]
[-1.34827447  0.05924716  0.02853101]
[-1.20719624 -0.18650845 -0.1659866 ]
[-0.8225292  -0.25914779 -0.35500634]
[-2.17569065 -0.49996638 -0.11301471]
[-0.99669939 -0.04343442  0.18416432]
[ 0.01893559  0.095224    0.16587351]
[-0.03726711  0.12310228  0.13785948]
[-0.11179145  0.08947197  0.21908097]
[-1.45349872 -0.058416    0.01160006]
[-1.16023386 -0.02973317  0.03265131]
[-1.4721055   0.11165181  0.06935071]
[-0.11608043 -0.06462493 -0.09573089]
[-0.05346338 -0.02723273 -0.03823529]
[ 0.08299823  0.15758288  0.02549209]
[-0.69062108  0.06146282  0.07256237]
[  3.56753916e-01  -2.97420134e-04   3.63328606e-02]
[-0.42839065  0.03724938  0.03521068]
[ -1.12113929e+00  -4.92741819e-03   3.19410086e-04]
[-0.45236626 -0.02492014  0.01940403]
[-1.04736233  0.06281515  0.06256318]
[ 0.07728297  0.01216456  0.03861443]
[-0.03457832 -0.00771845  0.03255231]
[ 0.00538702 -0.14697449  0.03919175]
[-0.83960867  0.05962105 -0.0091713 ]
[-0.49209073 -0.02538949  0.05492063]
[-0.93684006 -0.0141602  -0.04197028]
[-0.18671778  0.03954424  0.04933696]
[-0.11650519 -0.02668061  0.0760425 ]
[-0.67669308 -0.06101354 -0.09102788]
[ 0.01891317  0.03065107 -0.11941705]
[ 0.00967815 -0.0250859  -0.04381025]
[ 0.03169944  0.082959    0.01323273]
[ 0.02071206 -0.22603121 -0.01794954]
[ 0.02349268 -0.08739588  0.02725648]
[ 0.10078411 -0.1119356   0.01452254]
[-1.39102602  0.01899336  0.02315423]
[-1.62308276 -0.26972625 -0.32903877]
[-0.39676383 -0.48612776 -0.46679118]
[ 0.09708198 -0.08137445  0.09734482]
[ 0.00407422  0.054316   -0.08024332]
[ 0.02552707  0.05182473  0.04607381]
[ 0.07518256  0.17030813  0.07278495]
[ 0.11222893  0.14568271  0.03359183]
[-0.09431965  0.0046528  -0.15043736]
[-0.03457311  0.78387296 -0.31756982]
[-0.35967019  0.57500613 -0.10994473]
[-0.00981646  0.09799332  0.01977982]
[ 0.15569839 -0.25488961  0.04143322]
[-0.19438973 -0.19839802  0.0245816 ]
[-0.09443882 -0.05463495  0.0217697 ]
[ 0.12724669 -0.36148411  0.01404493]
[-0.48470908 -0.22740524  0.01538404]
[-0.11270301 -0.03932497  0.04614609]
[-0.14121021 -0.01382502 -0.14309284]
[-0.4241378   0.26396617  0.00203459]
[ 0.07620715  0.10835503  0.04066378]
[ 0.06899213  0.13638167  0.04592296]
[-0.14214027 -0.12089653  0.05476281]
[-0.15784001 -0.03244992 -0.02560092]
[-0.23137598 -0.04544626 -0.02910514]
[-0.02153197 -0.02520238 -0.20788884]
[-0.22801723 -0.06161061 -0.06795266]
[ 0.20507324 -0.17065208 -0.16198726]
[ 0.12085214 -0.01263263 -0.24971293]
[-0.33257321 -0.15247419 -0.0291819 ]
[-0.1059875   0.12961316 -0.04857399]
[-0.00245198  0.03104637 -0.2289958 ]
[-0.23359945 -0.65339762  0.12379565]
[ 0.07855043  0.10158423 -0.13283032]
[ 0.09613525  0.1298952  -0.10425966]
[ 0.19703531  0.4640218   0.0134029 ]
[ 0.12860651  0.03263102 -0.05866765]
[ 0.04955732  0.00986187 -0.02000836]
[-0.28234324 -0.22864403  0.02081689]
[ 0.04166667 -0.30137697  0.01627785]
[-0.49130893 -0.03615754  0.02459184]
[ 0.00387953 -0.02064172  0.03313045]
[-0.65242893 -0.14285144 -0.02546774]
[-0.11750513 -0.19950239 -0.21942024]
[-0.13882282  0.11002977 -0.06835783]
[ 0.13492994  0.10116144 -0.26384011]
[ 0.06478175 -0.04268016 -0.39310381]
[-0.28993541 -0.40131441  0.21575314]
[ 0.14875153 -0.05071522 -0.05374171]
[ 0.03910775 -0.00556604 -0.04107398]
[-0.43392795 -0.27473885  0.0635958 ]
[ 0.0018724  -0.14184409 -0.16148534]
[ 0.00927056 -0.32320184 -0.10266285]
[-0.17493555  0.09550461  0.00243116]
[ 0.07255135 -0.16894564  0.01019266]
[-0.10284391 -0.02143936  0.02105935]
[ 0.04878129 -0.02625802  0.01784248]
[ 0.11325797  0.10633451 -0.07498797]
[-0.08584782 -0.05809627 -0.03570362]
[-0.23512682 -0.36299258 -0.0220662 ]
[ 0.09577809  0.19728279  0.01721326]
[ 0.12764834  0.14855912 -0.12039398]
[-0.1737258  -0.51808333  0.0761834 ]
[ 0.33382809  0.16790947 -0.31616628]
[ 0.05193358  0.31970251 -0.08310402]
[-0.01040098  0.12539066  0.03834539]
[-0.25896898 -0.21690835 -0.10759372]
[ 0.06201079  0.1847977   0.04425118]
[ 0.20718582  0.07393178 -0.01358033]
[-0.40790915 -0.04573501  0.00519866]
[-0.07761533 -0.29802978 -0.1752779 ]
[-0.05894745  0.1170521  -0.01092932]
[ 0.13267872  0.07318678 -0.03748094]
[-0.17008264  0.02362161  0.01801627]
[-0.43443102 -0.47779912 -0.00196906]
[-0.13576247  0.06710517  0.12792493]
[-0.06813763 -0.12141512 -0.01805591]
[-0.08172637 -0.09115804  0.00753765]
[-0.09721379 -0.00337596  0.06064944]
[-0.06498408 -0.35444537 -0.09450503]
[-0.11952873  0.02804293  0.05831144]
[-0.00102817 -0.34324545  0.00069922]
[-0.52156746  0.13086323  0.03606993]
[ 0.05484074  0.03004909  0.02218559]
[-0.0744411   0.11134484  0.01331579]
[-0.06105773 -0.08258498 -0.11822508]
[-0.24987106 -0.4722116   0.07021394]
[-0.08261008  0.10115235 -0.00159828]
[-0.05364933 -0.07106371 -0.18119508]
[-0.24148358 -0.54158258  0.08066031]
[-0.0176224  -0.37130997 -0.0098667 ]
[-0.2365541  -0.15001322  0.02778993]
[ 0.07763864  0.04113203  0.01716519]
[-0.07695173 -0.22498122 -0.11594953]
[ 0.00333549  0.07284753  0.09517849]
[ 0.02981388  0.09160099  0.0332033 ]
[ 0.10395153  0.13337903 -0.03691727]
[ 0.13234444  0.12337346 -0.09013835]
[ 0.18284097  0.2706061  -0.08077193]
[-0.07465477 -0.07059938  0.06281462]
[ 0.01517232 -0.06489929  0.08896519]
[ 0.02796289 -0.08991536  0.08388735]
[-0.29243287 -0.12883779 -0.04483285]
[-0.257312   -0.90584898 -0.38631433]
[-0.13071005 -0.40742773 -0.51820445]
[-0.00584456  0.02139884 -0.07954098]
[-0.05507378 -0.01022713 -0.29601398]
[-0.0907695  -0.23090629 -0.05759123]
[-0.1140489   0.21669541  0.02384429]
[ 0.07947554 -0.83215702  0.06699258]
[ 0.06042907  0.61790574 -0.09338091]
[-0.12297527 -0.14018379  0.04354604]
[ 0.08816466 -1.25434315  0.05462941]
[ 0.06247285  0.27812272 -0.16600558]
[-0.04688352 -0.16215423 -0.22127567]
[-0.08697388 -0.47769773 -0.34747994]
[-0.06375125 -0.59165353 -0.1193077 ]
[-0.04246781 -0.30323285  0.14367349]
[-0.00083041 -0.08681589 -0.17627452]
[ 0.16427553  0.03267672 -0.37000161]
[ 0.05122302  0.03150471 -0.14252624]
[-0.08408993  0.05133707  0.02228699]
[-0.23423691  0.01343031  0.20706187]
[-0.74271691  0.3549028  -0.04737021]
[ 0.14381754  0.35856989  0.18515658]
[ 0.19244379 -0.85370696  0.2441473 ]
[-0.00438621 -0.07958154 -0.39188364]
[-0.09909561 -0.09907581 -0.36045218]
[-0.20653221 -0.11775611  0.00209986]
[-0.22200397  0.10089544  0.1070897 ]
[ 0.15132841 -1.38450301  0.15523502]
[ 0.09815773 -0.13067938  0.05862053]
[-0.3018924   0.36447415 -0.01879004]
[ 0.073232   -0.73331523  0.1398441 ]
[ 0.03661336  0.3213833   0.03634007]
[-0.07211316 -0.18654482 -0.02769189]
[ 0.08209498 -1.39668024 -0.0125795 ]
[ 0.05453374 -0.06140333 -0.14322101]
[ 0.03963773  0.07322074 -0.16209933]
[-0.12047794  0.06473679  0.12051781]
[-0.25018236  0.08158062  0.243728  ]
[-0.16774988 -0.42066741 -0.56665832]
[-0.45840132 -0.965608   -0.4128429 ]
[-0.55168766 -0.35046899 -0.6358183 ]
[-0.29866439  0.49240801  0.04847072]
[ 0.17632037 -0.16615772  0.19829373]
[ 0.09828577  0.38032532  0.03610414]
[ 0.12442842  0.06182372 -0.06328397]
[ 0.05862612  0.02785205  0.10858249]
[ 0.00166851  0.09929696  0.27662155]
[-0.10689703  0.17661756  0.00411657]
[ 0.04850772 -1.04573274  0.04399781]
[ 0.01273685 -0.13196106 -0.09741966]
[-0.13047256 -0.46763143  0.11787635]
[ 0.02531774 -0.19761999  0.06247558]
[-0.02873033  0.17692769 -0.39209726]
[-0.05054795 -0.09524903 -0.26048917]
[-0.15706462 -0.22356309 -0.33887288]
[-0.18466391 -0.18870221 -0.11345505]
[ 0.02597898  0.1045239   0.00993775]
[-0.06761715  0.20856479 -0.01262111]
[-0.08457388  0.10762595  0.08545494]
[ 0.02218235 -0.19011687 -0.23153041]
[-0.11161449 -0.52635646 -0.27576792]
[-0.24800061 -0.55038518 -0.10347714]
[ 0.17460129  0.07188375 -0.11993133]
[ 0.05236764  0.07574024  0.11188928]
[-0.08751985  0.11034606  0.27127093]
[-0.21118847 -0.08012571  0.15551962]
[ 0.02794105  0.05600674  0.21627706]
[ 0.05785814  0.60781664 -0.31799957]
[ 0.11698949  0.01740079 -0.38249725]
[ 0.09135316  0.02868373 -0.09755565]
[-0.12443749  0.05247703  0.18305652]
[ 0.14128995  0.03387704 -0.2534295 ]
[ 0.06348421  0.02597567  0.09795948]
[-0.02183826  0.07505558  0.25441325]
[-0.08085003 -0.4989554  -0.10639358]
[ 0.04339132 -1.70941257 -0.12267528]
[-0.01967411 -0.68837738 -0.19932775]
[ 0.06816743 -0.0080263  -0.23944172]
[ 0.04058401  0.00850636 -0.05818492]
[-0.0829988   0.02758491  0.11724649]
[ 0.04420121 -0.02177343 -0.31990165]
[ 0.02235608 -0.00688659 -0.14179023]
[-0.16007121 -0.00651444  0.06564243]
[-0.04525834 -0.33131304  0.02210647]
[-0.00424137 -0.81015772 -0.01744887]
[ 0.01832354 -0.02008208 -0.18030235]
[ 0.06338467  0.22813395  0.13808544]
[-0.1728431   0.03953342  0.02870001]
[ 0.01776427 -0.42165002 -0.02579572]
[-0.31825435  0.0106666  -0.05060665]
[-0.12879018 -1.63550055 -0.12272796]
[-0.06328105 -0.46312749 -0.22582541]
[ 0.04391302 -0.09469299 -0.0252114 ]
[ 0.02301836 -0.00184902 -0.07888059]
[-0.07378221 -0.02167339 -0.0606971 ]
[-0.32814747  0.12007636  0.13655013]
[-0.61918706  0.12557849  0.20765622]
[-0.1030352   0.16456756  0.24025695]
[-0.10778911 -0.16351908 -0.42385089]
[ 0.18237229 -0.23158297 -0.22074161]
[ 0.19643764  0.04233831  0.09080889]
[ 0.082647    0.12058357 -0.44991425]
[ 0.07347085  0.26363766 -0.58767188]
[ 0.00050602 -0.25549534 -0.10989922]
[ 0.09367216  0.05156115 -0.56298101]
[ 0.10224783  0.24289696 -0.57709253]
[ 0.008831   -0.25834492  0.02267337]
[ 0.0195552 -0.2187151 -0.5638572]
[ 0.07449912 -0.15978676 -0.2378256 ]
[ 0.1141739   0.01955573 -0.00882621]
[ 0.09293017  0.04227398 -0.17170165]
[ 0.08299039  0.04938488 -0.22679053]
[ 0.12113465  0.08384414 -0.17926627]
[-0.42921439  0.13701297  0.07370631]
[-0.39868551  0.07490066  0.04311508]
[-0.41118845  0.11912771 -0.02165275]
[-0.12781885 -0.22795428 -0.0168899 ]
[-0.16898978 -0.52188838 -0.30531436]
[-0.11092728 -0.18885386 -0.13627625]
[-0.29136068  0.0712944   0.01408409]
[-0.00371728  0.00380725  0.02802659]
[-0.28446528  0.06184785 -0.01239675]
[-0.18985491 -0.26704687 -0.06669161]
[-0.48161158 -0.3828328  -0.1920902 ]
[ 0.006685    0.19851892  0.08892299]
[ 0.05117137 -0.01336359 -0.24710034]
[ 0.03203412 -0.18498462 -0.41686955]
[-0.012829   -0.31664985 -0.03162969]
[ 0.0527989   0.0872396  -0.21203913]
[ 0.05177743  0.1211626  -0.06604247]
[-0.00257749 -0.340873    0.08173106]
[-0.94600707  0.05860089  0.06202722]
[-0.64711595  0.13301744 -0.01426285]
[-0.34613031  0.06392767 -0.0020683 ]
[ 0.29751873 -0.20463587 -0.01591452]
[ 0.03609538 -0.16185512 -0.01644621]
[ 0.0351631   0.02130136 -0.18133934]
[ 0.1021251  -0.00697981 -0.15449834]
[ 0.06269652 -0.37726325 -0.25859156]
[ 0.05703353 -0.37809852  0.06044557]
[-0.55325633  0.11603215  0.0293795 ]
[-0.31096032  0.03071575 -0.00601671]
[-0.20111616 -0.026322    0.01792713]
[ 0.03265673 -0.11079123 -0.18278182]
[ 0.00351263 -0.09715305 -0.20364928]
[-0.01215592 -0.45144746 -0.00303098]
[ 0.04081544 -0.04445665 -0.34837633]
[ 0.01562009 -0.10633565 -0.43622968]
[ 0.06204216 -0.17757748 -0.17842688]
[-0.04478557  0.06544629  0.0212396 ]
[-0.04305673  0.08296115  0.06681755]
[-0.09261654  0.11188163  0.11140106]
[-0.41158435 -0.1768541  -0.05330779]
[-0.03575971 -0.16236815  0.02496096]
[ 0.10323844  0.141408    0.12240713]
[-0.01854088 -0.49917033 -0.22076121]
[ 0.02037862 -0.40793732 -0.1356089 ]
[ 0.03778451 -0.05008576  0.10377743]
[-0.51799583  0.07718099  0.11128936]
[-0.16068891  0.09375692  0.03395681]
[-0.02856014 -0.00996838  0.05214932]
[ 0.14904395  0.00233572 -0.59517896]
[ 0.06032199 -0.19532032 -0.81710362]
[ 0.08784944 -0.32789186 -0.15340266]
[ 0.16042319  0.05085453  0.020951  ]
[ 0.25593662 -0.00987606  0.0461218 ]
[ 0.14299875  0.03616874  0.0278723 ]
[-0.17133336  0.07479203  0.03445522]
[ 0.10570645  0.03962103  0.04360475]
[ 0.03914127  0.0081719  -0.02315411]
[ 0.08616482 -0.03305997 -0.42004913]
[ 0.05318361  0.03434725 -0.23229553]
[ 0.05158963 -0.2132919   0.12933977]
[-0.29494229  0.0733493   0.01870491]
[ 0.13309281 -0.00699703  0.00280226]
[-0.26462853  0.02794211  0.00722545]
[-0.11290901  0.06811977  0.01175161]
[ 0.26954946  0.02165383 -0.0249033 ]
[-0.29471448  0.01708612  0.00244094]
[ 0.04054234 -0.03749814 -0.54815215]
[ 0.03748811  0.00838101 -0.38010234]
[-0.00464333 -0.29733095 -0.06182237]
[-0.04883309 -0.14327905  0.24170148]
[-0.04001221 -0.09583607  0.26479182]
[-0.22061954 -0.20107199  0.15869284]
[-0.3768144   0.01771796  0.06735162]
[-0.74400324  0.03651213  0.07447351]
[-0.12409574  0.23518337  0.23791824]
[ 0.03898822  0.07607021  0.06135756]
[-0.07766664  0.07508876 -0.07180607]
[-0.05030364  0.03187536 -0.07657689]
[ 0.06868511  0.31999511 -0.53520477]
[-0.18804464 -0.85388929  0.04913494]
[-0.39097145  0.12074783  0.13048063]
[-0.30948865  0.13589263  0.1477779 ]
[-0.06974947  0.08773633 -0.14941739]
[ 0.10040148  0.10341694 -0.1356962 ]
[-0.29809764  0.02327205  0.15183061]
[ 0.03335625  0.048647   -0.03411542]
[ 0.16210163 -0.0163925  -0.38138756]
[-0.39556816  0.05899124  0.21911314]
[ 0.03500428  0.07691598 -0.06581347]
[ 0.13724956 -0.02798904 -0.46437773]
[-0.31119189  0.1035522   0.19175334]
[ 0.00975873  0.03882654  0.00511068]
[ 0.15539679  0.08649995 -0.04647231]
[-0.43095121 -0.08208113 -0.01633659]
[-0.25591335  0.04296019 -0.06743944]
[ 0.00929506  0.10693088  0.03615379]
[ 0.02668809 -0.08867501 -0.07419398]
[ 0.03144391 -0.75817215  0.03646296]
[-0.16574319 -0.05077086  0.0767838 ]
[-0.30605412 -0.26955467  0.11848015]
[-0.45888439 -0.59630305  0.07874877]
[-0.07613949 -0.12257428  0.01653203]
[ 0.07320911  0.41509104 -0.21651582]
[ 0.06179214 -0.09268212 -0.00693048]
[-0.27886114  0.24658296  0.04091467]
[ 0.14216585 -0.10991982 -0.09727103]
[-0.05362182 -1.16149974  0.10189416]
[-0.04948849  0.15434787  0.0735197 ]
[-0.30204472 -0.12443204 -0.03921767]
[-0.25217444 -0.1162565  -0.18494244]
[ 0.06327944 -0.01876839 -0.09321395]
[-0.14978486  0.02180319  0.14447735]
[ 0.04876264  0.05413862 -0.05891177]
[ 0.13063467 -0.03315638 -0.27021953]
[-0.07243666  0.00832763 -0.00450965]
[-0.0279847  -0.44999811 -0.01426169]
[-0.03871633 -0.38258988  0.00856663]
[ 0.22959238 -0.54139763 -0.22673881]
[-0.24672595  0.16205083 -0.02422321]
[-0.48710033  0.18203835 -0.14191937]
[-0.33337161 -0.1675209  -0.27246344]
[-0.4915581  -0.3826113  -0.37160477]
[ 0.07402907 -0.06079033 -0.06862628]
[-0.01077859 -0.82951844  0.07208583]
[-0.03442884 -0.61351001  0.01400285]
[-0.02727248 -0.14506757  0.00094147]
[-0.19059406  0.03478125  0.13165297]
[-0.00663127  0.0357881  -0.10026261]
[ 0.08670059 -0.0180713  -0.2247933 ]
[-0.44295418 -0.31297883 -0.09397065]
[-0.3475773  -0.12685227 -0.16174714]
[-0.09138516 -0.00759417 -0.17799802]
[ 0.14876191 -0.03938886 -0.29555932]
[ 0.03240998 -0.40876114  0.01189032]
[-0.34935972  0.15797012  0.10265893]
[-0.18649043 -0.002152    0.05548235]
[-0.06700281  0.05171254 -0.14521074]
[ 0.03025891 -0.00348058 -0.03146546]
[-0.20195937  0.16965461 -0.05457891]
[ 0.05913221  0.07985232 -0.28631327]
[ 0.08415936 -0.18770932  0.03106205]
[ 0.01210827 -0.17353389  0.05797927]
[ 0.01337074 -0.40356112  0.01240104]
[ 0.01852896 -0.11855819  0.02702155]
[-0.43144339 -0.19657996 -0.18724573]
[-0.24668275 -0.34496847 -0.49361891]
[ 0.02329292 -0.05550004 -0.06236285]
[ 0.08425904 -0.35275406 -0.03358584]
[ 0.09200094 -0.51175779  0.04936805]
[-0.05456764  0.18787308  0.01159014]
[ 0.0843735  -0.49869752 -0.01102381]
[ 0.03708389 -0.56302845  0.04455078]
[-0.02837902  0.11304552  0.04195991]
[-0.17484708  0.06677029  0.16442616]
[ 0.00465701  0.03627393 -0.06556353]
[ 0.10169411 -0.0059915  -0.19201994]
[ 0.09108491  0.20377699 -0.08867333]
[ 0.12478291 -0.57591367  0.03644774]
[-0.16921353  0.26825693  0.05708294]
[ 0.07512488  0.18148714 -0.11591144]
[ 0.10478479 -0.12996459 -0.00622544]
[-0.18084662  0.29889515  0.05033264]
[-0.2721265   0.06650287  0.20844491]
[-0.04303287  0.05292105  0.03912569]
[ 0.10100747  0.0371922  -0.34613577]
[ 0.07010862  0.23019044  0.04931236]
[-0.00235328  0.01452281 -0.1336166 ]
[-0.06300659 -0.26755488  0.01466176]
[ 0.15395454  0.12040541 -0.41923559]
[-0.13015236 -0.4585768   0.08790429]
[-0.28080153  0.14330046  0.12127047]
[-0.05863566 -0.00208734 -0.08463819]
[-0.00854463  0.0012949   0.00182722]
[-0.07878883 -0.02236023  0.04598866]
[-0.1302439  -0.31585228 -0.26463309]
[-0.2028687  -0.36475551 -0.30385667]
[ 0.05462261  0.04164589 -0.00318962]
[ 0.09724069  0.03414503 -0.23897025]
[-0.08249711 -0.18908843 -0.01885182]
[ 0.10758844 -0.05837754  0.12580892]
[-0.00111791 -0.38542968  0.07236096]
[ 0.06343371  0.31420338  0.04595104]
[-0.02518016  0.27480343 -0.022358  ]
[-0.01512758 -0.54780632  0.06915059]
[ 0.05072495 -0.28992268  0.03314884]
[-0.06878398  0.08859449 -0.10423378]
[ 0.05178011 -0.23332903 -0.07520119]
[ 0.0077941  -0.35107887 -0.01964932]
[ 0.04583253 -0.07185183  0.09627402]
[-0.05872813 -0.27133137 -0.03552224]
[ 0.02845236 -0.26682988 -0.2513957 ]
[ 0.13130234 -0.12210417 -0.06033712]
[-0.05236696  0.03628131 -0.09822002]
[-0.12430089  0.13301027  0.13387719]
[-0.2337438   0.00279817  0.09751336]
[-0.15321313  0.12715024 -0.02482124]
[ 0.37271619  0.13367888  0.04665778]
[ 0.25285047 -0.2744416  -0.0930285 ]
[ 0.01081458 -0.02704817 -0.44153967]
[-0.22206381  0.03518714 -0.18185177]
[-0.22640899  0.03174504  0.05931925]
[-0.01557596 -0.40839905  0.01792991]
[ 0.09996128 -1.0673039  -0.06916185]
[ 0.18475156  0.11118787  0.06207168]
[-0.01215432 -0.4520562   0.0682084 ]
[ 0.07773707 -0.32440287  0.04353757]
[ 0.03620627  0.06297358 -0.09885427]
[ 0.00846806 -0.45111984  0.05559449]
[ 0.05623122 -0.39149845  0.00373935]
[-0.03246273 -0.01126201 -0.06130509]
[ 0.20346415  0.09616327 -0.05289706]
[ 0.01038305  0.04867139  0.17336348]
[-0.04353113 -0.00536172  0.24321163]
[-0.13071723 -0.41146204 -0.20049308]
[-0.29043958 -0.2782453  -0.14966995]
[-0.11304409  0.06585333 -0.1301963 ]
[-0.01931107  0.06699529  0.01193854]
[ 0.14767267 -0.02020212 -0.08744425]
[ 0.03512289  0.02034471 -0.17275348]
[ 0.17547293  0.10618781 -0.2340834 ]
[ 0.05647179  0.05502637 -0.01064781]
[-0.04562056  0.06289782  0.07614852]
[-0.03490193 -0.39685166  0.08414089]
[ 0.00469032 -0.43933639  0.05733963]
[-0.02537719 -0.11852521 -0.05269923]
[-0.05665936 -0.40811568  0.07645623]
[ 0.00400593  0.17604649  0.02431393]
[-0.04171506  0.24338551 -0.08016106]
[-0.12949707 -0.03963561 -0.31510961]
[-0.19288559 -0.00207565 -0.24078061]
[-0.03531349  0.06337619  0.06508519]
[ 0.09019047  0.11194179 -0.35351917]
[ -1.50784478e-01  -4.30795480e-05  -5.66215590e-02]
[ 0.17658779 -0.00422214  0.06063207]
[ 0.1839021  -0.19239162 -0.05745618]
[-0.04375364 -0.24576329 -0.02498106]
[ 0.01096584 -0.10509804 -0.00310466]
[ 0.1733118   0.14648625 -0.20034812]
[-0.01393496  0.10735638  0.09874893]
[-0.05558748  0.10402409  0.16929224]
[ 0.07228754 -0.45962149  0.05539285]
[ 0.04765179  0.43615639 -0.06393639]
[ 0.03932048  0.22630428 -0.16046542]
[ 0.07690731  0.08071666 -0.49518558]
[ 0.0002882   0.11295902 -0.18138739]
[-0.17068714  0.12105712 -0.02313686]
[ 0.11080746  0.08745968 -0.25661016]
[ 0.07145131  0.08145194  0.06519734]
[-0.09962653  0.1175507   0.09792805]
[-0.00301962 -0.62599957  0.0268959 ]
[ 0.06251159 -0.78026593 -0.00675708]
[-0.02385153 -0.14256546 -0.03769195]
[ 0.05154201  0.06296083 -0.34213361]
[-0.03348608  0.10031234 -0.01845332]
[-0.23692752  0.052073    0.09980161]
[ 0.00515774  0.02961304 -0.42751658]
[-0.02972308  0.07330308 -0.06743748]
[-0.21113984  0.02972142  0.04667461]
[-0.01200754 -0.49567831  0.08990246]
[ 0.00872995 -0.41579816  0.06312884]
[-0.04681075 -0.1137794  -0.0545014 ]
[-0.12190229  0.14552538  0.09448216]
[-0.09255116 -0.12601875  0.00540894]
[ 0.09948171 -0.46837166 -0.07288872]
[-0.14450333 -0.39185479 -0.06602956]
[-0.16991174 -0.7599591  -0.12502661]
[ 0.11697523  0.04703458  0.02242633]
[-0.0827567  -0.07946578 -0.02339564]
[-0.0552811  -0.0973963   0.02664739]
[-0.09200813  0.03880646 -0.05835385]
[ 0.1561871  -0.05016811 -0.00885092]
[-0.29178688 -0.38801047  0.02642686]
[-0.14905721 -0.20663592  0.17422749]
[-0.84283978 -0.77394593 -1.29758298]
[-0.08366423 -0.16280811 -1.7778796 ]
[ 0.24271704  0.16248752 -1.53635657]
[-0.01882999  0.04560209 -0.46536824]
[ 0.02432773  0.00944392 -0.18101329]
[ 0.00269109  0.01467452 -0.75127333]
[ 0.02670399 -0.00242237 -0.67340094]
[ 0.03267841  0.0409613  -0.34444922]
[-0.01764624  0.01390943 -0.60118312]
[-0.18364006 -0.17271377 -1.33272016]
[ 0.05828843  0.04527224 -1.42592716]
[ 0.12877464  0.1126003  -1.26980126]
[ 0.07406216 -0.10071301 -0.29845503]
[-0.0138507  -0.10106143 -0.13182335]
[ 0.02242222  0.13592769 -0.26197311]
[ 0.03326048  0.02384002  0.035105  ]
[ 0.06701615  0.04216384 -0.02009312]
[ 0.05247544  0.02637313  0.0784922 ]
[ 0.25782394  0.07897072 -0.21624468]
[ 0.05615416  0.00902635 -0.15512228]
[-0.00781146 -0.41686311  0.18534362]
[ 0.03723631 -0.12362083  0.00519141]
[ 0.08584418  0.01899045 -0.01815021]
[-0.00788083  0.05329471  0.08530344]
[ 0.02351605 -0.28879482 -0.6240015 ]
[-0.84385788 -1.56788874 -1.56716931]
[-0.22270659 -1.00743926 -1.20816827]
[ 0.09879403  0.01332018 -0.97339177]
[ 0.03309309  0.04962473 -1.35675788]
[-0.12399401 -0.13678876 -1.35046113]
[-0.00290418 -0.01655589 -0.08700176]
[ 0.02668702  0.00797418  0.07398799]
[-0.01900027  0.04921653 -0.12671094]
[ 0.1089551  -0.11172189  0.05825756]
[ 0.05457772  0.03938718  0.00805382]
[ 0.09962916 -0.14030883  0.00782108]
[ 0.02953991  0.20787893 -0.20141819]
[ 0.13823913  0.20214073 -0.15718198]
[-0.13819194  0.15524387 -0.14127432]
[ 0.1346309   0.0771494  -0.44245005]
[-0.04510336 -0.07703252 -0.77817011]
[-0.15821119 -0.21479379 -0.65940273]
[ 0.05936259 -0.06328568 -0.02250869]
[ 0.05117266 -0.05117346  0.01010617]
[-0.00855346 -0.0967061  -0.00736782]
[ 0.04675468 -0.01643926 -0.67587322]
[ 0.02900481 -0.00163223 -0.20162407]
[ 0.0112408 -0.0173957 -0.4146463]
[ 0.16367415  0.12615968 -0.14915887]
[ 0.08560703  0.04607121 -0.06144357]
[-0.1211611  -0.03071858 -0.46927261]
[ 0.04309315  0.08885436  0.022276  ]
[-0.09266293  0.06463781  0.00669105]
[-0.05811028  0.10113622  0.10062563]
[-0.70351708 -1.17477345 -0.64678544]
[-0.02416481 -0.62679505 -0.78957838]
[ 0.25302178 -0.12572962 -0.9592579 ]
[-0.01758131 -0.08505318  0.27285135]
[ 0.14053836  0.09987553  0.38865811]
[ 0.2299149   0.08897202 -0.19902256]
[-0.0250723  -0.0221611   0.05625112]
[ 0.04941532  0.01822201  0.03537092]
[ 0.05563357 -0.01953094  0.02411611]
[ 0.21172509  0.15791607 -0.76849562]
[-0.09042232 -0.02053331 -0.94686061]
[-0.19620121 -0.19504862 -1.56082535]
[-0.09153801  0.04028391  0.06466542]
[-0.01793223  0.05280745 -0.01642977]
[-0.10188173  0.0806709   0.02503271]
[ 0.00061841  0.07132025  0.08540986]
[ 0.01866777  0.02758005 -0.0028186 ]
[-0.01699413  0.04871884  0.06516519]
[-0.04570086 -0.00620386 -0.78875697]
[ 0.06134287  0.0453019  -0.4861517 ]
[ 0.01268144  0.03040726 -0.34804818]
[ 0.0120651  -0.10321648  0.03857762]
[ 0.04419251  0.0516578  -0.00643524]
[ 0.0195083   0.07278011  0.0311738 ]
[-0.009993   -0.06588391  0.0258416 ]
[ 0.09773314  0.01596413 -0.00355586]
[-0.01551236  0.05341126  0.06067336]
[ 0.03704632 -0.0060202  -1.17611599]
[ 0.01514635  0.01872014 -0.74555331]
[ 0.0593009   0.04962138 -1.03189707]
[ 0.08859178 -0.23881312 -0.02362845]
[ 0.11481703 -0.08112801 -0.03573418]
[ 0.08195363 -0.14755461  0.05402936]
[ 0.09074286 -0.19824186 -0.14713903]
[-0.5675264  -0.79320884 -0.21813697]
[-0.15960209 -0.49013427 -0.0117863 ]
[-0.05324686 -0.09845827  0.09564772]
[-0.01655663  0.06896576 -0.01720443]
[ 0.00598832 -0.08189466  0.08111499]
[-0.30616862  0.13311571  0.18617056]
[ 0.04409676  0.09049359  0.10343396]
[ 0.11610035  0.11204036 -0.13873726]
[ 0.14060707  0.24777074 -0.13071513]
[ 0.07301085 -0.63122505  0.11078469]
[-0.40736297  0.01437733  0.11577784]
[ 0.06750581  0.0105194  -0.12273207]
[ 0.05927185 -0.72465783 -0.0039387 ]
[ 0.01364261  0.02856038  0.05949541]
[ 0.10980237  0.09636401 -0.19865552]
[ 0.1160012  -0.78041363  0.05214921]
[-0.06869172  0.20796815  0.06285243]
[ 0.13603038  0.15007621 -0.25713027]
[ 0.10962286 -0.57079142  0.08099916]
[-0.26656216  0.21228814  0.09536197]
[-0.01634214 -0.00149111  0.00084401]
[ 0.06147631 -0.14257568  0.01921337]
[-0.07734873 -0.21316116  0.1154306 ]
[-0.24761175 -0.0125991   0.14498255]
[-0.0208211   0.01094156 -0.03178247]
[ 0.1585232   0.03646613 -0.28297916]
[-0.2184328  -0.15748993  0.02295035]
[-0.10802513 -0.10121861 -0.21734451]
[-0.05291273 -0.02526764 -0.32170451]
[-0.162927    0.05647304  0.15870728]
[ 0.05047461  0.06566074 -0.02409009]
[ 0.13252166 -0.04306667 -0.27141449]
[-0.12438446  0.07544148  0.00723928]
[-0.09136855  0.05618803 -0.05061775]
[-0.07187772  0.05087666 -0.05289273]
[-0.05893316 -0.2053366  -0.07246193]
[-0.11197476 -0.22892492 -0.08033792]
[-0.04903185 -0.09525692 -0.03728624]
[ 0.11271476 -0.01699881 -0.18533714]
[ 0.0683666  -0.48757586  0.04450398]
[-0.06867924  0.26350754  0.07434025]
[-0.35501602 -0.23199801  0.03824277]
[-0.355784   -0.13503127 -0.22792715]
[-0.04070244 -0.01350197 -0.23088986]
[-0.31293806  0.08730972 -0.21792658]
[ 0.08964227  0.01715577 -0.77970183]
[-0.06418709 -0.7411558  -0.18754871]
[-0.2515749  -0.34964448 -0.08259538]
[-0.23080876 -0.30499336 -0.05902046]
[-0.04532895 -0.15187399 -0.08019807]
[-0.37270403 -0.18610549 -0.14952491]
[-0.37772238 -0.34827363 -0.39217815]
[-0.02743221 -0.07398535 -0.06137675]
[ 0.06847467 -0.20212054 -0.10153875]
[-0.0342426  -0.2806899  -0.00170211]
[-0.10048882  0.19891673  0.02247587]
[-0.07437374  0.0818753  -0.16283976]
[-0.08006787 -0.2173861  -0.08574028]
[-0.03357637 -0.44505268  0.01613632]
[-0.07623381  0.11988034  0.20956978]
[ 0.07226346  0.05979465  0.02235466]
[ 0.13714291  0.06362018 -0.46623829]
[ 0.04519795  0.07461479 -0.10906431]
[-0.12485079 -1.32178819  0.02887162]
[-0.3056128   0.03406534  0.0602878 ]
[ 0.21976662 -0.53677875 -0.28428346]
[-0.03448356  0.07267766  0.00764087]
[-0.67085332  0.15949272 -0.06338698]
[-0.24856991 -0.15851185  0.00994467]
[-0.20195729 -0.17885745 -0.06932831]
[ 0.05651735  0.01674286 -0.05581805]
[-0.26057532 -0.30626011 -0.09092485]
[-0.23725508 -0.21184492 -0.02792676]
[-0.02137973 -0.18883511 -0.04357797]
[-0.23307595 -0.02277786  0.12358942]
[ 0.04602746 -0.01169244 -0.0200519 ]
[ 0.08277828 -0.04784479 -0.16406642]
[-0.2110762  -0.04887991  0.07280358]
[-0.00989682 -0.03875764 -0.13044392]
[ 0.1158304  -0.05858333 -0.16699387]
[ 0.13925599  0.06597943 -0.18782283]
[ 0.10962009 -0.49142104  0.06622904]
[-0.16783206  0.29021695  0.09576127]
[-0.16341174  0.04274587  0.15928833]
[ 0.09741831  0.04585624 -0.02122976]
[ 0.14859441  0.01890256 -0.29864603]
[-0.12640086  0.03870653  0.16814101]
[ 0.07591876  0.02312479 -0.06019483]
[ 0.13579243 -0.00937929 -0.24733546]
[ 0.08745454  0.05701632 -0.19959079]
[ 0.06257886 -0.63647032  0.03349723]
[-0.12765184  0.11957048  0.05366929]
[ 0.12012375 -0.34535483 -0.04139712]
[-0.20061865 -0.03701407  0.06717052]
[-0.14367303  0.20275737  0.08884252]
[-0.01235374  0.10880151  0.15470965]
[ 0.00631754  0.10816015 -0.00637019]
[ 0.09367894  0.15895024 -0.22597605]
[ 0.00161598 -0.05686428 -0.04986012]
[ 0.02282182 -0.06387008 -0.00435706]
[-0.08871414 -0.0741982   0.00071208]
[-0.21918274  0.21949807  0.16653746]
[-0.03678964  0.17138506  0.07479324]
[ 0.19346644  0.20554806  0.07158834]
[ 0.03107023  0.25095624  0.09494837]
[-1.1325947  -0.11646732 -0.56872946]
[ 0.00610372  0.2980746   0.05264005]
[ 0.14652929 -0.06317262 -0.23435095]
[ 0.08764446  0.02098193  0.05583639]
[-0.04711212  0.01120275  0.08985903]
[ 0.21199366 -0.05515815 -0.22797972]
[ 0.12068791 -0.01742206 -0.07536335]
[-0.01943689 -0.06801067  0.12620741]
[ 0.1397661   0.12816811  0.04038469]
[-0.3257384  -0.06940686 -0.47427893]
[-0.06228466  0.10436059  0.03536051]
[ 0.13743813  0.10500498  0.08574449]
[-0.04681841 -0.00249033 -0.05478981]
[-0.15194434 -0.03377993 -0.11218338]
[-0.71034652 -0.56402487 -0.38962701]
[-0.20885289 -0.48754463 -0.22916164]
[-0.14000054 -0.2773138  -0.16577959]
[-0.0630492   0.06428666 -0.09788208]
[ 0.08533597  0.1421563  -0.05444323]
[ 0.16283122 -0.02669737 -0.01885167]
[-1.05345011 -0.62419891 -0.5667125 ]
[-1.1179899  -0.13924861 -0.30581701]
[-0.77128053 -0.16079335  0.02196478]
[ 0.0290452   0.36253443  0.35995945]
[ 0.02599913  0.09287388  0.04937854]
[ 0.20759684  0.15987352 -0.05763752]
[ 0.13148892  0.0635056  -0.14838021]
[ 0.0838716   0.03400499  0.04927196]
[ 0.03839522  0.06578568  0.02831869]
[ 0.17221849 -0.06548724 -0.20629348]
[ 0.0400599  -0.00323215 -0.04829033]
[-0.02513723 -0.04549166  0.1532506 ]
[-0.45798743 -0.22954571 -0.18890196]
[-0.3248131  -1.36548209 -0.61244893]
[ 0.0280412  -0.32457265 -0.55134571]
[-0.42816794 -0.06772238 -0.38516438]
[-0.19544533  0.21809219 -0.41839942]
[-0.12218331  0.01694958 -0.02754306]
[ 0.09540129  0.08417431 -0.00116857]
[ 0.1325866   0.1019309   0.09488264]
[ 0.11528531  0.0377585   0.05181619]
[-0.60080278  0.05073914 -0.23670025]
[-0.4965598  -0.90869492 -0.53572232]
[-0.05226112 -0.30368525 -0.38845631]
[ 0.06806228 -0.02127102 -0.03721355]
[ 0.06807338  0.03247348  0.07589167]
[-0.00495009  0.01805696  0.06225164]
[ 0.04592891  0.15511394 -0.03681413]
[-0.03524094  0.1346779  -0.03363937]
[-0.05998271  0.0217398  -0.07350349]
[-0.48582357  0.16816041  0.09285042]
[-0.18461443  0.17229161  0.00032418]
[ 0.00755839  0.11985505  0.07258303]
[-0.04395657  0.26899585  0.03499208]
[-1.14011204  0.20681342 -0.41166195]
[ 0.25941771  0.5320586  -0.11003374]
[ 0.02166939  0.13214768 -0.07731713]
[-0.37213022 -0.29972279 -0.68620753]
[ 0.01493024  0.04374491 -0.04363608]
[-0.46705064  0.03700604 -0.12642381]
[-0.39271623 -0.92896444 -0.45961854]
[ 0.01921439 -0.27622083 -0.45815316]
[ 0.04799186  0.09700251  0.08749057]
[ 0.02523833  0.15234941  0.13051444]
[-0.1128572   0.10681771 -0.06884424]
[-1.20029461 -0.03825951 -0.24755804]
[-1.17617536 -0.3005375  -0.19015901]
[-0.46524534 -0.19824313 -0.13707669]
[-0.90294224  0.01893146 -0.18834677]
[-0.94688016 -0.72970074 -0.20491312]
[-0.29501283 -0.44599652 -0.16782765]
[ 0.18625337  0.03217476 -0.06336784]
[ 0.01076815  0.00742714 -0.27185357]
[-0.01200115  0.00175585  0.13583682]
[-0.87409675 -0.89691973 -0.74275881]
[-1.09469759 -0.52590269 -0.42447871]
[-0.95145065 -0.35264513  0.0766172 ]
[-0.92402095 -0.94734567 -0.64222354]
[-1.33596039 -0.38686746 -0.34873617]
[-0.97188526 -0.31957462  0.04765619]
[ 0.13807513 -0.01773237 -0.07760508]
[ 0.02944476  0.00052359 -0.05810859]
[-0.0132225  -0.0089223   0.06680498]
[ 0.00064645 -0.19356656 -0.61705756]
[ 0.08459238 -0.05468734 -0.31679365]
[ 0.06623428  0.06165962 -0.01286976]
[-0.07901795  0.34706613  0.17191625]
[ 0.00736871  0.14383006  0.04726581]
[ 0.21578954  0.2296236   0.02906717]
[ 0.06387772 -0.08201204 -0.03285063]
[ 0.08479569 -0.07013298 -0.04438224]
[-0.04270113  0.06936803  0.09394378]
[-0.45560649 -0.47370145 -0.24579462]
[-0.04747226 -0.09541266 -0.15209591]
[ 0.02384039  0.00221752  0.02970407]
[-0.18228434  0.0040313   0.07255308]
[-0.5851239  -0.19298808 -0.08591301]
[-0.39876893 -0.18151131  0.2081985 ]
[-0.26845992 -0.67607361 -0.19418572]
[-0.53602099 -0.38577402 -0.17181112]
[-0.15084139  0.01453136 -0.0872583 ]
[-0.50399685 -0.7704885  -0.26733264]
[-0.64490783 -0.70410842 -0.26965821]
[-0.25745234 -0.16324139 -0.15124476]
[ -1.50113970e-01   7.72248604e-05  -1.87985659e-01]
[-0.18588316 -0.31608805 -0.40914482]
[-0.26878616 -0.44830787  0.01561712]
[-0.08363014 -0.05264081 -0.1808929 ]
[-0.07622352  0.09196702 -0.21075517]
[-0.00584978 -0.10246766 -0.28223172]
[-0.02245259  0.01859847  0.06649258]
[ 0.05639965 -0.08186977  0.0914259 ]
[ 0.11574156 -0.0796974   0.01170791]
[ 0.13180265 -0.17856391  0.1279128 ]
[ 0.17049569  0.16897413 -0.02481336]
[ 0.15876283  0.28366655 -0.20157596]
[-0.49633291 -0.01102741  0.01134663]
[-0.00763811 -0.05070346  0.02749924]
[ 0.09936147 -0.08531528  0.07092255]
[-0.10274177 -0.55320758 -0.24251337]
[-0.11349542 -0.0048357  -0.09155043]
[-0.07134962  0.04783323  0.10395002]
[-0.12039613 -0.54306072  0.05462746]
[-0.17589608  0.02753714 -0.0128374 ]
[-0.08943492  0.15029638  0.05586603]
[-0.43359518 -0.66675872 -0.21700516]
[-0.64367372 -0.86035085  0.09996392]
[-0.18036577 -0.20826472  0.03845495]
[ 0.09078343  0.07370458  0.1515606 ]
[-0.22259744 -0.11511736  0.17540333]
[-0.0480832  -0.24175823  0.06870382]
[-0.5116114  -0.24511784 -0.5591405 ]
[-0.21649031 -0.08733572 -0.28397319]
[-0.15179777  0.02250304 -0.06784565]
[-0.4858124  -0.53324872  0.03613096]
[-0.18729225 -0.05622866  0.06057415]
[-0.09475081  0.12070181 -0.04028739]
[ 0.07125467  0.15843724  0.14804128]
[-0.61347497  0.11845609  0.19835521]
[-0.23556064 -0.02609811  0.1577073 ]
[-0.0961123  -0.38575962  0.12513469]
[-0.06131704  0.01905386 -0.40932155]
[ 0.04365969  0.05161427 -0.05151979]
[-0.02056213  0.03634754 -0.40833661]
[-0.21934922  0.11433549 -0.04696377]
[-0.20689178  0.09334324  0.05266982]
[-0.2138817  -0.15551087 -0.07912431]
[ 0.0227729  -0.04524245 -0.00537315]
[ 0.01754337 -0.03741307  0.05457623]
[-0.16052799  0.01964342  0.2648437 ]
[-0.34916282  0.04162111  0.22070703]
[-0.05950656  0.1200569   0.33251432]
[-0.02310851 -0.03683232  0.09548117]
[-0.06936209 -0.49296999 -0.2025421 ]
[-0.03925039 -0.48457617  0.07680669]
[ 0.00255676  0.1350693   0.13500896]
[-0.25362301  0.12514457  0.17714959]
[-0.12425116 -0.07262512  0.1116025 ]
[-0.20217031  0.16230954 -0.42193213]
[-0.21992882  0.27322406 -0.12332887]
[-0.19761612  0.1998138   0.12681144]
[ 0.07796293  0.08190902  0.04460932]
[-0.04033412  0.05358002  0.06358016]
[ 0.01072153  0.02502348  0.09482621]
[ 0.02966514  0.06794973  0.0565302 ]
[-0.14158346  0.07966331  0.10621155]
[-0.01763867  0.02313025  0.1145707 ]
[-0.32434314 -0.25365731 -0.27433532]
[-0.53803223 -0.79282826 -0.51089531]
[-0.25881037 -0.45679647  0.12483844]
[-0.09269087  0.09492338  0.05517532]
[-0.20561223  0.00747804  0.06615946]
[ 0.07365447 -0.03782111  0.09473043]
[-0.32693461  0.02224727  0.01361149]
[-0.13171102 -0.04921019  0.05746493]
[ 0.06950194 -0.03690947  0.11436804]
[-0.10076311 -0.10298639 -0.24382566]
[-0.13289878  0.0659814  -0.63382065]
[-0.15385646 -0.02266989 -0.11957145]
[-0.35467342  0.05474012  0.38346088]
[-0.50483674 -0.47557276  0.14730306]
[-0.26486477 -0.30400088 -0.1012217 ]
[-0.27143088 -0.97431403 -0.46683788]
[-0.04051901 -0.14608268 -0.34359184]
[-0.00805684  0.01214459 -0.00415685]
[-0.05895459  0.06939517  0.0064649 ]
[-0.09290501  0.00700932  0.10065311]
[ 0.01645146  0.06159644  0.06135906]
[-0.6802218  -0.06419846  0.12816188]
[-0.5657382  -0.16368395 -0.06186254]
[-0.11262445 -0.21842434 -0.02474379]
[-0.15473206  0.01596474  0.03181844]
[-0.24797927 -0.54941404 -0.27124992]
[-0.43545625 -0.66027498 -0.16298407]
[ 0.03073584  0.04171243 -0.06405426]
[-0.00497038 -0.00964267  0.07029042]
[-0.00183605  0.07351431 -0.06006905]
[ 0.12486163  0.07733475 -0.08065279]
[-0.08084516 -0.0113495   0.03086733]
[ 0.09082066  0.1628274   0.02236002]
[ 0.00105896  0.09238429  0.05805242]
[ 0.01469989 -0.00714694  0.00637887]
[-0.10365    -0.04941158 -0.0055813 ]
[-0.0114486   0.06140195  0.08944042]
[-0.07257964  0.04254924  0.03936739]
[-0.12718175  0.06424528  0.03625015]
[-0.03323145 -0.15688103 -0.01460846]
[ 0.25394106 -0.06037095 -0.03029529]
[-0.18337223 -0.17058928  0.06194747]
[-0.13091756 -0.10573474  0.06781639]
[-0.05865798 -0.11906513 -0.12572503]
[ 0.02460926 -0.1560155   0.19180639]
[-0.73345309  0.15651347  0.05279594]
[-0.58074504  0.12372762  0.00809518]
[-0.49288708  0.02157119  0.06663834]
[-0.40728697 -0.67444032  0.03282996]
[-0.48947001 -0.81164724 -0.47124451]
[-0.05699008 -0.15632518 -0.10066935]
[ 0.10358902  0.05317933 -0.09991554]
[-0.0216428   0.04957453 -0.10339293]
[ 0.12631565  0.07506181 -0.07150804]
[ 0.02286334  0.07426781 -0.00659551]
[-0.08159568  0.00890708  0.10133655]
[ 0.07978668  0.10350958 -0.03107333]
[ 0.04551334 -0.24036917  0.03975861]
[ 0.13322876 -0.10328738 -0.0193599 ]
[-0.02661984  0.06594212  0.01837607]
[-0.98569596  0.17013432  0.15540302]
[-0.75230891  0.03167639  0.00186449]
[-0.53481424  0.01434713  0.2797097 ]
[ 0.04030075 -0.14394756 -0.02502682]
[ 0.03754565 -0.02122308 -0.1861396 ]
[ 0.09897104  0.0970838  -0.12440041]
[-0.79498637 -0.04009904  0.00183209]
[-0.64237487  0.15561214 -0.00495894]
[-0.83744758  0.2880075  -0.0018959 ]
[-0.0577547   0.12012985 -0.13923885]
[ 0.01705019 -0.00094562  0.02807749]
[-0.00763892  0.11369493 -0.04402486]
[ 0.07191718  0.12946035  0.11102821]
[ 0.04270441  0.09070896  0.12143268]
[ 0.07978936  0.11058323  0.12054607]
[-1.23603976  0.02625335  0.03023015]
[-1.14157808 -0.01717027  0.05187877]
[-0.53940368 -0.1709525   0.05707432]
[-0.53527522 -0.15206504 -0.00273375]
[-1.12505352 -0.84248269 -0.14102876]
[-1.11299014 -0.43199608 -0.00280475]
[-0.07329865  0.03753936 -0.04619314]
[-0.09808294 -0.05974866  0.0510712 ]
[-0.17822817  0.01287741  0.03091139]
[-0.44097862 -0.09704229 -0.02961489]
[-0.22292876 -0.07232356 -0.01953977]
[-0.52855283  0.01912248  0.02709872]
[ 0.11434112 -0.00559596  0.00489503]
[ 0.10597665  0.04524821 -0.11418517]
[ 0.12442914  0.15141261 -0.14163788]
[-1.29005802 -0.05336574  0.02051327]
[-1.1516856  -0.04069794 -0.04883131]
[-1.36654019 -0.13003452  0.01875485]
[-0.9938885  -0.03811057  0.0714545 ]
[-0.7738896  -0.0838306  -0.06260039]
[-1.12940919 -0.02238478  0.04152673]
[ 0.02796014  0.06658984  0.0044667 ]
[-0.00409049 -0.00325099  0.072551  ]
[-0.01113524  0.07780457 -0.03116077]
[-0.63599312 -0.02574982  0.04033553]
[-0.33960605  0.09385798 -0.03948322]
[-0.46874624  0.01921353  0.01799415]
[-0.69266307  0.07341559  0.00183278]
[-0.42584592  0.07379007 -0.01578041]
[-0.68487024  0.06856137  0.06182249]
[ 0.03458814  0.09807878  0.02488929]
[ 0.02619499  0.01655609  0.07174542]
[ 0.01978735  0.17450869  0.05223765]
[ 0.15084909 -0.18114264 -0.11346263]
[-0.02365223 -0.16214243 -0.05264375]
[ 0.21282688 -0.10542171 -0.12172072]
[-0.77837521 -0.06588355  0.13920473]
[-0.89493012 -0.32097778 -0.10925796]
[-0.20114669 -0.23950452  0.02752677]
[-0.07876147  0.05319316 -0.08556486]
[ 0.05313226 -0.00930106  0.04495109]
[ 0.09992613  0.04084739  0.00871473]
[-0.44413176 -0.06165336 -0.27565697]
[-0.38355401  0.22546275 -0.13588753]
[ 0.12502706  0.06244227  0.01939721]
[ 0.03706627  0.12510712  0.04443427]
[ 0.17008039  0.11267553 -0.05841354]
[ 0.39243776  0.06598402  0.04837809]
[-0.55569303  0.04887471 -0.19013943]
[-0.621252   -0.42284745 -0.34736568]
[-0.37863284 -0.06262098  0.02334009]
[-0.69238991  0.0175109  -0.40278494]
[-0.85449094 -0.27781084 -0.73108768]
[-0.48976797 -0.27955607  0.0351053 ]
[ 0.04961553  0.20430592 -0.02697515]
[ 0.26737866  0.13518025 -0.09903345]
[ 0.43327776 -0.21962424  0.15203071]
[-0.06522356 -0.01403065 -0.07532039]
[ 0.00498755  0.05425726 -0.16332032]
[ 0.05177803  0.00976535 -0.0451506 ]
[ 0.12290986 -0.16658546 -0.02872742]
[-0.13995065 -0.23795986  0.02321667]
[-0.00318593 -0.01356677  0.02274389]
[-0.2184307   0.12272143 -0.44141153]
[-0.04028514 -0.65478498 -0.59907597]
[ 0.10202474 -0.05670419 -0.19358087]
[ 0.07718351 -0.64778024 -0.09476572]
[-0.39105916 -0.22755726  0.08946591]
[ 0.03548786 -0.08320456  0.03565329]
[-0.48621172  0.48400933 -0.18255673]
[ 0.19349168  0.32069075 -0.6781339 ]
[ 0.07877488  0.05917491 -0.07020646]
[-0.56238586 -0.03157923 -0.17826153]
[-0.08991572 -0.57721913 -0.56568867]
[-0.00821654  0.04953644 -0.14309265]
[-0.69997716  0.06279784 -0.33271721]
[-0.65243578 -0.14374416 -0.40902635]
[-0.39635113 -0.25233528  0.1839243 ]
[ 0.18586278  0.20043428 -0.01475658]
[ 0.04384605 -0.06489113 -0.02501546]
[-0.27527574 -0.13335498  0.03366525]
[-0.65765029 -0.25390029 -0.11606059]
[ 0.1154004   0.01423413 -0.0334041 ]
[ 0.31180802 -0.03834696  0.14416389]
[-0.37845725 -0.07636335 -0.3189871 ]
[-0.04102361 -0.52753729 -0.52961135]
[-0.08310145  0.0201122  -0.10996561]
[ 0.16549672  0.00803078  0.03255977]
[-0.05656942 -0.08622567  0.03202567]
[-0.40504065 -0.24172662  0.03925361]
[-0.41717553  0.0986291   0.05066391]
[-0.20924695 -0.11848924 -0.11672871]
[-0.06298911  0.01233916 -0.01799346]
[-0.60868669 -0.38037932 -0.06694302]
[-0.07613131 -0.094025   -0.33177352]
[-0.09109054  0.11631257 -0.09866586]
[-0.20255916 -0.84322512 -0.15955073]
[-0.3076787   0.04639967  0.06299455]
[ 0.11638159  0.05432382  0.02211911]
[ 0.10773995  0.11579428  0.01508596]
[ 0.17628331  0.03729244 -0.07623145]
[ 0.11668197  0.10166968 -0.09378448]
[ 0.19666564  0.24227037 -0.25764334]
[ 0.28026056  0.04986884 -0.38918969]
[ 0.05759414 -0.36809838  0.13910754]
[ 0.17736243  0.14727037 -0.02688454]
[ 0.03966787  0.05858304  0.03171583]
[-0.2401509  -0.10037608  0.00520745]
[-0.68598241 -0.42189324  0.03432473]
[-0.22456239 -0.17642045 -0.46501946]
[-0.08175058  0.12645952 -0.17557177]
[ 0.13276751 -0.10183945  0.05746279]
[-0.02995122  0.01840488  0.05724708]
[-0.06187584  0.05805624  0.04684952]
[ 0.15563999 -0.0259609   0.00364969]
[-0.03222901 -0.01531592  0.06059234]
[-0.1223886  -0.03849471  0.04013442]
[-0.41570055  0.21205625 -0.24652992]
[-0.20757189  0.02550075 -0.31622624]
[-0.05250395 -0.43292132  0.21283142]
[ 0.18980418 -0.38174081  0.00666024]
[-0.21542436 -0.48065853  0.13596915]
[-0.08098504 -0.13022639  0.0384619 ]
[ 0.11356804 -0.54665023 -0.02068956]
[-0.34937307 -0.34131247  0.10267514]
[-0.04247209 -0.07817397  0.04465238]
[-0.12004846  0.16766056  0.12420142]
[ 0.11382049  0.03408935 -0.13437414]
[-0.07332122 -0.02173507 -0.0336225 ]
[ 0.07579044  0.22133219  0.12637261]
[-0.0920705  -0.03431041  0.1018479 ]
[-0.28542033 -0.11693067 -0.01125014]
[-0.7450304   0.13211213 -0.45474157]
[ 0.04299519  0.26007214 -0.34551087]
[ 0.12476989  0.06378136  0.00893661]
[-0.08801541 -0.07995068  0.01154277]
[ 0.05119661  0.07286219 -0.02929399]
[ 0.08286795  0.05244022  0.08189284]
[ 0.06343608  0.0327435  -0.09428025]
[ 0.04011557 -0.31919861 -0.28719372]
[ 0.02193    -0.2929602   0.00528768]
[ 0.0975667   0.10972778  0.08137982]
[-0.18313114 -0.99633592 -0.15123469]
[-0.16588013 -0.57707471 -0.11120953]
[ 0.04821125  0.00919181 -0.21231252]
[ 0.01988425  0.01631267  0.04788592]
[-0.16622448  0.05660591  0.14789461]
[-0.0458815  -0.02026924 -0.355544  ]
[ 0.05903318  0.02993061 -0.09748191]
[-0.24641366  0.08813538  0.20105368]
[-0.04711962 -0.07831143 -0.15024781]
[-0.16308694 -0.18282166 -0.3819077 ]
[-0.34303495 -0.22138983 -0.20789164]
[-0.0450958   0.1984794   0.05664213]
[-0.34370232 -0.06001059 -0.06915169]
[-0.30681688 -0.16302097  0.00034574]
[-0.07708782 -0.91402876  0.01700092]
[ 0.02617272 -0.64731693  0.04649569]
[ 0.02005611  0.12209404 -0.16590349]
[ 0.17408869 -0.23918624 -0.30486068]
[ 0.11007782  0.1987375  -0.43315494]
[ 0.05717995  0.29343727 -0.39240387]
[-0.06228529 -0.44912699 -0.0314859 ]
[ 0.03706392 -0.87899798 -0.00949828]
[ 0.05379686 -0.38617542 -0.06452622]
[ 0.13211937  0.10616364 -0.16338071]
[-0.0923683  -0.05076837 -0.63604802]
[ -3.92298251e-01  -6.16760105e-02   3.35343793e-04]
[ 0.12597072  0.07360019 -0.23306391]
[ 0.01628901  0.04145297 -0.04233504]
[-0.07523585  0.10708157  0.17643592]
[-0.01261328 -0.03734992 -0.38214374]
[ 0.04016736  0.03421253 -0.10130274]
[-0.20330735  0.03106887 -0.04107011]
[-0.16871798 -0.2460257  -0.01685103]
[-0.03171352 -0.62060803  0.07787213]
[-0.0613597   0.32399082 -0.06154322]
[ 0.18755497 -0.11615888 -0.10770221]
[-0.0066177  -0.33482662 -0.08542778]
[-0.22317378 -0.23165767 -0.01379884]
[ 0.12112128  0.00902782 -0.2113501 ]
[-0.04387844  0.0466098  -0.17244601]
[-0.01001234  0.15962313  0.04563249]
[-0.16434053  0.4032684   0.04209989]
[-0.02315426  0.15664113  0.0502118 ]
[ 0.05312094  0.59211373 -0.11195035]
[ 0.01237833  0.02616529 -0.35480985]
[-0.00432655  0.02278833 -0.08384393]
[-0.09378143  0.06549458  0.1025656 ]
[ 0.11840769  0.15427691 -0.00280033]
[-0.19760774  0.073033    0.08249645]
[-0.36430997  0.06890645  0.31669167]
[ 0.04583203 -0.22301534  0.02303683]
[ 0.0459581  -0.7533856  -0.06710584]
[ 0.030994   -0.48575902 -0.04157666]
[ 0.10642388  0.19630119  0.03690584]
[-0.1636799  -1.42617905  0.08511467]
[ 0.05024344 -0.18476707  0.09237038]
[ 0.01532853 -0.14212127 -0.27105245]
[-0.12213386 -0.299977   -0.11197087]
[-0.30149794 -0.21671861 -0.01566058]
[-0.17693755  0.01699949  0.07240205]
[ 0.01986495 -1.0019424   0.0860744 ]
[ 0.07478712  0.0593519  -0.00904248]
[ 0.24593835  0.16772391  0.03863991]
[-0.11125821  0.05394225  0.08484792]
[-0.58100194  0.18975161  0.32763761]
[-0.1178216   0.05070033  0.02403616]
[ 0.08438795 -0.34944513  0.08026179]
[ 0.06357173 -0.77069134  0.02859806]
[-0.15225926 -0.01371486  0.08804718]
[ 0.07131483 -0.74767441  0.09395328]
[ 0.04633566 -0.07540683  0.01477107]
[-0.01844133 -0.05327079 -0.43177032]
[ 0.0009564   0.02882447 -0.43362579]
[-0.29949877 -0.02087986 -0.11596364]
[-0.1215189  -0.25726661  0.01041486]
[ 0.07044795 -0.36688021  0.0587814 ]
[ 0.06192975  0.03265626 -0.05435231]
[-0.06755845 -0.25089347  0.0139654 ]
[ 0.07240646 -0.1526556   0.03810751]
[ 0.08327891  0.00569397 -0.0815757 ]
[-0.04774791 -0.03272007 -0.16008623]
[-0.12769218  0.05651563 -0.03601843]
[-0.2455972   0.06673553  0.21344385]
[-0.0323268  -0.03936406  0.09184065]
[-0.00647072  0.01941495 -0.22354285]
[ 0.11578862  0.17529781 -0.45587599]
[ 0.14620996  0.05487433 -0.02435354]
[ 0.03058262 -0.27594554 -0.38891974]
[-0.1552155  -0.21684267  0.02480905]
[ 0.07312918  0.06865284 -0.07372268]
[ 0.09190779 -0.05705708  0.0333016 ]
[ 0.06814993  0.09768723  0.01889735]
[-0.02388051 -0.14461957 -0.13844119]
[ 0.09130307 -0.0360248  -0.36747327]
[ 0.06303511 -0.14501019  0.02283055]
[-0.38517222 -0.36438701  0.18069841]
[-0.16223273  0.08359375  0.1999564 ]
[ -3.24844499e-04   1.14710443e-01   3.26744527e-01]
[-0.58719122 -0.01946278  0.03362263]
[-0.43736568 -0.00763956  0.00894479]
[-0.03814106  0.05877586 -0.04710471]
[-0.61158055 -0.06722756  0.00572808]
[-0.29501626  0.04125898  0.02316758]
[ 0.0356429   0.08931031 -0.04959317]
[-0.64626366 -0.03442161  0.15861402]
[ 0.11068685  0.08343853  0.11912182]
[ 0.06721831  0.12489062  0.22428332]
[-0.0315533  -0.12126565  0.04476785]
[-0.21643087  0.10791384  0.0466836 ]
[-0.29633939  0.09396098  0.1197155 ]
[ 0.06741093  0.04125456 -0.62739694]
[ 0.01239537 -0.14605331 -0.4866007 ]
[-0.02608669 -0.67000747 -0.08217064]
[-0.01378747 -0.0078513   0.14760469]
[-0.04423634 -0.656627   -0.38520837]
[ 0.19953902 -0.3087101  -0.24217577]
[ 0.02873018  0.11125489 -0.43958977]
[ 0.04192949  0.26641873  0.06910723]
[-0.00176626 -0.10648915  0.22827345]
[-0.15031338 -0.11314826  0.08786784]
[ 0.29884896 -0.76948887 -0.53246295]
[ 0.1468623   0.01120141  0.16136792]
[-0.20534924  0.01646752  0.01993841]
[-0.04744036 -0.16633579 -0.08517043]
[ 0.04649639 -0.02493314 -0.14148806]
[-0.31283978 -0.01670213  0.04547687]
[ 0.05190066  0.02020851  0.00400092]
[ 0.12879923  0.07436185 -0.02054791]
[ 0.1521904   0.01116862 -0.80327356]
[-0.01646568 -0.13934159 -0.89511436]
[-0.02326304 -0.54286397 -0.43475458]
[-0.02533044 -0.14664949 -0.52165455]
[ 0.24973981 -0.42879674 -0.24282566]
[ 0.11123628 -0.15640235  0.06516656]
[-0.27537853  0.00952596  0.04652643]
[-0.22475572 -0.34737396 -0.29525048]
[-0.12402131 -0.03782321 -0.21476987]
[ 0.14811781 -0.24330674 -0.65022367]
[-0.08642365 -0.86112833 -0.63705111]
[-0.08539075 -0.73998415 -0.17375371]
[-0.08851212  0.00085113  0.04244283]
[ 0.06907628 -0.00562525  0.02702299]
[ 0.30892003  0.02259705 -0.02455503]
[-0.16790552 -0.14342518 -0.03584209]
[-0.03800811 -0.15962371 -0.12770708]
[-0.13654955  0.08608951 -0.12501699]
[ 0.02706552 -0.02689569 -0.35274038]
[ 0.02005228  0.13542768 -0.05976605]
[-0.01290231 -0.15352677  0.13298956]
[-0.10823073 -0.65682608 -0.08242972]
[-0.07547662 -0.08196492 -0.08016256]
[ 0.06103871 -0.01714589  0.07157988]
[ 0.13220319 -0.0014216   0.2290931 ]
[ 0.27436286  0.07261191  0.16570635]
[ 0.13720927  0.06710358  0.1181927 ]
[ 0.1406427  -0.05879206 -0.66995609]
[-0.03587563 -0.29311535 -0.63964367]
[-0.0759069  -0.52742106 -0.24478908]
[-0.28353652 -0.12253296  0.04766962]
[-0.01039407 -0.33267048 -0.33046955]
[-0.05159724  0.01836546 -0.27408493]
[ 0.07462344 -0.10382752 -0.46341312]
[-0.03956027 -0.39826906 -0.35333458]
[-0.07442049 -1.00082815 -0.07376023]
[ 0.07302897  0.01717648 -0.38699839]
[-0.0484781  -0.44052196 -0.33921248]
[-0.1219582  -1.01776183 -0.01659395]
[-0.20571922 -0.03248979  0.07293815]
[ 0.28547692  0.03843032  0.05502628]
[ 0.1181147   0.09817153  0.01733498]
[ 0.06059084  0.13182996 -0.34873384]
[ 0.03837045  0.1695943  -0.29193008]
[-0.052034   -0.70373297  0.08474731]
[ 0.02154675  0.09095312 -0.11083018]
[ 0.05475513  0.19345114  0.01346403]
[-0.05219893 -0.49718496  0.12589574]
[-0.30791742  0.00449191  0.00705967]
[-0.07129604  0.02405046  0.00834503]
[ 0.16539238  0.04848572  0.00445649]
[ 0.08986004  0.09144969  0.00515777]
[ 0.03513897 -0.02032221 -0.04681417]
[ 0.09416788 -0.01349521 -0.15831536]
[-0.12870549 -0.02703534 -0.06803325]
[ 0.17053246 -0.17280313 -0.32748875]
[ 0.08467747  0.04487698  0.09920519]
[-0.02840397  0.05086568 -0.07319064]
[ 0.09424291  0.01065332  0.05971057]
[ 0.05016452  0.09761409 -0.03480183]
[-0.18568859 -0.0650058   0.09020728]
[-0.29900053 -0.17565474  0.07202566]
[-0.03301163  0.06054809  0.10864606]
[-0.64127719 -0.23353067 -0.00496316]
[-0.6870634  -0.42394155 -0.13827512]
[-0.06637073  0.09196339  0.12194866]
[-0.70741183 -0.66372478  0.11919155]
[-0.84780329 -0.72728068  0.07876839]
[ 0.02439049 -0.01675201  0.03505548]
[-0.8722235  -0.71777093  0.1956937 ]
[-1.00307012 -0.82009113  0.12920895]
[-0.11791649 -0.0999499   0.04444063]
[-0.48494035 -0.19766793  0.1442824 ]
[-0.34563938 -0.14650324  0.13091671]
[-0.06762106 -0.03343418  0.06701157]
[ 0.07851386  0.09333254  0.00623659]
[ 0.20442508  0.10780155 -0.11479151]
[-0.08722095 -0.10484634 -0.04613353]
[-0.01670637 -0.10935518  0.02464505]
[-0.02731955 -0.03984711  0.04948667]
[ 0.18294393  0.03715689  0.02405854]
[ 0.23798709 -0.09379971 -0.08003294]
[-0.0251572  -0.25327736 -0.14777429]
[ 0.20326144  0.08881171 -0.15615669]
[-1.03731394 -0.3288638   0.19297667]
[-0.52588022 -0.192141    0.12746307]
[ 0.0324868  -0.02468924  0.06399115]
[-0.31182376 -0.23146828  0.04074454]
[-0.47062382 -0.17746535 -0.07094514]
[ 0.01539462  0.12229545 -0.01549861]
[-0.22195767 -0.21797042  0.06913446]
[-0.33936346 -0.44797286  0.03773698]
[-0.11767573 -0.02362767  0.00899909]
[-1.06592011 -0.65290964  0.18291134]
[-1.14527547 -0.6270628   0.1302827 ]
[-0.01234481 -0.03176753  0.03529408]
[-0.14211962 -0.57388741  0.02963887]
[-0.23196511 -0.53670239  0.01320524]
[ 0.10367361 -0.11607731 -0.00773936]
[-0.11643201  0.03476633  0.06285471]
[-0.16401446 -0.24439462 -0.03426277]
[ 0.16691846  0.03299445 -0.05779676]
[-0.53491497 -0.51410979  0.07308555]
[-0.84406602 -0.73522753  0.01414049]
[-0.15447032 -0.04527005 -0.06661386]
[-0.90602374 -0.57033402  0.14409359]
[-1.06167746 -0.63005835  0.12566304]
[ 0.01032576 -0.13397452  0.01034557]
[ 0.07514556  0.04497702  0.02862795]
[ 0.06587901 -0.0225139   0.07106434]
[ 0.09954966  0.04306782  0.06844456]
[-0.0483064  -0.13281566 -0.1192162 ]
[-0.03154055 -0.18919119 -0.06129954]
[ 0.04108255  0.03262245 -0.01215276]
[-0.37612981 -0.14108907  0.10242737]
[-0.26675764 -0.16604497  0.07243362]
[-0.002668    0.0234509   0.07532731]
[-0.55079478 -0.44694489  0.05040308]
[-0.64000857 -0.80598372 -0.34641594]
[ 0.03796068  0.08841139  0.03962138]
[-0.26942661 -0.25008652  0.0563509 ]
[-0.17976813 -0.07948648  0.03583524]
[ 0.12067806  0.13804071  0.00467531]
[-0.20046405 -0.35440907  0.02313481]
[-0.16954944 -0.3062667   0.09447309]
[ 0.03849468 -0.09434016  0.01086102]
[-0.22380534 -0.34994    -0.05649934]
[-0.25990802 -0.43860343 -0.08920705]
[ 0.00820081  0.05386478 -0.09605687]
[-0.04114535 -0.11949089  0.03339875]
[-0.11633503 -0.1191371   0.06534617]
[ 0.01800644 -0.04894684  0.08609756]
[-0.26113352 -0.25824746  0.0568203 ]
[-0.32171384 -0.18873808  0.11125761]
[-0.03881885 -0.04769156  0.04929413]
[-0.96103388 -0.52548271  0.24775642]
[-1.04018414 -0.48470345  0.16476691]
[-0.06815428 -0.0169627   0.09640715]
[-0.79322416 -0.35117406  0.15828297]
[-0.65440989 -0.29787809  0.05755381]
[ 0.01720767 -0.1311079   0.11623137]
[-0.99786246 -0.32988796  0.17096807]
[-0.64681721 -0.24599139  0.12320681]
[ 0.10582666 -0.04193057  0.09445424]
[ 0.02548691  0.11678526  0.06897667]
[ 0.13116789  0.040762    0.03072698]
[ 0.19768544  0.06990433  0.01574584]
[ 0.13562906  0.05172358 -0.03061939]
[ 0.17508548  0.09427764 -0.09517243]
[ 0.08265653  0.05136565 -0.06549636]
[-0.42035738 -0.18462838  0.12286106]
[-0.34597039 -0.21577775  0.05713161]
[ 0.03334091  0.15173666  0.07380217]
[-0.08773266  0.04668301 -0.03612466]
[ 0.07701958  0.06705448 -0.04994579]
[-0.01845434  0.09566282  0.04345298]
[-0.29780704  0.01550979  0.12820536]
[-0.18666026  0.13926612  0.08460958]
[ 0.14263152  0.24987167  0.05894579]
[-0.08632413 -0.0677309   0.08432917]
[-0.11691143 -1.53016794 -0.13369252]
[-0.01670089 -0.49436352 -0.00940809]
[ 0.02879725  0.20614007  0.00442906]
[ 0.06693463 -0.14909773  0.0132634 ]
[-0.12591191 -0.36070544  0.01314468]
[ 0.07355797  0.37665787  0.02746034]
[ 0.02718243 -0.02426703  0.01737722]
[-0.07251022 -0.12023785  0.04471875]
[-0.01663274 -0.07793387  0.01551178]
[ 0.02727523 -0.73397636  0.02401513]
[-0.09026833 -0.28682321  0.10128123]
[ 0.09860992 -0.0367892  -0.0530885 ]
[-0.02634731 -0.36570525 -0.09328222]
[-0.0491164  -0.39241287  0.13271731]
[-0.38035515  0.04720776  0.10055888]
[-0.25947043  0.02090581  0.06776004]
[-0.00607029 -0.00639643 -0.12550075]
[-0.32045427 -0.10341971  0.08074895]
[-0.10007978 -0.38780999  0.06695063]
[ 0.26576319 -0.44027427  0.03796245]
[-0.12801403  0.05046391  0.16599785]
[-0.00771944  0.02383341  0.10394419]
[ 0.05026764  0.0598837  -0.23117299]
[-0.3199316   0.01896025  0.07446355]
[-0.29791266 -0.02011761 -0.22639306]
[ 0.08267824  0.08108065 -0.54361498]
[ 0.08326299 -0.19840872  0.0128572 ]
[ 0.03789695 -0.79546666 -0.02107781]
[-0.00694729 -0.45520204  0.05076193]
[ 0.04792952  0.31154978 -0.00273592]
[ 0.07078319  0.1090071   0.04880074]
[-0.10528409  0.46889544  0.01707347]
[-0.43774369 -0.01118484  0.09074161]
[-0.26760602 -0.01171372  0.04598631]
[-0.1972353   0.00779579 -0.18778931]
[-0.24886014  0.10289638  0.1067109 ]
[ 0.0019221   0.0716713  -0.04571425]
[ 0.1970982  -0.01927033 -0.40340385]
[-0.02881276 -0.38201892  0.04810316]
[ 0.03722187 -1.03248632 -0.03347822]
[ 0.01476142 -0.58462644 -0.00145195]
[-0.33862558 -0.00361502 -0.09263991]
[-0.30552474 -0.02148898 -0.49584749]
[-0.01458027 -0.06588417 -0.65574843]
[ 0.0317712  -0.25346634 -0.01793068]
[ 0.0515622  -0.75451189  0.01721449]
[-0.04519518 -0.36158231  0.02864754]
[-0.00104055  0.11164121  0.01322967]
[-0.05399104 -0.03209848 -0.08327021]
[-0.10077537 -0.21425433 -0.03401163]
[-0.02601479  0.13598639  0.20410886]
[-0.02317048 -0.00011535  0.10682712]
[ 0.1281234  0.0909038 -0.2124159]
[-0.13523816 -0.05788033 -0.05742892]
[-0.078025   -1.81782162 -0.44042423]
[ 0.20236567 -0.26083568 -0.22134735]
[ 0.06886765 -0.22381829  0.01544732]
[ 0.23362391 -0.0715592   0.05118524]
[-0.15920413  0.05641081  0.06728072]
[-0.33031365  0.01016799  0.00870478]
[-0.23319334  0.02264649 -0.09637675]
[-0.07042489 -0.0499534  -0.29584467]
[-0.06340703 -0.3578442   0.04709795]
[-0.0962664  -0.81258512 -0.09838439]
[-0.11508145 -0.26308995 -0.1743322 ]
[-0.10553272  0.04281531  0.05953337]
[ 0.02142075  0.06216906  0.0104737 ]
[ 0.08205182  0.01871036 -0.34137163]
[-0.16638033  0.01394248  0.05635135]
[-0.08924513  0.04615668 -0.10576699]
[ 0.01012022  0.00253493 -0.3922725 ]
[ 0.06374802  0.18176243 -0.03077142]
[ 0.1279047  -0.09806171  0.03489282]
[-0.09844417  0.12978171  0.03954981]
[-0.17560595  0.04317379  0.18263105]
[ 0.03398738  0.00858407  0.09204646]
[ 0.04943658  0.04273458 -0.22030239]
[-0.07830237  0.04219687  0.16391999]
[-0.03503183  0.01841394  0.03459718]
[ 0.03971451  0.03443783 -0.2343481 ]
[ 0.01544848 -0.04673328 -0.04256339]
[ 0.01051412 -0.57033145  0.03962352]
[-0.0838684  -0.8097707   0.03347616]
[-0.02329426 -0.28181681 -0.1094963 ]
[-0.04427223 -0.11238794 -0.01101153]
[-0.12402494  0.14732391  0.16447081]
[-0.24238446  0.06126705  0.15547954]
[-0.15762334  0.18648353  0.02640707]
[ 0.16258839  0.25702059 -0.26353675]
[ 0.03722774  0.0444827  -0.03468275]
[ 0.08273686 -0.0751922  -0.09817116]
[-0.02944383 -0.01514169 -0.01052182]
[ 0.03769226 -0.08396068 -0.03313016]
[ 0.25607806 -0.23250076 -0.07952979]
[ 0.15779667 -0.22704713  0.03756437]
[ 0.07755623 -0.37716481 -0.65989077]
[-0.2584379  -0.5264554  -1.02310121]
[-0.10120626 -0.1890139  -0.83226162]
[-0.06725716 -0.0994081  -0.57959968]
[-0.01643061  0.01330344 -0.0988322 ]
[ 0.00286795  0.03727389 -0.46399713]
[-0.02707071 -0.0686658  -0.70770258]
[-0.12621918 -0.05079328 -0.24642017]
[ 0.03026908  0.07718922 -0.52309787]
[ 0.03328747 -0.2169005  -1.25771618]
[-0.27741572 -0.18621363 -1.31090391]
[-0.12504344 -0.03216721 -0.95732963]
[ 0.02586965  0.02728933 -0.0967463 ]
[-0.01256464  0.00021505 -0.15096183]
[ 0.03223538 -0.01529616 -0.14103752]
[-0.03874954  0.01973918  0.03384777]
[ 0.03784214 -0.04535588  0.00147973]
[-0.02324919 -0.31586552  0.0783226 ]
[ 0.09091763  0.24720733 -0.42984253]
[ 0.05974604  0.15477234 -0.43618429]
[ 0.00969917 -0.00540077 -0.31623897]
[-0.12741114  0.02999112  0.05511247]
[-0.04421546 -0.22062035  0.03156452]
[ 0.08748161 -0.25268331  0.08367921]
[-0.00769988 -0.19257581 -0.58709592]
[ 0.1553795  -0.13807318 -1.14293957]
[ 0.10390148  0.02805653 -0.17064071]
[-0.07773643 -0.01427277 -0.95345092]
[-0.03649947  0.04011286 -0.83063316]
[ 0.08233326  0.05077998 -0.59317493]
[-0.05082129 -0.04359333 -0.42338637]
[-0.09498235 -0.029327   -0.12347887]
[ 0.0136479   0.00595091 -0.42431805]
[-0.05414334 -0.11936968  0.14257933]
[ 0.03698685 -0.06771799  0.02822529]
[-0.00778231 -0.37574497  0.09855338]
[ 0.19813168  0.12097526 -0.25503901]
[ 0.24626148 -0.05298664 -0.25784239]
[ 0.07293462  0.04314288  0.0086415 ]
[-0.13849345  0.01984113 -0.61889338]
[ 0.00948028  0.04500517 -0.72471523]
[-0.02205688  0.06868546 -0.36207858]
[-0.1092882   0.13593344  0.06482515]
[-0.0306896   0.11496761  0.02079763]
[-0.09761934 -0.19666816  0.12479157]
[-0.03639746 -0.04825159 -0.8728295 ]
[-0.05437187 -0.00458494 -0.49184731]
[ 0.00499389  0.04380948 -0.90832722]
[ 0.00525683  0.06172993  0.00427235]
[ 0.00578211  0.01327966  0.0336618 ]
[ 0.07415295  0.05814695  0.07384551]
[ 0.13842364  0.14685488  0.05038249]
[ 0.11125682 -0.17302349 -0.03598651]
[ 0.10147607 -0.06667614  0.09264524]
[-0.05023369 -0.33219507 -0.07985464]
[ 0.09780723 -0.49637488 -0.11876807]
[-0.09927408 -0.27370834 -0.3191199 ]
[-0.04554983 -0.24865061 -0.14666779]
[-0.13572592 -0.02689657 -0.46347126]
[-0.00466553  0.12159399 -0.79502046]
[-0.12876657  0.05414181  0.15101856]
[-0.07382166  0.09643366 -0.00288656]
[-0.05836913 -0.0972655   0.15804395]
[-0.10429053  0.05949925 -0.23479304]
[ 0.08910261  0.06693172 -0.0451264 ]
[ 0.04906895  0.10021192 -0.18688862]
[-0.07138908  0.19913845 -0.00093595]
[  2.12004371e-02   9.86383748e-05   1.46122565e-02]
[-0.05678535  0.06477476  0.02946301]
[-0.08643781  0.14259136  0.03224701]
[ 0.0068628   0.02677293 -0.02229977]
[-0.02666411  0.01212149  0.09287468]
[-0.06336544 -0.0652637  -0.95556563]
[-0.13082151 -0.0698492  -0.54760158]
[-0.03191261  0.02313504 -0.72509497]
[-0.18588346  0.13203624  0.03880282]
[-0.00461206 -0.04732321 -0.00337592]
[ 0.02942258 -0.13996558  0.06708711]
[-0.16694379  0.12826827  0.03335187]
[-0.08899844 -0.09892145 -0.01954103]
[ 0.05361379 -0.19323634  0.10172359]
[-0.01916544 -0.10149726 -0.96136355]
[-0.0722919  -0.06002411 -0.17579734]
[ 0.03879267  0.07837757 -0.52422547]
[-0.07699843 -0.16619676  0.29021752]
[ 0.00219371 -0.10823444  0.07509656]
[ 0.10446963 -0.11282109 -0.06799094]
[ 0.00401561 -0.32721511 -0.26209331]
[ 0.18586972 -0.3639099  -0.44849804]
[ 0.16406935 -0.10718868 -0.04991191]
[-0.09629947 -0.01987871  0.09059058]
[-0.05624628 -0.06656579 -0.01192285]
[-0.06875329  0.01880339 -0.01621195]
[ 0.07327768  0.08190831  0.11457704]
[-0.09514764 -0.22345388  0.12893309]
[-0.2525335  -0.17156948  0.4732337 ]
[-0.3803741  -0.21178736 -0.02962289]
[-0.43299022 -0.86763275 -0.77903867]
[ 0.17315798 -0.11545362  0.00551892]
[-0.26563817  0.01201337  0.01447399]
[ 0.11931977  0.0279868  -0.02055868]
[ 0.02007421 -0.12785222 -0.15197539]
[-0.14682381  0.00233768  0.02152836]
[ 0.07581714  0.10296813 -0.02765602]
[-0.11935871 -0.31008512 -0.21071355]
[-0.70179808  0.14044064  0.06966022]
[-0.72673488 -0.39958137 -0.43204117]
[-0.10958765 -0.35821009 -0.22826049]
[-0.09237571 -0.00396674  0.13486446]
[ 0.08608421 -0.0706687  -0.03524445]
[ 0.22725391 -0.40943676 -0.4295949 ]
[-0.0113168   0.0899921  -0.08206408]
[ 0.00504909  0.04778541  0.01255558]
[ 0.01060958  0.104003    0.25534636]
[-0.32188514  0.05265959  0.04841918]
[-0.68241155  0.0383075   0.16578318]
[-0.92356431  0.22526954  0.3493306 ]
[ 0.03306209 -0.04629181  0.06492354]
[ 0.0359298  -0.12979488 -0.00285504]
[ 0.07560544 -0.05341687 -0.31821364]
[-0.1333977   0.00605989  0.0423434 ]
[-1.06901705 -0.3468065   0.05385621]
[-1.01936173 -0.44456258  0.22754917]
[-0.70407271  0.01128987  0.01676227]
[-1.55087364  0.01939265  0.03661317]
[-1.06367326  0.06822663  0.03398441]
[-0.13180625  0.04715529  0.03485231]
[-0.01488156  0.02620889 -0.06339698]
[-0.31738237 -0.31713712 -0.1640178 ]
[ 0.01971043  0.01119253 -0.29302004]
[ 0.00225992  0.07337617 -0.27956456]
[ 0.04325205  0.05415469 -0.00033594]
[-0.15435854 -0.25252923  0.37718508]
[-0.3102878  -0.54896218  0.37973124]
[-0.32032645 -0.45179066  0.3068848 ]
[-0.57821172  0.00955822  0.06231559]
[-1.05532873  0.00734671  0.07257447]
[-0.66333848  0.36364672  0.07087043]
[ 0.12364287 -0.15718697 -0.13415605]
[ 0.06599434  0.02404718 -0.43767652]
[ 0.13532929  0.09962949 -0.34195793]
[-1.27557516  0.03723203  0.03452247]
[-1.36253691  0.02769408 -0.00472834]
[-1.28835261 -0.23057128 -0.04888927]
[-0.54205173 -0.12363532  0.17176706]
[-0.55517077 -0.05845926  0.12268296]
[-0.46719599 -0.36140999 -0.06312562]
[ 0.0671901   0.02797185  0.13958628]
[ 0.0579722  -0.09404242  0.16408734]
[ 0.04380682 -0.0495564   0.10136177]
[-0.11200334 -0.57264543 -0.17053755]
[ 0.15297893 -0.48112822 -0.95827806]
[ 0.33010536  0.01130213  0.02636793]
[-0.67571574  0.1138535   0.13459957]
[-0.70733869 -0.42918023 -0.01255923]
[-0.40047342 -0.54369247  0.34211925]
[ 0.11978306 -0.02249155 -0.13937387]
[ 0.04377938  0.1312235  -0.19878873]
[ 0.0264399   0.07613017 -0.07064982]
[-0.67749828 -0.02932502  0.12092758]
[-0.63737208  0.13365798  0.01419483]
[-0.43000582  0.04704159 -0.04950985]
[ 0.00735204 -0.07895087  0.03722067]
[ 0.04298904  0.00275348  0.09481982]
[ 0.00620593  0.12491388  0.04988577]
[ 0.06745822 -0.10276772 -0.05797934]
[ 0.0473919   0.07069056 -0.14520091]
[ 0.0581779   0.10900342 -0.22631344]
[-0.80881792  0.12667833  0.01253469]
[-1.0612272  -0.06023371 -0.1419941 ]
[-0.96429485 -0.62603313 -0.18851675]
[ 0.04505642 -0.06467818  0.01744494]
[-0.00595488 -0.01018263  0.05414481]
[ 0.02072313  0.04494976 -0.30073485]
[ 0.01802236 -0.05341895  0.06146837]
[ 0.04964828 -0.04564227 -0.02039042]
[ 0.05874897  0.01174884 -0.30382767]
[-1.26268399  0.02210271  0.04031206]
[-0.9065237   0.00299852 -0.02889738]
[-0.59409589 -0.41028804 -0.17791879]
[-0.08370527 -0.00442673  0.07635202]
[-0.17872758 -0.00561341  0.04885713]
[-0.24002165  0.07592659  0.27749747]
[ 0.11327773  0.05244152  0.1190545 ]
[-0.24322949 -0.35398948  0.10622154]
[-0.29290289 -0.368965    0.27582574]
[ 0.08742851 -0.00021254 -0.06474685]
[ 0.09546459 -0.06374868  0.05057675]
[ 0.06186846  0.00917779 -0.09786762]
[-0.03536383  0.14502408  0.1030611 ]
[-0.0035981   0.07889526 -0.58734739]
[ 0.11887051  0.1634167  -0.41815272]
[-0.67570579 -1.82027316  0.33477595]
[-1.25736511 -0.81513011  0.04518782]
[-0.84156686  0.00652703  0.08717951]
[ 0.0852116  -0.34771067 -0.03411695]
[ 0.14915961 -0.00731808  0.02790664]
[ 0.02255261  0.06852973  0.03907055]
[ 0.06255635 -0.29979122 -0.06841692]
[ 0.21421112  0.09385732  0.04061973]
[-0.00579428  0.14139523  0.08110034]
[-0.1267985  -0.51745468  0.0831025 ]
[-0.35879764 -0.06293181  0.06784604]
[-0.58707064  0.09640286  0.10268214]
[ 0.17129618 -0.27735487 -0.11429773]
[-0.08955607 -0.29459906  0.00846249]
[-0.20006418  0.03816856  0.15558417]
[ 0.03956296  0.06054697  0.15793775]
[ 0.0614853   0.04876668 -0.25654581]
[ 0.01176467 -0.02440514 -0.55684185]
[-0.37676761  0.09170698 -0.09282777]
[-0.25672811  0.07226362 -0.26372284]
[ 0.05072524 -0.16472703 -0.26538736]
[-0.00530973  0.04323224 -0.13940638]
[-0.01204436 -0.0040358  -0.42364791]
[-0.03618619 -0.03728806  0.06073341]
[-0.23182213  0.08338661  0.15186663]
[-0.2004635  -0.17807376 -0.83052278]
[ 0.0899514  -0.09304281 -0.423962  ]
[-0.11841622 -0.12062811  0.01782041]
[-0.00985927 -0.20307164  0.05181456]
[ 0.12495509 -0.08798699  0.00808282]
[ 0.09993546 -0.03290257 -0.01214353]
[ 0.1294003   0.20929587  0.02278163]
[-0.09581723  0.13409039  0.05706155]
[-0.15085486 -0.01874644  0.17282636]
[ 0.05027014  0.06502089 -0.09827061]
[ 0.06762821 -0.07214961 -0.46126285]
[ 0.02227412  0.15064849 -0.02460964]
[-0.02930786  0.01675142 -0.00130314]
[-0.08407005 -0.35717314  0.12921223]
[-0.19221224 -0.04740463  0.01259826]
[-0.06571888 -0.22810979 -0.01589991]
[ 0.13864702 -0.17417443 -0.07473534]
[-0.24335285 -0.12145226 -0.15654778]
[-0.12272301  0.00269643 -0.17718615]
[-0.10942359 -0.08258757 -0.34401497]
[-0.03818107 -0.18608056 -0.02179985]
[-0.01701033  0.02899595  0.01291892]
[-0.10431265  0.08799768  0.03878677]
[ 0.04304814 -0.31693494 -0.04438114]
[ 0.07464818 -0.51131397  0.06081741]
[ 0.04590555 -0.20237547  0.11456832]
[ 0.08097883  0.10260633  0.01929204]
[ 0.06265571  0.10442944 -0.96046096]
[ 0.0635101   0.04250779 -0.24402446]
[-0.98953021 -1.3166976   0.42516223]
[-1.23598135 -0.63717645 -0.02267268]
[-0.48831314 -0.0560491  -0.07548296]
[-0.35706317  0.15655276 -0.03816204]
[-0.41179979  0.24925284 -0.01961074]
[-0.46926108  0.24470843 -0.13808416]
[-0.19737989 -0.02014592  0.26630086]
[ 0.00659075  0.07594731 -0.03741629]
[ 0.01863045 -0.01766355 -0.36826825]
[-0.01429186 -0.29597616  0.02419107]
[ 0.06818616 -0.44230375  0.06177852]
[ 0.20325476 -0.13821472 -0.05297733]
[ 0.05361791  0.09960641  0.09676716]
[ 0.04186983  0.08193191 -0.00533969]
[-0.00532768  0.06118664 -0.06467231]
[-0.01886083  0.06453027 -0.09259335]
[ 0.08038096  0.07657599 -0.15291221]
[-0.01053577  0.0090813  -0.27457264]
[ 0.10754413 -0.12062686 -0.00774976]
[ 0.08465946  0.27281407  0.04128031]
[-0.23933905  0.10390697  0.07158414]
[-0.01918266  0.04275114 -0.10254956]
[ 0.01655203  0.02440366 -0.30262271]
[ 0.00036069  0.04470932 -0.27307135]
[ 0.00677517  0.05257383 -0.17443173]
[-0.01183092  0.02733739 -0.24764501]
[-0.00820105  0.0252565  -0.08691296]
[-0.03143091 -0.58455694  0.01306405]
[ 0.04992921 -0.15789597  0.03010671]
[-0.1203745  -0.03144328  0.06601027]
[-0.31945422 -0.16700324  0.16485748]
[-0.30998275 -0.05793166 -0.01195044]
[-0.11283685  0.02056188 -0.00808383]
[-0.02776109  0.15711512  0.10580992]
[-0.0055922   0.07960472 -1.03578293]
[ 0.14070529  0.07134198 -0.45097554]
[ 0.05862234 -0.07060675 -0.00019445]
[ 0.0220558  -0.08555194  0.02302662]
[-0.05810045  0.08537696  0.08167034]
[-0.22050409 -0.37120849 -0.00246234]
[-0.0298396  -0.06027132 -0.19024041]
[ 0.05223476  0.0618206   0.01165125]
[-0.12588207  0.10130011  0.09158423]
[-0.26673108  0.10524585  0.12849957]
[ 0.13417365 -0.0928367   0.09101667]
[ 0.07223168 -0.25444147  0.01127977]
[ 0.05528789  0.00486629 -0.28857431]
[-0.04957609  0.090643    0.16200334]
[ 0.06519096 -0.44752061 -0.04345827]
[ 0.03331355 -0.23791215 -0.40980577]
[-0.10272177 -0.0516561   0.01629602]
[-0.08243723  0.08648805  0.07398533]
[-0.18307117 -0.02774856  0.0856515 ]
[-0.12838688 -0.27086806 -0.0803883 ]
[-0.07149418 -0.112142    0.00190949]
[-0.0223986  -0.02207502 -0.07264941]
[ 0.00916446  0.0451459   0.13704911]
[-0.15460639  0.1041645  -0.076966  ]
[-0.19421713 -0.12630555 -0.06738091]
[-0.01929448 -0.26052827 -0.1064376 ]
[-0.40217862  0.34510201  0.09355342]
[ 0.14936438  0.25152767 -0.36555624]
[ 0.13105284  0.32257187 -0.56997424]
[-0.12039771 -0.17191377 -0.29002178]
[-0.35069036 -0.43310094 -0.15603331]
[-0.09994238 -0.22168683  0.0025482 ]
[ 0.09065598  0.14396589  0.40878135]
[ 0.04872675  0.23086493  0.19289227]
[ 0.08036357  0.01178222  0.00836122]
[ 0.02911513 -0.04942021  0.06567887]
[ 0.06205114  0.38510895 -0.21764371]
[ 0.06920929  0.13231303  0.01153878]
[ 0.03330676 -0.3722443  -0.04016264]
[-0.0380519  -0.33523366 -0.28569937]
[-0.11212825 -0.06499891 -0.0229545 ]
[-0.16353434  0.18629721 -0.05264992]
[-0.35605255  0.17005695  0.08359669]
[-0.05558694 -0.33176517 -0.03423509]
[-0.27269396 -1.15084827 -0.02730429]
[-0.18108967 -0.57049471 -0.18185522]
[-0.0983972  -0.17141318 -0.12870242]
[ 0.04316452  0.05350855  0.10398679]
[ 0.07478756  0.4842236  -0.30077058]
[ 0.06631303  0.18159439  0.03844943]
[-0.00119139  0.15304138 -0.08580271]
[-0.06352831  0.24925111  0.10778591]
[ 0.17203246 -0.05120495  0.19436897]
[-0.02479555 -0.26181498  0.039008  ]
[ 0.02356981 -0.01776624 -0.13626234]
[ 0.01370568  0.08373576  0.02638373]
[ 0.05270864 -0.35004362 -0.03489967]
[ 0.07773452  0.0258925  -0.03409012]
[-0.08883841  0.09217767  0.093724  ]
[-0.09217816 -0.31371936 -0.29073685]
[-0.14158747 -0.27005875 -0.26197341]
[ 0.04591574 -0.03027765 -0.03492446]
[-0.08337092  0.05793049  0.02674814]
[-0.11695401  0.15096617  0.08843692]
[ 0.30875334  0.25397438  0.30227825]
[-0.15588157  0.02620396 -0.05930205]
[-0.4355931  -0.06142357  0.01538879]
[-0.24128833 -0.53084254 -0.14247948]
[ 0.17576723  0.19229124 -0.05187792]
[-0.05871702  0.21587326  0.11764497]
[ 0.01934152 -0.10767833  0.12842485]
[ 0.10845341  0.08906977  0.2084257 ]
[ 0.04300893  0.31223264  0.04701651]
[-0.00633772  0.15407725  0.24185643]
[ 0.25872684  0.07744764 -0.14774802]
[-0.00750587  0.03657127  0.03944772]
[-0.07805773 -0.15496159  0.06583447]
[ 0.20495522  0.15258516 -0.09386005]
[ 0.09014346  0.16319412  0.08007582]
[ 0.06468411 -0.13370797  0.12471647]
[-0.06508473 -0.22727862 -0.00886787]
[-0.05042638 -0.44124803 -0.19937958]
[-0.15566318 -0.22301397 -0.2176569 ]
[ 0.22511223  0.04873857 -0.21364713]
[-0.21630113 -0.07987461 -0.02370849]
[-0.15010121 -0.31510311  0.06448077]
[ 0.0710815  -0.01424251 -0.22196063]
[-0.28273484 -0.26538637 -0.06056098]
[-0.14287959 -0.31505159  0.03410264]
[ 0.0097526  -0.12100518  0.02957285]
[-0.02802992 -0.06477802 -0.0964842 ]
[-0.10481721 -0.01674069  0.04262007]
[-0.16211511  0.1992735   0.23955218]
[ 0.06801618 -0.28898713  0.01156649]
[ 0.1596107  -0.01347336 -0.39417833]
[-0.18171534 -0.37027422  0.13960509]
[ 0.0402424   0.09810051 -0.10052195]
[ 0.1278661   0.11953831 -0.03595476]
[-0.02807241  0.05758259 -0.05633693]
[ 0.08066825  0.03376856 -0.06603745]
[ 0.03404839 -0.02379201 -0.00989615]
[-0.08419587  0.00987214  0.2008246 ]
[-0.15446232  0.04932823 -0.01462152]
[-0.06399333  0.09992717 -0.07208214]
[-0.0410381   0.15085138  0.19262175]
[-0.21136709  0.17104201 -0.83537364]
[-0.3611362  -0.15291971  0.23866816]
[-0.04760076  0.00314607 -0.30527046]
[ 0.04209684 -0.19469778  0.02901762]
[ 0.1136821  -0.38472545  0.17663796]
[-0.05235227  0.20099317 -0.22680715]
[ 0.03084937 -0.08521189 -0.12490265]
[ 0.05947487 -0.4791007   0.12499484]
[-0.05204303  0.17318732  0.04219289]
[-0.13162297  0.06078884 -0.90899748]
[-0.20509908 -0.23381168  0.00894149]
[ 0.13841385  0.12457592  0.08889174]
[ 0.06661261 -0.01399576 -0.06528183]
[-0.21696548 -0.22495019 -0.11956195]
[-0.30913019 -0.26794332 -0.0872613 ]
[-0.41649306  0.10950871 -0.03282486]
[ 0.07576726  0.20211376 -0.15817931]
[-0.31476954  0.07063558 -0.24199   ]
[-0.09490257  0.23902474  0.10209648]
[ 0.14074972  0.2146312   0.07483112]
[-0.14236839 -0.1523004   0.03348074]
[-0.50746423  0.09996819 -0.01344422]
[-0.06515306  0.17734826 -0.10851007]
[-0.02625576  0.00329593  0.21128502]
[-0.06230165 -0.02945058  0.00016362]
[-0.08625644 -0.0537909  -0.09639234]
[-0.11154091 -0.14761877 -0.08290394]
[ 0.02231887 -0.04320406  0.10202089]
[ 0.07119247 -0.11783443  0.15608978]
[-0.02511927  0.14146581 -0.25753209]
[ 0.00365439 -0.13500071 -0.12662914]
[ 0.03354777 -0.20611288  0.09030567]
[-0.17726323 -0.56737506 -0.11521637]
[-0.54030997 -0.4497928  -0.32265836]
[-0.02620531  0.06617668 -0.20184565]
[-0.25842717  0.01963207  0.23633008]
[ 0.02906897  0.01662511 -0.02676161]
[ 0.17721967  0.06330936  0.10422584]
[-0.11611827 -0.29827717 -0.05892254]
[ 0.02743208 -0.14356598  0.11287811]
[ 0.10700389 -0.13212641  0.12009075]
[-0.46753523 -0.47853339  0.0701929 ]
[-0.798186   -0.77279389  0.08608872]
[-0.05733145 -0.10979944  0.08035132]
[-0.03784333 -0.00537274 -0.14565532]
[ 0.01722082 -0.06382807  0.08430829]
[ 0.0505525  -0.09268744  0.11078551]
[-0.08090059 -0.11270071  0.17780849]
[ 0.09060906 -0.1605605   0.18573624]
[ 0.09286106 -0.11715786  0.21776205]
[ 0.19213538  0.12930113  0.08774906]
[-0.02048169  0.01935052  0.01551597]
[ 0.03102762  0.15215337 -0.15096137]
[-0.03673932  0.10121351  0.18492149]
[-0.23465112 -0.83865291 -0.16951372]
[-0.17518723 -0.01347173  0.23678163]
[-0.01929263  0.30575162 -0.37149206]
[-0.02007666 -0.23210905 -0.89739001]
[-0.15162607  0.37142172 -0.01877648]
[-0.26807049 -0.37196931 -0.01095183]
[-0.57669842 -0.53269142 -0.1447704 ]
[-0.14592756 -0.0444635  -0.0954963 ]
[ 0.01798173 -0.27840498  0.1871424 ]
[ 0.10277096 -0.2291853   0.20604843]
[ 0.09106221 -0.21835218  0.28098258]
[-0.11001631 -0.21790057  0.01084864]
[-0.03289917  0.00669416  0.0347468 ]
[ 0.13788114  0.11765379 -0.03287878]
[-0.19431992 -0.31442064 -0.01874723]
[-0.29132763 -0.15629289 -0.05455663]
[-0.0190003   0.06475305 -0.06505323]
[-0.02638171  0.2805824  -0.09779869]
[-0.03208837  0.02246555 -0.40146506]
[-0.03407856 -0.26849732  0.02902071]
[-0.20912147 -0.32405216  0.031083  ]
[ -4.26267385e-01   1.00075088e-01  -3.81556398e-04]
[-0.02282034  0.18990338 -0.05790657]
[-0.16783564 -0.24318068  0.05773216]
[-0.32946727  0.10681185  0.02494622]
[ 0.06190673  0.1981197  -0.09843493]
[-0.0379261   0.09319599 -0.04789426]
[ 0.01227923 -0.16475952  0.01783936]
[ 0.01655258 -0.39730644  0.16511896]
[ 0.23782448 -0.05274259 -0.47424319]
[ 0.08403923 -0.16748689 -0.16914088]
[-0.03776246 -0.02023782 -0.07531627]
[-0.0576891   0.1868787   0.18285376]
[-0.07401554 -0.01043004 -0.04392803]
[-0.07878683  0.05313266 -0.13261731]
[-0.06789546  0.01438354  0.09764932]
[-0.02968423  0.0725709   0.0926724 ]
[-0.00837029 -0.03115435  0.07316276]
[-0.00972159 -0.06514309 -0.18558457]
[-0.22107065 -0.13507436 -0.33932045]
[-0.21294245 -0.22002259 -0.12202122]
[-0.15825118 -0.34456071 -0.42615643]
[-0.05469596  0.08123151 -0.19338766]
[ 0.03155347  0.14404276  0.04711058]
[-0.14711675  0.05460036  0.05671346]
[-0.19643377 -0.02324978  0.07222092]
[ 0.10181417 -0.06583855  0.04742781]
[-0.29899472  0.07236741  0.04147307]
[-0.1625621  -0.03843377  0.10663152]
[ 0.1652254  -0.06293449  0.05764956]
[-0.25252914 -0.23069814 -0.1734145 ]
[ 0.00156467 -0.00422612 -0.04134078]
[ 0.09981622  0.09074064  0.02361898]
[ 0.41025013  0.10401371  0.12036401]
[ 0.27870888 -0.01398455  0.01054716]
[-0.11955414 -0.10714059 -0.00115841]
[-0.15488149 -0.02758827 -0.4666    ]
[-0.15348712  0.23547611 -0.40236548]
