layers 14
layer 0 Convolution2D
32 1 3 3 valid
[ 0.19216847  0.02928302  0.12828952]
[-0.017096    0.1441543  -0.20503108]
[ 0.05841568 -0.11554731 -0.15157962]
[ 0.08000832 -0.1939977  -0.19757846]
[ 0.16267981 -0.11418959 -0.1141329 ]
[ 0.35159665  0.14763176 -0.11225338]
[-0.09834115  0.06103488  0.21483055]
[-0.16390924  0.08750226  0.14457475]
[-0.29254732 -0.02274381  0.07910279]
[ 0.47426033  0.30293268 -0.17877123]
[ 0.24975143 -0.12432636 -0.1391754 ]
[ 0.02766204 -0.14555317 -0.44504064]
[ 0.23309205 -0.06426995 -0.11720822]
[ 0.20313022  0.12394194 -0.12820576]
[ 0.10928313 -0.09588753 -0.25820744]
[-0.4062126  -0.0421      0.13928376]
[-0.13728487  0.10301582  0.18847175]
[-0.23092401  0.12983178  0.23637749]
[-0.21922122  0.23162423  0.23399208]
[-0.27845842  0.16436259  0.13588846]
[-0.36696836  0.03652905  0.08558632]
[-0.18509096 -0.28127065 -0.10605641]
[ 0.05924228  0.06963791 -0.13594709]
[ 0.39127043  0.16546845 -0.03387782]
[ 0.10178224  0.32158345 -0.04142568]
[-0.0285268   0.18213402 -0.0052983 ]
[-0.22904544 -0.13910994 -0.16297698]
[ 0.34177083 -0.17929591 -0.22000219]
[ 0.41915184 -0.06777243 -0.08855464]
[ 0.22362651 -0.20816424 -0.26642716]
[-0.27435315 -0.26363665 -0.12701657]
[-0.07679845  0.01435633  0.05941789]
[ 0.14361852  0.28881308  0.24637941]
[-0.41350824 -0.15329592  0.06667909]
[-0.0725126   0.03654633  0.3438153 ]
[-0.15576288  0.09691276  0.23590598]
[-0.03048166  0.06537595 -0.02370541]
[-0.09985694 -0.00232095 -0.14020145]
[-0.10262742  0.03976684  0.00993698]
[-0.15033172 -0.23431134 -0.19505316]
[ 0.08956818  0.03638532 -0.02540775]
[ 0.205404    0.2114227   0.06988715]
[-0.10926174  0.32959017  0.20417739]
[-0.10014408  0.06127779  0.2509577 ]
[-0.30760658 -0.10366983 -0.16435899]
[-0.09222252 -0.15986572 -0.1251173 ]
[-0.14790337 -0.00372832 -0.11028462]
[ 0.25589707  0.10377043  0.25168061]
[-0.08174549 -0.11748364 -0.1339037 ]
[ 0.24298953  0.08791438 -0.09836388]
[ 0.13982113  0.15902084 -0.18104449]
[ 0.08801704  0.21312487  0.28003934]
[ 0.11418865 -0.01844524 -0.18109906]
[-0.00637737 -0.19947158 -0.28847772]
[ 0.10013862  0.08380663 -0.10158332]
[ 0.21167237 -0.42795122 -0.49586514]
[ 0.04307272 -0.19435917  0.38598171]
[ 0.1142991   0.24518926  0.26934609]
[ 0.00721834  0.01859882  0.01558397]
[-0.19372608 -0.26863176 -0.20185179]
[-0.31797817 -0.30074182 -0.22866207]
[-0.00624576  0.04108906 -0.00149375]
[ 0.28806677  0.31218013  0.20619448]
[ 0.07008305  0.13835637  0.25317237]
[-0.03999065  0.11092     0.18494996]
[-0.22335304 -0.31818804 -0.1829925 ]
[-0.10602687 -0.17019379 -0.04733188]
[-0.16956826 -0.02949551  0.10504623]
[-0.0173329   0.15756893  0.24080729]
[-0.06827075 -0.29025474  0.03004104]
[-0.25860393 -0.19793394  0.23117678]
[-0.03137357  0.05701049  0.49003932]
[ 0.1088092   0.07307926 -0.28622586]
[-0.10757849  0.199948   -0.23374113]
[ 0.05409705  0.16698423  0.05559409]
[-0.31575185 -0.01819714  0.0166114 ]
[-0.07131033  0.1458196   0.01263161]
[ 0.02601771  0.12409757  0.13076355]
[ 0.22317973  0.35943025  0.25129548]
[-0.09604356 -0.11127656  0.14633681]
[-0.27345285 -0.22994839 -0.27352333]
[ 0.03890015 -0.05406503  0.05331397]
[-0.02160898  0.05603548  0.00258376]
[ 0.00274951 -0.02271944  0.11587279]
[ 0.17753425  0.17346592 -0.21193241]
[ 0.13130718  0.13145413 -0.04825084]
[ 0.20045665 -0.16949333 -0.37500516]
[ 0.36870459  0.35303035  0.24538791]
[ 0.15219457  0.06461266 -0.12027759]
[-0.38206494 -0.40688497 -0.32482836]
[ 0.09705757  0.18891898  0.12160239]
[ 0.10699566  0.11713563 -0.01948084]
[-0.12604304  0.004075   -0.41657567]
[-0.0493035   0.09299628  0.27472252]
[-0.30966136 -0.11390273  0.12348024]
[ 0.04047198 -0.14834374  0.06507552]
[-0.04283173 -0.03312803  0.00139305 -0.0984029   0.0171664  -0.01788158
 -0.0342222  -0.01701183  0.01126911  0.01122702 -0.03301405 -0.04569576
 -0.04334972 -0.02884934 -0.06799673  0.01195081 -0.01510707  0.0040408
  0.06939498 -0.00241373 -0.01655668 -0.03935836  0.02613256 -0.06010715
 -0.02924777 -0.03051713 -0.01726369 -0.12378898 -0.03761656 -0.03252652
 -0.03674062  0.01522429]
layer 1 Activation
relu
layer 2 MaxPooling2D
2 2
layer 3 Dropout
layer 4 Convolution2D
32 32 3 3 valid
[-0.30957943 -0.31304687 -0.04639928]
[-0.030693    0.11313636  0.0409146 ]
[ 0.08858764  0.09289358  0.03797005]
[ 0.17863965 -0.05860219 -0.04083963]
[-0.04578444 -0.01631393  0.01796087]
[-0.26745784 -0.03918641  0.00891101]
[-1.06250405  0.10383286  0.04621255]
[ 0.01448641 -0.26381296 -0.08178921]
[-0.00123213  0.0545209  -0.06563928]
[-0.0857431  -0.25499973 -0.01475623]
[-0.24130261  0.06341451  0.04726766]
[ 0.05805852 -0.01033909  0.02252031]
[ 0.12307601 -0.03030689  0.05345819]
[-0.01383081  0.06372308  0.07831986]
[ 0.03688749  0.03308832  0.02946604]
[-0.58657342  0.19971229 -0.05739189]
[-0.42659017 -0.09621137  0.1055293 ]
[-0.40065214 -0.14308584  0.11472451]
[-0.81834918  0.24672759  0.09284218]
[-0.12643257 -0.34463307  0.08358015]
[-0.14089584  0.02380893 -0.01194722]
[ 0.10751452  0.06668712 -0.01159405]
[-0.04515165 -0.07247604 -0.09764489]
[-0.63989127 -0.32820356 -0.03488479]
[-1.18923414 -0.79364413 -0.23032564]
[-0.0098654  -0.01908325 -0.15060979]
[ 0.0521762   0.09931372 -0.05116277]
[ 0.14841741 -0.02609872  0.04867826]
[-0.07377184  0.0667567   0.06236309]
[ 0.02792543  0.02208551  0.03902093]
[ 0.14529736  0.13693245 -0.23749301]
[ 0.10152656  0.15081656 -0.13002092]
[-0.31311598 -0.01083611  0.27036709]
[-0.39443225  0.10324283 -0.12533952]
[-0.59657723 -0.12901264  0.08170932]
[-0.56003529 -0.27342466  0.14801903]
[ 0.02098647 -0.10810748  0.09598259]
[-0.05290361 -0.01201373 -0.10140096]
[-0.00722969 -0.054423    0.0327878 ]
[ 0.16086979  0.17409983 -0.14884555]
[ 0.13176459  0.01846031 -0.21533138]
[-0.65409893 -0.20033878 -0.08154718]
[-0.90534532  0.08287697 -0.05616403]
[-0.14384785 -0.63645905 -0.46300119]
[-0.13708335  0.07319044 -0.4300862 ]
[ 0.11741959  0.17631316 -0.22609752]
[ 0.13391516  0.03394522 -0.20537546]
[-0.85675234 -0.37886825  0.00174667]
[ 0.24299982  0.01260261  0.03333111]
[ 0.00485873  0.07997607  0.02489481]
[-0.04804553 -0.09927999  0.06636228]
[-0.69636405 -0.19167139 -0.08686332]
[-0.05383759  0.1122295   0.0046548 ]
[ 0.12856419  0.03985288 -0.01160406]
[-0.16730072 -0.02809928 -0.25150815]
[-0.17930411  0.1655838  -0.11170316]
[ 0.11437545  0.06458434 -0.10099491]
[-1.03452003 -0.19249189 -0.45366773]
[ 0.09312627 -0.05581413 -0.6629622 ]
[ 0.03257142  0.09807328 -0.32783428]
[ 0.08416498  0.12890778 -0.12052501]
[ 0.11807556  0.04914448 -0.10611728]
[-0.14189282  0.0624893   0.07480834]
[-0.66729736 -0.16393325 -0.42522699]
[ 0.27742118 -0.55290824 -1.08379245]
[-0.02036116  0.03629748 -0.800349  ]
[ 0.20605372  0.18144155 -0.15809122]
[ 0.12987314  0.04528569 -0.02249758]
[-0.43630838 -0.02819983  0.08275795]
[-0.42935628  0.02414916 -0.16086906]
[-0.45022994 -0.21289079  0.15677769]
[-0.59809184 -0.16852599  0.2028085 ]
[ 0.27099669 -0.28515318 -0.0370332 ]
[ 0.1049455  -0.00325181 -0.00625241]
[-0.32175827 -0.14369689  0.0685135 ]
[-0.0117125   0.22862832 -0.20588852]
[-0.01877403  0.13885346 -0.08648501]
[-0.32117832 -0.19540991  0.1013614 ]
[-0.67355925  0.22359531 -0.30587944]
[ 0.18020108 -0.16156051 -0.7467913 ]
[-0.01054046  0.06826634 -0.37838796]
[ 0.07934584  0.0337767  -0.05527359]
[ 0.17860852  0.03529062 -0.12043818]
[ 0.04953254  0.05115534  0.01002266]
[ 0.03942602 -0.11604995  0.06160071]
[-0.09052528  0.05026122  0.10296665]
[ 0.1302913  -0.00073301  0.06368189]
[-0.80458641 -0.41219214 -0.34594893]
[ 0.07251284  0.19777779 -0.19219223]
[ 0.01521485  0.06950422 -0.08144361]
[-0.87525797 -0.49062085 -0.11172272]
[ 0.09454677  0.09263947  0.01611642]
[ 0.13418172  0.10746039 -0.01767947]
[-0.6891855   0.41686481  0.03341581]
[-0.3283307  -0.62677157 -0.04894743]
[ 0.02121938 -0.01639858 -0.11122121]
[-0.18910363 -0.12095204  0.04253782]
[-0.24766193 -0.09100822  0.06504745]
[-0.29281238  0.01683714  0.02447814]
[-0.06722967 -0.38482368  0.00043273]
[-0.29893738 -0.88115793 -0.15988481]
[-0.54421979 -0.46394205 -0.10843123]
[ 0.04546717 -0.00118028  0.04715633]
[ 0.04892823 -0.04823026  0.03909335]
[ 0.01544496  0.02499841  0.04798362]
[-0.13127033 -0.6355027  -0.06115281]
[-0.1321125  -0.44535249 -0.05098071]
[-0.26434892  0.07525992  0.06796263]
[-0.15101123 -0.44689295  0.00414061]
[-0.3109166  -0.23579146 -0.01621121]
[-0.39613014  0.02542896 -0.04617189]
[-0.03403698 -0.01161416  0.01070353]
[ 0.01817456 -0.01105463 -0.05490183]
[ 0.01062414  0.0658339  -0.11428704]
[ 0.01959273  0.04218306  0.02254285]
[ 0.00383699 -0.00954585 -0.01785363]
[ 0.01908331  0.001957   -0.05122222]
[-0.07625665 -0.05062476 -0.00590015]
[-0.04338007 -0.10995363 -0.22840402]
[-0.05632912 -0.14581394 -0.15466809]
[-0.06668337  0.02540898  0.150249  ]
[-0.07072908 -0.36469975  0.11591149]
[ 0.0492579  -0.07693095  0.01169663]
[-0.06516021 -0.745839   -0.04598831]
[ 0.06674046 -0.67240214 -0.04633733]
[-0.34218058 -0.14030644 -0.04870591]
[ 0.05026567 -0.01036772  0.04813126]
[ 0.13214099 -0.01124613 -0.12206362]
[ 0.08962589  0.12974894 -0.17256492]
[-0.0264943  -0.03034498 -0.08798112]
[ 0.0405895   0.00381494 -0.0597599 ]
[ 0.05115464  0.01619103 -0.22727495]
[-0.04332045  0.08907318  0.06513462]
[ 0.00926024 -0.00138873  0.03722044]
[ 0.09580578  0.00852926 -0.11017857]
[ 0.09131496 -0.10711594  0.03835395]
[ 0.10503045 -0.03712956 -0.15008457]
[ 0.0377328  -0.1776904  -0.25496978]
[ 0.08532576  0.09217402  0.01868929]
[-0.00944412  0.01428239 -0.09107965]
[ 0.07424635 -0.0146795   0.05463724]
[ 0.16696858 -0.01324516  0.04117123]
[ 0.06010497  0.04371041 -0.07187885]
[ 0.12695932  0.13560677 -0.08196968]
[-0.50916576 -0.18040107  0.07547786]
[-0.53733158 -0.32813409 -0.07590669]
[-0.60767752 -0.12563379 -0.06195746]
[ 0.06176819 -0.12030756 -0.07277539]
[-0.09022887 -0.43232429 -0.03913851]
[-0.07454918 -0.11736235  0.00791295]
[ 0.20847696 -0.15015733 -0.36171287]
[ 0.22429007 -0.23791532 -0.20800453]
[-0.02493284 -0.42949635 -0.07757604]
[ 0.11921187  0.16541743 -0.09554985]
[-0.03985499 -0.13592927  0.02746503]
[ 0.14412071 -0.00697979  0.03716663]
[ 0.22364755 -0.0216538   0.02297249]
[ 0.13655657 -0.0289562  -0.09267839]
[ 0.0318454  -0.03257684 -0.17425616]
[ 0.24772504  0.24797991 -0.43659574]
[-0.04419767 -0.16559531 -0.20633243]
[ 0.216765    0.04607468  0.00510378]
[ 0.05896842 -0.03225997  0.01128182]
[ 0.0107557  -0.05469055  0.11001951]
[ 0.10629895  0.07142032 -0.08904909]
[-0.03997872  0.00678289 -0.15520017]
[ 0.03282366 -0.02335097 -0.34698299]
[ 0.03615909  0.05587398 -0.420605  ]
[-0.45277873 -0.58646154  0.16111864]
[-0.59449881 -0.88879466  0.02581104]
[-0.91321158 -0.30097213  0.0391595 ]
[-0.02303973 -0.07120731  0.11729414]
[ 0.02953058  0.00270315  0.16120434]
[ 0.10793037  0.09543461  0.15581936]
[ 0.12173747  0.1957501  -0.0795836 ]
[ 0.03291185 -0.04599635 -0.0145858 ]
[ 0.09346665 -0.01623765  0.01154791]
[-0.03645223  0.11237243  0.17233504]
[-0.05849447  0.00060813  0.03932707]
[-0.11203998  0.10318114 -0.00049198]
[-0.28731912 -0.79920495  0.04232737]
[-0.37822723 -0.45647439 -0.03929326]
[-0.53127444 -0.0072851   0.01572939]
[ 0.09954171 -0.05552626 -0.07071249]
[-0.03190193 -0.51962817  0.09234491]
[ 0.04496833 -0.05283876 -0.00529176]
[-0.11402138 -0.25801903  0.08822293]
[-0.25418437 -0.28638607  0.02674152]
[ 0.00291672 -0.10936151  0.04893521]
[ 0.0156986   0.05632178 -0.07404997]
[ 0.00871174  0.05800239 -0.11973419]
[-0.02432085 -0.0235639  -0.16699913]
[-0.0038474  -0.37947577 -0.04002815]
[-0.10360196  0.16484709  0.06118636]
[-0.49421531  0.27386498  0.02251126]
[ 0.08954216 -0.2731286  -0.03506598]
[ 0.03651138 -0.26704225  0.00613759]
[-0.13733773 -0.13120474  0.01060823]
[-0.05845752  0.01238077  0.1065734 ]
[ 0.0286937   0.03466715 -0.15555385]
[ 0.06090383  0.0315513  -0.23343173]
[-0.01324358 -0.33845931 -0.00551509]
[ 0.05606582  0.02640186  0.03103444]
[-0.13093935  0.290613    0.02947255]
[ 0.05094837 -0.17535637  0.03710644]
[ 0.03732779 -0.13555458  0.03151452]
[-0.28008476  0.12069385  0.02264615]
[-0.09631159  0.03490904  0.16068928]
[ 0.00919102  0.06674183 -0.0443578 ]
[ 0.02257841  0.00583701 -0.23694634]
[-0.10240885  0.03665485  0.12401361]
[ 0.00836901  0.03415971 -0.13224664]
[ 0.03881641 -0.02004724 -0.44097894]
[ 0.01744803 -0.03411715 -0.08628832]
[-0.08267237 -0.03324877 -0.06976306]
[-0.0517946  -0.08456227 -0.14918518]
[-0.04072994 -0.22407635  0.02859391]
[-0.00544049 -0.1771839  -0.0347035 ]
[-0.22835766  0.02450672 -0.13609537]
[ 0.04845336 -0.16402949  0.02986164]
[ 0.0532639  -0.22722405  0.01893991]
[-0.09832769  0.07033681 -0.0011528 ]
[-0.09375103  0.01734856  0.06146067]
[-0.00230754  0.03789151  0.07048269]
[ 0.10763609  0.09104376 -0.12928432]
[-0.10664087  0.07746901  0.05917936]
[-0.00401455  0.03658564  0.04942258]
[ 0.04814175  0.00076861 -0.32426935]
[ 0.06729499 -0.10799799 -0.10546693]
[ 0.04776629  0.03790095 -0.03730054]
[-0.05655858 -0.02335543 -0.03401461]
[-0.05866339 -0.0310706  -0.10986972]
[-0.05357686  0.01233509 -0.19537185]
[ 0.00329878 -0.07452391 -0.33945739]
[-0.169791   -0.04472395 -0.0061276 ]
[-0.10231028 -0.0784862  -0.19949599]
[ 0.02736877 -0.13500795 -0.48328844]
[ 0.05373811  0.14318109 -0.03948866]
[ 0.02988577  0.06238611  0.02119331]
[ 0.09357692  0.06116892 -0.24514432]
[ 0.13044833 -0.16335705  0.02191966]
[-0.11720803 -0.05542187  0.00600216]
[-0.37061113  0.14243186 -0.04411467]
[ 0.05024013 -0.1145733   0.00695788]
[ 0.0541211   0.04705321  0.06150102]
[-0.29704127  0.21517423  0.01598211]
[ 0.0057888  -0.05899975 -0.30741346]
[ 0.07743113 -0.08470964  0.02943531]
[ 0.024348   -0.2626873   0.19875185]
[-0.04978144  0.02554033 -0.05909031]
[-0.19198041 -0.48361897  0.121807  ]
[-0.12882258 -0.150668   -0.04793382]
[ 0.00439105  0.02057759 -0.00170639]
[ 0.01327025 -0.0030816   0.02131563]
[ 0.06345773  0.09995531 -0.14522327]
[-0.0391188  -0.03327312 -0.24115944]
[-0.25137225 -0.55555093  0.00643855]
[-0.05006102 -0.43008897 -0.13167988]
[-0.05741937  0.11707889  0.0998539 ]
[-0.00678792  0.08334693  0.01928688]
[ 0.09910756  0.06552038 -0.23583689]
[-0.10603545  0.09007828 -0.03606557]
[-0.01124015  0.08496521 -0.03399989]
[ 0.04706585 -0.09582338 -0.3161512 ]
[ 0.02138648 -0.28781959  0.03891661]
[-0.07717526 -0.12521885 -0.02145099]
[-0.25508803  0.14090933 -0.06138913]
[-0.27114236  0.05735103  0.14865947]
[ 0.01832463  0.03590359  0.07667989]
[ 0.14407988  0.12591058 -0.24519865]
[-0.02504951  0.02749256 -0.02937501]
[-0.08770771 -0.45901054  0.0538281 ]
[-0.07063524 -0.14636533 -0.02815573]
[-0.20861487 -0.01671515 -0.02471068]
[-0.02832907  0.01450233 -0.06928306]
[ 0.08619144  0.04369408 -0.09668625]
[ 0.07435252 -0.33423793  0.06929281]
[ 0.02628922  0.08504559  0.05300532]
[-0.30208462  0.30080536 -0.00157484]
[-0.04253826  0.14457606 -0.02201715]
[ 0.12634024  0.01773875  0.17021927]
[-0.09896388  0.13546328  0.03492719]
[ 0.10526281 -0.21525998 -0.02244217]
[-0.08902662  0.26701209  0.00603308]
[-0.40878722  0.27630413 -0.06421741]
[-0.03225286  0.06946486  0.16366087]
[ 0.06883556 -0.01108492 -0.08621309]
[ 0.0560663  -0.04954418 -0.33253095]
[ 0.04058227  0.13744546 -0.04329303]
[ 0.0871395  -0.10097843 -0.12175012]
[-0.10396443 -0.15824029  0.03485573]
[-0.14657229 -0.01579814 -0.06113681]
[-0.03621509 -0.02699702 -0.00463402]
[-0.09116773  0.12734085  0.0061393 ]
[ 0.06417818 -0.00929604 -0.0476324 ]
[-0.02001818 -0.02775269 -0.00388854]
[ 0.12588406  0.02196127 -0.01319338]
[-0.07647749  0.04623503 -0.02820093]
[-0.01085348 -0.05871108 -0.24940394]
[-0.02358477 -0.23489547  0.04059988]
[-0.03071677  0.03525716  0.03179692]
[ 0.01279685 -0.03606889 -0.07716013]
[-0.04401971 -0.03388001  0.05471118]
[ 0.01774459 -0.12984577 -0.0256044 ]
[-0.12089049  0.03161296  0.00059716]
[ 0.15718998  0.1058064  -0.0098944 ]
[ 0.03738747  0.02722132 -0.05275746]
[-0.07631423 -0.07087146 -0.0023496 ]
[ 0.06053169 -0.00407975 -0.00877245]
[-0.10099825 -0.39771667 -0.21107326]
[-0.08811942  0.03166848  0.04395437]
[-0.09985118  0.08851487 -0.00662924]
[ 0.00546615  0.14204337  0.03730105]
[  3.83812450e-02   1.21923709e-04  -2.31259808e-01]
[-0.48141682 -0.50062305 -0.00485342]
[-0.03394336  0.02017654  0.0458382 ]
[-0.01116042 -0.01191986 -0.0887465 ]
[-0.03125802  0.01162395  0.03004839]
[-0.47403228 -0.76976049  0.10713122]
[-0.09111911 -0.00080122  0.08459057]
[ 0.03122334  0.01705861 -0.10652903]
[-0.01684518 -0.23704535 -0.02626156]
[-0.20932218  0.02617798  0.03895604]
[ 0.12118483  0.05254128 -0.01322672]
[ 0.07596309 -0.05107126  0.02020893]
[ 0.03007915 -0.03707383  0.0188351 ]
[ 0.0653597   0.06744301 -0.07045376]
[ 0.04435115 -0.68759274 -0.14777187]
[-0.07984543  0.12591253  0.09784999]
[-0.07412355  0.07912048 -0.06417733]
[ 0.05764655  0.03467715 -0.13797499]
[-0.06485487 -0.06058438 -0.009208  ]
[-0.13243085 -0.08713578  0.03443801]
[-0.58765066 -0.65623254  0.25433716]
[-0.05065937  0.02127351  0.03616906]
[ 0.01977729  0.01383742 -0.07454432]
[-0.02439682 -0.0418386  -0.14186154]
[ 0.0050113  -0.06825071  0.01496367]
[-0.12357809  0.12922364  0.06429663]
[ 0.01480034  0.09633197 -0.02876844]
[ 0.07321935  0.01660184 -0.30541271]
[-0.33685756 -0.33069357 -0.02818551]
[-0.19805539 -0.07855513  0.00494651]
[-0.02001953 -0.12930891 -0.15152927]
[-0.110424   -0.04138811 -0.19404326]
[ 0.03246692  0.08804934 -0.10779984]
[ 0.05101384  0.14744282 -0.15839386]
[-0.64009523 -0.44755122  0.19076753]
[-0.00890868 -0.65712768  0.00073505]
[-0.0783005   0.00525756  0.02402152]
[-0.02267735  0.01036973 -0.0940384 ]
[-0.04269329 -0.01641164 -0.23870514]
[ 0.00383907 -0.15967493 -0.14849615]
[-0.460141   -0.20039801  0.35223958]
[-0.1698799  -0.28664029  0.07553561]
[-0.03519098  0.03719353  0.02810723]
[ 0.16317832  0.05044245 -0.0407916 ]
[-0.20070796 -0.30772597  0.08155978]
[-0.11366485 -0.03087822  0.04293695]
[ 0.20941766 -0.00093357 -0.04192852]
[-0.01142866  0.08136291  0.05152036]
[ 0.04640587 -0.01995551 -0.02216895]
[ 0.04892929  0.10962521 -0.04082402]
[-0.07979033 -0.36736363 -0.02091537]
[-0.23728855  0.05162386  0.06764717]
[ 0.14375204  0.09282596 -0.02071749]
[-0.01833744  0.0537915  -0.11348194]
[ 0.00146476  0.11134996 -0.16808806]
[-0.43353271 -0.33303785  0.11777132]
[ 0.05465048 -0.01569723 -0.04041358]
[-0.01462603  0.01425399  0.03104601]
[ 0.09769135  0.11563789  0.00182448]
[ 0.02578587  0.09822179 -0.02299839]
[ 0.03632567 -0.07847851 -0.1709879 ]
[-0.02742779 -0.031314    0.07197433]
[-0.06680219 -0.02025108 -0.09436841]
[-0.0109673   0.01340579 -0.45659027]
[-0.34571025 -0.19505922  0.11671962]
[ 0.0148376   0.11932138 -0.07455403]
[ 0.06857425 -0.1145054  -0.42103359]
[-0.30255646 -0.2196281   0.02208365]
[ 0.08724676 -0.05178147 -0.04817851]
[ 0.00761868 -0.03489566 -0.01681035]
[ 0.02748642 -0.00977844 -0.00678697]
[ 0.01570468  0.06137951  0.02084379]
[ 0.02262551 -0.13300805 -0.06951747]
[ 0.10581574 -0.00996273  0.04958868]
[-0.14804077 -0.1008658   0.04282543]
[ 0.06598608 -0.02492352 -0.01995861]
[ 0.06801984  0.0293046   0.11558063]
[-0.01411772 -0.0034887  -0.13367262]
[-0.01945951  0.01898975 -0.01074539]
[-0.03747643  0.00778366 -0.23321581]
[ 0.04483799  0.03068009  0.02581747]
[ 0.11964931  0.0066374   0.06200217]
[ 0.01614359  0.02273121  0.07238568]
[-0.041154   -0.00069508 -0.05344893]
[ 0.07004002  0.01303359  0.01309919]
[-0.00580604  0.01584096 -0.04066922]
[ 0.04168948 -0.04307371 -0.28304648]
[-0.03405021  0.01832895 -0.01224163]
[ 0.06404003  0.00126151 -0.29110593]
[ 0.09272908  0.01114119 -0.35396549]
[-0.05358253  0.03644733 -0.04086827]
[ 0.03895015  0.02456589 -0.29813993]
[-0.38953468 -0.14833495 -0.04412412]
[ 0.05539406 -0.09448683  0.05058279]
[-0.1112557  -0.0494494   0.09589124]
[ 0.00994049  0.04397715 -0.09222885]
[-0.10232513 -0.12879729 -0.16265896]
[-0.05164776 -0.10210939 -0.08919882]
[-0.04990095 -0.02319681  0.01255483]
[ 0.00775471 -0.00524216  0.00125589]
[ 0.0597277   0.01377976  0.027319  ]
[-0.15556127 -0.36068958 -0.65436554]
[-0.01960219 -0.09947383 -0.68423164]
[-0.08665892 -0.03604361 -0.56674755]
[-0.00487373  0.09842347 -0.14616369]
[ 0.04709664  0.09134042  0.1141274 ]
[ 0.06077383  0.02154666 -0.20027149]
[-0.07970102 -0.07118867  0.0748795 ]
[ 0.04136693 -0.09584785 -0.04602561]
[-0.07870606 -0.01761715  0.04934461]
[-0.81391382 -0.59317863 -0.21882555]
[-0.30314153 -0.23415658 -0.0519482 ]
[-0.56458861 -0.33440614  0.05693612]
[ 0.06358372  0.05783839 -0.39776143]
[ 0.00206999  0.02800373 -0.3577455 ]
[  2.91590560e-02   3.54492280e-04  -4.08425599e-01]
[-0.40613452 -0.55407745 -0.05034477]
[-0.09139355 -0.37719104 -0.13822204]
[-0.42014048 -0.31384987 -0.15950212]
[-0.25824198 -0.01048989 -0.02397139]
[ 0.08100411  0.06512017 -0.00730508]
[-0.03910684  0.03955135  0.07878511]
[ 0.01913369 -0.06003494  0.05337575]
[-0.13172142 -0.05225849 -0.0143938 ]
[-0.08848491  0.00256566 -0.00648592]
[ 0.00505626  0.09866774 -0.16746593]
[-0.0376591   0.02785879 -0.06218289]
[-0.00463727  0.12220673 -0.0044952 ]
[-0.00927193 -0.26128405  0.01080666]
[-0.19624552 -0.38768253 -0.29484743]
[-0.24290891 -0.15016648  0.01195985]
[-0.86309075 -1.0157876  -0.59868729]
[-0.58387554 -0.70979673 -0.42907909]
[-0.74572521 -0.72269756 -0.32218447]
[-0.03410408 -0.22609776  0.01998378]
[-0.09101722 -0.43571672 -0.19129282]
[-0.11184913 -0.35364547 -0.14801282]
[-0.05256585 -0.09184399 -0.16669089]
[ 0.04299038 -0.03177099 -0.09900532]
[-0.02064718 -0.06170748 -0.12923564]
[ 0.04773269  0.00511443 -0.07211161]
[ 0.00151589  0.09014415  0.15326965]
[ 0.03776031  0.00548533 -0.25650936]
[-0.1260972   0.0947726   0.03650761]
[ 0.41158581 -0.00406249  0.06089067]
[ 0.26202443  0.06592829  0.03481538]
[-0.00497924 -0.08703464 -0.08501461]
[-0.03004957  0.00827453  0.12465215]
[ 0.02979904 -0.04793172  0.06373738]
[-0.03334653 -0.22705784  0.00554613]
[-0.26722655 -0.48454407 -0.24587113]
[-0.23914842 -0.17296681 -0.10726692]
[-0.05409705  0.00734736  0.02211114]
[ 0.07998546 -0.10255903  0.09013186]
[ 0.00817615  0.02591884  0.04471223]
[-0.08734179 -0.05464526  0.02470688]
[ 0.12930736  0.02077636  0.03974856]
[ 0.04889834  0.03958765  0.09543213]
[-0.24032055 -0.3209025   0.1162696 ]
[-0.72816014 -0.42529443 -0.18333247]
[-0.45159629 -0.07618915  0.00459573]
[ 0.00335687 -0.00110946  0.05245098]
[ 0.03585229 -0.06888308 -0.02973165]
[-0.11121596  0.05335303  0.04176298]
[ 0.02359344 -0.03572467 -0.30026019]
[ 0.02794219 -0.04270009 -0.09582786]
[-0.04150051 -0.04955567 -0.3167761 ]
[ 0.27616417  0.0139046  -0.09510264]
[ 0.20687859 -0.30679733  0.14138718]
[-0.02395554 -0.43670782  0.16520175]
[ 0.06688967 -0.18927149  0.1218321 ]
[ 0.07432149 -0.29247048  0.10612403]
[-0.04082386 -0.40115908  0.11982294]
[-0.32480004  0.04360449 -0.01290685]
[-0.12820372  0.11689256  0.0699263 ]
[-0.13989416  0.02780019 -0.10965252]
[ 0.12290026  0.37966716 -0.07681333]
[ 0.09886287  0.63107038  0.05690418]
[ 0.00508051  0.03400345  0.16013353]
[ 0.10299013  0.00771065 -0.02806989]
[ 0.0979511  -0.08773354  0.11994517]
[ 0.02651145 -0.39847016  0.08637547]
[-0.02951984  0.04373965  0.02290173]
[ 0.22069651  0.07514142  0.00407868]
[-0.07374357  0.09735107 -0.06224934]
[-0.32008228 -0.00946101  0.02288109]
[ 0.14058922  0.08653896  0.0402161 ]
[-0.1298586   0.0352687  -0.03605305]
[-0.05984767 -0.24378043  0.28662774]
[-0.10414743 -0.49340346 -0.04083728]
[ 0.01103283 -0.22522554 -0.00272728]
[ 0.02129694 -0.13173693 -0.13108124]
[ 0.02121163 -0.02775271 -0.09173474]
[ 0.2947101  -0.00257785 -0.18262269]
[ 0.0948654   0.02820108 -0.04242815]
[ 0.06223184  0.20240752  0.12702882]
[-0.01588882 -0.21991925  0.15411384]
[-0.19491857  0.26577729  0.23274171]
[-0.20103732  0.04955697 -0.08444201]
[ 0.03953737  0.24860299 -0.26466832]
[ 0.04923178  0.08489727  0.03808673]
[ 0.28107762  0.10394802  0.03795635]
[ 0.01329175  0.05674942 -0.08360879]
[ 0.06532697 -0.03695931  0.06052133]
[ 0.05128865  0.01291643  0.01024333]
[ 0.00400492  0.04449074  0.00502625]
[-0.22808848 -0.02703217  0.34087092]
[-0.23643601 -0.29569921 -0.08110709]
[ 0.0299334  -0.16330114 -0.15978269]
[-0.44909978 -0.10296004 -0.08214773]
[-0.41461849  0.11976445  0.01267288]
[-0.2680521   0.00723738 -0.23071618]
[-0.24448857  0.0501972   0.1381315 ]
[-0.16855849 -0.01192196 -0.13334236]
[ 0.06882415  0.05121465 -0.1549394 ]
[ 0.11295038 -0.42172927  0.11518453]
[ 0.10855709 -0.63627225  0.08338936]
[ 0.01322587 -0.4757269   0.08823331]
[ 0.1531603  -0.05666401 -0.03738554]
[ 0.06322967 -0.41752452  0.10081405]
[ 0.07015295 -0.54399711 -0.03177282]
[ 0.08400299 -0.06313451 -0.29312071]
[-0.08225713 -0.1535407  -0.16416159]
[-0.14976065 -0.49750695 -0.14965421]
[-0.10759008 -0.01955006  0.1921868 ]
[-0.26150683 -0.32602942 -0.11173812]
[ 0.02916582 -0.31553644 -0.2913757 ]
[-0.14335135  0.1198375   0.21686411]
[-0.2626487  -0.02693735 -0.12325199]
[ 0.02897563  0.06605089 -0.20911795]
[-0.18759398 -0.06674384  0.25458372]
[-0.49703187 -0.24392602 -0.15489568]
[-0.01803576 -0.10615312 -0.42096335]
[ 0.04948151  0.16571109  0.11595938]
[-0.00273003  0.07297388 -0.0877224 ]
[ 0.04603622  0.17972705 -0.10606984]
[ 0.28147256  0.11529239  0.06332171]
[ 0.30439144  0.09251669  0.17405798]
[ 0.03767907  0.14337449 -0.04498658]
[ 0.07064119 -0.33133569  0.01258815]
[ 0.1141576  -0.25761369  0.06261311]
[ 0.08864118 -0.16030765  0.05643382]
[-0.20104676  0.16467369  0.19432019]
[-0.14980915  0.09000366  0.03570619]
[-0.11873832  0.17821011 -0.01185834]
[-0.0512166  -0.02791139  0.05939828]
[-0.34520078 -0.38377923 -0.19449231]
[-0.0861017  -0.31277096 -0.35515288]
[-0.41650316 -0.06944589  0.05051958]
[-0.41318315  0.01537266  0.07341344]
[-0.24968746  0.15884465 -0.06501859]
[ 0.12963517  0.17462762 -0.02844982]
[ 0.17005366  0.24022637  0.11689125]
[-0.01637259 -0.06584316  0.13593189]
[ 0.05649468 -0.00952666  0.03937063]
[-0.03810712 -0.6922918  -0.20409317]
[ 0.19724567 -0.62978792 -0.21622643]
[ 0.1981732  -0.0202094  -0.12548725]
[ 0.12945035 -0.31017181 -0.02488666]
[ 0.10279692 -0.10991699  0.00403643]
[-0.22120395  0.00994055 -0.04646167]
[-0.00622693  0.17852262  0.05744807]
[-0.04982053  0.12422378 -0.03967873]
[-0.00311604  0.02767423 -0.03829557]
[ 0.05024429 -0.0204217  -0.07322183]
[ 0.02166886 -0.21408339  0.0298678 ]
[ 0.07266131  0.12060212 -0.09261028]
[ 0.0055154  -0.10289159  0.0213747 ]
[ 0.00550828 -0.15572819 -0.07373216]
[-0.48513663  0.01146715  0.00548318]
[-0.07414664  0.03141994  0.01985627]
[-0.0187479   0.0658355   0.03508049]
[ 0.01429182 -0.03402074 -0.11592625]
[-0.02102778  0.23922291 -0.20779879]
[-0.00926701  0.05700746 -0.03025012]
[ 0.05082191  0.05328588 -0.02702196]
[ 0.01253757 -0.0070557   0.0526253 ]
[-0.02249957 -0.39237535  0.01674653]
[-0.61370909 -0.02963459 -0.0021411 ]
[ 0.00126732  0.00946344  0.02721422]
[ 0.07882077  0.01984625  0.01683531]
[ -3.98417711e-01  -2.70612743e-02   3.80501733e-04]
[-0.2130256  -0.00112068  0.0341205 ]
[-0.21792006  0.00455757  0.00252267]
[ 0.00938181 -0.07782315  0.04524124]
[-0.08131011 -0.03579609  0.02731825]
[ 0.02587134  0.02898541 -0.07295431]
[ 0.01600753 -0.07288506 -0.02234428]
[ 0.08155522 -0.22377886 -0.49586701]
[-0.02014558 -0.10643528  0.00863277]
[ 0.02725795  0.0522684  -0.08966024]
[ 0.01590254  0.08602659  0.03180524]
[ 0.0068467   0.01500321  0.01883866]
[-0.99507374  0.09555503  0.0696474 ]
[ 0.08135257  0.02568592  0.00284354]
[ 0.00356321 -0.00286205  0.06020314]
[-0.61865711 -0.00881671 -0.01757181]
[ 0.10200084 -0.01967673  0.02150144]
[ 0.05365798  0.00247259 -0.02324074]
[ 0.09393378  0.03450404 -0.05400405]
[-0.04787449 -0.06128915 -0.07115336]
[-0.08104727 -0.03219235  0.00119781]
[-0.33667329 -0.40647054  0.0223281 ]
[-0.25458854 -0.05728612  0.03504911]
[ 0.04854656  0.02542048  0.02647053]
[-0.08307391 -0.06040572  0.01990404]
[-0.23761563 -0.15804893 -0.1205011 ]
[-0.41759297  0.02008716 -0.14346926]
[-0.69869697  0.13916497  0.14116727]
[-0.10213338  0.04671416  0.04154383]
[-0.00656351 -0.00560748  0.01857457]
[ 0.08966749  0.05142336  0.05440621]
[ 0.01669152 -0.34565195  0.22070369]
[ 0.01666498 -0.25120559  0.01532605]
[-0.00238516  0.04491092 -0.0248474 ]
[ 0.07056411 -0.05271697 -0.46210203]
[ 0.05352413 -0.24859078 -0.19409209]
[-0.19662224 -0.00477214 -0.1305203 ]
[-0.1237646   0.01716691 -0.06888383]
[-0.10766716  0.11032031 -0.01881661]
[-0.00237384 -0.09219984 -0.18876787]
[ 0.11439615 -0.71574515 -2.03685737]
[ 0.02411603  0.07582661 -0.51433837]
[-0.63237977 -0.01417243  0.03542043]
[-0.04326903  0.06251851  0.02539745]
[ 0.03532818  0.01569718  0.04305742]
[-0.1011003  -0.16430524 -0.12528734]
[-0.01358303 -0.7022149  -1.14468431]
[-0.18641461  0.12679282 -0.4097589 ]
[-0.76435041  0.0174623   0.03268154]
[ 0.08121307  0.01254944  0.00201018]
[ 0.02878927  0.04211927  0.0307926 ]
[-0.40405151  0.00841922 -0.01226367]
[ 0.20768709 -0.03178096 -0.01738   ]
[ 0.03095638 -0.01857074 -0.0295536 ]
[ 0.07532351 -0.17512195  0.0479723 ]
[-0.02913256 -0.28641814  0.15123531]
[-0.00571065 -0.35409239  0.11150729]
[-0.38050759  0.00954959  0.03696604]
[-0.01895262  0.04405224  0.0296721 ]
[ 0.0388717   0.01686535  0.06721415]
[-0.08334401 -0.08706031 -0.05884511]
[ 0.05700552 -0.67674226 -1.96129775]
[-0.03947588  0.1366379  -0.42120421]
[ 0.09986533  0.00755991 -0.12899043]
[ 0.04908587  0.15014823 -0.01434494]
[ 0.01765933  0.08914973  0.02643491]
[ 0.02081724  0.03948288 -0.13169013]
[-0.01479216  0.16298375 -0.01149509]
[ 0.01179862 -0.12679546  0.05143971]
[-0.03561079 -0.09043191  0.25917748]
[-0.01084144  0.00904331 -1.01004469]
[-0.10425823 -0.04994473  0.0084834 ]
[-0.01758412  0.11629565 -0.08469146]
[ 0.06314242 -0.04030705 -0.31447536]
[ 0.01748806 -0.26201335 -0.00114854]
[-0.86397207  0.02930159 -0.04852524]
[-0.12189032  0.01108878 -0.03583055]
[ 0.15711418  0.08429851 -0.03235089]
[ 0.10188345 -0.20754735  0.01522733]
[-0.00437646 -0.1249145  -0.00353989]
[ 0.0192749  -0.12418671  0.01020263]
[ 0.0696309   0.02706817 -0.04992715]
[-0.01501847  0.15468349 -0.06798591]
[ 0.10827018  0.03714451 -0.17290227]
[-0.13489008 -0.01013402  0.02865351]
[-0.14200516  0.00844796 -0.00744166]
[-0.88656312  0.01288782 -0.00800927]
[ 0.02166318 -0.02851683 -0.05947565]
[-0.05085656 -0.00935869  0.00687566]
[-0.0440379  -0.12236109 -0.00133674]
[ 0.0444282  -0.02210503 -0.02060026]
[ 0.03149496  0.02104223  0.05916847]
[ 0.02176777  0.04804373 -0.0183228 ]
[ 0.08670454  0.05024696 -0.00170263]
[ 0.18679985 -0.00319896  0.0103551 ]
[-0.46917379 -0.03596601 -0.00231659]
[ 0.15519008  0.07587772 -0.02973226]
[ 0.35102892 -0.03673667  0.00499928]
[-0.22898574  0.07882302  0.00329296]
[-0.00483648 -0.10020927 -0.10439311]
[-0.01716423  0.02063146 -0.16035737]
[ 0.14780205  0.05513078 -0.16373685]
[ 0.01523422 -0.13622217  0.21095888]
[ 0.00291743  0.07247666  0.0443592 ]
[-0.15352666  0.07149819  0.09717639]
[ 0.04281642  0.11306102 -0.05941638]
[-0.02183949  0.04467992  0.01852071]
[ 0.00633467  0.02345086 -0.03423024]
[-0.35114801  0.0469586  -0.03861211]
[-0.71044326 -0.08995006  0.02946835]
[-0.29706728 -0.15746355  0.01305257]
[-0.00342314  0.03440074 -0.02129326]
[ 0.05937934  0.02022609  0.0190922 ]
[-0.55312645 -0.07567166  0.00073061]
[ 0.01003593  0.07656012 -0.0146254 ]
[ 0.07014995  0.01344726 -0.04338243]
[ 0.07424339 -0.03898669 -0.06068358]
[-0.03290946 -0.17338713 -0.03552663]
[ 0.0219789  -0.20857406 -0.13752875]
[ 0.19406763 -0.05723381 -0.10848843]
[-0.49244529  0.0537736  -0.0175611 ]
[-0.18364409 -0.01432799 -0.00048291]
[-0.56808245  0.07655353  0.03872188]
[-0.0009456   0.026188    0.06489043]
[-0.0090263   0.03384249  0.08624185]
[ 0.0592798   0.03916826  0.08183483]
[ 0.10583018 -0.12876229 -0.01368542]
[-0.01831207  0.07707909  0.01132851]
[ 0.13362543  0.04848611 -0.17166376]
[ 0.00882213 -0.01171023  0.03563618]
[ 0.01501253 -0.03068219  0.00897546]
[-0.07252226  0.02772278  0.0653421 ]
[-0.00921096  0.00815489 -0.10708963]
[-0.10490337  0.05156929 -0.08411772]
[-0.09003296  0.04753663  0.04343982]
[-0.69847155 -0.00483433  0.17167014]
[-0.5241881   0.04897819 -0.00184943]
[-0.57700968  0.1220298   0.072264  ]
[-0.2047029  -0.06163524 -0.02794037]
[-0.26337019 -0.18906151 -0.08160491]
[ 0.02075874 -0.08340578  0.01879143]
[-0.55967033 -0.12471444 -0.06555796]
[-0.14027494 -0.00208412  0.02679827]
[-0.39643219  0.11280306  0.00320919]
[-0.23580675  0.06677319  0.00561368]
[-0.26015723  0.01730175  0.01298937]
[-0.67695868 -0.04724887 -0.01708355]
[ 0.24855565  0.02092876 -0.07709642]
[ 0.18678537 -0.01573237  0.0134654 ]
[-0.69681829 -0.13800871  0.02450854]
[ 0.11399972 -0.21860565  0.18438803]
[ 0.05246742  0.15961808  0.10736262]
[ 0.13111238  0.03384849  0.03053784]
[-0.35907319  0.08128733  0.00404522]
[-0.41480261  0.09158703  0.00814357]
[-0.54046631 -0.13480854 -0.03230049]
[-0.71797198  0.00860253  0.06759817]
[-0.6733731 -0.0078016  0.0046075]
[-0.64429891  0.10446607  0.03557113]
[-0.17837182  0.01443331 -0.07198421]
[-0.05113864  0.03049025  0.04970194]
[-0.00069478 -0.09998392  0.01060476]
[ 0.0440641   0.07428976 -0.01526251]
[-0.02890384  0.02522106  0.08678603]
[ 0.02212959 -0.10193989 -0.02667648]
[-0.3794519  -0.33994117 -0.08176259]
[-0.42779261 -0.14748888 -0.02798383]
[-0.35378408 -0.10005435  0.02449909]
[ 0.01247893 -0.27680889  0.14660083]
[ 0.0081524  -0.10401396  0.06014025]
[-0.0620458  -0.11753711  0.09199248]
[ 0.03990842  0.03717435 -0.05616552]
[ 0.29755312 -0.01082289  0.03915812]
[-0.30559659  0.04062318  0.0209115 ]
[-0.07243636 -0.04490291 -0.33212635]
[-0.20698263 -0.13638589 -0.1848378 ]
[-0.08350769 -0.23823009  0.14395343]
[ 0.42286706  0.2118523  -0.05058444]
[ 0.00454634  0.1604642   0.18171191]
[-0.39371809  0.0565383   0.57432848]
[-0.07635463 -0.07362722  0.11574511]
[-0.09400059 -0.06643508  0.12765776]
[-0.29938319  0.28333575  0.13088115]
[ 0.12121772 -0.00581518 -0.15293728]
[-0.33602926 -0.10768753 -0.09291834]
[-0.36799613 -0.31127572  0.14596185]
[ 0.07253361  0.06035412 -0.13910837]
[-0.2169075  -0.00374759  0.01852996]
[-0.17510116 -0.15378699  0.28644347]
[-0.00519849 -0.15224433  0.12410912]
[-0.24265063 -0.41120413  0.10555494]
[-0.53647584 -0.01137431  0.13998133]
[ 0.0208427   0.02034772  0.22139186]
[-0.05342239 -0.08536763  0.19878425]
[-0.39299551  0.41644701  0.18126084]
[ 0.24493475  0.26407796  0.06830919]
[ 0.32334831  0.24789703  0.2733615 ]
[-0.03445161  0.21277462  0.35345796]
[-0.06188523 -0.03985817  0.05997116]
[ 0.17325094  0.10470904 -0.07646303]
[ 0.10216732  0.32433379 -0.05517266]
[ 0.23705138  0.13918208 -0.06177145]
[-0.25583783  0.07434032  0.07895344]
[-0.25666267 -0.11398716  0.33350798]
[ 0.11012644  0.09662773 -0.03989292]
[ 0.24209993  0.1084149  -0.08051911]
[-0.11839177 -0.26172003 -0.28512678]
[ 0.00546989 -0.17434688  0.05408046]
[-0.29523864 -0.45209759  0.02452743]
[-0.57297188 -0.11562409  0.06040874]
[-0.00512604  0.07179891  0.09864386]
[-0.07337473  0.0157155   0.02657132]
[-0.06994706  0.00086601  0.0542951 ]
[ 0.40304026  0.41521493  0.10991889]
[ 0.50136083  0.31128269  0.10313755]
[ 0.30083507  0.32183242  0.12703563]
[ 0.03605571  0.24170393  0.17493929]
[ 0.29276252  0.09163325  0.16365752]
[-0.118897    0.42346954  0.13160059]
[ 0.26428035  0.36508617 -0.06678978]
[ 0.53050321  0.31736988  0.03024806]
[ 0.00070363 -0.14044487 -0.28752068]
[ 0.28297701  0.21016176 -0.03034551]
[-0.06254795  0.16293702  0.25057966]
[-0.28729233  0.00781474  0.63761407]
[-0.18632317 -0.0929227  -0.12758613]
[-0.00116975 -0.19100671 -0.24798812]
[ 0.20706232 -0.13104084 -0.08581295]
[-0.2289608 -0.1866838 -0.2000674]
[-0.11848845 -0.16710694 -0.02082088]
[ 0.11262477 -0.28470403 -0.02101226]
[ 0.050634    0.24827231  0.0025131 ]
[ 0.52115196  0.1471491  -0.23353212]
[ 0.33916011  0.21483006 -0.20346068]
[ 0.23742643  0.31357265  0.05459733]
[ 0.35143733  0.31739342 -0.04150276]
[ 0.40144628  0.0925044  -0.08781708]
[ 0.35060567  0.44075459  0.15484703]
[ 0.82270175  0.60225016  0.0986003 ]
[ 0.35017654  0.26771131 -0.16878906]
[-0.05710722 -0.10898682 -0.01879846]
[-0.22277577 -0.3257328  -0.02898449]
[-0.58406103 -0.28998324 -0.10388427]
[-0.05610772 -0.28774449 -0.02879359]
[-0.25001073 -0.35787207  0.03292848]
[-0.59741336 -0.12426843 -0.00765545]
[ 0.47457317  0.22944398 -0.01294566]
[ 0.07469056  0.42995629  0.10747491]
[-0.47820011  0.2578364   0.36873254]
[-0.10971601 -0.05669959  0.09535642]
[-0.17262605 -0.31961498  0.04702651]
[-0.5134325  -0.3570722  -0.05513863]
[ 0.18142834  0.1917944   0.12366742]
[ 0.57946181  0.32835174 -0.07962585]
[ 0.34576556  0.1870795  -0.13011   ]
[ 0.04842975 -0.27414888  0.12791841]
[ 0.15766658 -0.01378183  0.09108953]
[-0.08004087  0.08339774  0.01285524]
[ 0.01557752  0.07145511 -0.11075535]
[-0.37665555 -0.03264432  0.02760804]
[-0.38925326 -0.20039776  0.3151994 ]
[ 0.1572706   0.0480547   0.00372001]
[ 0.39669612  0.20736004 -0.27240258]
[ 0.33242932 -0.02977541 -0.24355511]
[-0.04599487 -0.05514571 -0.17145889]
[ 0.02956634 -0.10799591 -0.23038259]
[ 0.05800846 -0.01083035 -0.0706601 ]
[-0.00541212  0.08108032  0.08988138]
[ 0.03506787 -0.05285748  0.16346   ]
[-0.12543541  0.33717233  0.09835265]
[-0.24605726  0.05006465  0.16185236]
[-0.39329195 -0.15373133  0.17392956]
[-0.52284175 -0.10927555  0.19063258]
[-0.01107816 -0.04283135  0.21226931]
[ 0.31005174  0.26873282  0.03620368]
[ 0.13647117  0.23020305  0.15176074]
[ 0.21957785  0.07524218 -0.46563083]
[ 0.01063993  0.08424311 -0.07210454]
[ 0.13960247  0.16347855 -0.32653415]
[ 0.13326728  0.15501641  0.09349371]
[ 0.22430676  0.11169766  0.02904942]
[-0.16079243 -0.11498486  0.08488479]
[-0.20884377  0.0118747   0.18255332]
[-0.13911317 -0.03403338  0.09046636]
[-0.27420118 -0.13436133  0.11779734]
[ 0.19847107  0.1412427  -0.35854629]
[ 0.00736037 -0.01496804  0.28916222]
[ 0.12288506  0.12555183  0.03320762]
[ 0.20209797  0.08109076 -0.29954657]
[ 0.0571714   0.05490718  0.13193262]
[-0.00265376  0.1724091  -0.22167125]
[-0.20151837 -0.08835332  0.16849303]
[-0.34303069 -0.15755777  0.03456111]
[ 0.03348209 -0.05880246  0.09637332]
[-0.23813534  0.23335874 -0.10114024]
[-0.28331488  0.10102308 -0.16382135]
[-0.09900977  0.13422056 -0.11606821]
[ 0.18162294  0.0351127   0.10308123]
[ 0.2894159   0.11120645  0.07117796]
[ 0.0469057  -0.01854037  0.12194606]
[-0.02764134  0.02783166 -0.08366985]
[-0.21271282 -0.23502687 -0.7498551 ]
[-0.11857036 -0.05772168 -0.04793243]
[ 0.20438561  0.06688028 -0.24305463]
[ 0.00810423  0.02080444  0.13456514]
[ 0.02911425  0.06095332  0.15987638]
[ 0.03425713  0.06787967 -0.08130805]
[ 0.00631626 -0.0202925  -0.08316511]
[ 0.03489343 -0.06988463 -0.03418951]
[-0.3744438  -0.14795177  0.20775943]
[-0.61500406 -0.60251135 -0.04726082]
[-0.15827668 -0.26053751  0.16809355]
[ 0.24843244  0.10972485 -0.45197973]
[-0.04635159  0.11708019 -0.34685051]
[ 0.15067661  0.1647594  -0.26882508]
[-0.01003483 -0.13427198  0.17147589]
[-0.31873167 -0.38894245 -0.10148039]
[ 0.02948325 -0.08635771  0.15175602]
[-0.42060292  0.00257506  0.15262908]
[-0.33402151 -0.0060881   0.06472448]
[-0.13703656  0.03883484  0.18233339]
[-0.12593393  0.05245344  0.14907272]
[-0.33389583 -0.20596308  0.1751148 ]
[-0.1893103  -0.27398098  0.08087825]
[ 0.24938422 -0.22718047 -0.14526202]
[ 0.03617175 -0.29337549  0.01889808]
[ 0.18657134 -0.38369516  0.00854258]
[-0.05796581 -0.00505375 -0.2513524 ]
[-0.18124165 -0.05679313 -0.45966735]
[ 0.06550936  0.06826428 -0.26764971]
[-0.12026559 -0.0260161   0.11065292]
[-0.48984078 -0.53599584 -0.33375853]
[-0.12962574 -0.26793331  0.01672447]
[ 0.08488839  0.03893859 -0.43081155]
[-0.03625851 -0.04294079 -0.80839175]
[  1.56441152e-01  -1.14124778e-04  -5.09076774e-01]
[ 0.11860493  0.12384119 -0.23274197]
[ 0.10268503 -0.04026722 -0.31743625]
[ 0.02488635  0.16219252 -0.03848566]
[ 0.03692754  0.0423282  -0.23339114]
[-0.03855836  0.04706081 -0.04406733]
[ 0.05558529  0.18169583 -0.00686486]
[-0.52002859  0.18011658 -0.03142568]
[-0.28447679  0.11151794 -0.18995762]
[-0.1885957   0.34658313 -0.09219798]
[ 0.11770865  0.18493403 -0.15721893]
[ 0.02559098  0.06405839 -0.19208749]
[-0.06185228  0.11056591  0.12370919]
[ 0.00270269  0.07504532 -0.16109778]
[-0.0933283  -0.02962159 -0.48997229]
[ 0.0470035   0.04844397 -0.38388824]
[-0.15986145 -0.01048115 -0.17028946]
[-0.24346866  0.05632515 -0.23926686]
[-0.30870846  0.02415143 -0.17812911]
[ 0.16138595  0.17935978  0.11770745]
[ 0.05384836  0.13095616  0.0350985 ]
[-0.13869976 -0.10715367  0.14882074]
[-0.26079968 -0.33837575 -0.09188909]
[-0.46252537 -0.39983845 -0.27690819]
[-0.21103935 -0.20662768 -0.14514309]
[-0.45688465  0.10727144 -0.0813692 ]
[-0.6773569  -0.05862097 -0.09649592]
[-0.51960742 -0.07391773 -0.02524759]
[ 0.28016758  0.20962562 -0.54059237]
[ 0.13816464  0.01037594 -0.29959399]
[ 0.20893791  0.23858589 -0.52963704]
[ 0.00063295 -0.11660775 -0.04833638]
[ 0.06540786  0.09423904 -0.01246347]
[ 0.07475314  0.10009481 -0.0869018 ]
[-0.47192764  0.00531493 -0.16947462]
[-0.13111953 -0.59604234 -0.22987971]
[-0.11466017 -0.02036956  0.08485527]
[ 0.02992511 -0.01402096 -0.09490313]
[ 0.02478668  0.07616878  0.03261803]
[-0.01057268  0.01753093  0.0791494 ]
[-0.16768149 -0.59812379 -0.54064292]
[-0.12780552 -0.10628955 -0.40680617]
[ 0.05376476  0.02680141 -0.41650024]
[ 0.01917773 -0.03820495 -0.07816286]
[ 0.02009895 -0.01295358 -0.11113048]
[ 0.06618756  0.08372134 -0.25149202]
[-0.00281969 -0.11753184 -0.05929988]
[ 0.02209586 -0.05811011 -0.10352328]
[ 0.04649418  0.01964224  0.14485271]
[-0.02514796 -0.07779706 -0.12568495]
[ 0.02330579  0.02265128  0.00267351]
[-0.01958717 -0.05521551  0.11768285]
[-0.31748164  0.10338522  0.11575145]
[-0.16793515 -0.24633451  0.27949464]
[-0.12914582  0.05245402  0.18259156]
[-0.02115967  0.03386869 -0.00036881]
[-0.01310212  0.01660686  0.08298561]
[ 0.02497755 -0.01209891  0.02494704]
[-0.09397037 -0.13281196 -0.2709997 ]
[-0.02194133 -0.09025603 -0.25455266]
[ 0.05953147  0.12607096 -0.09832662]
[-0.0575668   0.12070454  0.12148574]
[-0.05495366 -0.27730027 -0.53957289]
[ 0.07494983  0.10184421 -0.27665904]
[ 0.00215982 -0.1052693  -0.08570344]
[ 0.00917121 -0.20337807 -0.29086456]
[-0.00793759  0.02255077  0.1168416 ]
[ 0.08749934 -0.05331159  0.02406442]
[-0.00135223 -0.07034398 -0.06795762]
[-0.05541458 -0.0110933  -0.00198923]
[-0.16313781  0.19495542  0.00449674]
[-0.27915329  0.17727102  0.36287153]
[-0.04804154  0.13397416 -0.10022034]
[-0.01276726 -0.00979551 -0.21574366]
[-0.00993785  0.06745268  0.03012704]
[-0.04308631 -0.08210485  0.07020769]
[-0.04884532  0.19826062  0.10769515]
[-0.3123143  -0.31729484 -0.27073693]
[-0.05198568  0.13476919 -0.2730509 ]
[-0.40956891  0.02509649 -0.06368979]
[-0.17441437 -0.33100334 -0.03231181]
[-0.02775052  0.0460077  -0.14854282]
[-0.01646333 -0.1185761  -0.11321601]
[ 0.02579049  0.11203778  0.06200034]
[ 0.08318027  0.12809366 -0.05582847]
[-0.14748029 -0.16307034 -0.03747124]
[-0.0151691   0.03643125 -0.17756155]
[ 0.10503037  0.17032287 -0.20503353]
[ 0.07534084  0.0064692   0.06726396]
[ 0.04610889  0.01016142  0.07244048]
[ 0.03975785  0.05692293  0.04946736]
[-0.06225919  0.12619586  0.09137407]
[-0.17720957  0.139066    0.30997372]
[ 0.02182797  0.18478359 -0.17842987]
[ 0.01427966  0.0126104  -0.02479247]
[-0.00840499  0.00158111  0.01020431]
[-0.01416518  0.00579328  0.07503566]
[-0.02579695  0.05504102 -0.03704585]
[-0.00695531 -0.15096588 -0.17802595]
[ 0.03355509  0.06343706  0.07874051]
[-0.02591675 -0.16998452 -0.1524926 ]
[-0.02131002 -0.27217305 -0.40898117]
[ 0.01134822  0.11485929  0.07490398]
[-0.18840651  0.16459571 -0.47635058]
[-0.59009695 -0.63391691 -0.12320191]
[-0.02538645 -0.1161188  -0.36898464]
[-0.01651948  0.02451495  0.1121485 ]
[-0.06201384 -0.12583572 -0.23241414]
[ 0.04220428 -0.07066643  0.00893247]
[ 0.07921077  0.00853403  0.01904792]
[ 0.0767343  -0.01777286  0.05866077]
[ 0.01711554  0.00604777  0.07352172]
[-0.05708502  0.05925168 -0.0144403 ]
[-0.03549628  0.05343843 -0.02211652]
[-0.03571346 -0.04261271 -0.05319081]
[-0.19565326 -0.38810596 -0.46314597]
[-0.04501007 -0.087865   -0.41263813]
[ 0.09712023  0.17410327 -0.30245551]
[ 0.05435259  0.06138295  0.23388797]
[ 0.02033271 -0.01349214 -0.02077931]
[ 0.05486016  0.02141285 -0.04146434]
[ 0.13789538 -0.02878458  0.13652955]
[ 0.0507592   0.06472363 -0.00208448]
[ 0.06276036  0.05625432 -0.15006912]
[-0.01314776 -0.14637323 -0.21327476]
[ 0.02494707  0.13370126 -0.05159853]
[-0.01352196  0.07738478  0.14217538]
[-0.19204928 -0.00392549 -0.01839171]
[-0.06663523  0.1051642   0.10216303]
[-0.04494439  0.0528207  -0.04070666]
[-0.41345316 -0.0825756  -0.2787019 ]
[-0.1256268  -0.70838583 -0.39003691]
[-0.21185085 -0.10696436 -0.04349753]
[ 0.01300329  0.00041259 -0.01940642]
[ 0.00450609  0.02329007  0.03335928]
[-0.03188863 -0.04138011  0.05156024]
[-0.51199037 -0.38151306 -0.18265957]
[-0.6654104  -0.04590154 -0.00194669]
[-0.34615844 -0.05190523 -0.07976116]
[-0.27949196 -0.04676967 -0.08791608]
[-0.21646374 -0.03824909 -0.02324005]
[-0.20109703  0.02875856 -0.02310226]
[ 0.06060234  0.02147733 -0.08682051]
[-0.00167804  0.00247691 -0.0633468 ]
[-0.03693686 -0.02994665  0.07425702]
[ 0.01537026 -0.00563932 -0.10763513]
[-0.01162918  0.05124686  0.05251382]
[-0.05060941 -0.03730056  0.02981051]
[-0.07095286  0.11595002 -0.0368791 ]
[ 0.16538396  0.04853482  0.00919888]
[ 0.02806674  0.13740696 -0.03834472]
[-0.01890002 -0.00234981 -0.02108487]
[ 0.08683199  0.06780682  0.0230473 ]
[ 0.1014506   0.03812399 -0.06841365]
[-0.34552255 -0.2651487  -0.1555081 ]
[-0.51920211 -0.27586249 -0.14727359]
[-0.43510514 -0.09229954  0.03685796]
[ 0.06034102  0.06707346  0.07478783]
[-0.27235532 -0.01451    -0.12703158]
[ 0.03892057  0.16571958 -0.02442941]
[ 0.0628694   0.0146452  -0.08211421]
[-0.03369063 -0.03166018 -0.17166227]
[-0.06602807  0.02839928  0.04281956]
[-0.1031113   0.08822349  0.06360166]
[ 0.01782143 -0.06548325 -0.05496902]
[-0.04217576 -0.10469595 -0.03874292]
[-0.05817278  0.07390149  0.07384425]
[ 0.08886355  0.18295772  0.03437873]
[ 0.07926301  0.15031852 -0.08902315]
[ 0.04145407  0.01770168 -0.04479564]
[ 0.00882259  0.05328247  0.04674797]
[-0.0787774  -0.05567559 -0.05164949]
[-0.05782549  0.10395002  0.15217803]
[-0.15050526  0.08670432 -0.04825361]
[ 0.05806211  0.13933009 -0.02784232]
[-0.36981389  0.04436458 -0.19166656]
[-0.39992702 -0.47588959 -0.27707332]
[-0.20988147  0.04377405  0.01089634]
[-0.01123828  0.00996697  0.03681588]
[ 0.05693393  0.06414652  0.14009196]
[ 0.13433573 -0.00848678  0.03361778]
[ 0.02469204 -0.19451848 -0.06827646]
[-0.10289492 -0.19487669 -0.01851591]
[-0.08014333 -0.04940677  0.0638107 ]
[-0.00567273  0.06269581  0.10855911]
[ 0.05435518  0.04753858  0.02238465]
[ 0.08317562  0.02866766  0.02739627]
[ 0.05772894  0.03736454  0.0511224 ]
[-0.3179954   0.21410118  0.07682568]
[ 0.10900611  0.09800881 -0.05293862]
[-0.01205846  0.10275523  0.11696382]
[ 0.05843827  0.01845236  0.03148112]
[ 0.09214407  0.00488657 -0.01194815]
[ 0.02841382  0.00018261  0.03622638]
[-0.08541457 -0.05673332 -0.05931077]
[ 0.016736    0.03424019  0.0217017 ]
[ 0.0567248  -0.04040124 -0.15003648]
[-0.11584131 -0.09138651 -0.1713151 ]
[-0.06201663 -0.01757207  0.0648146 ]
[-0.40982416  0.10425457 -0.44590259]
[-0.34063265 -0.40512961 -0.46868309]
[-0.23233235 -0.24545743 -0.13392888]
[ 0.05533596  0.0101022   0.04951352]
[-0.0964461  -0.10729188 -0.06436184]
[-0.12120391  0.10160502  0.02483372]
[-0.01198524  0.02994992  0.11963642]
[ 0.04114909  0.00407733  0.01887334]
[ 0.09185243  0.03311245 -0.02847909]
[-0.04820668  0.00144235  0.05789328]
[-0.11835978 -0.01318453 -0.02854625]
[-0.09050275  0.00487157  0.00457162]
[-0.87938118 -0.39692962 -0.26344246]
[-0.8885712  -0.17354171 -0.17326847]
[-0.48185998 -0.05559886 -0.01253652]
[-0.05222011  0.06949754  0.12019988]
[-0.02881354  0.05598697  0.04112323]
[ 0.12789594  0.05206761 -0.00631899]
[-0.05808423  0.14123274  0.04096122]
[ 0.07738034  0.1207308   0.05038635]
[ 0.12550707  0.04849744 -0.05704091]
[-0.00609909 -0.02283007 -0.10579166]
[-0.00740149  0.05282227  0.07365267]
[-0.04891382 -0.03559752  0.0963569 ]
[-0.13010707 -0.06430711  0.09130044]
[-0.077116   -0.11474186  0.04708138]
[ 0.08759609 -0.08013497 -0.13593936]
[ 0.03106768 -0.17255589  0.05983399]
[ 0.09983911  0.16424014 -0.24182811]
[ 0.05397774  0.25299868  0.08586065]
[ 0.07288906  0.08831207  0.04767721]
[-0.1987607   0.11917012  0.06026345]
[-0.14838317 -0.07672706  0.04228612]
[-0.10310849 -0.30195063  0.00321688]
[-0.11954809 -0.48587337 -0.00336564]
[-0.08070277 -0.23890981 -0.15361317]
[-0.02819759 -0.20102054  0.05556519]
[ 0.04220765 -0.10295489  0.01735847]
[ 0.07087818  0.06297243 -0.05140458]
[ 0.04282006  0.00962004 -0.01619283]
[-0.29964682 -0.01611674  0.02071183]
[-0.09163421 -0.22538027 -0.01095954]
[ 0.09619853  0.04277084  0.02017297]
[-0.16023441  0.0165486   0.05267486]
[ 0.26378232 -0.11009735  0.00686184]
[ 0.11089562 -0.25060576  0.00897233]
[ 0.17052943  0.3183246  -0.63509434]
[ 0.04876257  0.11372573  0.17552544]
[-0.00626758  0.07153314  0.04343183]
[-0.46281973  0.09277792  0.08377799]
[-0.0261434  -0.41977248  0.02817471]
[-0.02787025 -0.29082671  0.07199193]
[ 0.0124365  -0.06658784  0.06054054]
[ 0.0584171   0.13562569 -0.00641434]
[-0.18379608 -0.10318486 -0.02534458]
[-0.09480364 -0.57763082 -0.77075481]
[-0.01085755  0.05927368 -0.06918897]
[-0.01025215  0.01464697 -0.12647723]
[-0.3918786  -0.08822887 -0.06426827]
[-0.33432755 -0.35821614 -0.05165743]
[-0.03278914 -0.04735674  0.02696837]
[ 0.03945346 -0.01468747  0.06873824]
[ 0.0130078  -0.0636453  -0.06568575]
[ 0.0240496   0.10795616  0.14371037]
[ 0.1861036   0.19973339 -0.36919093]
[ 0.02312517  0.1588627  -0.02562407]
[ 0.07505969  0.07668135 -0.01215433]
[-0.1587846   0.04711755  0.06153767]
[ 0.1806988  -0.08908087  0.09773708]
[ 0.01273182 -0.4951793  -0.04483425]
[ 0.16431892 -0.17116761 -0.78535682]
[ 0.02089255  0.13993514  0.02743875]
[-0.00455869 -0.37655821  0.13007402]
[ 0.09532929 -0.05714656 -0.25100517]
[ 0.13672027  0.318661   -0.03269828]
[ 0.01393219 -0.00025997  0.06036981]
[-0.08747177  0.05169597  0.05927224]
[-0.11178689  0.0004576   0.02880563]
[-0.0687602  -0.03663067 -0.1253878 ]
[-0.09350704 -0.16927636 -0.21658143]
[-0.13254303 -0.02149049 -0.037541  ]
[ 0.06186044  0.04118316 -0.00616608]
[-0.17478707  0.03793702  0.09106142]
[-0.10293756  0.02426872  0.15723622]
[ 0.04117316 -0.08571463  0.16842377]
[ 0.09109526 -0.02019948 -0.42580903]
[ 0.02663664  0.06648236 -0.01093559]
[ 0.00242669  0.04067139 -0.21697329]
[ -1.98510751e-01   2.89507974e-02   1.70677027e-04]
[ 0.27269638 -0.06106574  0.13235225]
[ 0.03163926  0.016097   -0.13412684]
[-0.1376646  -0.14586499 -0.13084306]
[-0.09873266 -0.0663622  -0.01434975]
[-0.09760437 -0.10492936 -0.28966159]
[-0.62939578 -0.22265321 -0.14700462]
[-0.46752742 -0.25598654 -0.09191411]
[-0.14457026  0.2776368  -0.02434588]
[ 0.12089648 -0.26743013 -0.11198852]
[ 0.10419574  0.25662455 -0.23625544]
[-0.12463082  0.05295344 -0.05885586]
[-0.30920941 -0.2017148  -0.12041911]
[-0.15315831 -0.22060052 -0.03244248]
[ 0.05473776  0.02573758 -0.00406779]
[-0.16368276  0.03859811  0.03851551]
[-0.02489569 -0.06922694  0.16934057]
[-0.03759132  0.12592097  0.05779393]
[-0.02983549 -0.00464053  0.06746622]
[ 0.14891928 -0.17249353 -0.1181828 ]
[-0.09379638 -0.31608623  0.06901349]
[-0.01621066 -0.35680553  0.01967904]
[ 0.04451985 -0.05225478 -0.11732134]
[ 0.0071028  -0.02714301 -0.0647361 ]
[-0.30202997 -0.02386757 -0.00804186]
[ 0.00083256 -0.15108958  0.02822212]
[ 0.00878774  0.00665839  0.04196842]
[-0.20286246 -0.00714355  0.02070285]
[ 0.00373735 -0.29007784 -0.10742741]
[ 0.20420985  0.10850557 -0.10267406]
[ 0.01177175  0.08450228  0.01190105]
[-0.49690646  0.01209864  0.11199136]
[ 0.03627126 -0.16633224  0.01176714]
[-0.02480651  0.06520157  0.04141211]
[ 0.11165455  0.02771911 -0.00712481]
[ 0.27065244  0.10020536  0.0032683 ]
[-0.26984954 -0.04051276  0.02850347]
[ 0.00031267 -0.1382346  -0.14151168]
[-0.24761133 -0.35403243 -0.18824349]
[ 0.05317535  0.04973367 -0.29133785]
[-0.13661018  0.0900377  -0.04451302]
[ 0.1042729  -0.44851336 -0.07960667]
[-0.18892939 -0.00629565  0.04628325]
[ 0.14160086  0.04053019  0.00586139]
[ 0.09280019 -0.12419416  0.02195985]
[-0.08575279  0.02447591  0.02121584]
[ 0.02128874 -0.02809404 -0.02992279]
[-0.89596719 -0.37137812 -0.15454894]
[-0.68191588 -0.58486199 -0.50020111]
[-0.41208977 -0.31131834 -0.03070328]
[-0.58191866 -0.8225736  -0.06962463]
[-0.29494539 -0.29597226 -0.5679189 ]
[-0.33803213  0.02830116 -0.05328284]
[ 0.10508899  0.12194284  0.05929045]
[ 0.04124478  0.14653416  0.07402106]
[ 0.187562    0.11280344 -0.25016907]
[-0.03249338 -0.46661645 -0.09587935]
[ 0.04454001  0.12710036  0.06255347]
[-0.03002356  0.07323869  0.01830965]
[ 0.14616551 -0.13984871 -0.02611503]
[-0.19872846 -0.07828179 -0.00023249]
[ 0.04689346 -0.05428943 -0.03493711]
[-0.01741471  0.1049883   0.07927269]
[ 0.03458781  0.08329147 -0.12192305]
[ 0.07739601 -0.27316913 -0.18136567]
[-0.70540738 -0.26214573 -0.24496146]
[-0.62257594 -0.61687511 -0.47380036]
[-0.42071658 -0.47312909 -0.02846565]
[ 0.02980413 -0.03105848 -0.00926023]
[-0.0410633   0.00648595  0.06183212]
[ 0.062912    0.0135905   0.00598402]
[ 0.15774402  0.14720003  0.11323785]
[ 0.10096159  0.22087385  0.00829822]
[-0.04576533 -0.13887253 -0.3052415 ]
[-0.18614297 -0.62187123 -0.40373489]
[-0.09240659 -0.07827383 -0.51656497]
[-0.17361154  0.10018611 -0.06612863]
[ 0.05459837  0.07016202  0.05925839]
[ 0.0837746   0.22236262 -0.11234362]
[ 0.17285232  0.07511642  0.02400013]
[ 0.06313673  0.10179701  0.07019966]
[-0.25823185 -0.04244174  0.02577135]
[ 0.00320389 -0.18412909 -0.12744851]
[-0.27491653 -0.26012063 -0.11917062]
[ 0.0431892   0.04168391 -0.01435919]
[ 0.06436371  0.02462011  0.01212438]
[ 0.01027113  0.19176082 -0.20365426]
[-0.01014875  0.20676182 -0.08701947]
[ 0.18376066  0.16858073 -0.13483457]
[ 0.00217561  0.25814226 -0.61492419]
[ 0.13369514  0.15023674 -0.05976159]
[ 0.03740418  0.01962175  0.03246036]
[ 0.09499449  0.06815255  0.08525283]
[ 0.14151667  0.24309354 -0.03624811]
[ 0.18510352  0.24148211 -0.01872531]
[ 0.17384318 -0.22786731 -0.47023553]
[ 0.1550734   0.05221114 -0.35293868]
[-0.05147233  0.08483877  0.00747712]
[-0.14612854  0.10480964 -0.01252752]
[-0.19537704 -0.11992765 -0.20848313]
[-0.16483919 -0.17653638  0.0806417 ]
[-0.66715425 -0.32193547 -0.40043592]
[-0.51848209 -0.68525779 -0.47775093]
[-0.30327454 -0.42832848  0.15959641]
[ 0.38170239 -0.00047427 -0.03338055]
[-0.05189697 -0.086004    0.07485162]
[-0.32521683 -0.19602844 -0.03642713]
[-0.29372081  0.16860352  0.05391251]
[-0.12168816 -0.05982721 -0.07445487]
[-0.01662239 -0.21381645 -0.01781552]
[ 0.15398329  0.29368368 -0.41162995]
[ 0.0840165   0.08856898 -0.09561998]
[-0.00465617  0.04088495  0.03826561]
[ 0.09334452  0.08329044  0.00477718]
[ 0.05526268 -0.00228209 -0.04980814]
[ 0.10365827  0.09476899 -0.00380572]
[ 0.05152411 -0.33456644  0.02346547]
[-0.2057514  -0.02572909  0.06459082]
[ 0.1300796  -0.03730796  0.01748916]
[ 0.0957453  -0.04448001 -0.42407346]
[ 0.09305742  0.0601234   0.03495299]
[-0.01175258  0.04110965  0.03312609]
[-0.09154712 -0.41917163 -0.10275973]
[ 0.0155058   0.11350847  0.05317975]
[ 0.0518849   0.03181224  0.03183378]
[-0.61700565 -0.50887924 -0.12829231]
[ 0.08305407 -0.13161892 -0.66541994]
[-0.14210416  0.10176092 -0.18109006]
[ 0.12963128  0.12344756 -0.21123719]
[ 0.20390008 -0.60517025  0.04053624]
[-0.12858652  0.05633717  0.09319446]
[-0.01612828 -0.33260277 -0.00333197]
[ 0.05435804 -0.52750432  0.02475399]
[ 0.02042372 -0.33536679  0.05341116]
[-0.4558118  -0.04757455 -0.01742458]
[-0.0184832   0.01718982 -0.02370472]
[ 0.09551872  0.0203259  -0.03438439]
[-0.01111257  0.12254921 -0.18790692]
[ 0.03159935 -0.01019185 -0.1004629 ]
[-0.04196361  0.07414968  0.01343373]
[ 0.01612339  0.09227759 -0.03484124]
[ 0.03535337 -0.84509319  0.0662972 ]
[ 0.01363376 -0.47187728  0.03195406]
[-0.16115347 -0.06489338 -0.05656405]
[ 0.06222152  0.00980408  0.00397066]
[  3.30804323e-06   1.20213693e-02  -4.30521406e-02]
[-0.59892929 -0.10652993 -0.11150935]
[-0.08834246 -0.03101268 -0.01329405]
[ 0.04254575  0.01225351 -0.07860263]
[-0.18948568 -0.1655269   0.13745858]
[-0.06407528 -0.01075743  0.06133696]
[ 0.08327175  0.0929037  -0.03296758]
[ 0.0631558  -0.02273307 -0.08632043]
[ 0.06476493 -0.41084644 -0.06829717]
[-0.16170089  0.09832595  0.06916541]
[ 0.03969787  0.067306   -0.10382547]
[ 0.02191686 -0.2339091   0.02960835]
[-0.01560816 -0.37867427  0.04067292]
[-0.37805387  0.05026758  0.05543721]
[-0.03378077  0.00857599  0.02843906]
[ 0.02244554  0.00630538 -0.26690546]
[-0.12961307 -0.06484916 -0.01489128]
[ 0.0070533   0.00223301 -0.01570474]
[-0.07625672 -0.02322041 -0.11465227]
[-0.06872237  0.08793852  0.08984853]
[-0.02108336 -0.09215716 -0.073176  ]
[ 0.01737627 -0.04158109 -0.02766314]
[-0.5782097  -0.03602064  0.17607655]
[-0.15802895  0.07442737  0.03703802]
[ 0.09633407  0.09305914 -0.17960809]
[-0.3351284  -0.18620728 -0.11713519]
[-0.38689226 -0.07737098 -0.05889142]
[ 0.10582764  0.03246586 -0.06622022]
[-0.35456458  0.16703711  0.19821112]
[-0.01772783  0.02977766  0.04084563]
[ 0.0701489   0.05546236 -0.27182224]
[ 0.04180205 -0.48534092  0.04192461]
[ 0.01088129 -0.40180963  0.07996438]
[ 0.03829767  0.013158    0.08216294]
[ 0.05790961  0.1706956  -0.08472445]
[ 0.06705119 -0.96054459  0.07847551]
[-0.12801224 -0.05988868  0.04520111]
[-0.12800065 -0.00247144 -0.13948508]
[-0.13025834 -0.00230795 -0.07229877]
[-0.25289565 -0.05554791  0.14462037]
[ 0.10050176  0.10832959  0.02715981]
[ 0.09181876 -0.59036267 -0.08404551]
[-0.07542249  0.0492768   0.06955034]
[-0.34035394  0.04996456  0.10247918]
[-0.05239163  0.03169473  0.05266877]
[ 0.02545632  0.05322647 -0.1460153 ]
[-0.09913846 -0.08326041  0.03565754]
[-0.25036278 -0.46537706 -0.01410074]
[ 0.0099365   0.00191105 -0.00506408]
[-0.15139787  0.00990827  0.12570946]
[-0.03179827  0.0029277   0.01431268]
[ 0.06302373  0.07859899 -0.15388572]
[  1.00809094e-02  -1.00574329e-01  -8.85095506e-05]
[-0.04873368 -0.04541254 -0.08624137]
[-0.04036926 -0.05054586 -0.21259248]
[-0.06444418 -0.22211541  0.01977962]
[-0.00230554 -0.13687733  0.04901578]
[ 0.11370274  0.16647075  0.01760507]
[-0.31342402 -0.07145415  0.03516374]
[-0.19155693  0.05633651  0.07439806]
[ 0.00964469  0.0481203  -0.04428581]
[ 0.08011054  0.09364284  0.09114168]
[ 0.09074633 -0.45701283 -0.17256701]
[-0.0805958   0.02959579  0.05280929]
[-0.16146487  0.01582018 -0.05170031]
[-0.11531916  0.11750901  0.04976938]
[ 0.16907166  0.06612226 -0.05274125]
[ 0.0428554   0.04400826 -0.16939019]
[ 0.05682334 -0.46740443  0.00487925]
[-0.03914655  0.17981137  0.04835804]
[ 0.04901142  0.11606947  0.04119143]
[ 0.00222339 -0.49449226  0.10506488]
[-0.15107661 -0.066906    0.06239925]
[ 0.10508243  0.04170661 -0.19030869]
[ 0.15038337 -0.49594989  0.01962241]
[-0.22617032  0.2112547   0.05216524]
[-0.44424739 -0.11186842 -0.08425502]
[ 0.07016697  0.00581548 -0.09282442]
[ 0.21183626  0.0544126  -0.12989867]
[ 0.10885053  0.10452593 -0.03604201]
[-0.06845501  0.03745117 -0.03073865]
[-0.09405661  0.09490784  0.01867541]
[-0.1011725  -0.23153032 -0.02732746]
[-0.03385884 -0.40310991 -0.17547527]
[ 0.15673111 -0.01748342 -0.48750728]
[ 0.0009046  -0.03216986 -0.03518968]
[ 0.02590357 -0.00828586 -0.03492096]
[ 0.00325843 -0.00468281  0.01467944]
[ 0.04717884  0.05665453 -0.456056  ]
[ 0.07137197 -0.30744275 -0.17156331]
[-0.04267795 -0.00276331  0.02724462]
[ 0.01957856  0.02149483  0.01257979]
[-0.03722741 -0.01409645  0.06482691]
[ 0.00758069  0.07318535  0.03626488]
[ 0.02164649  0.01502024 -0.00557142]
[ 0.02845261 -0.00717903  0.01189313]
[-0.01824399 -0.00222815 -0.0163568 ]
[-0.05548505 -0.04807168 -0.01984443]
[-0.00826021 -0.00218032 -0.0654695 ]
[-0.00646106  0.00947042  0.03213912]
[-0.27194721  0.00124251  0.03719645]
[ 0.04996683 -0.05786055  0.06468395]
[ 0.17477866  0.04097087 -0.22386406]
[ 0.05895852  0.01491473 -0.46295053]
[-0.01592087  0.10307588  0.00798569]
[-0.17827475  0.02561187  0.029151  ]
[ 0.0189732  -0.0478607  -0.07069335]
[ 0.00243607 -0.33511478 -0.08155951]
[ 0.03173489  0.0032187   0.00355575]
[ 0.07221577  0.0566721   0.01076064]
[-0.00971494 -0.0202354   0.06638123]
[-0.08076227 -0.16303861 -0.19466724]
[ 0.00660084 -0.0201823   0.05373548]
[ 0.04201642  0.02239027  0.03363226]
[ 0.00189375 -0.00149746 -0.04521368]
[ 0.0262541  -0.00502746 -0.08803276]
[ 0.0123816  -0.03649077 -0.01103467]
[-0.06250443  0.09956626  0.00324664]
[-0.20710155  0.03178304  0.02310721]
[ 0.07177657 -0.044929    0.02934228]
[ 0.26101276 -0.01401977 -0.101119  ]
[-0.09582889 -0.04339609 -0.19107383]
[-0.12074886 -0.01338074 -0.01529943]
[-0.13097118  0.04411475  0.05210432]
[-0.02597086  0.04519205  0.02302941]
[ 0.03028008 -0.11990556  0.04261304]
[ 0.16925278 -0.1470013  -0.23255727]
[-0.13932383 -0.13378263  0.05512481]
[-0.04636422 -0.01449781  0.05755422]
[ 0.18745415  0.04019788 -0.26168555]
[ 0.0398469  -0.06579513 -0.27684611]
[-0.09072639 -0.0391389   0.04309392]
[-0.11643647  0.03381651 -0.04524034]
[ 0.04050917  0.06948394 -0.08929649]
[ 0.04565506  0.05955777 -0.00402374]
[ 0.00534944  0.02633536  0.28687757]
[ 0.02232028 -0.33452484 -1.02063155]
[-0.19725254 -0.03095586 -0.02921382]
[-0.12737937  0.07460093 -0.01285824]
[-0.00806677  0.03823905  0.02347526]
[-0.00738758 -0.03416026  0.03424175]
[ 0.05888572 -0.09104296 -0.05146165]
[ 0.01740969 -0.33796641 -0.76505423]
[-0.18827917  0.02596351  0.13463745]
[-0.01530873  0.07993017  0.07581615]
[ 0.07722875  0.00672633 -0.0065572 ]
[ 0.05316987  0.00916076  0.00787013]
[-0.09202615 -0.07473376 -0.10300381]
[ 0.0512764  -0.03099052  0.10096075]
[ 0.00342774  0.01527873 -0.04336855]
[-0.02300929 -0.0386166  -0.0356054 ]
[-0.07490162 -0.08634765 -0.04109305]
[-0.0391238  -0.08815765 -0.12641762]
[ 0.07736228  0.02628887 -0.49109539]
[ 0.04891868  0.0503209   0.00511357]
[ 0.15293324 -0.00100657  0.00653385]
[-0.02188006 -0.0969956  -0.03146052]
[ 0.02696934 -0.28218538 -1.13944459]
[-0.22185534 -0.05558806 -0.01300742]
[-0.153001    0.06142932 -0.00136246]
[ 0.00897389  0.02400405 -0.00276265]
[ 0.06240562  0.04582561 -0.03555527]
[ 0.11292966  0.05110191 -0.02120829]
[ 0.03294151 -0.09465475 -0.33658579]
[-0.00929481 -0.30413577 -0.05215567]
[ 0.05834091 -0.05670854  0.01621998]
[ 0.04911371 -0.09915639 -0.41220278]
[-0.1672591  -0.20646204 -0.01252634]
[-0.23412845  0.0101958   0.00047447]
[ 0.08248021  0.088516   -0.31569001]
[ 0.01104403  0.04926122 -0.01522829]
[-0.10623768  0.03896961 -0.12188658]
[ 0.01839985 -0.03041736 -0.01175975]
[ 0.0669225  -0.04494592 -0.16425888]
[ 0.00380577  0.00861863 -0.04601864]
[-0.33008632  0.04268772 -0.10103393]
[-0.34320688 -0.15734929 -0.25699437]
[-0.22354412 -0.1275897   0.05658224]
[-0.45922562  0.27283084  0.08292733]
[ 0.08150307  0.06973317  0.01604102]
[-0.11555582 -0.30356854 -0.34904575]
[ 0.02190028 -0.00824682  0.00727299]
[ 0.00916737  0.05352234 -0.01956793]
[ 0.01561409  0.06639852  0.04629941]
[-0.66317558 -0.1860794  -0.03691399]
[-0.55268544 -0.76323247 -0.6277445 ]
[-0.41943282 -0.37469587 -0.11491755]
[-0.40907148  0.10097798  0.02198339]
[-0.38563803 -0.10026284 -0.08760321]
[-0.27291927 -0.29579982 -0.07786693]
[ 0.02192636 -0.04658968  0.04335387]
[ 0.01080858  0.00071511 -0.13792008]
[ 0.03069498  0.07480778 -0.0288279 ]
[ 0.03007013 -0.00418622 -0.05128031]
[ 0.02741002  0.03796211 -0.11468314]
[-0.00670177  0.05471946  0.08494404]
[-0.31559637  0.20168595  0.07537125]
[ 0.0634184   0.05074433  0.03331359]
[ 0.06105377  0.0824703  -0.24004701]
[ 0.04736304  0.10909367 -0.33562028]
[ 0.09151786  0.05585199 -0.0908168 ]
[ 0.04315992 -0.02852287  0.04352701]
[-0.66010374  0.04910134  0.06044376]
[-0.33968014 -0.17631955 -0.09127596]
[-0.12824595 -0.47287494 -0.12946127]
[-0.08238135 -0.12741525  0.05720103]
[-0.11429027 -0.1869629   0.09610274]
[ 0.07441822  0.03523786  0.00263612]
[ 0.02460961 -0.07308543  0.03057406]
[ 0.02186585 -0.08347028 -0.24293134]
[ 0.04220977  0.04051332 -0.18886189]
[-0.07026056  0.07035469  0.0067929 ]
[ 0.06348702  0.04733834  0.0780718 ]
[ 0.06231391  0.08396338  0.07695317]
[-0.28853402  0.09821396  0.11241294]
[-0.01767265  0.0248976   0.11244471]
[ 0.0972413   0.1589966  -0.03534804]
[ 0.11071038  0.0896973  -0.2467303 ]
[ 0.08878943  0.11999076 -0.14924401]
[ 0.04888575  0.03326369  0.0179741 ]
[-0.1469647   0.00449411  0.13905199]
[-0.16402227  0.00027952  0.16797468]
[ 0.0777121   0.07276201  0.05763994]
[-0.35609737  0.26815027  0.02036423]
[-0.23814365  0.13938336 -0.03689932]
[-0.11418161  0.01630495 -0.11149658]
[-0.03347255 -0.1756402  -0.22516376]
[ 0.08918547 -0.18949053 -0.40054506]
[ 0.00899926 -0.01832215  0.03714967]
[-0.12931651 -0.43199566  0.08843174]
[ 0.08313543 -0.34441188 -0.12875158]
[  2.16243505e-01  -4.18652853e-05  -2.40549967e-01]
[ 0.1550325   0.05930497 -0.26706788]
[ 0.13461287  0.077997   -0.09133233]
[ 0.187151    0.00138654  0.06589265]
[-0.05107456  0.01956646  0.02467208]
[-0.13151784 -0.12046206  0.04352061]
[ 0.06234878  0.05527178  0.06611249]
[ 0.22179914  0.18817973 -0.50235391]
[ 0.15577812  0.16689871 -0.26986182]
[ 0.18495631  0.08967633  0.02280209]
[-0.0641856  -0.1036426   0.07042738]
[-0.03365437 -0.08002162  0.02744003]
[ 0.01827198  0.06521186  0.04044961]
[-0.03052525 -0.27216059  0.0443013 ]
[ 0.01522118 -0.16593914 -0.26817027]
[ 0.03971514 -0.00235809 -0.30090031]
[-0.31727371  0.41297489  0.00144868]
[-0.29708698  0.27565381 -0.02289239]
[-0.21371922 -0.27040145 -0.27821422]
[ 0.00497056 -0.05315619 -0.01379069]
[-0.10809672 -0.05908054 -0.02148358]
[-0.02718854  0.06337541  0.11030155]
[ 0.07794014  0.07879233 -0.1368601 ]
[ 0.14039797  0.07036487 -0.02580096]
[ 0.15217097  0.01966815  0.02492216]
[ 0.0365606   0.12287148  0.04274319]
[ 0.02402399  0.02431422  0.03663946]
[-0.0201074  -0.01039415  0.16720574]
[-0.8381362  -0.01516961 -0.02693624]
[-0.65456754 -0.6252256  -0.3875623 ]
[-0.40800047 -0.35888672 -0.07910004]
[-0.04702692 -0.13642108 -0.21495634]
[ 0.07090471 -0.13083111 -0.20225717]
[ 0.02940875 -0.0253926   0.03028267]
[-0.16087034 -0.13507184 -0.28177032]
[-0.11098734 -0.24147289 -0.31699282]
[-0.10601352  0.03884282  0.04279578]
[ 0.02747598 -0.0716874   0.10414033]
[ 0.01057439  0.14160997 -0.07219042]
[ 0.02961353  0.09684     0.01025253]
[-0.1483372  -0.00913633  0.02470207]
[-0.10455465 -0.294328    0.02308913]
[ 0.00196039 -0.42025989 -0.17332621]
[-0.12605877  0.34077337  0.06826979]
[ 0.11834736 -0.37708861  0.11594122]
[ 0.10404581  0.57766587 -0.23991521]
[ 0.09681073  0.04223642 -0.16601221]
[ 0.03724432  0.0441534  -0.02258647]
[-0.22390726  0.03444307  0.13536148]
[-0.10921199 -0.19989018 -0.04667237]
[ -3.34650055e-02  -7.76800215e-01  -5.58237778e-04]
[-0.03500974 -0.7608797  -0.12001652]
[-0.07974471 -0.08159158  0.07451748]
[-0.00178793 -0.49330124  0.05193929]
[ 0.05939598 -0.12303333 -0.12081441]
[ 0.07127716 -0.00832306 -0.27726239]
[-0.00716108  0.06505056 -0.04451951]
[-0.25423396 -0.00587905  0.10692324]
[ 0.03220343  0.00787834 -0.15784606]
[ 0.05534857  0.04883962  0.04281752]
[-0.06017555  0.05372892  0.21950921]
[-0.16653208  0.06794071  0.13065869]
[ 0.12239457 -0.32898143  0.13742363]
[ 0.10506593  0.23886521 -0.11086181]
[ 0.01301554  0.14743567 -0.20404898]
[-0.15042566  0.09499886  0.021578  ]
[-0.23025806  0.04984086  0.08693921]
[-0.05139834 -0.00732812  0.05398319]
[ 0.02520582 -0.7157557   0.04190623]
[ 0.03259377  0.00498011 -0.04841808]
[-0.19257626 -0.03687336 -0.03905072]
[-0.36959392 -0.86546433 -0.04046534]
[-0.08223879 -0.23180646  0.03476477]
[ 0.06660441 -0.02855815 -0.34646294]
[-0.01444622  0.01204491 -0.1943593 ]
[-0.34423938 -0.069864    0.08260944]
[-0.00732929  0.0259255   0.02776308]
[-0.00677036  0.08900944 -0.01558837]
[ 0.09063659  0.08718351 -0.07252852]
[-0.53253442  0.1369487   0.08257381]
[ 0.02912627 -0.69874984  0.34045628]
[ 0.1629346   0.0941055   0.01520994]
[ 0.065764    0.05042672 -0.17450479]
[ 0.03427568  0.05271851  0.01082025]
[-0.102918    0.11729035  0.22388045]
[-0.40090632 -0.08913929  0.15554102]
[-0.02698351 -1.22325671  0.20754741]
[ 0.09200706 -0.04267855  0.1237027 ]
[-0.12942609  0.34640837  0.14738804]
[ 0.14333867 -0.89846539  0.07981309]
[ 0.17034461  0.20006746 -0.33535916]
[ 0.02490799 -0.12487517 -0.01205993]
[-0.00115835  0.03361588 -0.05534486]
[-0.03609765  0.11095133 -0.07748857]
[-0.00845457 -0.11803754  0.04279691]
[-0.01567887 -0.33022982  0.01027589]
[-0.00491648 -0.02386336  0.04844029]
[ 0.05966232  0.04932417 -0.05915413]
[ 0.04718828  0.0781621   0.05849167]
[-0.10939077  0.12553436  0.08304276]
[-0.41368991  0.03084158  0.06292079]
[ 0.0023332  -1.07698464  0.30167675]
[ 0.08545034 -0.03238581  0.14282204]
[ 0.12003843 -0.0622649  -0.27845958]
[-0.02728524  0.08463956 -0.13101287]
[ 0.0157222   0.19136876  0.15110099]
[ 0.0486935   0.03529245 -0.23746662]
[-0.07202043 -0.03755677 -0.14765568]
[-0.17307895 -0.11848552  0.11329248]
[ 0.09650101 -0.05309014 -0.5334112 ]
[-0.01722614 -0.09385207 -0.35711023]
[-0.39929652 -0.13524279  0.05557676]
[-0.22725713  0.62722683 -0.04127242]
[ 0.19121052  0.35098255  0.13124917]
[ 0.19073252 -0.2363086  -0.20179816]
[-0.00785613 -0.00219209 -0.21362033]
[-0.22780652 -0.05081208 -0.16000053]
[-0.39865616 -0.19677895  0.04562691]
[ 0.07618903  0.02550838  0.00954257]
[-0.00658322  0.03566193  0.06152155]
[-0.07042843  0.11910769  0.102291  ]
[ 0.20322169  0.12031688 -0.00820692]
[-0.08762313  0.12680963  0.07636869]
[-0.26939112 -0.14589506  0.26517951]
[-0.04110479 -0.01214927  0.01672204]
[ 0.02474034 -0.82153195  0.07459288]
[ 0.02521653 -0.45547974 -0.18336669]
[-0.06105536 -0.1594726  -0.10786188]
[-0.12389777 -0.03376721 -0.00659633]
[-0.14883032  0.00363402  0.02211977]
[-0.07402737 -0.00520869 -0.10491414]
[-0.17466109 -0.03340095 -0.04560521]
[-0.20853035 -0.16751046 -0.0757481 ]
[ 0.13868509  0.06972472 -0.32228169]
[ 0.10908626  0.06020253 -0.17958617]
[-0.08659615  0.12369722  0.14987662]
[ 0.06982768  0.05971118 -0.0217434 ]
[ 0.12300081 -0.03094211 -0.02922867]
[ 0.02532867  0.13444813 -0.14348026]
[-0.19267845  0.00039118  0.25764066]
[-0.07979669  0.06855974  0.02727756]
[-0.06563736  0.03261896 -0.21412642]
[ 0.01322389 -0.77908552  0.03700275]
[ 0.02065644 -0.32198557 -0.00384385]
[-0.12177965 -0.00667038  0.0022139 ]
[-0.08965711 -0.05697731  0.02653898]
[ 0.01336377 -0.04218348 -0.05037893]
[ 0.05606792  0.04180296 -0.36535233]
[ 0.0299863   0.00170255  0.14261667]
[ 0.0376089  -0.06154606  0.13094397]
[ 0.01267869  0.05938083 -0.21112953]
[ 0.08581795 -0.53872621  0.06838556]
[-0.00771956 -0.01870959 -0.00662099]
[-0.24683662  0.01490615  0.02446465]
[ 0.00762101 -0.95556837  0.05223433]
[-0.08612502 -0.38960725 -0.01929997]
[-0.24189134 -0.25505352 -0.01494858]
[-0.56632203 -0.1325684  -0.06443455]
[-0.16759315 -0.03104755 -0.08792597]
[-0.02703383 -0.07487414 -0.05160622]
[ 0.02030102  0.11251312 -0.17359418]
[ 0.05510905  0.03773974 -0.16950105]
[ 0.09194501  0.01711303 -0.12096121]
[-0.04648649 -0.00054846  0.14160238]
[-0.0034829  -0.01169729 -0.00487444]
[-0.00797697  0.06901675 -0.10226388]
[-0.50721318 -0.54945362 -0.07989969]
[-0.09256191  0.12047844  0.06779513]
[-0.08786527  0.10678075  0.07154576]
[ 0.08549501 -0.16837551  0.05307893]
[-0.13569468  0.09581952 -0.00537413]
[-0.34775081  0.05783319  0.02174645]
[-0.10102725  0.0399881   0.09158777]
[ 0.00530536 -0.09685731  0.0121794 ]
[ 0.06071129  0.07604787  0.02778329]
[-1.13111758 -0.75231421 -0.5678708 ]
[-0.60548615 -0.58650321 -0.18674615]
[-0.20745938 -0.06124355  0.06215878]
[-0.10261359 -0.82385087 -0.01274375]
[-0.0398188  -0.67045271 -0.13671125]
[-0.12720077 -0.36572132 -0.15537506]
[-0.96405965 -0.66897571 -0.18097128]
[-0.51915765 -0.33913359  0.08881417]
[-0.04448465  0.07262097  0.07871163]
[-0.04711856  0.01858263  0.14398041]
[ 0.09035721  0.06832374 -0.05119787]
[-0.04760708 -0.03005377 -0.14642006]
[ 0.03730102  0.04722528  0.07761346]
[ 0.03129157 -0.0161799  -0.01399751]
[ 0.08782898  0.14912492 -0.12595049]
[-0.07899978 -0.08955848  0.10198408]
[-0.08873522 -0.02707221  0.03868653]
[ -1.71962768e-01  -1.66534752e-04  -2.33327858e-02]
[-0.03313591  0.05421537 -0.03005129]
[ 0.05404041  0.1102729  -0.43668255]
[ 0.09774018  0.18745226 -0.48458669]
[-0.89620656 -0.68688202 -0.47968018]
[-0.25803822 -0.41914374  0.00644236]
[-0.00248079  0.03979025  0.10925209]
[-0.52579719 -0.45628908  0.01044005]
[-0.15717734 -0.43366209 -0.30122951]
[ 0.02752461 -0.19424318 -0.31243986]
[-0.00275246 -0.36070752  0.06430107]
[-0.09934208  0.02400422 -0.00103611]
[-0.18542358  0.11144931  0.04491499]
[-0.21573228  0.31236637  0.08340073]
[-0.40947974  0.21064703  0.01789581]
[-0.25431728  0.17231895 -0.00105925]
[-0.00961275  0.02093609  0.01319202]
[ 0.10664328 -0.02525551  0.04853256]
[ 0.02083882 -0.15214345  0.08782995]
[ 0.09822661 -0.49879622 -0.00925735]
[ 0.23448157 -0.23010966 -0.04992027]
[-0.13616432 -0.04090764  0.09078069]
[-0.09030349 -0.0206771  -0.07761113]
[  2.09586069e-05   3.25296335e-02  -4.60713655e-01]
[ 0.1135855   0.0470931  -0.41486016]
[ 0.19602111 -0.08315688 -0.04003308]
[ 0.19041401 -0.08326151 -0.00862314]
[ 0.04748017 -0.01445466 -0.00363456]
[-0.05844308 -0.02379872  0.08398408]
[ 0.10892254  0.00032933  0.01888294]
[ 0.05217012 -0.01472759 -0.29181546]
[-0.03885121  0.12033395 -0.04243933]
[ 0.05960553 -0.00171746 -0.13524853]
[ 0.08823332  0.23293391 -0.19054219]
[ 0.12863746  0.00452419 -0.1315373 ]
[ 0.05848299  0.01215308 -0.11074402]
[ 0.07335604  0.04256085 -0.05876217]
[-0.12418332 -0.66287321  0.08315177]
[-0.12764584 -0.33576593  0.01667991]
[-0.16043721  0.05570176 -0.02594261]
[ 0.18232676  0.06459428  0.11594453]
[ 0.12797602 -0.03091169 -0.01329212]
[-0.21256582  0.10349322  0.08678258]
[-0.91251481  0.01343887  0.03900758]
[-0.39280915  0.00721272  0.00530126]
[-0.25321645  0.05475249  0.00754371]
[-0.01152304  0.02689017 -0.36457947]
[ 0.00025909  0.00858731 -0.23066533]
[ 0.05717272 -0.10039313 -0.42013839]
[-0.45786124 -0.07027942 -0.0328746 ]
[-0.07988061 -0.10489444  0.04206389]
[-0.50161594 -0.03056445 -0.0104109 ]
[-0.16340369  0.04100495  0.0679097 ]
[ 0.11220125  0.01686944  0.00247679]
[-0.12764569  0.03970009  0.03112574]
[-0.00800108  0.03847239  0.02662148]
[ 0.00999251  0.07121442  0.17619607]
[ 0.01239758 -0.05159875  0.01145323]
[ 0.02780961  0.05106564 -0.1461007 ]
[-0.06085836  0.07389276 -0.05285962]
[ 0.07196715 -0.01493411 -0.2989364 ]
[-0.84069097 -0.11659593  0.06482745]
[-0.40836391 -0.03075328  0.07507119]
[-0.15097867  0.15598798 -0.03682549]
[ 0.06460302  0.0397023   0.05439195]
[ 0.00308532  0.06575983  0.00880399]
[ 0.10781308  0.00725195  0.11216571]
[-0.27384102  0.0402717   0.01795118]
[ 0.10471246  0.05688388 -0.00123177]
[-0.23280732  0.0282821  -0.00587783]
[-0.05241302 -0.1620336  -0.28587306]
[-0.00850335 -0.12717122 -0.53543109]
[ 0.07070784 -0.15609311 -0.35300642]
[ 0.05439901  0.06008795 -0.09210225]
[-0.05600388  0.11383748  0.26702058]
[ 0.00858965 -0.01787524  0.12098317]
[-0.03296947 -0.02381506 -0.07376927]
[ 0.08192666  0.00179377  0.08832335]
[-0.06801596 -0.0463831   0.03416508]
[-0.95397687 -0.30067655 -0.07974967]
[-0.42932951 -0.14512239 -0.00095588]
[-0.04735056 -0.08974421 -0.11629058]
[-0.00058964  0.002383   -0.28895795]
[-0.00547701  0.04023891 -0.49187022]
[ 0.00539975 -0.05729971 -0.68100125]
[-0.03282952 -0.08106535  0.17231642]
[ 0.00341491  0.01892011  0.1185208 ]
[ 0.18991697  0.12014294  0.10395856]
[-0.38659468  0.05792773  0.06561417]
[-0.01052444  0.08024985  0.04842248]
[ 0.00103187  0.09049899  0.01196069]
[ 0.01203239  0.03865556  0.13225625]
[-0.13555606  0.09129588  0.03834194]
[-0.09956862  0.10155816  0.17683201]
[ 0.05899692 -0.0074059   0.02275238]
[ 0.00498002  0.02723351  0.00440794]
[ 0.03839292  0.17396289  0.12098508]
[-0.05569267 -0.08642457  0.08318051]
[-0.13500097 -0.12589784 -0.17896284]
[-0.07953173 -0.13550517  0.05893118]
[-0.33570504 -0.20826729 -0.03434976]
[-0.10954594 -0.1283492  -0.23557374]
[ 0.02234392 -0.07713202 -0.16809402]
[-0.15708058 -0.4310607  -0.2749097 ]
[-0.17068574 -0.48342422 -0.38059628]
[-0.11302686 -0.4861832  -0.18722023]
[ 0.03913189 -0.06246306 -0.18934868]
[ 0.00970284 -0.10596638 -0.10896174]
[ 0.05390881 -0.11149503 -0.11943092]
[ 0.04101089  0.07447129  0.09785284]
[-0.12431076  0.06048293  0.29874122]
[ 0.04191511 -0.13654822  0.21495734]
[-0.13194451 -0.02179286  0.14509027]
[ 0.47412887  0.01187844  0.05214937]
[ 0.44668344  0.03741814  0.00365873]
[ 0.09014292  0.0033499  -0.40147659]
[-0.0025711   0.08017135 -0.4513326 ]
[ 0.07257535  0.07252864 -0.3490656 ]
[-0.02794449 -0.18169303  0.04355696]
[-0.15413517 -0.24770151 -0.26292792]
[-0.00288827 -0.19092914 -0.03391771]
[-0.03300779 -0.11188751 -0.17991611]
[-0.01085297 -0.0548632  -0.30645329]
[ 0.04153068 -0.16004787 -0.34837505]
[ 0.01133261  0.02987347  0.08496559]
[ 0.47168076 -0.0422903   0.00059153]
[-0.21000315  0.0286563   0.0211667 ]
[-0.34406722 -0.14523929  0.13572966]
[-0.69686818 -0.12751219 -0.01611106]
[-0.29473624 -0.04547622  0.12553908]
[ 0.06030453 -0.0194173   0.01491799]
[-0.03593281 -0.00798235  0.02154676]
[-0.06801154  0.06756477  0.14706904]
[ 0.02882946  0.01659521  0.00424436]
[ 0.00420065 -0.00270461 -0.06288044]
[ 0.02156274 -0.08403703 -0.02575653]
[-0.16488265  0.03126863 -0.00739964]
[-0.05965025  0.18322937  0.08126949]
[ 0.00737832  0.2333362  -0.08770966]
[-0.50185412 -0.48724708 -0.23294899]
[-0.71729416 -0.73832864 -0.60294563]
[-0.37560871 -0.18051603 -0.06642639]
[ 0.0170842   0.04758722 -0.10101989]
[-0.03043231  0.00771035 -0.0362762 ]
[ 0.04877559 -0.04258067  0.12634431]
[-0.04817405 -0.58093768 -0.35024384]
[-0.29933724 -0.01996176 -0.04036724]
[-0.08774424  0.20123945 -0.07473285]
[-0.22784118 -0.21865113 -0.09149554]
[-0.48864338  0.12168431  0.00076436]
[-0.04884914  0.14378373 -0.02897865]
[-0.01996099  0.02157549 -0.03905817]
[ 0.00474806  0.01154699 -0.35584641]
[ 0.05776659 -0.05145552  0.13530694]
[ 0.02975404  0.03956475 -0.1700546 ]
[-0.00066044 -0.02721407 -0.25059253]
[ 0.05591744 -0.06468277  0.11989427]
[ 0.08406611 -0.05708336 -0.07693996]
[-0.04237988 -0.281789   -0.37615833]
[-0.10591711 -0.08654857  0.02906361]
[-0.07677203  0.07533097  0.04703879]
[-0.16020176  0.10011508  0.02111574]
[ 0.08395278  0.07987623 -0.06121122]
[-0.07478999 -0.42243379 -0.19180144]
[-0.23565516 -0.08331201 -0.05123186]
[-0.05176403  0.11152665  0.02412417]
[ 0.09657401 -0.00455592  0.04038855]
[ 0.09433696  0.26601821 -0.05397448]
[ 0.10089099  0.10388134 -0.13379709]
[ 0.02087818  0.06971231 -0.10012648]
[ 0.00074439  0.00682114 -0.52464098]
[ 0.07464216 -0.06599487  0.06043818]
[ 0.05188442  0.05100721  0.05834836]
[-0.09054372 -0.06794081  0.08078258]
[-0.08116622  0.0298241   0.09209678]
[ 0.05875945 -0.04798787  0.05583634]
[-0.01577452 -0.27852082  0.04772769]
[-0.15470402 -0.50083488 -0.12303949]
[ 0.00414282  0.01687989 -0.23247394]
[ 0.00192314 -0.06280813 -0.06895249]
[ 0.05958524 -0.05727306  0.00690197]
[ 0.19985352  0.1261649   0.02193719]
[ 0.09272672  0.02224463  0.00274841]
[ 0.16459024 -0.21855278  0.0724922 ]
[-0.49389434 -0.19569151 -0.13992225]
[-0.63369316 -0.14270291 -0.25023553]
[-0.25550038  0.10881679 -0.12995686]
[ 0.03510429 -0.07304691 -0.06646945]
[-0.22109073  0.13167542  0.10790407]
[ 0.02216781  0.07951485 -0.00365563]
[ 0.18427016 -0.0265195  -0.32739377]
[ 0.12673049 -0.27251706 -0.08079227]
[-0.14086534 -0.03673699  0.32546023]
[-0.0870904  -0.0774946   0.04602189]
[-0.14902405 -0.03862915  0.13875122]
[ 0.04413225 -0.01398634 -0.00601419]
[ 0.11419726  0.03417492  0.04040363]
[ 0.00248208 -0.0101568   0.20544586]
[ 0.04351578 -0.13679095  0.05870225]
[ 0.009272   -0.2022513  -0.05004433]
[-0.13149549 -0.22845995  0.18956825]
[ 0.05005859 -0.0883738   0.0322514 ]
[ 0.00315947  0.08477285  0.09251012]
[-0.00603423  0.10130692 -0.23959765]
[ 0.07250203 -0.0713779   0.20079403]
[ 0.00291247  0.05653502 -0.16620937]
[ 0.05814556  0.03482829 -0.61464095]
[ 0.09499666 -0.13301286  0.27044705]
[-0.53902841 -0.04835125 -0.18967023]
[-0.86206532 -0.61744052 -0.49692535]
[-0.56874514  0.0305131  -0.13395184]
[ 0.01019208  0.10296315  0.12959607]
[ 0.00055699  0.15183277 -0.17677315]
[-0.01506187  0.08014088 -0.12622648]
[-0.08445106 -0.00671896  0.05270647]
[-0.14914475 -0.05083806  0.13500009]
[ 0.01693176  0.01247051  0.0152163 ]
[-0.07093159  0.09152458 -0.0175417 ]
[-0.05727899 -0.03833388  0.03635165]
[-0.01604852 -0.00489823  0.07897306]
[-0.20806712 -0.47597492 -0.30233815]
[-0.50220042  0.01510058 -0.06235378]
[-0.05406826  0.26172757 -0.06811505]
[ 0.05424335  0.03076337  0.19877604]
[-0.24417739  0.01626877  0.06520961]
[ 0.0302193   0.00564661 -0.05351217]
[-0.10025733  0.11199658 -0.06139543]
[ 0.01239154  0.18903519  0.0883593 ]
[ 0.15874276  0.1159187  -0.06590025]
[ 0.0336486   0.0486375  -0.06751946]
[ 0.02699861 -0.08629505 -0.02863008]
[ 0.06221331 -0.12659726  0.20910884]
[ 0.05185213 -0.44204289 -0.11445344]
[-0.11267556  0.08527508  0.08023843]
[-0.234439    0.06434247  0.05900294]
[-0.08328896 -0.53725159 -0.02201466]
[ 0.05860798 -0.63294667 -0.0077227 ]
[ 0.15176378  0.01535071  0.05619689]
[ 0.00930151  0.02616204  0.04853097]
[ 0.07308112  0.03751099 -0.05499271]
[ 0.06084685  0.01932818 -0.11971468]
[ 0.0592813  -0.09687449 -0.19042544]
[-0.03048479  0.01316065  0.03861132]
[-0.12946056  0.07213306  0.01871464]
[ 0.07625482 -0.55314207 -0.03425423]
[ 0.0214957  -0.17050278  0.02106408]
[-0.02583371  0.08390611  0.04087933]
[ 0.01187948  0.02164106  0.14510421]
[ 0.03062694  0.01337519 -0.06948259]
[ 0.05162162  0.01884621 -0.12145159]
[-0.02353455 -0.01362704  0.11218332]
[ 0.03724391  0.03075688 -0.13451335]
[ 0.06385066  0.04441268 -0.15214089]
[-0.1386452  -0.04372621  0.00072672]
[-0.04191499 -0.06082777 -0.07759317]
[ 0.12248746 -0.00204042 -0.08322163]
[ 0.08543563 -0.79807395 -0.24354969]
[-0.10549916  0.0383789   0.04719517]
[-0.20364413  0.12059887 -0.00604431]
[ 0.02183766 -0.22215259 -0.06469429]
[ 0.01746739 -0.27458882  0.02765926]
[ 0.03671395 -0.00266929  0.06656966]
[ 0.01349095  0.03783107  0.07086447]
[-0.04628835  0.06621917  0.00636053]
[-0.01300938 -0.07563898 -0.43593723]
[-0.02091562  0.00777289  0.11673597]
[ 0.02285703 -0.01884843 -0.08376339]
[ 0.00316847 -0.00486551 -0.1434937 ]
[ 0.04069036  0.07818363  0.09040105]
[ 0.04897715  0.03256762 -0.04047073]
[ 0.07006266 -0.03125767 -0.05048372]
[-0.13970301  0.11446835  0.05340405]
[-0.0746604  -0.10075205 -0.10374776]
[ 0.16209361 -0.10359405 -0.62817532]
[-0.27314124 -0.12726276 -0.01047724]
[-0.03100314  0.08189595 -0.0391479 ]
[ 0.04547582  0.02064244 -0.12892123]
[ 0.07008553  0.04220068  0.07387068]
[ 0.04047922  0.09981976 -0.26904508]
[ 0.10196101 -0.12446777 -0.41227129]
[-0.0673499  -0.33385232 -0.03235638]
[ 0.02713994 -0.00317338  0.01944977]
[ 0.0638526   0.20487329  0.04729702]
[ 0.11933841 -0.77851409 -0.07589453]
[-0.11131746 -0.02166023  0.01863322]
[-0.2531279   0.04881906  0.02184607]
[ 0.05814458 -0.15764599 -0.28306726]
[-0.01321259 -0.0542741  -0.04764435]
[ 0.06728901 -0.31412792  0.14933583]
[-0.08973379 -0.83559388 -0.08654571]
[-0.36273873 -0.1029032   0.12062177]
[-0.09091049  0.03932387  0.00843289]
[ 0.01933226  0.10608872  0.07215048]
[ 0.02827154  0.06341878 -0.06067739]
[ 0.08535802 -0.01285781 -0.55807495]
[-0.40745643 -0.49971938 -0.17011182]
[-0.22479841 -0.23852158  0.03678086]
[-0.08404048 -0.04293427 -0.10432453]
[ 0.04990687  0.0073919   0.07136837]
[ 0.03295702  0.04020832 -0.13004737]
[ 0.00946954 -0.03313797 -0.24167813]
[-0.00110804  0.02385892 -0.0858468 ]
[-0.04463578 -0.063571   -0.27049729]
[ 0.00878058 -0.13421068 -0.17585973]
[-0.04506952 -0.37285289 -0.09119615]
[ 0.09128837 -0.23094177 -0.06601134]
[ 0.08985532  0.35781601 -0.02252573]
[-0.06825638  0.04572983  0.07543094]
[-0.00965656  0.03688339 -0.00314771]
[ 0.0390483   0.04026221 -0.3269203 ]
[-0.14421965 -0.55244875 -0.09483245]
[-0.35227963 -0.16961724  0.09145878]
[-0.11268814  0.02114255  0.00230598]
[-0.13866656  0.08540908 -0.00914761]
[ 0.03656241 -0.02013152 -0.10541376]
[ 0.11463166  0.04942327 -0.02049855]
[ 0.06144919 -0.45153508 -0.07319789]
[ 0.01923394  0.11462845  0.04161162]
[-0.03558864  0.10927767  0.03758887]
[ 0.09476106  0.22310226 -0.02677908]
[-0.27195826 -0.23856509  0.08392339]
[-0.35355064 -0.05064647 -0.03589941]
[ 0.16186196 -0.64870965 -0.05493616]
[-0.17441185  0.2335033   0.0390443 ]
[-0.37677008  0.06578221  0.01764029]
[-0.01531375 -0.02714125  0.07247256]
[ 0.04026531  0.06649972 -0.06947043]
[ 0.09635442  0.01288097 -0.10743824]
[ 0.06863049  0.30083233  0.20776205]
[ 0.11705624  0.15411682 -0.25903931]
[ 0.14083076  0.13349989 -0.38982126]
[-0.6394611  -0.07487819  0.07000189]
[-0.42374656  0.06290706 -0.10962968]
[-0.11518233  0.16977964 -0.32752141]
[ 0.01066807 -0.29536271 -0.06788346]
[ 0.01128755 -0.59280759  0.07006308]
[-0.01801754 -0.23386174  0.07005119]
[-0.35410562  0.16334972  0.2547785 ]
[ 0.03704907  0.00331663 -0.07561776]
[ 0.06114395  0.10661115 -0.18011276]
[-0.12620437  0.06473292  0.15789878]
[  1.72281414e-02   8.21320787e-02  -5.07953664e-05]
[ 0.07254782  0.15053713 -0.11641207]
[ 0.05188652  0.25758174 -0.16884074]
[ 0.05364598 -0.01350037  0.16460492]
[-0.02521889 -0.12162344  0.18527581]
[-0.04317506  0.02337704 -0.17250215]
[ 0.02408933 -0.37294704  0.08790404]
[-0.04506576 -0.31235659  0.14036107]
[-0.4713091  -0.26597211 -0.0873736 ]
[-0.37686139 -0.10096139 -0.2425998 ]
[-0.10349004 -0.00363617 -0.4962213 ]
[-0.09624784  0.24570033  0.05362596]
[ 0.10644341  0.08370209 -0.16658676]
[ 0.09835253  0.15366116 -0.01096519]
[-0.29856893  0.09197485  0.21116483]
[-0.08225035  0.0134647  -0.0769596 ]
[ 0.07094551  0.11175573 -0.10252738]
[-0.0664318  -0.31122887 -0.02833981]
[-0.0540591  -0.92115098  0.1444741 ]
[-0.22742483 -0.39120975  0.21242417]
[ 0.00938386  0.31930438 -0.11224778]
[ 0.14731768  0.07339668  0.12719214]
[-0.07806144  0.09954937  0.13543013]
[ 0.07015701  0.05523758 -0.07447308]
[ 0.01936469 -0.00755507  0.04486173]
[ 0.04141545  0.00112171  0.07706698]
[-0.52485865 -0.63464904 -0.36488768]
[-0.54914677 -0.71418071 -0.49158204]
[-0.42413837 -0.61660773 -0.58468467]
[-0.1902037  -0.12490959 -0.02154881]
[ 0.0010121  -0.80039376 -0.14541656]
[ 0.00518073 -0.37721595  0.08695191]
[-0.24953358 -0.78084612  0.1239104 ]
[-0.09839366 -0.57892746  0.04551174]
[-0.11314891 -0.35679251  0.01144761]
[-0.19432448  0.04591905  0.16096836]
[-0.09595624  0.09177797 -0.07441659]
[ 0.08991285  0.13894482 -0.42579266]
[-0.09743839  0.26037344  0.17468043]
[ 0.02087817  0.13154025 -0.14593334]
[ 0.14879084  0.15087585 -0.1049596 ]
[ 0.04154863 -0.08764638  0.16869496]
[-0.1061697   0.08934417 -0.01700735]
[-0.30336905  0.05053289  0.03218574]
[-0.11357138  0.16726106  0.10478732]
[ 0.01997973 -0.13124956 -0.29898432]
[ 0.14114848  0.10155508  0.00596303]
[-0.22039101 -0.51647067 -0.16144788]
[-0.27547628 -0.8274886  -0.1564461 ]
[-0.32917917 -0.51872188 -0.13803482]
[-0.24737631 -0.2127742  -0.0279413 ]
[-0.07909217 -0.94667459 -0.35160431]
[ 0.02142285 -0.2464605   0.07555022]
[ 0.09412852 -0.18310843  0.0510202 ]
[ 0.1383266  -0.17067309  0.28156239]
[-0.06469122 -0.00617915  0.16870512]
[ 0.11334816  0.22179881 -0.01432887]
[ 0.18449035  0.29881787  0.11392044]
[-0.0118613   0.2517767   0.17432921]
[-0.33022785 -0.02922026  0.39744526]
[-0.01578074  0.12507877  0.16218708]
[ 0.17456175  0.01084139 -0.15104929]
[ 0.05938726  0.20459673 -0.18449029]
[ 0.08101235 -0.3179377   0.19766167]
[-0.04793937 -0.40690199  0.23739643]
[-0.19359653  0.08212563  0.09275127]
[ 0.00402787 -0.20602003 -0.27010074]
[ 0.06823024  0.04891014 -0.03624162]
[ 0.13112073 -0.10203511 -0.22575808]
[ 0.04873361 -0.33871469 -0.12244769]
[-0.10509796 -0.46417242 -0.06955293]
[-0.18753886  0.15755688  0.29147705]
[ 0.01414143 -0.00604058 -0.05528032]
[ 0.11680987  0.23197147 -0.22218248]
[-0.31172001  0.18062989  0.18095224]
[-0.10701559  0.15900856 -0.24134015]
[ 0.0252739   0.13626857 -0.04093574]
[ 0.01606791  0.31053653  0.08604663]
[ 0.21835771  0.15705377 -0.3315424 ]
[ 0.23153853  0.18802626 -0.15946573]
[ 0.0116442  -0.18571201 -0.03733739]
[ 0.08190119 -0.78784752  0.06118847]
[ 0.01066978 -0.21825597  0.07630526]
[-0.11857776 -0.07572058 -0.14411469]
[ 0.00691963  0.09183858 -0.11894141]
[ 0.01711611 -0.05814066 -0.01540382]
[ 0.00833053  0.10367306 -0.47711655]
[-0.04700498 -0.07083154 -0.53171962]
[-0.05073813 -0.10384543 -0.71970296]
[-0.13067766  0.05027329  0.0354835 ]
[-0.18214095  0.02897806  0.02798361]
[-0.26658738  0.02185084  0.09856396]
[-0.13678813 -0.04188213  0.00593043]
[ 0.03322681  0.10815569  0.13080357]
[-0.04039334  0.10862921 -0.045142  ]
[-0.05771028 -0.07802445 -1.13400936]
[ 0.0214285   0.04633003 -1.09478283]
[-0.03535143 -0.0192821  -0.93773901]
[-0.42691207  0.03525817  0.03307684]
[-0.20046689  0.02360623 -0.00070109]
[-0.13728079  0.06782968  0.04302915]
[-0.24143703  0.05471158  0.00191131]
[-0.3043645   0.05172715  0.01864513]
[-0.45758826  0.04946614  0.05996131]
[ 0.37340108  0.12926671 -0.99296278]
[ 0.03292722 -0.18855228 -0.97991604]
[ 0.00388448 -0.00437818 -0.47166234]
[-0.23381025 -0.26165    -0.07800397]
[ 0.21078902 -0.01031301 -0.15826872]
[ 0.13003322  0.02024131 -0.08131127]
[-0.04280285 -0.07836758 -0.33468533]
[-0.0167621   0.02567711 -0.22624063]
[-0.01453608 -0.02592623 -0.62321001]
[-0.06979043 -0.23364371 -0.01494647]
[-0.36867428 -0.13172033  0.07711878]
[ 0.12930119  0.01862978  0.0781498 ]
[-0.52776933 -0.01269618  0.01773805]
[-0.269591    0.00704495  0.03431943]
[-0.1396865  -0.00897433  0.07943377]
[ 0.00423455 -0.01219119 -0.05041167]
[ 0.05797539 -0.05411637  0.06933047]
[-0.06002397  0.04259484 -0.03719711]
[ 0.46565005 -0.1474302  -0.83784568]
[ 0.02090264 -0.47488222 -0.68581676]
[ 0.12746993 -0.023554   -0.36992544]
[-0.35179055  0.06387897  0.07506566]
[-0.56350797 -0.03857443 -0.01130881]
[-0.6757983  -0.03946515  0.12745513]
[ 0.41290742 -0.00630806 -0.10422876]
[ 0.24474934  0.10983097  0.14576124]
[ 0.35552627  0.16267006  0.11957861]
[ 0.09553391  0.13386059 -0.7267319 ]
[ 0.02292131 -0.13593775 -0.475701  ]
[-0.06418859 -0.15635471 -0.51863205]
[-0.0904866  -0.25584707 -0.34774035]
[ 0.08209185  0.00711315 -0.33321071]
[ 0.01831979  0.0632676  -0.26322016]
[ 0.08193348  0.09877486  0.17205383]
[ 0.11787125  0.14170696 -0.0942926 ]
[ 0.16285832  0.07389069 -0.20879677]
[-0.39859542 -0.13881892  0.18583037]
[ 0.13970405 -0.08052128  0.06409314]
[ 0.11768963  0.06617425  0.03457344]
[ 0.31231916 -0.24620153 -0.19973181]
[-0.09669733 -0.28082702 -0.08118112]
[ 0.14507589  0.05538785 -0.02183966]
[-0.15283546 -0.12590942  0.03797621]
[-0.36316404 -0.17702606  0.09645243]
[-0.27703246 -0.04805845  0.23717052]
[ 0.05986136  0.01320428 -0.02297403]
[ 0.12217819  0.04567056  0.05140517]
[ 0.1138865   0.05100863  0.08242101]
[-0.48741901 -0.14853422  0.05495475]
[-0.13560739 -0.01528674  0.01229419]
[-0.08499905 -0.05361096  0.11049997]
[-0.07149699 -0.06978073 -0.08066353]
[ 0.07641076 -0.07226646  0.31318721]
[ 0.02630347 -0.2056528   0.23858799]
[-0.15465818  0.00116832  0.05765158]
[-0.09490932  0.02823156  0.09301411]
[ 0.0938247   0.00733274  0.06591737]
[-0.31700352 -0.16861722  0.09602232]
[ 0.05860304 -0.07474492  0.0172162 ]
[ 0.0665765  -0.03119238  0.02787649]
[ 0.03335499 -0.09575851  0.28837034]
[ 0.03318076 -0.18033722  0.24612711]
[ 0.0179736  -0.11894251  0.27816114]
[-0.09785733 -0.03809522  0.10446486]
[ 0.04531431  0.02406916  0.15980729]
[-0.08016773 -0.06039878  0.05553399]
[-0.4075394  -0.55129945 -0.6851486 ]
[ 0.02884789 -0.2551814  -0.72590673]
[ 0.0650411  -0.18055966 -0.42371309]
[-0.24700467 -0.39528814 -0.03311537]
[ 0.02036309 -0.16525352 -0.03573422]
[ 0.08977455 -0.10417203 -0.04878266]
[ 0.18380101  0.09251816  0.04805947]
[ 0.31334502  0.03105981  0.06071709]
[-0.04395321  0.10066886  0.13106966]
[ 0.08081815 -0.0160081  -0.34420669]
[ 0.10671486  0.04838927 -0.30737099]
[ 0.05872441  0.09484883 -0.15024312]
[ 0.04837345  0.04444328  0.2511701 ]
[ 0.03869762 -0.02887895  0.04663581]
[-0.06894974 -0.07451791 -0.77012789]
[ 0.0265671  -0.076069    0.04990505]
[-0.00856356 -0.07285319  0.03803313]
[-0.11115574 -0.02889663  0.01867852]
[-0.06479793 -0.03968852  0.10890564]
[ 0.00585037 -0.05622784  0.04829992]
[-0.02742703 -0.01671839  0.17095445]
[ 0.04300154  0.06621084 -0.42847577]
[ 0.05507819  0.0124907  -0.3258    ]
[ 0.00194991  0.04420442 -0.81957346]
[ 0.0364247  -0.05035139  0.04231684]
[ 0.06548372  0.03452732  0.01435763]
[-0.04834614 -0.01045933  0.01872174]
[ 0.09245717 -0.04435615  0.04625895]
[ 0.0733684  -0.20250621  0.0117906 ]
[-0.07377663 -0.24709474 -0.01337121]
[ 0.08459552  0.10262796 -0.55357194]
[ 0.00649773 -0.04339977 -0.89107347]
[-0.13093498 -0.0281015  -0.65859103]
[ 0.03206596 -0.0900709  -0.10742167]
[ 0.05040434  0.06808667 -0.10411439]
[ 0.12428659  0.04457343 -0.17690511]
[ 0.01350826  0.03121749  0.21659538]
[ 0.02742609  0.00105365  0.40018669]
[-0.00690124  0.01415897  0.02893591]
[-0.04430055 -0.35000134 -0.0579727 ]
[-0.15964895 -0.28501034  0.02268042]
[-0.03861522  0.01321656  0.1993577 ]
[ 0.03352417  0.05689218 -0.00325307]
[ 0.15760902  0.19617353  0.01616585]
[-0.07565672  0.10913246  0.04331694]
[-0.02052059  0.03839278  0.01599058]
[ 0.01087914  0.07739626  0.07888482]
[ 0.07762644 -0.04934943  0.05021214]
[ 0.1054579   0.07248534 -0.83013803]
[-0.22202502 -0.22358145 -1.06723893]
[-0.12207505 -0.09921891 -0.37691349]
[ 0.13512276 -0.30913284  0.05958983]
[ 0.06626739 -0.42721602 -0.00068295]
[-0.02617042 -0.51897353  0.02087269]
[ 0.1402452   0.10600453 -0.06332473]
[-0.18386801 -0.16921794 -0.05555695]
[ 0.18087214  0.13297118  0.05552275]
[ 0.05872682  0.09264199 -0.64166915]
[ 0.0953855   0.08528768 -0.88622665]
[-0.08146712 -0.0354977  -1.33747184]
[ 0.00968389 -0.02072303 -0.49242148]
[ 0.06496634  0.01482679 -0.32039747]
[ 0.01459682  0.13843258 -0.59820145]
[-0.13343696 -0.13705607  0.04338072]
[-0.19129717 -0.09448826  0.05277839]
[-0.0507746  -0.04541638 -0.20661123]
[-0.47041476 -0.38327736  0.02541637]
[ 0.06745086  0.04684546 -0.01977075]
[ 0.04429982  0.02135289 -0.17857213]
[ 0.03910809 -0.05842802 -0.21754207]
[-0.2664369  -0.49863133 -0.19851342]
[ 0.05468936  0.01157576  0.0247525 ]
[-0.05888952 -0.33115005 -0.17712443]
[ 0.00233138 -0.18609279 -0.16611896]
[ 0.01326731 -0.15814808 -0.20425284]
[-0.02656514 -0.16943598  0.0286903 ]
[-0.10479943  0.07878258  0.03950259]
[-0.10566002  0.015053    0.09160318]
[ 0.07641675  0.0616982  -0.09667008]
[ 0.23365179  0.16211915 -0.02716816]
[-0.19856341  0.17805041 -0.00660645]
[ 0.07041539  0.26027572 -0.47501561]
[ 0.12379058  0.07429857 -0.42880687]
[-0.0242948  -0.00370859 -0.46235973]
[ 0.10136666 -0.30035019  0.0168909 ]
[ 0.01399378 -0.1804494   0.10158096]
[-0.01653327 -0.14089097  0.0841831 ]
[-0.35516119 -0.57250661 -0.04741363]
[ 0.02042053 -0.05369445 -0.04686055]
[ 0.03426805 -0.03206972 -0.13834384]
[ 0.07261328 -0.00973453  0.07351311]
[ 0.07899795  0.01461274  0.02544661]
[ 0.19172332  0.05138872  0.10081379]
[ 0.0435153   0.04206868 -0.04176075]
[ 0.04114292 -0.03384778  0.01068926]
[-0.01033237 -0.00255979 -0.37251461]
[-0.47133446 -0.35107973 -0.73207724]
[ 0.03140512 -0.00681181 -0.62708962]
[ 0.04098424  0.05147013 -0.50586796]
[ 0.04195742  0.10897691 -0.45502362]
[ 0.10459539  0.02167849 -0.3642956 ]
[ 0.04388493  0.22643384 -0.11024584]
[ 0.04241533  0.08258946  0.07974598]
[ 0.01240206  0.07703716  0.02816581]
[-0.11039342  0.07135478  0.02082658]
[ 0.1276191   0.22443892 -0.32912284]
[-0.02222549  0.18986176 -0.21129106]
[-0.03343088  0.09643293 -0.07293241]
[ 0.0816332   0.14770557 -0.2351312 ]
[ 0.02755525  0.08127543  0.04524213]
[-0.13637011  0.21138565  0.4529863 ]
[ 0.02475088 -0.32589227  0.16482081]
[ 0.03090322 -0.23626164  0.11138076]
[ 0.01744971 -0.04740436 -0.03323942]
[ 0.13862643  0.08074179 -0.50697625]
[-0.07583564  0.0086404  -0.12282335]
[-0.1712029   0.03381915  0.01887621]
[ 0.09831487  0.15246901 -0.27019569]
[-0.0433789   0.05524739 -0.08413217]
[-0.06031212  0.12726003  0.23254065]
[ 0.06248159 -0.15298611  0.1491003 ]
[ 0.04840697 -0.00772463  0.05303143]
[-0.01135765 -0.0986844  -0.07866892]
[ 0.04019814 -0.2164841   0.15455791]
[ 0.06550219  0.08830345  0.11938038]
[-0.02637456  0.30268359 -0.1350048 ]
[-0.07509793  0.17106041 -0.20568258]
[-0.23020796  0.17954311 -0.18003771]
[-0.19608994  0.31493732  0.32393789]
[-0.11217382 -0.06972845  0.0483909 ]
[-0.08136638 -0.05621037 -0.05299803]
[-0.04857196  0.21353984  0.02991895]
[ 0.09676293  0.08750633 -0.20385741]
[ 0.02813786  0.05450723  0.12255201]
[-0.07428977  0.04195756  0.27837306]
[-0.1914327  -0.53767961 -0.02285027]
[-0.36652145 -1.10213733 -0.35018706]
[-0.16288088 -0.31403297 -0.10563476]
[ 0.07699133 -0.18072376  0.06936833]
[ 0.07194861 -0.1568751   0.0661507 ]
[ 0.10306173 -0.13867332 -0.1180701 ]
[-0.06891292  0.06300496  0.00020394]
[ 0.03700208 -0.03224255 -0.04915256]
[ 0.06522238  0.02091264 -0.10211169]
[-0.1516725   0.14082704 -0.34304956]
[-0.51257908  0.10843541 -0.88153929]
[-0.38181779  0.34767047  0.00589436]
[-0.0453928  -0.34183246  0.22690701]
[-0.02260914 -0.23045066  0.15239595]
[ 0.02409972  0.12393904  0.04030677]
[-0.27320468 -0.0838552  -0.17519368]
[-0.41498438 -0.19760728 -0.36381626]
[-0.11645117  0.19006965  0.11848029]
[ 0.25204754  0.2196165  -0.43524075]
[-0.03511564  0.11999658 -0.06528296]
[-0.0140557   0.34422868  0.1758844 ]
[-0.235315    0.10126688 -0.02459129]
[-0.39311001 -0.02373328 -0.06596715]
[-0.14935449  0.01855394  0.11278042]
[-0.58808595 -0.08473493  0.11372136]
[-0.58740336 -0.21210581 -0.02648046]
[-0.44999447 -0.22562651  0.15303336]
[-0.21914661 -0.20213602  0.28446946]
[-0.29363498 -0.94687718  0.01274955]
[ 0.15821679 -0.1132869   0.03013772]
[-0.17122778 -0.11577169 -0.19989388]
[-0.56233108 -0.26436371 -0.63951308]
[-0.34730518  0.05436402  0.0143135 ]
[-0.01850401 -0.32144663  0.29524592]
[-0.15157905 -0.70965463  0.16663839]
[ 0.18540755  0.0041013   0.06478812]
[-0.02999476 -0.39202872  0.07640222]
[-0.06208302 -0.69330937  0.02130005]
[ 0.07797774 -0.47078529 -0.02404309]
[ 0.13204788  0.02526412  0.00785002]
[ 0.09569395 -0.05104789 -0.13792628]
[ 0.18016858 -0.20171101 -0.13107459]
[ 0.31656876  0.31970426 -0.35198164]
[ 0.07597272  0.27219573 -0.20786925]
[-0.04135955  0.46147874  0.08096682]
[-0.03459509 -0.3664054   0.06792437]
[-0.05267375 -0.44998097 -0.07732587]
[ 0.02975602 -0.19153152 -0.17682111]
[-0.28502318 -0.29022124  0.26797345]
[-0.31737357 -0.96842235  0.04816736]
[ 0.11359575 -0.14003909  0.0679813 ]
[-0.04102873 -0.19386531  0.07385765]
[ 0.0602247  -0.25793907 -0.11802603]
[ 0.18616781 -0.13405941 -0.31545341]
[ 0.16811089  0.1810741  -0.41593915]
[ 0.02934035  0.03763353 -0.00692699]
[-0.00774394  0.11918711  0.25993252]
[-0.4786112  -0.24153507 -0.05255252]
[-0.81044251 -0.7463733  -0.40026614]
[-0.0836105  -0.15258378 -0.04775417]
[ 0.05896916  0.08813101 -0.16137496]
[-0.24845636  0.0320944  -0.25705856]
[-0.04261407  0.09380455 -0.0559321 ]
[ 0.07693632 -0.09089307  0.2329374 ]
[ 0.17387851 -0.09034931  0.18524104]
[ 0.06259302 -0.16963471 -0.00907223]
[ 0.08677187  0.09406175 -0.18728615]
[-0.10579015 -0.06311878 -0.07656781]
[-0.10444406  0.00875578  0.22454461]
[ 0.11257987 -0.07971038  0.01739901]
[ 0.09908188  0.02415574  0.08292805]
[-0.2349242   0.01899492  0.18626627]
[-0.11761323 -0.15814659 -0.23685984]
[-0.34530872 -0.44533297 -0.28800771]
[-0.07049958 -0.10596384 -0.52967811]
[ 0.07122558  0.04974403 -0.177945  ]
[-0.14539322 -0.08928101 -0.03330895]
[-0.52802402 -0.0511156   0.1928214 ]
[ 0.13666095  0.00945726 -0.07082917]
[ 0.0410613  -0.00274222  0.06709671]
[-0.06012656  0.04143238  0.08464188]
[-0.12275665 -0.16088802 -0.46121258]
[-0.52445394 -0.17316708 -0.19317506]
[-0.43450567 -0.38107088 -0.05533915]
[ 0.01308922 -0.1737074  -0.32903954]
[-0.43884739 -0.48678064 -0.20447248]
